704 20
299 -0.35042632 -0.0008654907 0.14480217 0.22153035 -0.017931262 0.028956553 0.235146 -0.048780445 0.06838318 0.23464486 -0.0902101 -0.15198727 0.027108267 0.26196203 0.23194768 0.30163902 -0.08352449 0.11198574 0.09095533 0.027997319
119 -0.45055577 0.083790466 0.11781637 0.08541625 0.4907205 0.6040215 0.66310024 -0.23137608 -0.33985513 0.06352826 -0.012249667 -0.3701399 -0.17303391 0.65731263 0.0013770157 0.27232772 -0.40456054 -0.1302926 0.30663773 -0.0068132514
114 -0.41649806 0.04546873 0.17760034 -0.012908802 0.519843 0.6869576 0.72677684 -0.23554932 -0.28021148 0.031809285 -0.017475722 -0.32518286 -0.24908309 0.7107491 -0.0029405213 0.3094134 -0.50917 -0.12503015 0.28800946 -0.054273102
49 -0.51577544 0.06844925 0.091156796 -0.03751639 0.56120706 0.64198685 0.7623521 -0.22357666 -0.30867216 0.032539148 -0.041220438 -0.35361525 -0.3002749 0.7272798 0.011597468 0.4069178 -0.41186935 -0.15329131 0.30186442 -0.014744929
51 -0.39018503 0.034449324 0.13778344 0.032723937 0.52908427 0.75288045 0.7896356 -0.26384807 -0.26321363 -0.0030315262 -0.009892103 -0.22803749 -0.30711034 0.7441797 -0.07818825 0.4714625 -0.4252079 -0.12749124 0.28752425 -0.12514493
200 -0.42097655 0.058080006 0.16062233 -0.003571049 0.61127144 0.68311745 0.7687755 -0.23039268 -0.32998982 -0.0060716583 0.05302955 -0.24081959 -0.28719583 0.8014676 -0.04520317 0.39518657 -0.4592865 -0.13830203 0.285455 -0.08429478
157 -0.25835302 0.014946735 0.12770526 -0.027824102 0.5031625 0.76061076 0.8569123 -0.31092972 -0.30498162 -0.086912 -0.052360572 -0.18440458 -0.25272647 0.7484639 -0.021477602 0.46116826 -0.40173006 -0.09800031 0.2798649 -0.044449925
64 -0.30057153 0.018597724 0.18419848 -0.06257775 0.55059195 0.8601934 0.9061215 -0.2380264 -0.31492582 -0.08609344 -0.06533467 -0.07601972 -0.3714467 0.839956 -0.0063508134 0.49818972 -0.42614466 -0.19650052 0.24410687 -0.11172092
98 -0.37556285 0.09137117 0.1761426 -0.042267185 0.5366281 0.8949909 0.8696844 -0.2963354 -0.30539107 -0.12398109 -0.105001576 -0.18436654 -0.3813746 0.8228834 -0.011786065 0.5040984 -0.44073686 -0.16463126 0.2613526 -0.19540365
22 -0.37736225 0.067450464 0.1331849 0.005892277 0.5247774 0.80703115 0.87957925 -0.350165 -0.28471798 -0.0294348 0.052930746 -0.12533039 -0.31225145 0.75582206 -0.04983137 0.4691906 -0.42641866 -0.14092565 0.25412172 -0.11090496
151 -0.33669916 0.010817228 0.13158561 -0.05229724 0.54160696 0.7703417 0.8233511 -0.24267529 -0.28868827 -0.076509684 -0.11898745 -0.14268775 -0.31829384 0.75884837 0.0030446867 0.49282917 -0.41084483 -0.088827886 0.19876446 -0.07271268
251 -0.3290578 0.048688192 0.1745775 0.04227933 0.43918884 0.7650546 0.72691035 -0.23473324 -0.36770046 -0.009921468 -0.034539264 -0.293237 -0.27778694 0.7848547 -0.0064599034 0.3644799 -0.43557188 -0.12618521 0.34151915 -0.082742654
1 -0.38466436 0.0233048 0.20629895 -0.015201986 0.5190542 0.76520747 0.7954061 -0.26273018 -0.23858406 -0.064527735 -0.0799635 -0.11580196 -0.30839077 0.8297466 -0.09297304 0.4777178 -0.30972618 -0.20304394 0.26365638 -0.086964466
28 -0.4045512 0.07900132 0.12172134 -0.06121393 0.5364513 0.8125826 0.8619502 -0.2553393 -0.266307 -0.12603681 -0.055142585 -0.0828142 -0.35400984 0.8482472 -0.025778646 0.4955054 -0.4395039 -0.2244072 0.26697767 -0.1194288
129 -0.3053279 0.06581387 0.1371394 0.030340284 0.49760637 0.9140959 0.8966246 -0.31480032 -0.28573245 -0.06664542 -0.03885369 -0.10146614 -0.4221178 0.8302419 -0.012356785 0.5274498 -0.3910012 -0.1897983 0.24613227 -0.08517559
186 -0.33483475 0.028955685 0.1975536 -0.044903982 0.53343904 0.83019835 0.9196779 -0.25429747 -0.23488979 -0.071486644 -0.10068934 -0.13677183 -0.38827053 0.78655916 -0.080481485 0.51211274 -0.34897348 -0.16590454 0.22397745 -0.06598753
25 -0.30012792 0.043874696 0.19830725 -0.009576292 0.5265142 0.8872504 0.8521913 -0.28497308 -0.2804005 -0.072345525 -0.093822114 -0.10551283 -0.43437585 0.7808249 -0.004738048 0.5989328 -0.481075 -0.16857272 0.19409586 -0.17476413
85 -0.30236182 0.006516651 0.15955658 -0.091026396 0.5987087 0.79027665 0.91104835 -0.2529723 -0.2859326 -0.13838351 -0.08401329 -0.12226279 -0.370158 0.85028565 -0.00089513144 0.4981644 -0.42558882 -0.15040445 0.27626252 -0.0650638
65 -0.3918754 -0.009813228 0.13141707 -0.018237703 0.58674496 0.82227993 0.8229755 -0.33760446 -0.2547317 -0.078729205 -0.066180915 -0.106526054 -0.33722037 0.83734363 -0.027610628 0.5843887 -0.46970722 -0.18923303 0.23484874 -0.10669647
62 -0.31818682 0.0136550525 0.17332439 -0.09722445 0.49980065 0.84250957 0.9677885 -0.26452327 -0.253885 -0.1527312 -0.100154646 -0.13807723 -0.36502078 0.7941588 -0.06526693 0.5593031 -0.40591618 -0.14430843 0.18507896 -0.09315414
275 -0.37890851 0.054148085 0.13855532 -0.016825462 0.54905593 0.798248 0.8637343 -0.29606602 -0.26837757 -0.101903245 -0.14093623 -0.2200912 -0.3569719 0.7731256 -0.043406717 0.5471783 -0.31935394 -0.2223785 0.2792357 -0.17502056
173 -0.32935718 0.027047893 0.1911112 -0.10882355 0.5142709 0.8114505 0.8742665 -0.28837708 -0.27975526 -0.1363052 -0.15237004 -0.10473071 -0.35951805 0.82119066 -0.026033927 0.5834673 -0.42375168 -0.15265827 0.1596596 -0.056972753
180 -0.32539487 -0.043071114 0.18358888 0.006148047 0.5232575 0.82336223 0.8862183 -0.29824787 -0.31753588 -0.08944997 -0.16448893 -0.1440269 -0.40648624 0.82223976 -0.06148497 0.5699946 -0.3830876 -0.19581833 0.3388215 -0.11613301
282 -0.3588414 0.043588273 0.11566856 -0.017666776 0.49816462 0.8712336 0.86797225 -0.32897392 -0.24028976 -0.12343873 -0.111832716 -0.19862033 -0.34934324 0.8124689 -0.051325236 0.5165103 -0.4111342 -0.1738783 0.20772295 -0.08079273
7 -0.36390954 0.0074105025 0.08553492 -0.022762833 0.53550917 0.850828 0.8551096 -0.2975604 -0.24048539 -0.16010036 -0.121583514 -0.12430015 -0.3862112 0.80644304 0.035923924 0.522154 -0.38434747 -0.14153932 0.20453684 -0.104992345
68 -0.32174096 0.04245056 0.14908417 -0.09562461 0.52061963 0.8466455 0.85912454 -0.32876647 -0.25473896 -0.03718597 -0.12157357 -0.076291434 -0.41688633 0.7765412 -0.0017634798 0.6332582 -0.41277504 -0.1444494 0.21667992 -0.12996645
19 -0.32952684 0.038287375 0.16755566 -0.070768155 0.5332063 0.8224761 0.87008816 -0.26088175 -0.23569717 -0.13337143 -0.13142556 -0.053523347 -0.3624662 0.7970995 -0.06273945 0.5368164 -0.39156199 -0.14040731 0.21898232 -0.13042988
133 -0.26828277 0.0662238 0.18550912 -0.0799453 0.51883507 0.88433725 0.89296794 -0.24749139 -0.2862207 -0.10476626 -0.118817665 -0.17739028 -0.41930807 0.87503314 -0.03782751 0.48641816 -0.40680966 -0.10116937 0.292933 -0.034042835
14 -0.3488792 0.04837003 0.13227887 -0.101912804 0.5206833 0.8934111 0.90273845 -0.2589797 -0.22578259 -0.10157388 -0.08865223 -0.09484141 -0.41315472 0.84619176 -0.054929998 0.60843015 -0.42692664 -0.142324 0.1814212 -0.13715105
57 -0.29710096 0.013879546 0.19930933 -0.07729966 0.52468634 0.77433246 0.85398257 -0.29195353 -0.23023741 -0.11748252 -0.1333756 -0.13033594 -0.40680435 0.8287356 -0.024543548 0.50497586 -0.40784195 -0.19835347 0.25653195 -0.05126569
106 -0.312295 0.06603619 0.17593692 -0.048699044 0.57207924 0.8496825 0.8973854 -0.29165152 -0.2875601 -0.14713328 -0.02524444 -0.11918287 -0.32079723 0.8473378 0.008838971 0.48349106 -0.41848874 -0.17758568 0.22768262 -0.10084931
90 -0.29696578 0.019367771 0.18273549 -0.046336956 0.534574 0.8829182 0.9723636 -0.28905016 -0.36422706 -0.08173632 -0.14054996 -0.0912905 -0.38040638 0.8311796 -0.065781765 0.5099876 -0.46181136 -0.17144254 0.24736096 -0.09443589
54 -0.4066039 0.028079515 0.1622586 -0.06467852 0.51246125 0.83142316 0.9109452 -0.25656128 -0.25971973 -0.07753058 -0.112258114 -0.123635374 -0.4084925 0.80912495 -0.04409659 0.52252245 -0.3088407 -0.22526437 0.30245942 -0.14741477
32 -0.31739372 0.068994075 0.15189861 -0.011047693 0.5382196 0.8140656 0.8910997 -0.26230395 -0.3057478 -0.09894446 -0.09214232 -0.054096363 -0.39690083 0.8068018 -0.07238381 0.53631306 -0.40407363 -0.1846039 0.26527205 -0.104469955
86 -0.33485898 0.014047949 0.07356538 -0.0040702415 0.5673397 0.90257096 0.9037979 -0.31668478 -0.31601322 -0.19518045 -0.09197502 -0.12949172 -0.32828298 0.91239804 0.012982756 0.5415192 -0.3949909 -0.21818508 0.25302684 -0.08944675
17 -0.31808493 0.039858274 0.1719354 -0.04189986 0.5883546 0.80828184 0.9092669 -0.27383086 -0.25529283 -0.09403183 -0.110231586 -0.0842902 -0.42965347 0.82476944 -0.077712715 0.5276827 -0.34577274 -0.14433537 0.23116529 -0.117122576
124 -0.4101675 0.0039180727 0.2272819 0.00605517 0.51956666 0.8367372 0.92449874 -0.30242202 -0.25833482 -0.12068932 -0.16235219 -0.1305558 -0.4340061 0.7375898 -0.05560976 0.561196 -0.36530328 -0.2026703 0.26322454 -0.14227751
207 -0.3903791 0.09265585 0.13222274 -0.034817334 0.52908695 0.8170332 0.83737165 -0.34611884 -0.26358443 -0.16817692 -0.10094388 -0.07091165 -0.45010877 0.8313065 -0.011830955 0.5615306 -0.44440615 -0.188759 0.2363202 -0.19633318
150 -0.39779773 -0.0060692634 0.1531095 -0.021241175 0.55828434 0.8727009 0.90586114 -0.2916994 -0.26037547 -0.120048136 -0.05981702 -0.1553937 -0.39145735 0.8051541 0.0016670316 0.5639709 -0.38514197 -0.14962564 0.26844326 -0.11664945
47 -0.33031863 0.042003617 0.14122404 -0.0071449117 0.52759886 0.7866222 0.8464815 -0.3173702 -0.29043436 -0.11691615 -0.07080111 -0.06186831 -0.32095367 0.8150148 -0.080128655 0.54611534 -0.34270427 -0.13579448 0.10963353 -0.10891775
63 -0.32136148 0.03552106 0.18155597 -0.06895934 0.4908042 0.8381986 0.89500254 -0.2762468 -0.28341064 -0.13406003 -0.03395264 -0.0745747 -0.36572307 0.8337572 -0.0007706312 0.5303355 -0.32037517 -0.18448912 0.1763711 -0.13802539
21 -0.28344184 0.08449221 0.2535997 -0.03106044 0.5892244 0.76916695 0.8700841 -0.36486876 -0.26043808 -0.12153023 -0.068436965 -0.13093963 -0.3194555 0.7863339 -0.062421907 0.5120532 -0.35702136 -0.15344037 0.20724867 -0.08634769
16 -0.33181515 0.12689857 0.115917176 -0.027730528 0.6051471 0.8506278 0.89864826 -0.24953654 -0.26266584 -0.095227346 -0.07992295 -0.11653346 -0.38672692 0.81470555 -0.0820618 0.5994293 -0.3994658 -0.16391607 0.27334628 -0.09406383
71 -0.27214265 -0.048308548 0.17794977 -0.10749291 0.42138004 0.76114017 0.8446065 -0.29421055 -0.27109343 -0.07278446 -0.06736257 0.0077751223 -0.34578213 0.8394125 -0.020275457 0.48402163 -0.3987195 -0.1522193 0.13748804 -0.09080368
243 -0.3496148 -0.017938035 0.15019031 -0.04108804 0.4936507 0.81040573 0.9077808 -0.24432899 -0.20884262 -0.02059918 0.019003276 -0.113317244 -0.35294497 0.7680825 -0.11796874 0.56964254 -0.40911523 -0.18108469 0.25449553 -0.106980026
2 -0.38259068 -0.04636196 0.13755411 -0.00651204 0.49169067 0.77661455 0.76843846 -0.26114723 -0.23884754 0.038686786 -0.10293351 -0.11734898 -0.35259104 0.75701106 0.008035971 0.43244904 -0.39447966 -0.13259928 0.212511 0.030836396
265 -0.30907357 0.026678497 0.23374651 -0.00480367 0.5781193 0.863768 0.82073486 -0.23578371 -0.30984253 -0.057826463 -0.04377724 -0.17381437 -0.30613223 0.7616644 0.011007947 0.526987 -0.4317431 -0.09323961 0.15425149 -0.13862218
125 -0.31116086 0.04624021 0.2036342 0.040196538 0.5943575 0.79257 0.87131107 -0.26253092 -0.305154 -0.11341323 -0.14570072 -0.15365799 -0.37626407 0.72903156 -0.042943 0.56265223 -0.36477682 -0.18659921 0.1846013 -0.085664526
153 -0.31039178 -0.01845637 0.25738987 0.0003292339 0.49583396 0.86488307 0.7745582 -0.27739185 -0.3246097 -0.006146764 -0.07454803 -0.10494258 -0.33938682 0.85929555 -0.04425279 0.59772795 -0.46296072 -0.21947552 0.2155718 -0.15892567
206 -0.3872834 -0.04046573 0.17650944 0.039208334 0.43669534 0.8921713 0.972951 -0.27282628 -0.16892788 -0.16097188 -0.03876632 -0.12557456 -0.2952022 0.65625036 -0.075444564 0.5342811 -0.35672963 -0.21929932 0.23093523 -0.18072842
464 0.24276036 0.30704817 -0.036806893 0.7005622 -0.3433002 -0.32099444 0.8818154 0.082978584 0.6529235 0.3339765 -0.5853736 0.4109458 0.6269338 0.64575994 0.4254892 0.15881343 -0.21933469 0.31173393 -0.31961542 -0.29562718
489 0.22830868 0.34431747 -0.035453513 0.7313553 -0.33247346 -0.3406899 0.76026607 0.116214044 0.6146823 0.37051442 -0.56197935 0.37011418 0.5884859 0.64109105 0.46046466 0.17285909 -0.3101349 0.31744292 -0.27770874 -0.3230064
131 -0.3327016 0.078332126 0.20602927 -0.04357669 0.55787355 0.8447623 0.90626484 -0.3168879 -0.2545393 -0.07366645 -0.08987492 -0.03585232 -0.4327065 0.7827359 -0.100132205 0.54962415 -0.41743416 -0.13340543 0.2513738 -0.08996637
288 -0.30599234 -0.108499125 0.13629436 0.002643049 0.5009776 0.8941363 0.9081233 -0.18238182 -0.2832873 -0.040887486 -0.037658144 -0.16661072 -0.29582077 0.7617448 -0.031882364 0.45456812 -0.49962613 -0.08197321 0.26740628 -0.023174576
92 -0.35554302 -0.049159795 0.19888365 0.019310376 0.51618844 0.88247526 0.89596045 -0.31162205 -0.31480688 -0.09169985 -0.0791281 -0.22345814 -0.34553602 0.82725626 -0.033501957 0.6256894 -0.34815183 -0.20004952 0.18331377 -0.12698205
39 -0.31676236 0.06611786 0.23802161 0.0049463175 0.66506976 0.8668627 0.90629447 -0.33226708 -0.28305414 -0.04927587 -0.1124189 -0.14131784 -0.35327563 0.83879936 -0.07577017 0.53167117 -0.34926924 -0.24216802 0.2282591 -0.05478516
203 -0.29997292 -0.0010285025 0.16839439 0.049678642 0.50609356 0.8919409 0.9184913 -0.32752725 -0.28602582 -0.084820434 -0.041300017 -0.17592837 -0.36794627 0.77620417 -0.0222053 0.54599744 -0.45907915 -0.19020022 0.12533991 -0.08203604
639 0.20168819 0.3214047 -0.1150507 0.6568015 -0.28543633 -0.3717245 0.72719836 0.22808576 0.5849478 0.34355202 -0.5508788 0.35708803 0.5552581 0.66765654 0.37282348 0.16305815 -0.3178607 0.2772371 -0.22333443 -0.28352615
460 0.23362891 0.30814806 -0.08851498 0.6354691 -0.33516496 -0.31401262 0.774077 0.15834127 0.586726 0.34196258 -0.50352424 0.39875394 0.58250827 0.6204428 0.40439484 0.24307166 -0.29558378 0.25534996 -0.2314242 -0.32685772
465 0.21918522 0.30386904 -0.077413686 0.60394937 -0.3017318 -0.31150422 0.7632615 0.13997884 0.6052058 0.3474564 -0.54298234 0.2949499 0.6210406 0.5755157 0.4039594 0.18497513 -0.25971895 0.3175827 -0.17328012 -0.3027044
513 0.24294545 0.32102633 -0.05824249 0.63198584 -0.29523513 -0.2775048 0.769815 0.22195521 0.6721316 0.28871942 -0.5754172 0.42814475 0.5860903 0.67176247 0.4464096 0.24566169 -0.3104427 0.31607524 -0.2998277 -0.33810204
470 0.21745035 0.29367843 -0.019712204 0.61033905 -0.29537776 -0.29135975 0.7737543 0.11909031 0.60024494 0.3017063 -0.49381799 0.41187543 0.5486652 0.5896066 0.3667606 0.21220192 -0.23488645 0.18292226 -0.2679259 -0.32355303
659 0.17679004 0.37592632 -0.07805594 0.616787 -0.30530095 -0.31884572 0.79021215 0.1085011 0.60574436 0.37828985 -0.634511 0.4650026 0.5554035 0.63576144 0.4080606 0.18582867 -0.20224649 0.30058092 -0.25943756 -0.28379726
515 0.19212934 0.32491466 -0.09655797 0.61780185 -0.33581743 -0.23474652 0.7692776 0.15318097 0.65940577 0.3553085 -0.47165012 0.49748266 0.5507238 0.6482483 0.45476773 0.2547029 -0.2750754 0.1862807 -0.3176602 -0.32713446
703 0.22146139 0.3652844 -0.043429647 0.6137695 -0.29809186 -0.22668089 0.76504123 0.100017846 0.6292516 0.35339996 -0.51921636 0.43299493 0.5886839 0.6157823 0.3832749 0.19944417 -0.20754725 0.25482607 -0.26596984 -0.27284053
697 0.2582737 0.3169464 -0.0097400565 0.66422695 -0.3030582 -0.31935737 0.8048686 0.15234761 0.69748497 0.34523603 -0.6202342 0.44873568 0.58862484 0.6801677 0.4237097 0.2422066 -0.22029275 0.23729551 -0.30141643 -0.31281328
477 0.25368702 0.26209217 -0.02325675 0.6684762 -0.3432929 -0.21930635 0.8278086 0.12295324 0.587393 0.37888178 -0.50617284 0.4837412 0.60532963 0.6418338 0.4300187 0.22269216 -0.20617492 0.31967166 -0.3292138 -0.31227508
685 0.19064815 0.36845967 -0.062633395 0.61584383 -0.3885505 -0.31409636 0.7800229 0.11931497 0.6263747 0.28521717 -0.5620192 0.38210085 0.62584823 0.6402035 0.40339968 0.25218698 -0.23135477 0.28951147 -0.22963513 -0.31534833
517 0.21352938 0.38529783 -0.09017313 0.6755933 -0.34593573 -0.28415203 0.8071426 0.14863284 0.6226992 0.34153557 -0.5905256 0.4834247 0.55285406 0.6584669 0.3830074 0.23491485 -0.21869521 0.2506787 -0.27841127 -0.3198344
466 0.21356739 0.37269133 -0.093612954 0.6635375 -0.2742377 -0.3452343 0.76670086 0.1368132 0.64608043 0.35919377 -0.5948264 0.4608592 0.5770912 0.7102059 0.43549868 0.14497118 -0.2950036 0.2884654 -0.2733427 -0.3593186
627 0.24444108 0.37167335 -0.06843558 0.6436947 -0.31502438 -0.3413766 0.7868284 0.09123193 0.6817851 0.3772565 -0.48317042 0.37741914 0.58680046 0.64339167 0.41436806 0.23522289 -0.30745238 0.2385149 -0.30033317 -0.33542603
476 0.27999443 0.2882307 -0.058886636 0.6903667 -0.27913266 -0.23777743 0.76192373 0.13415724 0.5898986 0.27258515 -0.49124664 0.4125329 0.56739616 0.6532409 0.41004094 0.21941787 -0.20407976 0.29347476 -0.2700772 -0.34921306
524 0.24851368 0.39753202 -0.10302768 0.62852514 -0.28552064 -0.28635693 0.7702435 0.07171349 0.6168496 0.31519586 -0.5261753 0.45594376 0.61552775 0.69754225 0.47946393 0.22007556 -0.25595894 0.31977502 -0.28002188 -0.2994798
471 0.2634088 0.32899013 -0.06057895 0.6901955 -0.2946034 -0.30205598 0.8237973 0.1599641 0.6727285 0.26780716 -0.52078855 0.51894563 0.56705964 0.61811274 0.4672436 0.23150682 -0.30613008 0.24460718 -0.25938085 -0.3910848
496 0.19911988 0.24903393 -0.09119189 0.5903657 -0.33768377 -0.28019387 0.79224294 -0.048804663 0.5683888 0.3512906 -0.4823231 0.46908647 0.5753538 0.6634279 0.4432394 0.20884837 -0.29352444 0.32038188 -0.35120276 -0.3960496
495 0.28777295 0.3401383 -0.0072633647 0.62558025 -0.2779022 -0.30058044 0.7823728 0.03986624 0.60808724 0.2196112 -0.53642535 0.48478943 0.58927554 0.6270441 0.44320872 0.23369485 -0.26346177 0.26971862 -0.2543708 -0.3468653
475 0.20698756 0.3646063 -0.012657882 0.5770936 -0.31748918 -0.34768465 0.83850646 0.12817481 0.6148354 0.26978722 -0.5867257 0.4417084 0.6076043 0.6165135 0.4210553 0.21393333 -0.2468325 0.20053077 -0.2737474 -0.28525364
472 0.1901544 0.28332528 -0.09591306 0.69357485 -0.22895008 -0.36037675 0.80072826 0.038115386 0.73381793 0.22832438 -0.4828084 0.52069867 0.562557 0.71735036 0.4202899 0.20386991 -0.2598904 0.22966576 -0.3611211 -0.34469792
633 0.26863 0.2620368 -0.08343346 0.70707667 -0.311316 -0.28380778 0.832462 0.14107062 0.55739397 0.35533613 -0.56741506 0.4612186 0.57797563 0.64914316 0.43150884 0.22047424 -0.19502905 0.30433673 -0.27458516 -0.3267181
642 0.2518959 0.30067793 -0.07227445 0.64853984 -0.27000433 -0.29959396 0.80298746 0.15697342 0.6187679 0.28204668 -0.57309014 0.44520015 0.5340616 0.6631098 0.3986152 0.20030746 -0.2714376 0.23959869 -0.364455 -0.32174578
643 0.30880228 0.3076064 -0.036664344 0.7345726 -0.32562658 -0.34612265 0.8448503 0.07706986 0.5558671 0.27379707 -0.55842704 0.45583203 0.62482655 0.5988113 0.33839315 0.26779324 -0.30000043 0.26198477 -0.22927482 -0.37331164
523 0.26630473 0.30614272 -0.02156587 0.7002324 -0.2391832 -0.27389348 0.7679006 0.1278678 0.69788414 0.34555966 -0.57783747 0.4595195 0.4852794 0.616816 0.46358418 0.2271341 -0.24458434 0.28513926 -0.31082293 -0.2566495
164 -0.2655295 0.020913405 0.2443415 -0.0344984 0.42555264 0.89421535 0.8460942 -0.25575814 -0.22118638 -0.03645502 -0.042489436 -0.09520632 -0.3778258 0.7901776 -0.102082744 0.5814792 -0.42932695 -0.14079037 0.14887086 -0.1310746
628 0.21477026 0.2814099 0.027616391 0.6828132 -0.23561104 -0.30341035 0.7992454 0.122205146 0.6419659 0.3620555 -0.5021532 0.53865796 0.672267 0.642892 0.47181123 0.26634896 -0.23181443 0.25190634 -0.31441554 -0.3412753
493 0.21764223 0.27836967 -0.039156303 0.6750176 -0.28850627 -0.30885088 0.76740634 0.10747649 0.62886447 0.35757324 -0.5674664 0.4043486 0.54549515 0.66243607 0.4567806 0.15269722 -0.28971192 0.35499412 -0.36465266 -0.35320777
461 0.28079343 0.42648935 -0.07840894 0.6823578 -0.30982053 -0.33387852 0.7732302 0.10177267 0.6422271 0.3385223 -0.6166214 0.47366887 0.5538131 0.6909777 0.41702056 0.20962535 -0.2896176 0.21135391 -0.24172193 -0.30078772
483 0.20030569 0.37310272 -0.055539824 0.6832253 -0.25997004 -0.27336192 0.74598205 0.0801367 0.6188304 0.2525466 -0.49832985 0.43709582 0.67072445 0.69744 0.44381225 0.18726164 -0.14467731 0.28309274 -0.24955311 -0.29559067
274 -0.4319858 -0.03764999 0.19704635 -0.04423071 0.5192083 0.77999735 0.83193266 -0.22989422 -0.3309694 0.01210659 -0.025225101 -0.06535301 -0.3781219 0.83065367 -0.04168774 0.56376565 -0.3644133 -0.20236605 0.20131178 -0.19402345
684 0.14650917 0.31442305 -0.08496938 0.57791054 -0.33106333 -0.25813326 0.78538746 0.10791415 0.6786061 0.30872416 -0.55283546 0.4404004 0.6020289 0.64250165 0.42470083 0.21300657 -0.24816804 0.2701624 -0.32554576 -0.38951173
138 -0.33532166 -0.021505333 0.20889874 0.015161044 0.42650712 0.821474 0.8860646 -0.30778137 -0.30230033 -0.13831054 -0.015035176 -0.14802448 -0.3955035 0.77739507 -0.047884952 0.5330528 -0.36511493 -0.09578821 0.23203628 -0.22093457
502 0.2289181 0.37245277 -0.108490765 0.66850406 -0.214944 -0.273407 0.78159165 0.12822336 0.7109769 0.40860805 -0.5288483 0.5112362 0.5656251 0.5978288 0.44440636 0.28128168 -0.29070404 0.30436063 -0.27428138 -0.30442455
692 0.25077343 0.36226213 -0.122921616 0.58192956 -0.33304933 -0.30311212 0.77592254 0.104910046 0.5942424 0.34919488 -0.51848054 0.36959675 0.52558595 0.57852006 0.4788482 0.23404574 -0.25049943 0.28928784 -0.1586212 -0.3049534
529 0.24554268 0.36057538 -0.057835527 0.62766266 -0.2382514 -0.26479512 0.7117102 0.10241422 0.6289856 0.318142 -0.61979455 0.4808901 0.5467455 0.63348293 0.49166185 0.2863687 -0.25592393 0.2816445 -0.27409765 -0.26524064
694 0.21617182 0.23314697 0.0018390763 0.62134117 -0.3629598 -0.32165962 0.6347101 0.04453812 0.51380396 0.37544873 -0.45577556 0.3126893 0.46919838 0.60027987 0.39584324 0.16068044 -0.27733693 0.40520796 -0.12414918 -0.25775763
617 0.31759527 0.32401168 -0.091775864 0.69066805 -0.31325528 -0.20551814 0.73171383 0.14432985 0.64641696 0.3355047 -0.6064882 0.4633214 0.59717804 0.6787009 0.47051874 0.264265 -0.25606984 0.20401973 -0.22107267 -0.30716282
468 0.25466686 0.35997307 -0.07781694 0.5864415 -0.28357875 -0.22700863 0.7431766 0.060126472 0.6411679 0.2681708 -0.50264704 0.36935964 0.5273049 0.6147533 0.38615978 0.22251508 -0.25405347 0.32254103 -0.2901055 -0.27254394
525 0.23239192 0.30105135 -0.06776364 0.612381 -0.25124395 -0.35272628 0.7755413 0.15615548 0.54271716 0.3855137 -0.46457237 0.37473357 0.56327784 0.63286334 0.4517764 0.24249524 -0.23147929 0.21400467 -0.31132507 -0.21470308
691 0.21220322 0.37915623 -0.14341709 0.6629432 -0.25634292 -0.33801106 0.7574074 0.14719458 0.5295305 0.38112414 -0.57112753 0.3554327 0.5844246 0.68050444 0.43761104 0.1632863 -0.17582993 0.30174065 -0.24914876 -0.28849226
252 -0.32780403 -0.042131256 0.25947574 -0.052196793 0.5738052 0.8733869 0.8479454 -0.14498295 -0.26278642 0.005879581 -0.01702568 -0.032153793 -0.31459138 0.8398826 -0.078511156 0.5725227 -0.34185556 -0.12947531 0.16080613 -0.12108903
688 0.32968524 0.31666374 -0.07145424 0.5857239 -0.3288203 -0.2815999 0.72777164 0.06689397 0.53816444 0.3495219 -0.4401015 0.25986952 0.5119506 0.63122904 0.4412114 0.13982703 -0.260693 0.32332286 -0.16935864 -0.24477166
24 -0.38617456 -0.09909728 0.22647588 -0.113252655 0.5466963 0.8477555 0.90955067 -0.23544404 -0.24953745 0.010106031 -0.16013767 -0.078445554 -0.33763105 0.8391706 -0.12992276 0.50999266 -0.49060997 -0.2353156 0.27383366 -0.017328968
136 -0.39961734 -0.08922501 0.20381832 -0.11528914 0.5273991 0.75087714 0.90476346 -0.27064413 -0.36032057 -0.036696874 -0.09805118 -0.09745222 -0.29847395 0.79541296 -0.06517874 0.50955874 -0.37749177 -0.0759021 0.2554907 -0.07271362
658 0.2555463 0.4158859 -0.02389004 0.66452944 -0.2800619 -0.32683396 0.8459025 0.08896846 0.6270972 0.39981523 -0.525931 0.5064607 0.5735568 0.62930936 0.38759434 0.19705044 -0.19950566 0.3267006 -0.2716842 -0.30875453
161 -0.39926088 -0.092560835 0.16191223 0.01928101 0.4469885 0.84647506 0.9365223 -0.32924616 -0.31624174 -0.06848407 -0.12341281 -0.18916874 -0.27075416 0.73050135 -0.12660776 0.5627518 -0.33355358 -0.1760475 0.14371552 -0.15395811
137 -0.32672477 0.12224522 0.15258169 0.02586269 0.50298464 0.97343636 0.8251313 -0.3458953 -0.2586186 -0.10510345 0.025603602 -0.17666784 -0.47571754 0.92924064 -0.03480362 0.6139445 -0.49517974 -0.2032743 0.20200801 -0.23549423
695 0.2777211 0.3476663 -0.11768819 0.59134287 -0.3598501 -0.24025762 0.77527773 0.1299104 0.6214294 0.30667138 -0.4916479 0.45408583 0.6028485 0.60148275 0.43097875 0.3319836 -0.30442563 0.23265338 -0.19366215 -0.32250363
490 0.2081415 0.28069016 -0.0007523393 0.6428266 -0.31530747 -0.34060004 0.71632314 0.08350057 0.57097393 0.3172838 -0.4781124 0.53916043 0.43209684 0.62620884 0.42557675 0.20931317 -0.34375644 0.31406257 -0.26754525 -0.25826278
294 -0.33888277 -0.0504568 0.24872012 0.057045925 0.4111261 0.97552127 0.9200571 -0.2729152 -0.33622208 0.010459517 -0.054525558 -0.0907561 -0.30319116 0.7376412 -0.12333713 0.6015424 -0.2778436 -0.13089545 0.21564029 -0.24097005
74 -0.38099635 0.055944953 0.15776064 -0.12985064 0.48900202 0.8835657 0.772338 -0.28918967 -0.17898577 -0.013517106 -0.27559036 -0.17424445 -0.34134796 0.75013524 -0.07005525 0.53489983 -0.51417613 -0.19342129 0.28717035 -0.083661534
278 -0.33703038 -0.0967965 0.17277059 0.026867002 0.5196061 0.85271937 0.81685746 -0.18776982 -0.14267382 -0.03084709 0.024288429 -0.090512894 -0.30493537 0.8919851 -0.22154471 0.5650454 -0.3493847 -0.075540915 0.27088386 0.053728547
679 0.22718936 0.2750964 -0.00998857 0.6785955 -0.3523769 -0.21630797 0.772613 0.2064703 0.6906821 0.35740677 -0.51695323 0.4362962 0.57036424 0.6118694 0.4649701 0.2561828 -0.29069608 0.27347594 -0.290919 -0.4165595
647 0.25301543 0.2866139 -0.061091475 0.67231005 -0.29930487 -0.29977942 0.81637096 0.22834367 0.688507 0.27324495 -0.54620475 0.4810676 0.5415003 0.60389036 0.43318167 0.30574274 -0.32930446 0.16621915 -0.27731526 -0.2902393
686 0.28054148 0.3844806 -0.12143995 0.5877698 -0.3033817 -0.36927736 0.6574246 0.124969915 0.5419486 0.43315184 -0.4577255 0.2874804 0.47095588 0.63248926 0.5036138 0.19492202 -0.23123571 0.32294774 -0.08481044 -0.31701356
655 0.20550972 0.30007756 -0.09269996 0.6357245 -0.34181705 -0.26456812 0.8966083 0.07875084 0.59505606 0.39670947 -0.6216908 0.47073263 0.5877121 0.5876303 0.4759373 0.14616796 -0.26377934 0.190812 -0.3408183 -0.333032
657 0.3316931 0.3779377 -0.061003495 0.622718 -0.340258 -0.29590133 0.85360104 0.079837374 0.54260576 0.3627 -0.57515633 0.4542963 0.51106566 0.5301047 0.43263763 0.26109347 -0.32026657 0.3234922 -0.21911141 -0.27400333
12 -0.3717851 0.019963559 0.3098269 -0.007560843 0.56779903 0.8700094 0.8742753 -0.37107572 -0.33352208 -0.07055484 -0.09874483 -0.07341527 -0.3317369 0.77483374 0.021594571 0.4384457 -0.31172812 -0.16805585 0.24649 -0.17368393
463 0.24465165 0.2842078 -0.068970524 0.7841786 -0.37348744 -0.27388602 0.8808465 0.08258467 0.59420294 0.34322476 -0.5328479 0.4156239 0.6218104 0.58552134 0.4154747 0.18477248 -0.22445995 0.27673253 -0.27617538 -0.32567185
244 -0.3910859 -0.03663377 0.24253395 0.036532763 0.47580484 0.9167528 0.84371287 -0.26927283 -0.36636883 -0.014298793 -0.095112056 -0.12143129 -0.30810243 0.8610838 -0.1045617 0.50143695 -0.43439844 -0.17773692 0.15645467 -0.109896764
631 0.2575599 0.25884265 -0.058911134 0.69486725 -0.2774173 -0.23146744 0.7918689 0.16157249 0.60533917 0.39164877 -0.68295723 0.46384212 0.51149184 0.56346804 0.42352447 0.26834726 -0.26868692 0.27839267 -0.27693477 -0.29893857
698 0.23594637 0.3212343 -0.04409396 0.57481563 -0.33125424 -0.26055932 0.6599188 -0.042149715 0.5839452 0.34513348 -0.38308394 0.33982778 0.5250768 0.641863 0.41806927 0.23403245 -0.21357837 0.3414888 -0.20489424 -0.29336494
507 0.2843068 0.40770292 -0.09186262 0.58461857 -0.34814268 -0.29189947 0.81457305 0.023468748 0.65325254 0.38872415 -0.5996744 0.45804894 0.60462147 0.67192924 0.49385574 0.21221176 -0.22585978 0.16027784 -0.237389 -0.34148544
497 0.17888486 0.28813186 -0.015355711 0.71375364 -0.2686798 -0.28972995 0.7253395 0.035445213 0.6381074 0.44867378 -0.3298144 0.46436656 0.57928675 0.6153426 0.43391612 0.19280319 -0.1398897 0.37700906 -0.15809451 -0.17885487
135 -0.33566442 -0.18202959 0.17642176 -0.019463997 0.42599848 0.7980549 0.93550587 -0.32653502 -0.3478324 -0.05556856 -0.07377064 -0.09273743 -0.3877726 0.7802732 0.028252453 0.51677173 -0.40854934 -0.15270281 0.097983316 -0.062086474
641 0.281586 0.30701202 0.008981867 0.6316674 -0.24593782 -0.30358604 0.7110865 0.1572192 0.5197092 0.43735576 -0.51454973 0.3902866 0.5620558 0.5824298 0.4909498 0.15340514 -0.2707067 0.34598914 -0.1160609 -0.27938962
590 0.23812145 0.22319877 -0.15660903 0.62801 -0.2545602 -0.29079887 0.8158857 0.09074052 0.6664862 0.29890302 -0.6122934 0.4244434 0.58963025 0.59600896 0.443349 0.30721804 -0.26673862 0.25394717 -0.24096364 -0.40515223
574 0.27925515 0.33828908 0.045750868 0.65938276 -0.34281528 -0.27790597 0.7179676 0.11294387 0.6316008 0.4271569 -0.4736861 0.46923608 0.5020035 0.6334314 0.36640367 0.31450891 -0.21731645 0.37109935 -0.23659909 -0.30659106
486 0.22386873 0.32784748 -0.055699263 0.6439904 -0.27541035 -0.3757759 0.80065465 0.08816782 0.66461134 0.4000557 -0.65876615 0.40144607 0.5916054 0.672896 0.34211594 0.15415518 -0.30648553 0.22639097 -0.29159328 -0.27045852
660 0.254717 0.380152 -0.07766934 0.55393666 -0.25366285 -0.4329169 0.89418936 0.15064871 0.65941244 0.37647545 -0.50737554 0.47643033 0.57479733 0.6683665 0.43242824 0.18865219 -0.28127834 0.16289766 -0.30451027 -0.25735602
632 0.2637271 0.25506946 -0.21425427 0.6119901 -0.3130092 -0.26936883 0.8835646 0.2043251 0.66649413 0.329281 -0.6245676 0.39391893 0.5584823 0.62612116 0.54331034 0.27302673 -0.24428526 0.2031462 -0.29066715 -0.3687259
469 0.31659362 0.34879997 -0.12564906 0.71023846 -0.17150025 -0.31592068 0.8174902 0.041920986 0.67210174 0.34456092 -0.54377615 0.4735451 0.49984217 0.66604644 0.4698476 0.2472244 -0.23885934 0.3433222 -0.33163393 -0.30737942
646 0.15612835 0.31306604 -0.10278355 0.6330038 -0.36478266 -0.3112378 0.8936819 0.058010884 0.58626306 0.35211673 -0.47910365 0.4493457 0.49789408 0.61675143 0.5251937 0.14654393 -0.22200523 0.21056037 -0.39415577 -0.1929471
212 -0.33628842 -0.118316315 0.27983287 -0.028429266 0.5528457 0.81903005 0.809143 -0.2970708 -0.21653551 -0.016219832 -0.019266188 -0.104291216 -0.31754756 0.8842721 -0.08739422 0.4035211 -0.46239826 -0.060145333 0.10273376 0.053852312
620 0.15426712 0.27889428 -0.010666672 0.710584 -0.24954122 -0.34710798 0.51061815 0.07473633 0.41602448 0.44600746 -0.5186956 0.3869141 0.43948314 0.65713584 0.47592613 0.11645974 -0.20787592 0.37456408 -0.07481923 -0.19965631
27 -0.32907596 -0.023110924 0.27279708 -0.09478545 0.5521065 0.84934276 0.84189045 -0.36752728 -0.2841402 0.010702867 -0.18258183 -0.13712642 -0.2755412 0.86261135 -0.17061603 0.49073863 -0.42950237 -0.17920148 0.26822934 -0.06460477
52 -0.22376943 0.15474172 0.2541342 0.014741108 0.5988498 0.86165786 0.9539961 -0.16887845 -0.17150266 -0.18952022 -0.017097859 -0.113203876 -0.32392097 0.7508327 -0.15421961 0.62537 -0.49061203 -0.30477443 0.23761824 -0.10816011
613 0.30106682 0.3640255 0.0029976394 0.6184046 -0.3399445 -0.32982486 0.67965984 0.015729053 0.67079294 0.28016117 -0.69295627 0.388027 0.45715073 0.715046 0.49149248 0.20392932 -0.22890553 0.37235308 -0.21591212 -0.35606357
357 -0.58297724 0.08665291 0.5772019 0.15682387 0.060966842 -0.35115597 0.41233802 0.0011362227 -0.009269738 0.160699 -0.15226558 -0.49465913 -0.1526502 0.5666417 0.14645024 -0.09240893 -0.09283634 0.07478726 0.62842745 -0.021490438
614 0.23128144 0.28086728 -0.008660085 0.63060486 -0.30333576 -0.32912707 0.61542857 0.10510072 0.44674742 0.37373602 -0.60431 0.44439 0.48238495 0.61379915 0.5563258 0.17264794 -0.2528151 0.28139558 -0.06438262 -0.28537488
35 -0.44308764 0.0516973 0.15959679 -0.055589784 0.45698798 0.9161208 0.7668546 -0.46740213 -0.23576647 -0.25133702 -0.30341914 -0.0791858 -0.23148005 0.8395329 -0.05736888 0.47236028 -0.5154162 -0.23632395 0.33286765 -0.12696382
182 -0.5081882 -0.11668189 0.22469202 -0.094515786 0.5319539 0.8492551 0.89687717 -0.23858316 -0.12623478 -0.07666876 -0.16717762 -0.23361732 -0.28191102 0.80673385 -0.26888654 0.53720003 -0.48082086 -0.1179834 0.121220514 -0.0087581985
263 -0.27257332 -0.19608314 0.37762368 0.05711652 0.5338153 0.7682116 0.8979935 -0.24638835 -0.33516827 -0.08049815 -0.054395437 -0.060483217 -0.35604554 0.8426769 -0.09459818 0.48530498 -0.2673958 -0.09097922 0.21057045 -0.0314813
656 0.2856102 0.40196776 0.07365129 0.57187766 -0.3435631 -0.35093606 0.6781038 0.06027604 0.5545427 0.40012613 -0.57874715 0.4712122 0.5353542 0.6061342 0.35151386 0.31918174 -0.29630896 0.3604767 -0.17275815 -0.28297976
379 -0.56560206 0.3291463 0.34955627 0.33351132 -0.16380364 -0.48403376 0.41999823 0.19267854 0.24036883 0.46529594 -0.026710967 -0.3970021 0.060746994 0.41837168 0.36220753 0.011278958 0.045587428 0.2155563 0.33049774 0.0013549235
194 -0.40447307 0.08236901 0.24203977 0.17903802 0.60297364 0.91099626 0.78154236 -0.29140198 -0.21946487 -0.047614995 -0.09293111 -0.06450384 -0.19575481 0.7784492 -0.31062952 0.569874 -0.3698529 -0.25825378 0.23372354 -0.15430513
637 0.32536635 0.28423592 -0.057015594 0.52627873 -0.30652526 -0.2870856 0.7133826 0.09933536 0.58843184 0.475195 -0.63359255 0.5192872 0.51349074 0.5968112 0.4129225 0.36957943 -0.3937057 0.3610455 -0.18354267 -0.32780388
163 -0.5319347 -0.12777363 0.20130494 -0.012519655 0.5099472 0.7877425 0.77404505 -0.20973183 -0.18139173 -0.08231347 -0.19993718 -0.18880273 -0.3142287 0.79055375 -0.26023465 0.7321638 -0.47125384 -0.15561743 0.21365826 -0.103476785
499 0.2457923 0.35176933 0.0064026495 0.72747254 -0.16591914 -0.26877162 0.73488337 0.03263603 0.6923816 0.41099706 -0.4739304 0.5248925 0.6668576 0.53894424 0.52345616 0.33761105 -0.2726192 0.44310036 -0.18759179 -0.2866043
689 0.2346611 0.4256532 -0.12848721 0.5631903 -0.15288109 -0.46278745 0.8453125 -0.10903214 0.52124786 0.3585359 -0.46647057 0.4592619 0.54395473 0.5972646 0.4669919 0.13761237 -0.2126544 0.24065943 -0.26391014 -0.3236459
669 0.17557183 0.34632495 -0.081365794 0.625632 -0.27341554 -0.26413834 0.849847 -0.013690568 0.6146651 0.3122777 -0.5650517 0.5690752 0.5967561 0.62506723 0.4367872 0.33570248 -0.06879302 0.3408299 -0.32877645 -0.43314803
652 0.3294306 0.26544756 0.060316708 0.74476606 -0.24140458 -0.33698714 0.8326277 0.04914098 0.4466032 0.46595618 -0.6479911 0.54064524 0.5705385 0.5015289 0.4636178 0.33603498 -0.2343226 0.33077806 -0.24900584 -0.34857455
95 -0.15541466 -0.00474444 0.23006895 0.069460675 0.4516385 0.7679176 0.970084 -0.21211798 -0.4526631 -0.13516343 0.10894587 -0.31024295 -0.5133777 0.89535314 0.08998182 0.5594554 -0.4193331 -0.17224371 0.13691399 0.00059147226
526 0.17277342 0.27970284 -0.16526848 0.69206256 -0.22794338 -0.46409014 0.91341496 0.18910411 0.61763394 0.3015166 -0.5218717 0.40394038 0.6194446 0.5105362 0.44250396 0.3034474 -0.3885993 0.2809877 -0.30372283 -0.23557055
332 -0.6514547 0.39501542 0.43570766 0.25614196 -0.12765187 -0.41000605 0.33506787 0.14311093 0.047861364 0.31958824 -0.18890354 -0.43906242 -0.05207768 0.4595324 0.2728159 -0.012446539 -0.029657498 0.16544285 0.41642573 -0.071651325
384 -0.6188892 0.31896642 0.42966565 0.38127893 -0.24889177 -0.39765674 0.36448178 0.06672705 0.1747266 0.4365959 -0.09478235 -0.4366637 -0.059221935 0.52518034 0.31921807 -0.11134357 0.118363515 0.24456115 0.37067613 -0.07012844
638 0.2821459 0.2989228 0.07249928 0.5560835 -0.3578739 -0.29609996 0.6827015 0.26011878 0.42268094 0.34150198 -0.54520774 0.316211 0.6047166 0.60456043 0.43817204 0.1996671 -0.3190678 0.4132281 -0.12575771 -0.117499255
342 -0.58638966 0.28103793 0.49041873 0.19640028 0.011451291 -0.425362 0.4570651 -0.006655092 0.005285608 0.2075993 -0.11507898 -0.486693 -0.14467098 0.40465838 0.17370164 -0.116840154 -0.22675282 0.07611953 0.47626865 -0.1018655
267 -0.2679517 0.025923356 0.2503985 -0.068344556 0.54834956 0.7719188 0.85819304 -0.17463043 -0.26167068 -0.2014498 0.047047205 -0.24628547 -0.26972848 0.75564885 0.013171109 0.825952 -0.35577136 -0.12897931 0.34549132 -0.23992625
42 -0.26241362 0.32794353 0.17152217 -0.011919264 0.75561714 0.80747277 0.8232982 -0.37986845 -0.314198 -0.19906196 -0.06078244 -0.08111163 -0.27874056 0.796034 0.042404696 0.5623222 -0.35946673 -0.15975787 0.35889602 -0.07654784
454 0.28618842 0.33513877 -0.029401446 0.6068541 -0.30599746 -0.3538926 0.86981595 0.06175546 0.587245 0.291479 -0.5285118 0.42707604 0.69503176 0.59907484 0.40175083 0.2391004 -0.23998271 0.29834962 -0.22756965 -0.32529083
441 -0.61962366 0.4822339 0.53476995 0.3366695 -0.07137109 -0.52600044 0.49354368 0.05211431 0.29724762 0.39899 -0.020120325 -0.41930914 0.04706806 0.3638653 0.2040398 -0.116124906 -0.004912269 0.24652913 0.48103452 -0.18568781
343 -0.57003266 0.363207 0.53720844 0.2847908 -0.07993841 -0.5015747 0.423666 0.17251854 0.09031648 0.25003216 -0.01722621 -0.41093338 -0.08198518 0.44490108 0.23891033 0.0037717815 -0.04248178 0.15370092 0.50469166 -0.17513604
389 -0.6812949 0.22548488 0.4844806 0.3611963 0.040720284 -0.39877018 0.57958657 0.07143323 -0.09600235 0.24562024 -0.0018361737 -0.5492303 -0.25135893 0.48737472 0.20176166 -0.19619946 -0.114314616 0.17876036 0.6004258 0.048854154
8 -0.38564822 0.17253265 0.30876416 -0.064457476 0.60129213 1.0172676 0.8963828 -0.6118335 -0.19271709 -0.14363614 -0.3281558 -0.16182595 -0.29698518 0.5904325 0.024468856 0.45832056 -0.45636857 -0.055216875 0.27752286 -0.061843734
126 -0.33670026 -0.09877994 0.20467131 0.07370592 0.36597192 0.6839192 0.63090676 -0.27323323 -0.38669878 -0.090131655 -0.03631499 -0.31688288 -0.37123656 0.86258596 0.019157052 0.40031117 -0.4840246 0.088114336 0.37443852 0.010494856
674 0.37465876 0.3381313 0.10535141 0.5554139 -0.27963218 -0.30197057 0.75083655 0.07419128 0.5440404 0.37188694 -0.6349239 0.47219628 0.5277629 0.5210599 0.42266107 0.30829787 -0.48985967 0.45808625 -0.28574124 -0.12524019
552 0.215877 0.39348748 0.10108517 0.66147894 -0.34509143 -0.3382015 0.55252093 0.14120945 0.4320456 0.43285874 -0.38235608 0.28693748 0.59416187 0.6467447 0.53070015 0.22676566 -0.22247054 0.5154817 -0.14890094 -0.24316551
177 -0.3094829 0.044564907 -0.005324925 0.10187758 0.42140168 0.805866 0.889641 -0.18796642 -0.3417647 -0.22587356 0.037464052 -0.12583616 -0.36949855 0.72017974 0.020381697 0.6390152 -0.46282333 -0.17183311 0.35766643 -0.26228073
702 0.13536759 0.1650247 -0.23999247 0.7930648 -0.26103956 -0.24399045 0.83749884 0.10938886 0.649698 0.36001194 -0.5706017 0.38602543 0.59958994 0.45993978 0.63925797 0.2693327 -0.3483696 0.086668044 -0.29677734 -0.34407714
368 -0.6014714 0.30172122 0.6179299 0.26354143 0.022630781 -0.45676187 0.44403753 0.15578847 0.05994328 0.32746083 -0.06680572 -0.4377255 -0.09771713 0.5419168 0.08654989 -0.11413554 -0.012110389 0.12944177 0.58261657 -0.17789137
423 -0.7009128 0.3250626 0.48714352 0.3843597 -0.030425025 -0.39415425 0.5672847 0.048465576 0.08300515 0.32486436 0.02811893 -0.5369502 -0.15388434 0.48833153 0.22450465 -0.26804432 -0.07479541 0.15775818 0.63238907 -0.06476823
59 -0.30294728 0.1060313 0.17731571 -0.13095117 0.5784355 0.68488574 0.8566676 -0.20241702 -0.120410405 -0.3044092 -0.10913795 0.086593814 -0.3104302 0.79483145 -0.1364011 0.6143808 -0.5889696 -0.25396207 0.39707705 -0.071238495
677 0.17438342 0.3176827 -0.20851889 0.7456865 -0.15147956 -0.32208607 0.9975832 0.037159268 0.63681734 0.26556018 -0.5950984 0.3827813 0.60733193 0.48769897 0.5381493 0.09599309 -0.08734286 0.12684132 -0.27096376 -0.2736268
387 -0.7634337 0.41042414 0.5413355 0.38945013 -0.12100267 -0.5264066 0.48967776 0.247279 0.14149515 0.4644115 -0.10162417 -0.51891214 -0.076186195 0.494255 0.20169838 -0.17332539 -0.05813283 0.21697699 0.50640666 -0.18375692
69 -0.36279315 -0.06103493 0.22684368 -0.07267776 0.53830755 0.9867564 0.7803951 -0.41794157 -0.28635576 -0.0018895267 -0.26517916 -0.08596624 -0.1325686 0.8083611 0.08069667 0.5194544 -0.30954075 -0.20953514 0.38637367 0.06678127
184 -0.28918505 -0.14389566 0.13568895 0.15123972 0.42361653 0.86491066 0.8391641 -0.09160766 -0.35212043 -0.2760185 0.08551091 -0.10955289 -0.31703442 0.850313 0.06761338 0.63977534 -0.3046028 -0.05646365 0.24210505 -0.13332595
363 -0.67601854 0.31047758 0.57855195 0.40042552 -0.013448211 -0.5091843 0.4912866 0.17706577 0.15030202 0.37768504 -0.027534068 -0.5390389 -0.081789225 0.5145689 0.22629616 -0.16810083 -0.009924384 0.21723719 0.38800144 -0.084646255
116 -0.32657912 -0.039877128 0.25957853 0.08853435 0.42240223 0.74839 1.036415 -0.33076343 -0.506553 -0.1163417 0.062413596 -0.2418645 -0.2905389 0.7075312 0.017439976 0.5903013 -0.16359387 -0.14573984 0.09880709 -0.09464496
383 -0.71004605 0.27786118 0.6274735 0.27399606 -0.007935855 -0.41853905 0.56271243 0.16210994 0.14434607 0.44637972 -0.09053372 -0.6699947 -0.12388229 0.5145291 0.20610808 -0.20117132 -0.096786745 0.101893336 0.6826621 -0.13594541
298 -0.7067418 0.2769965 0.5507342 0.24772157 -0.038033657 -0.4565406 0.51970243 0.13575661 0.19413757 0.40817732 -0.04005295 -0.71754605 -0.108301185 0.5680396 0.12844123 -0.124811925 -0.098841235 0.17199902 0.61140436 -0.13304138
353 -0.76338124 0.33759746 0.535713 0.21939622 -0.08158907 -0.3897475 0.5163572 0.16687462 0.09760469 0.39758557 -0.043666586 -0.7012002 -0.12089995 0.57016045 0.2769943 -0.16316271 -0.07654468 0.12275012 0.5840076 -0.09623841
367 -0.64251024 0.42717892 0.63814706 0.3151498 -0.0015819791 -0.43052202 0.53911734 0.12655944 0.19239314 0.41437927 -0.007973137 -0.5662174 -0.10042429 0.5201266 0.056263108 -0.22093979 -0.05928092 0.15135437 0.6419053 -0.13352741
349 -0.7433863 0.2858063 0.57527304 0.29154158 0.03512674 -0.44312337 0.54437494 0.105211996 0.16881277 0.33428913 0.029648382 -0.7475028 -0.13480985 0.52123433 0.26403704 -0.12914622 -0.12548643 0.12782004 0.6238484 -0.06898505
361 -0.7138295 0.2732275 0.560524 0.23446862 -0.04581737 -0.39398333 0.49517876 0.23895033 0.09563551 0.4050738 -0.006790804 -0.67200476 -0.20583566 0.6361053 0.19275986 -0.15098491 -0.09427256 0.20499666 0.55782926 -0.099213496
337 -0.69744116 0.30964673 0.59391004 0.27950972 -0.12835003 -0.44239578 0.4937598 0.17788774 0.07034601 0.40552583 0.037396472 -0.50126606 -0.14536156 0.47982678 0.31317392 -0.08024994 -0.108387895 0.1891507 0.54899913 -0.056417342
322 -0.7366011 0.36097383 0.6257877 0.30180827 -0.13737918 -0.48363873 0.5031075 0.07233783 0.12817505 0.45017815 -0.108945005 -0.6223672 -0.15781838 0.5859501 0.28768876 -0.20913577 -0.0472792 0.22882256 0.6612604 -0.15374662
113 -0.4538722 -0.16383721 0.023744324 0.03766916 0.36918893 0.7260016 0.83676475 -0.34912306 -0.26314056 -0.14487046 -0.111985266 -0.122796856 -0.5459035 0.7099929 0.11648176 0.6119027 -0.58294713 -0.122202195 0.22743246 -0.032712765
369 -0.7489046 0.32146543 0.53813297 0.25560996 -0.018625189 -0.5279726 0.5394708 0.17457 0.16004176 0.39713094 -0.0801546 -0.6422235 -0.08006317 0.64766794 0.30459535 -0.24687307 -0.026675297 0.29466325 0.6172403 -0.18861344
320 -0.73709404 0.13495463 0.6030558 0.38922533 0.0006279881 -0.46615553 0.46601957 0.10570004 0.044979017 0.36980417 -0.060921233 -0.6286019 -0.1661798 0.62578356 0.3120082 -0.16433953 -0.07532048 0.039966535 0.684215 -0.051514253
420 -0.7985191 0.31155863 0.5996378 0.3459414 0.010714694 -0.54641193 0.5527187 0.14475352 0.18055996 0.4779881 -0.09257809 -0.70496136 -0.1500659 0.56349415 0.31583402 -0.15280053 -0.039521117 0.19581307 0.6337888 -0.09199237
310 -0.76882404 0.31712306 0.5101818 0.23439199 0.006675462 -0.48864448 0.5399212 0.18640305 0.20663549 0.3869321 -0.030128995 -0.63921714 -0.115448624 0.59721684 0.2172491 -0.17939597 -0.07639215 0.1940918 0.61735386 -0.0830808
408 -0.8276584 0.33328462 0.53223336 0.3398235 -0.091673635 -0.42515773 0.59282523 0.18351476 0.21173094 0.44744805 0.029729659 -0.7715842 -0.07061903 0.58741766 0.34906963 -0.21960369 0.036114406 0.22344235 0.65822303 -0.23944165
354 -0.829451 0.2632735 0.49773315 0.29860556 -0.051361114 -0.5328727 0.5740614 0.09240034 0.16799423 0.3929373 -0.03306495 -0.7011761 -0.1217295 0.5888491 0.23507185 -0.20816503 -0.08141939 0.23721537 0.6202275 -0.17217252
304 -0.80191123 0.37003595 0.5579964 0.27151832 -0.02929531 -0.446259 0.5683298 0.10595637 0.14527124 0.38479412 -0.020584963 -0.64628637 -0.07515149 0.49900186 0.32208595 -0.15099879 -0.056044668 0.23432745 0.66670924 -0.18511958
313 -0.75692207 0.29141042 0.5579055 0.29332158 0.044883512 -0.48613766 0.55524796 0.16247402 0.19338162 0.40204826 -0.098104134 -0.6442912 -0.1332516 0.50819874 0.231381 -0.19770989 -0.07451079 0.2114074 0.6060811 -0.14426467
440 -0.7326427 0.34138295 0.61425316 0.3307942 -0.1015861 -0.52010864 0.50666183 0.104942255 0.1350467 0.4378051 -0.101169966 -0.6427259 -0.058718696 0.5814509 0.29352397 -0.1868633 -0.0036400484 0.12746677 0.6391757 -0.17068219
645 0.3538256 0.37461007 0.22116618 0.49053854 -0.325788 -0.29290286 0.62926984 0.18716055 0.5940536 0.34720534 -0.6512552 0.5596243 0.57164043 0.6165444 0.4596486 0.3920971 -0.39918068 0.45992672 -0.1594586 -0.14630139
406 -0.8904232 0.298065 0.48108986 0.34829795 -0.101478495 -0.4560906 0.578226 0.2143237 0.24616255 0.46258453 0.022072265 -0.6867207 -0.089694835 0.6371453 0.33821428 -0.24490568 -0.023657164 0.25313303 0.73447263 -0.1477179
316 -0.8102995 0.34194618 0.46346432 0.35540673 -0.02516173 -0.5341469 0.57078254 0.11088284 0.15847306 0.35367784 0.024314875 -0.66312546 -0.18050942 0.62584794 0.26899412 -0.21049947 -0.13743363 0.17255221 0.74835294 -0.062044293
451 -0.8273948 0.26777327 0.5719794 0.33830407 -0.089762874 -0.45788503 0.5960436 0.090349905 0.1453522 0.444935 -0.022366913 -0.7272633 -0.083086275 0.5922893 0.33639628 -0.23120256 -0.007948226 0.26866272 0.6103948 -0.100299425
579 0.17343119 0.25816196 0.12059964 0.57714397 -0.359642 -0.22767156 0.48995885 -0.027748471 0.3537931 0.6454101 -0.4373618 0.19921638 0.4649304 0.5361158 0.5721098 0.012250771 -0.26935512 0.52503264 -0.10110492 -0.11019317
341 -0.69436127 0.40460494 0.57330805 0.3697858 -0.14032064 -0.52920425 0.54985267 0.1572253 0.13681483 0.45689398 -0.0486353 -0.7247169 -0.074644 0.5918094 0.2726521 -0.21011926 -0.09811301 0.16389354 0.641035 -0.13400427
398 -0.7742343 0.38033438 0.52021736 0.30127755 -0.07382211 -0.4501823 0.5198226 0.16449171 0.13245834 0.38115498 -0.056328084 -0.68238395 -0.19147654 0.6128057 0.3018432 -0.20595676 -0.057866275 0.25669408 0.65199006 -0.124571785
296 -0.7908139 0.31338942 0.4649882 0.2817597 -0.07841924 -0.5200648 0.61928135 0.14254716 0.18166667 0.38177663 -0.05361752 -0.6851446 -0.117800936 0.6088809 0.18254699 -0.23561329 -0.04842842 0.26767683 0.70061743 -0.16689356
355 -0.80403036 0.37511584 0.6258143 0.38358805 -0.12053315 -0.48154452 0.51438534 0.12960756 0.11893242 0.35892642 -0.048673004 -0.64569634 -0.17132963 0.58019316 0.22887245 -0.20136352 -0.1265813 0.22633488 0.5745694 -0.06290576
435 -0.7636434 0.3189763 0.5224449 0.34766263 -0.097897284 -0.43346414 0.5529804 0.20212717 0.15920366 0.41491455 -0.019312378 -0.65795285 -0.075808205 0.580297 0.25942507 -0.2063423 -0.07055878 0.230313 0.71924746 -0.080603264
360 -0.78862655 0.31156063 0.51969135 0.23497808 -0.047930766 -0.4610671 0.5725926 0.16509902 0.13937369 0.37356132 -0.041892473 -0.6267974 -0.15265279 0.5860734 0.24448568 -0.19857371 -0.104369834 0.1455903 0.6932618 -0.07352744
300 -0.839726 0.28040898 0.60475606 0.3028647 -0.035159163 -0.46726364 0.5711624 0.18033075 0.11328661 0.44723344 -0.09011953 -0.6945795 -0.14522873 0.6078124 0.2694655 -0.22816536 -0.048456103 0.20777276 0.6450362 -0.12147084
426 -0.8326231 0.27236483 0.50095636 0.2755661 -0.06773607 -0.47481212 0.6001882 0.19765088 0.16174674 0.4605763 -0.05360907 -0.6862483 -0.07429054 0.58125937 0.28564143 -0.211 0.0018128253 0.27158836 0.58821034 -0.14577489
325 -0.7666122 0.21676813 0.52567905 0.32156613 0.0018796816 -0.48066556 0.58676136 0.051208496 0.16253175 0.49461567 -0.15363821 -0.8073571 -0.15748072 0.57115686 0.29853076 -0.20649765 -0.012859667 0.1876043 0.5994482 -0.17818825
311 -0.7558372 0.31012014 0.53735703 0.36606154 -0.051662497 -0.4102617 0.4441077 0.20378014 0.10838216 0.33617374 -0.12018238 -0.6673697 -0.10522079 0.6914439 0.2977032 -0.2245301 0.016413555 0.22007498 0.6698912 -0.11051607
329 -0.78227204 0.33915126 0.49253556 0.2908782 -0.041453127 -0.5445388 0.511998 0.15703782 0.13642049 0.5060116 -0.107552625 -0.5966877 -0.10786027 0.64537674 0.17807947 -0.20332909 -0.038674265 0.18011199 0.67435944 -0.14859241
560 0.16053805 0.26223052 -0.0535478 0.72022957 -0.29055408 -0.33930036 0.8951917 -0.12285099 0.6578615 0.14372082 -0.6653746 0.352229 0.5574412 0.49667743 0.5995357 0.13382581 -0.25071928 0.022959387 -0.36693516 -0.2744654
429 -0.88046694 0.23860922 0.49341005 0.29385713 -0.04627948 -0.50761646 0.59218514 0.13274764 0.22965755 0.47107577 -0.020872684 -0.70467937 -0.13748075 0.58347374 0.2558872 -0.25080684 -0.12138662 0.25652677 0.6450751 -0.12762073
315 -0.76082623 0.3062859 0.56270653 0.37627715 0.007489333 -0.5344038 0.57005805 0.088265456 0.12346427 0.5168256 -0.009269278 -0.6725859 -0.17440668 0.56821233 0.21997862 -0.16237141 -0.034703158 0.20955801 0.58239335 -0.09662082
327 -0.7530888 0.3392086 0.60540754 0.27847734 -0.029962242 -0.5357376 0.528641 0.21664836 0.1686276 0.48230305 -0.01386966 -0.65915227 -0.071661934 0.59696114 0.2717728 -0.14367859 -0.110823214 0.26516184 0.70754474 -0.10578595
671 0.3469331 0.4713546 -0.12468621 0.7956529 -0.23158562 -0.34233078 0.6576023 0.06663457 0.4542335 0.44508326 -0.36170787 0.5658116 0.6313087 0.80862695 0.450026 0.40410888 -0.19731367 0.383712 -0.24651346 -0.23160402
386 -0.85480326 0.3626933 0.5328069 0.3365879 -0.066747576 -0.5715099 0.5190187 0.11528085 0.13816066 0.33504993 -0.08636404 -0.58157074 -0.16748925 0.6165484 0.26121107 -0.2559849 -0.13201508 0.2720959 0.6821318 -0.122346506
328 -0.72134864 0.19346456 0.53637314 0.41072476 -0.0878105 -0.45302442 0.54294723 0.20159167 0.18487363 0.39054424 0.058796436 -0.68694645 -0.17090704 0.59505 0.22304456 -0.16529623 -0.10011396 0.19845799 0.6856402 -0.11419839
346 -0.7299748 0.3079036 0.5688988 0.2779978 -0.13296376 -0.5527269 0.5912319 0.1192659 0.12883477 0.5335063 0.04429152 -0.70960546 -0.14529133 0.6850717 0.24767266 -0.19291769 -0.057337373 0.12043375 0.67171735 -0.09558776
351 -0.7484183 0.28947884 0.52517945 0.30502722 -0.025629744 -0.43231097 0.5070966 0.1637632 0.22190599 0.44139928 -0.059215497 -0.7855205 -0.09773359 0.6223486 0.32719645 -0.15576826 -0.0020665037 0.17306098 0.6797391 -0.16545512
667 0.30239964 0.2867209 0.000104354905 0.61560404 -0.17819132 -0.3144162 0.66740143 0.032314286 0.6187652 0.51651937 -0.5474005 0.38187978 0.5644849 0.5500619 0.5009091 0.3443353 -0.40163898 0.40525004 -0.26113698 -0.21184234
393 -0.8051385 0.29653826 0.48358297 0.2351729 -0.011568075 -0.4401498 0.50846255 0.1355578 0.24353851 0.39275986 -0.047585573 -0.6668067 -0.14745641 0.6034279 0.296511 -0.21007138 -0.10174919 0.2564753 0.6065154 -0.09851631
362 -0.84046644 0.3189258 0.6054352 0.2143115 -0.08145498 -0.36457944 0.51407397 0.0667533 0.31054243 0.42378592 0.06498008 -0.69305223 -0.13045731 0.6181955 0.30821642 -0.1594625 -0.058365237 0.18504068 0.71225625 -0.07140658
453 -0.8479455 0.30882648 0.5859988 0.27506503 -0.060845546 -0.5308866 0.572123 0.1414896 0.12456492 0.37572154 0.016576689 -0.6432327 -0.019534148 0.66419464 0.3226082 -0.26910633 -0.008171157 0.08011478 0.5781586 -0.15957743
456 0.26076174 0.27547163 -0.23069964 0.81346476 -0.26220873 -0.38068938 0.74200803 -0.15423016 0.6013809 0.3039646 -0.62608284 0.2856041 0.4995962 0.6667155 0.5620028 0.22957218 -0.1746275 0.105408974 -0.27607432 -0.47087225
11 -0.38219506 0.061865073 0.09576334 -0.057193894 0.7552882 0.7867225 1.0658983 -0.4811197 -0.2532963 -0.2908529 0.019355679 -0.095556386 -0.26007318 0.620865 0.21328573 0.60244954 -0.349028 -0.087237805 0.2989085 -0.06973638
3 -0.4152028 0.19180498 0.25640425 -0.07686325 0.65739816 0.8114376 0.77795714 -0.23670693 -0.14722285 -0.18141542 -0.201987 0.07351057 -0.14647909 0.58359104 -0.0990053 0.5448395 -0.5812323 -0.24454173 0.35629925 -0.2447797
589 0.21984662 0.20525539 0.07094237 0.7134162 -0.4494895 -0.25134432 0.7832442 0.026988337 0.48996988 0.33690104 -0.59161305 0.42183083 0.59446406 0.578761 0.6519738 0.2636368 -0.18289585 0.25947815 -0.3111986 -0.46175
520 0.18680505 0.2227854 -0.1936098 0.8323277 -0.1548901 -0.36530977 0.8621086 0.048403643 0.6718005 0.22551213 -0.526416 0.54551744 0.62590975 0.43051276 0.61032873 0.3544378 -0.3004404 0.36748216 -0.10509092 -0.45936275
675 0.29893595 0.22060801 0.03875564 0.41684785 -0.3418302 -0.43495464 0.57847494 0.32276642 0.36461142 0.36810496 -0.49835333 0.11626926 0.5696223 0.7652552 0.46978977 0.1965592 -0.2828539 0.41899326 -0.15110406 -0.060063463
549 0.2790687 0.102716744 0.12517135 0.5320407 -0.32416093 -0.44808888 0.6182073 0.1775474 0.42418253 0.2316188 -0.6541068 0.31003928 0.5546372 0.8140955 0.45004913 0.25163445 -0.12258949 0.39963204 -0.22343041 -0.31936866
350 -0.8056201 0.32310304 0.5679326 0.29477078 -0.17279518 -0.48710725 0.57050943 0.19929016 0.1750001 0.43584839 -0.025975067 -0.6693352 -0.17845164 0.5705678 0.36443758 -0.23470953 -0.12752788 0.24323429 0.66130435 -0.17735866
303 -0.8254197 0.33975855 0.5259824 0.31417006 -0.0010890848 -0.48226118 0.57333714 0.112602316 0.19866014 0.45059708 -0.0032135893 -0.7148037 -0.07839083 0.64622957 0.20740066 -0.26056334 -0.06238364 0.082263865 0.64158195 -0.08054283
257 -0.13747175 -0.03604689 0.24627052 -0.07316374 0.54124606 0.6388474 0.94824916 -0.100687996 -0.41968372 -0.1361027 0.09363639 -0.24295394 -0.28071082 0.8270053 0.028326103 0.8066534 -0.244959 -0.24810386 0.3105648 -0.16209349
532 0.30125824 0.2706499 0.017541949 0.5817837 -0.30442134 -0.30953428 0.8472562 0.082790904 0.6644013 0.42172918 -0.43731847 0.41129202 0.599586 0.5586399 0.41604674 0.40069827 -0.30120853 0.4340115 -0.32330012 -0.12121471
339 -0.7213124 0.21329261 0.5873317 0.35248905 0.011842964 -0.49548483 0.5353284 0.070579365 0.19784723 0.4725298 0.016428325 -0.6651545 -0.10006851 0.55998135 0.28029868 -0.22511579 -0.19090845 0.16290781 0.68189865 -0.10582563
375 -0.80378133 0.2522498 0.53094524 0.23186685 -0.024245884 -0.55771255 0.51548827 0.112442 0.19605081 0.37141362 -0.034563243 -0.6115646 -0.12976079 0.50700235 0.26292816 -0.07147445 -0.12120726 0.20489234 0.649545 -0.17725742
55 -0.31256163 0.21366408 0.38565034 -0.015538873 0.5576572 0.9343167 0.80229723 -0.4039287 -0.27829665 0.005550073 -0.3268905 -0.09079503 -0.2231078 0.7892427 -0.19176628 0.39372772 -0.41021943 -0.29442516 0.403335 0.079602584
600 0.117895335 0.33307463 -0.11958331 0.8019251 -0.29283297 -0.3618102 0.9048232 -0.06572369 0.40427667 0.28392613 -0.44768113 0.65401924 0.5241562 0.39786395 0.55192465 0.24794489 -0.33338827 0.26275498 -0.24929203 -0.13741782
436 -0.75169563 0.3139663 0.6245385 0.33639494 0.00050000555 -0.48948756 0.56163543 0.07987622 0.082852095 0.42211723 0.013032889 -0.6921181 -0.15583812 0.59232306 0.39019096 -0.25882894 -0.07790918 0.24740814 0.5758547 -0.21417068
444 -0.7692983 0.3670122 0.5229495 0.30545545 0.02245153 -0.49076977 0.46666107 0.23095484 0.15667664 0.49223748 -0.16330552 -0.7704858 -0.15264225 0.621728 0.35440716 -0.13774532 -0.03802702 0.100187026 0.6801611 -0.0692516
394 -0.71968657 0.26980224 0.48397598 0.365059 0.041728675 -0.484652 0.57464945 0.15462689 0.26153877 0.37797827 0.004274308 -0.7390784 -0.23482627 0.59140056 0.28575802 -0.16138834 0.005018742 0.17484507 0.6480888 -0.10142495
403 -0.8819724 0.3316165 0.49862674 0.42493415 -0.06236123 -0.4380521 0.4923819 0.11595813 0.09809982 0.40696374 -0.120561644 -0.61694014 -0.1131175 0.6523409 0.1842534 -0.24770382 0.010434731 0.16665678 0.71643525 -0.16196683
146 -0.351232 -0.06579852 0.15454736 0.26889014 0.4474472 0.7156867 0.6083779 -0.33606416 -0.14776148 -0.39818668 -0.16527514 -0.37364078 -0.28589562 0.5824736 0.05484387 0.59779996 -0.42856178 0.07065767 0.3933482 -0.07773499
323 -0.83890617 0.38253993 0.53409815 0.26398087 -0.0073055206 -0.51725 0.49326313 0.07319989 0.107003964 0.3987447 -0.05397456 -0.60031676 -0.0007475781 0.5823787 0.29639494 -0.19666517 -0.062457655 0.1565566 0.5725861 -0.13086018
392 -0.7793671 0.31785595 0.5182663 0.30437967 0.00033922296 -0.58579075 0.61236596 0.10831896 0.16615058 0.39852253 0.024226526 -0.6758545 -0.1575044 0.59917974 0.30747682 -0.20268282 -0.07034987 0.18989636 0.6422866 -0.15649135
318 -0.8017427 0.36710528 0.585852 0.14469667 0.010394135 -0.54075205 0.52770734 0.100428395 0.126358 0.42848969 -0.029690225 -0.70465463 -0.07119897 0.7442445 0.3853491 -0.22437057 -0.018253367 0.23049451 0.6294657 -0.052219782
340 -0.8711717 0.26167977 0.5400984 0.3382065 -0.09947579 -0.5689363 0.5308773 0.15472914 0.1938869 0.37736788 0.006963173 -0.6465464 -0.06490381 0.5762107 0.26085722 -0.1885653 -0.12224266 0.26531765 0.5502816 -0.2660614
443 -0.84024036 0.4041288 0.6470322 0.26859257 -0.09925659 -0.5255689 0.5274575 0.18735664 0.10076825 0.5003344 0.06435471 -0.58491987 -0.06794812 0.6187463 0.29553482 -0.16891144 -0.13684773 0.19958214 0.6098226 -0.10955798
210 -0.48212785 -0.04759899 0.38140264 -0.025876796 0.42695358 0.88947964 0.7022452 -0.18722337 -0.05172604 0.04791056 -0.12785964 -0.17998466 -0.24537194 0.6976901 -0.3102086 0.4901064 -0.5119081 -0.05140999 0.37152922 -0.10356389
437 -0.87176305 0.360185 0.52310437 0.3153437 -0.043371733 -0.4480334 0.5338145 0.12567145 0.13492045 0.35861313 -0.003846318 -0.6767999 -0.0023882624 0.61305153 0.29710755 -0.26322842 -0.098271765 0.37343705 0.5775003 -0.13000968
314 -0.7104121 0.26816526 0.59892124 0.2559377 -0.05395131 -0.3169782 0.46851537 0.21605979 0.16774201 0.34905925 -0.01668023 -0.62134874 -0.04570623 0.5413209 0.32029995 -0.2229848 -0.16085202 0.08749796 0.58403397 -0.017253539
591 0.15961172 0.1945816 0.12272003 0.5985953 -0.40116847 -0.2799539 0.6588951 0.013859776 0.52317494 0.43989825 -0.72898585 0.4650522 0.48899287 0.53514844 0.61718786 0.3210647 -0.19902278 0.3355329 -0.25061086 -0.39838296
411 -0.8150612 0.2967524 0.61371654 0.3062402 -0.13774367 -0.46222794 0.5314986 0.14233878 0.16210693 0.401922 -0.019392218 -0.6283409 0.00065817265 0.5333273 0.35298064 -0.26946548 -0.1793725 0.17400683 0.6546896 -0.14863908
607 0.320338 0.09167263 0.06755593 0.5205611 -0.50967455 -0.3068225 0.57958925 0.08056222 0.48021457 0.3526661 -0.6775585 0.1695297 0.5112465 0.7717702 0.51948303 0.03567528 -0.2424107 0.32788855 -0.022041645 -0.29053664
395 -0.6678186 0.3260329 0.53413737 0.3862223 -0.02660122 -0.466043 0.55022955 0.23054178 0.15305556 0.495387 -0.022707412 -0.7458775 -0.14012168 0.50794095 0.3091904 -0.070971504 0.011359359 0.18506186 0.6884534 -0.09668691
324 -0.762096 0.42900488 0.5969593 0.3682068 0.07385641 -0.45028195 0.43533304 0.19812083 0.11568907 0.45135888 -0.0928468 -0.67961717 -0.12840144 0.6357192 0.19273145 -0.16801915 -0.06379028 0.15340152 0.5953369 -0.1443611
388 -0.7636343 0.3395047 0.4501265 0.42394993 -0.07597803 -0.4530496 0.55310625 0.113549404 0.07981203 0.37600407 -0.076595575 -0.7414306 -0.19382323 0.5572394 0.2274162 -0.1856553 -0.10046008 0.24828494 0.77258223 -0.21628296
390 -0.76497006 0.40033054 0.50685096 0.31838053 -0.010849896 -0.44755566 0.46842965 0.07939878 0.18280011 0.4111207 -0.10670393 -0.72319484 -0.20345142 0.5917488 0.32160258 -0.22405739 -0.1279112 0.2503331 0.5684291 -0.10214374
427 -0.7591807 0.41937232 0.5120404 0.29409483 -0.009630041 -0.4323423 0.46917927 0.12185288 0.1963664 0.5340187 -0.13919893 -0.6880723 -0.14851382 0.6151147 0.37774506 -0.17308204 -0.006367312 0.25685194 0.78192806 -0.047692336
540 0.02783944 0.08191955 -0.15098688 0.76478225 -0.41020516 -0.33282134 0.8518347 0.020318335 0.37357122 0.26706576 -0.71167654 0.63877094 0.63850224 0.5826584 0.5120132 0.30860287 -0.13315406 0.17745407 -0.26867667 -0.49582702
516 0.28252783 0.2774129 -0.085390575 0.51634693 -0.44128498 -0.4472999 0.7849478 -0.092348464 0.62638617 0.44257507 -0.5059577 0.41105297 0.45550182 0.8274489 0.32581222 0.34755772 -0.23954187 0.118484475 -0.4642976 -0.20634075
72 -0.5293848 0.040191032 0.26586166 -0.1263888 0.57429236 0.7626728 0.9166005 -0.45739833 -0.24872188 -0.18499199 -0.026572062 0.0143664945 -0.16153605 0.8195059 0.12386931 0.446579 -0.33618325 -0.32005304 0.19129845 0.12067517
467 0.3361546 0.13667406 -0.10656606 0.5582822 -0.16568081 -0.5420102 0.7174932 0.23438022 0.67022896 0.2318986 -0.4123545 0.5419765 0.48206833 0.7207263 0.5551207 0.52620184 -0.3815485 0.4489381 -0.16009183 -0.24982111
326 -0.7573292 0.33818567 0.5741805 0.2896924 -0.028144151 -0.4344543 0.4984779 0.15210572 0.27848554 0.4807306 -0.025398994 -0.6885868 -0.046662398 0.58213925 0.2844941 -0.22768949 -0.085994735 0.18232338 0.600095 -0.15857719
431 -0.8140099 0.27345803 0.5582441 0.2969256 0.046217866 -0.53297526 0.570599 0.13101357 0.15565206 0.4436035 0.07954757 -0.5445393 -0.071311854 0.6076587 0.31386465 -0.26571554 -0.1059881 0.21280053 0.6388717 -0.16914985
84 -0.37815988 -0.12058326 0.17281955 -0.049576275 0.18951702 0.8773842 0.9246352 -0.3221435 -0.21933715 -0.11390853 -0.26753098 -0.14252138 -0.5122147 0.7700428 -0.25068775 0.5855972 -0.5614502 -0.061993293 0.26106387 -0.01757114
412 -0.7252784 0.26543328 0.5136832 0.3459429 0.03317222 -0.4978955 0.5552046 0.01819242 0.18160081 0.3970861 0.055959865 -0.72796416 -0.17837176 0.5586923 0.24000898 -0.1294334 -0.04709061 0.25103554 0.6668112 -0.20188245
503 0.14242291 0.13741478 -0.19305271 0.6251167 -0.24819632 -0.39342302 0.9132606 0.02095017 0.7243079 0.52374536 -0.47453833 0.28473473 0.6188857 0.7102131 0.4647157 0.27218878 -0.10795693 0.084643185 -0.5677952 -0.25768596
666 0.2603307 0.35200852 0.013572241 0.40215656 -0.29495788 -0.40876043 0.74670637 0.08123852 0.42392734 0.5454161 -0.506351 0.5086241 0.6414266 0.65466136 0.545758 0.39696854 -0.23951514 0.35424614 -0.27386913 -0.18781981
448 -0.70331615 0.39761534 0.53299326 0.32360244 0.038065825 -0.46757793 0.5027649 0.14906567 0.23661898 0.51636875 -0.15707006 -0.69509953 -0.20681734 0.4997183 0.32050884 -0.12439303 -0.051107056 0.31393793 0.7608923 -0.0020381364
700 0.12059517 0.0847668 -0.21150516 0.73156434 -0.31613365 -0.30427045 0.9304046 0.06524915 0.7209362 0.2686729 -0.5748377 0.32171866 0.52770984 0.6338578 0.52189654 0.10590927 -0.27091557 0.19545323 -0.490625 -0.30228874
416 -0.9119968 0.19915003 0.5714519 0.16761163 -0.010831799 -0.45832226 0.5568741 0.13871352 0.14241542 0.3795542 -0.008558135 -0.5338376 -0.06590299 0.652213 0.27044454 -0.2816728 -0.010129049 0.33639678 0.54289746 -0.18607384
66 -0.31593567 0.13222167 0.40810582 -0.1190919 0.5374485 1.0069118 0.8728231 -0.47025424 -0.4350899 0.009389563 -0.34008798 -0.26790908 -0.13477083 0.793982 0.06210037 0.5129201 -0.09080475 -0.07196976 0.20445043 0.15703467
555 0.18639356 0.31468818 0.058740806 0.62216014 -0.3744184 -0.40926293 0.78333926 0.26664722 0.30432066 0.34269026 -0.40565735 0.5290439 0.571174 0.5374611 0.5372634 0.36592996 -0.2807108 0.60134363 -0.1915774 -0.08980738
292 -0.25313988 0.22332871 0.21493839 -0.0976679 0.5085001 0.7327296 0.83549863 -0.18503588 -0.21704213 -0.11781768 0.030037913 -0.1164828 -0.34463248 0.8123565 -0.21945868 0.8657264 -0.5384658 -0.27782142 0.4502446 -0.16901256
0 -0.3219099 -0.019126214 0.14853495 0.013431834 0.55814487 0.7714648 0.798504 -0.3015644 -0.27290097 0.051465005 0.0027916564 -0.18698546 -0.34185228 0.79930043 -0.092864886 0.5227247 -0.50944525 -0.19096164 0.3423972 -0.13486534
491 0.18892351 0.2896326 -0.13790089 0.5524227 -0.42665973 -0.3487137 0.9777622 -0.00786803 0.7123291 0.36006868 -0.43686226 0.29097268 0.7680567 0.545722 0.44102544 0.30358902 -0.28570083 0.1495923 -0.3266573 -0.2048305
450 -0.8061857 0.34677088 0.52354145 0.39183712 0.10523997 -0.37616968 0.4035857 0.2362951 0.19964914 0.50133365 -0.0022724536 -0.68051577 -0.2123534 0.5546666 0.39921388 -0.10442964 -0.120691985 0.11566994 0.58271074 -0.055988614
23 -0.4019928 0.19006741 0.29649046 -0.29199123 0.6438637 0.89523745 0.8120896 -0.14550577 -0.10900047 -0.05729826 -0.2606893 -0.0076584816 -0.123853855 0.6909244 -0.2374431 0.6766252 -0.5669941 -0.18752831 0.4825773 -0.1357572
382 -0.7859811 0.3736938 0.5531857 0.24372691 0.11299198 -0.587362 0.42336646 0.08502016 0.059791293 0.37941346 -0.05255037 -0.66965014 -0.110455275 0.6786244 0.29834697 -0.20598917 -0.15165854 0.110504396 0.5815362 -0.35445654
676 0.25362706 0.46213564 -0.2581637 0.6644494 -0.34543994 -0.44333503 0.80933696 -0.23842467 0.60221547 0.19107558 -0.5184072 0.38306442 0.5432816 0.7557852 0.46094242 0.38249898 0.01814052 0.26566234 -0.2588044 -0.23145574
630 0.20795959 0.17263795 -0.3895755 0.7574846 -0.3021861 -0.46643525 0.96706533 0.013774412 0.6341743 0.27546123 -0.56952673 0.33024386 0.52577806 0.77793735 0.35717526 0.13980936 -0.12406348 0.15365447 -0.317422 -0.14773577
396 -0.65438104 0.4230548 0.43579784 0.4005613 0.026593998 -0.44725028 0.5004722 0.20193917 0.0631289 0.4176529 -0.12442371 -0.68527716 -0.09828544 0.5204233 0.24777173 -0.17158964 -0.087250456 0.2613473 0.68639237 -0.121784985
76 -0.22829574 0.39867604 0.11383106 -0.037222937 0.63779545 0.77925545 0.947376 -0.42638323 -0.18317826 -0.053674106 0.06165764 -0.019971944 -0.20894319 0.56215 -0.058945123 0.6731098 -0.34753656 -0.3263287 0.42424875 -0.09704706
455 0.2865521 0.19151385 -0.064957015 0.6725113 -0.21549979 -0.420335 0.8404041 0.24757862 0.61230665 0.43513668 -0.4043386 0.43212318 0.5441165 0.46387324 0.520524 0.43490684 -0.36471477 0.43258318 -0.15309162 -0.19498621
553 0.19916834 0.32975352 0.1463402 0.73088956 -0.42729497 -0.3369963 0.76824456 -0.109153785 0.46963513 0.3574414 -0.5309854 0.4547635 0.52316904 0.3926451 0.63149005 0.28081253 -0.34356865 0.3215412 -0.25994417 -0.4191919
217 -0.2104376 0.021554762 0.35110772 -0.19501606 0.5231114 0.6634271 0.8788462 -0.10666854 -0.30043232 -0.18665306 0.13700289 -0.11774444 -0.27224442 0.71790546 0.12215211 0.88071716 -0.46345088 -0.23083562 0.32067156 -0.2872385
438 -0.8103583 0.25744984 0.6284859 0.34099317 -0.10414871 -0.56983024 0.49650002 -0.06250225 0.16263844 0.30627233 -0.073466025 -0.7094817 0.032194577 0.59826845 0.29857016 -0.22445147 -0.11169003 0.19361386 0.65102935 -0.16136153
563 0.16054493 0.18568464 0.12481325 0.7667928 -0.5151237 -0.20969008 0.64249986 -0.1261061 0.43749276 0.29561484 -0.7113633 0.43983766 0.61141235 0.4926612 0.61347973 0.31829795 -0.2531633 0.33953264 -0.17716397 -0.40089452
484 0.35455343 0.30497006 -0.06459431 0.7762094 -0.45253718 -0.39687383 0.666452 -0.09967257 0.52559304 0.35286003 -0.6197251 0.3639365 0.30464658 0.88251495 0.32618588 0.32692295 -0.032743514 0.23847231 -0.3933408 -0.36891043
331 -0.6406484 0.29305384 0.7062984 0.30916864 0.13403003 -0.45532832 0.44403347 0.15469591 0.17765574 0.5462043 -0.010219558 -0.8327493 -0.14349782 0.7173525 0.37632433 -0.15413226 0.047989335 0.20239814 0.4399507 -0.086079925
264 -0.28468713 -0.28006148 0.36522108 0.09134108 0.65485984 0.785587 0.9261393 -0.043087903 -0.37922665 -0.06609268 -0.04309701 -0.035232235 -0.30947295 0.8615848 -0.12343116 0.7725912 -0.38841367 -0.16199099 0.27477917 0.05650584
480 0.3281129 0.23366573 -0.2688386 0.59579015 -0.2478286 -0.49974054 0.72683895 -0.14998773 0.7358434 0.388641 -0.58788764 0.31838974 0.44018447 0.8259021 0.5197153 0.2766923 -0.2192231 0.1649706 -0.24257027 -0.24438184
487 0.08586213 0.12469391 -0.12962544 0.82238626 -0.26033014 -0.32113448 1.0025177 0.11818107 0.6991857 0.48333055 -0.46788937 0.507539 0.6014968 0.34288886 0.67371255 0.19913809 -0.27809364 0.015393497 -0.2145075 -0.14820027
309 -0.8041768 0.20471542 0.68290824 0.3862972 0.019682841 -0.3719409 0.41728735 0.12481205 0.21003066 0.4266866 0.0716035 -0.68217033 -0.041353308 0.6026655 0.51891845 -0.23382582 -0.13833657 0.17626667 0.60566247 -0.14226463
430 -0.7606121 0.31753448 0.49152118 0.34238255 0.08526629 -0.49886233 0.4415318 0.11961223 0.19738202 0.48859888 -0.16430157 -0.70150065 -0.20940311 0.58559763 0.36169812 -0.19653599 -0.15121181 0.24839592 0.673677 -0.00831386
587 0.0635762 0.07103339 -0.009448557 0.5787359 -0.39655408 -0.3626885 0.54166377 0.044144418 0.46479297 0.28132597 -0.6824594 0.44980815 0.48941037 0.7217634 0.5220671 0.34285864 -0.218501 0.41957006 -0.24829578 -0.4660319
422 -0.67138517 0.41420904 0.43715152 0.41013628 0.034338307 -0.41212428 0.35395926 0.20762184 0.14416012 0.5596543 -0.13405168 -0.7492275 -0.20441417 0.59926397 0.30186072 -0.10406842 -0.12108464 0.26294756 0.63090473 -0.10403343
457 0.10685455 0.12885357 -0.2179166 0.6177036 -0.40753347 -0.26861498 0.99061495 -0.04282586 0.6951191 0.27855602 -0.5977566 0.32253835 0.60371315 0.57395333 0.50731915 0.14878616 -0.1472857 0.023239236 -0.4023872 -0.23577668
189 -0.29378518 -0.18794824 0.36224714 0.22404283 0.6313506 0.7266339 0.8651094 -0.19985893 -0.41466567 -0.15625094 -0.01303656 -0.23604631 -0.36151454 0.6205462 0.070885524 0.4754176 -0.28835434 0.2781314 0.3004469 0.065143324
359 -0.7144155 0.36126497 0.5550045 0.36193612 0.1364354 -0.45475104 0.38900024 0.3342353 0.14104845 0.49767214 -0.08439537 -0.66420454 -0.1947789 0.58835137 0.4252715 -0.22062318 -0.29734057 0.23906451 0.5909357 -0.1465229
334 -0.7627265 0.38330042 0.6575857 0.34983745 0.04769552 -0.3063722 0.39884382 0.20904928 0.26849657 0.45190766 -0.054293588 -0.8301733 -0.09512441 0.58803135 0.38466963 -0.2624064 -0.24643855 0.2663367 0.5514503 -0.06583915
380 -0.6571299 0.49995515 0.49869213 0.46507314 0.051416043 -0.52862096 0.51492244 0.17830384 0.0868306 0.48921037 -0.06012286 -0.7141957 -0.083638914 0.53427184 0.31342116 -0.10408681 0.007361013 0.26028246 0.73083335 -0.0977696
478 0.3466591 0.3603234 0.067088924 0.6129124 -0.42244154 -0.36988452 0.86166054 -0.047138784 0.55663 0.5571633 -0.53299594 0.4897808 0.46392027 0.69862646 0.44647366 0.32122633 -0.052781336 0.17802873 -0.37810993 -0.14719608
424 -0.75311303 0.2692021 0.51905775 0.4195716 0.02291261 -0.5486802 0.5726028 0.0853697 0.17036296 0.47978985 -0.06895758 -0.64537126 0.03625829 0.5255709 0.23979181 -0.16245139 0.0033267231 0.3118887 0.69099385 -0.0030810582
132 -0.36983684 0.19794966 0.23106745 0.05883697 0.473808 0.85718274 0.6220757 -0.2846188 -0.3573321 -0.05338959 -0.29909974 -0.36178136 -0.3636704 0.7708427 -0.024213744 0.9819636 -0.40230238 -0.28160268 0.03625697 -0.08399451
53 -0.38014704 0.16718982 0.22993524 -0.039129958 0.5227456 0.95715475 0.578736 -0.3308299 -0.11629165 -0.13667946 -0.35824752 0.009974014 -0.19111463 0.9904284 -0.17778623 0.5404187 -0.48493516 -0.38028666 0.37488496 0.060355958
5 -0.13136783 0.16018367 0.50752807 0.013113475 0.34962097 1.0095551 0.70512885 -0.44336754 -0.30647263 -0.17762712 -0.2063082 -0.034765992 -0.20715523 0.71587664 0.19245929 0.35774967 -0.41418257 -0.25209585 0.29550362 -0.05348225
618 0.14012828 0.40835312 0.030778848 0.7725539 -0.25453034 -0.49972558 0.6917312 -0.018263415 0.46993706 0.38989606 -0.4971352 0.6404299 0.489835 0.4965572 0.4620136 0.43663764 -0.30623722 0.5225074 -0.12908413 -0.13212915
419 -0.6969609 0.36709705 0.5943998 0.42568368 0.061579015 -0.4151827 0.46079862 0.15328832 0.20452878 0.618443 -0.090098985 -0.7829195 -0.1628451 0.51933455 0.20279466 -0.09447206 -0.05417286 0.24247038 0.6309544 -0.12664719
649 0.079865925 0.3410105 -0.30822 0.77208495 -0.2969015 -0.44760588 0.8630299 -0.04219344 0.62745094 0.28436202 -0.63468575 0.17942564 0.6509676 0.7059801 0.36248842 0.2512643 -0.030551521 0.06543789 -0.459497 -0.18225956
4 -0.40489283 0.27071205 0.21699318 -0.14010616 0.6462458 0.88642013 0.8787881 -0.5066692 -0.15154144 -0.1932406 -0.1497653 0.013402268 -0.14160824 0.7506359 -0.03488895 0.555219 -0.3874536 -0.23299587 0.3973635 0.109229684
690 0.24686702 0.18115252 0.185323 0.61330223 -0.3167813 -0.23310816 0.734225 0.22620548 0.74077636 0.33281133 -0.7463113 0.41492468 0.46706215 0.52559775 0.44723013 0.43736324 -0.22083439 0.49649015 -0.34393725 -0.25858134
640 0.02594389 0.09555805 -0.24333753 0.673969 -0.30362248 -0.25287008 1.0095577 0.03506859 0.69904184 0.2613377 -0.7479763 0.29875362 0.6449317 0.49169916 0.52887195 0.17478867 -0.067475505 0.1617759 -0.41524467 -0.3026131
433 -0.70541537 0.38544527 0.37688765 0.4121592 -0.09292505 -0.4930884 0.5885145 0.043090727 0.027106782 0.58886766 0.016936284 -0.79506046 -0.101931885 0.5026428 0.26921842 -0.02402518 0.037028983 0.28616458 0.80192465 -0.13670237
344 -0.81032604 0.32559603 0.5570718 0.40036893 0.06952706 -0.41609612 0.38065594 0.20764686 0.12326829 0.34704885 -0.08372243 -0.69990027 -0.22147933 0.65996397 0.43631935 -0.2575126 -0.14927553 0.1765094 0.48196426 -0.15588899
683 0.080515414 0.17373413 -0.29119083 0.7890942 -0.23852938 -0.37252912 0.8632188 -0.027948193 0.699029 0.3554572 -0.6620802 0.3739114 0.65106916 0.7111262 0.38066202 0.28466907 -0.112646155 -0.023006486 -0.44592717 -0.19104643
425 -0.6831047 0.36583877 0.48024225 0.40737644 0.053431503 -0.34842435 0.44003305 0.3292879 0.13273242 0.71059877 -0.17122076 -0.72948897 -0.19525938 0.47400436 0.37803182 -0.048674226 0.044377677 0.21014528 0.6627655 -0.106972836
506 0.2966786 0.12499616 -0.027438859 0.47158206 -0.3873346 -0.47166932 0.84769475 0.32753637 0.57182753 0.11761308 -0.43969607 0.28118512 0.45738557 0.56584555 0.6086914 0.3754213 -0.28668794 0.44227868 -0.12356087 -0.15250616
227 -0.4050669 -0.18065502 0.14210595 0.2344589 0.25879663 0.87080735 0.78623503 -0.34267998 -0.2885153 -0.10073564 -0.093762815 -0.19152787 -0.3614009 0.8318313 0.10411117 0.5484533 -0.34446713 -0.43734014 0.27450755 0.21676657
562 0.016462475 0.18879111 -0.21602848 0.7077109 -0.36293992 -0.2293042 1.0132233 0.04049235 0.61874545 0.28609264 -0.671178 0.28908747 0.5879099 0.44334364 0.6040311 0.24833941 -0.04123003 0.1343894 -0.48346645 -0.16398953
26 -0.38235274 0.25318295 0.103417486 -0.23447858 0.52734816 0.8152916 0.906746 -0.05107535 -0.1260704 -0.22255954 -0.008581787 -0.070731185 -0.1467129 0.6694639 -0.061777055 0.6389315 -0.6198904 -0.2176129 0.3905917 -0.047568686
402 -0.70809424 0.43731478 0.31143537 0.39633137 0.027487645 -0.5534398 0.56711924 0.210348 0.03196015 0.41446832 -0.08859184 -0.680636 -0.07928021 0.52402544 0.23480883 -0.08653807 -0.045180306 0.2800413 0.80286163 -0.01713352
498 0.2726757 0.32494295 -0.15290365 0.4649959 -0.46293774 -0.55855966 0.7000035 -0.14206657 0.7049398 0.35370317 -0.53130454 0.26386523 0.39768562 0.91797894 0.35417548 0.3796558 -0.27402377 0.22999154 -0.50377524 -0.353018
170 -0.22375952 0.21881588 0.06898968 0.22773047 0.4800407 0.77512133 0.9810129 -0.001365834 -0.3368778 -0.17118299 0.20402458 -0.20436274 -0.29302394 0.71706384 -0.18416478 0.75822383 -0.38611355 -0.328391 0.19051315 -0.019313343
284 -0.29654193 -0.24157627 0.4300266 0.07730631 0.622401 0.76120615 0.86780006 -0.181988 -0.29437307 -0.08508084 0.16365524 -0.04290986 -0.32635775 0.91319853 -0.04592361 0.7422682 -0.43020934 -0.18867742 0.11609363 0.042404
297 -0.87599957 0.19139236 0.46430835 0.302116 -0.0045765205 -0.55963254 0.46949175 0.111860126 0.1263118 0.41971642 0.107314415 -0.5961252 -0.0074344096 0.6641409 0.379656 -0.22508618 -0.18373404 0.14339998 0.5997797 -0.21947572
474 0.18444562 0.22784984 -0.14410318 0.39835826 -0.401316 -0.29488748 0.77593505 0.17035359 0.6717843 0.54420465 -0.48226732 0.2115884 0.509609 0.55936664 0.4874531 0.49558687 -0.270335 0.20664078 -0.3901936 -0.06528989
612 0.22208057 0.21901579 0.12968542 0.72836304 -0.30053216 -0.260188 0.57189834 -0.26578152 0.4019134 0.28406122 -0.564778 0.3821767 0.6241563 0.47111917 0.68188167 0.40002033 -0.27089754 0.36150426 -0.2540921 -0.46433648
330 -0.7661518 0.2709392 0.60981864 0.45050073 0.09397386 -0.501903 0.4167699 0.11701141 0.13186261 0.3552481 0.009164119 -0.7812886 -0.21061641 0.67839086 0.48768246 -0.26337343 -0.22222957 0.17305176 0.46560654 -0.15087472
405 -0.80681425 0.3283 0.3939853 0.43282586 -0.14801988 -0.52602285 0.52024066 0.24341172 -0.044974517 0.5025163 -0.13515376 -0.7862312 -0.103508 0.56940615 0.3203735 -0.0970661 -0.13044007 0.21145974 0.66531867 0.03385783
144 -0.34615412 -0.16924791 0.2711407 0.21851912 0.46229476 0.79510367 0.9401933 -0.38489005 -0.37457553 -0.4047066 -0.1984811 -0.1789871 -0.40873283 0.59199625 0.21771035 0.6502421 -0.22709647 -0.07870288 0.21647905 -0.044938795
682 -0.0053181965 0.21490094 -0.2843449 0.79126227 -0.32115006 -0.3894206 0.95098644 0.016239734 0.73630226 0.25320002 -0.61921483 0.28400514 0.6549895 0.59548956 0.5544811 0.28306767 -0.033164967 0.0024201835 -0.4314794 -0.20577922
593 -0.038609795 0.30035248 0.09170929 0.55295044 -0.30349946 -0.32825062 0.36138678 -0.061989944 0.39347863 0.40832058 -0.23967616 0.10033935 0.3679624 0.6112422 0.54094166 0.014066506 -0.17606388 0.60117817 -0.065718494 0.06114542
321 -0.75976694 0.21839987 0.6085646 0.3946653 -0.03256134 -0.5636702 0.46760464 0.057316046 0.1429681 0.26880932 0.010315589 -0.8185675 -0.0523275 0.6446461 0.36707836 -0.21281104 -0.21324691 0.21103647 0.54436964 -0.15729043
494 0.2502302 0.31625527 -0.083982505 0.4104922 -0.48353338 -0.1950716 0.7382619 -0.047588453 0.547243 0.42890826 -0.51128894 0.3114742 0.47334847 0.7041937 0.5335773 0.31154284 -0.16230738 0.2017302 -0.4418344 -0.051405117
317 -0.7381236 0.45876718 0.3782906 0.36800584 -0.07782857 -0.4131675 0.39586887 0.21451479 0.10977014 0.5328525 -0.20795082 -0.738295 -0.15126821 0.50871915 0.39453205 -0.13610944 -0.22245142 0.28093484 0.75573456 -0.04593886
269 -0.3354083 -0.10101165 0.3417388 0.16999623 0.5389781 0.79832375 0.748548 -0.3526368 -0.37186837 -0.24568833 -0.1725032 -0.10779966 -0.3103566 0.7161713 -0.11366362 0.7371321 -0.49835473 -0.08271193 0.5666907 -0.24220572
459 0.28543073 0.16692838 -0.28227144 0.84664077 -0.46659663 -0.3675357 0.7890934 -0.04759711 0.5780375 0.31517413 -0.5552526 0.38347134 0.45458874 0.8584879 0.5283054 0.30431604 -0.0864592 -0.0023537085 -0.36045003 -0.26263547
333 -0.5620474 0.39551803 0.5340938 0.5052921 0.05158851 -0.35343143 0.41590464 0.06261183 0.14471391 0.53291744 -0.22595896 -0.83009034 -0.096208565 0.52980673 0.21747771 -0.18465981 -0.08424177 0.26190856 0.7632735 -0.040760145
582 0.150757 0.33359534 0.060239516 0.4880032 -0.35125384 -0.41466618 0.78911495 0.14764462 0.65864384 0.22857015 -0.52993643 0.6564763 0.42919615 0.6232632 0.5907383 0.45205045 -0.20891592 0.6449173 -0.2716775 0.0006110807
385 -0.7576007 0.17131795 0.42625308 0.2529782 0.0065277657 -0.5401797 0.48076156 0.119702496 0.10262498 0.36086574 0.15987083 -0.6649135 -0.040414263 0.73630077 0.4037876 -0.28479266 -0.20321739 0.2054929 0.55936116 -0.2897275
202 -0.4105052 -0.11949911 0.31825048 0.12408808 0.53952676 0.8712784 0.72930497 -0.43764985 -0.24310149 -0.19129533 -0.05290594 -0.14923501 -0.21444774 0.73806345 0.021822305 0.68510646 -0.148933 0.21895689 0.5385656 0.08473736
696 0.24169008 0.26102874 -0.40083817 0.7771741 -0.36555982 -0.38840562 0.8311668 -0.06519026 0.67051935 0.23456155 -0.5236187 0.36562464 0.60130674 0.87921906 0.3753998 0.36154044 -0.07096314 0.12121046 -0.35858318 -0.170902
347 -0.84247196 0.21715876 0.58523387 0.32318896 0.08076098 -0.51229715 0.36174184 0.100867 0.14666334 0.41869196 0.0024386987 -0.6782046 -0.0625278 0.7108769 0.37699535 -0.27296063 -0.27845275 0.15501769 0.45836037 -0.122489706
442 -0.5610873 0.37355918 0.42742887 0.40967458 0.01949703 -0.4240813 0.52881634 0.13575175 0.094005525 0.54079145 -0.19442093 -0.7621285 -0.13318686 0.5701715 0.2377037 -0.20607889 -0.008382316 0.2621249 0.8522438 -0.07034454
179 -0.21990693 0.07372905 0.16845696 0.20072578 0.34329334 0.8276105 0.98834777 0.08432013 -0.47368416 -0.19780266 0.07907651 -0.25764933 -0.23379707 0.70926535 -0.030154986 0.7092406 -0.3711132 -0.4050806 0.10990206 -0.031197783
568 0.08536479 0.058294307 -0.16351484 0.66595924 -0.33217123 -0.27831548 0.8048806 -0.011402096 0.56922245 0.20293048 -0.8664298 0.48406646 0.6092144 0.5427853 0.716485 0.26537243 -0.1529107 0.08112003 -0.1949765 -0.41505155
174 -0.442499 -0.12153699 0.2937293 0.27698132 0.53928244 0.80786955 0.9794864 0.015556061 -0.41001496 -0.16483122 0.0668286 -0.08190016 -0.2969396 0.7357728 -0.13375844 0.59592074 -0.3938135 -0.21840884 0.08921378 0.07825496
681 0.06290856 0.22853999 -0.34634286 0.63960016 -0.3220883 -0.32556027 0.8444751 -0.04534388 0.75824875 0.3121921 -0.749315 0.19276105 0.72661966 0.7254603 0.4430953 0.30822352 -0.18301451 0.11087262 -0.53063554 -0.11760489
178 -0.31900927 0.14478543 0.34815007 0.22109273 0.510322 0.9220441 1.0633612 -0.17054686 -0.66932875 -0.19439952 0.038094793 -0.048069764 -0.18144116 0.67254704 -0.0096416315 0.5750637 -0.15962365 -0.16344246 0.20264065 -0.15137829
30 -0.37973008 0.3475451 0.2964096 -0.12544699 0.61093736 0.9832272 0.87818116 -0.5190516 -0.34897694 -0.03213187 -0.10521097 0.053309523 -0.18700172 0.83079696 0.15795195 0.5317708 -0.20746385 -0.26355582 0.27136263 0.1630901
87 -0.46173418 0.10867757 0.2756739 -0.017371666 0.30121475 0.84338367 0.9594575 -0.24231121 -0.4211579 0.10429605 -0.2690835 -0.08305276 -0.45690095 0.6733426 -0.3871869 0.4648612 -0.71669304 0.000109574714 0.07030236 0.21766335
364 -0.8147135 0.19185658 0.57097554 0.2524244 0.043478753 -0.61698765 0.5924053 0.08296259 0.039251905 0.5074722 0.16777727 -0.60174954 0.04331711 0.7210588 0.36816844 -0.31710592 -0.11359113 0.2734557 0.5818752 -0.14535373
434 -0.7714344 0.2371693 0.43871146 0.53705555 0.040959977 -0.48826525 0.56513876 0.07101325 -0.01725963 0.43606988 -0.11094051 -0.7577409 0.0153177325 0.58830154 0.11787101 -0.19112483 0.043281075 0.31916136 0.7404519 -0.0752571
226 -0.56704795 -0.10643909 0.23073211 0.07801899 0.6037313 0.72970444 0.70710063 -0.12490841 -0.26883563 0.14745402 -0.10470055 -0.022432208 -0.29616868 0.68997407 -0.2149833 0.78283346 -0.5195517 -0.2020082 0.4592905 -0.014216794
301 -0.7118533 0.36748442 0.40849385 0.47219524 0.07750092 -0.3327236 0.47055206 0.19659482 0.048209548 0.46118066 -0.122626156 -0.7636878 0.004689719 0.5266653 0.31839046 -0.1881898 -0.018147158 0.27560708 0.78358984 -0.14912845
400 -0.6001155 0.44590512 0.3316289 0.3627793 0.10513186 -0.45947292 0.5184445 0.078034356 0.070984386 0.5786545 -0.08994625 -0.8098329 -0.041729875 0.54356116 0.20540363 -0.08145788 -0.03148658 0.33555937 0.83509433 -0.11341103
15 -0.43801504 0.3673624 0.2716278 -0.15856975 0.67539656 0.9583247 0.8743709 -0.37508115 -0.14166458 -0.060686484 -0.23063418 0.10078402 -0.17932719 0.60998344 -0.04257518 0.52607155 -0.53309923 -0.30646384 0.49492303 0.022306506
594 0.15491626 0.20895875 -0.070519336 0.58864003 -0.0110731665 -0.58300817 0.7799019 0.12762472 0.57997876 0.27020368 -0.50185364 0.63838786 0.5914262 0.63398004 0.542789 0.43045914 -0.10946826 0.56916046 -0.08685429 -0.116266355
279 -0.23705947 -0.1669825 0.349166 0.12508409 0.46384108 0.4747375 0.5548591 -0.18228167 -0.3860614 0.006652767 0.17076752 -0.19746007 -0.29563335 0.67299956 0.2374447 0.49651766 -0.39945012 0.13754523 0.4977674 0.11551488
56 -0.3700113 -0.0069805314 0.45705742 0.003484181 0.47411624 0.8740453 0.7429349 -0.37052137 -0.3786822 0.036813013 -0.13431841 -0.07341828 -0.25385353 0.82238847 0.22825654 0.34064323 -0.3554534 -0.26910347 0.11014659 0.3203422
70 -0.3699832 0.22244652 0.28138188 -0.11880928 0.632499 0.8729987 0.7609431 -0.41349122 -0.17372075 -0.07370331 -0.122594245 0.14318062 -0.13674958 0.8763687 0.0022356096 0.6032993 -0.2747852 -0.28229877 0.46884525 0.2055296
544 0.19053757 0.12203256 0.19388689 0.56193113 -0.40865436 -0.2360271 0.5185306 0.07330529 0.3930987 0.34854326 -0.87801635 0.47882915 0.6016467 0.63168585 0.591764 0.33965147 -0.23487344 0.19475113 -0.18155318 -0.44931814
295 -0.79997814 0.1134356 0.38438138 0.26232797 0.0066855736 -0.5927782 0.541791 0.016212877 -0.00762249 0.35153732 0.09365465 -0.59828824 0.076559074 0.7432876 0.21959613 -0.2406156 -0.01058016 0.3852473 0.66982895 -0.278048
546 0.118585795 0.12724721 -0.20856565 0.495749 -0.3073103 -0.52261406 0.6993352 0.2588241 0.54710865 0.26048812 -0.4255606 0.49101448 0.5329934 0.73450816 0.52000296 0.41825902 -0.19567816 0.5478167 0.012144529 0.04983899
366 -0.8407556 0.3994292 0.39791185 0.49936837 0.020292465 -0.48797646 0.46458423 0.17430267 0.05970009 0.39825714 -0.12847236 -0.772007 -0.01939966 0.5020707 0.29743463 -0.115080535 -0.19213429 0.3383465 0.69592094 0.0116540305
452 -0.901355 0.18224534 0.5704698 0.30912706 -0.021355147 -0.5415382 0.5655799 -0.0010118306 0.07459312 0.31887844 0.2438908 -0.52261066 -0.010117309 0.66173923 0.3134521 -0.24544802 -0.16974078 0.2387764 0.6484118 -0.039768036
518 0.1844515 0.16962068 -0.021513917 0.6024605 -0.30418184 -0.39298332 0.81210536 0.12102366 0.8468422 0.38103294 -0.3600244 0.6026326 0.48063412 0.57128984 0.47805128 0.4710296 -0.34528166 0.35223153 -0.24353197 -0.038292527
606 0.22395279 0.17184152 0.18496759 0.59985316 -0.5066061 -0.08151379 0.5354087 0.023832263 0.7108636 0.26289254 -0.8443554 0.4555514 0.5710846 0.6091348 0.63787663 0.4349431 -0.17655043 0.22111252 -0.13983056 -0.29434317
664 0.2649003 0.17912847 0.19423525 0.70885503 -0.3385648 -0.4009554 0.62420994 0.1596021 0.48580542 0.4197481 -0.7211261 0.27248174 0.5203543 0.54338694 0.587714 0.40419367 -0.4111971 0.3047035 -0.34262314 -0.22393964
307 -0.79852873 0.33907607 0.53119075 0.3731946 0.09042346 -0.49004152 0.26501408 0.09867898 0.18027388 0.33684874 -0.007146289 -0.7900638 -0.07368858 0.7336424 0.42467842 -0.19456084 -0.30837366 0.31728083 0.3695475 0.025657019
599 0.1263273 -0.023767425 0.041291308 0.7741627 -0.5559756 -0.18823417 0.6747953 -0.0064903004 0.58880556 0.23960409 -0.8343946 0.47610116 0.5955879 0.6635929 0.49740267 0.27463692 -0.08603849 0.18387356 -0.11339939 -0.31893662
234 -0.3813314 -0.27795318 0.40321648 -0.05066927 0.5861008 0.6216615 0.8658679 -0.3080407 -0.25191942 0.04877402 -0.024879187 -0.06769908 -0.36748382 0.6537823 0.026723387 0.8057223 -0.5234299 -0.22747056 0.15185523 0.025458675
373 -0.6275481 0.36002415 0.62246424 0.39445823 0.16629805 -0.49678826 0.36837184 0.082218856 0.16537678 0.40527835 -0.016701592 -0.7170589 -0.10477062 0.687323 0.5340416 -0.32945415 -0.18249948 0.34900054 0.54231524 -0.12687118
18 -0.3926114 0.324504 0.14692436 -0.04220241 0.5587134 0.81983703 0.9854036 -0.18384871 -0.23398806 -0.29754105 0.12129661 -0.099936076 -0.2177729 0.6490219 0.035066653 0.66964036 -0.467242 -0.25563487 0.31455097 0.0064996947
575 0.104476035 0.060070295 -0.1515141 0.6643724 -0.38465 -0.39583948 0.9787843 -0.0073646833 0.60780007 0.1700803 -0.83727753 0.1957475 0.629331 0.63739234 0.44120947 0.21916355 -0.01576511 -0.004481799 -0.4821215 -0.087005295
479 0.40350032 0.055992913 0.011972348 0.6372642 -0.28886265 -0.41634113 0.86437786 0.26015127 0.51410866 0.5824635 -0.33787274 0.28795177 0.5654797 0.5655631 0.73397815 0.40187353 -0.34522063 0.25835735 -0.2957595 -0.11620368
105 -0.36308905 0.15516773 0.20211057 0.06212566 0.36700842 0.81796026 0.64944315 -0.25739866 -0.4475188 -0.056800913 -0.23221871 -0.17412649 -0.14435467 0.8272269 -0.29443344 0.96627355 -0.3733325 -0.2165434 0.23717831 -0.12838933
338 -0.67909026 0.30586132 0.5902288 0.4433411 0.2398944 -0.5135112 0.3395424 0.15227145 0.27125826 0.47480246 -0.041544233 -0.80196714 -0.10774001 0.59701335 0.5472432 -0.17262134 -0.2397324 0.20387588 0.5135873 -0.073549025
401 -0.6328809 0.3679751 0.40552753 0.4990512 0.12099026 -0.32082215 0.37362215 0.054281488 0.13243522 0.5520639 -0.19348705 -0.83280337 -0.06436472 0.5623242 0.30124682 -0.198922 -0.017588198 0.27729398 0.7696409 -0.16531816
130 -0.52252483 -0.017089136 0.076909125 -0.050032925 0.22902808 0.70618814 0.7370036 -0.34578347 -0.43338218 0.025199026 0.027643396 -0.2409412 -0.48626664 0.7100545 0.06636539 0.6236676 -0.5427494 0.3364072 0.15723617 0.17309767
121 -0.23976827 0.120176435 0.1791614 0.036870413 0.3876248 0.7796527 1.0426564 -0.23205882 -0.6634383 -0.07792087 0.07127962 -0.09544466 -0.2586609 0.8209051 0.0018198134 0.8684634 -0.15073998 -0.2710362 0.124902874 -0.016220797
418 -0.70952934 0.4390997 0.56262964 0.4168249 0.17388588 -0.5261362 0.346631 0.22431321 0.08056629 0.41363853 -0.21260823 -0.7091242 -0.12987822 0.68223125 0.32444417 -0.26301485 -0.17645422 0.3172114 0.55209965 -0.10086168
378 -0.8770022 0.17631221 0.5183191 0.3364588 -0.1469488 -0.45705897 0.31969717 0.045323543 0.13501598 0.4177815 0.1262829 -0.6464929 -0.013507258 0.6820802 0.36027005 -0.20621663 -0.4126461 0.26222885 0.59044504 -0.24977158
693 0.28799284 0.57997996 -0.05117444 0.69300276 -0.3288862 -0.5552232 0.64563984 -0.19026922 0.61349624 0.3903153 -0.40082192 0.37250358 0.61667806 0.81516004 0.37375376 0.49889725 -0.12976177 0.24245176 -0.29276052 -0.07703963
447 -0.63999367 0.42234114 0.39644727 0.42325217 0.08180349 -0.3718589 0.4570846 0.122132465 0.13613953 0.5499688 -0.06661113 -0.7770176 -0.19864777 0.5904792 0.36580884 -0.21306577 -0.11220441 0.3123969 0.6732071 0.014139259
624 0.13844499 0.092159346 0.09545792 0.76181257 -0.44086218 -0.17280634 0.5868893 -0.013637514 0.5359852 0.28414953 -0.8275695 0.52037287 0.737152 0.5928644 0.56266093 0.38946015 -0.16226605 0.09013611 -0.09608453 -0.5044007
409 -0.8784676 0.12322195 0.52945954 0.44290248 0.013822903 -0.5344909 0.47687858 0.081289716 0.15372084 0.4239038 0.22703214 -0.5967019 0.15010698 0.70763564 0.1955077 -0.23723246 -0.1806663 0.27388626 0.6900111 -0.20069478
621 0.16705027 0.19128852 0.23430136 0.71887755 -0.33970422 -0.28509864 0.6243442 -0.1359735 0.54679996 0.43730393 -0.6270213 0.59731656 0.57783186 0.49474552 0.68080837 0.4242415 -0.32135615 0.31287742 -0.30500162 -0.39301854
701 -0.08171061 0.110406615 -0.15682642 0.79308003 -0.23633248 -0.29387823 0.90776986 0.083216794 0.83638394 0.22647385 -0.5727018 0.21096402 0.7342027 0.4937919 0.5923532 0.29242408 -0.17110541 0.09871482 -0.574745 -0.17523949
397 -0.7794925 0.2798647 0.40299934 0.34336117 0.01539033 -0.49538314 0.58850396 -0.007952422 -0.069617115 0.5148112 0.008297936 -0.74580485 0.16081716 0.57431585 0.23196039 -0.120988175 0.041734133 0.29934397 0.7777842 -0.051366884
38 -0.42699638 0.3690885 0.08585195 -0.023369813 0.55934113 0.80904114 0.92611396 0.019978546 -0.2587758 -0.20342547 0.04757932 -0.039685838 -0.3751538 0.55772406 0.15033923 0.8049489 -0.5400386 -0.29802573 0.27908528 0.033009276
414 -0.67825234 0.194767 0.49796295 0.44301695 0.014191206 -0.50741774 0.63465494 0.11221789 -0.013298404 0.39789447 0.021209639 -0.6459515 0.16252132 0.5182988 0.12996353 -0.20088677 -0.0022427477 0.43661132 0.71657336 -0.11727016
604 0.009076959 0.20350298 -0.36568645 0.7750209 -0.18817547 -0.33409646 0.8886639 0.11188187 0.858082 0.099353366 -0.65199864 0.46840417 0.6506086 0.65098673 0.5158581 0.30482292 -0.14128748 0.25489694 -0.29294193 -0.040280614
13 -0.47565234 0.26777485 0.13385552 -0.14647174 0.69103515 0.9344113 0.92063034 -0.41284642 -0.1529071 -0.2595453 -0.08437796 0.041368663 -0.15331186 0.7231584 0.1973514 0.5237574 -0.5020023 -0.26376233 0.49646547 0.24982513
145 -0.52315885 -0.2769522 0.47786862 0.10443163 0.57140034 0.86044204 0.80952364 -0.23145531 -0.07575896 -0.11913833 -0.116570614 0.07283525 -0.22951329 0.5716217 -0.191653 0.7145628 -0.48582062 0.004113521 0.1844476 0.009699161
407 -0.6537605 0.45269153 0.4613203 0.4451374 0.042030096 -0.3138898 0.44710007 0.2130042 0.052036073 0.6679352 -0.11860385 -0.77755535 0.0030714374 0.46935025 0.3124287 -0.11895616 -0.0156020075 0.27966788 0.6879197 -0.056893077
188 -0.5127929 -0.23724146 0.35350215 0.23239109 0.6740213 0.69705176 0.80580765 -0.25940347 -0.15267922 -0.2746225 -0.13846478 -0.263418 -0.2585531 0.7727521 -0.19517154 0.7207868 -0.27466974 -0.10587532 0.14278725 0.17099318
521 0.03595323 0.10434304 -0.36198378 0.7936456 -0.36066785 -0.32342 0.8972592 0.007024823 0.80757487 0.26416326 -0.5733849 0.36515757 0.6916346 0.5720024 0.42680302 0.33217815 -0.40137175 0.124865375 -0.34753126 -0.08197426
381 -0.9283876 0.2855592 0.51561236 0.2632101 -0.032820426 -0.46188486 0.4263966 0.02759221 0.10737159 0.54266304 0.238487 -0.5904442 0.190253 0.6790778 0.18374056 -0.24945578 -0.2590188 0.21262223 0.5175816 -0.27488518
629 0.0034932983 0.2022453 -0.4106157 0.88293976 -0.48951983 -0.31516877 0.91113454 -0.076040305 0.6313371 0.28965876 -0.5643812 0.23775715 0.676361 0.46157336 0.48693773 0.45141205 -0.26496586 0.13173577 -0.38912132 -0.2978309
160 -0.20310903 0.059820164 0.22026661 0.13765125 0.42935726 0.80819017 0.9369391 0.18092377 -0.47830302 -0.19884855 0.15818518 0.00879382 -0.5072585 0.781764 0.18790172 0.6399362 -0.3012967 -0.1838221 0.31237084 0.025748309
391 -0.66665554 0.3807494 0.3995568 0.4366415 -0.07899606 -0.39755455 0.6429277 0.11829471 -0.044718437 0.5691067 0.037308317 -0.8090514 0.07107621 0.48033333 0.25674284 -0.144664 0.019761467 0.40446332 0.78693247 0.08169855
556 -0.031159097 0.090979144 -0.17314655 0.79887336 -0.33657497 -0.41592944 0.7889867 0.06865921 0.6515976 0.18470022 -0.70572406 0.28526053 0.7486288 0.6911864 0.41122547 0.31791818 -0.14013946 0.0036622563 -0.4212724 -0.24919559
580 0.19686583 0.07449181 0.17640696 0.42825502 -0.5548593 -0.35126576 0.4385058 -0.08112792 0.54565734 0.26212028 -0.6818497 0.13339566 0.5605226 0.66063154 0.529327 0.2251497 -0.33183548 0.39694798 0.015719363 -0.09630332
413 -0.61509675 0.38143906 0.3536356 0.42575744 -0.011870229 -0.3493684 0.4323678 0.2250619 0.044692762 0.58412284 -0.13070296 -0.704242 -0.028288824 0.48671004 0.22955814 -0.08056853 -0.024857309 0.3319523 0.7104168 -0.01812879
428 -0.6232256 0.4748206 0.3658849 0.43123916 0.021336993 -0.38177177 0.46762827 0.20575775 0.09859142 0.5568554 -0.12977171 -0.7510155 -0.103822194 0.51345694 0.17668872 -0.15061875 -0.14583261 0.31842485 0.76705897 -0.051609334
514 0.375597 0.14263684 -0.24325752 0.8571348 -0.37445086 -0.41632557 0.82030946 0.019989267 0.5907494 0.3849789 -0.4652709 0.31671366 0.4027262 0.861826 0.55187416 0.33832714 0.020134706 0.06581307 -0.37281308 -0.34763032
510 0.23223919 0.10741853 0.05716028 0.62057155 -0.36281317 -0.46708223 0.8408761 0.182822 0.6941609 0.4389707 -0.32779095 0.4472783 0.6209298 0.4982219 0.5449391 0.5099031 -0.379122 0.19505611 -0.18215181 -0.05281712
127 -0.5102111 0.11920944 0.15046266 0.025890164 0.2478765 0.6968288 0.7742784 -0.37988707 -0.5228231 0.020374447 -0.21871905 -0.012426571 -0.4471584 0.65517455 -0.12598306 0.6397835 -0.66758686 0.0073049227 0.07870259 0.12253444
565 0.2576697 0.28854325 0.082238905 0.72033775 -0.44533157 -0.29114568 0.5598393 -0.11974377 0.64572453 0.3384598 -0.7562876 0.49422774 0.45676574 0.5926309 0.7497809 0.4829126 -0.3328161 0.10465387 -0.2244267 -0.44879705
209 -0.51958627 -0.311579 0.35283607 0.15553182 0.52572453 0.79596996 0.90768236 -0.1722637 -0.25990787 -0.2769296 -0.029643392 -0.13355197 -0.19175327 0.5068146 0.06138507 0.64552146 -0.6317783 -0.039950173 0.13734354 0.038369127
319 -0.8051393 0.1722527 0.55322087 0.40950897 0.036309097 -0.39927694 0.5711079 0.05382021 -0.07715164 0.4717018 0.10583387 -0.6878947 0.29427406 0.62865824 0.10298472 -0.22473012 0.07724703 0.37518644 0.6555551 -0.20115158
417 -0.6850363 0.3162819 0.42387658 0.39989302 0.021992393 -0.49638644 0.5070026 0.17451847 -0.011882707 0.5563683 -0.16860057 -0.76118076 0.05658045 0.59519076 0.16952309 -0.2085591 -0.16828826 0.24385886 0.7722954 0.032282356
680 0.005339109 0.112355754 -0.2748479 0.8251209 -0.32024285 -0.15259142 0.88664484 0.08558342 0.64786255 0.18436255 -0.54739 0.32668927 0.7730233 0.61937344 0.55032223 0.29695636 -0.09250638 0.13713594 -0.5075684 -0.1774525
584 0.029766208 0.18471557 -0.10501846 0.95005715 -0.33247787 -0.34462658 0.8463924 -0.04780463 0.6907243 0.21685477 -0.6339829 0.39231193 0.64731216 0.51146096 0.5328911 0.19322349 -0.13161248 0.005222689 -0.2339119 -0.17237294
439 -0.51189077 0.3670067 0.3921936 0.49258843 -0.00051788124 -0.36647224 0.5312416 0.13393055 0.018120138 0.52771235 -0.13935895 -0.8092135 -0.027106982 0.52790797 0.111073315 -0.18454017 -0.08918802 0.3055395 0.7816232 0.09190329
358 -0.79077315 0.2554898 0.55054265 0.3543564 0.33720517 -0.48565248 0.399521 0.1880416 0.12252875 0.38772598 -0.0020333505 -0.7752235 0.010262199 0.64746153 0.44793248 -0.24347311 -0.20466425 0.29613522 0.5335108 -0.085474245
509 0.3430367 0.1979752 -0.26802006 0.9288528 -0.17741624 -0.47052756 0.71391743 -0.133417 0.58792806 0.43512434 -0.59584665 0.44992176 0.47907722 0.80401105 0.41333547 0.4465773 -0.05122531 0.06647626 -0.241863 -0.33448368
377 -0.6576474 0.2411876 0.40287203 0.4450007 0.11992143 -0.51680875 0.41960463 0.17874317 0.012365928 0.30016991 -0.10972623 -0.8135687 -0.083438925 0.6198188 0.41862 -0.27275962 -0.30790567 0.339748 0.52319443 -0.08155182
432 -0.8281208 0.4361185 0.38616595 0.43891683 0.12839016 -0.335674 0.41649646 0.14306116 0.0349444 0.640815 -0.20671427 -0.7321656 -0.045086045 0.48863262 0.34018812 -0.14967586 -0.07716309 0.3204782 0.72004944 0.013540954
374 -0.8327127 0.23263246 0.5555795 0.30867943 -0.014129346 -0.43659866 0.5653597 -0.034399018 0.009714198 0.3810486 0.13519444 -0.76347965 0.1955368 0.70467204 0.10783109 -0.2690505 -0.08992016 0.34758946 0.6714628 -0.15027328
336 -0.9663368 0.14014849 0.55710036 0.252279 0.029798273 -0.45348868 0.37573016 0.1346628 0.08133243 0.48669913 0.09316724 -0.5768875 0.17094474 0.795362 0.35437077 -0.28642073 -0.17845242 0.2281576 0.6337833 -0.19722031
370 -0.70604753 0.3693989 0.39393348 0.47511408 0.11232548 -0.36359125 0.4158276 0.20639646 0.18528168 0.54626197 0.051663086 -0.7240478 -0.0009259382 0.5861275 0.23446333 -0.13708329 -0.14813069 0.30072358 0.83529866 -0.07014611
335 -0.56236017 0.29686347 0.46820915 0.38247675 0.18402159 -0.4046189 0.4212493 0.12464468 0.13323244 0.58747333 -0.15195478 -0.84311014 -0.033945605 0.6817839 0.26930946 -0.23038864 -0.070685275 0.231673 0.81903446 -0.06329878
158 -0.42511523 -0.08325543 0.30353805 0.19139265 0.3935736 0.739025 1.0667378 0.018368367 -0.41940993 -0.40764487 0.11390141 -0.050903775 -0.42318213 0.74434364 -0.0026862654 0.6472733 -0.31112185 -0.21280648 0.352393 -0.00480987
58 -0.38716656 0.19937287 0.48853087 -0.17579526 0.60536116 0.91574854 0.77070874 -0.45860076 -0.40652958 -0.13683562 -0.24133642 -0.029960733 -0.17795064 0.78881377 0.29402363 0.40705055 -0.35264432 -0.18967777 0.34238222 0.12640233
404 -0.5361018 0.37066317 0.330589 0.5025824 0.04205906 -0.37540224 0.48900038 0.24630263 0.032129463 0.53814375 -0.05636896 -0.82399225 -0.0028444913 0.58159506 0.13300876 -0.1800793 -0.07307082 0.35105127 0.7575606 -0.01437399
372 -0.78814685 0.32508996 0.39593664 0.41462368 0.028441096 -0.41418794 0.3543954 0.15852831 -0.034098364 0.37543514 -0.11672038 -0.8224526 -0.006263753 0.61716545 0.2964608 -0.15137842 -0.30546308 0.22524163 0.65361434 -0.013217367
636 0.10873325 0.19817764 -0.31971586 0.7094151 -0.32989916 -0.3705607 0.8571284 0.010392292 0.76090586 0.2762912 -0.64160496 0.17234272 0.643078 0.8175774 0.40910876 0.22536941 -0.10787086 0.05242277 -0.5331561 -0.14723112
415 -0.7823425 0.5348111 0.62339556 0.47780392 0.13143444 -0.36926034 0.32785612 0.18611525 0.2589991 0.46012214 0.05577062 -0.83093035 0.058819104 0.5926645 0.41702312 -0.16256353 -0.16140354 0.3878086 0.4881097 -0.05927193
305 -0.8842149 0.2852195 0.48157397 0.4518208 0.21647821 -0.5040549 0.30418265 0.11504993 0.15604796 0.44557157 -0.1387039 -0.7596977 -0.05730315 0.66633046 0.2863235 -0.16772553 -0.21963194 0.38016844 0.5090908 -0.002073427
111 -0.39168948 0.03913897 0.16515574 -0.003134304 0.13727137 0.7487396 0.917723 -0.39768595 -0.5908586 -0.00908991 -0.056732412 0.10242907 -0.53695893 0.5982011 0.07012242 0.5036746 -0.55244046 0.20074528 0.2311924 0.07437031
421 -0.7041376 0.3522631 0.4534761 0.45966133 0.04091787 -0.36414543 0.55685383 0.17212284 0.064465895 0.64407855 -0.13726825 -0.6884103 -0.095361695 0.46844217 0.076881945 -0.17121473 -0.011924895 0.39888626 0.74753076 -0.036554836
446 -0.6150362 0.4483626 0.4133504 0.33121356 0.031216713 -0.36640108 0.42890587 0.15690291 0.098788336 0.6112498 -0.10061102 -0.8559386 0.011121006 0.50901157 0.23579048 -0.1516451 -0.21494058 0.2786164 0.64985526 -0.087710716
312 -0.8468046 0.20577727 0.45894507 0.31539744 -0.0054241596 -0.60858816 0.48145083 0.026874155 -0.0055482294 0.39785135 0.2185675 -0.6259886 0.22495128 0.77139807 0.19195189 -0.21413267 -0.18288243 0.25525436 0.6004285 -0.16524988
