2496 20
1697 -0.30025652 -0.056727014 0.23806927 0.15706164 0.10765281 -0.14172068 0.023535624 0.65070915 0.63187253 -0.20829237 0.063915364 -0.22477733 -0.19927642 0.029151147 0.34195998 0.6005774 -0.37213635 -0.18663733 0.0073043853 -0.47366703
438 -0.29419032 -0.005156714 0.1947572 0.22470355 0.2124458 -0.10995639 -0.04671441 0.61697245 0.6154537 -0.21109876 0.11093158 -0.123276904 -0.14571199 0.0892404 0.25587198 0.48176992 -0.37630773 -0.25114736 0.01887139 -0.4426703
1906 -0.32011092 -0.12034633 0.26102167 0.25935692 0.21084556 -0.060639895 -0.0033246037 0.6967439 0.6020806 -0.16013862 0.124127254 -0.21853188 -0.15405935 0.011478102 0.34054598 0.5484585 -0.25130954 -0.21507937 -0.008744223 -0.50625074
489 -0.55085444 0.17593315 -0.0063636196 0.24575882 -0.05689736 -0.21722132 -0.105110325 0.38310745 0.5288319 -0.074627906 0.16399856 -0.23875494 -0.1053496 0.007920837 0.29588 0.5490807 -0.17317162 -0.1679855 -0.138651 -0.60318404
1364 -0.43489763 0.04243301 0.07300308 0.20163037 0.10557682 -0.16738696 -0.04286053 0.5129128 0.70236444 -0.15248021 0.09613628 -0.27114663 -0.19076905 0.025150668 0.22124009 0.43472037 -0.31723392 -0.16882032 -0.030740187 -0.63315934
2188 -0.438979 0.06487454 0.13396634 0.21164215 0.13644268 -0.15443738 -0.06519413 0.56495976 0.6501935 -0.24977869 0.19767264 -0.20241006 -0.14868437 0.100649014 0.28958857 0.5204282 -0.36783004 -0.16685504 -0.062105175 -0.53280705
432 -0.54919964 0.14456272 0.07025187 0.28029737 0.016950259 -0.16458452 -0.052689277 0.5255958 0.55120033 -0.16244748 0.22987832 -0.15597132 -0.13188447 0.054290302 0.3269781 0.51386446 -0.29663625 -0.19110028 -0.17284155 -0.6038671
1909 -0.3730487 -0.0074295457 0.13262814 0.24987856 0.16074611 -0.14779012 -0.018899204 0.56016266 0.40630648 -0.032073148 0.06288308 -0.2935104 -0.16823536 0.11808021 0.25122693 0.5138915 -0.09926405 -0.16688253 -0.00883269 -0.39590126
2037 -0.48956168 0.072663456 0.0593083 0.18961157 0.033147994 -0.16540813 -0.07089867 0.44825718 0.64372087 -0.1380071 0.14455391 -0.28420073 -0.21128659 0.091270395 0.20300971 0.46365666 -0.30237693 -0.14103095 -0.0027478635 -0.5862274
552 -0.37884834 -0.00042900257 0.23990893 0.27049068 0.16922785 -0.038520332 0.14234716 0.7544188 0.5264247 0.008176919 0.09025006 -0.2987861 -0.12761748 0.047504023 0.29748434 0.54775095 -0.2149492 -0.17376424 0.014120905 -0.4959353
1284 -0.39651844 0.038491067 0.19850922 0.19675389 0.18171607 -0.16621317 -0.14953138 0.6024362 0.7070896 -0.09456021 0.10104362 -0.1411025 -0.18476413 0.02302293 0.33551982 0.52335066 -0.42285657 -0.15924782 -0.06470642 -0.53029245
1884 -0.46751174 0.034111355 0.1785913 0.280314 0.16511959 -0.041622955 -0.0671236 0.62705445 0.56131685 -0.088759474 0.122505635 -0.23203029 -0.22523822 0.009719748 0.25888994 0.5539475 -0.31588316 -0.1883097 0.06745112 -0.48699385
2106 -0.48524553 0.061991673 0.13675721 0.22549185 0.19633256 -0.11087492 -0.1377759 0.5979044 0.5759181 -0.21119045 0.22031538 -0.16652325 -0.18843953 0.13758528 0.19250502 0.53925765 -0.47046977 -0.20896147 -0.045215532 -0.42013097
726 -0.36916262 -0.14515658 0.1772924 0.18002658 0.124117315 0.013704466 -0.070059195 0.6272336 0.7474367 -0.120838456 0.09967912 -0.2517676 -0.297677 0.13006404 0.2616767 0.59168154 -0.30180782 -0.1153203 0.10631527 -0.46313757
2261 -0.39659253 0.19821574 0.27275735 0.30829972 0.13009298 -0.18828757 -0.10064798 0.6130459 0.5103227 -0.12934269 0.18379192 -0.13537496 -0.13368507 -0.03142646 0.25859007 0.5751794 -0.3935275 -0.14196388 -0.046189062 -0.5254729
1753 -0.4103695 0.016877802 0.06463445 0.22883953 0.1667171 -0.16843261 -0.0381162 0.60651964 0.6287047 -0.20752531 0.06705155 -0.15984572 -0.1565914 0.0055986415 0.33218133 0.4412702 -0.5042142 -0.24804035 0.013896462 -0.57264674
2158 -0.41759482 -0.09543 0.032761153 0.07109031 0.21033376 -0.09171303 -0.00079909497 0.65760374 0.8317311 -0.20274399 0.036929663 -0.23297574 -0.124224156 0.090842016 0.3046325 0.55461156 -0.30097193 -0.21846423 0.080040604 -0.49349073
1136 -0.32611594 -0.00047802672 0.24451289 0.15762465 0.24150476 -0.18342824 -0.019292882 0.5642624 0.7126731 -0.17358996 0.2386023 -0.21971205 -0.08992672 0.13885084 0.32268643 0.4603562 -0.41794112 -0.27511 0.030000122 -0.43677682
1856 -0.3418505 0.00759877 0.1928491 0.1860545 0.15101652 -0.15542623 -0.040165074 0.65161216 0.6370441 -0.24087766 0.229977 -0.13947241 -0.1632831 0.15157907 0.28851599 0.5880628 -0.41560012 -0.1220666 -0.01694838 -0.4460013
1630 -0.42475203 -0.04584594 0.11941361 0.1233132 0.17799935 -0.1798089 -0.077178724 0.5823074 0.7393795 -0.33173266 0.13522 -0.13736719 -0.25034758 0.01392303 0.3203685 0.6140848 -0.5161235 -0.26043332 -0.010182791 -0.45274127
2362 -0.23817985 -0.030237058 0.17603078 0.2027035 0.23384225 -0.21975489 0.0060701543 0.6793169 0.7313711 -0.096244566 0.08188486 -0.21061634 -0.30376944 0.08462537 0.3169977 0.42398983 -0.31429482 -0.052809842 -0.004042214 -0.53489465
701 -0.4249774 0.24038342 0.14634705 0.25670505 0.108998306 -0.19686866 -0.0651123 0.49815908 0.52587396 -0.18378386 0.14660262 -0.1877785 -0.20066266 0.021141881 0.4131197 0.5362555 -0.38935116 -0.10244391 -0.07942096 -0.54127634
2472 -0.39027488 -0.019024834 0.14766076 0.14371507 0.15904243 -0.19763814 -0.121097125 0.6425204 0.6321721 -0.12659399 0.15228121 -0.115613975 -0.36693594 0.15820868 0.27283508 0.46892145 -0.44071835 -0.11175215 0.066561736 -0.42680213
545 -0.34566182 -0.11829187 0.22330545 0.19244073 0.16360831 -0.13995686 0.060638465 0.7720073 0.702692 -0.2130015 -0.00051141536 -0.19773951 -0.09759032 0.041327868 0.25594726 0.56416154 -0.30927178 -0.37733948 0.057630893 -0.44223273
774 -0.28865576 -0.16145943 0.11806747 0.23590147 0.21095516 -0.076260015 -0.02840502 0.7162815 0.77246433 -0.21612835 0.08137671 -0.11338099 -0.2619199 0.15389946 0.3580184 0.50476354 -0.28093413 -0.218167 -0.0033787512 -0.4410598
2112 -0.42525253 0.14090869 0.08687724 0.2517696 0.2341468 -0.0013739401 -0.16319697 0.57847804 0.46017888 -0.17985125 0.060120262 -0.15423615 -0.24863434 0.0032405087 0.36348772 0.56493723 -0.37460876 -0.18491133 0.017620422 -0.3999573
948 -0.5274797 -0.009041806 0.20043227 0.1382605 0.08895642 -0.032689247 -0.080565415 0.618401 0.69775593 -0.1976851 0.26366663 -0.120980404 -0.22702546 0.13963205 0.31396797 0.5861934 -0.39360765 -0.22014359 0.0005801743 -0.46786177
894 -0.60903984 0.08842681 0.17877255 0.21166177 0.17050222 -0.14395295 -0.12947655 0.67408115 0.5894331 -0.16887863 0.21514279 -0.13164258 -0.2037808 0.057681087 0.25506476 0.51955503 -0.48693913 -0.29092145 0.057039373 -0.46666586
1122 -0.51658195 0.16669405 0.25912938 0.2953631 0.09629464 -0.055190727 -0.06449839 0.48847562 0.5376342 -0.12232851 0.310389 -0.26242673 -0.100195326 0.045959543 0.18333973 0.4687437 -0.34384227 -0.32104248 -0.030895842 -0.520498
1369 -0.562974 0.17685671 0.06846288 0.26605308 0.070723936 -0.08670103 -0.11508196 0.46611527 0.42237672 -0.11074639 0.20726433 -0.25560454 -0.12514542 0.0659482 0.19468966 0.5022193 -0.38867968 -0.18434875 -0.08011107 -0.53621954
1023 -0.5452426 0.28165558 0.17623708 0.36007878 0.015918866 -0.216913 -0.13406993 0.47532684 0.49134737 -0.19921583 0.22137049 -0.2731594 -0.17446952 0.03021909 0.16454966 0.530132 -0.40718088 -0.17187807 -0.07807763 -0.5586049
957 -0.32055122 -0.028375372 0.10434351 0.20516409 0.3067309 -0.12428915 0.010679035 0.70903075 0.7463344 -0.22085534 -0.0066844025 -0.0959838 -0.247226 0.069866635 0.4271138 0.5227117 -0.34425446 -0.21116364 -0.036588166 -0.46724966
1096 -0.20023115 -0.22666892 0.12894116 0.14082535 0.19635953 -0.15526277 -0.047610946 0.6625865 0.75354546 -0.09971862 0.123693086 -0.05476663 -0.2046065 0.15246135 0.28094918 0.48105046 -0.2571027 -0.1875755 0.11723734 -0.42165044
1089 -0.5363956 0.050041992 0.1930718 0.25801826 0.13981374 -0.08047887 -0.19358647 0.69040024 0.48591012 -0.0828057 0.13858177 -0.16665508 -0.18940078 0.10531847 0.16571881 0.4893305 -0.41294318 -0.3265158 -0.005262232 -0.38474196
650 -0.45222086 -0.048028413 0.04160927 0.14586017 0.26333225 0.030149061 -0.07359604 0.6431262 0.6597457 -0.17749391 0.081609815 -0.11910535 -0.28704634 0.15131207 0.43506306 0.5773161 -0.40034303 -0.1922814 -0.2011848 -0.39183328
1311 -0.46650445 -0.0067519625 0.122001655 0.2191233 0.04845137 -0.1171116 -0.11080977 0.59177125 0.59460926 -0.20138444 0.091172084 -0.124227956 -0.2757749 0.12028232 0.25053754 0.32869053 -0.37450266 -0.14260188 -0.0320891 -0.6926056
1521 -0.43054274 0.061866067 0.22377121 0.1310897 0.14672902 -0.133881 -0.17662181 0.6125449 0.66416466 -0.28554872 0.25502238 -0.12125065 -0.183667 0.020922508 0.17564054 0.5375072 -0.5348323 -0.26296857 0.053895257 -0.4703587
2260 -0.5447665 -0.009609634 0.20288807 0.19803935 0.08941119 -0.17401436 -0.09610557 0.57290256 0.6625603 -0.14077938 0.17131884 -0.2032971 -0.22691508 0.1342668 0.23777351 0.5847136 -0.52662796 -0.23580918 -0.0010647931 -0.45380056
61 -0.38934755 -0.016755229 0.21565744 0.15911134 0.18355927 -0.12818162 -0.06502823 0.5859961 0.7051781 -0.38120493 0.2574126 -0.15396242 -0.35716316 0.05105309 0.3082962 0.5736905 -0.45755994 -0.2461255 0.008669411 -0.42107508
434 -0.40033796 0.113615364 0.0592487 0.36466295 0.09220579 0.027232794 -0.020393034 0.690404 0.5217806 -0.013096254 0.13187791 -0.13108112 -0.23720574 0.09883789 0.32255897 0.49610677 -0.075537845 -0.08233597 -0.11440288 -0.51558495
749 -0.5970059 0.034724332 0.27044472 0.32622153 0.23945035 -0.17691474 -0.096624576 0.6184885 0.5751949 -0.18112078 0.19326349 -0.27640024 -0.13033725 0.12608823 0.18313506 0.51108897 -0.43918473 -0.3375202 0.044531755 -0.43886387
2117 -0.34972963 -0.03953023 0.07220546 0.27429572 0.28631258 -0.05261586 0.03847876 0.79519504 0.566739 -0.0064806137 -0.026417777 -0.1784935 -0.2542168 0.113141544 0.43231767 0.5163356 -0.21942478 -0.06518416 -0.012635436 -0.4587729
2207 -0.42042905 -0.07677583 0.28466094 0.12263219 0.119358934 -0.26577085 -0.08239701 0.5472717 0.50269985 -0.3222363 0.20575127 -0.19639805 -0.063574165 0.1582738 0.26180595 0.55551 -0.4164312 -0.16368333 0.11183713 -0.50007844
1313 -0.57929724 -0.008126619 0.15969785 0.16548267 0.0851926 -0.20357685 -0.14206815 0.5502937 0.6787896 -0.21808794 0.26246783 -0.24824017 -0.2772431 0.06918557 0.12297612 0.5706321 -0.4557625 -0.2226317 0.03428011 -0.48096249
2403 -0.22859588 -0.16946034 0.18871899 0.1590274 0.23356077 0.03639498 -0.013194428 0.7414381 0.7095238 -0.17369235 0.014692296 -0.1990236 -0.10858195 0.05999693 0.35038903 0.60126776 -0.2323712 -0.2369266 0.03769847 -0.41274926
2219 -0.51210797 0.0026410413 0.14994894 0.20434034 0.115104996 -0.10892108 -0.064327866 0.6669161 0.6707322 -0.23634756 0.27996168 -0.16404895 -0.1660454 0.11782519 0.14530805 0.52587456 -0.5703047 -0.34204954 -0.008725794 -0.43888348
2464 -0.5055234 -0.014529289 0.31753916 0.3154334 0.071479015 -0.14000204 -0.0945428 0.62532234 0.52017164 -0.18899877 0.19713676 -0.17292611 -0.22128232 0.14091425 0.2538474 0.5741063 -0.3757795 -0.2215668 0.07827554 -0.45425475
1365 -0.40770268 -0.014836574 0.1430221 0.27947047 0.30215305 -0.06897068 -0.18309097 0.59953976 0.69323456 -0.24888074 0.037337147 -0.07366264 -0.3043505 0.05666575 0.34909418 0.57431746 -0.4569299 -0.26078552 -0.02987056 -0.39416948
1784 -0.74738693 0.17993672 0.08132873 0.20707911 0.036919065 -0.013333457 -0.14454316 0.53688884 0.4559084 -0.20159233 0.14970717 -0.23412497 -0.2849318 0.056858677 0.24013792 0.6049002 -0.4843787 -0.21991742 -0.026308952 -0.49401346
655 -0.623082 -0.08472484 0.25952026 0.20842841 0.072951496 -0.11972761 -0.13541183 0.58516246 0.5712203 -0.27132317 0.14228228 -0.17472874 -0.15710525 0.12593982 0.28976873 0.5415307 -0.4440407 -0.28851783 0.13465436 -0.5326967
512 -0.5017701 0.05885378 0.3139899 0.25277144 0.10688563 -0.1793725 -0.12714167 0.56149584 0.67073584 -0.2266168 0.3565382 -0.11104361 -0.29910114 0.16540265 0.3021962 0.6022718 -0.56851906 -0.20305982 -0.041864738 -0.4082196
2347 -0.44681647 -0.17178932 0.044195626 0.100370705 0.17309853 0.0011981691 -0.11795529 0.7343056 0.8260818 -0.11125913 -0.09746035 -0.17218414 -0.24089876 0.10160432 0.3758905 0.49507427 -0.2714708 -0.19433042 0.106122546 -0.54261786
941 -0.56566435 0.09144481 0.27488083 0.1632196 0.1638646 -0.079036705 -0.23483117 0.6861648 0.5907871 -0.1852287 0.20741518 0.007465182 -0.15764925 0.06467832 0.24020544 0.45754287 -0.39659193 -0.35152322 -0.04562341 -0.48873794
348 -0.48635006 0.099463046 0.2908581 0.23506354 0.06745762 -0.21220703 -0.19021773 0.52317333 0.63325465 -0.2528542 0.30089548 -0.072227515 -0.1805414 0.1010935 0.08042744 0.5281915 -0.52588546 -0.30150518 -0.032980114 -0.46948445
579 -0.34851518 0.22850107 0.1757088 0.40187725 0.18055189 -0.1647022 0.06817527 0.6790648 0.53433764 0.2071065 0.1277684 -0.2720732 -0.16639686 0.11889395 0.17474237 0.4334944 -0.17130332 0.0060386513 0.05530157 -0.53036475
1021 -0.6878762 0.26011926 0.11919592 0.34833974 0.1257544 -0.06619906 -0.107857645 0.6103727 0.40653306 -0.14403854 0.14823356 -0.14227627 -0.16416149 0.09763429 0.21109918 0.43623382 -0.4223594 -0.30938977 0.0049382355 -0.5011298
681 0.027503036 -0.12519532 0.18389249 0.1603555 0.30298182 -0.13040756 0.07517954 0.7944705 0.71918255 -0.18914114 0.060319968 -0.13441002 -0.15109605 0.027728127 0.55807656 0.5201477 -0.1511437 -0.24860297 -0.120881885 -0.34444222
1338 -0.7160114 0.117897116 0.13422304 0.12280465 0.1671399 -0.14252728 -0.10590443 0.5893588 0.56384575 -0.2779754 0.19023858 -0.1566661 -0.30817485 0.07282809 0.26068473 0.5624124 -0.47885004 -0.36389315 0.05887133 -0.38184306
439 -0.30555373 -0.13780434 0.10474726 0.072264194 0.27191404 -0.060672022 -0.097808935 0.76242113 0.76910245 -0.12689903 0.0826334 -0.045264896 -0.20297043 0.08594483 0.27206275 0.4736141 -0.37762433 -0.24477547 0.06598713 -0.44006178
672 -0.56075954 0.00310866 0.19831195 0.13977888 0.08413264 -0.19504455 -0.12281247 0.59285796 0.6656641 -0.30813086 0.26776874 -0.27148744 -0.28970563 0.096833766 0.12694958 0.45872438 -0.5701666 -0.25182688 0.06998906 -0.52913827
1084 -0.494327 -0.14935365 0.2238318 0.23084511 0.18653286 -0.14267325 -0.03357067 0.64719087 0.6255062 -0.15963317 0.13891637 -0.24246594 -0.12084552 0.12541759 0.2753956 0.67202806 -0.2945957 -0.24213548 0.08930524 -0.39028147
977 -0.35429177 0.25227588 0.010766162 0.31544444 0.3406522 -0.007561469 -0.09816272 0.73051095 0.5537071 0.0145115405 0.039742295 -0.120075434 -0.22535786 0.066523 0.47037968 0.39253646 -0.21739684 -0.07382131 -0.15998365 -0.48107135
2388 -0.30250287 -0.17298707 0.2211667 0.33454147 0.18777068 -0.1183593 0.1592331 0.85724604 0.4939904 0.13543478 -0.016038965 -0.34689772 -0.05969827 0.091596514 0.37368742 0.6085794 -0.012483095 -0.11915409 0.020561174 -0.45476335
1633 -0.516321 -0.057757366 0.18349963 0.18230326 0.104828015 -0.15876664 -0.20003027 0.6783968 0.7991025 -0.110328846 0.12989819 -0.09995299 -0.24786483 0.049643125 0.20584795 0.44888854 -0.34170103 -0.28245294 -0.08586695 -0.5681497
1564 -0.43359682 -0.036071625 0.37443867 0.18412763 0.15066977 -0.24409811 -0.12788934 0.5504503 0.6044225 -0.3092899 0.26899096 -0.27110326 -0.21759015 0.16022418 0.14466378 0.40757263 -0.5423452 -0.25710168 0.14030455 -0.5018576
463 -0.44639838 -0.2747573 0.11165738 0.049811717 0.19537465 -0.07697134 -0.02422185 0.6941159 0.74765044 -0.017381463 0.1686752 -0.27015033 -0.12205677 0.1497849 0.31637403 0.5281987 -0.3333145 -0.16603354 0.11371104 -0.49263406
1439 -0.54560864 0.1615962 0.16084135 0.15172632 0.174389 -0.24884692 -0.17523505 0.64615655 0.5537478 -0.3043053 0.1741397 -0.029469265 -0.18490674 0.07669335 0.2354985 0.615293 -0.600402 -0.22765787 -0.01600469 -0.40494365
1246 -0.12173955 -0.023442538 0.097009666 0.1993239 0.2323016 -0.11262111 0.13944928 0.7199724 0.6307519 -0.19642314 -0.1661945 -0.14107509 -0.17555968 0.12432755 0.5104247 0.5438947 -0.22393198 -0.1670683 -0.029873736 -0.38977292
1929 -0.4794 -0.22124721 0.1973159 0.2100248 0.31999266 -0.023068266 0.16037147 0.74100524 0.5744791 -0.32776293 0.0020907125 -0.28490168 -0.075253904 0.14734241 0.50230265 0.5102322 -0.065984406 -0.32073757 0.15373497 -0.49751318
391 -0.1846242 0.25638166 0.37646303 0.2840527 0.13543737 -0.020129424 0.10840331 0.79161125 0.5270935 0.0035936674 -0.06069714 -0.3371798 0.09367056 0.07491557 0.3160794 0.53625315 -0.08973611 -0.2567639 0.04121323 -0.3988737
1257 -0.5179927 0.15312308 0.19483364 0.14974046 0.12093396 0.052380916 -0.093740895 0.7398737 0.47745255 -0.17106888 0.21132518 -0.15452993 -0.24216232 0.059524592 0.0837758 0.5303595 -0.3523995 -0.21764517 -0.018231679 -0.44349957
1413 -0.55700994 0.12002532 0.15357815 0.2675265 9.287761e-05 -0.09371054 -0.1067371 0.46513662 0.5609902 -0.3834889 0.21066886 -0.32715258 -0.16808985 0.20224655 0.13824531 0.48568496 -0.4141001 -0.14638078 0.005753449 -0.596645
892 -0.64132434 0.24591118 0.18908836 0.28465757 0.10541801 -0.19154446 -0.19673437 0.6286987 0.38411686 -0.2115277 0.24786857 -0.07585088 -0.34106216 -0.053358 0.26697984 0.5656716 -0.4995333 -0.21216398 -0.017720561 -0.47659588
986 -0.366322 -0.2143593 0.1038455 0.15667522 0.27147454 -0.08165233 -0.0729111 0.6957705 0.76485366 -0.3384786 0.08163525 -0.1987293 -0.115015835 0.1180266 0.29262662 0.6281406 -0.358074 -0.18423483 0.097195335 -0.45956957
1605 -0.23162663 -0.14938833 0.28072053 0.40846232 0.27370235 -0.29917273 -0.037312746 0.6698506 0.5570341 -0.008658836 0.043256488 -0.26964596 0.13754281 0.17791316 0.32698315 0.55342305 -0.33812985 -0.1599231 0.039351624 -0.4461105
2269 -0.21014237 -0.15049575 0.08770002 0.083829306 0.33771992 -0.14373423 0.042278964 0.7235624 0.9106974 0.010183694 0.10999238 -0.1424877 -0.20020707 0.12247598 0.20329662 0.43478987 -0.35094795 -0.18816043 0.22582042 -0.41654193
989 -0.3691037 0.06309647 0.31705397 0.1816357 0.27850118 -0.24332853 -0.16007411 0.6676198 0.6938002 -0.40174976 0.107751004 -0.06530295 -0.10519358 0.03206487 0.33899987 0.5498188 -0.46278578 -0.28530064 -0.076996766 -0.48691052
1900 -0.5172087 0.03629826 0.17293067 0.101297155 0.12766525 -0.1011917 -0.12928148 0.69166607 0.5014222 -0.26150772 -0.03558713 -0.29507795 -0.0275677 0.08542656 0.17941454 0.48763305 -0.4843776 -0.2929946 -0.21714368 -0.5490911
1613 -0.5386906 0.09325227 -0.016318982 0.4160745 0.14875706 -0.094233915 0.017132737 0.71328664 0.39545295 -0.038828235 0.09942313 -0.10510921 -0.25461826 0.094598345 0.26785776 0.5000977 -0.36880332 -0.124360554 -0.16969602 -0.5244236
21 -0.55893993 0.20482475 0.20844392 0.53218496 0.053094614 -0.07139866 -0.107006855 0.5775206 0.34862956 -0.17504272 0.14699121 -0.24131656 -0.14844571 -0.01119581 0.108323544 0.46398735 -0.28607932 -0.31596813 0.02770431 -0.5453454
1716 -0.4203397 -0.055510268 0.23343146 0.0549137 0.15388744 -0.23945165 -0.08792645 0.56623065 0.628511 -0.31511998 0.32391378 -0.21205458 -0.10202912 0.18595147 0.18627712 0.48304263 -0.48017445 -0.18967041 0.10797792 -0.48624521
110 -0.6015563 0.074368395 0.30456373 0.34176847 0.07281426 0.16548985 -0.09022233 0.53093547 0.4293899 -0.18994674 0.17093314 -0.42819738 -0.17176665 0.0066038524 0.22438546 0.68020517 -0.33247226 -0.33648917 0.09701572 -0.39981207
1622 0.008716896 -0.29727748 0.3966007 0.34484464 -0.08907357 0.12381023 0.067540385 0.58665055 0.5221186 -0.15683869 0.016425371 -0.60616475 -0.034041833 0.044115946 0.44100785 0.5770447 -0.055068582 -0.2805395 -0.09577602 -0.5030951
2022 -0.49036413 0.37788603 0.20530108 0.22362234 0.2778008 -0.079038605 -0.16654909 0.6971421 0.57726175 -0.16585174 0.14568011 -0.12734602 -0.4312618 -0.03396308 0.3629761 0.45910475 -0.32012117 -0.16633515 -0.13562937 -0.44829553
703 -0.36282048 -0.12826072 0.22329772 0.24736378 0.22064129 -0.14032483 -0.12614031 0.62048846 0.81779695 -0.3715564 0.41723952 -0.052460063 -0.39114794 0.09614554 0.31017643 0.6149577 -0.48454458 -0.20917197 -0.03689674 -0.40056765
1632 -0.39610586 -0.21800467 0.15829717 0.17681608 0.2135244 -0.123351544 -0.104918495 0.8475363 0.82921433 -0.28159127 0.06612797 0.02154524 -0.1328443 0.036543902 0.32856315 0.5211622 -0.44506577 -0.38643104 0.050533008 -0.51322085
2250 -0.45150715 -0.13906373 0.31870174 0.21984231 0.122734986 -0.24876654 -0.01038893 0.6536984 0.5975143 -0.25973886 0.33078608 -0.13475484 -0.15592527 0.19260557 0.28774822 0.56604856 -0.29048952 -0.14760187 0.18230689 -0.48075047
161 -0.12900813 -0.20127986 0.03630549 0.078846276 0.3723277 -0.16759272 0.04887694 0.6845605 0.83793086 -0.1908223 0.09646811 -0.09261389 -0.18245159 0.04435891 0.47748655 0.5266437 -0.2599697 -0.15555312 0.101434186 -0.4220221
1516 -0.31369117 -0.25022903 0.044061992 0.15759115 0.3441306 -0.07118162 -0.004517748 0.7203509 0.786524 -0.20333402 0.16716565 -0.22922038 -0.23563926 0.108377695 0.33385524 0.43154183 -0.29559487 -0.18821384 0.15519965 -0.48056653
2128 -0.49518478 0.2523363 0.20132266 0.42714885 0.05658987 -0.35236105 -0.10926294 0.48357788 0.56276566 -0.16479878 0.22750358 -0.34559476 -0.21907589 0.04275081 0.11570552 0.45981896 -0.5552395 -0.22742958 -0.011278606 -0.51288897
1725 0.72540474 0.07409314 -0.123350464 -0.3908605 0.4289619 0.035106752 -0.2862744 0.002078636 -0.5373437 0.32654455 0.1043524 0.08860595 -0.41257998 0.79138386 -0.1343752 0.7547106 -0.10492854 -0.92182034 0.18956931 -0.8765731
1225 -0.5019366 0.5018545 -0.5310992 0.2904491 0.022460027 -0.21949852 -0.009997418 -0.09615345 0.38466388 -0.020021584 0.0606979 -0.32939288 -0.09398804 -0.039023746 0.31669217 0.38429302 0.1546932 -0.17880622 -0.24653934 -0.9140619
387 -0.62860686 0.005966056 0.22806376 0.3219189 0.12710445 -0.08045331 -0.19153225 0.6371374 0.54307246 -0.21771258 0.18977901 -0.2570895 -0.19026433 0.07967134 0.11042319 0.6353091 -0.46624157 -0.22121753 0.0021752347 -0.4766579
1273 -0.31696314 -0.1458492 0.020726163 0.124735676 0.25447515 -0.10614456 0.06540699 0.7612495 0.8789744 -0.22478342 0.15512656 -0.07357757 -0.3545262 -0.011693525 0.28993163 0.5191004 -0.4804527 -0.24575366 0.103741035 -0.47024062
1768 -0.51158917 0.024027022 0.2687145 0.04881651 0.068303555 -0.03362304 -0.28402784 0.5028342 0.52830225 -0.2545454 0.29664105 -0.19855613 -0.32959726 0.17315333 0.23038115 0.55511606 -0.47338885 -0.13202462 0.09387755 -0.40586582
1887 -0.49715656 0.25124496 0.3254473 0.36013293 0.23855034 -0.37207037 -0.14717923 0.56356966 0.58050996 -0.14761342 0.12861614 -0.15135518 -0.27198148 0.076784514 0.27039972 0.4755149 -0.51644754 -0.300705 -0.1347117 -0.403458
1595 -0.52182144 0.05628318 0.13127907 0.22304001 0.24865238 0.16177888 -0.15700838 0.70451283 0.4697513 -0.1308849 -0.063742965 -0.23157135 -0.14677788 0.058758456 0.24218073 0.45993054 -0.3633542 -0.31838837 -0.014601524 -0.4630077
811 -0.5436641 -0.26621294 0.051116277 0.17151715 0.16350767 -0.101824425 -0.111388244 0.59544575 0.4609211 -0.2992779 0.08510714 -0.030738203 -0.19474502 0.18114989 0.22407824 0.5330584 -0.49432984 -0.27969137 0.13659272 -0.4552593
231 -0.75302744 0.45505938 -0.12020478 0.4711562 -0.06837766 -0.2194245 -0.01998776 0.34526578 0.30628392 -0.05369906 0.18865135 -0.16214253 -0.0938886 -0.059651863 0.13435146 0.6179388 -0.16693492 -0.28377816 -0.060904432 -0.5477354
1371 -0.39148852 -0.024008371 0.088468395 0.17622301 0.3619734 -0.1214913 -0.13284805 0.81480575 0.6664221 -0.0011052472 0.016418304 -0.021833725 -0.3093481 0.0574658 0.40115333 0.5379051 -0.16421592 -0.1520387 0.08453059 -0.3489161
1914 -0.49204785 0.072825335 0.24735446 0.083278924 0.20144463 -0.20619702 -0.12003232 0.5583567 0.64808625 -0.13859436 0.2457694 -0.23545696 -0.17278002 -0.0082442835 0.13749431 0.49222016 -0.54755694 -0.3527243 0.07881671 -0.4333391
2062 -0.50110054 0.062807 0.16195528 0.10553713 0.06567313 -0.20266627 -0.1848325 0.6409595 0.53312534 -0.42925698 0.31196654 -0.11920028 -0.23255436 0.038897034 0.043003194 0.50719255 -0.6182163 -0.38030118 -0.004872156 -0.40795496
2433 -0.5328949 -0.18546943 0.1914473 0.17693546 0.23539606 -0.16239828 -0.13737647 0.751182 0.6132633 0.026163487 0.18259284 -0.051757544 -0.18628389 0.12160191 0.3749029 0.6102188 -0.24517198 -0.14350712 0.13678543 -0.4278974
1804 -0.18620083 0.08980374 0.28176484 0.28574476 0.26697588 -0.15254815 -0.16653615 0.7413295 0.50718075 0.0005386603 0.17653903 -0.094635434 0.042905126 0.23624425 0.17028573 0.44078165 -0.3943884 -0.0393462 0.07726758 -0.4320734
2485 -0.43461296 0.06865837 0.18412761 0.23977122 0.1065037 -0.16873652 -0.22019441 0.7184942 0.6509124 -0.4130749 0.208236 -0.03584518 -0.3378293 0.06329133 0.22644311 0.6146095 -0.6031031 -0.39042768 -0.20594393 -0.29846784
540 -0.26163375 -0.14323041 0.07579896 0.14820164 0.1819625 0.14257625 -0.049451686 0.7774496 0.8792363 0.06166267 -0.027931683 -0.19751765 -0.2623734 0.07733789 0.2940075 0.5497604 -0.19486478 -0.35385016 0.11014099 -0.2844056
714 -0.26309457 0.15816431 0.1895229 0.22215143 0.16117331 0.032519754 -0.13089842 0.707611 0.4871815 0.031552665 -0.035148866 -0.25768158 -0.20585069 0.2608213 0.2476363 0.20434166 -0.055282563 -0.13670169 0.02424515 -0.4775329
781 -0.58042526 0.011172112 0.27042016 0.1515638 0.16235769 -0.16348442 -0.051136464 0.54595834 0.51381856 -0.29534996 0.39042827 -0.25093183 -0.09763476 0.04915988 0.2485578 0.6758382 -0.48322305 -0.23603903 0.028418098 -0.4408602
1436 -0.64261 0.12352383 0.11910857 0.27448395 0.1491006 -0.056868926 -0.15530394 0.6491123 0.48978856 -0.274461 0.28082907 -0.13173257 -0.24385585 0.06386334 0.20914568 0.62622124 -0.295522 -0.3039361 -0.13001569 -0.36867878
853 -0.5980421 0.38997975 0.20578861 0.34777948 0.20987137 0.026208432 -0.045867905 0.6647947 0.4020205 -0.030765163 0.06357192 -0.13560627 -0.25551987 -0.09410641 0.3653774 0.5895026 -0.272947 -0.28870976 0.02983951 -0.39672166
694 -0.13858314 -0.12093961 0.17428659 0.23116197 0.22721244 -0.27670717 0.31924996 0.8847486 0.62536454 -0.02145361 -0.047911044 -0.17796898 0.0050821807 0.10450043 0.47494212 0.778189 -0.14628042 -0.061001573 0.015327874 -0.35764042
1763 -0.57600635 0.24572298 0.026438478 0.34086928 0.23835677 -0.049319535 -0.097268455 0.7263872 0.43658793 -0.12898871 -0.0016472472 -0.12506804 -0.20520625 -0.015922897 0.39050362 0.53529775 -0.02783142 -0.20864218 -0.22403693 -0.48638076
1652 -0.4090202 0.13405417 0.3133376 0.21204115 0.24948102 -0.20251162 -0.109537244 0.67668384 0.6908518 -0.24397524 0.2462305 -0.21067773 -0.058685 0.12973237 0.17211944 0.5110362 -0.53090256 -0.32579058 -0.032499425 -0.397379
769 0.76889145 0.07613759 -0.17931703 -0.415766 0.52411515 0.04128303 -0.23545569 -0.0138607705 -0.5701451 0.33157042 0.12974614 0.017356427 -0.4070175 0.88356626 0.00045953496 0.7785254 -0.01668119 -0.838825 0.13397522 -0.8775866
856 -0.1881801 -0.23319665 0.19729282 0.3169051 0.045846134 0.11430292 0.23651588 0.7841959 0.53227997 -0.027384572 0.11673873 -0.47406405 -0.032064892 0.20075582 0.41910073 0.6315556 0.024809623 -0.267074 -0.17604567 -0.35504568
1954 -0.6797874 0.10286011 0.11462014 0.15108864 0.074174814 -0.076126926 -0.12701087 0.62095034 0.47300526 -0.3132715 0.2882529 -0.20058988 -0.17029142 0.07591866 0.17222215 0.570813 -0.53121066 -0.3428358 -0.07470313 -0.43216655
2482 0.7830794 0.070743 -0.079372674 -0.40123007 0.5422908 0.061811812 -0.35300165 -0.014980303 -0.4772025 0.3196341 0.088079445 0.12626436 -0.4587238 0.83011174 -0.12260451 0.67680705 -0.11390106 -0.86443406 0.14748688 -1.0372444
1981 -0.3960858 -0.15600234 0.13831373 0.0042286115 0.26275712 -0.16728407 -0.11259651 0.71238554 0.7934103 -0.18968748 0.21980846 -0.20844917 -0.33007798 0.031800732 0.17559613 0.45814842 -0.4143033 -0.17399825 0.11235414 -0.49280533
48 -0.43215674 0.026024682 0.17165399 0.14862233 0.26527256 -0.28731304 -0.19435449 0.65262455 0.6104895 -0.21110164 0.0596266 -0.12679039 -0.2183777 0.055361394 0.27510947 0.43765014 -0.61136466 -0.2180281 -0.17390189 -0.5128171
1841 -0.54580516 0.0011274165 0.17586307 0.16406564 0.21445537 -0.028525194 -0.15316235 0.6757923 0.5692476 -0.31922317 0.12647614 -0.1461692 -0.25469244 -0.050388347 0.33546072 0.5042739 -0.43443635 -0.3577656 0.0038266373 -0.49523947
1700 -0.21020038 -0.018665455 0.31746787 0.107450604 0.21040098 -0.07198123 -0.01828402 0.8229064 0.38206396 -0.13130517 -0.33502892 -0.22017363 0.018690944 0.18244117 0.4703436 0.5670412 -0.03787806 -0.102264866 0.0780305 -0.42161605
821 -0.67886096 0.36718857 -0.110443644 0.56415594 0.087733425 -0.13824771 -0.064150944 0.48131132 0.27603304 -0.008564811 0.037650272 -0.15901127 0.00074068934 -0.109143116 0.31584796 0.52943355 0.0020474668 -0.28123096 -0.13278067 -0.6306415
1510 -0.3810352 -0.035090704 0.21714972 0.09908298 0.16778578 -0.14019993 -0.1742441 0.61539143 0.7739284 -0.30177557 0.19179839 -0.17240275 -0.094219506 0.11111223 0.43059355 0.53913873 -0.36801672 -0.24461707 -0.14822428 -0.49567154
1419 -0.44140697 0.11693017 0.3172181 0.29853898 0.22099732 -0.1302567 -0.2451872 0.52347845 0.6346535 -0.3068347 0.24342875 -0.13899367 -0.21026066 0.22730719 0.37765217 0.602617 -0.3725904 -0.12071743 -0.058534894 -0.4005236
1769 -0.40293366 -0.16243441 0.15353447 0.14484076 0.17413181 -0.311363 0.10501348 0.88296413 0.72370696 0.008336105 -0.21223284 -0.18532503 -0.2917257 0.14218736 0.33044562 0.570899 -0.23609261 -0.09823229 0.14045377 -0.47325525
1052 -0.25581163 -0.17660773 0.0630977 -0.022127507 0.29307836 -0.0920188 0.123049065 0.60689676 0.90035635 0.00077439233 0.3059555 -0.18527678 -0.2927182 0.07972683 0.41086164 0.38073152 -0.3651381 -0.21596032 0.25216162 -0.45934087
1314 -0.33081034 0.08901264 0.13857079 0.1492139 0.12600294 -0.26899523 -0.055779036 0.66673404 0.8627922 -0.23694125 0.1294502 0.04880416 -0.37486106 -0.07181047 0.42343155 0.42021352 -0.53640234 -0.2825908 0.028466983 -0.57737714
975 -0.49456307 -0.094573304 0.15884028 0.084975734 0.17746922 -0.07658234 -0.11066648 0.5108146 0.5952291 -0.1986533 0.38686886 -0.15453798 -0.26512304 -0.057806112 0.3677636 0.6548187 -0.6609659 -0.25864524 -0.008729272 -0.4317233
1081 -0.04453705 -0.112136185 0.32762155 0.5605987 0.12110557 0.025520504 -0.072493725 0.6979259 0.46331447 0.09820584 0.102788486 -0.5373564 -0.0755494 0.08035393 0.33202386 0.519303 0.04168859 -0.1723059 -0.21221532 -0.39501685
91 0.78836334 0.10787597 -0.060810268 -0.45207432 0.40749052 -0.050632164 -0.42920303 -0.020579925 -0.5318415 0.29981932 -0.042302966 0.11981178 -0.44717887 0.8560171 -0.16835356 0.75107026 -0.11416159 -1.0544385 0.11231296 -0.96411747
620 -0.6022287 0.18979013 0.15723766 0.14229184 0.05895888 -0.16945505 -0.23042253 0.67512596 0.50641054 -0.19745909 0.29124233 -0.044723198 -0.28173658 0.065764286 0.3452312 0.60072535 -0.58925295 -0.21928442 -0.21963127 -0.40520236
849 0.7472586 0.10074413 -0.09664639 -0.45853895 0.533104 0.009206291 -0.31167695 -0.07670942 -0.56079787 0.31171313 0.09448049 -0.029051641 -0.43385467 0.8014415 -0.060489595 0.7753117 -0.14460012 -0.81513286 0.101625256 -0.94591886
1318 0.80381995 -0.05751756 -0.09884029 -0.33405396 0.41882896 -0.024303889 -0.34117764 0.012199384 -0.51229733 0.22469865 0.05619938 0.15903543 -0.3355305 0.9170307 -0.10233664 0.71660477 -0.16919652 -1.0128171 0.16648097 -0.9155135
966 -0.57430226 0.15512647 0.20570728 0.15876676 0.22243106 -0.31098753 0.020746803 0.5766009 0.53133 -0.27137533 0.23682998 -0.36601374 -0.10570106 0.06253331 0.13052653 0.5648815 -0.70617086 -0.32479396 0.10177367 -0.3905396
1262 -0.40152362 -0.0060852864 0.40599242 0.25356728 0.16291682 -0.17212026 -0.011978378 0.56512374 0.5507643 -0.04401086 0.4141885 -0.264189 0.07105471 0.17268954 0.2247536 0.38162264 -0.37692356 -0.13259548 0.17095618 -0.64813894
1218 -0.3366404 -0.36717522 0.013277335 0.17672753 0.2732469 -0.15928687 0.010595771 0.7902974 0.9105097 0.0017995117 0.12490097 -0.28936526 -0.34397072 0.08943525 0.2202084 0.4465315 -0.35833076 -0.1643286 0.13194622 -0.50065994
2374 -0.5997995 0.2557542 0.08862129 0.14411962 0.11272037 0.11744717 -0.061719477 0.7520416 0.54320335 -0.32212722 0.059973218 -0.034772582 -0.32972813 0.03612351 0.31900615 0.58686024 -0.36172438 -0.38734376 -0.03221954 -0.35385895
1647 0.7548644 0.07593322 -0.1302337 -0.52330595 0.6065087 -0.06603144 -0.31909183 0.014480085 -0.5943295 0.37971073 0.046075474 0.012556813 -0.3744494 0.83399326 -0.04954896 0.78334737 0.02585763 -0.8936236 0.14515035 -0.95922875
1844 0.16217789 -0.15747507 0.3837318 0.41678604 -0.04887102 0.1134301 -0.11508774 0.7261364 0.11983731 0.14980407 0.017048335 -0.5503001 -0.076165855 -0.044432666 0.3584768 0.45617434 0.08693889 -0.32113692 -0.13441586 -0.31506935
18 -0.59703875 0.3808061 -0.19326481 0.5998883 0.11704151 -0.40604436 -0.054249354 0.32187465 0.33974588 0.0011879175 0.12885322 -0.21206221 -0.20634487 -0.06738753 0.24925652 0.41939467 -0.17089263 -0.20132056 -0.103587486 -0.59959006
1007 -0.5065638 -0.31398827 0.105727084 0.23091143 0.13949475 0.104322284 -0.10895213 0.7135658 0.76989913 0.08970819 0.12531854 -0.21493837 -0.16050802 0.098296 0.25233555 0.6395477 -0.2570149 -0.30816305 0.12851325 -0.40189534
2120 -0.6273283 0.28892773 0.053241726 0.37422952 0.1380321 -0.096805215 -0.049373046 0.67231923 0.3575292 -0.034730226 0.22678895 -0.28132594 -0.05604322 0.06887555 0.045905083 0.49795833 -0.39315644 -0.24354933 -0.06662668 -0.47115466
2428 -0.6437785 0.18551062 -0.05468064 0.334597 0.19895498 -0.22253004 -0.21772924 0.5597367 0.4448105 -0.307421 0.07704462 -0.12079766 -0.3403457 -0.06885618 0.20098077 0.5511189 -0.47838354 -0.28148052 -0.17773412 -0.45731434
442 -0.61776847 0.050676305 0.22301555 0.05967475 0.19855763 -0.30891854 -0.27155572 0.6291667 0.658981 -0.2026628 0.25625226 -0.16587007 -0.21713953 0.04333924 0.20069629 0.4193861 -0.56329745 -0.38854122 -0.08581397 -0.46080115
1919 -0.1549281 -0.23675162 0.0923365 0.10936832 0.3720625 -0.2823921 0.2355486 0.73354614 0.87571776 -0.24114981 0.30148098 -0.17345698 -0.29518548 0.1856066 0.37341675 0.47796458 -0.27325088 -0.09046256 0.2533153 -0.40741822
533 -0.37647778 0.11459057 0.32047692 0.38726446 0.20792994 -0.12569018 0.0025802616 0.73436946 0.6165091 0.14327401 0.010052388 -0.16453262 -0.050039064 0.19911 0.3284077 0.47790518 -0.13077193 -0.13854939 0.0027542387 -0.4944559
485 -0.6305224 -0.03443906 0.13775386 -0.0073401523 0.16368176 -0.06756267 -0.2605571 0.6733821 0.6627398 -0.361796 0.22112107 -0.06399983 -0.19326809 0.10278447 0.28336173 0.59188586 -0.468603 -0.31123498 -0.18083261 -0.44358748
393 -0.24632424 -0.22312629 0.041565195 0.042023864 0.44532466 -0.070722714 -0.06381287 0.7126561 0.86958486 -0.26772416 0.22830604 -0.20466971 -0.058016796 0.02389304 0.28044665 0.53398174 -0.34258527 -0.25474718 0.23273145 -0.40145814
2186 -0.24357209 -0.08726598 0.14327063 0.18723233 0.22717963 -0.14326295 0.010008406 0.7223875 0.7802452 -0.38766417 0.2705815 0.07212632 -0.16634263 -1.0299616e-05 0.50229716 0.52708864 -0.52244806 -0.21118641 0.085810944 -0.56271166
1295 -0.46716258 -0.16098127 0.25579804 0.11355938 0.09514335 -0.06289383 -0.0313416 0.80871296 0.7332956 0.093981594 -0.06064277 -0.12108935 -0.06413342 0.09026188 0.29465497 0.4406259 -0.31981614 -0.44077602 0.20244463 -0.48192844
971 -0.6700327 -0.17721789 0.11461858 0.17210767 0.2847495 -0.113267966 -0.039193124 0.6919198 0.57641345 -0.21479988 0.06661824 -0.30942684 -0.42046672 0.11397079 0.32038793 0.583296 -0.26755124 -0.11601896 0.24957561 -0.4568794
272 0.7391268 0.07143599 -0.09574244 -0.4578553 0.5765336 -0.06845924 -0.35978463 -0.13098775 -0.49597427 0.31248844 0.09224422 0.08240194 -0.44324294 0.8721547 -0.06992386 0.87940484 -0.025951527 -1.0089238 0.12466555 -0.8678686
1015 -0.15431105 0.08286925 0.3124072 0.08741485 0.31575257 -0.31445253 -0.019684466 0.73981583 0.78309894 -0.20588103 0.26366147 -0.2952203 -0.10426227 0.059437647 0.15939187 0.38995588 -0.422935 -0.10934486 0.084708445 -0.50949854
1840 -0.38229063 0.24297717 0.40410405 0.44290912 0.21306346 -0.26885962 -0.06298811 0.5660002 0.5012965 -0.29294762 0.35790813 -0.17773329 -0.2610056 0.08566731 0.39848334 0.46601555 -0.20689158 -0.016007664 -0.08185385 -0.59473556
1037 -0.63656807 0.14764066 0.14208807 0.3584192 0.10228483 -0.12191759 -0.18877757 0.6463498 0.5464333 -0.309133 0.22632124 -0.09646811 -0.40176505 0.16705191 0.26264837 0.47728145 -0.5276669 -0.2511178 -0.12883893 -0.46080714
1693 0.8236814 -0.0051825554 -0.10530694 -0.39754844 0.48030153 -0.024330249 -0.1833904 -0.08126976 -0.54219353 0.18601611 -0.023834953 0.0028768722 -0.5471233 0.781296 -0.12123179 0.77879465 -0.18172896 -0.9560134 0.18911779 -0.9477758
920 -0.5708551 0.2347203 -0.067328185 0.3898524 0.2668202 -0.11586238 -0.20238838 0.74324495 0.24577579 0.017341621 -0.082001895 0.050927863 -0.15828703 -0.032896712 0.3330772 0.3705618 -0.33927843 -0.33557108 -0.0738389 -0.44094768
2328 -0.40243703 -0.22009738 0.20853636 0.083424695 0.13564394 -0.08813437 -0.13597031 0.6237348 0.8345196 -0.1420572 0.4372668 -0.18501382 -0.27623653 0.09077612 0.15732954 0.6885994 -0.32110235 -0.18642767 0.1437381 -0.35467374
478 0.7789701 0.055624016 -0.12275389 -0.2807114 0.49149695 -0.02031051 -0.43562785 -0.17904276 -0.4700638 0.23113355 0.1853778 0.05721451 -0.37851527 0.8560102 -0.13420191 0.7890975 -0.20942627 -0.9239899 0.20178255 -0.9082496
31 -0.21876831 0.1687094 0.35635597 0.38851365 0.10740128 -0.3665456 -0.03860849 0.74560666 0.94938666 0.02674605 0.2551307 -0.1801781 -0.23914279 0.30380705 0.12288404 0.3802687 -0.3266348 -0.030517573 0.13189113 -0.48563313
1728 -0.34409386 -0.19386837 0.10326708 0.08054431 0.2924845 -0.14629172 0.05228414 0.7691184 0.7192542 -0.0032618043 0.086403266 -0.3520465 -0.3361637 0.28280997 0.15454724 0.45100385 -0.36253068 -0.08858848 0.35498983 -0.32912633
1645 -0.619667 0.17704287 0.10141657 0.33217442 0.2999103 -0.22777931 0.043179758 0.6977368 0.4997803 0.09714132 0.10852622 -0.32745257 -0.110857144 0.080088444 0.1554692 0.4119024 -0.34119847 -0.21278685 0.17957905 -0.49564844
1692 -0.44815245 -0.09251347 0.32823148 0.3302286 0.04255431 0.07237803 -0.045216702 0.59605247 0.7146984 -0.09790601 0.32315207 -0.18218453 -0.08602298 0.28946 0.29737258 0.6851555 -0.30252922 -0.22490744 0.029709838 -0.38767773
369 -0.5838183 0.28165424 0.3421752 0.4997539 0.22174834 -0.23045406 -0.1288204 0.5799685 0.48309773 0.07970026 0.19501513 -0.2819599 -0.22491445 0.16794202 0.13964525 0.34609804 -0.5833025 -0.27260807 0.0002481073 -0.45537362
1112 0.6340142 -0.07364347 -0.17972547 -0.43914047 0.51544195 0.033602104 -0.4715548 0.019880757 -0.5223803 0.32747337 0.17933333 0.004556747 -0.36372936 0.9012498 -0.1394521 0.7956257 -0.013246869 -0.8152785 0.23351353 -0.8330054
2378 -0.223758 0.35433635 0.4317115 0.3994213 0.33196372 -0.34143615 -0.22924612 0.6368475 0.70267135 -0.25887024 0.24579002 -0.1038674 -0.08199716 0.07405015 0.38311493 0.48168913 -0.36255056 -0.11280286 -0.17363793 -0.47598433
1248 -0.25911847 -0.013280552 0.054409232 0.11710432 0.2529308 -0.04912879 -0.039181475 0.7014271 0.91621506 -0.20911439 0.23527254 -0.20365815 -0.3837695 -0.0072850874 0.38806593 0.372303 -0.48644707 -0.16879097 0.10023119 -0.5517929
2138 -0.69464046 0.16081229 0.3323428 0.18005346 0.15012999 -0.16996807 -0.01824281 0.60310495 0.48897526 -0.22001812 0.28805622 -0.25222585 -0.25082326 0.13031267 0.21554443 0.49250346 -0.5257232 -0.39846173 0.15198894 -0.377079
1457 0.8402682 0.1619746 -0.20017244 -0.4424926 0.53747284 -0.08534821 -0.31015465 -0.15031227 -0.40381998 0.32840607 0.044116467 -0.020047462 -0.52480483 0.86544245 -0.12989415 0.7034491 -0.10028335 -0.8462636 0.21529637 -1.0092154
1193 -0.486161 0.013431067 0.21917777 0.0965115 0.16003221 -0.2605808 -0.1701469 0.69991106 0.60647154 -0.06550199 0.110071525 -0.2976015 -0.12272736 0.13914658 0.035760455 0.544287 -0.47779277 -0.16766919 -0.00457504 -0.4240753
2305 -0.6193471 0.24362682 0.08384698 0.20373936 0.24859774 -0.041759238 -0.2039925 0.69800836 0.48291957 -0.40374452 0.13610749 -0.09373939 -0.3727348 0.011186282 0.3797673 0.607766 -0.4698209 -0.1653576 -0.16114223 -0.43148553
1305 -0.26127854 -0.17875664 -0.043436393 0.0888666 0.20456041 -0.12873869 0.08551388 0.8040217 0.8374821 -0.19599774 0.22776945 0.06187419 -0.23115292 -0.030228479 0.49575904 0.51374245 -0.4488471 -0.2610062 0.10174962 -0.48846525
1187 -0.21097533 -0.07058204 0.07507564 0.24658126 0.22418213 -0.00340263 0.058263514 0.9239259 0.8087906 -0.045705903 -0.20093766 -0.3738321 -0.24500427 0.19787261 0.29326332 0.63802946 -0.2129287 -0.06608066 0.003118786 -0.33691686
2324 -0.63972104 0.12676461 0.18508065 0.21514949 0.17231944 0.060931448 -0.1568151 0.60808367 0.5654823 -0.38477138 0.09648787 -0.22124618 -0.5265318 -0.048272256 0.3346367 0.58510303 -0.29096815 -0.37299153 0.14507931 -0.3487427
1812 -0.18620642 -0.33171427 0.07262589 0.22114876 0.3450164 -0.19126035 0.12553608 0.8084845 0.84737235 -0.26652086 0.08608589 -0.2987209 -0.12705816 0.120779425 0.23111328 0.562655 -0.23451567 -0.20019676 0.21623744 -0.40931582
1608 -0.42139152 0.07680977 0.29715922 -0.001066174 0.083949946 -0.22896278 -0.13060135 0.61230165 0.7576605 -0.24151514 0.31721014 -0.30194724 -0.34675017 -0.12984194 0.07596979 0.608778 -0.7040686 -0.2715403 0.10028232 -0.44414404
1047 -0.46297804 0.06021862 0.1550304 0.0899939 0.10126736 -0.08458737 -0.13333426 0.6902129 0.62199634 -0.44948003 0.3495931 0.11339991 -0.1765515 0.005177617 0.28359443 0.5086527 -0.6203055 -0.34988487 0.0227234 -0.5049593
915 -0.4535048 -0.4341327 -0.03513302 0.20339994 0.24588697 -0.022088572 0.020826798 0.6625367 0.63827276 0.027527336 0.13585457 -0.29064095 -0.17567594 0.12703602 0.35112813 0.61447024 -0.35292616 -0.061160244 0.19301468 -0.5038562
2033 -0.67924666 0.3380094 0.19314878 0.35097075 0.18834126 -0.15757489 -0.10278663 0.63684946 0.45142406 -0.30982712 0.36712208 -0.16056836 -0.40123624 0.09515873 0.11359504 0.5458555 -0.55662096 -0.20790191 -0.061862722 -0.4024274
860 -0.61136633 0.16158356 0.13933489 0.0785047 0.11951295 0.030550253 -0.1594019 0.61450833 0.49265262 -0.055369012 0.19270977 -0.2700748 0.0714503 0.122366585 0.1800721 0.73538876 -0.43827787 -0.3154032 -0.14960271 -0.27965984
1147 0.7640058 0.012655127 -0.02934765 -0.49356952 0.620399 0.01268438 -0.31476018 0.01712877 -0.5294299 0.30598778 0.18164422 0.04584638 -0.5600918 0.85223705 -0.062519446 0.7872074 0.07091421 -0.9455723 0.092732035 -0.8444936
421 -0.50607675 -0.1546404 0.09574662 0.13146678 0.21329398 -0.26807627 -0.0852465 0.72810155 0.79978514 -0.030713359 0.12054672 -0.1445652 -0.17604053 0.052809514 0.18676998 0.4691753 -0.5481091 -0.3429598 0.11930956 -0.468485
1485 0.8015167 0.05822943 -0.111633874 -0.3630522 0.3898474 0.059730306 -0.25309741 0.014746834 -0.48802516 0.17696872 -0.013516719 0.09157614 -0.57065284 0.9598112 -0.23453976 0.64435273 -0.22762026 -1.0016122 0.24384063 -1.0031945
1451 0.74306715 0.10211515 -0.07923424 -0.37118965 0.56108505 0.042020276 -0.3121587 -0.06890531 -0.53261065 0.22434238 0.028656151 0.1428901 -0.5198467 0.9724474 -0.095215134 0.8223096 -0.07559209 -1.0635386 0.22333065 -0.9218709
1346 0.71662223 0.09093952 -0.17135806 -0.42129895 0.5714018 0.009039658 -0.36725444 0.16339633 -0.54591686 0.37865996 0.07998502 0.10926822 -0.3876103 0.7492643 -0.08313561 0.6432121 0.04164772 -0.96494484 0.046890497 -0.8471592
1533 0.87876 0.057230048 -0.13260894 -0.46240056 0.6033102 -0.09064831 -0.252833 -0.058539018 -0.50314623 0.37696144 0.05300357 0.047265902 -0.47103766 0.8010679 -0.02439293 0.8532399 -0.056726225 -0.9101881 0.14177907 -0.9210308
1138 -0.3102497 -0.1414226 -0.03649168 0.16470623 0.17088336 -0.1448938 -0.113452986 0.8228927 0.8320788 -0.016463947 0.008588556 -0.1347615 -0.29038808 0.032830995 0.2645233 0.58694756 -0.35980672 -0.14735553 0.00866172 -0.39630926
695 -0.0790904 -0.05615714 0.18090026 0.3244557 0.092690974 -0.046394024 0.0855607 0.9936472 0.58396226 -0.13145448 -0.03463958 -0.14606413 -0.17911431 0.165836 0.4486769 0.48819277 -0.07414883 -0.09454367 -0.1053187 -0.458669
406 0.7383496 0.069756724 -0.08476668 -0.47876418 0.60930705 -0.0037633977 -0.39342183 -0.113551676 -0.5403588 0.30347177 0.16020122 0.009503886 -0.5035986 0.9286715 -0.0339422 0.8402316 0.034388028 -1.015322 0.070291914 -0.8859517
923 0.73485273 0.01471998 -0.0796975 -0.49371094 0.5910934 0.048356835 -0.39273465 0.06417247 -0.529659 0.3112058 0.051308587 0.044678293 -0.3344893 0.93527293 -0.030111566 0.79213655 -0.031258818 -0.8083737 0.2652937 -0.8831471
546 0.8883139 0.13356024 -0.08671738 -0.49792162 0.57100195 -0.09076612 -0.26079705 -0.10718267 -0.45453894 0.33687505 0.14021635 -0.0071699237 -0.57499605 0.79634064 -0.10961353 0.8252729 -0.048238967 -0.84966034 0.12975723 -0.9770558
1431 0.6975148 -0.038361855 -0.084280655 -0.36373773 0.4155347 -0.06660214 -0.3462863 0.0022135694 -0.6471908 0.3089418 0.19772238 0.06777075 -0.33658388 0.9261765 -0.07798345 0.6762526 -0.13594241 -1.0157061 0.24498937 -0.95344543
567 0.84890115 0.17820403 -0.07850537 -0.38186756 0.6022295 -0.08314517 -0.31326756 -0.17809193 -0.35929132 0.2767314 0.08497884 -0.001204877 -0.5004351 0.83183515 -0.1087982 0.71799815 -0.09059775 -0.8754596 0.26493317 -0.9121616
1093 -0.14202495 -0.09976634 0.11839177 0.26514357 0.12471777 -0.0098640425 0.1774646 0.7426925 0.90138686 -0.06510061 -0.08172274 -0.19309998 -0.10236586 0.1595178 0.3723794 0.601102 -0.21150371 -0.33676448 0.13493069 -0.31509224
2040 0.039068334 -0.23346907 0.29861677 0.39764872 -0.010699495 0.00913532 0.12889898 0.73805445 0.48128402 -0.08986844 -0.06705025 -0.6370292 -0.12979007 0.019709026 0.5787504 0.6892948 -0.06366417 -0.3150353 -0.35857078 -0.30872095
2245 -0.49728578 -0.42421404 0.08645796 0.08709927 0.3726482 -0.05818429 0.006461988 0.7724883 0.71889853 -0.120048836 0.039155904 -0.34628537 -0.025404729 -0.023533609 0.33055758 0.5361415 -0.42190322 -0.4032867 0.19340312 -0.49534488
1893 0.7400674 0.09923525 -0.05770761 -0.5636218 0.51407534 -0.05372659 -0.29502273 -0.07916213 -0.37649378 0.37836397 0.13302681 -0.020840032 -0.4977145 0.7863474 -0.068918735 0.720306 -0.024743149 -0.73692966 0.26886696 -0.8895926
1573 -0.44847238 0.19153762 0.1490132 0.62311596 0.12210824 0.29155785 -0.02467524 0.78490484 0.45210835 0.028988712 0.24042656 -0.4450234 -0.08806047 0.061638795 0.2613982 0.4461539 0.004924421 -0.22204879 -0.07327029 -0.5345357
136 -0.12398515 -0.10200364 0.32580557 0.48434803 -0.0835122 0.12275407 -0.008278606 0.8194791 0.33434618 -0.017755264 0.04464701 -0.56041837 -0.15421157 -0.09600931 0.3290276 0.6223501 0.057767317 -0.26044318 -0.19814883 -0.44033167
1158 -0.06541098 -0.04385807 0.302386 0.35902512 0.09310681 -0.1975066 0.03387697 0.6823187 0.37780157 -0.04504984 -0.1776642 -0.26040354 0.05040622 0.123177804 0.48633116 0.61145145 0.010507054 -0.11793065 0.17946765 -0.3747139
1403 0.8268148 0.10599077 -0.115829386 -0.37337437 0.42027113 0.0090142675 -0.26731312 -0.07836004 -0.50382733 0.25038907 -0.014647641 0.093397655 -0.48831528 0.87128925 -0.20022453 0.76240826 -0.2740586 -1.0041963 0.31667045 -1.010471
1626 -0.5075897 0.28309196 0.5433369 0.4027499 0.24216613 -0.2392175 -0.12707035 0.49976268 0.5650369 0.080856524 0.18863937 -0.4684766 -0.3024423 -0.03053837 0.27902138 0.34216174 -0.49934378 -0.30340716 0.16321929 -0.50279516
171 -0.4714738 0.40368202 0.26296523 0.51611817 0.0983071 -0.48310226 -0.1137354 0.3005996 0.6463638 -0.1943379 0.28708038 -0.32269678 -0.14705542 0.24281713 0.15319312 0.34039655 -0.42871085 -0.22696309 -0.13892363 -0.5175239
77 0.7905371 0.07282555 -0.05889465 -0.47196555 0.51445884 -0.051162142 -0.32481632 -0.06772381 -0.46410823 0.38971263 0.082298346 -0.044742927 -0.52032316 0.8312963 -0.014933113 0.7820849 0.049627278 -0.8610796 0.22978184 -0.8593845
2034 -0.13123801 -0.28184998 -0.023500562 0.12031662 0.3897532 -0.24967644 0.1708722 0.8804517 0.84801775 -0.08789322 0.07622586 -0.023609674 -0.3474275 0.057576846 0.2639348 0.63690704 -0.25107437 -0.25676903 0.17933512 -0.18602985
1843 -0.51713717 -0.19471167 0.09642306 0.26296756 0.07619714 0.08879505 -0.18610695 0.6519994 0.8471271 -0.1610853 0.04886001 -0.21156868 -0.3179125 0.1801175 0.10744038 0.58940953 -0.22375506 -0.33782193 0.15723866 -0.3668253
323 -0.65931255 0.12275424 0.11361611 0.18510072 0.11952892 0.046900753 -0.007999553 0.73516834 0.4324809 -0.3146242 0.10317718 -0.32839337 -0.24587142 0.16141109 0.20987482 0.5121332 -0.39936933 -0.2870745 -0.03008582 -0.42449015
1094 -0.21498252 -0.047780957 0.31592494 0.2586763 0.16886449 -0.058647145 -0.13605657 0.69149727 0.70986456 0.20262298 0.14920716 -0.44673088 -0.15696958 0.1546469 0.2984217 0.51368785 -0.31538397 -0.10926252 0.1024409 -0.3475415
2248 0.7092318 0.11357467 -0.118097775 -0.4308986 0.6564793 -0.0065668067 -0.47044453 0.07814041 -0.50058067 0.33543324 0.2062748 0.11851877 -0.3784617 0.8762566 0.025231758 0.7059242 0.04887924 -0.81784457 0.1671437 -0.7559704
1143 0.061908156 -0.12553667 0.2727458 0.40073696 0.07114064 -0.13862203 -0.018977506 0.72987056 0.67464375 0.024368796 -0.06379803 -0.5038298 -0.100970455 0.12637898 0.41906533 0.71820736 0.051492073 0.0101652015 -0.093297794 -0.34044158
507 -0.5705822 0.27939412 0.18249334 0.41492987 0.25827983 -0.4080476 -0.20150249 0.57662636 0.2894773 -0.08865649 0.20576178 -0.272432 -0.09876807 0.09400438 0.0034016755 0.38585562 -0.3298812 -0.18521522 0.070734605 -0.454614
365 0.68873566 0.12520626 -0.091392726 -0.50785923 0.5443936 -0.14793007 -0.33346346 -0.04684051 -0.52928644 0.25993863 0.14022976 0.05485124 -0.3304684 0.8919472 -0.005716927 0.85833436 0.1833326 -0.8035511 0.06465366 -0.8428075
1482 0.68818617 0.06385767 -0.0799446 -0.45583376 0.60772467 -0.07155482 -0.4363199 0.08340605 -0.53683865 0.37304223 0.04960514 0.06273551 -0.3659414 0.87460464 -0.07544102 0.7634025 0.13450214 -0.84301007 0.14646274 -0.836362
2047 -0.3893483 -0.16937111 0.009489103 -0.05193422 0.23212498 -0.13070023 -0.012970734 0.83076036 0.7453477 -0.25451568 -0.017599337 -0.24408485 -0.086543724 0.0040841717 0.2490004 0.74877495 -0.25908828 -0.25593904 0.100310266 -0.31319
51 0.8674563 0.117857516 -0.07635486 -0.38153464 0.59755504 -0.061438642 -0.34443092 -0.040848695 -0.44868478 0.19899766 0.09315815 0.07532201 -0.45794463 0.8929016 -0.00943461 0.8069401 0.013675996 -0.8485226 0.12055946 -0.7950806
1733 0.09319898 -0.22659244 0.36876106 0.39418998 -0.098645166 0.062239047 -0.0879967 0.6832925 0.3637962 -0.015534536 -0.0033313807 -0.6433875 -0.028536698 -0.17821959 0.44388014 0.70488244 -0.06461665 -0.17785303 -0.09953308 -0.458861
1263 0.7376584 0.07384335 -0.19590698 -0.43927708 0.60757565 -0.07144025 -0.26777884 -0.05833964 -0.5217849 0.39615816 0.08500472 0.026385557 -0.50319993 0.79502076 -0.088429175 0.86901045 -0.061178196 -0.9479471 0.2873805 -0.7897634
2065 0.76025903 0.12267391 -0.12176039 -0.47979134 0.7063795 -0.02527094 -0.36272132 0.10247347 -0.54693043 0.26446134 0.17022975 -0.036950134 -0.4134138 0.7417847 -0.10639112 0.71116996 0.122938626 -0.92238736 0.13963816 -0.8136467
482 -0.2731967 -0.06290136 0.33322066 0.49471244 0.025501672 0.14496313 -0.11668967 0.76855487 0.38098067 0.14094676 0.05925249 -0.49509415 -0.027664842 -0.0070114797 0.33688498 0.65028733 0.09662137 -0.20353855 -0.1064595 -0.42687503
563 -0.66681397 -0.011212842 0.20587626 0.12069983 -0.048779912 -0.11465402 -0.17985746 0.58656484 0.54552037 -0.15773435 0.21088411 -0.34342194 -0.13643442 0.07237968 0.13800813 0.5975539 -0.5530767 -0.3495369 0.062660925 -0.43951052
361 -0.57812715 -0.07829861 0.16609502 0.29292968 0.109674506 -0.3558996 -0.23279046 0.5532385 0.52933556 -0.32169175 0.0983594 0.010213968 -0.31750166 0.12365401 0.36080632 0.5825036 -0.46664372 -0.35375017 -0.006656135 -0.36170706
669 0.81706786 0.017176652 -0.1298445 -0.3773605 0.33382162 -0.026139932 -0.27190465 -0.1787585 -0.47580862 0.17528853 -0.012302822 0.08714272 -0.512006 0.9257122 -0.067374185 0.7047029 -0.18784547 -0.957473 0.28626862 -1.0486364
1191 -0.5225191 0.17330937 0.08506202 0.284157 0.30661622 -0.22743872 -0.12765391 0.6065127 0.5899959 -0.28236613 0.19866638 -0.06767612 -0.40504855 0.014047027 0.4152538 0.5873438 -0.50016725 -0.37089843 -0.32527155 -0.27306858
176 -0.31305328 -0.17145321 0.091698796 0.14815001 0.28979927 -0.22162448 0.009173662 0.87627864 0.8260881 0.096260674 -0.16118507 -0.29365638 -0.1851141 0.1170247 0.24561878 0.53893465 -0.26667544 -0.28395683 0.048800223 -0.30546138
1520 -0.53614396 0.21929327 0.24145973 0.17750871 0.15793213 -0.09793368 -0.19141938 0.72979325 0.59727174 -0.19720252 0.009572099 -0.077835664 -0.07128787 0.018719155 0.25385314 0.47088534 -0.54096454 -0.5373081 -0.051528282 -0.38143873
1195 0.79771304 0.09282748 0.003971508 -0.41825417 0.5511252 -0.02405885 -0.31111518 -0.10425645 -0.4762975 0.2995181 0.13497129 0.123017244 -0.5177129 0.89247096 -0.038182694 0.9653292 -0.0002758233 -0.81544167 0.13661017 -0.81652457
2068 -0.535955 0.4646384 -0.30044913 0.54545665 0.25047907 -0.2744982 -0.067672774 0.4073022 0.10349463 0.12625019 0.21325351 -0.014662266 -0.06418978 0.043081358 0.19102058 0.36271206 0.017202612 -0.20772755 -0.14226575 -0.4520257
2198 0.7110741 0.039840743 -0.04943973 -0.5696663 0.62103444 0.021362409 -0.3715281 0.094850816 -0.51594114 0.42760316 0.20292272 -0.102747075 -0.573306 0.8972469 -0.18161562 0.6964864 0.033820335 -0.83107704 0.14193855 -0.85978097
424 -0.12373961 0.2231477 0.25200686 0.26253945 0.27558637 -0.28422725 -0.10554579 0.75727123 0.71174747 -0.09057212 0.08547119 0.04474276 -0.008524369 0.1692872 0.4429549 0.42300764 -0.3919647 -0.16629162 -0.08705803 -0.41103587
1642 -0.4576251 -0.23301044 0.3022049 0.36512655 0.059916835 -0.2225335 -0.041034453 0.5344401 0.62862617 -0.3476622 0.26689264 -0.19322036 -0.1892281 0.3082704 0.30038258 0.6527432 -0.28419685 -0.21420643 0.28721914 -0.37756285
2292 -0.49486294 -0.15990725 0.15483876 0.20888843 0.10634988 0.013347792 -0.10496052 0.63826287 0.82163155 -0.21516778 0.21841785 -0.008871609 -0.4876473 0.04472359 0.31798002 0.59066 -0.25977516 -0.45098063 0.05890146 -0.31530365
2181 0.8357466 0.05153924 -0.01731702 -0.44727093 0.512063 0.028621046 -0.28059542 -0.092594534 -0.5004945 0.25076815 0.0005381604 0.094548665 -0.60095936 0.8545067 -0.034583557 0.9270903 -0.08376514 -0.8110543 0.18512216 -0.90076256
2461 -0.42968038 -0.06714169 0.08543625 0.19104853 0.24111034 -0.17088374 0.014503601 0.8313367 0.9545093 0.0152468905 0.062209304 -0.28739288 -0.49389485 0.16288127 0.14174019 0.39716288 -0.291202 -0.15867232 0.22171822 -0.43119273
410 -0.25363114 0.28244343 0.2731018 0.62701404 0.24431135 -0.11874546 -0.22425161 0.53616685 0.45626268 -0.17699476 0.03753693 -0.4319652 -0.14896868 0.012190783 0.35583436 0.5177848 -0.047034346 -0.016944457 -0.011965173 -0.5113514
1131 -0.27148336 -0.046206508 0.014155086 0.11328762 0.24065596 -0.038377117 -0.014675582 0.7082102 0.8576077 -0.29204488 0.2229441 -0.050056983 -0.4724421 -0.101012394 0.51058954 0.66483784 -0.30947256 -0.16711384 0.11401041 -0.37348774
388 0.7475443 -0.038260978 -0.1111872 -0.4087351 0.36397505 -0.023037635 -0.45712227 0.07266755 -0.5932362 0.40436426 0.036943384 -0.03887465 -0.41827437 0.9556015 -0.07506252 0.6860328 -0.04288885 -1.0179104 0.20520125 -0.8844993
529 -0.34956828 0.0893573 0.12034357 0.2704206 0.25850528 -0.1700052 -0.071250014 0.75080025 0.6578479 -0.35540318 0.10022699 0.026035242 -0.3555762 0.01706757 0.3575941 0.6021821 -0.43556374 -0.23159938 -0.025177622 -0.3645572
843 -0.13418654 0.20935334 0.2622782 0.45676908 0.03418778 0.18132275 -0.06891584 0.6996312 0.06617372 0.15509513 0.21314034 -0.457396 0.07949071 -0.08921262 0.14375655 0.48346272 0.12879583 -0.24336964 -0.087255046 -0.4114625
2416 0.73784 0.063414775 -0.08064835 -0.43250114 0.66008013 -0.058430266 -0.31951997 -0.07192662 -0.56150067 0.34386227 0.09997447 0.046693128 -0.40698966 0.8488036 -0.008435601 0.8758593 0.16290908 -0.87156713 0.049842235 -0.90763
1392 -0.55424756 0.19488856 0.25281835 0.28970972 0.21234837 -0.3631231 -0.16928107 0.5756541 0.46443966 -0.29960233 0.28998637 -0.11612012 -0.054301567 0.16291663 0.2472507 0.41362917 -0.5350285 -0.18853879 -0.06884277 -0.5631796
1325 0.010495759 -0.2573173 0.4787764 0.49639234 -0.20697281 -0.0011086952 0.0125509715 0.72169393 0.34430695 0.019248664 -0.03769382 -0.69208336 -0.10517576 -0.10905829 0.59994876 0.64446187 -0.048775516 -0.32468396 -0.23279926 -0.45928174
803 0.009519223 -0.33245185 0.32395607 0.36686483 -0.20093007 0.068380825 -0.010564174 0.84170073 0.23126952 -0.0648172 0.048947304 -0.6263366 -0.18681249 -0.22519413 0.4663407 0.6008587 -0.047490448 -0.29630956 -0.31364578 -0.52354133
1620 0.84238803 0.0297082 -0.19277908 -0.22355434 0.5207049 0.0108968215 -0.2045838 -0.1467025 -0.43214667 0.050146632 -0.11002626 0.053220063 -0.5279872 0.92252195 -0.15204215 0.7218808 -0.21364339 -1.0305675 0.13747188 -0.91089004
1509 0.701313 0.044233713 -0.057350118 -0.36425328 0.63937503 -0.061147798 -0.27845624 -0.07335147 -0.5723927 0.32605198 0.03059448 0.10676954 -0.6764256 0.8411199 -0.1915247 0.8147239 0.00049384224 -0.9449017 0.27259305 -0.95910454
336 -0.63097686 0.42100576 -0.0391527 0.37696788 0.17474209 0.045764573 -0.03524381 0.5783532 0.24923025 -0.08697817 0.19181192 -0.38260144 0.023962764 -0.116898514 -0.08915443 0.66278535 -0.17752066 -0.19533242 0.013663547 -0.46714562
419 0.25624827 -0.057322595 0.4663921 0.36850157 -0.030362004 0.019773845 -0.2705494 0.6297403 0.19460887 0.1870902 -0.03995976 -0.45237967 -0.101246394 -0.08373659 0.3841958 0.52479583 0.009797319 -0.16062242 0.05108691 -0.29273012
953 0.8198202 0.19318087 -0.16810438 -0.4975208 0.6221397 -0.011371333 -0.3845778 -0.035005428 -0.38273275 0.36321026 0.15325412 0.07986971 -0.5765464 0.84467185 -0.07815039 0.745838 0.011777425 -0.8683533 0.22026025 -0.86946034
1274 0.66653866 0.1478751 -0.022539541 -0.5587024 0.50857496 -0.0041181115 -0.44292194 0.013505988 -0.67393816 0.46886522 0.15709388 0.0055041094 -0.5198301 0.76756984 0.017388918 0.7412828 -0.012012387 -1.0250103 0.24536543 -0.890544
1675 -0.45427865 -0.016944371 0.36906102 0.1604077 0.121842235 -0.16227224 -0.3076481 0.6047885 0.70789367 -0.33525974 0.23165308 -0.1763466 -0.34238678 0.00078099896 0.17285037 0.6110397 -0.48019847 -0.32196033 0.15783696 -0.36679494
1666 -0.21385041 -0.21435955 0.32480142 0.45348996 -0.038226947 0.041220117 -0.035128925 0.73287183 0.5876912 -0.03939795 -0.030051846 -0.48316857 0.09087886 0.043059234 0.39037594 0.7255232 -0.09442995 -0.21312155 0.16044214 -0.46800005
189 0.6841758 0.07925624 -0.008894194 -0.35531622 0.38185024 -0.055318378 -0.3541547 -0.126732 -0.58677655 0.3556754 0.055473477 0.09487972 -0.536433 0.8842148 -0.069597416 0.72670084 -0.12769577 -1.0683264 0.27710763 -0.96770996
16 -0.5389839 0.7161683 -0.58576703 0.46437016 -0.12861489 -0.55791485 0.07317975 -0.14590234 0.57263345 0.15677908 0.12936513 -0.4719837 -0.0007875474 -0.18861055 0.107230596 0.43137014 0.40420356 -0.28469208 -0.02620289 -1.2816412
1373 -0.13047962 -0.17059132 0.045078885 0.13015734 0.18430886 -0.076939985 0.13892283 0.74718374 0.9171445 -0.26376918 0.36475286 -0.10304632 -0.33723116 0.02410876 0.15089275 0.5301696 -0.45350617 -0.16689068 0.25966427 -0.45663813
1298 0.7299628 0.111306556 -0.02653628 -0.4628336 0.51817703 -0.09108255 -0.2739077 -0.06811146 -0.51301 0.47045857 -0.17007442 0.083429195 -0.5595776 0.9764707 -0.069166094 0.8198353 -0.04088539 -1.1082711 0.23799872 -0.93136543
2220 -0.36085144 0.12072629 0.35048014 0.13681139 0.11936815 -0.33097795 -0.295236 0.67334574 0.75830555 -0.40010417 0.35109258 0.043364402 -0.14759073 0.032897465 0.17877032 0.6471121 -0.421844 -0.36811098 -0.23921548 -0.32878044
2272 -0.29855523 -0.07395245 -0.04688641 0.22657986 0.25241706 -0.24408637 -0.2368803 0.8282111 0.80398864 -0.08596605 -0.016811254 0.049318466 -0.27252695 0.020548498 0.49762943 0.4306924 -0.5407163 -0.2438538 -0.21982089 -0.46286032
1290 -0.7023278 0.21130429 -0.035071578 0.48022392 0.32354715 0.014587629 -0.10061018 0.7059368 0.21809062 -0.032193877 -0.13198163 -0.12208035 -0.11559469 0.0076990374 0.44370946 0.5847462 -0.1587133 -0.23121999 0.029116916 -0.42301303
2427 0.81534994 0.10215152 0.0704947 -0.40066606 0.52071685 -0.019587377 -0.16758952 -0.14683723 -0.53473914 0.24069117 -0.022094531 0.10754244 -0.5888627 0.89186525 -0.12695803 0.7876378 -0.20431341 -0.9892973 0.23867606 -1.0644228
63 -0.1591205 -0.17938572 -0.039467927 0.30236918 0.25428966 -0.15212634 0.17605108 0.9036663 0.7900096 -0.056413896 0.20671743 -0.002413541 -0.3266872 0.29431173 0.5264688 0.65474725 -0.30438888 0.041887693 -0.064094074 -0.30895263
1083 -0.4116006 0.3268164 0.08014227 0.5288492 0.1763677 -0.024227537 0.0420438 0.8302926 0.19711106 0.079082 -0.0076010968 -0.20069493 -0.19929503 -0.07903289 0.27566928 0.43781257 0.012942155 -0.07535831 -0.008002273 -0.56385374
1051 -0.7084628 -0.10370648 0.08483445 0.3126795 0.16298299 0.07572062 0.04416244 0.829176 0.43170604 -0.10926279 -0.061150435 -0.2845976 -0.2094364 0.16018009 0.39191946 0.68189716 -0.16616139 -0.1640219 -0.008299208 -0.45772398
1745 -0.100726336 0.0042142933 0.20960508 0.59796906 -0.07048192 -0.028247636 -0.017108504 0.72968656 0.12702362 -0.039752886 0.12623009 -0.56028587 0.002705963 -0.37167522 0.33586678 0.53023916 0.0707268 -0.25980857 -0.15510169 -0.63600224
335 0.88427246 0.08340001 -0.17926 -0.34603965 0.6947795 -0.20802939 -0.22446021 0.028725775 -0.5808763 0.28159624 0.13738002 0.087014 -0.37444726 0.7618333 -0.07500133 0.77657574 0.10882987 -0.8570766 -0.019721465 -0.9356593
1129 0.031257007 -0.23201397 0.30067918 0.44894314 -0.10068603 -0.002641641 0.015053176 0.7609721 0.5874009 0.08934509 0.15902513 -0.70064783 0.048938032 0.13011168 0.4164312 0.6210226 -0.13446283 -0.17536744 -0.08839617 -0.37478852
1951 0.7883383 0.14385732 0.008613775 -0.523523 0.5862744 -0.08184525 -0.32112423 -0.06983049 -0.4574667 0.2974892 -0.09541095 0.04206412 -0.61274844 0.866016 0.047379892 0.80321914 -0.12405531 -0.93426394 0.24522853 -0.8112056
1636 -0.4652511 -0.2880027 0.103668086 0.38262722 0.14480034 0.23585993 0.024831625 0.6287582 0.6352491 0.0195223 0.049790833 -0.6152757 -0.07995542 0.23055524 0.3949792 0.654439 -0.12427796 -0.28558275 0.04074308 -0.33642346
2208 -0.5101645 -0.014232199 0.21550255 0.31078395 0.28183207 -0.3203392 -0.21786797 0.5392199 0.5617396 -0.4531302 0.32363433 -0.12854022 -0.25914997 0.18529965 0.33439532 0.5659292 -0.52299017 -0.12548517 -0.054249816 -0.45193064
1708 -0.039213438 -0.06993824 0.08993136 -0.12235785 0.3990731 -0.09060529 -0.10761072 0.8621486 0.59697247 -0.039121896 -0.110639066 -0.2810919 0.16229337 0.16099237 0.22848819 0.5191648 -0.1759435 -0.35723397 0.13348398 -0.08051255
467 -0.7032167 0.41067168 -0.20397879 0.46803164 0.19949967 -0.143396 -0.04425364 0.56814766 0.22773279 -0.042771995 0.21018797 -0.0699944 -0.36361003 -0.042056557 0.28823724 0.42365867 -0.24774851 -0.19694468 -0.2447147 -0.4922011
120 -0.32526028 -0.23272237 0.111700214 0.017909175 0.21184292 -0.15978877 -0.0040152506 0.75190085 0.7860976 -0.09365683 0.26301333 -0.063419625 -0.20919941 0.025184877 0.28953055 0.41372955 -0.405532 -0.30780885 0.3265057 -0.46022388
2041 0.81255114 -0.05371114 -0.12287598 -0.26006132 0.40633518 0.0669036 -0.21971309 -0.12091479 -0.4738838 0.20725565 -0.058516912 0.11689993 -0.6157081 1.0128198 -0.1604965 0.75786895 -0.31587002 -0.9794678 0.2704846 -0.9311882
2146 -0.54276776 -0.11703971 0.20815931 0.32926863 0.057413746 -0.15295611 -0.09237932 0.5660262 0.5265532 -0.43363428 0.33441713 -0.2552808 -0.16545735 0.15898351 0.19798216 0.58788145 -0.6138835 -0.40589303 -0.031297144 -0.38687688
259 -0.6951022 0.17826319 0.22976087 0.10743381 0.043414146 -0.0031772489 -0.18674357 0.47757563 0.59306824 -0.26140836 0.24759434 -0.41801503 -0.26973757 0.13663127 0.22287035 0.59093297 -0.6657967 -0.42539805 -0.045527954 -0.3056975
1815 0.7593201 -0.027514309 -0.15849054 -0.43434933 0.5964987 -0.1018844 -0.36893287 0.059476886 -0.6511677 0.24977668 0.33165637 0.08518409 -0.39990953 0.9558995 0.051815666 0.71216625 0.009921199 -0.77211696 0.2902053 -0.9109673
1336 0.76835155 0.10145467 -0.089194335 -0.405477 0.53521645 -0.037721705 -0.28812754 0.085582875 -0.46275428 0.52755046 0.08182409 -0.01398733 -0.5422044 0.8897205 -0.12201572 0.74858195 0.009656793 -0.8789575 0.059905995 -0.73172027
1437 0.7179509 0.04509224 0.004521647 -0.46679068 0.39588484 0.06058926 -0.27102843 -0.1263883 -0.4760808 0.16655035 -0.08009312 0.051821943 -0.60132617 1.0052862 -0.23830388 0.7818571 -0.28463027 -0.97884786 0.27017948 -0.9882319
2296 -0.48186412 0.40718785 0.219054 0.52282745 0.17426395 -0.07372383 -0.11040349 0.5913885 0.50946236 0.21040359 0.31311807 -0.39692336 -0.08679544 0.10297954 0.07423733 0.28031045 -0.17644939 -0.15873489 -0.05071095 -0.56822526
1968 0.8957926 0.11216447 -0.16935179 -0.5026039 0.47926325 -0.08902319 -0.39311868 0.11515885 -0.50965774 0.49449974 0.019559454 0.13198854 -0.4661082 0.6602839 0.036946077 0.80786365 -0.09664153 -0.98202765 0.07937046 -0.7587564
1657 -0.5916648 0.6422573 -0.7519431 0.19245832 -0.1419221 -0.48652858 0.14783072 -0.22844166 0.39408782 -0.07006083 0.15988937 -0.38713452 -0.20912193 -0.07617028 0.18589643 0.5830502 0.33125407 -0.14259152 -0.17448387 -1.2637773
2473 -0.43768495 0.47251642 -0.77121866 0.18888105 -0.15167907 -0.6088634 -0.009314522 -0.28821507 0.5281161 0.0750318 0.12889092 -0.40386364 -0.08559991 -0.08172077 0.12975113 0.46244544 0.2991867 -0.27859074 -0.0209899 -1.166961
1210 0.6989751 0.09513922 -0.1539739 -0.47847104 0.55324 0.059512477 -0.45412853 0.0684184 -0.5526332 0.29839343 0.1768395 0.05886795 -0.49230486 0.7200273 -0.05581079 0.80277795 0.116442665 -0.9838993 -0.0034305777 -0.73029256
170 -0.37319124 0.50256765 -0.6761119 0.17405802 -0.1727285 -0.5705906 0.058402732 -0.40498945 0.6226054 -0.03778272 0.10363328 -0.3929544 -0.16867858 0.073575504 0.33126134 0.44223022 0.3751037 -0.36740914 -0.1572231 -1.0535794
644 -0.49488583 0.6312604 -0.713851 0.21958148 -0.099715315 -0.3651457 -0.0148610035 -0.118618265 0.20315233 0.108775064 0.2805985 -0.33220282 0.054794397 -0.13881122 0.07454893 0.56947535 0.41558075 -0.13203627 -0.028824255 -1.0764787
550 -0.26683098 -0.3954932 -0.020902451 0.20511195 0.32295743 -0.11183238 0.081530795 0.75779665 0.8754526 -0.11060552 0.051099017 -0.156187 -0.202426 0.07881304 0.21837075 0.46697044 -0.35243836 -0.36158875 0.2987558 -0.41562685
2077 0.049036615 -0.12262332 0.3911035 0.47091737 -0.083321996 -0.1661377 -0.011579453 0.7866115 0.2711902 0.21699211 0.099012494 -0.64760643 -0.12034523 -0.2432882 0.3785936 0.52797824 -0.15471084 -0.25750917 -0.2009067 -0.45800123
1354 -0.41189936 0.12925088 0.1203125 0.58381885 0.1983025 0.22544973 -0.0019718427 0.7374366 0.3462208 0.051756743 0.32024637 -0.5045313 -0.13663235 -0.15754476 0.33433235 0.40594688 0.08721233 -0.2800074 -0.2972289 -0.60157794
195 -0.38479248 0.05346104 0.10559317 0.1156813 0.113949955 -0.21927397 -0.22840616 0.5983958 0.68408495 -0.4656184 0.40565023 0.042751327 -0.21723902 0.042013977 0.4312556 0.6497488 -0.62706876 -0.29082322 -0.43206707 -0.37944812
980 0.77252305 0.103285044 -0.04098128 -0.5700119 0.42137897 -0.06341766 -0.277971 -0.18434042 -0.5526469 0.20866631 0.16005917 -0.065476984 -0.6067611 0.8051279 0.032283362 0.6986695 -0.11321177 -0.84852284 0.12324299 -0.98107994
1278 -0.4045308 0.36962306 0.2644537 0.5794092 0.31489044 -0.3978678 -0.10021671 0.53210497 0.35157296 -0.24492072 0.28224877 -0.10111876 -0.18201157 0.05615489 0.23507985 0.44717655 -0.49250174 -0.20126231 -0.091737695 -0.42401242
1896 -0.7516252 0.64257044 -0.76151854 0.18412143 -0.12668695 -0.42704633 0.14596769 -0.14843307 0.43049222 0.12332755 0.19750535 -0.4612295 -0.043991316 -0.019711636 0.15842581 0.55288947 0.28702137 -0.2441051 -0.1581665 -1.1236303
2183 -0.17506976 -0.21897069 0.32160133 0.44985965 -0.13044985 0.31526288 -0.045429744 0.6921232 0.5588239 -0.011119495 0.1928964 -0.6976832 -0.10930892 0.06536704 0.47688133 0.658742 -0.12491505 -0.28803805 -0.16695601 -0.39398387
1545 0.75246465 0.13827288 -0.06259263 -0.42949626 0.715584 -0.12072171 -0.3028248 -0.112620056 -0.49530855 0.3480959 0.13138475 0.022936197 -0.6018533 0.8349385 -0.057382476 0.79046214 0.10004821 -0.8970219 0.1265588 -0.89139664
1824 0.9164524 0.16684745 0.014607369 -0.58637685 0.6490923 -0.037196692 -0.29614657 -0.06317894 -0.36983398 0.3451289 0.007397793 -0.061029196 -0.5831181 0.7787864 -0.082789294 0.7721293 -0.026303682 -1.0052907 0.1816352 -0.86554134
493 -0.56494135 0.62400347 -0.71301734 0.2490043 -0.2141131 -0.47162378 0.07090854 -0.25442967 0.46760094 -0.09245353 0.16090633 -0.5681243 -0.0947805 -0.11345352 0.14175855 0.5559864 0.29839087 -0.3593799 -0.14781307 -1.0664191
1659 -0.4073685 0.06353421 0.016707582 0.2956358 0.1928834 0.006545974 0.10995307 0.8340841 0.66710293 -0.06503282 0.210554 -0.20264617 -0.40634176 0.24878228 0.2913017 0.5679997 -0.2341875 0.10918207 0.2175733 -0.41911137
668 0.86340845 -0.05478868 -0.057869583 -0.29221913 0.4848988 -0.08284034 -0.30746892 -0.082004644 -0.41380265 0.36772043 0.10960987 0.09212009 -0.49269003 0.9292555 -0.16893345 0.68804866 -0.15481935 -1.0226492 0.25961503 -0.9292944
1376 -0.48760584 -0.32427198 0.20570228 0.07541561 0.33496886 -0.3690878 -0.09060532 0.7958872 0.6309895 -0.26963845 0.105123796 -0.15683731 -0.0998472 0.07782295 0.19266699 0.58922184 -0.37395576 -0.21577163 0.19385315 -0.46989238
777 -0.2814792 -0.0854047 -0.072342485 0.12277226 0.17649382 -0.13029797 -0.08668178 0.76481414 0.85312307 -0.15852915 0.17258108 -0.050261404 -0.43856746 0.113799 0.36311173 0.5947678 -0.34098807 -0.014502124 -0.023412708 -0.39184213
558 -0.56232834 0.63005036 -0.705225 0.2138971 -0.14354873 -0.57734704 0.10935751 -0.21462928 0.52425 0.07142941 0.16173181 -0.41999498 -0.06999025 -0.089810014 0.2781684 0.4998286 0.39420265 -0.20957182 -0.06403461 -1.2677011
124 0.037121374 -0.10138462 0.5188026 0.36249968 -0.1641064 0.07612289 -0.023486068 0.79617226 0.098964676 0.028781598 0.2032101 -0.56867206 -0.17674315 -0.16043864 0.43099713 0.49531877 0.029695274 -0.20760973 -0.054804243 -0.49150607
1788 -0.3879188 0.6452627 -0.6877072 0.2209621 -0.08690634 -0.6221807 -0.010846124 -0.24430995 0.368298 0.02721055 0.07342632 -0.31917667 -0.1258944 0.042553958 0.10643904 0.41203585 0.4080844 -0.26316276 -0.065375134 -1.036875
955 -0.47847638 0.08453959 0.026965508 0.18358591 0.37554908 0.028214458 0.17497583 0.9649265 0.52459484 -0.01796135 0.004931321 -0.25576195 -0.33131027 0.28172806 0.4767645 0.4707418 -0.06892477 0.11574357 0.02381055 -0.46379384
1066 -0.10477969 0.0045946497 0.06904847 0.14454055 0.0686074 -0.2930611 0.4302547 0.93328726 0.6310623 -0.13864648 -0.33072588 -0.24264303 -0.065533444 0.16157594 0.5131143 0.6635677 -0.1198433 -0.25096774 0.14819558 -0.2654995
1612 -0.6489306 0.24166872 0.17836855 0.23133893 0.124167465 -0.17833287 -0.13275436 0.6372305 0.51646066 -0.32614222 0.17604057 -0.2391622 -0.4603981 0.004421008 0.21483384 0.5475273 -0.55489326 -0.34748217 0.0818406 -0.33935937
2319 0.739307 -0.084927656 -0.16675466 -0.23832193 0.39815977 -0.13201138 -0.32526752 -0.123786405 -0.6123717 0.23995152 0.12045939 0.1248243 -0.40072605 0.9482185 0.010840807 0.79256934 0.017046161 -0.87401056 0.37660083 -0.98439294
1341 -0.5057335 0.10858994 0.0666072 0.05734515 0.013681242 0.015373318 -0.102700956 0.6618319 0.7138464 -0.32658565 0.37155703 -0.14062788 -0.41937578 0.0343677 0.19461475 0.66563964 -0.5722468 -0.24992482 -0.0068470803 -0.33828384
1288 -0.38888448 -0.0002222163 0.46782306 0.011081916 0.19488204 -0.14932051 -0.10698502 0.54114753 0.6653351 -0.51760477 0.46598443 -0.20421313 0.102952145 -0.075656824 0.5731844 0.6154551 -0.39702335 -0.31898248 0.13629349 -0.5759706
1236 0.690778 0.2156899 -0.09013639 -0.49387047 0.47532067 -0.07461398 -0.6023563 0.09503979 -0.6771025 0.3350075 0.30990654 0.05761437 -0.31111366 0.79934055 -0.049018126 0.81075525 0.05706819 -0.8510421 0.1354621 -0.8155739
2341 -0.30468544 0.14077352 0.34716317 0.4010107 0.3465647 -0.37095132 -0.07771109 0.8485531 0.6615022 0.07708319 0.002956202 -0.43378 -0.00589987 0.16193473 0.209143 0.50179297 0.00067838497 -0.10821933 0.10981745 -0.37057337
969 0.7806455 0.1409248 -0.09313667 -0.5720102 0.6424471 -0.020848697 -0.40493432 0.04888775 -0.5658851 0.3293204 0.16658585 0.03946448 -0.48348305 0.83344245 0.011953097 0.7204163 0.20232521 -0.8808887 -0.095824026 -0.97694266
1497 -0.49193296 0.61104 -0.5192937 0.32276085 -0.09345148 -0.4691573 0.00860027 -0.18461275 0.4593367 0.1179607 0.23655154 -0.4279258 0.07171725 -0.1386551 0.11284869 0.57404655 0.4645462 -0.23712076 0.014182737 -1.0398318
1695 0.8086974 0.12978512 -0.23594864 -0.43660027 0.675333 0.058176894 -0.41523674 0.10147294 -0.52977484 0.27299768 0.17878054 0.016761757 -0.31803074 0.7974301 0.043505993 0.752772 0.17363703 -0.90453875 0.14862019 -0.8072132
1669 -0.26101026 -0.2701194 -0.0028478606 0.21367599 0.21699005 -0.06240122 0.13899766 0.8314057 0.8630922 -0.29635835 -0.02145265 0.019439664 -0.094530776 0.17104955 0.37772056 0.44122416 -0.24475743 -0.58570695 0.057100568 -0.34002054
2067 0.080476925 -0.29162627 0.13104813 0.21449867 0.26100886 -0.26312622 0.3277183 0.65360796 0.75337636 -0.26444414 0.34906644 -0.15072903 -0.2068226 0.28650075 0.3803857 0.49463087 -0.23827353 -0.07568357 0.25818798 -0.33691356
778 -0.49224707 0.502943 -0.1541984 0.7032848 0.16407017 -0.37288448 0.029421266 0.3982198 0.11667124 0.07383727 0.28407335 -0.25879198 -0.08375509 -0.054437216 0.11747932 0.3589928 -0.09786676 -0.203192 -0.022487005 -0.5362588
1029 0.8661385 0.19367467 -0.06470253 -0.46887752 0.58681744 0.017573506 -0.2874051 -0.0039690873 -0.4315598 0.44034585 -0.08225819 -0.088155754 -0.7126763 0.78381044 -0.09601116 0.78442556 -0.15995176 -1.0031728 0.024526075 -0.72597426
307 -0.5932936 0.0033641825 0.41995707 0.18045403 -0.054238666 -0.19982827 -0.13085929 0.42554235 0.66848916 -0.29936114 0.44322154 -0.09621779 -0.16309033 0.21428287 0.36751863 0.79552066 -0.36741173 -0.43198037 0.071287654 -0.21857075
839 -0.28437597 -0.2927186 0.0925934 0.24860094 0.1679231 -0.05696564 0.028817412 0.82998174 0.81200606 -0.34906963 0.066696055 0.061431848 0.09076114 0.07425339 0.45453662 0.670028 -0.16014992 -0.47167924 0.13658382 -0.3924598
1957 -0.4658493 -0.27803198 0.050818365 0.2503641 0.19993426 -0.049960263 0.014751304 0.7924139 0.63277674 -0.30540633 -0.061728135 -0.13858826 -0.15728967 0.25760508 0.4900087 0.6437176 -0.2817015 -0.35269845 0.01706935 -0.30835584
2160 -0.15954058 -0.20904359 0.14059205 0.538292 -0.016266126 0.3489738 0.030073296 0.68265414 0.49212468 -0.157036 0.20201094 -0.5294807 -0.29871964 0.09770522 0.45334193 0.5438533 0.080694154 -0.31277347 -0.28530627 -0.37489823
1532 -0.4664335 0.5262987 -0.7612049 0.24181558 -0.13016908 -0.6527981 -0.06203029 -0.34615737 0.6055037 -0.12548284 0.15129788 -0.40808177 -0.039914813 -0.0587378 0.23163284 0.5359516 0.42263415 -0.3163948 -0.14456505 -1.2085485
257 -0.23331693 0.21716172 0.59469026 0.72213423 0.20909703 -0.105755985 -0.15324092 0.63822913 0.5939914 0.036613107 0.2957687 -0.3823894 -0.028376523 0.13707067 0.16734298 0.3248539 -0.08136259 -0.24604264 0.10634474 -0.5168567
572 1.0000488 0.035316035 0.039398283 -0.20561115 0.44992393 0.09289359 -0.17315355 -0.1406057 -0.47955215 0.05584271 -0.040061202 0.07483898 -0.45688978 0.9180752 -0.2679584 0.84967005 -0.3418998 -1.2043102 0.16817774 -0.9804099
855 0.7997428 0.24181831 0.0054268474 -0.4167726 0.5292112 0.010851767 -0.11856182 -0.20112544 -0.44497466 0.2687396 -0.017227182 0.01847653 -0.63302886 0.8528237 -0.02981655 0.7507538 -0.22271834 -1.1044513 0.26598486 -0.8635323
1167 0.8826824 0.20382437 0.08238785 -0.30925873 0.6340321 -0.17287493 -0.29681653 -0.1761679 -0.5379206 0.26807043 -0.015747584 0.034559716 -0.5822842 0.8029611 -0.06827066 0.8625822 -0.12089535 -1.0041504 0.16185677 -0.8389562
1427 -0.3747629 -0.16274399 0.1226494 0.32137495 0.17729197 -0.048631646 -0.14080523 0.7038023 0.6516427 -0.2721009 0.18406065 -0.26860198 -0.17859776 0.220838 0.2590784 0.39945716 -0.13594687 -0.28422374 -0.05945582 -0.44438952
1611 -0.12834056 -0.29011294 -0.07859749 0.31472063 0.19855934 0.1218973 0.13289508 0.6998771 1.01062 -0.31370944 0.1636994 -0.29973596 -0.2536742 0.24419637 0.24539892 0.5551443 -0.22314814 -0.30461636 0.114816025 -0.3035519
1924 0.7347648 0.13044208 0.00621996 -0.49648196 0.5828918 -0.086562075 -0.36550826 -0.12113143 -0.47715616 0.39246288 0.026758267 -0.058502235 -0.70206714 0.91788226 -0.1285793 0.7948608 -0.10587242 -0.8933079 0.22763848 -0.8628597
1566 -0.3744009 -0.35991043 0.01376433 0.1390106 0.29302013 -0.23829158 -0.088108584 0.8939415 0.6953977 -0.07185989 -0.1771537 -0.053575236 0.112241246 0.35059872 0.2022144 0.5457383 -0.13752554 -0.36488286 0.1098682 -0.26396886
628 0.7537907 0.06307695 -0.097210124 -0.60346454 0.65302104 0.061152052 -0.48136106 0.14148636 -0.43756258 0.36102375 0.10846665 -0.019714337 -0.62795013 0.9148494 -0.08408102 0.6302334 0.06640786 -0.87799543 0.1515773 -0.85757625
108 -0.49658766 0.67127687 -0.79541266 0.18574472 -0.2143577 -0.62110555 0.06998542 -0.38570866 0.5498628 0.0056039626 0.12547874 -0.44646716 -0.07175079 0.010430097 0.171253 0.57834524 0.34366813 -0.28376538 -0.006798741 -1.2322559
1411 -0.49908966 0.5766488 -0.808193 0.1348313 -0.22959948 -0.6656054 -0.028983178 -0.34449133 0.6637362 -0.06769651 0.1836464 -0.51926243 0.0060871993 -0.092071675 0.23398143 0.60851645 0.35366657 -0.35423392 -0.13266549 -1.1949131
2049 -0.5347346 0.71745414 -0.8216124 0.27783263 -0.15423942 -0.65640724 0.036832932 -0.22140937 0.6095891 -0.038391322 0.1340681 -0.4989562 -0.031382333 -0.013097236 0.18425429 0.56476295 0.5089949 -0.28165075 -0.12879126 -1.2174754
2139 0.83120036 0.082645655 -0.042994816 -0.1787395 0.4031203 0.020084118 -0.16498274 -0.08860737 -0.5143648 0.17932443 -0.15438284 0.20503367 -0.48324406 1.0140768 -0.2786119 0.8107811 -0.42220718 -1.05792 0.28091106 -0.98328054
125 -0.5208535 0.63553035 -0.80744356 0.20496373 -0.17705438 -0.7067025 0.10896782 -0.30726835 0.59162915 0.03511098 0.049421467 -0.4503582 -0.12456979 -0.03494173 0.17197603 0.57085997 0.27390444 -0.2833151 -0.12245804 -1.1590916
2457 0.7940274 0.23804362 -0.12168006 -0.46897206 0.5514445 -0.07787142 -0.1407047 -0.09161045 -0.36907953 0.48755044 -0.09665402 0.0062174667 -0.63697076 0.7497127 -0.19006203 0.7250833 -0.019208381 -0.8674098 0.19923985 -0.9809622
2078 -0.54198754 0.3454889 0.2284763 0.49168095 0.21665457 -0.25439626 -0.06455567 0.63905853 0.46380666 -0.3211333 0.118399166 -0.2041749 -0.29719213 0.13554434 0.1742916 0.47279125 -0.3417311 -0.45789576 -0.13578644 -0.25527778
2278 -0.6165185 -0.17434984 0.17054763 0.28924572 0.14484228 -0.026557665 -0.088841274 0.8153253 0.42308283 -0.039547984 -0.21582928 -0.2120133 -0.10117805 0.21874009 0.34917974 0.546269 -0.15588629 -0.2812271 0.21143734 -0.42452678
2102 0.8356398 0.16613966 -0.030893208 -0.42787743 0.5899095 -0.05905837 -0.23177381 -0.1524227 -0.51256543 0.3688348 -0.048361227 -0.0021266392 -0.61573684 0.81249416 -0.09099555 0.9050823 -0.06538553 -0.98768586 0.13442606 -0.9131513
2389 -0.62573457 0.60203785 -0.8108684 0.12296628 -0.19902486 -0.5692473 0.0840437 -0.3727519 0.6494949 -0.011069211 0.16247246 -0.4582274 -0.10304232 0.03909785 0.17187439 0.547849 0.35947612 -0.28766915 -0.05911966 -1.2575369
527 -0.4722475 0.38508737 0.21730159 0.38544932 0.3783502 -0.4355635 -0.23153259 0.55128276 0.48975408 -0.024453636 0.17558074 -0.18226303 -0.22535205 0.0615793 0.3084879 0.29079866 -0.39143938 -0.19450498 -0.20484689 -0.47074354
2481 -0.46294332 0.06379222 0.37904057 -0.084912874 0.029786076 -0.10801104 -0.051914763 0.66402113 0.6925216 -0.36854982 0.5966213 -0.12890644 -0.3084934 0.10231612 0.28628305 0.6225684 -0.49834105 -0.20118053 0.09380354 -0.40406573
588 0.75464034 -0.013924852 0.08253576 -0.50528467 0.33846363 -0.05899011 -0.25342783 -0.081533834 -0.58694386 0.26657417 0.049796768 0.064824395 -0.5853092 1.0233293 -0.039307725 0.92892975 -0.03802537 -0.82694477 0.24772358 -0.9339443
297 -0.33255586 -0.0064903186 0.1891145 0.14235775 0.15597963 -0.17931947 -0.040227287 0.7598457 0.7347515 0.17910077 -0.01276069 -0.38177258 -0.30096802 0.10970617 0.2565333 0.34214994 -0.32502556 0.033734366 0.3035069 -0.60029596
1162 -0.5640481 0.55887383 -0.8553412 0.23171385 -0.22385879 -0.6645782 0.061502524 -0.2706303 0.47508687 -0.05106719 0.02786739 -0.3818331 -0.12805477 -0.041720834 0.24077074 0.7142886 0.3498211 -0.1750263 -0.10968863 -1.2039706
716 -0.40234512 -0.18842465 0.13267656 0.037165377 0.13538194 -0.079557195 0.08916739 0.6373722 0.7123985 -0.3083923 0.13361453 -0.10944336 -0.1483959 0.0068013994 0.5004389 0.43322504 -0.29199764 -0.4862017 0.38402748 -0.46942303
1848 0.7584112 -0.071989395 0.07473353 -0.42005855 0.67164475 0.11008501 -0.4616341 -0.11138475 -0.49767584 0.34897006 0.24360804 -0.03578888 -0.6230536 0.94041026 -0.071856074 0.8181939 0.061813314 -0.76399386 0.24012855 -0.9402395
1986 0.7794232 0.09703443 -0.2767267 -0.3049581 0.2684292 0.090647385 -0.055110563 -0.07558493 -0.42066753 0.072453186 -0.17852704 0.054827575 -0.51568806 1.0060936 -0.2755804 0.64885974 -0.27462617 -0.91111445 0.28468272 -1.086812
287 -0.29282087 -0.44371787 0.027531968 0.26984784 0.30270728 -0.1371335 0.2936055 0.81423163 0.8105738 0.02872159 -0.08176065 -0.24753179 -0.0179551 0.19262624 0.5037153 0.64943635 -0.33695185 -0.37039274 0.17844793 -0.3093056
1171 -0.5365465 -0.12406634 0.09630368 0.08659417 0.22294065 -0.17845283 -0.14464018 0.62157416 0.7368644 -0.3841498 0.10389803 -0.4354651 -0.06297566 0.09275784 0.14914861 0.6157465 -0.28493172 -0.2721172 0.1183974 -0.42647338
1923 -0.4504541 -0.08279721 0.14456479 0.16944498 0.22561163 -0.0956184 -0.18981718 0.54667073 0.7422738 -0.39440715 0.20189185 0.12388538 -0.2716717 0.017544175 0.75540924 0.6050828 -0.23084913 -0.39817113 0.046410616 -0.3721928
121 -0.6170328 0.28099105 0.19209448 0.23204876 0.22734804 0.039625574 -0.03308426 0.70784605 0.4460482 -0.2765298 -0.02403562 -0.39055604 -0.059193842 0.03440369 0.2600613 0.60923773 -0.1874636 -0.3560825 0.033328157 -0.36307934
2348 -0.6967229 0.24181388 -0.022931475 0.39202213 -0.056304034 -0.045956388 -0.08326647 0.6577599 0.3756822 -0.2785827 0.10809492 -0.3453676 0.006761644 -0.10795899 0.08297806 0.67342055 -0.18871526 -0.4036686 -0.048858985 -0.4848547
601 0.66333854 0.050917532 -0.14168352 -0.33854577 0.6020131 -0.07994507 -0.3784478 0.08287792 -0.6492776 0.26429728 0.22840247 0.12882952 -0.48761475 0.80467874 0.07446354 0.6302253 0.16638422 -0.8345418 0.124164626 -0.8196502
381 0.8114768 0.17171317 -0.10565204 -0.52731675 0.5790485 -0.13431093 -0.2057116 -0.16263849 -0.49036843 0.25128168 -0.10685662 -0.013385285 -0.75286955 1.0098643 -0.03880193 0.7713038 -0.050312944 -0.8523263 0.28407034 -1.0419145
656 -0.6568658 -0.07548256 0.22096083 0.1742782 0.2778339 -0.18347163 -0.25363874 0.58395684 0.49825206 -0.24934854 0.12475492 0.0062170387 -0.23769735 -0.02985562 0.6541236 0.36121082 -0.44212466 -0.4664063 -0.089431636 -0.555637
666 -0.62885845 -0.30878788 0.027471617 0.28382027 0.13890177 -0.06987601 -0.11085107 0.809064 0.7009027 -0.16278996 -0.046719592 -0.06817967 -0.27552325 0.14342126 0.27659816 0.68981427 -0.43842822 -0.4516867 0.078407 -0.2904318
359 0.8290452 0.15763615 -0.010047516 -0.3344204 0.54462403 -0.081949696 -0.090513416 -0.102654934 -0.3962321 0.20216556 -0.0057604886 0.07305723 -0.60300255 1.0127335 -0.31083798 0.7759052 -0.23573636 -1.0139078 0.12600064 -0.8710937
200 -0.32533187 -0.27613053 0.07822602 0.40126768 0.08621672 0.10396187 0.06321859 0.6253543 0.6353764 -0.14411296 0.035753403 -0.24680275 0.011957937 0.22772236 0.5748381 0.7661242 -0.07820378 -0.22893827 0.13717957 -0.34116292
237 -0.39708474 0.27501214 0.24980831 0.058526035 0.34475797 -0.098734215 -0.030910157 0.46273422 0.49010903 -0.36282736 0.1581583 -0.095434174 -0.28125703 -0.0008463031 0.8663901 0.47589868 -0.43784675 -0.4914449 -0.07640415 -0.23450959
2266 0.8764023 0.07031732 -0.06745683 -0.3595131 0.6179389 -0.12758343 -0.42117506 0.050976437 -0.5219278 0.27608496 0.19114166 0.11235164 -0.3540411 0.8508712 0.050922472 0.7725172 0.16088791 -0.74462634 0.07137587 -0.8649738
1598 -0.5157895 -0.06746885 0.09422524 0.11194541 0.40705714 -0.23241071 -0.34240252 0.5977917 0.56740105 -0.49537334 0.23119661 -0.13311632 -0.33233488 0.02796869 0.47319633 0.5949773 -0.4670463 -0.18345429 -0.2750662 -0.39429846
1512 0.69487756 0.09618516 -0.06971485 -0.51444477 0.68063915 0.01570494 -0.43206587 -0.08057137 -0.48557514 0.39538118 0.1421514 0.03171663 -0.50209975 0.8635684 -0.1892954 0.9438983 0.0109799495 -0.95205563 0.1076785 -0.834467
54 -0.54723006 0.055464532 0.47604734 0.08700939 0.08413128 -0.102041125 -0.12882933 0.4061315 0.64171076 -0.32180595 0.41348276 -0.27165434 -0.253366 0.1411799 0.50698906 0.53980786 -0.5084501 -0.3424635 0.21136928 -0.40296137
1013 -0.65511334 0.14267842 0.15394722 0.28842223 0.16990918 -0.092407696 -0.14400385 0.66527414 0.447961 -0.31971204 0.30698502 -0.2768864 -0.23814645 0.042356625 0.0740459 0.6618508 -0.37664703 -0.37475663 -0.15659681 -0.28389084
1855 0.7833093 0.16032514 0.01708052 -0.5577992 0.47249678 0.03295235 -0.24466059 -0.09983785 -0.43628258 0.42151207 0.03499279 0.078074895 -0.63261056 0.9155562 0.04146343 0.7484714 -0.055829953 -0.91840523 0.24221344 -0.96370536
2262 -0.45655558 0.5801066 -0.7847304 0.2050601 -0.19356872 -0.5794665 0.13288727 -0.40299764 0.55876464 -0.0049904687 0.14838326 -0.5368386 -0.14806558 0.05829476 0.24857415 0.5081414 0.34624323 -0.30799574 -0.0914559 -1.1871414
1491 -0.47688368 0.113390915 0.51015526 0.24524213 0.19922662 -0.3170564 -0.14852099 0.58569765 0.57774216 -0.25864378 0.31662196 -0.2829377 -0.0875098 0.16955417 0.0897268 0.519397 -0.49300918 -0.32259548 0.23022611 -0.36874893
697 0.14849187 -0.25274426 0.44496426 0.31521368 -0.29924744 -0.101070546 0.08627963 0.9384648 0.26844463 -0.02984775 -0.034243833 -0.6614394 -0.25498557 -0.2122875 0.5724537 0.6734063 -0.07427328 -0.16808157 -0.29528573 -0.5097989
1800 -0.33942363 -0.34997126 0.15560034 0.24204299 0.2629009 0.092891075 0.21797922 0.670575 0.8424151 0.19137059 0.18080541 -0.47221798 -0.2563935 0.4190941 0.36426553 0.4003363 -0.23959944 -0.1844826 0.075118385 -0.38435918
647 -0.47143823 0.67267483 -0.8065828 0.10358203 -0.18686 -0.70231307 0.09841086 -0.3306031 0.6018199 0.028852979 0.100923106 -0.4877452 -0.018027943 -0.011005554 0.21464837 0.5479921 0.3745743 -0.34229815 -0.12593052 -1.2356424
1648 -0.66544193 0.4450553 0.024871126 0.44266647 0.23149167 -0.08221944 -0.12031614 0.5389618 0.33516762 -0.16151495 0.042540673 -0.30659235 -0.18779735 -0.0703201 0.14262252 0.35396314 -0.38016292 -0.37444532 0.054465603 -0.5072693
132 0.053831443 -0.21027727 0.37168473 0.21512936 -0.25475264 -0.005968774 0.014865265 0.97821087 0.1104194 0.019842114 0.1041226 -0.45690945 -0.23273686 -0.03527972 0.4117163 0.3816039 0.035333823 -0.2712873 -0.45472643 -0.49901646
14 -0.542744 0.50139105 0.02328265 0.54522496 0.20406535 -0.13290375 0.045500398 0.4605405 0.1365998 0.27323586 0.2036546 -0.24728106 0.039061375 -0.108899124 0.26319632 0.3550006 0.02056528 -0.2679612 0.10936641 -0.5632352
2493 -0.47816882 0.58261544 -0.828611 0.17164247 -0.16110598 -0.6076281 -0.017296916 -0.3742227 0.64907527 0.001315498 0.069864996 -0.42648584 -0.073426515 -0.030938897 0.19710091 0.66398424 0.44102147 -0.28824928 -0.100742236 -1.1798687
1472 -0.51921004 0.60418886 -0.74952215 0.2561015 -0.15569212 -0.66820484 -0.040587567 -0.35298374 0.6297439 -0.0081344405 0.13002963 -0.46546048 -0.020742068 -0.05574827 0.15814288 0.5513332 0.36344007 -0.31229436 -0.1257375 -1.2482277
1787 -0.5074304 0.61498713 -0.85763067 0.23232397 -0.2109968 -0.6355031 0.01387967 -0.3468739 0.68955684 -0.017795064 0.16920374 -0.47826532 -0.20237926 0.021074329 0.2329319 0.526119 0.33569556 -0.29479936 -0.12010897 -1.1550677
607 -0.5659207 0.63312703 -0.7789405 0.18211761 -0.18552257 -0.70745486 -0.023131514 -0.46257177 0.6088274 0.059944835 0.19780421 -0.4693317 -0.18236822 0.012150111 0.23049796 0.63127613 0.32098365 -0.29744676 0.017717766 -1.1002632
1646 -0.4618373 0.26612365 0.62440383 0.39214173 0.08322838 -0.45768434 -0.10234474 0.4547672 0.57582533 -0.30833644 0.5026676 -0.18293253 -0.13011205 0.10524162 0.17950347 0.38817763 -0.52760994 -0.370355 0.09721364 -0.52165014
295 -0.5243296 0.6083653 -0.7686807 0.11322799 -0.20432232 -0.6647314 0.030583898 -0.40253255 0.6841759 0.025380967 0.09683307 -0.52428883 -0.04559316 -0.074409045 0.21325569 0.5688005 0.35221198 -0.39066964 -0.041488547 -1.2329285
806 -0.5166238 0.0064317444 0.261761 0.02921883 0.18912396 -0.29412004 -0.13296291 0.6359876 0.69359875 -0.30825195 0.3399425 -0.17417113 -0.1859074 0.02686149 0.09151328 0.5152132 -0.638899 -0.35964325 0.14797376 -0.422876
2475 -0.45549154 0.5909343 -0.87788475 0.16140597 -0.0716096 -0.5651878 -0.028491788 -0.31581536 0.45370975 0.07127051 0.07757561 -0.37462145 -0.10137333 0.06270161 0.18210067 0.549156 0.45033088 -0.22739676 -0.12973091 -1.0762774
757 -0.51822966 0.6612142 -0.899393 0.19398315 -0.2003646 -0.6881632 0.05323452 -0.28055194 0.5361322 0.05908325 0.13916206 -0.4681677 -0.05895117 -0.035262782 0.18638411 0.6588673 0.31170225 -0.24400243 -0.07608195 -1.1746778
2360 0.114441976 0.06288053 0.33242536 0.34110418 -0.19218954 0.078812495 -0.0576109 0.83638215 -0.092820086 0.20257784 0.32437977 -0.44766548 0.0020366611 -0.20391746 0.16104102 0.4460243 0.074893035 -0.33188626 -0.20716192 -0.35647637
1653 -0.49121198 0.61449546 -0.7609197 0.21627307 -0.22551532 -0.634306 0.04793547 -0.32068256 0.5794219 -0.028309382 0.11552098 -0.44130936 -0.12903531 0.032002352 0.3116021 0.57439506 0.3197527 -0.16632949 -0.069736816 -1.1533357
1230 -0.09338099 -0.038040366 0.29828826 0.34763414 0.23191936 -0.051941115 0.014420055 0.60595036 0.51066506 -0.29789644 0.030200714 -0.51573473 -0.027810302 -0.07601405 0.79021126 0.41914722 -0.22575966 -0.44082272 -0.14886633 -0.441085
2468 0.896102 0.123036645 -0.11007149 -0.47064847 0.6657319 0.032365676 -0.29763278 0.047392342 -0.44046098 0.44217458 0.060678113 -0.038200345 -0.60718626 0.7368433 -0.13467629 0.78059965 -0.05044633 -0.91335016 0.08837723 -0.8490216
1698 -0.07142257 -0.24027556 0.05468302 0.52888834 0.055309743 0.017591635 0.065725856 0.6347376 0.6611306 -0.3517076 -0.02122795 -0.46393666 -0.12456526 0.021496793 0.6222439 0.923829 -0.157918 -0.19018638 -0.10079006 -0.2716677
239 -0.42003348 0.6549609 -0.66267985 0.36635306 -0.14209546 -0.64554167 0.11083698 -0.19634272 0.50305736 0.040003177 0.15582202 -0.3817867 -0.064694956 -0.07311742 0.22169504 0.4294663 0.2665742 -0.25630993 -0.20188133 -1.143463
1458 0.8270477 0.12294705 0.012180884 -0.5470828 0.68353456 -0.12443279 -0.44016552 0.005856068 -0.5681447 0.2709501 0.10821601 0.030816901 -0.53953236 0.8175705 -0.008208797 0.7822452 0.17135054 -0.8185006 0.015529655 -0.9734757
709 0.9129428 0.28442895 0.04546819 -0.4171775 0.6537169 -0.043575954 -0.38578793 -0.024721354 -0.42953146 0.29947633 0.038350556 0.028985262 -0.24569577 0.8026756 -0.15471748 0.82155126 -0.011574348 -1.0355226 0.07619494 -0.83341366
356 0.8751134 0.10669429 -0.16487145 -0.5326629 0.4424961 0.047675174 -0.18786722 -0.23222375 -0.38740396 0.28845158 -0.0037249685 -0.117166765 -0.70987016 0.91463876 -0.1748893 0.80051404 -0.26966122 -0.97827643 0.23693733 -1.0015255
802 -0.36326075 -0.05038584 0.22450046 0.059055295 0.35423362 -0.30452964 -0.1942204 0.69797295 0.658243 -0.5103435 0.32169232 -0.13563359 -0.087231405 0.0022102168 0.25093132 0.48802432 -0.5347257 -0.20214292 0.2847686 -0.5086721
852 -0.2636419 0.36893702 0.48173118 0.38230267 0.1324471 -0.32918653 -0.05537218 0.82296187 0.6029115 0.24940535 0.044334207 -0.23843446 0.07745212 0.13721102 0.30774522 0.39882064 -0.1418451 -0.2379657 0.031840906 -0.41927162
898 0.743217 -0.014982449 -0.1560025 -0.2675561 0.4986247 0.021322623 -0.486602 0.20838115 -0.76038253 0.21394284 0.17236371 0.111799344 -0.30445948 0.7424629 -0.08304412 0.7097226 -0.0011169949 -0.8821437 0.15893272 -0.8778496
1038 0.6471806 0.11626724 -0.1618935 -0.5271486 0.6109322 -0.14399874 -0.38864866 0.15722413 -0.71140295 0.39204064 0.24588871 -0.068893254 -0.46366727 0.7747641 0.011614096 0.6862095 0.01657005 -0.85021406 0.05325362 -0.7326622
1100 0.2590977 -0.23670703 0.5332816 0.23502868 -0.24608794 -0.13886684 0.048235185 0.9097382 0.14080618 0.096142195 0.0013120591 -0.5551486 -0.11701329 -0.034003932 0.45360166 0.4897977 -0.078796804 -0.21250668 -0.21258721 -0.41536555
1215 -0.02763649 -0.03750667 0.038005542 0.25282225 0.23019895 -0.16994864 0.19983159 0.7615838 0.8515815 -0.34841248 0.16169822 -0.06398055 -0.25043494 0.14830758 0.513824 0.5829997 -0.26918414 -0.24235581 0.047177706 -0.2618917
517 0.97369605 0.20211868 0.02580525 -0.4107693 0.6388655 -0.05526056 -0.22499965 -0.17474918 -0.32982552 0.2917455 0.09929907 -0.01997504 -0.51243573 0.86425906 -0.06625685 0.7815039 0.0506167 -0.9032859 0.12943994 -0.9443372
597 -0.09510268 -0.05863412 0.14900686 0.42643815 -0.16329855 0.05596323 0.01660498 0.8190695 -0.03285235 0.20162527 0.25686485 -0.52625966 -0.06188643 -0.23795266 0.28770304 0.4581462 0.093898885 -0.15740561 -0.07806533 -0.5612465
288 -0.24309269 0.22996117 0.3456528 0.14997685 0.08213134 -0.17420791 -0.19109794 0.7807004 0.7799268 -0.28419194 -0.077175796 -0.22801122 -0.02510825 0.16320233 0.2746597 0.31997335 -0.4079303 -0.32483548 -0.12835333 -0.5227076
718 -0.083799966 -0.11116704 0.03159501 0.25078174 0.2090635 -0.051448062 -0.20498912 0.74648243 0.7560107 -0.3242103 0.20150216 -0.21915184 -0.15296751 0.22175546 0.43557256 0.4974208 -0.1903777 -0.13337514 -0.30847523 -0.34128174
294 -0.5164784 0.5759289 -0.76858544 0.22055504 -0.09263937 -0.7256708 0.02885031 -0.45228785 0.60031015 -0.010390526 0.1494425 -0.56488067 -0.096584804 -0.0801564 0.3230214 0.55647624 0.29760638 -0.28646 -0.02160034 -1.2439156
1362 -0.77631897 0.3083963 0.1720073 0.42611635 0.19469436 -0.024550596 -0.08402946 0.6123075 0.30014735 -0.049587395 0.25028098 -0.46111387 -0.13203928 0.028792799 0.15115637 0.46519053 -0.3046437 -0.38160217 -0.016011639 -0.41870615
805 -0.45173043 0.59453255 -0.74028444 0.23921655 -0.3373215 -0.6804505 -0.015516305 -0.3665488 0.5337735 -0.018644448 0.20033951 -0.39954183 -0.073134124 -0.12348279 0.22367981 0.6375047 0.34741092 -0.33134845 -0.1254838 -1.2132441
413 -0.44645327 0.010114248 0.15195188 0.16099274 0.12080861 -0.16843367 -0.08300339 0.7269559 0.70080054 -0.3197668 0.23076762 -0.21977538 0.17717719 0.13501433 0.273277 0.6442772 -0.5310728 -0.39719284 -0.0562732 -0.38469753
2251 0.006326298 -0.011538352 0.15246049 0.14708114 0.33633026 -0.19561392 -0.098942205 0.7831827 0.85118717 -0.4612385 0.4056867 0.041024897 -0.18421017 0.0034344138 0.48568597 0.53268296 -0.40910614 -0.22930184 -0.072023705 -0.34424937
820 0.03914889 -0.14341843 0.47467953 0.33568278 -0.17651471 0.020746991 0.2082595 0.9411004 0.21846457 -0.1913391 0.2570019 -0.670458 -0.22510685 -0.03948214 0.53397554 0.33727628 0.01682658 -0.295424 -0.4482911 -0.59619325
1816 -0.643169 0.0073998966 0.19660595 0.0829347 0.25445974 -0.0821466 -0.35285574 0.5406081 0.5696084 -0.43388066 0.24268118 -0.102586314 -0.24356385 0.08112665 0.48931867 0.6339878 -0.32779968 -0.3927012 -0.17437792 -0.3099699
2084 0.66437036 0.14158009 -0.08683767 -0.5135584 0.56237024 -0.10706021 -0.5750354 0.21635242 -0.69581175 0.33642796 0.32443118 0.011554063 -0.29895985 0.71674204 -0.035463292 0.69021183 0.14183274 -0.8988017 0.15175447 -0.7562116
236 -0.53310794 0.55758417 -0.8718511 0.26125693 -0.19374482 -0.66214544 0.020159783 -0.34180608 0.6227632 -0.0215576 0.16879335 -0.45710796 -0.085352615 0.009973691 0.15831558 0.5042189 0.4269472 -0.38445026 -0.15550053 -1.2897483
1711 -0.31420627 -0.36303386 -0.064672545 0.18674788 0.3097309 -0.26673976 0.20483209 0.8094303 0.92229986 -0.057712477 0.18008979 -0.10984773 -0.27317783 0.26838943 0.12882952 0.46758202 -0.3392052 -0.2632978 0.13512346 -0.35669813
2165 -0.069240555 -0.12324859 0.015278697 0.30534726 0.269056 -0.15158008 0.032565758 0.74844587 0.8436327 -0.2249337 0.09495098 -0.012085441 -0.3314899 0.15900607 0.5946722 0.42873174 -0.23737173 -0.14066254 0.044822678 -0.41727474
1778 0.039550416 -0.30925772 0.528722 0.2825836 -0.24888605 -0.07888732 0.20972791 0.87308204 0.1641232 0.08898384 0.062453054 -0.6495225 -0.21149334 -0.11704359 0.50451255 0.73639494 -0.061586674 -0.12369618 -0.22621208 -0.4882446
2286 -0.5610979 0.6600169 -0.84212613 0.19205081 -0.15990227 -0.69312376 0.11198494 -0.35937974 0.64003223 0.026381135 0.09406182 -0.4320019 -0.08702555 0.025702348 0.33856636 0.553982 0.3286257 -0.34619245 -0.14053869 -1.2481741
1450 0.13928083 0.107315704 0.23916051 0.20378637 0.2968566 -0.1602032 0.045273546 0.7507447 0.67412806 -0.13533531 0.031116284 -0.30732623 -0.17774294 0.22065726 0.6468452 0.52855587 -0.17442596 -0.021439893 -0.088811874 -0.23433693
2265 -0.36550477 -0.2615767 0.024621094 0.2785598 0.1514199 0.17383327 -0.0724016 0.61683995 0.73653555 -0.09936873 0.03132157 -0.4009383 -0.19869496 0.3235902 0.510193 0.5376017 -0.16774555 -0.31418005 -0.089631245 -0.2826178
584 0.66011184 0.10619549 -0.04743834 -0.4602232 0.5355693 -0.03729344 -0.3977369 0.0973849 -0.61123407 0.39912516 0.18361622 0.083559975 -0.49521375 0.91761756 -0.09699753 0.7655748 0.13028435 -0.951093 0.17032294 -0.8310388
1340 -0.5658972 0.6803394 -0.8131589 0.26433325 -0.23526019 -0.6140133 -0.058925036 -0.34297687 0.5725371 0.033800744 0.0431643 -0.45545715 -0.13186239 -0.029202495 0.25684813 0.64412314 0.35824096 -0.2848073 -0.19303736 -1.1957276
2081 -0.2044884 0.018387202 0.261264 0.14317271 0.311439 -0.38179854 0.16587256 0.9335344 0.6288061 -0.106546134 -0.16778636 -0.3825963 0.10457348 0.1584339 0.34980085 0.6110752 -0.19903012 -0.20406035 0.17030779 -0.30164474
2372 -0.3734151 -0.21737398 0.061862182 0.21181086 0.07503415 -0.17528929 -0.118840516 0.73186785 0.75023574 -0.28855476 0.13450544 -0.028603662 -0.13869396 0.08578086 0.16762908 0.3922694 -0.39074707 -0.49675563 0.22319025 -0.43919712
1471 0.77006274 0.118789464 -0.14912951 -0.41279408 0.6693502 -0.03168794 -0.35484973 0.024487358 -0.5420503 0.28450015 0.3005263 0.080356725 -0.50714743 0.8214067 -0.031985156 0.80949855 0.2680228 -0.8539011 0.06774844 -0.80222976
1063 0.8403882 0.13346557 -0.25467068 -0.55610746 0.66324055 -0.08122009 -0.41759542 0.18735828 -0.5171178 0.3347304 0.31967905 0.0011872724 -0.36756277 0.7012327 -0.100660056 0.7513439 0.17841329 -0.7951967 0.09011323 -0.792027
1276 -0.26354903 -0.28562963 0.014794878 0.39377764 -0.0041872947 -0.068484895 -0.057351176 0.74953634 0.6463174 -0.27165285 -0.058383487 -0.17492624 -0.30443117 0.14965397 0.30127463 0.7692749 -0.26624167 -0.22688565 0.15108931 -0.24261211
884 -0.22691032 -0.085860796 0.04412381 0.03536323 0.40720728 -0.2254743 -0.00095195003 0.7586624 0.7315269 -0.5136817 0.28256384 -0.015279053 0.14065067 -0.082719535 0.4100624 0.47281757 -0.4272567 -0.41822612 0.15499808 -0.48085684
734 0.9412433 -0.012164622 -0.037005957 -0.23596102 0.28018504 0.10998977 -0.2175982 0.0394218 -0.5546321 0.18971863 -0.031738427 0.20467362 -0.5240388 1.0272435 -0.24656285 0.74521524 -0.45080626 -0.99940056 0.29113862 -1.0733395
2144 0.78639096 0.07918798 0.025215372 -0.33001766 0.3996174 -0.00012867672 -0.26090154 -0.0014790385 -0.62406445 0.24176124 -0.04531492 0.07349593 -0.615578 1.0830848 -0.059591495 0.7711694 -0.16972238 -1.0642962 0.30425102 -0.8633882
10 -0.55195177 0.0946934 0.044667333 0.16597888 0.31823975 -0.18586822 -0.264948 0.66250944 0.54821163 -0.2649984 0.21068414 -0.096720025 -0.25715187 0.09833239 0.5243721 0.59546405 -0.54902285 -0.21551053 -0.23999792 -0.31490767
1146 0.8995335 0.18535508 0.00060971675 -0.30277693 0.6129627 -0.10246097 -0.18188426 -0.19386116 -0.4727578 0.16353732 0.034006197 -0.030472418 -0.49636963 0.77221197 0.035851877 0.7625012 -0.24434102 -0.7076465 0.20877258 -0.8610117
515 -0.35844216 -0.35276568 -0.1043479 0.20247102 0.25256965 -0.377226 0.029228566 0.96083593 0.8783989 -0.06513542 -0.04790803 0.01961625 -0.14718641 0.051550187 0.24655162 0.47943568 -0.299785 -0.24628906 0.2658368 -0.5294003
1553 -0.59949505 0.60358757 -0.86883074 0.21859303 -0.17802665 -0.67498994 -0.0036868239 -0.29835168 0.6371896 0.030619197 0.1612736 -0.37333548 -0.11685435 -0.022413839 0.2173239 0.5561553 0.42024833 -0.3465139 -0.14010315 -1.2431815
