182 20
97 -0.014300918 -0.042015422 -0.09882943 -0.03702298 -0.044810113 -0.12157331 -0.01550258 0.13929527 -0.1912789 0.14797336 0.1702479 0.21305524 -0.049377322 -0.1994578 -0.13611571 -0.1160034 0.22596362 -0.1843173 0.16204715 -0.07741344
112 -0.106964454 -0.0076093976 -0.17245579 0.0893263 -0.039522316 -0.056706123 0.02704032 0.17146906 -0.20748982 0.18456106 0.2433268 0.1643079 -0.0904674 -0.11268768 -0.10277271 -0.07870289 0.16480665 -0.2508257 0.16339579 0.011616556
105 0.057894986 0.006633937 -0.03035247 0.08425319 -0.07861861 -0.15161344 0.020303443 0.1784646 -0.15189286 0.1879915 0.085809566 0.07329076 -0.03683248 -0.18749683 -0.16025437 -0.13985635 0.28906497 -0.25960308 0.20047641 0.019312078
67 0.14490919 0.04145628 -0.038482945 0.09494694 -0.030221948 -0.0631379 -0.025956932 0.11853362 -0.19228075 0.16921918 0.22091973 0.24839337 -0.021550056 -0.1510456 -0.18139562 -0.14419086 0.20192382 -0.22205848 0.03510181 -0.10652149
129 0.038173214 -0.0023437215 0.004404953 0.08346059 0.0028185933 -0.103411585 0.057217717 0.14923577 -0.20383517 0.26986673 0.20400165 0.15764691 -0.023058074 -0.23874608 -0.13837217 -0.19207233 0.16242513 -0.060055204 0.22685938 -0.10640278
109 0.050733026 -0.008394726 -0.15972118 0.03645284 0.029088281 -0.08743179 0.02758543 0.10493918 -0.16977523 0.20205203 0.17241736 0.14364897 -0.015938772 -0.21780027 -0.08970348 -0.15126283 0.20031846 -0.19988668 0.14366047 -0.08899238
172 0.10206065 0.027956193 -0.10018629 0.1005464 -0.08524006 -0.20740862 -0.015889384 0.23616102 -0.06185605 0.26017934 0.17983028 0.12649396 0.073746175 -0.11220039 -0.09640748 -0.073839836 0.20363152 -0.20246454 0.24228983 -0.04022817
161 0.05391901 -0.01562915 -0.04814968 0.21995415 -0.007004181 -0.14271113 0.01944314 0.08874147 -0.12123082 0.26873752 0.14667064 0.12492587 -0.04020792 -0.20655458 -0.09901603 -0.08017348 0.23888236 -0.2523823 0.11208708 -0.13930525
125 0.10340805 -0.032311827 -0.01752987 0.027034758 -0.1606726 -0.065544635 0.029653251 0.17199692 -0.20938541 0.13863501 0.17905809 0.2608096 -0.015235352 -0.21905898 -0.032336224 -0.08645494 0.27658436 -0.16053572 0.11975015 -0.10644428
149 0.19220701 0.025398942 -0.1248762 0.009881611 0.023966817 -0.027124446 -0.042493135 0.09295885 -0.19654864 0.24121472 0.22767861 0.20734017 -0.100041084 -0.12117784 -0.16464077 -0.09218579 0.15769409 -0.17226239 0.1553334 -0.14376457
68 0.101033784 0.025008831 -0.14158422 0.10765001 -0.10832556 -0.11948403 -0.02504142 0.16398571 -0.13386904 0.26141125 0.16800936 0.20815569 -0.06676256 -0.20479724 -0.061493475 -0.024684444 0.23024459 -0.16581452 0.042005647 -0.07585691
130 0.04928266 -0.027987754 -0.17727885 0.11281577 0.03983996 -0.099349074 0.067312464 0.15277722 -0.14905976 0.19183931 0.1767614 0.19512473 -0.002371131 -0.12828662 -0.018929347 -0.14441064 0.21923302 -0.14243723 0.1995212 -0.12845545
80 0.117131874 -0.025581293 -0.06664178 0.09818997 -0.08350734 0.005358335 -0.00866739 0.091336355 -0.14671287 0.22898632 0.18621358 0.12570277 0.019720502 -0.2374175 -0.1024286 -0.115225025 0.25804174 -0.25129575 0.112627946 -0.040067308
124 0.04298093 -0.068361744 -0.09858673 0.0334389 -0.1007751 -0.19925824 -0.007669817 0.20435719 -0.07334952 0.24925193 0.22662276 0.18411797 -0.08099227 -0.090858355 -0.07998609 -0.09836668 0.22707959 -0.19959846 0.17370746 -0.055771064
9 0.057591576 -0.07975658 -0.20103708 0.11181075 -0.0631475 -0.050748516 0.015672334 0.10678773 -0.013849143 0.17044698 0.18757063 0.2806717 0.029466113 -0.16727823 -0.13087575 -0.07941612 0.25071284 -0.20341206 0.15880056 0.003316348
104 -0.053216424 0.03201097 -0.100235365 0.08903971 -0.018113151 -0.035521515 0.015406536 0.13597868 -0.14487 0.28220794 0.15073588 0.10754089 -0.0041778022 -0.14543232 -0.13893254 -0.16197284 0.26651087 -0.20483066 0.08961924 -0.08679924
74 0.011420514 0.025897633 -0.17705622 0.049562342 0.008869119 -0.06335613 0.016552215 0.11267712 0.011175613 0.26043984 0.20305865 0.15925035 0.010977027 -0.17519909 -0.095968604 -0.10359677 0.2811305 -0.21237542 0.12215763 -0.1310843
116 0.02827083 0.016702108 -0.08731745 0.15838279 -0.119544946 -0.07309612 0.024278674 0.10698372 -0.12012291 0.28135416 0.20486975 0.187511 -0.052347247 -0.21913677 -0.10340723 -0.13634208 0.17272158 -0.16892654 0.11966312 -0.1479359
115 -0.028451843 -0.04798415 -0.09453331 0.0013887109 -0.07293152 -0.09371094 -0.040710896 0.25408724 -0.19944143 0.2938165 0.19920361 0.07713587 -0.05383997 -0.18795025 -0.1859135 -0.14376135 0.1308623 -0.20227729 0.05524493 -0.09162403
113 0.017032871 -0.077054985 -0.067705855 -0.036285352 0.02136459 -0.13178381 -0.14157851 0.15185243 -0.16215673 0.20268038 0.27892286 0.24825758 0.052530795 -0.2188474 -0.06771473 -0.07615352 0.1473421 -0.23240186 0.088119805 -0.0840317
78 0.025683185 0.06432636 -0.16854925 0.10375872 -0.016147003 -0.14879172 0.026812678 0.21528496 -0.08117737 0.22792484 0.2630498 0.20757118 -0.021820573 -0.07738508 -0.11151746 -0.15880328 0.21487688 -0.117365055 0.09373332 -0.050763488
162 0.0029603853 -0.070498995 -0.08272296 0.01578512 -0.054685988 -0.0882272 -0.039120555 0.15214047 -0.18759905 0.18706729 0.21578796 0.2123872 -0.041709565 -0.15012987 0.015068047 -0.089477725 0.2288845 -0.19460675 0.2299983 -0.10330823
77 0.032738153 0.0017829915 -0.11324833 0.08538119 -0.080383636 -0.11004342 -0.0080424175 0.12835503 -0.0928252 0.18596037 0.26872852 0.17180277 0.023127602 -0.14514636 -0.09953682 -0.112079315 0.26783884 -0.17563336 0.15865736 -0.10490514
108 0.012812323 0.028593367 -0.08334957 0.07354373 -0.0933985 -0.11501941 0.02433867 0.16805108 -0.05883508 0.23473266 0.09716332 0.18171802 -0.072478294 -0.12714578 -0.15571211 -0.11865418 0.3326981 -0.19549665 0.11243763 -0.072444424
179 0.0752221 -0.008564305 -0.13114935 0.10476609 -0.104453005 -0.094257005 0.032306068 0.18870763 -0.037570897 0.190567 0.23387164 0.16066585 -0.02535767 -0.25513318 -0.06565353 -0.044608835 0.26981494 -0.16549632 0.14689995 -0.0944423
91 -0.039138783 0.052039973 -0.15505633 0.03602733 -0.07758107 -0.11118456 0.03528574 0.12685911 -0.19310576 0.1808501 0.19878127 0.14959471 0.02781829 -0.15155427 -0.1665237 -0.10699663 0.23393007 -0.15238582 0.14428574 -0.12829027
165 0.09054966 -0.057906315 -0.06535305 0.037912812 0.022613458 -0.06651753 -0.07102095 0.115009926 -0.16574895 0.22911942 0.21274172 0.2127416 -0.04667548 -0.22323863 -0.02892929 -0.09527682 0.28483975 -0.13972649 0.08920408 -0.06882501
121 -0.022189038 -0.04908569 -0.13910612 0.07002571 0.031318747 -0.104700685 0.05382922 0.19171733 -0.1735758 0.19159105 0.19535743 0.18382196 -0.09977365 -0.1446248 -0.15705107 -0.060562626 0.24887946 -0.13081619 0.08047739 -0.16493846
65 0.03578948 0.057716098 -0.20670988 -0.014832335 -0.05907802 -0.1505167 0.047362 0.08445223 -0.13226448 0.17094617 0.30731422 0.2447124 -0.057384312 -0.17207722 -0.16156897 0.028834896 0.21236877 -0.12313418 0.15513045 -0.025706897
119 -0.020410059 0.02721804 -0.069091104 -0.01942309 -0.11800327 -0.1666729 0.05238159 0.20042513 -0.058715314 0.19571301 0.13979112 0.13863522 0.017412318 -0.15214649 -0.04788842 -0.12069213 0.33883306 -0.219401 0.18148682 -0.113248385
135 0.013737581 0.029636431 -0.08709909 0.11287139 0.027861504 -0.06988951 0.014927152 0.25565663 -0.11600644 0.21887624 0.17925929 0.10916328 -0.030894494 -0.14424871 -0.117669195 -0.10241615 0.22516079 -0.18454115 0.21177188 -0.13212302
69 0.105034836 0.016763998 -0.1523103 0.019794967 -0.04710423 -0.14022382 0.02257191 0.2103909 -0.18098557 0.22566983 0.1615067 0.14254439 -0.0028626106 -0.17020747 -0.08339522 -0.11416099 0.19597417 -0.20920087 0.04135568 -0.07294625
64 0.015746994 0.0020290574 -0.09598985 -0.003369883 -0.044175938 -0.12026036 -0.04165907 0.1352386 -0.13601202 0.19918732 0.20619702 0.23689316 -0.08811637 -0.15334274 -0.17490096 -0.09156859 0.20672464 -0.1576407 0.19558662 -0.07858554
82 0.017844984 -0.012776117 -0.04964878 0.08440078 -0.13415259 -0.059399433 -0.06616744 0.1106846 -0.121203735 0.20820516 0.17607215 0.15661615 -0.039243203 -0.23608832 -0.13287959 -0.15968311 0.27615693 -0.17293583 0.14887016 -0.14717814
59 0.05737308 -0.014403935 -0.17075944 0.061324246 0.016027283 -0.07391488 -0.04082437 0.16223462 -0.13140261 0.17288771 0.17204764 0.16959515 -0.042132627 -0.12619479 -0.14833708 -0.10289095 0.15393807 -0.2612139 0.25279865 -0.08256314
92 0.104346395 0.043067835 -0.13434702 0.03854802 -0.07740469 -0.039999776 0.019582028 0.18600368 -0.15343864 0.05249777 0.21538995 0.16968931 -0.016749965 -0.14289273 -0.1771083 -0.2793644 0.20165281 -0.24266459 0.16995667 -0.100916445
85 -0.0948314 -0.011959675 -0.12869082 0.026848841 0.017349651 -0.09588858 0.010359018 0.17202774 -0.17790967 0.13367435 0.15268752 0.15801035 -0.061031006 -0.18327542 -0.074876845 -0.12440265 0.3464506 -0.15192747 0.11238975 -0.07599342
62 0.076655775 -0.04153723 -0.1193579 0.09429133 -0.004401811 -0.047031622 0.062265806 0.23254034 -0.08049464 0.2723164 0.14559586 0.16051541 -0.06665529 -0.18078358 -0.17610498 -0.11307604 0.26790878 -0.10643233 0.05406003 -0.097810596
95 0.13354763 0.0070305434 -0.075668626 0.034702573 -0.016383026 -0.03128173 -0.02266639 0.12773332 -0.16674314 0.23180962 0.24072178 0.12500243 0.15027274 -0.17651236 -0.12955804 -0.15689139 0.21426098 -0.1964313 0.14009598 -0.044895764
51 -0.053336993 -0.04104332 -0.13043736 0.025510333 -0.11398219 -0.11714298 -0.0056333067 0.18971762 -0.14579205 0.14761505 0.18199545 0.25347728 -0.07099546 -0.12259644 -0.079049945 -0.0448026 0.30212307 -0.14634565 0.15765943 -0.06810754
127 0.009629462 -0.019943988 -0.13105534 0.036321 -0.014981929 -0.059971157 0.024153667 0.09824894 -0.15958147 0.19975284 0.09842373 0.16567943 -0.11970514 -0.31113178 -0.13634886 -0.11293887 0.22815956 -0.18044193 0.13945878 -0.10130546
79 0.09900787 -0.1178429 -0.18077908 0.05578065 -0.06589497 0.023359496 -0.058029372 0.16809495 -0.1307488 0.24597998 0.13607597 0.18965162 0.015527697 -0.21471897 -0.14273493 -0.04142414 0.207487 -0.13244314 0.21396272 -0.022465983
138 0.03150987 -0.014990453 -0.19955438 0.038853515 0.0499491 -0.06554975 -0.09005875 0.13574077 -0.11886577 0.24232498 0.14099845 0.18518862 0.06268432 -0.1557922 -0.18149994 -0.14080808 0.20062616 -0.18781678 0.04873613 -0.16444221
141 -0.048991296 -0.13284373 -0.24374901 0.13100697 0.031942967 -0.03432233 -0.12949301 0.18665446 -0.13812737 0.16679788 0.15422274 0.19447659 -0.042675823 -0.22214207 -0.16607767 -0.09375022 0.24685289 -0.15719293 -0.0071816957 -0.11193818
86 -0.018541606 -0.1467847 -0.15047708 0.08927635 -0.046550117 -0.15910785 0.0520775 0.19616087 -0.10852972 0.1772123 0.25359222 0.1855673 0.016186988 -0.18517101 -0.10808851 -0.1600924 0.14216274 -0.28190678 0.01396158 -0.09023574
100 -0.02073389 0.057248242 -0.1257341 0.048225444 -0.14499101 -0.09615812 -0.028767282 0.16699307 -0.18693668 0.18386295 0.2348322 0.24461074 -0.012078916 -0.058921292 -0.060564753 -0.08293899 0.21398425 -0.14670423 0.2732292 -0.01113574
156 -0.05123749 -0.018395824 -0.16693145 -0.014472356 -0.1807597 -0.10402951 -0.075097024 0.11943594 -0.12968624 0.22998339 0.032295488 0.17103675 -0.07842967 -0.2486792 -0.116213374 -0.17202035 0.19762716 -0.20906983 0.22671832 -0.08781663
111 0.054453764 0.064251006 -0.12443695 0.044727214 0.0009232459 -0.115636714 0.015747868 0.14395799 -0.18051203 0.21951374 0.19001015 0.14748338 -0.014733955 -0.20676176 -0.09653947 -0.15387951 0.24189784 -0.13079125 0.08523845 -0.058988567
81 -0.016404845 0.03221245 -0.114715554 -0.01633837 -0.01754908 -0.08931262 0.06164625 0.19470653 -0.17799473 0.2240773 0.26490703 0.13448036 -0.1488725 -0.18061432 -0.1276658 -0.14456889 0.18293902 -0.15098095 0.12201976 -0.062400866
160 -0.022157745 0.074888654 -0.13822338 0.013185671 -0.0024654039 -0.24389991 0.034175146 0.13378951 -0.24261232 0.28076908 0.24220148 0.15390076 -0.07643761 -0.1981093 -0.0716997 -0.07561798 0.10596916 -0.16092192 0.07536396 -0.08084868
153 0.097982734 0.08723412 -0.16882402 0.039444793 0.027752489 -0.14135353 -0.13796687 0.096791394 -0.16176048 0.24681987 0.297381 0.10686862 -0.0029140478 -0.0986532 -0.027438957 -0.18056463 0.19840302 -0.23050229 0.12164983 -0.0619663
110 0.074524716 0.07234385 -0.12018494 0.011528612 -0.04659461 -0.0036848285 -0.07439724 0.14719604 -0.13994165 0.16183646 0.1318081 0.21563396 0.027970942 -0.21887413 -0.18232176 -0.14591578 0.29257482 -0.15294456 0.110272035 0.062459156
118 0.037464272 -0.051893402 -0.039506447 0.023619166 0.055152457 -0.14701179 0.027266562 0.18590608 -0.088468604 0.1667604 0.22760361 0.30084777 -0.04616895 -0.1870278 -0.082007796 -0.07765804 0.23001632 -0.16712393 0.120896116 -0.12096108
178 -0.026031176 0.00089636823 -0.12568633 0.034495283 -0.075127944 -0.062143564 -0.04720122 0.17625074 -0.12488797 0.15183681 0.22884384 0.21119562 -0.053110573 -0.12887682 -0.15150987 -0.16199702 0.26695922 -0.1718812 0.11205842 -0.063585594
107 0.008549624 -0.044754367 -0.14570011 -0.018582862 -0.107030325 -0.054494053 -0.0055330964 0.23142986 -0.05557011 0.25083357 0.09776001 0.17293218 0.046826173 -0.19308887 -0.0762596 -0.110668935 0.18730016 -0.21367675 0.26285002 -0.092894465
96 -0.07332978 0.029525481 -0.11342208 0.022594146 -0.029179152 -0.01885913 -0.032986566 0.14897458 -0.1024011 0.2655009 0.14836808 0.23545769 -0.04801148 -0.19526319 -0.07396178 -0.22045852 0.19560702 -0.26627836 -0.0033976478 -0.02216283
87 -0.024934866 0.028103132 -0.11742848 0.12345817 -0.0702795 -0.004010604 0.030127492 0.067202084 -0.11067698 0.14788173 0.23586674 0.13742223 0.060024522 -0.27689707 -0.16552977 -0.20228682 0.2839781 -0.14070247 0.15906328 -0.06757382
145 0.08032163 0.016027212 -0.073787026 0.025175467 -0.19466266 -0.22038166 0.035342615 0.20511647 -0.19379404 0.31815016 0.07329184 0.114978194 0.030973146 0.0040356927 -0.13969816 0.049360763 0.23809108 -0.30331555 0.13077535 -0.1053809
48 -0.019552575 -0.0010676021 -0.14818057 -0.026343504 -0.037303045 -0.16982582 -0.017134743 0.24734968 -0.081147365 0.13840333 0.18063827 0.26485264 -0.033889297 -0.10294928 -0.15839668 -0.13565548 0.25812426 -0.10024636 0.18129987 -0.09688607
169 0.006575407 -0.026485175 -0.09654495 0.032622606 -0.033078533 -0.111678116 -0.120290205 0.18390241 -0.029384859 0.2581585 0.18034966 0.19411461 -0.058280498 -0.25002626 -0.0053589684 -0.029834695 0.2995708 -0.18846713 0.12342086 -0.0474188
106 0.090660624 -0.023946939 -0.044028174 -0.018564781 -0.07489879 -0.09363732 -0.061124966 0.26438576 -0.0809848 0.1833012 0.039104525 0.32921863 -0.10115115 -0.17083706 -0.14283185 -0.11664274 0.21047571 -0.22018224 0.18738995 0.039390475
93 0.09620019 0.052264124 -0.07004515 -0.081021406 0.0071590007 -0.0010473038 0.0155326035 0.021352297 -0.07064765 0.31781256 0.18875629 0.18695097 0.03310472 -0.17942624 -0.1668922 -0.02816238 0.34965348 -0.09660247 0.19918865 -0.07778258
90 0.07765665 -0.020613315 -0.0021040093 0.030954797 0.027979223 -0.112631224 0.029490363 0.14834368 -0.08782816 0.31265602 0.22463895 0.17064738 0.047981083 -0.2723267 -0.13034317 -0.21324947 0.13892917 -0.18549277 0.08254251 -0.042781614
45 0.06710659 0.06747368 -0.2135839 0.19589837 0.016556283 -0.04238101 -0.03999371 0.12258598 -0.063553825 0.18437317 0.14650612 0.11907735 -0.02533641 -0.15353695 -0.07790521 -0.18019556 0.22891921 -0.31831315 0.12194958 -0.10261479
101 -0.09751982 -0.032333437 -0.07702566 0.045661177 0.060562212 -0.05597747 -0.126633 0.09017925 -0.15160587 0.15571325 0.27213866 0.19355756 -0.011191327 -0.21095806 -0.07556105 -0.18531673 0.2431041 -0.2509315 0.11556338 0.002320405
63 -0.07084564 0.019976376 -0.15712376 0.13171841 -0.04460683 -0.051073246 0.02777081 0.18332273 0.0016939352 0.15949659 0.17815123 0.23865253 -0.017212294 -0.15307634 -0.12413463 -0.21134514 0.27116853 -0.21348736 0.12209132 0.008044229
117 -0.028451987 0.031448636 -0.10999564 0.048156496 -0.039986555 -0.25761342 0.00931937 0.105089806 -0.15194535 0.2729784 0.1458677 0.20797066 -0.08905456 -0.0699008 -0.20861737 -0.03086234 0.24151444 -0.104229875 0.21069773 -0.05302446
123 -0.052532647 -0.0896371 -0.09159221 0.027195634 -0.032647677 -0.1295358 0.04887875 0.08330564 -0.05355537 0.25805727 0.16118795 0.2137928 0.05790339 -0.03229586 -0.10397434 -0.13526992 0.29679173 -0.288555 0.11342586 -0.117802866
103 0.12347319 0.04254784 -0.05305531 0.034680996 -0.061095826 -0.12025213 -0.07676711 0.094964005 -0.14431012 0.2447083 0.16599429 0.3392367 -0.0005476214 -0.23399343 -0.17107423 -0.06878953 0.1658605 -0.13611421 0.09412388 0.014232174
131 0.07625282 -0.11179087 -0.19900177 -0.041918345 -0.04978223 -0.1224072 0.020374188 0.13322228 -0.25526503 0.22294025 0.21663617 0.019267559 -0.08815091 -0.13659161 -0.08620946 -0.08985906 0.24696647 -0.15508413 0.2131339 -0.06830161
8 -0.030404853 0.014966634 -0.113917775 0.08790382 0.015551139 -0.07831182 -0.03492827 0.20139906 -0.17986529 0.28052643 0.13694014 0.09840586 0.080546774 -0.22258393 -0.15402374 -0.102206685 0.16152853 -0.14822361 0.17390291 -0.108189836
139 0.13243657 0.011059179 -0.2614635 0.064505786 -0.07531574 -0.08218388 0.015364744 0.1978019 -0.13024963 0.35037336 0.12983264 0.19357854 -0.20215249 -0.060284283 -0.09216055 -0.12416678 0.12504476 -0.1224386 0.1695384 -0.01760838
83 0.13023572 -0.04759024 0.030372676 -0.018302273 0.07543694 -0.086755075 -0.06406173 0.15360942 -0.1057854 0.24441001 0.10317901 0.28449675 0.052585743 -0.24795027 -0.03745862 -0.1587688 0.2231493 -0.14665778 0.24089058 -0.04503127
70 0.041307848 -0.0313223 -0.18900271 0.12667114 -0.0534132 -0.07104494 -0.088786095 0.0702455 -0.17901433 0.16027969 0.12538405 0.12801206 -0.008684469 -0.17173335 -0.06749681 -0.21981797 0.2820452 -0.22789106 0.127539 -0.07614198
42 0.027491014 0.11970979 -0.14890397 0.14250398 0.033585776 -0.107902534 -0.035929937 0.22389872 -0.17868501 0.19716923 0.083676375 0.09264013 0.020008009 -0.14106691 -0.17763741 -0.09437444 0.29107854 -0.11652366 0.1431512 -0.14829463
99 0.09344571 0.08633652 -0.07134065 0.07932729 0.05690142 -0.16710095 0.07792749 0.092015825 -0.14615098 0.20707679 0.20805052 0.13954896 0.048986606 -0.22150321 -0.18620344 -0.031756494 0.25197998 -0.11351491 0.18224275 -0.15883279
142 0.15741679 -0.0041972105 -0.07048342 0.0682202 0.10422548 -0.07544239 0.06683316 0.06418366 -0.11329975 0.1898863 0.2276563 0.23455968 -0.028627703 -0.217982 -0.09659511 -0.105849 0.2635298 -0.13961694 0.1968057 0.012358957
154 0.16458772 0.0112560345 -0.07721674 -0.071033694 0.09191326 -0.047868434 0.04392766 0.1135153 -0.08425564 0.07645413 0.14441586 0.3019982 0.028955182 -0.24823204 -0.15069894 -0.046509676 0.25536856 -0.26300484 0.17010579 -0.09664931
164 0.16565493 -0.019736268 -0.08259348 -0.07169923 0.042799808 -0.023934044 -0.06270925 0.21937889 -0.19407916 0.27447474 0.13911171 0.22482535 -0.11875509 -0.10998643 -0.0397709 -0.057906136 0.2096922 -0.14278546 0.19889359 -0.15871768
176 0.07880902 0.010462553 -0.1512472 -0.11289702 0.05603858 -0.22400594 0.10490376 0.18070881 -0.052855693 0.24545851 0.12753806 0.21716294 0.067741364 -0.18687123 -0.03818147 -0.020441663 0.31846103 -0.15788978 0.06913968 0.01778139
150 0.13543507 -0.06594762 -0.23436238 -0.03620058 -0.045584273 -0.18220782 0.03494208 0.086030565 -0.18240513 0.18929549 0.21787132 0.13152403 -0.02876916 -0.19989616 -0.17660604 -0.04225493 0.17845757 -0.14596374 0.1690592 -0.14360397
72 0.07867134 -0.08146217 -0.07801524 -0.08548915 -0.024619129 -0.20421979 0.076543815 0.12447577 -0.16877688 0.15610866 0.20520692 0.12685008 0.10332388 -0.2555494 -0.110879704 -0.027386742 0.33352038 -0.12847131 0.1675332 0.0013125591
114 0.072955176 0.10525415 -0.0618342 0.037255816 0.005034809 0.061945256 -0.1687693 0.05904784 -0.118326485 0.23835787 0.20004536 0.21708347 0.09117657 -0.2513229 0.010795591 -0.13064507 0.2745558 -0.16617735 0.22837223 -0.083392195
132 0.12522806 0.0038179818 -0.17270714 0.07505203 -0.06869443 -0.15549944 0.090618975 0.038989194 -0.16022515 0.21696623 0.10878093 0.18178052 -0.043999806 -0.17750631 -0.053704765 -0.102237925 0.19322126 -0.288551 0.137013 -0.08219968
5 -0.008598326 0.052293763 -0.058906253 0.07394318 -0.043723926 -0.09555239 -0.05058217 0.23343037 -0.1822584 0.2365555 0.19530785 0.25847852 0.08737973 -0.22269699 -0.13775726 -0.08795088 0.14381215 -0.12628855 0.09381547 0.038939744
173 0.08729394 0.04267145 -0.17280294 -0.12999219 -0.07388855 -0.05876044 0.09059921 0.12598236 -0.09687963 0.25119773 0.12609434 0.15217751 0.036320396 -0.20180263 -0.15379675 -0.02389363 0.22511752 -0.24998376 0.14905024 -0.08102656
17 0.027662849 -0.0040055085 -0.1310671 0.069940865 0.023660943 -0.050380766 -0.023615155 0.18811199 -0.2468779 0.18130946 0.07152886 0.183148 0.04938462 -0.3189279 -0.11257847 -0.13918205 0.18261722 -0.08947464 0.12483693 -0.12600556
94 -0.06591303 0.14648373 -0.14750242 -0.02202379 -0.019813519 -0.0595669 -0.033558466 0.080135405 -0.14133856 0.18397725 0.20212725 0.3019899 0.13953929 -0.14496222 -0.18655287 -0.19671518 0.21310213 -0.16094062 0.04627331 -0.024687517
144 0.09437218 -0.17779402 -0.10644699 0.06653313 0.064345345 -0.043715432 -0.022611791 0.17743492 -0.06088861 0.21822454 0.18236032 0.11139475 -0.031156337 -0.06403947 -0.16031997 -0.07021405 0.34911725 -0.25959858 0.11186733 -0.12869512
137 0.11436423 -0.12034257 -0.10481961 -0.008753373 -0.067078255 0.058828 0.05199651 0.21061128 -0.08717489 0.21641107 0.17587721 0.11575347 0.06137847 -0.157862 -0.13541499 0.07178468 0.3362006 -0.2612303 0.16689472 -0.036696676
61 -0.08480784 -0.04861378 -0.14662573 0.056907043 -0.00089900085 -0.049208954 0.019090217 0.23177087 -0.090185694 0.28306153 0.16798414 0.077467926 -0.05275505 -0.04964286 -0.09535081 -0.16782647 0.17889293 -0.30738443 0.22213858 -0.05349764
58 -0.06262291 0.023655681 -0.056901418 0.12836121 -0.03538816 -0.08995035 -0.023356987 0.13478856 -0.3178208 0.13721922 0.10169038 0.2640049 0.07432696 -0.18897915 0.09460651 -0.23538727 0.1868879 -0.22196347 0.15997681 -0.020944199
175 0.11005497 -0.049038716 -0.053693965 -0.0046510957 -0.031778246 -0.16735739 0.038293697 0.0023138453 -0.18130085 0.31889895 0.122543395 0.2239063 0.031364724 -0.1531806 -0.1735066 -0.043993868 0.28431603 -0.114853166 0.13799953 0.030896528
120 0.10753192 -0.09491976 -0.11783708 0.03744513 -0.11171676 -0.1767408 -0.08127877 0.06301993 -0.14209408 0.28505996 0.03477015 0.13013896 -0.019448845 -0.19474867 -0.13489862 -0.13418075 0.27099732 -0.27229878 0.042768802 -0.06575471
84 0.14292954 0.06562565 -0.15004048 -0.0052128136 0.059147865 -0.1275444 0.17505193 0.06858451 -0.22831708 0.21204661 0.13719568 0.07564348 0.1086639 -0.19608997 -0.12622991 -0.047240026 0.26626807 -0.12924688 0.22566998 -0.06061544
148 0.10231204 -0.14321484 -0.14499523 0.0111970985 0.012013435 -0.015616923 -0.073786415 0.2281401 -0.049793582 0.3276456 0.12090584 0.19197969 0.029562954 -0.108102806 0.04562265 -0.08398668 0.33753255 -0.11482917 0.1401632 -0.10776704
38 0.06709577 -0.101539046 -0.2849987 0.15612285 -0.017700735 -0.20501646 -0.01041088 0.26029697 -0.19763115 0.15445629 0.15801176 0.08548804 0.01291015 -0.07738303 -0.10358131 -0.026080076 0.2761536 -0.14107995 0.11992075 0.002444486
13 0.030209605 -0.018747069 -0.19723062 0.020146035 -0.046998244 0.06658521 -0.10768724 0.08232143 -0.1578148 0.17542832 0.037974264 0.28528568 0.12197648 -0.085552044 -0.2460982 0.01268244 0.27112368 -0.22655942 0.21178466 -0.06890583
168 0.21284166 0.086633585 -0.16577928 0.017432095 0.056891125 -0.15267394 0.024768883 0.14649796 -0.11902416 0.26002374 0.15302311 0.10669677 0.11799852 -0.07462708 -0.13027537 -0.064430565 0.33488727 -0.11404388 0.15511326 0.022426052
126 0.068306014 0.020522768 -0.08544574 -0.0047804606 -0.03338515 -0.08485629 0.07324771 0.22106482 -0.26550093 0.19501616 0.15999746 0.3709168 -0.010987204 -0.06583421 -0.068365864 0.0073369406 0.24181522 -0.13543835 -0.052411396 -0.08260698
181 0.06652354 -0.057661917 -0.008284628 0.005112224 0.15181187 -0.030448046 0.018640976 0.008358798 -0.13149254 0.23776832 0.09268883 0.3536994 0.038161095 -0.23829019 -0.08287565 -0.118219495 0.34044412 -0.02058433 0.1837651 -0.1246417
147 0.19505043 -0.04266448 -0.12511083 -0.10580857 0.07231889 -0.09151249 0.1671373 0.10745831 -0.15789665 0.24863821 0.17308322 0.14102158 -0.013138898 -0.069008775 -0.12542503 0.033064622 0.33198416 -0.17854671 0.17964135 -0.031164736
16 -0.12767856 -0.012064573 -0.13275817 0.12412219 0.14326528 0.09005566 -0.14836572 0.2836634 -0.22745702 0.12981865 0.052921858 0.22250925 -0.03245285 -0.19154385 -0.058256518 -0.19296147 0.22699845 -0.2366579 0.079200245 -0.03202004
10 -0.08725555 -0.058252398 -0.26265535 0.09435661 -0.084515326 0.050505824 0.0075220484 0.019172076 -0.21995094 0.2483148 0.14796288 0.28152075 -0.014175262 -0.18476015 -0.14609478 -0.24371256 0.13363475 -0.10323543 0.12711287 0.06630357
50 0.025071044 0.045082204 -0.18795186 0.09965699 0.049976278 -0.009844343 0.030407691 0.11954249 -0.19578502 0.2162213 0.17270383 0.16176087 0.0611255 -0.24832684 -0.09589833 -0.15549092 0.15106478 -0.15978321 0.13842598 -0.04305935
136 0.105693564 -0.10096666 -0.30301508 -0.044413406 -0.079590805 -0.057406366 0.023864223 0.1670238 -0.15057209 0.17589206 0.06294798 0.33634794 -0.13737014 -0.05642732 0.017990984 -0.15116112 0.2009527 -0.220746 0.07821839 -0.119425915
102 0.002603981 0.10931821 -0.068989865 0.044855803 0.008391772 -0.027775867 0.14429367 0.13436298 -0.236707 0.25790304 -0.0016629776 0.33419117 0.064579725 -0.18609963 -0.08918505 -0.1681128 0.18724678 -0.108144656 0.099527225 -0.032052226
53 0.2107816 0.1515543 -0.23579016 0.035410997 -0.0124488175 0.009312925 0.085148394 0.06903819 -0.18281168 0.14485693 0.16554014 0.18072782 0.10093511 -0.18411541 -0.054839935 -0.1932037 0.2972605 -0.13301583 0.10510774 0.030807396
163 0.11606274 -0.027747264 -0.22835426 -0.034767378 0.073732935 -0.10057215 0.093041874 0.07910503 -0.16227424 0.15462644 0.15335597 0.2849688 -0.15671232 -0.1415833 -0.03751046 0.011374519 0.2975772 -0.1619422 0.09250966 -0.10555624
11 -0.059461217 0.010999502 -0.32805014 0.047447357 -0.021578902 -0.11285366 -0.05873418 0.2591733 -0.16884884 0.17526285 0.06696672 0.20517159 0.02766411 0.0639004 -0.03475432 -0.17030966 0.26448643 -0.23881933 0.07025945 0.003825024
166 0.104894914 -0.13752693 -0.16015437 -0.0047222665 0.060832232 -0.08107481 0.05054307 0.06823135 -0.33147746 0.17824656 0.07260803 0.23999675 -0.12533255 0.02498667 -0.14651139 -0.042429417 0.3056681 -0.18192425 0.12894864 -0.05864063
133 0.06861553 -0.029581765 -0.0909912 -0.03107341 0.03760372 -0.0071180165 0.07372141 0.13186997 -0.14198169 0.22516789 0.2559043 0.14505622 -0.08629107 -0.049640857 -0.16150658 0.025969926 0.38965967 -0.20825242 0.0868275 0.050386373
52 -0.0286661 0.20251474 -0.101417415 0.0765905 -0.02125067 -0.064094536 0.01911553 -0.019885845 -0.3000888 0.23190928 0.15589683 0.30916324 0.07964423 -0.29401043 -0.113090955 -0.027128177 0.21626864 -0.1054768 -0.013065934 0.043703113
12 -0.1366931 -0.105758704 -0.26215777 0.031272188 -0.019272786 -0.016219726 0.02811061 0.30268762 -0.25966913 0.16322015 0.07717618 0.1959446 0.10118048 -0.14219405 -0.022052962 -0.13988231 0.21509078 -0.13886799 0.10288708 0.06338974
71 0.07920515 0.08705381 -0.12119175 0.0127372155 0.16028304 -0.1830797 0.058686044 0.07633544 -0.1344412 0.20114632 0.21557964 0.19617517 0.071617335 -0.31218496 -0.19419563 -0.1518647 0.21834308 -0.1254692 -0.004183624 0.08033664
157 0.20097458 -0.036742393 -0.20437405 -0.06898451 0.0139157735 0.06794254 0.06062509 0.15612677 -0.18213469 0.21547142 0.058361713 0.19421974 -0.020590074 -0.18056495 -0.13797346 0.007020826 0.25012717 -0.20268013 0.13898052 -0.06341561
159 0.15965009 -0.04923199 -0.15359938 -0.010109842 -0.05016717 -0.23851566 0.07809444 0.19791585 -0.18421276 0.32445815 0.012725675 0.10065516 -0.15629113 -0.08965227 0.004427984 0.0073496564 0.33360496 -0.2059795 0.019463267 -0.12769923
18 -0.006797758 0.049200967 -0.2299077 -0.031242216 0.04847164 -0.04442631 0.048106197 0.06801738 -0.1398733 0.21503942 0.13774118 0.3370936 0.19225144 -0.18512645 -0.15093623 -0.22184177 0.109354325 -0.17858875 0.08097009 0.0871059
180 0.03497643 0.14824578 -0.25579286 -0.035171874 0.050270166 -0.067918435 0.03765649 -0.072487846 -0.10756551 0.36966377 0.3118845 0.16475326 0.03538349 -0.14330351 -0.13449138 0.060620446 0.2662518 -0.15841304 0.033364072 0.07501286
33 -0.12653647 0.06979025 -0.018879246 0.21041618 0.06334784 -0.07781231 -0.07477404 0.06221272 -0.3226456 0.253302 0.024253068 0.25692216 0.06349625 -0.08339088 -0.05608844 -0.1541032 0.33089402 -0.14043714 0.085695386 0.06534437
177 0.17004071 -0.04990547 -0.17496887 0.040640697 -0.018103583 -0.13405035 0.07173034 0.076236434 -0.19513021 0.18087028 0.13131645 0.21713203 -0.022006646 -0.07807107 -0.14013615 0.1073216 0.30598232 -0.25228488 0.06071987 -0.1362512
56 -0.025005637 0.09637043 -0.17808549 0.058819965 -0.02609283 0.007374601 -0.11173987 0.11074968 -0.12216745 0.21783286 0.053662784 0.22406632 0.04677272 -0.23981729 -0.1865519 -0.071707435 0.3137367 -0.12503965 0.08580653 -0.05265671
60 0.1607791 0.123876125 -0.120586015 0.00066021417 -0.026639862 -0.0026498362 0.046025626 0.057357393 -0.079304196 0.2606622 0.17683968 0.20909443 0.1742759 -0.13662143 -0.17854162 -0.008302522 0.29555875 -0.24790825 0.07694075 0.02812531
143 -0.0105715385 -0.079750694 -0.1587819 0.1322648 0.01255862 -0.06954772 0.12077362 0.2024992 -0.19739859 0.2939751 0.093883224 0.17361194 0.021892171 -0.069273196 -0.04908305 -0.019710662 0.280888 -0.15633196 0.06197146 -0.054635655
171 0.19867383 -0.060803123 -0.074072875 -0.08855004 -0.184376 -0.004473033 0.07255998 0.16516356 -0.26315257 0.3783758 0.10908027 0.2071634 -0.07002115 0.062298328 -0.0056395656 0.013978828 0.2706549 -0.2346533 0.061591756 -0.14285327
30 -0.07004678 -0.03016395 -0.17613603 0.070304364 -0.047278386 -0.035668388 -0.016825495 0.18537669 -0.15981464 0.28610492 -0.07292307 0.33882403 0.18481837 -0.104156695 -0.11909745 -0.14580646 0.1528509 -0.22864783 0.08054579 -0.019593218
3 -0.19595 0.16783403 -0.19003567 0.063282624 0.111579806 0.015510458 -0.087706804 0.12091202 -0.19604337 0.22310583 0.11635707 0.20051233 0.06296683 -0.14770894 -0.24669775 -0.10818149 0.22123203 -0.16694759 0.10492209 0.03295547
1 0.024834162 -0.014914827 -0.093001544 0.11358023 0.00035469673 0.044941537 -0.046163194 0.18865936 -0.1602572 0.2843554 0.121524416 0.27730852 0.106437534 -0.1253538 -0.05847546 -0.2397019 0.10795426 -0.2022592 0.13376482 -0.10437221
152 0.14733502 -0.14721555 -0.09556087 -0.13424473 0.09120403 -0.045050167 0.018577868 0.17713194 -0.22369872 0.37377933 0.11670398 0.22611962 0.030416261 -0.049211234 0.06919492 -0.10490061 0.2410573 -0.21408318 0.027167967 0.069673456
47 -0.12564957 -0.060588036 -0.061218232 0.020843897 0.051461905 0.119951844 0.010340031 0.28094825 -0.1293891 0.25100446 0.058375593 0.30219087 0.0571678 -0.050441463 -0.04163812 -0.32724345 0.23943752 -0.24352394 0.026465673 0.011294918
46 0.054154392 0.1637567 -0.06273174 0.09564901 0.01299888 -0.056041077 0.09045881 0.08336363 -0.23548749 0.37383997 0.08424415 0.3407135 0.08626049 -0.22317377 -0.05771309 -0.1299843 0.1848598 -0.052280195 -0.02894435 0.13986593
28 -0.10788134 0.12869267 -0.09569373 0.108779944 0.13898183 0.028482653 0.071257204 0.055596348 -0.2368646 0.2520795 0.26663512 0.2408372 -0.09947266 -0.13927227 -0.19488177 -0.12928386 0.2284798 -0.05057329 0.08393446 -0.023321636
151 0.21761222 -0.03342777 -0.11081873 -0.00017670018 0.020066325 0.0224709 0.08388462 0.1972464 -0.16823164 0.28507137 0.077053495 0.12300439 -0.23483182 -0.069883 -0.11645596 0.0060832356 0.28354815 -0.29097524 0.10557757 -0.030880913
146 0.012100112 -0.12507056 -0.20322865 -0.109257266 -0.007700278 0.086427644 0.11366355 0.035525918 -0.11814849 0.37126338 0.073928185 0.18115322 -0.065435745 -0.089600876 -0.07098412 0.006464566 0.39094332 -0.106273204 0.19608329 -0.034662858
167 0.10711671 -0.20173559 -0.25136384 -0.048223227 0.017513793 -0.10001143 0.08432484 0.08283154 -0.18465364 0.1801409 0.08406678 0.1625512 -0.08026265 -0.11628784 0.069386564 0.075697444 0.41831288 -0.2975097 -0.015858507 -0.121489316
19 -0.16835774 0.25217825 -0.2898318 -0.03265688 0.06922231 -0.014782964 0.04486546 0.3240121 -0.14641264 0.13990323 0.10788784 0.13308653 0.08687129 -0.17941183 -0.13336152 -0.07717913 0.12801921 -0.25568292 0.1358304 -0.17250231
14 0.09924233 0.068626635 -0.22297758 -0.00059173035 0.110684976 -0.15100488 0.11737607 0.1645993 -0.1958997 0.24797195 0.13440135 0.19540766 0.043629624 -0.0687185 -0.027737647 0.017239174 0.28689238 -0.13283041 0.08385858 0.0118362885
40 -0.06886713 0.003931243 -0.25932583 0.062780626 0.1641606 -0.08671513 -0.094091706 0.12299015 -0.30449763 0.21006782 0.10242251 0.15903379 -0.027741995 -0.15973559 -0.100734845 -0.17147534 0.10466777 -0.25945488 0.061976053 0.05617937
170 0.07564922 0.040910225 -0.22651505 -0.0765004 -0.019601366 -0.041542012 0.04150956 0.050315537 -0.20937937 0.2577683 0.12167512 0.15051955 0.056818545 0.00066041795 -0.07939283 0.07609661 0.30492997 -0.28130633 0.15703732 -0.12249032
158 0.17700084 -0.17458682 -0.28764248 -0.03458809 0.030147512 -0.059555948 0.009411213 0.019682935 -0.12920895 0.27900493 0.0968829 0.10877812 -0.16970044 -0.0841716 -0.045003213 0.025432602 0.33939332 -0.31045136 0.07846253 -0.04881535
22 0.040995836 0.028510217 -0.06011351 0.12464499 0.0667164 -0.13552016 -0.053167287 0.0691974 -0.2088359 0.28671116 0.16007128 0.33028597 0.022455964 -0.24645442 -0.15167254 -0.1330349 0.14233272 -0.12337935 -0.06773594 -0.029550971
41 -0.050897658 0.0649094 -0.24773422 0.13790645 0.20184422 0.04308478 0.0038118148 0.29066762 -0.20673995 0.18887383 0.09344542 0.13472527 0.13316786 -0.2005747 -0.07619367 -0.0072510466 0.25403222 -0.11105792 0.0862695 -0.078366704
128 0.20310877 -0.1309364 -0.2654356 0.04673687 -0.00501467 -0.09541874 0.23133084 0.040388808 -0.18452016 0.20793138 0.034329377 0.24434471 -0.011600161 0.040453095 -0.09186478 0.045223832 0.24938887 -0.34218568 0.14076273 -0.07681828
31 -0.13389617 0.13662997 -0.20837173 0.09842487 0.025172839 -0.08646177 -0.076121405 0.2805351 -0.27353084 0.29386455 0.11413415 0.050185 0.16665289 -0.07831409 -0.011687785 -0.2363144 0.17398277 -0.17841311 0.08142397 0.041463308
75 0.06326983 0.014698024 -0.09139487 -0.056586068 0.06467052 0.033185612 0.0728806 0.08357232 -0.20016885 0.2904497 0.15400407 0.27073386 0.16148469 -0.21759109 0.0589281 -0.13422963 0.23855145 -0.16344081 0.073944174 0.068456426
32 0.021398278 0.025585953 -0.22423175 0.14098419 -0.033470906 0.019745052 -0.030162714 0.057611614 -0.32185608 0.14231676 0.08714492 0.13533793 -0.10388482 -0.20480485 -0.07803941 -0.035393037 0.25270417 -0.2579989 0.1489884 0.08762117
89 0.20023918 0.0694218 -0.22146152 -0.05776142 0.0479863 -0.056278855 0.07597208 0.21168458 -0.15459684 0.21091454 0.15655152 0.15670131 0.013364859 -0.022684775 -0.23358911 -0.14251325 0.31960225 -0.08305997 0.0718639 0.10712395
54 0.11360173 0.099566564 -0.090068676 -0.02594874 0.08647532 -0.053756468 -0.044213258 0.20875081 -0.1531268 0.21453434 0.016020393 0.3320306 0.14508332 -0.17664708 0.03186552 -0.014182117 0.2845275 -0.17397 0.18810584 0.15438417
26 0.011907568 0.12124014 -0.22351375 0.04623016 0.1436875 0.0716071 -0.0455971 0.2968229 -0.2901806 0.12082169 0.11245223 0.08872383 0.03841253 -0.21765731 -0.13169302 -0.05070955 0.15215911 -0.12170127 0.32458308 -0.03603372
49 -0.00026005835 0.08046435 -0.1883569 0.020877924 0.058031168 -0.037778378 0.124588765 0.19968508 -0.25122532 0.09379506 0.052407537 0.17938733 0.12001791 -0.08558862 -0.09807629 -0.08727558 0.1728486 -0.36437884 0.20240949 0.005367066
6 -0.10408988 0.105859905 -0.017964507 0.027292905 0.024702344 0.08600469 -0.007981285 0.23613422 -0.23236655 0.26153103 0.084360376 0.3015418 0.111299105 -0.16642481 -0.08925496 -0.3628455 0.13261557 -0.14012463 0.085041665 0.06433482
24 -0.04128367 0.174152 -0.113375254 -0.02538606 0.046754252 0.056210883 0.06544204 0.18003954 -0.0980056 0.23418404 0.019509584 0.15484452 -0.07915964 -0.2800231 -0.062107883 0.011499918 0.27303585 -0.29649162 0.20386979 0.012919552
36 -0.24060413 -0.0075136814 -0.3158639 0.03570161 0.16802973 -0.098930776 -0.057492957 0.1307204 -0.22946411 0.18232852 0.13496158 0.15833005 0.18379162 -0.10307582 -0.10119652 -0.12068079 0.12502286 -0.2427545 0.20451088 -0.024305996
155 0.024580654 0.010680354 -0.22759098 -0.0014110679 0.12346312 -0.03923834 0.050865054 -0.03825976 -0.120612465 0.35374066 0.047939904 0.2732755 0.027349403 -0.053829037 -0.116434544 0.04565666 0.3314554 -0.10772089 0.15083088 -0.15748085
7 -0.27178589 0.034178536 -0.1036941 -0.051584385 0.12724844 -0.033826698 -0.0008630082 0.20488502 -0.18852447 0.29164064 0.12524918 0.28232944 -0.03725715 -0.21585251 0.02940296 -0.22174175 0.11509578 -0.19461286 0.10760112 0.06867556
25 -0.12226451 -0.049794532 -0.27362546 0.043976232 0.05282209 -0.09174955 -0.0151797375 0.19169681 -0.24668895 0.20813128 -0.00489005 0.11019114 0.19782375 -0.17167236 -0.06539952 -0.1823482 0.219315 -0.14043273 0.19175144 -0.001386514
15 0.1211535 -0.027238863 -0.1881318 -0.017854413 0.17964068 -0.010311854 0.07158937 0.14220402 -0.22339177 0.29011568 0.077877186 0.18990155 0.045075458 -0.1107674 -0.057419 -0.1244307 0.22960326 -0.23107393 -0.03321648 0.014822383
174 0.16298869 -0.22217704 -0.20312648 -0.0068054856 0.17650676 0.03635674 0.05132723 0.04815908 -0.06775569 0.29989874 0.16309625 0.23910685 0.06293432 -0.05571985 0.01681601 0.06321664 0.34000388 -0.27818218 0.09448047 -0.03719684
73 0.187821 -0.1015372 -0.053883776 -0.16387995 -0.030354058 0.011147843 0.016955484 0.02362033 -0.2409448 0.26066548 0.20717657 0.15516761 -0.00946041 -0.10263599 -0.13388988 -0.030476509 0.3182824 -0.23605686 0.16719434 0.1396563
21 -0.06646991 0.13684613 -0.113621384 0.1256998 0.1640762 -0.16395758 -0.004661174 0.3133537 -0.19556218 0.17836818 0.094339065 0.13877566 0.0332815 0.038323447 -0.103591256 -0.19589859 0.14416151 -0.32300726 0.22627199 0.05480081
134 0.0026215264 -0.02574622 -0.24312565 0.07920723 -0.03823396 -0.02332692 0.20439568 0.09771066 -0.22502197 0.28071037 0.100542724 0.19360976 -0.022436839 -0.104358695 -0.022947608 -0.04042735 0.17129591 -0.27509877 0.07549637 0.026208283
122 0.1676689 -0.23799224 -0.12211457 -0.09290708 0.08612344 -0.04938491 0.17095609 0.1575231 -0.18370984 0.30344436 0.113968424 0.11137323 -0.0133340685 -0.044634707 -0.10869824 0.07826369 0.3140408 -0.21247928 0.19124192 -0.058354788
43 0.04856703 -0.09917009 -0.22348383 -0.028738748 0.0107673835 -0.08786205 0.061102595 0.2715275 -0.12239883 0.14312966 -0.045107864 0.26959947 0.009165258 -0.18819472 0.09215501 -0.19930357 0.18087985 -0.36144114 0.0875534 0.030921958
55 -0.016805578 0.024468077 -0.24506871 0.095561735 0.03359537 -0.0019208582 0.024521789 0.13285933 -0.14652745 0.14410165 -0.048309285 0.2982986 0.013621004 -0.038523007 0.005046648 -0.18320483 0.25125328 -0.252724 0.26733404 -0.11399808
29 -0.041132275 0.114827536 -0.13107297 0.12909123 0.08138134 -0.0059493934 0.08687251 0.20876813 -0.2533881 0.2846147 0.031134978 0.16800232 -0.10322218 -0.20026419 -0.11025101 -0.102954045 0.09187561 -0.3193182 0.01206293 0.030795628
98 0.15408683 -0.041573893 -0.10666888 -0.059197582 0.23044056 0.0023221553 0.0768145 0.09395044 -0.20981869 0.34888756 0.08875457 0.18703946 -0.118797526 -0.14258073 -0.15691057 -0.08596446 0.21122666 -0.15639538 0.09437488 -0.024335377
37 -0.084045544 0.1289249 -0.17901336 0.06441295 0.15970442 -0.034749992 -0.05070634 0.3005846 -0.18402004 0.07364547 0.09363618 0.20615883 0.2878733 -0.18016 0.08255702 -0.21943273 0.2202266 -0.29793012 0.06686837 -0.06353628
44 -0.05567526 -0.036144737 -0.2037126 -0.0043593645 0.00956025 -0.039681546 0.15713686 0.12890376 -0.25878206 0.13649327 0.10920352 0.24407937 0.141209 -0.072579 -0.10247123 0.009940862 0.21271296 -0.25221562 0.14824165 -0.152552
2 -0.102004595 0.12483016 -0.11116156 0.079237506 0.09371902 -0.044045504 -0.024071883 0.3049514 -0.25024185 0.15538456 -0.047061093 0.2109928 -0.027955897 -0.2892127 0.0641574 -0.27654412 0.17022395 -0.22521436 0.083097644 -0.0029787566
4 0.1058162 0.08400817 -0.14740233 0.17265311 0.0765736 -0.06869511 -0.010217087 -0.061229467 -0.28907096 0.24927369 0.11756091 0.18132232 0.02847256 -0.17998542 -0.10178104 -0.13601144 0.31877607 -0.09174627 0.059040934 0.06602203
66 0.09462758 0.07205921 -0.19771229 -0.00929581 0.037990943 0.013489113 -0.029281432 0.14697596 -0.2152104 0.16509897 0.09950108 0.053759694 -0.039904144 -0.16043966 -0.13682155 -0.0225226 0.45301092 -0.12699012 0.12189287 0.05433597
39 -0.07971196 0.08748684 -0.23795074 0.26421463 0.045579124 0.022234548 0.2855491 -0.00677121 -0.32260028 0.2259738 0.04480153 0.20746398 -0.012691269 -0.18370348 -0.049321797 -0.040498547 0.29378796 -0.05463577 0.124874026 0.013034747
57 -0.05690164 0.08207749 -0.25902542 0.07215049 -0.03453721 0.09085188 0.12783262 0.084948346 -0.2406051 0.18780059 0.2069692 0.30075306 0.19135438 -0.15899558 -0.040260933 0.0040833433 0.22822583 -0.08771519 0.11442394 -0.0066913385
27 -0.14952134 -0.0315787 0.0018219205 0.05421117 0.025842126 0.07933628 0.10156395 0.16923854 -0.33161628 0.30761805 0.07321713 0.2862832 -0.032795615 -0.19920054 -0.06828764 -0.10836102 0.07918018 -0.2771383 0.04815545 0.036836922
20 0.09461557 0.035641264 -0.2859886 0.020457974 0.05989244 -0.17980666 -0.07237789 0.26554102 -0.23307985 0.19241558 -0.03951907 0.034600697 -0.02041062 -0.14347756 -0.075183354 -0.07111617 0.25147814 -0.2016936 0.16154192 -0.07319436
140 0.1937646 -0.12379267 -0.23849168 -0.07882969 0.12045484 0.027145855 0.1447874 0.11839349 -0.2759587 0.2456515 0.17463993 0.1416658 0.006640295 -0.08437659 -0.094195336 0.05519488 0.29562742 -0.17546901 -0.02718791 -0.15496202
76 0.12197442 0.03165785 -0.17473455 -0.05030564 0.041653663 -0.02902017 0.03537377 0.10998863 -0.33035007 0.2049245 0.14860514 0.1938649 0.13455166 -0.029382646 -0.08590194 0.048962276 0.26477087 -0.23140806 0.08430184 -0.008016029
88 0.17714866 -0.14249744 -0.20677046 -0.09263535 0.13491464 -0.00030117296 0.11981997 0.18235782 -0.2087782 0.30349433 0.016154634 0.038626492 0.13847959 -0.15447596 -0.1648878 -0.0650844 0.28431627 -0.18250474 0.12900338 0.11741885
23 -0.018573983 -0.022848297 -0.070536695 0.028554844 0.20517719 -0.15773773 0.04549979 0.133427 -0.25358394 0.15862265 0.16886765 0.13157697 0.13101876 -0.043386493 -0.06156096 -0.17068137 0.35308203 -0.17889787 0.12144725 -0.0054798503
34 0.019330528 -0.13817388 -0.10933586 -0.030547356 0.055429965 -0.083487794 0.052202966 0.23413344 -0.1948917 0.25451654 -0.11191551 0.10637745 -0.05780724 -0.14812109 -0.01714642 -0.1774402 0.34147367 -0.24636622 0.1265199 0.011036523
35 -0.007899956 0.03923399 -0.13846326 -0.062227145 -0.07078474 -0.02886701 0.23266144 0.07559434 -0.27170935 0.29632005 0.07310791 0.07975786 -0.12723124 -0.10304612 0.0444793 -0.12814294 0.30867144 -0.27640077 0.12595083 0.100313276
0 -0.051752362 0.071549304 -0.11893529 0.04731288 0.016592149 -0.09841463 -0.0049239825 -0.07064409 -0.30722845 0.22099881 0.1479784 0.13918854 0.060768344 -0.20640408 -0.07213402 -0.13701023 0.27045473 -0.26083437 0.017298847 -0.034163725
