182 20
97 -0.18338524 -0.32482424 0.37936553 -0.38064334 -0.011790151 -0.012604327 0.22343418 -0.1596644 0.30513906 0.08846431 0.13150918 -0.035859365 0.031837992 -0.03957456 -0.29588106 0.069551036 0.2439615 -0.16911721 -0.12625594 -0.35080892
80 -0.27226043 -0.34388593 0.39292735 -0.3622083 -0.02407894 0.013583034 0.14590321 -0.10375901 0.25721717 -0.05309798 0.16825566 -0.11157249 0.018035317 -0.04004187 -0.3198448 0.00903481 0.32682645 -0.13965447 -0.18222159 -0.33083597
116 -0.19024202 -0.23386553 0.31838647 -0.42846802 0.0485145 0.013679199 0.16877405 -0.21163112 0.3323725 -0.016442405 0.25048104 -0.079260625 -0.0033685116 -0.11987299 -0.33279395 0.11402953 0.22852276 -0.18991058 -0.15862808 -0.31196094
162 -0.113847755 -0.2771744 0.3764901 -0.40496388 0.0056643863 -0.01101169 0.18869199 -0.21298353 0.28755814 0.105808765 0.17084582 -0.012241984 0.060826298 -0.011756902 -0.3379586 0.11157372 0.18888883 -0.08426207 -0.17488506 -0.40260682
172 -0.19805574 -0.39245105 0.26778874 -0.3936026 -0.021050556 0.06807673 0.21101011 -0.20242858 0.33391044 0.050918847 0.061792698 -0.07468445 -0.032572858 -0.045420364 -0.28688726 0.036681116 0.21737805 -0.102297686 -0.1740132 -0.415015
119 -0.18310669 -0.3115081 0.37659505 -0.41406798 0.082814984 0.04221753 0.16185796 -0.18565542 0.2598661 0.10823321 0.12710695 -0.015976697 0.004822332 -0.011589255 -0.3441135 0.1097572 0.24369754 -0.15581895 -0.21929345 -0.32328653
9 -0.098207 -0.2914476 0.42158905 -0.46395653 0.0898262 -0.020003453 0.17993371 -0.29268983 0.18765393 0.024485871 0.1130529 -0.0015039536 0.047480047 -0.030114483 -0.27069974 0.016829733 0.13714811 -0.13015215 -0.2218973 -0.41947764
59 -0.16367696 -0.24442944 0.3489981 -0.34225777 0.054129973 -0.0052611646 0.2538266 -0.23345008 0.27045575 0.10316225 0.14607485 0.0128070265 0.0360956 -0.02813871 -0.36445442 0.032692038 0.24267119 -0.14762485 -0.22219825 -0.3763573
130 -0.21291357 -0.24844968 0.43830258 -0.31017727 0.03759474 -0.07581637 0.24226622 -0.2746591 0.23552257 0.0035503728 0.16516984 -0.022616185 0.019277235 -0.026259275 -0.41014427 0.057104446 0.08967801 -0.098735616 -0.16163056 -0.38063192
124 -0.1341072 -0.18448696 0.37862614 -0.31322592 0.093501806 -0.088640094 0.17026708 -0.20389988 0.32865262 0.031332515 0.19781548 -0.005865876 0.024964828 -0.065901905 -0.37387803 0.13114703 0.27687886 -0.23767035 -0.1484151 -0.38834783
68 -0.1567248 -0.20027195 0.42885152 -0.4135647 0.04186182 -0.044259436 0.16060689 -0.18371639 0.31563032 0.12992701 0.14217736 -0.03962693 0.0026001032 -0.0017888354 -0.36583936 0.009785516 0.27801102 -0.08406892 -0.16169773 -0.3431318
69 -0.09557878 -0.319132 0.40294945 -0.38805568 0.10451927 0.049115 0.2347696 -0.24226843 0.33958194 0.0651533 0.16093127 -0.091203995 0.05724596 0.015974686 -0.37701395 0.095692486 0.110626236 -0.10327276 -0.027084474 -0.34130034
77 -0.16127707 -0.32747638 0.31954873 -0.34023252 0.022263832 -0.009238977 0.14214498 -0.09422218 0.35869545 0.0076112165 0.17201222 -0.030205315 -0.00071823533 0.05303357 -0.36224884 0.05409779 0.21654178 -0.124547444 -0.19452107 -0.45629087
74 -0.14011985 -0.29272315 0.41792104 -0.34735447 0.021510666 -0.0261101 0.22836682 -0.24474007 0.3054275 -0.019526068 0.18145882 -0.11836769 0.06514205 -0.10987721 -0.30792347 0.033742167 0.2678083 -0.13766794 -0.16305354 -0.29964313
105 -0.09641549 -0.2922977 0.38042563 -0.29146498 0.08076272 -0.039721455 0.24745987 -0.2730419 0.31406164 -0.027878413 0.20635359 0.02674447 0.066980675 -0.015897386 -0.3957685 0.09070711 0.20805202 -0.24499947 -0.07393774 -0.3309233
113 -0.17416625 -0.2692462 0.34765738 -0.33171824 0.067774095 -0.019209523 0.19821116 -0.18855113 0.26979157 0.04394143 0.1850518 -0.040174216 0.07356835 -0.115584224 -0.39854273 0.21191746 0.252257 -0.22605944 -0.11926125 -0.3429953
179 -0.17650515 -0.32562318 0.39586794 -0.3766931 0.052882537 -0.014730824 0.14148636 -0.21648565 0.3721207 0.06261829 0.055511694 -0.07899714 0.054518584 -0.089515 -0.25317842 0.048335414 0.2329145 -0.09791364 -0.23194967 -0.33687854
112 -0.21570857 -0.3405232 0.36390325 -0.3427017 0.02772574 -0.038814783 0.1258938 -0.22231475 0.28989583 0.078258894 0.1736406 -0.122301705 0.042857915 -0.09081273 -0.32839707 0.040527474 0.19329113 -0.17744581 -0.15276374 -0.36824492
62 -0.22083798 -0.34033722 0.35260928 -0.3342301 0.007166675 -0.11371525 0.23712067 -0.15899356 0.34174725 0.10228894 0.1092593 -0.17587957 0.03630932 -0.12970652 -0.31460792 0.090416476 0.22807774 -0.085949495 -0.13781159 -0.35902
161 -0.17208341 -0.32614467 0.33939707 -0.3862934 -0.030293297 -0.03314658 0.18355936 -0.12901364 0.26005188 0.08638282 0.18890174 0.014149902 0.06701008 -0.03967134 -0.35729694 0.10146113 0.3177244 -0.059659343 -0.20138003 -0.368529
129 -0.14198732 -0.28568473 0.33870238 -0.52803624 0.018624008 -0.036694776 0.16338344 -0.18156342 0.25839174 -0.036546573 0.15326941 0.010433071 0.09718323 -0.032059815 -0.34688425 0.05431297 0.252332 -0.14358369 -0.14745569 -0.3075848
78 -0.06403278 -0.31088695 0.38981965 -0.34044206 0.03650241 -0.042271998 0.16346945 -0.26652518 0.3583147 0.05896994 0.3278492 -0.028114831 0.07663553 0.068309605 -0.262818 -0.038761668 0.22533268 -0.22820155 -0.19683371 -0.32838124
92 -0.2364106 -0.42459232 0.4191054 -0.4044188 0.02381332 0.07188264 0.1116565 -0.15209788 0.26577124 0.028854897 0.20168744 -0.051215935 0.014190236 0.038475018 -0.27226204 0.043227535 0.19155863 -0.1546553 -0.1281495 -0.3223459
91 -0.24649768 -0.2731232 0.3008312 -0.4767419 0.07704196 -0.08800907 0.23863874 -0.18815206 0.24458778 0.06955864 0.18657234 0.03774165 -0.01965766 -0.111386165 -0.24879894 0.028889092 0.2489853 -0.18511893 -0.07320722 -0.3870886
115 -0.1511085 -0.32283294 0.30932117 -0.4613037 0.04370543 -0.013609996 0.15414834 -0.15835105 0.2806744 -0.002541468 0.09819395 -0.036286127 0.06782619 -0.121717975 -0.32571936 0.012158238 0.23847342 -0.13658828 -0.11483554 -0.41798922
125 -0.21231182 -0.32888946 0.28709808 -0.36016008 0.058792364 0.012110905 0.16379456 -0.20900378 0.2861533 0.18429437 0.08726536 -0.0657743 0.0014577918 0.06588707 -0.3930326 0.04502607 0.27685758 -0.1672254 -0.016422082 -0.42423618
127 -0.17400707 -0.31507227 0.36454687 -0.40152293 0.056735475 0.041569166 0.11857032 -0.08651695 0.3664242 0.04887859 0.13058175 0.017703578 0.031483956 0.023129735 -0.40664202 0.10017726 0.1584536 -0.11993286 -0.09479974 -0.39931896
64 -0.14221874 -0.28385457 0.34350455 -0.40199056 0.015238819 -0.03704707 0.21821462 -0.15425968 0.2979929 0.08626042 0.097687006 -0.073796116 0.09548816 0.026021615 -0.42387083 0.00818643 0.26183072 -0.12982287 -0.11194069 -0.35291532
121 -0.1549358 -0.3109973 0.46621865 -0.41482928 0.058011666 -0.06832938 0.16562557 -0.09115293 0.27329758 -0.02509893 0.18606955 0.057339597 0.17039911 -0.07142492 -0.297521 0.06189141 0.15930966 -0.15167926 -0.1347202 -0.37346104
165 -0.16070531 -0.31686643 0.21714114 -0.43834049 -0.0015469765 -0.06848142 0.1354716 -0.13426907 0.33336267 -0.072765686 0.17288473 -0.021118455 -0.013837988 -0.10734354 -0.37530872 -0.024967149 0.26917762 -0.18679838 -0.15563703 -0.423538
109 -0.25814512 -0.33791044 0.36917812 -0.36904135 -0.06598723 0.039128006 0.09316461 -0.18161759 0.30290562 0.071782656 0.15310654 -0.12594031 0.11251077 -0.07192011 -0.31028956 0.086098135 0.18286304 -0.13192476 -0.13497914 -0.3801199
135 -0.10131283 -0.32882592 0.38080055 -0.4115199 -0.022258442 -0.024577325 0.20123991 -0.19816698 0.35363474 0.12001517 0.05119091 -0.13115655 -4.477881e-05 -0.088403195 -0.32814908 0.005163421 0.15555514 -0.21508898 -0.06250996 -0.38558856
85 -0.24004501 -0.26294172 0.30132088 -0.36419627 -0.0025430983 0.08083594 0.24041437 -0.15943266 0.3269154 0.04082171 0.2026328 0.07449811 0.1550027 -0.010546977 -0.34432456 0.08838581 0.26813143 -0.18592647 -0.042950638 -0.3528743
82 -0.24349646 -0.2405623 0.30836165 -0.35153157 0.061242826 -0.027096568 0.22874846 -0.106055565 0.23225679 0.118180186 0.24037129 -0.060631 -0.0472514 -0.011992695 -0.31895494 0.1317166 0.29260656 -0.1582315 -0.13005432 -0.4794683
67 -0.113784805 -0.35707062 0.39200562 -0.36581004 0.026162 0.040647577 0.18073182 -0.18303786 0.24522468 0.038019083 0.23669666 -0.05558694 0.015463565 -0.13184589 -0.30909708 0.113959685 0.23922554 -0.15183797 -0.087457694 -0.39588368
108 -0.20613758 -0.33986205 0.3541597 -0.4222558 0.08757765 -0.0026493939 0.17103769 -0.10943932 0.2981872 0.17967372 0.13692747 -0.048405256 0.09484892 -0.014208168 -0.3074561 0.008679418 0.21479861 -0.17650534 -0.16555016 -0.34126154
149 -0.20563397 -0.30460423 0.3304288 -0.4119407 0.033631183 -0.055380363 0.14680606 -0.14568365 0.29335228 -0.04810482 0.17617783 -0.13300446 0.012864222 -0.068810485 -0.33288434 -0.07457732 0.23242013 -0.17715012 -0.15497829 -0.4032232
51 -0.26854676 -0.3786199 0.33788556 -0.3605373 0.032342892 0.07730957 0.1747175 -0.17346348 0.25045985 0.04929951 0.15651894 -0.13681321 0.013184405 0.003587162 -0.41083246 0.10501748 0.17973615 -0.13215859 -0.18525536 -0.30668533
138 -0.2807847 -0.32883906 0.34754235 -0.31804633 -0.0030292163 -0.07578794 0.19894986 -0.20279361 0.32396254 0.032059964 0.1355319 0.0054169525 -0.013594704 0.019059313 -0.39355326 0.1174132 0.17635617 -0.082040615 -0.2035525 -0.3322447
86 -0.26115385 -0.3164723 0.33307898 -0.31311992 -0.009215462 -0.08084797 0.25099942 -0.19361256 0.32374558 -0.06735966 0.18722188 -0.04932356 0.04152844 -0.01574716 -0.39406407 0.09930597 0.14888433 -0.16450028 -0.13799104 -0.3257253
79 -0.061989892 -0.19376038 0.37182254 -0.40848458 -0.037631266 0.0076597985 0.21995124 -0.21400155 0.3611697 0.03173545 0.12045259 -0.02931137 0.019450063 -0.030624647 -0.30195504 0.017352754 0.25337848 -0.1229895 -0.14124513 -0.44865626
65 -0.2582838 -0.274207 0.3565321 -0.44111013 0.043973375 0.047540054 0.21863797 -0.15783851 0.21972018 -0.0060442854 0.15614569 -0.06501449 0.040882085 0.0026562384 -0.30937827 0.0673683 0.27952576 -0.0909165 -0.09100145 -0.3699818
104 -0.19639434 -0.2940553 0.39661017 -0.39038977 -0.0077250684 -0.023105292 0.19537522 -0.1092742 0.28307238 0.06881707 0.14890444 -0.03629598 0.16265981 -0.11838694 -0.2893268 0.07708408 0.30419323 -0.22770101 -0.23388052 -0.28621972
111 -0.18838 -0.33491954 0.40826252 -0.3130552 0.02501888 0.02634203 0.16432305 -0.1621156 0.268927 -0.0124626625 0.20717226 -0.01670642 0.04000102 -0.083420835 -0.36544475 0.057957336 0.14762425 -0.07836546 -0.18951593 -0.42191494
100 -0.1527438 -0.23716623 0.3289288 -0.36181012 0.057279896 0.04707068 0.2220066 -0.19875652 0.2960895 0.036129273 0.19178863 -0.08574093 0.06564167 -0.055669986 -0.39536205 0.07449939 0.16275793 -0.086252324 -0.17972371 -0.42926222
95 -0.26702133 -0.3049484 0.2872675 -0.4219088 0.0773287 0.053500872 0.19659683 -0.11228799 0.27252695 0.06584401 0.094941184 -0.09293993 0.11203796 -0.082494676 -0.4015854 0.13216233 0.23535214 -0.103231885 -0.0074563464 -0.3904325
141 -0.19068694 -0.32495594 0.3642975 -0.44491 0.04964566 0.010512354 0.2048828 -0.18790582 0.30179408 -0.0065902686 0.16991691 -0.0051037855 0.022551997 -0.09807469 -0.38213465 0.015524199 0.17866364 -0.13372292 -0.080347955 -0.28471607
156 -0.16412209 -0.33833843 0.3818251 -0.38083696 -0.03244218 0.051750537 0.22208528 -0.1795292 0.2843755 0.040765587 0.16518387 -0.031575482 0.027435876 -0.06757915 -0.3356968 -0.0099793915 0.2880412 -0.1344474 -0.12996033 -0.3242913
81 -0.17391177 -0.27247676 0.31569472 -0.38504863 0.0035118773 -0.082819484 0.20495495 -0.16429986 0.22797258 0.008588889 0.17302959 -0.08973599 0.12569992 -0.0052496972 -0.37317282 0.12037908 0.30520925 -0.05853441 -0.18034592 -0.41454524
160 -0.18470353 -0.27428615 0.41028273 -0.3208145 0.03613731 0.011774429 0.20866252 -0.15149976 0.3706478 0.048673663 0.19103481 -0.092491545 0.017018594 0.0359406 -0.32067844 0.052730914 0.17861886 -0.1583485 -0.09260542 -0.39171544
110 -0.20457529 -0.28669176 0.36926773 -0.3678517 -0.0036947245 -0.033837654 0.26984447 -0.10338979 0.30052167 0.09595003 0.1124154 0.0063228034 -0.04755556 -0.115236506 -0.35790476 0.086017676 0.30205145 -0.1781162 -0.23690332 -0.3001405
153 -0.1868434 -0.26206234 0.4330918 -0.35988963 0.022513943 0.14371583 0.18237539 -0.13613668 0.33358005 0.055135936 0.101059906 -0.105603404 0.11776299 -0.0046016313 -0.3165369 0.12080084 0.21542694 -0.0754037 -0.13322476 -0.39614326
107 -0.23982298 -0.30644506 0.35022524 -0.40202034 0.02706331 0.022571295 0.13060722 -0.17008586 0.23492439 0.0990624 0.22179216 -0.009419256 0.09884511 -0.022734534 -0.2701863 0.06551146 0.16115977 -0.09554132 -0.25467023 -0.4387095
96 -0.2225691 -0.2760383 0.3717123 -0.38973737 0.01599573 0.055616044 0.27482954 -0.10557567 0.28175983 0.10936554 0.19764088 -0.098677404 0.074414484 -0.050803155 -0.35434392 -0.08824577 0.23627685 -0.05585986 -0.23120512 -0.3314983
118 -0.2224824 -0.32226142 0.3437916 -0.38369915 -0.07760011 0.033359148 0.18331942 -0.24484593 0.2892241 0.03212142 0.053599536 -0.055701964 0.09614925 -0.02733635 -0.30373746 0.101412125 0.26455832 -0.09473641 -0.19242443 -0.35021678
178 -0.18783647 -0.25231 0.35390657 -0.35405117 0.041343328 0.017139677 0.18366149 -0.18065761 0.20017783 0.038020328 0.112958156 -0.025392042 0.109167196 -0.049901363 -0.35689202 0.12694721 0.33243722 -0.051349483 -0.042940263 -0.4992932
145 -0.17613159 -0.30922663 0.33621922 -0.35325402 0.058247197 -0.075508684 0.19834569 -0.2002189 0.28145975 -0.049061697 0.18653397 -0.2659381 0.04093216 -0.0146503495 -0.37498108 0.1175672 0.17424294 -0.12929252 -0.16241471 -0.38155413
48 -0.27203438 -0.34321684 0.3622859 -0.3745037 0.04990274 -0.17167391 0.23962523 -0.15072697 0.35647237 0.039459493 0.21538714 -0.07840025 0.037597947 -0.02815728 -0.28584787 0.018274136 0.28852326 -0.14050354 -0.14586022 -0.22462758
169 -0.31376743 -0.28952053 0.39709777 -0.38725984 0.052904993 -0.11043891 0.21331008 -0.20456325 0.25312272 -0.007121596 0.06331935 0.0457237 0.06626626 -0.09413018 -0.3532201 0.10292046 0.23412804 -0.034699306 -0.11274116 -0.3176499
106 -0.120645225 -0.31327453 0.39017874 -0.47064877 -0.06789462 0.012771067 0.19529478 -0.118323535 0.1854217 0.084507644 0.15951033 -0.0217526 0.15681659 -0.023703773 -0.37848365 0.0057169893 0.2595602 -0.1779293 -0.08328296 -0.37207437
93 -0.18021193 -0.28365722 0.35728484 -0.3246025 -0.006828048 -0.0102232415 0.21810241 -0.20706919 0.31723025 0.0866517 0.2651853 -0.01247702 0.1347102 0.011413474 -0.28515473 0.100900404 0.2834659 -0.1376713 -0.050711077 -0.38269675
63 -0.19712296 -0.25878015 0.2620684 -0.5104259 0.096081175 -0.013751804 0.15841728 -0.105563 0.30559713 0.11289948 0.16701283 0.010974075 0.11278349 -0.02689881 -0.3662495 -0.07267304 0.30782434 -0.2102404 -0.060893632 -0.33897057
90 -0.30216637 -0.3013809 0.34815115 -0.33064136 -0.02511869 0.07731002 0.15279417 -0.1590916 0.36259186 0.21325096 0.18130031 -0.12274791 0.07867463 -0.06234377 -0.28100026 0.09047063 0.27278838 -0.1092036 -0.12163696 -0.33649746
87 -0.23661116 -0.27466258 0.3389124 -0.35265335 0.007968383 0.009982906 0.07881584 -0.2424002 0.34591493 0.13980742 0.07010151 -0.042743206 0.11460196 -0.06608082 -0.2898465 0.068595596 0.17901397 -0.23634489 -0.21609204 -0.3997605
131 -0.20417306 -0.19280942 0.26940286 -0.32525828 0.119074605 -0.056857895 0.14190668 -0.16720897 0.44308883 -0.072711155 0.13718387 -0.05455847 0.08168645 0.05099844 -0.33744767 0.14120263 0.35832712 -0.11328371 -0.06693688 -0.44044065
117 -0.20240153 -0.28685153 0.42048925 -0.34017926 -0.022252088 -0.026218811 0.3503237 -0.1437553 0.22968596 -0.07386054 0.13077691 -0.006412733 0.19719663 -0.08665283 -0.32466742 0.06268747 0.27470648 -0.16315603 -0.16977684 -0.2960377
45 -0.23108444 -0.27826056 0.44496626 -0.26246834 0.0106455665 -0.032633655 0.23434995 -0.15130435 0.35704893 0.027747301 0.19542123 -0.019688096 -0.06111371 -0.11237707 -0.34738308 0.016183833 0.18679494 -0.12859373 -0.12237208 -0.37654048
70 -0.14330511 -0.31386554 0.32456714 -0.38226676 -0.011202698 -0.024194032 0.17817523 -0.22286846 0.22423649 0.056415785 0.060403995 -0.11188844 -0.06643208 -0.04775012 -0.42095122 0.065775946 0.18572456 -0.14421007 -0.22136375 -0.43944257
101 -0.05774134 -0.326835 0.301072 -0.39258507 -0.09419315 -0.020527843 0.29778773 -0.24561395 0.23196796 0.042617504 0.18266945 0.006371885 0.11130749 -0.1636541 -0.2354359 0.11465632 0.27037877 -0.09995606 -0.11425967 -0.48883966
123 -0.1156832 -0.29194236 0.31756312 -0.42559412 0.15577918 0.031598393 0.24361359 -0.27039412 0.28906226 -0.0024327706 0.064088754 -0.03196952 0.103321515 0.032524165 -0.25877744 0.13155544 0.24766319 -0.091222264 -0.2377825 -0.38356796
139 -0.21228321 -0.31455746 0.3023763 -0.36253828 0.13078974 0.11378927 0.1677011 -0.22939065 0.39059737 -0.018416628 0.14788358 -0.1195243 0.11953832 -0.06305648 -0.38116008 -0.022559932 0.18698902 -0.1347854 -0.028488161 -0.32730374
42 -0.18471684 -0.42945713 0.33946782 -0.35700053 0.099872895 -0.00093207473 0.26799998 -0.2616333 0.30927104 0.10336678 0.09813221 -0.0979142 0.047187276 -0.03257358 -0.32489678 0.035958134 0.21173705 -0.09479785 -0.16616575 -0.25878337
8 -0.1659044 -0.3393894 0.3425562 -0.34709296 -0.011061138 -0.006740995 0.30806834 -0.26576194 0.2353259 0.084073626 0.21049881 -0.07814842 0.121187344 0.013535525 -0.34445134 -0.0016522167 0.26224366 -0.15424216 -0.19184992 -0.28205156
103 -0.27765462 -0.37122032 0.2952979 -0.26834464 -0.0067199543 -0.027185598 0.12143294 -0.2561132 0.27226418 0.129988 0.18810762 -0.1017227 0.06709511 -0.058486994 -0.24897273 -0.08035536 0.30884835 -0.19716048 -0.18985684 -0.4239281
142 -0.18745764 -0.28685316 0.4593872 -0.36025682 0.028154584 0.04346993 0.18157735 -0.15560319 0.33997455 0.019741412 0.10502712 0.11067729 0.11068286 -0.07874639 -0.16115746 0.16293728 0.18432285 -0.24592704 -0.19308385 -0.391026
83 -0.19984528 -0.24042013 0.29247454 -0.3942167 -0.048721015 -0.01704761 0.039352793 -0.23385555 0.3082614 0.13689502 0.18543674 -0.0093572885 0.05581531 0.013003888 -0.30323085 0.027510576 0.21553099 -0.22579078 -0.1785038 -0.48429018
99 -0.064353466 -0.26500124 0.36104432 -0.3465422 -0.016078131 0.021416519 0.3013762 -0.15572657 0.32599849 0.104018964 0.21062815 -0.0027664576 0.11864671 0.050943185 -0.21979895 0.21969102 0.23255894 -0.16839954 -0.12907882 -0.47913492
173 -0.10454352 -0.34115186 0.33682123 -0.40310904 0.10091654 0.0385633 0.22386578 -0.14169632 0.36640957 0.021365207 0.047808204 0.03269507 0.15666911 -0.14947702 -0.3014703 0.12181601 0.28774917 -0.12513934 -0.101729564 -0.349821
154 -0.255334 -0.32648447 0.35715336 -0.37013894 -0.107385255 -0.007234398 0.17398357 -0.13912126 0.28617904 0.02680401 0.0223628 -0.046890814 0.008727139 -0.0924988 -0.28725645 0.108961985 0.21821004 -0.20834509 -0.11217978 -0.44750893
114 -0.16890381 -0.198119 0.33883262 -0.39263994 -0.08338505 -0.053882416 0.17931518 -0.1517516 0.34963173 0.15962437 0.09457893 0.06724253 0.12438192 -0.053598028 -0.3918504 0.07562397 0.18884674 -0.07396251 -0.18619394 -0.4444487
132 -0.11571055 -0.29861474 0.44430065 -0.27403378 -0.11380916 -0.05663194 0.20142145 -0.23067725 0.36706528 -0.08495507 0.061743554 -0.030082246 0.055845637 -0.17100383 -0.35029438 0.17739227 0.2698812 -0.118728586 -0.035864618 -0.3886729
176 -0.16715686 -0.29766542 0.41518268 -0.38926303 0.022523774 0.10722971 0.19271855 -0.17017342 0.3676306 -0.09384229 0.10225556 -0.015099265 0.07015058 -0.05787491 -0.26252967 0.092637196 0.17296186 -0.08147557 -0.12874427 -0.39132124
164 -0.15860622 -0.30190647 0.3487059 -0.3832092 0.018051801 0.028760448 0.21885905 -0.238388 0.31862253 -0.06596815 0.06926309 -0.008954742 0.045941576 -0.0773838 -0.37415212 0.0909878 0.19177216 -0.1215342 -0.056411114 -0.38359582
150 -0.18354034 -0.42060435 0.40281764 -0.37153015 0.019086896 0.08151732 0.18082768 -0.23921373 0.33415294 0.011196183 0.1036243 -0.008243764 0.1031704 -0.017150557 -0.24825148 0.076654874 0.23163314 -0.12632276 -0.009781346 -0.31798586
17 -0.21294835 -0.18813288 0.27882916 -0.41557416 0.17223424 -0.008208071 0.24773337 -0.29612142 0.21920669 0.15463075 0.18881524 -0.043159835 -0.0020245966 0.032893807 -0.3858919 -0.07866372 0.2336307 -0.12366534 -0.16121648 -0.40407768
72 -0.2139344 -0.31976908 0.3416949 -0.29473233 0.020364545 0.02797443 0.15946239 -0.15808557 0.3417735 0.011854406 0.05289733 -0.02764338 0.18050979 -0.049293328 -0.37907583 0.112461366 0.130578 -0.13656458 -0.2553565 -0.41884157
5 -0.23720193 -0.3334401 0.20510826 -0.3329544 -0.08614179 -0.045528002 0.34967014 -0.2588238 0.2133681 0.15906489 0.16032563 0.047029827 0.03862466 0.05930963 -0.39513296 -0.13502197 0.24655047 -0.1797312 -0.20500034 -0.39969072
144 -0.15636031 -0.26959673 0.31921616 -0.33414298 0.1616945 0.07771677 0.1988552 -0.17097364 0.42276448 0.00069490477 0.077545196 0.013277278 0.054123368 0.065620854 -0.283689 0.077541895 0.41605404 -0.12318509 -0.17486508 -0.33804253
58 -0.33378386 -0.2489014 0.37300408 -0.3225079 0.006882752 -0.0009369877 0.27506608 -0.17627627 0.22702807 0.0725357 0.26872548 0.011482058 -0.02000962 0.009598887 -0.3662526 -0.060950704 0.1455717 -0.1626268 -0.1778666 -0.37847817
94 -0.17828223 -0.35022113 0.29716855 -0.3813529 -0.08882148 0.074264556 0.24241422 -0.31660882 0.18784937 0.20257244 0.11898417 0.038978934 0.046028003 -0.058976546 -0.3877054 -0.11505932 0.18462458 -0.08066663 -0.18539627 -0.41524166
120 -0.2629674 -0.31547755 0.30093494 -0.38383254 0.031176658 -0.0044889865 0.21714121 -0.20553716 0.31306925 -0.09402892 0.102515355 -0.050233103 0.08609823 -0.07932548 -0.39802617 0.04031704 0.18707173 -0.035356387 -0.0927656 -0.36438552
137 -0.23131552 -0.27236935 0.39625585 -0.31583264 0.059592813 0.0444045 0.110652275 -0.20046122 0.27653334 0.06657989 0.06277013 -0.07310596 0.21251601 -0.10785669 -0.32802406 0.12505972 0.36463296 -0.18343315 -0.03231988 -0.37131718
175 -0.1607543 -0.2224409 0.41099465 -0.37430033 -0.009267021 0.073876604 0.2638506 -0.17953345 0.3456345 -0.08115349 -0.0048886375 0.010310225 0.123738825 0.018206412 -0.2962307 0.10598281 0.22088769 -0.22389664 0.027006067 -0.43479672
61 -0.14114515 -0.29300088 0.24062403 -0.37395707 0.17157167 0.07801475 0.1793245 -0.1874605 0.3297531 -0.066930085 0.13001348 -0.13834718 0.15814777 -0.08019456 -0.4499335 -0.001016895 0.2910709 -0.22693422 -0.16795415 -0.3164824
84 -0.24612372 -0.40712485 0.2916248 -0.38008302 -0.09855632 0.0789334 0.27345887 -0.14836138 0.40812296 -0.020043064 0.050285194 -0.0062617296 0.0305655 -0.11297761 -0.21624544 0.12634881 0.18706766 -0.092912845 -0.15515682 -0.3694036
148 -0.2659879 -0.14299338 0.329781 -0.36473376 0.11384858 -0.016551321 0.043836698 -0.19811258 0.27798507 -0.11259275 0.17213553 0.03803369 -0.041284043 0.06366792 -0.3390263 0.27971148 0.22691965 -0.2654028 -0.15084468 -0.50539565
38 -0.2328034 -0.33036375 0.3082263 -0.33227277 0.042270567 0.088457115 0.26716235 -0.2890621 0.44515938 -0.12027142 0.23028424 0.0008838056 -0.085800536 -0.012069706 -0.3185086 -0.004976397 0.18125193 -0.045706633 -0.17803714 -0.27062133
16 -0.36009765 -0.20400047 0.34846538 -0.32102084 0.039934415 0.006212169 0.15237688 -0.2251196 0.32714486 0.10564827 0.29315704 -0.11207487 0.06578783 -0.03917645 -0.2740982 0.025871256 0.21340959 -0.17225079 -0.15853886 -0.35943624
126 -0.2858136 -0.3218231 0.3329075 -0.37881854 0.058598965 0.06453852 0.24080828 -0.074011795 0.26734236 -0.145413 0.073884495 0.041027173 0.13475662 -0.06919682 -0.28548697 0.09097009 0.29052946 -0.24094181 -0.14525624 -0.3594634
13 -0.26753342 -0.26771542 0.2645855 -0.32229808 -0.08311919 -0.016116519 0.22629693 -0.273399 0.24943656 0.039404497 0.27260166 0.050270885 0.1031213 0.031624194 -0.29201514 -0.14895843 0.33341175 -0.21282667 -0.13210733 -0.4119561
181 -0.30695394 -0.17828637 0.40263465 -0.42071334 -0.056921713 0.18188925 0.3767467 -0.17337048 0.3058304 0.0768841 0.1339558 0.045837928 0.16588394 0.06537044 -0.264328 0.11236059 0.06634235 -0.05976292 -0.036744244 -0.40620857
168 -0.19099279 -0.30931658 0.38182116 -0.29077977 -0.031710915 -0.073651135 0.19815464 -0.15593965 0.41330498 -0.13543211 0.1092388 0.04197355 0.25275362 -0.021017944 -0.28360182 0.23704869 0.18932652 -0.12898163 -0.037876148 -0.41594288
50 -0.26409724 -0.24689671 0.28492352 -0.2761847 -0.012754063 -0.046129063 0.34535077 -0.2338499 0.32391188 0.14334708 0.09700248 -0.048037488 0.00996539 -0.01483309 -0.33388713 -0.008103182 0.13230276 -0.20887592 -0.23045436 -0.42726687
147 -0.15694901 -0.22347364 0.35901043 -0.32125345 -0.02007317 0.004861318 0.2640212 -0.18086313 0.3971428 -0.11598082 -0.090081446 0.03841719 0.13189478 -0.036525205 -0.27254874 0.11846585 0.28407001 -0.06553747 -0.07914879 -0.5269866
102 -0.28981096 -0.17018585 0.21980962 -0.43762642 0.05977636 0.11045426 0.17213838 -0.19103801 0.22894078 0.08854868 0.17423 0.16571297 0.13671236 -0.14251125 -0.28055772 0.04759359 0.16182844 -0.20603277 -0.15956709 -0.5536094
10 -0.2914331 -0.10729528 0.3100859 -0.23636468 0.062700674 0.083392434 0.2305391 -0.2678811 0.22145256 0.18452297 0.16075097 0.038031846 0.0032382992 -0.088220425 -0.47333494 -0.091126904 0.1737537 -0.20484911 -0.23854673 -0.49935365
163 -0.147171 -0.16771457 0.48380578 -0.34311825 0.11636247 0.10494964 0.1956833 -0.32007927 0.33952108 -0.25068492 0.06695709 -0.06656754 -0.005846882 0.03674167 -0.3202868 0.25929642 0.2091231 -0.06432661 -0.05075466 -0.4048645
53 -0.2818119 -0.25440064 0.23530142 -0.35299397 -0.15691689 0.023822531 0.2369266 -0.1677821 0.3644509 -0.012036296 0.1355843 0.012895753 0.094042346 -0.010118816 -0.270431 0.053668402 0.17035417 -0.029957553 -0.25734642 -0.5214819
136 -0.30365926 -0.2159213 0.30233115 -0.27040654 0.13662839 0.04445118 0.19648926 -0.18045749 0.3754049 -0.047547583 0.11391796 -0.07764631 0.10831611 -0.019705793 -0.3366264 0.09206097 0.3136701 -0.11338016 -0.056437694 -0.4293966
180 -0.22383045 -0.28974003 0.46532887 -0.27444825 0.0432917 -0.07857571 0.24456666 -0.13099425 0.3506866 -0.061755612 -0.038597085 0.013916076 0.13932979 -0.010259097 -0.23592302 0.0936086 0.2541251 -0.08018176 -0.1715314 -0.44369572
166 -0.28768802 -0.23510486 0.3355546 -0.38405097 0.11356423 -0.042549048 0.12209144 -0.16699113 0.43134993 -0.19245215 0.045834202 -0.08470666 0.028259698 0.07900414 -0.38950413 -0.003226227 0.29462317 -0.07599195 0.07587747 -0.38282442
159 -0.20348233 -0.17321068 0.4426842 -0.39002034 0.13171902 0.11702005 -0.059057094 -0.18411511 0.50683224 -0.091521084 0.087879956 -0.08668194 0.037500218 0.07040536 -0.33766428 0.17400323 0.1482355 -0.14598908 -0.02954485 -0.40715995
60 -0.33286065 -0.31543192 0.31541988 -0.29065177 -0.064120315 -0.10169207 0.25929558 -0.074254535 0.2982871 0.11650655 0.06223073 -0.027001007 0.17729586 -0.14325316 -0.14356768 0.013136406 0.18080243 -0.14778242 -0.20939134 -0.58166444
71 -0.17810743 -0.12167056 0.330883 -0.48976347 -0.1291225 0.029002283 0.2049403 -0.1722895 0.3736103 0.17550208 0.1124233 0.07034877 0.23108335 0.107528195 -0.25305015 0.035285812 0.058350254 -0.10159872 -0.15935344 -0.53472316
52 -0.28184465 -0.16519777 0.27144408 -0.38082457 -0.17653435 -0.11428703 0.27623257 -0.29237163 0.26660427 0.20962396 0.14406009 0.10934945 0.15201673 -0.17001048 -0.33533067 -0.016475242 0.11336766 -0.23502785 -0.17503533 -0.42618918
133 -0.403823 -0.20751576 0.39776438 -0.36930817 0.06938326 0.053349797 0.20357846 -0.25017875 0.29949325 -0.06733735 0.054357562 0.020799985 -0.010978338 0.07032085 -0.21000192 0.2064765 0.31383866 -0.0949694 -0.03848633 -0.3598907
33 -0.25686514 -0.20460865 0.2699878 -0.28669935 0.12188822 -0.110786796 0.30835423 -0.29473904 0.23751715 0.14118524 0.25057504 -0.022915952 0.11241036 -0.08339899 -0.30755442 -0.04804386 0.16179125 -0.23218022 -0.26395363 -0.42822346
12 -0.35320935 -0.26584056 0.23969467 -0.30068478 0.055524696 0.06865834 0.17899305 -0.4453123 0.18510924 0.051831063 0.17913309 -0.048296973 0.15239182 0.0027121021 -0.3918908 -0.037004627 0.21111655 -0.040822923 -0.18544346 -0.38989562
11 -0.252602 -0.28573364 0.37751967 -0.26131117 0.15828556 -0.027616292 0.06005773 -0.2204171 0.42322096 -0.032775998 0.2581968 -0.104313135 0.09507676 -0.048599117 -0.3146188 -0.13274677 0.083045855 -0.21238443 -0.21634454 -0.38540402
18 -0.29100934 -0.17542788 0.33487257 -0.3126498 0.028447043 0.001864497 0.18579939 -0.31600907 0.18595186 0.07554278 0.2073768 -0.05566537 0.18327624 0.03505795 -0.28368786 -0.088613756 0.23943529 -0.13587539 -0.20869257 -0.4904498
56 -0.30315524 -0.24829042 0.26511863 -0.3910768 -0.1544028 0.031718478 0.040094797 -0.24098936 0.257372 0.075552225 0.03422725 -0.06433487 0.09336424 -0.08784886 -0.34003434 -0.080857016 0.18892503 -0.2449895 -0.05820563 -0.5607008
157 -0.275284 -0.25029105 0.3970298 -0.37178236 -0.0341227 0.018275183 0.02925399 -0.187612 0.3219867 0.023857748 0.038028732 0.07979437 0.054205127 -0.019398272 -0.21497326 0.15148953 0.21174474 -0.21786308 -0.12973388 -0.5029314
30 -0.29558253 -0.28387818 0.2704294 -0.24454746 0.15092114 0.014550104 0.118942596 -0.5121909 0.28812513 -0.025312595 0.2163791 -0.023464669 0.044184364 -0.054272547 -0.24517018 0.055639304 0.2953957 -0.14621162 -0.0927606 -0.39544243
177 -0.32867873 -0.2572752 0.38636073 -0.38339862 0.08219724 -0.049968075 0.25728583 -0.19782937 0.37735274 -0.075225994 -0.07940662 0.06565601 0.14683464 0.002678108 -0.23582326 0.022121536 0.22957651 -0.22053117 0.08349622 -0.37134996
151 -0.22603044 -0.22911653 0.34405094 -0.4312259 0.12475317 0.027732812 0.19195445 -0.17443399 0.43718526 -0.25082466 -0.060453348 -0.10493741 0.113875344 -0.0142526915 -0.2516817 0.06136976 0.410839 -0.11143888 -0.034561113 -0.3251113
47 -0.29999387 -0.12621821 0.35647184 -0.37298074 0.17533833 -0.01260434 0.20320286 -0.38846898 0.3100287 0.15503193 0.06725536 -0.09989428 0.18197946 -0.051554393 -0.3705596 0.025617817 0.14256966 -0.18458928 -0.15246248 -0.27468693
3 -0.264633 -0.13530456 0.3830344 -0.46191168 -0.014018003 -0.110070206 0.19292505 -0.29098397 0.21363194 0.18251154 0.22730537 0.09136654 0.14021169 0.018708067 -0.25533667 -0.15964665 0.17585425 -0.13627942 -0.21788236 -0.40448573
28 -0.33253402 -0.119070895 0.27475673 -0.34878454 -0.011447152 0.011069718 0.3217955 -0.31725854 0.24948129 0.14409581 0.12124962 0.019098204 0.11404122 -0.118349746 -0.29966205 -0.045050263 0.16450912 -0.1474775 -0.16246651 -0.46402484
143 -0.28292623 -0.1962101 0.2898882 -0.41891524 0.06454841 -0.07405896 0.11472639 -0.3119084 0.24965268 -0.11426821 0.15869829 -0.06187362 0.053096596 0.04827483 -0.20720331 0.20107722 0.36073136 -0.13976648 -0.061088316 -0.46029863
171 -0.20003903 -0.022738382 0.41864842 -0.38740158 0.1534928 -0.037162386 0.19250348 -0.11059078 0.43032473 -0.10735857 0.073434934 0.0738554 0.10715689 0.08240874 -0.39603388 0.06076252 0.29877985 -0.12623724 0.007916747 -0.43334308
32 -0.2036191 -0.22540556 0.25906214 -0.32944167 -0.047779743 0.0036296623 0.21957175 -0.32664242 0.43598 -0.023076426 0.07178311 0.0049285823 -0.042142816 -0.14960465 -0.24948391 -0.05612966 0.14457421 -0.17845176 -0.15293191 -0.5027494
46 -0.3999484 -0.19051784 0.24438764 -0.4006698 -0.047747705 0.106757544 0.3387282 -0.1487643 0.28278595 0.08464355 0.069484286 0.05725121 0.22722696 0.03041981 -0.24662435 0.050054424 0.17391768 -0.2561627 -0.2212584 -0.3957238
146 -0.25381377 -0.19673398 0.42381167 -0.35167155 0.17002596 0.04405414 0.26089767 -0.093171455 0.31612155 -0.11473318 0.0870426 0.07998581 0.092751786 0.07301429 -0.27237803 0.18377127 0.23013972 -0.13507012 -0.041015368 -0.45913187
19 -0.35226467 -0.18270431 0.31431994 -0.4140846 0.14848796 0.046220243 0.115421094 -0.28051308 0.35725516 0.16021611 0.3250789 0.20388304 0.017607061 -0.0998457 -0.31355888 -0.12268135 0.18857002 -0.10260982 -0.22824448 -0.26674828
152 -0.31136423 -0.21749589 0.5088051 -0.23545933 0.14964764 0.04773451 0.022777682 -0.18862344 0.40510577 0.010862262 0.078771524 -0.049083196 0.13398635 -0.04069658 -0.21926548 0.003252557 0.39526606 -0.038564324 -0.1110797 -0.39623383
14 -0.24544545 -0.264683 0.3194913 -0.2312841 0.021615751 0.028772607 0.36324567 -0.2958324 0.42569843 0.038804572 -0.014771929 -0.14992695 0.106647745 -0.16753618 -0.15084024 -0.023533802 0.19589928 -0.12706856 0.042802628 -0.54380643
128 -0.1657684 -0.27166766 0.48269185 -0.315086 0.116249226 0.034821615 0.22018601 -0.27086025 0.30850777 -0.22241558 0.044430003 -0.115465194 0.07703556 -0.03782446 -0.2615545 0.17393582 0.2507819 -0.17637444 -0.018235983 -0.36813265
22 -0.2930674 -0.09157181 0.3618828 -0.4111353 -0.008589502 -0.00685487 0.34842262 -0.25956705 0.2609573 0.11383792 0.21907058 0.0051157516 0.08254065 -0.033142425 -0.21612243 0.02873255 0.14689218 -0.25118262 -0.10239614 -0.41029367
6 -0.46544227 -0.24426392 0.27647078 -0.23620962 0.11363253 0.16671316 0.18383251 -0.26507223 0.28851843 0.24619597 0.3062387 0.08157984 -0.031123823 -0.029946791 -0.29547673 0.0017990912 0.23248063 -0.039621547 -0.25777328 -0.39185214
170 -0.19548532 -0.23428066 0.31568512 -0.40798253 0.1351978 -0.05881891 0.19386508 -0.22545092 0.4046994 -0.19932811 0.060394336 0.031820063 0.09176359 -0.04944937 -0.22812794 0.0988137 0.26541167 -0.21577848 -0.1063495 -0.37777585
1 -0.3236884 -0.26233327 0.22852527 -0.3096363 0.17254531 0.0037855296 0.22820853 -0.31938624 0.28505692 0.11507181 0.12526414 -0.14557119 0.09251923 -0.1693014 -0.32328433 0.015357076 0.14881794 -0.17440934 -0.12991801 -0.4251344
167 -0.33351305 -0.2619566 0.49909168 -0.26583496 0.19451779 -0.0647838 0.25128523 -0.17127617 0.31936613 -0.2398215 -0.03379036 0.03652256 0.19342546 0.01472544 -0.32868168 0.23739403 0.21347117 -0.09235307 -0.055897284 -0.31605488
36 -0.38541374 -0.38016438 0.19065164 -0.3255557 0.1621391 -0.05978632 0.09213425 -0.40464455 0.3274222 0.112281695 0.17984366 0.066605344 0.02049641 -0.078257434 -0.26051652 -0.07943921 0.12821017 -0.04200114 -0.16222353 -0.4275663
7 -0.27890942 -0.2004635 0.2545427 -0.28725803 -0.01752133 0.023041293 0.28719237 -0.30749482 0.35203135 0.16645287 0.23368458 0.080919385 0.0981098 -0.019399634 -0.36028704 -0.1368069 0.254624 -0.102293886 -0.21517384 -0.3499059
155 -0.20903592 -0.035545953 0.43840444 -0.3858798 0.038470425 -0.053426772 0.30262947 -0.13784145 0.3902098 -0.07207474 -0.02873023 -0.043591995 -0.020261172 0.027188241 -0.18587725 0.120111555 0.208758 -0.17343646 -0.16028136 -0.54750127
75 -0.3846152 -0.2368803 0.21886525 -0.41239488 0.027406735 0.18628438 0.091247715 -0.14306544 0.38544184 0.113029525 0.11948564 0.072233535 0.2837112 -0.053450286 -0.27417436 0.042678356 0.21148853 -0.1495149 -0.19198997 -0.3937967
26 -0.1848534 -0.17214687 0.3105547 -0.22558635 0.11534798 -0.08742874 0.18647464 -0.31247005 0.33678645 0.08583942 0.2467438 0.05944844 0.059805207 0.062837236 -0.3003981 -0.077194564 0.31319064 -0.10078756 -0.20042838 -0.51151264
21 -0.36982653 -0.23679489 0.2047057 -0.2780989 0.18412392 -0.103423744 0.19445798 -0.42759603 0.24449383 0.12701367 0.23782912 -0.0051713763 0.1071612 0.09361989 -0.35028908 0.0551118 0.19015224 -0.173279 -0.2563416 -0.35352367
89 -0.2105617 -0.35741597 0.31963086 -0.3214476 -0.028288823 0.10273493 0.18275702 -0.30003628 0.42944074 -0.044760257 0.06953985 -0.022847593 0.15941654 -0.01754619 -0.24716386 -0.030928291 0.096563764 -0.10835099 -0.067665614 -0.44936836
40 -0.30580917 -0.25506255 0.30982977 -0.3294168 0.19611077 0.0011436469 0.08282516 -0.35053185 0.22486877 0.1436251 0.33463112 0.037992112 0.15569113 0.049896747 -0.28010666 -0.04063965 0.19740438 -0.032982275 -0.28859973 -0.40170032
31 -0.22976542 -0.12867515 0.25973937 -0.34999183 0.13013232 -0.11049022 0.1451033 -0.28453746 0.26168525 0.121506624 0.39002898 -0.0073441314 0.09940235 -0.054139215 -0.3107641 -0.07674657 0.124130115 -0.13684452 -0.35686857 -0.50229067
49 -0.30358532 -0.21348383 0.27933952 -0.39348948 0.08612285 -0.0099635655 0.26803535 -0.30463564 0.47119468 0.09585855 0.11078812 -0.055596806 0.11790739 -0.060504097 -0.15144104 0.08397194 0.1351235 -0.12868218 -0.085657164 -0.36093482
158 -0.2264822 -0.2145892 0.33913702 -0.36858666 0.271199 0.019360488 0.11944483 -0.17903616 0.4052581 -0.1519421 -0.0036366784 0.08355532 0.0920161 0.041161057 -0.26368943 0.11199796 0.23616658 -0.16469695 -0.040641893 -0.49173608
54 -0.21231937 -0.20430614 0.35678017 -0.33098802 -0.076825194 0.079664074 0.25017333 -0.3205736 0.34098473 0.08775893 0.00520466 -0.11620921 0.13469101 -0.033402815 -0.18070504 0.08641831 0.2263897 -0.21493487 -0.024756778 -0.48778704
134 -0.23920763 -0.20415924 0.36948618 -0.2897461 -0.07790239 0.140773 0.30636385 -0.36533332 0.35993922 -0.12728684 0.15226413 0.018150339 0.17017749 -0.034696996 -0.18057093 0.1767215 0.16215596 -0.12294509 -0.08240787 -0.42817542
23 -0.3578392 -0.096821114 0.35477373 -0.42702344 0.050490327 -0.107882634 0.18042928 -0.3134453 0.32868132 0.017686488 0.21853982 -0.09058184 0.07933864 -0.1315216 -0.23916823 -0.12215774 0.14573316 0.018433485 -0.17138284 -0.41505432
25 -0.3764426 -0.26579848 0.2957652 -0.26003286 0.11220633 -0.061850753 0.2044221 -0.39852434 0.25184762 -0.06900267 0.33304155 -0.061540727 0.05399412 -0.007938502 -0.3188488 -0.039171215 0.22215337 -0.09850595 -0.1724642 -0.3301199
174 -0.31735 -0.24084665 0.4441847 -0.33808452 0.13319807 0.0852074 0.115992576 -0.19381574 0.37806362 -0.079296455 0.014655855 0.026053172 0.08680033 0.13189767 -0.109660216 0.085602045 0.2687844 -0.09278102 -0.034690052 -0.50674444
76 -0.19602333 -0.35090598 0.22634384 -0.30687556 -0.023052448 0.14154966 0.13235253 -0.2008102 0.39411995 -0.12737578 0.0022894384 -0.003894129 0.16931245 0.05690237 -0.30220985 -0.0052202577 0.22526374 -0.12491504 -0.31287757 -0.4976256
41 -0.36886334 -0.21994448 0.3161008 -0.3143373 0.16161515 -0.23419102 0.26287052 -0.36337402 0.3912973 0.12006547 0.24697585 -0.032132395 0.022372399 0.092776634 -0.20583853 0.033466835 0.11056735 -0.047526486 -0.1749658 -0.3537573
44 -0.3426259 -0.29454565 0.24594437 -0.4157147 0.17806914 0.016320944 0.29187286 -0.38573375 0.24472268 -0.018937495 0.13766101 0.0475334 -0.016851062 -0.14121369 -0.17506039 0.06957108 0.28945073 -0.1122478 -0.025019879 -0.35476658
73 -0.2677945 -0.23429373 0.34066188 -0.37256864 -0.044936374 0.14322944 0.1910169 -0.17160574 0.31059492 0.0040459004 0.03214552 0.09892089 0.1799993 0.09586542 -0.14175491 0.029226055 0.3290662 -0.18824324 -0.10772748 -0.53075945
55 -0.35409027 -0.18097731 0.3238351 -0.3444719 0.11342934 0.08059071 0.1572543 -0.35050672 0.41959023 0.08191149 0.18577561 0.0665112 0.06833187 -0.16390203 -0.2650311 -0.023376077 0.18293081 -0.025872298 -0.07625185 -0.3552035
88 -0.3864315 -0.18397155 0.34103975 -0.28436136 0.058141556 -0.06791268 -0.018479904 -0.20088132 0.32953382 -0.086776964 0.029987454 0.060695164 0.18941182 0.04714736 -0.20530911 0.102442704 0.29467538 -0.19738394 -0.16268805 -0.57342964
27 -0.31436002 -0.16325888 0.2284697 -0.3563072 0.08216679 0.01769935 0.17645073 -0.39255056 0.35963556 0.014604479 0.28522128 0.12567918 0.04968277 -0.16899659 -0.3288909 -0.09216828 0.23930027 -0.24988274 -0.14239568 -0.29142928
98 -0.29724175 -0.08586513 0.33099332 -0.5399496 0.1420088 0.09673362 0.042399254 -0.05781939 0.32969305 0.0062936815 0.27992496 -0.003054104 0.2549778 0.065932505 -0.28186584 0.08884327 0.22825718 -0.1025605 -0.0416273 -0.44817534
43 -0.33961734 -0.2417066 0.27804783 -0.24786104 0.21807775 -0.039229553 0.2133038 -0.283473 0.42452615 0.020005671 0.19657713 -0.13608149 0.18316011 -0.04739093 -0.34825295 0.03637203 0.15168083 -0.06351864 -0.19504476 -0.32130256
35 -0.26008886 -0.16894704 0.32117152 -0.44677892 0.08093478 0.08082507 0.23261008 -0.38474634 0.35892135 -0.13685848 0.041741997 0.064452626 0.007705296 -0.1451856 -0.17333297 -0.052174784 0.19450116 -0.17749731 -0.19243862 -0.37807512
122 -0.30216232 -0.2258333 0.3925265 -0.2944249 0.19953904 0.09050864 0.08678017 -0.17128238 0.42211473 -0.18208762 0.05712866 -0.056718037 0.05637712 0.04987203 -0.2646973 0.06380668 0.29484686 -0.16588122 -0.040348474 -0.4315687
15 -0.27792558 -0.28289613 0.31848383 -0.21945609 0.10279613 -0.036311287 0.19008893 -0.19557767 0.3517269 -0.13928373 0.18618983 0.04235142 0.1709493 -0.041328292 -0.28862712 0.010728037 0.20637311 -0.2647003 -0.1771298 -0.43243527
37 -0.21695225 -0.23836958 0.28741303 -0.24432471 0.30215812 -0.039091393 0.16996317 -0.36758897 0.35777828 0.08500751 0.3018628 -0.006085794 0.044046503 -0.06084388 -0.33021247 0.06862598 0.16790769 -0.1487306 -0.22018495 -0.36165538
4 -0.34089127 -0.089857295 0.41489866 -0.28508967 -0.11399668 -0.045378856 0.2686275 -0.35756552 0.3483599 0.00721308 0.08826497 0.08040973 0.007765284 0.020896845 -0.33011508 0.08848107 0.16313764 -0.17658281 -0.093835965 -0.37904823
140 -0.31738675 -0.20529999 0.4064193 -0.1876214 0.13181485 0.053283144 0.2279691 -0.30174944 0.36782977 -0.14814103 0.15878235 -0.08923396 0.06565289 0.0725544 -0.11826663 0.22984678 0.18582882 -0.115403265 -0.13454105 -0.528257
20 -0.3910133 -0.30279988 0.34240228 -0.28214452 0.03661305 0.01347315 0.12028634 -0.2716384 0.41970724 -0.07750947 0.22085638 -0.04802883 0.15471682 -0.13109681 -0.268094 -0.08067042 0.16877663 -0.11176176 -0.021312319 -0.33396357
2 -0.3030079 -0.22854242 0.20643917 -0.30430552 0.19868116 0.21619718 0.2052145 -0.3005503 0.35788748 0.18563618 0.1899548 0.06128743 0.08049656 -0.05187507 -0.46275136 -0.043707266 0.2156017 -0.053754173 -0.30290413 -0.2887085
29 -0.25842896 -0.22594197 0.24993363 -0.38173744 0.21193092 0.07144572 0.2619195 -0.415285 0.3053748 -0.007358225 0.1787721 0.09866641 0.11899303 -0.17636509 -0.35316122 0.061590146 0.07137184 -0.23333886 -0.3017613 -0.23596531
34 -0.36025584 -0.23282273 0.3385111 -0.3597124 0.1458255 0.0654813 0.06512755 -0.3094745 0.31779593 -0.13885878 0.03684655 0.043636806 0.09180748 -0.089839414 -0.3752099 0.11658337 0.18169534 -0.020735055 -0.047777746 -0.41389224
24 -0.25818995 -0.06344038 0.2687388 -0.55337006 0.045931444 0.001487009 0.15278327 -0.29178455 0.39387438 0.104109906 0.09584471 0.117244184 0.16064663 -0.13330963 -0.16937284 0.11490241 0.21268277 -0.066393435 -0.291178 -0.3851863
66 -0.21204296 -0.27754942 0.2699113 -0.30721724 -0.04444703 -0.015192875 0.25166464 -0.24649258 0.3916627 -0.1275006 0.02176897 0.10499866 0.23880164 -0.027643587 -0.19786797 0.040112816 0.25237456 -0.12340965 -0.10681345 -0.52938414
57 -0.33981746 -0.2325105 0.32492256 -0.3279935 -0.10135166 0.020373099 0.30799383 -0.24213625 0.3762852 0.1180954 0.0043308525 -0.00331245 0.15405296 -0.04972825 -0.19770655 -0.048131835 0.13195392 -0.12384136 -0.11367627 -0.473632
39 -0.3321649 -0.12994365 0.31447977 -0.34589 -0.034332678 0.006748218 0.21593904 -0.37555677 0.37588987 0.114963666 0.041043423 0.027503729 0.13402422 -0.07363852 -0.13437216 -0.07498136 0.21823408 -0.11773525 -0.193945 -0.4735796
0 -0.27530053 -0.20609316 0.2540411 -0.37206227 0.030393329 -0.004335199 0.2843871 -0.30579108 0.26628488 -0.08214223 0.22104856 -0.077175684 0.010328495 -0.08190294 -0.25282365 0.04024272 0.25229782 -0.20473333 -0.165224 -0.39943227
