124 16
58 0.215306 -0.492933 -0.386786 0.698665 0.134784 -0.35572 -0.223163 -0.50888 0.467594 0.740318 -0.145745 -0.141861 0.464292 0.422793 -0.489612 -0.0769396
46 -0.187446 -0.19857 0.0188014 1.01488 0.456869 -0.234487 -0.259636 -0.913732 0.286389 1.06444 -0.276314 -0.236399 0.580983 0.420095 -0.407895 -0.0514116
30 -0.335428 -0.284569 0.0507356 0.836881 0.533717 -0.333709 -0.202473 -0.452452 0.382856 1.22962 -0.174478 0.0948289 0.254065 0.257487 -0.458732 -0.116597
22 -0.435002 -0.587804 0.169443 0.91513 0.61461 -0.0127046 -0.317676 -0.679226 0.37051 1.08568 -0.472421 -0.163466 0.93306 0.162188 -0.238521 -0.0190302
12 -0.358149 -0.327727 0.107225 0.757067 0.550832 -0.0299643 -0.331436 -0.561378 0.372331 1.24122 -0.433499 -0.158293 0.922215 0.417709 -0.269032 0.102397
26 -0.411212 -0.577432 0.0905155 0.874852 0.59005 -0.0614944 -0.248816 -0.631861 0.456876 1.1166 -0.55023 -0.13148 0.739652 0.266435 -0.336792 -0.0545939
13 -0.403344 -0.390428 0.127862 0.932614 0.462879 -0.133837 -0.449171 -0.537674 0.498163 1.16776 -0.552227 -0.0562098 0.935216 0.449861 -0.0674257 0.11595
31 -0.267942 -0.479358 0.145909 0.755669 0.244862 -0.420799 -0.107991 -0.72515 0.0485293 1.08711 0.07606 -0.149559 0.473549 0.440386 -0.410629 0.156179
32 -0.070623 -0.372002 0.0651173 0.834236 0.120187 -0.188849 -0.11421 -0.618698 0.201564 1.12002 0.0373248 -0.132515 0.224264 0.367412 -0.649812 0.0789029
40 -0.0711317 -0.345599 -0.0699842 1.25297 0.287433 -0.164393 -0.493242 -0.476898 0.11819 0.881928 -0.0778463 0.157042 0.563604 0.345366 -0.332453 -0.0752517
53 0.168302 -0.696083 -0.387485 0.629029 0.203832 -0.189214 -0.280597 -0.522123 0.469099 0.751392 -0.117339 -0.102149 0.244761 0.554486 -0.498668 0.0180783
0 -0.335203 -0.734505 0.384458 0.923896 0.880906 0.043911 -0.19702 -0.594686 0.338043 1.07047 -0.270706 -0.135576 0.784682 0.481784 0.0369974 -0.146273
7 -0.301915 -0.530164 0.197481 0.838871 0.6373 0.0341286 -0.350183 -0.71511 0.373078 1.08581 -0.423554 -0.175558 0.806471 0.2758 -0.288261 -0.104201
39 -0.405131 -0.402457 0.01191 0.976258 0.355357 -0.218749 -0.16891 -0.369283 0.143115 1.08628 -0.239115 0.0728136 0.489883 0.368444 -0.543725 -0.0292216
55 -0.0451104 -0.635025 -0.373577 0.568355 0.162437 -0.327351 -0.144865 -0.563448 0.217613 0.836681 -0.234448 -0.00212753 0.247396 0.632414 -0.661808 -0.0286626
45 0.267681 -0.483207 -0.38256 0.81704 0.192787 -0.2998 -0.38761 -0.601744 0.3821 0.81084 -0.266147 -0.148129 0.17854 0.374693 -0.525286 -0.00280577
54 -0.00735322 -0.688382 -0.447358 0.540772 0.237475 -0.28048 -0.101058 -0.490771 0.245655 0.817278 -0.316137 -0.0216063 0.196715 0.628305 -0.685459 -0.0480571
59 0.199484 -0.524805 -0.418748 0.696343 0.16089 -0.28505 -0.326098 -0.559518 0.407783 0.793188 -0.148588 -0.0415611 0.164106 0.541298 -0.511553 0.00352839
67 -0.119727 -0.27501 0.0822844 0.635119 0.508129 -0.543502 -0.41903 -0.258247 0.34739 0.0675771 -0.126692 -0.43585 0.135165 0.60296 -0.735286 0.319083
60 0.334571 -0.394983 0.198307 0.213347 0.369115 -0.832296 -0.684137 -0.0284545 0.343273 0.189347 0.142283 -0.00740189 0.120056 0.574349 -0.969332 0.290839
114 0.50357 -0.499808 0.25382 0.367224 0.408382 -0.766965 -0.535153 0.248188 0.253953 0.242997 0.180019 -0.0713775 0.290516 0.560573 -0.949992 0.095174
70 -0.00956394 -0.257707 0.201796 0.583175 0.501964 -0.458615 -0.48637 -0.315803 0.447467 0.157615 -0.305215 -0.545776 0.114627 0.573533 -0.68648 0.217217
47 0.14126 -0.39153 -0.247539 0.670677 0.0698345 -0.270701 -0.215531 -0.64031 0.493545 0.844525 -0.165652 -0.0497415 0.311992 0.359542 -0.666878 -0.00137149
33 -0.236184 -0.443212 -0.0226011 0.811089 0.528422 -0.29366 -0.23255 -0.709385 0.0935077 1.00187 0.043408 0.115559 0.241565 0.41423 -0.403374 0.214165
38 -0.156786 -0.34024 0.0965606 0.881132 0.542543 -0.0731817 -0.0854702 -0.612861 0.236921 1.12273 -0.105476 -0.0186308 0.461739 0.310201 -0.564356 0.120927
21 -0.365214 -0.340159 0.188047 0.906138 0.571792 -0.00274921 -0.447485 -0.517581 0.380128 1.23522 -0.570559 -0.246249 0.863177 0.28984 -0.200763 0.00538183
16 -0.433766 -0.489425 0.149685 0.936261 0.678158 -0.0120201 -0.380503 -0.691982 0.274723 1.17396 -0.444849 -0.164917 0.816125 0.132383 -0.320699 -0.114522
15 -0.328542 -0.413117 0.0926149 0.988122 0.581423 0.0326724 -0.482708 -0.494742 0.353479 1.21063 -0.4338 -0.129089 0.92401 0.381955 -0.17204 0.0903353
42 -0.202323 -0.444139 0.407382 0.936847 0.27621 -0.306455 -0.322928 -0.574613 0.0699622 1.03206 -0.316842 -0.0611343 0.441619 0.584282 -0.258125 -0.293347
57 0.0110091 -0.620088 -0.421678 0.64494 0.195798 -0.302253 -0.100244 -0.497651 0.159257 0.77854 -0.271604 -0.0856256 0.344318 0.687084 -0.621191 0.00481615
48 0.181626 -0.544175 -0.237739 0.703879 0.199571 -0.230416 -0.304328 -0.514425 0.419601 0.666713 -0.170999 -0.17741 0.145014 0.556792 -0.559243 0.056326
71 0.189128 -0.431239 0.35842 0.394715 0.295116 -0.619336 -0.480303 -0.225907 0.361584 0.371501 0.0302432 -0.269796 -0.148916 0.333541 -0.998695 0.295565
49 0.0118511 -0.694461 -0.229815 0.57304 0.32417 -0.0958719 -0.092721 -0.470915 0.176481 0.854211 -0.170736 -0.178155 0.196449 0.583011 -0.644576 0.0530126
94 0.229632 -0.628396 0.401808 0.468362 0.149213 -0.629203 -0.580726 0.309795 0.297309 0.0211864 0.348948 -0.168257 0.388975 0.421764 -1.20797 0.169182
91 0.353754 -0.423342 0.237312 0.226802 0.433438 -0.709537 -0.511054 0.170594 0.418801 0.193655 0.0538304 0.138326 0.255402 0.520687 -1.1658 0.0152065
120 0.0676099 -0.495163 0.595537 0.499054 0.439973 -0.496694 -0.666427 0.5099 0.55207 0.00822329 0.225815 0.0598532 0.142745 0.519025 -1.12268 0.00363411
82 0.582889 -0.590941 0.328924 0.250001 0.334869 -0.723368 -0.571375 0.123208 0.128287 0.397861 -0.0691951 -0.0275631 -0.0515919 0.437142 -0.992015 0.210489
89 0.474835 -0.526872 0.261222 0.20598 0.415404 -0.808911 -0.45464 0.0731015 0.335214 0.252829 0.0698222 0.0946485 0.149281 0.39686 -1.12737 0.208187
109 0.0621904 -0.327538 0.463364 0.485822 0.38683 -0.653441 -0.806305 0.414829 0.38765 0.043766 0.259106 0.0168077 0.258061 0.43369 -1.1048 -0.0834345
119 0.190641 -0.283866 0.52988 0.434739 0.494933 -0.461749 -0.680326 0.382243 0.428529 0.054039 0.211158 0.200539 0.23438 0.635888 -1.11649 -0.0200083
122 0.255163 -0.430829 0.560868 0.500155 0.412705 -0.497947 -0.544697 0.38523 0.177531 0.0983463 0.364474 -0.137306 0.364391 0.545118 -1.11657 0.0494446
44 0.0431725 -0.452009 -0.195166 0.826585 0.078496 -0.35132 -0.283526 -0.647031 0.420095 0.805969 -0.0842 -0.0805609 0.189165 0.359355 -0.58077 0.0366459
62 0.389343 -0.542732 0.192073 0.525211 0.419422 -0.369158 -0.568836 -0.156829 0.0555587 0.422911 0.0604092 -0.226676 -0.287856 0.546981 -0.92476 0.477437
50 0.0242231 -0.637586 -0.279828 0.70129 0.0850088 -0.345656 -0.073967 -0.540936 0.319007 0.817034 -0.216725 -0.109636 0.233606 0.547201 -0.64937 0.0231395
29 -0.284762 -0.3566 0.0657805 0.835689 0.500412 -0.235435 -0.357722 -0.594785 0.206496 1.21008 -0.1999 0.0484538 0.312839 0.460333 -0.384354 -0.02469
69 0.0430979 -0.426369 0.244998 0.868478 0.247371 -0.485498 -0.349077 -0.395299 0.155644 -0.0516691 -0.519249 -0.111273 0.163322 0.594562 -0.786904 0.369013
84 -0.0283432 -0.24306 0.177854 0.36571 0.405476 -0.765796 -0.305421 0.113814 0.171578 0.348309 -0.200706 -0.447784 0.042639 0.794967 -0.96899 0.161854
103 0.319222 -0.5034 0.333361 0.316098 0.59025 -0.522848 -0.634216 0.468939 0.43475 0.0999401 0.156057 -0.0795623 0.225181 0.665603 -0.964225 -0.0928038
95 0.207299 -0.241555 -0.0547173 0.431065 0.76675 -0.410389 -0.535518 0.356032 0.414274 0.184958 0.282827 0.0596164 0.244597 0.506151 -1.08581 0.257363
73 0.302903 -0.63132 0.18643 0.247889 0.245557 -0.844606 -0.469298 0.246068 0.434735 0.187891 0.0844536 0.043343 0.259082 0.47937 -1.06899 0.0996011
86 0.447547 -0.499175 0.240901 0.219877 0.407369 -0.5812 -0.515568 0.129518 0.35615 0.162986 0.185646 0.128804 0.334231 0.578726 -1.18894 0.240484
117 0.101655 -0.560078 0.488635 0.389153 0.227854 -0.663584 -0.728378 0.333835 0.213235 0.12824 0.257382 -0.139848 0.321462 0.311268 -1.13603 -0.0387243
118 0.359892 -0.239973 0.497069 0.41154 0.5543 -0.593896 -0.450472 0.186348 0.247534 0.276344 0.330277 0.0117058 0.191946 0.384065 -1.14749 0.187973
98 0.197052 -0.423599 0.594905 0.485162 0.456764 -0.385102 -0.62773 0.337793 0.416881 0.0182179 0.322337 0.00780245 0.180411 0.624987 -1.07053 -0.0325777
106 0.104111 -0.517402 0.625131 0.431154 0.540683 -0.676102 -0.629008 0.254237 0.293529 -0.0784229 0.153256 -0.0365851 0.10127 0.396264 -1.2835 0.0612923
96 0.400283 -0.46003 0.132015 0.435147 0.445028 -0.855227 -0.417063 0.274692 0.446053 0.20004 0.248991 -0.00509306 0.214128 0.483577 -0.977827 0.144425
90 0.491567 -0.344024 0.210169 0.129562 0.475445 -0.634376 -0.60921 0.178488 0.520632 0.217476 0.130256 0.0750216 0.240037 0.730432 -1.10781 0.0944313
74 0.449921 -0.364299 0.191317 0.291221 0.381773 -0.786412 -0.365799 0.151217 0.393109 0.221662 0.00705171 0.0993202 0.240643 0.642411 -1.00007 0.338177
77 0.511203 -0.492354 0.219722 0.423621 0.447678 -0.755473 -0.266475 0.173258 0.448869 0.210419 0.105285 -0.0491741 0.203609 0.516625 -0.926406 0.106122
102 0.303123 -0.282719 0.492815 0.448388 0.557056 -0.370686 -0.680086 0.333957 0.451988 0.0406337 0.234618 0.0574948 0.199551 0.639416 -1.06172 -0.0876445
72 -0.173642 -0.244653 0.158717 0.512752 0.414575 -0.449693 -0.476094 -0.272448 0.422514 0.13692 -0.220343 -0.221715 0.139769 0.716988 -0.776327 0.342599
66 -0.047404 -0.44418 0.113932 0.771831 0.355244 -0.531957 -0.359914 -0.0301781 0.575212 0.232554 -0.239482 0.0785345 -0.273836 0.576627 -0.851562 0.470152
35 -0.225492 -0.440958 0.0826879 0.722813 0.398222 -0.264125 -0.109228 -0.641102 0.0682325 1.17024 -0.00352301 -0.187797 0.575249 0.456187 -0.444001 0.147387
56 0.12657 -0.631517 -0.276328 0.734451 0.210878 -0.104865 -0.328585 -0.501377 0.209703 0.819262 -0.118267 -0.172507 0.115822 0.449273 -0.613448 -0.00749111
36 -0.111541 -0.376009 0.106803 0.895821 0.360973 0.000925858 -0.400179 -0.697111 0.488029 1.04373 -0.0261558 0.231299 0.444181 0.472605 -0.337263 0.0792663
10 -0.428089 -0.511297 0.101712 0.964663 0.702123 -0.102548 -0.264352 -0.63119 0.517296 1.08771 -0.518082 -0.0781383 0.734956 0.255263 -0.228873 -0.0398268
11 -0.351543 -0.428375 0.194458 0.962962 0.571905 -0.0109385 -0.332533 -0.721645 0.373531 1.11132 -0.378067 -0.201327 0.861108 0.290909 -0.288789 -0.0235488
61 -0.062544 -0.303928 0.200063 0.510573 0.522072 -0.389675 -0.465592 -0.362909 0.401498 0.0852373 -0.267624 -0.358051 0.0260853 0.584246 -0.87558 0.225253
20 -0.312122 -0.539973 0.117905 1.02425 0.707175 -0.0654341 -0.292259 -0.81188 0.317826 1.0063 -0.524449 -0.112847 0.822502 0.194312 -0.274253 0.00679832
75 0.0109661 -0.142308 0.207703 0.462353 0.391395 -0.43926 -0.43417 -0.513025 0.578161 0.17274 -0.214612 -0.226818 0.071745 0.81574 -0.742704 0.121195
3 -0.394354 -0.377499 0.245014 0.900137 0.497351 -0.077357 -0.407918 -0.511299 0.391243 1.18139 -0.513244 -0.21704 0.883833 0.334381 -0.171501 0.0564455
5 -0.385471 -0.285014 0.127723 0.89613 0.458331 -0.110206 -0.411741 -0.563812 0.42863 1.24601 -0.579894 -0.150899 0.978347 0.38386 -0.189199 0.0706255
51 -0.247855 -0.308247 0.0227704 0.855847 0.477083 -0.0980948 -0.375953 -0.443133 0.359386 1.29631 -0.369923 -0.207756 0.738676 0.316519 -0.28622 0.0775479
14 -0.227568 -0.432101 0.133723 1.00085 0.577205 0.161698 -0.273721 -0.49774 0.410677 1.35615 -0.416938 -0.276689 0.815726 0.299912 -0.297175 0.106892
34 -0.351351 -0.467496 0.114371 0.917907 0.590785 -0.233019 -0.26855 -0.453226 0.109105 1.08418 -0.128808 -0.0108186 0.424098 0.422951 -0.371873 -0.149105
18 -0.347708 -0.539099 0.110084 0.998874 0.768582 -0.027738 -0.224076 -0.747084 0.411795 1.07647 -0.406621 -0.212936 0.846254 0.211874 -0.255364 -0.00619938
83 0.273658 -0.57561 0.218799 0.200787 0.305969 -0.740166 -0.784461 0.213473 0.399398 0.296436 0.288966 -0.0407743 0.201914 0.509018 -0.944479 0.29628
121 0.0860875 -0.389202 0.548237 0.304157 0.44172 -0.984046 -0.682552 0.213222 0.531533 -0.0888943 -0.00224144 0.040715 0.279527 0.43065 -1.11268 0.0763087
65 0.552869 -0.522111 0.106476 0.339854 0.49425 -0.670255 -0.28992 0.0250745 0.269969 0.302454 -0.079876 0.110785 0.0261542 0.383568 -1.1431 0.386048
81 0.31907 -0.515754 0.253934 0.132959 0.3502 -0.667198 -0.684759 -0.0586907 0.322989 0.371163 0.0459685 -0.0647945 0.0148189 0.522068 -0.889911 0.234601
28 -0.25902 -0.276643 0.0344987 0.736762 0.444593 -0.222728 -0.179776 -0.504116 0.0706179 1.12826 -0.0601214 0.170262 0.163236 0.581072 -0.504427 0.0822697
27 -0.357788 -0.570862 0.0146697 0.909746 0.689308 -0.160195 -0.313313 -0.582239 0.507 1.19911 -0.337016 -0.337195 0.763832 0.257708 -0.151878 -0.0293712
23 -0.511364 -0.604253 0.117751 0.960641 0.627507 -0.186052 -0.272643 -0.747353 0.338872 1.02429 -0.499337 -0.353119 0.852942 0.249475 -0.282594 -0.139629
6 -0.450733 -0.575566 0.154737 0.875264 0.684822 -0.195206 -0.266705 -0.72664 0.322146 1.15784 -0.338163 -0.184777 0.750701 0.31046 -0.170134 -0.0346092
43 -0.313438 -0.226656 0.0309847 0.797332 0.356938 -0.220649 -0.249178 -0.412736 0.20618 1.20396 -0.197384 0.116303 0.496488 0.521404 -0.434595 0.225893
108 0.108135 -0.38184 0.555413 0.292324 0.553272 -0.608577 -0.536929 0.405364 0.428131 0.0803224 0.215824 -0.190558 0.220352 0.565475 -1.19782 0.072688
111 0.170831 -0.541949 0.504066 0.355579 0.223631 -0.559322 -0.576922 0.296969 0.406565 0.0355657 0.214362 0.00419641 0.368934 0.459942 -1.15808 -0.146896
115 0.156493 -0.679328 0.305818 0.325105 0.437825 -0.479311 -0.611811 0.405638 0.39721 0.0322782 0.286622 -0.141958 0.291351 0.553804 -1.07989 -0.0482299
112 0.323555 -0.373343 0.295742 0.399557 0.433205 -0.835221 -0.594681 0.432125 0.485594 0.331797 0.0738405 0.132492 0.0637333 0.535351 -0.903102 0.169708
100 0.163123 -0.46627 0.509704 0.411032 0.422793 -0.419532 -0.684754 0.438237 0.414846 0.0724277 0.306254 0.041097 0.252882 0.608049 -1.05028 -0.0492643
93 0.0993737 -0.614094 0.411646 0.196293 0.314393 -0.658218 -0.692385 0.184427 0.254794 0.236124 0.484252 -0.0690629 0.275285 0.409018 -1.05606 0.304686
79 0.472315 -0.405018 0.130256 0.418114 0.257508 -0.858354 -0.481289 0.241232 0.319368 0.24075 0.0615282 0.0423436 0.176623 0.587072 -0.977887 0.295982
113 0.493696 -0.430349 0.269379 0.423993 0.354763 -0.659474 -0.499687 0.323386 0.368995 0.250587 0.183245 -0.102784 0.2256 0.600706 -0.984464 0.195586
85 0.262346 -0.443384 0.106013 0.114538 0.431196 -0.826845 -0.617249 0.0578794 0.219716 0.252232 0.169593 -0.111064 0.186928 0.569623 -1.01541 0.166838
88 0.211947 -0.654976 0.250286 0.131078 0.390201 -0.908427 -0.78435 0.102713 0.345458 0.148412 0.345526 0.056334 0.253743 0.511045 -0.868428 0.210574
64 0.373102 -0.492442 0.230147 0.276644 0.427714 -0.694977 -0.289581 0.0841855 0.367277 0.299719 0.0405742 -0.203339 0.0359947 0.558555 -1.04315 0.242423
80 0.553455 -0.622447 0.307633 0.122592 0.396251 -0.756216 -0.557284 -0.074682 0.198144 0.262529 -0.0387287 0.19075 0.123143 0.534279 -0.891636 0.304616
76 0.496912 -0.413765 0.257063 0.397584 0.381981 -0.896475 -0.338754 0.180656 0.320856 0.129926 0.119441 0.042577 0.292083 0.543345 -0.908595 0.269693
107 0.312655 -0.299593 0.557477 0.393745 0.420469 -0.434529 -0.505622 0.235929 0.378131 0.0189194 0.255739 -0.141363 0.356618 0.644519 -1.17272 -0.0742498
104 0.167271 -0.753003 0.338266 0.452988 0.403986 -0.393348 -0.720924 0.569223 0.486259 0.00258671 0.151023 -0.0847164 0.163392 0.767043 -0.907188 -0.0806128
92 0.360446 -0.412165 0.396179 0.302822 0.277376 -0.666386 -0.594029 0.32708 0.327153 0.389125 0.209811 -0.265549 0.128644 0.527631 -1.14984 0.198113
37 0.0251022 -0.327145 0.0595399 1.15777 0.473997 -0.0379819 -0.469988 -0.637125 0.369074 0.912389 -0.158787 0.0772012 0.516593 0.321266 -0.30685 -0.0170584
99 0.188339 -0.352397 0.604517 0.393584 0.518969 -0.404704 -0.566949 0.322078 0.499581 -0.0323285 0.306523 -0.0168055 0.305387 0.703839 -1.07977 0.0578945
52 0.159672 -0.708311 -0.276526 0.740867 0.269722 -0.0604808 -0.295035 -0.44342 0.206313 0.789416 -0.0802129 -0.1561 0.214495 0.56013 -0.474968 0.0365689
78 0.449482 -0.619576 0.154739 0.229607 0.464079 -0.883939 -0.707326 0.14867 0.195616 0.206155 0.105314 0.0989278 0.104961 0.609011 -0.90276 0.317249
123 -0.0114534 -0.522269 0.419122 0.297539 0.379681 -0.907324 -0.534897 0.262623 0.540617 -0.0346891 0.15261 0.0485363 0.181786 0.536435 -1.16755 0.0107435
116 0.466081 -0.447335 0.187282 0.379592 0.474808 -0.897636 -0.496516 0.303326 0.338811 0.209477 0.234383 -0.101359 0.249298 0.50522 -0.971367 -0.0273685
8 -0.350056 -0.358468 0.0836178 0.931267 0.554151 -0.00300678 -0.465078 -0.652784 0.426331 1.20549 -0.521205 -0.20454 0.825704 0.15916 -0.342303 -0.096746
24 -0.354367 -0.501575 0.0860388 0.91119 0.677184 -0.0944285 -0.331887 -0.678927 0.367309 1.07597 -0.448569 -0.131116 0.788018 0.216124 -0.264685 0.00802265
87 0.400507 -0.596416 0.241146 0.175793 0.485906 -0.770451 -0.488416 0.217924 0.362692 0.364226 0.080089 0.00314493 0.0371564 0.410371 -1.0345 0.195609
41 -0.0926398 -0.258531 0.0805991 0.706371 0.393454 -0.140694 -0.195071 -0.757086 0.209016 1.11352 -0.124164 -0.0650243 0.638762 0.543044 -0.514283 -0.0695282
110 0.314868 -0.54635 0.355553 0.493292 0.478768 -0.57444 -0.646041 0.550873 0.193706 0.179556 0.0214373 0.0692807 0.127089 0.624611 -0.976795 0.156359
105 0.240976 -0.30415 0.540559 0.427542 0.474807 -0.495201 -0.667301 0.383272 0.475289 0.0993688 0.275337 -0.0222921 0.179087 0.667462 -1.03865 0.000931549
1 -0.3038 -0.551906 0.326881 0.931779 0.575587 -0.0233564 -0.23588 -0.408499 0.412615 1.13498 -0.314223 -0.157054 0.840624 0.59514 0.0459692 0.0374435
63 0.496371 -0.478344 0.236399 0.236189 0.367982 -0.782293 -0.419728 0.120934 0.373402 0.253151 0.168229 -0.0742255 0.160546 0.494583 -1.06671 0.278776
101 0.244756 -0.326232 0.407715 0.489428 0.339267 -0.590117 -0.567691 0.36438 0.20495 0.145402 0.291079 -0.100559 0.343296 0.379045 -1.19135 0.0730562
68 0.603122 -0.431672 0.337762 0.378447 0.400021 -0.764637 -0.393669 0.0854173 0.319658 0.276758 -0.0848719 0.0677786 0.0802141 0.485728 -0.915846 0.269011
97 0.332491 -0.473708 0.114485 0.281536 0.437928 -0.831873 -0.526706 0.341528 0.370727 0.244075 0.173304 0.00231417 0.259127 0.555832 -1.02255 0.139577
2 -0.282618 -0.517145 0.142412 0.957498 0.762054 -0.0919577 -0.196366 -0.692579 0.470396 1.15187 -0.411863 -0.231635 0.752826 0.34553 -0.152602 -0.202409
19 -0.391623 -0.528493 0.0528112 0.952304 0.71489 -0.0919889 -0.305574 -0.667272 0.3687 1.04249 -0.497503 -0.126753 0.893708 0.259901 -0.216155 0.00419274
4 -0.35335 -0.278187 0.213413 0.823811 0.549469 -0.0167997 -0.373466 -0.46789 0.439875 1.26743 -0.458992 -0.256056 0.928007 0.359033 -0.180729 0.0530823
9 -0.285258 -0.505639 0.175752 0.878837 0.708503 -0.0180954 -0.218675 -0.777905 0.433458 1.10359 -0.432958 -0.0240738 0.726855 0.197913 -0.324453 -0.0803768
25 -0.221824 -0.554703 0.124937 0.841673 0.652765 0.0272614 -0.410099 -0.68949 0.335304 1.07291 -0.54114 -0.122482 0.797099 0.293324 -0.318668 0.00231993
17 -0.420393 -0.514503 0.141748 0.895993 0.603338 -0.0233922 -0.244918 -0.787368 0.440507 1.15819 -0.379273 -0.157932 0.876547 0.215294 -0.314314 -0.048249
