124 28
72 -0.10563537 0.40731218 0.31565902 0.05070618 -0.08532735 0.24592406 -0.103447296 0.06711181 -0.23779209 0.1884391 0.2538389 0.0421767 0.07733429 -0.14956886 -0.19668019 -0.13979593 -0.2082664 -0.097873256 -0.09665227 0.25245008 0.031027673 0.3183075 -0.025021642 0.12187834 -0.2783598 0.27399182 -0.25288856 -0.25200102
70 -0.11465931 0.32557982 0.297389 0.08417448 -0.063377306 0.28675774 -0.22514227 0.11425123 -0.065260366 0.107115604 0.2167728 -0.022187166 0.021055492 -0.18346816 -0.22140907 -0.059282538 -0.2630445 -0.18743652 -0.14122915 0.067747034 0.09899921 0.28915924 -0.0061978977 0.16241552 -0.29372352 0.32348928 -0.20336315 -0.21814935
61 -0.035867363 0.24554007 0.41187537 0.045472387 -0.056760143 0.28797418 -0.25768137 0.1167972 -0.18190306 0.27708635 0.23059528 0.03146412 -0.096036665 -0.09286861 -0.17074288 -0.066850305 -0.29754883 0.037333615 -0.08844164 0.18052386 0.09710725 0.29785892 -0.015894469 0.21098278 -0.33027825 0.3418071 -0.17594436 -0.19502635
67 -0.028276986 0.4404857 0.36371168 0.19166309 -0.20339447 0.3475322 0.005727954 0.13633515 -0.20777327 0.17402172 0.17233923 -0.027533581 0.033189114 -0.05791858 -0.28577995 -0.08933537 -0.28313276 -0.061314445 0.040348507 0.114629395 0.0273478 0.31402665 0.021358054 0.058103632 -0.2179661 0.2569608 -0.27025497 -0.2348157
75 -0.091929585 0.40739146 0.33116892 0.036835574 -0.13842691 0.19607085 -0.13362996 0.18954232 -0.033769768 0.20045292 0.18771084 0.0039964877 0.009552613 -0.10402732 -0.15747371 -0.048454016 -0.27227953 -0.20207235 -0.05847921 0.1689928 0.0012732068 0.12316771 0.08543115 0.17433928 -0.26972315 0.31953725 -0.103141926 -0.34852728
84 -0.08775521 0.38980904 0.27349997 0.09858562 -0.14808954 0.33048365 -0.04183788 0.103287406 -0.24681653 0.1814809 0.3739572 -0.0458265 -0.057494227 -0.16461408 -0.2848635 0.003306672 -0.33137995 -0.06114283 -0.025921112 0.1321784 0.0058046845 0.31321713 -0.05093448 0.054782696 -0.24410088 0.4272188 -0.3065372 -0.11144471
69 -0.15016049 0.45302752 0.3586575 -0.015627742 -0.075595886 0.3440654 -0.06850188 0.15904692 -0.025540076 0.11666439 0.122953884 0.06795258 -0.076219104 -0.11603657 -0.25043797 -0.048521426 -0.17782088 -0.052475907 0.06786703 0.06800703 0.046501324 0.118968815 0.17558564 0.15106848 -0.39069882 0.33197725 -0.12939914 -0.20968656
35 -0.09410164 0.14589897 0.27087992 0.07498178 0.15092738 0.53518367 0.022361105 0.16449425 0.3938445 0.035162397 0.277247 -0.071491435 -0.09769852 -0.0027778465 -0.22645636 0.08942883 -0.18826357 -0.18756768 -0.25313175 0.4007351 0.11749541 0.3674221 0.3389439 0.1592629 -0.02294295 -0.017598627 0.2115233 -0.5388655
37 -0.15907155 0.27860856 0.24551634 -0.024267029 0.2380955 0.47583362 0.0038050401 0.15105113 0.3459881 0.02970107 0.35191467 -0.008108546 -0.05762673 -0.029866526 -0.21927702 0.058572493 -0.17228661 -0.0779845 -0.24940805 0.22703639 0.13485187 0.4254094 0.24156776 0.17752323 -0.082938105 0.117437765 0.34991547 -0.4622345
30 -0.06070999 0.20981346 0.36197788 0.01927711 0.25054938 0.5147102 -0.10170518 0.16424404 0.34347898 0.04921354 0.2194299 0.024359962 -0.14952438 -0.022920968 -0.2851453 0.023603765 -0.2302609 -0.09270502 -0.26395115 0.22981165 0.16205917 0.34852597 0.16657041 0.104643725 -0.073196776 0.10424318 0.37882215 -0.45958644
29 -0.121353194 0.20979899 0.28358883 0.052731264 0.1670666 0.53627795 -0.02457799 -0.01775527 0.29658967 0.041517645 0.39723784 -0.03147449 -0.17100313 -0.03801819 -0.32105675 -0.023935579 -0.10207355 -0.15848501 -0.24278381 0.32757768 0.06821977 0.37487817 0.36953628 0.14907332 -0.101966426 -0.024702352 0.21243218 -0.30039957
40 -0.1205579 0.23289296 0.21884528 -0.022044705 0.19041944 0.51832074 0.034234963 0.1809695 0.3661649 0.14650142 0.30990878 0.016461492 -0.06332953 0.051529355 -0.36871567 0.013394706 -0.267532 0.0013008259 -0.18155868 0.32154858 0.20941572 0.2692252 0.15769745 0.0503273 -0.13914579 0.056214757 0.305392 -0.45477882
39 -0.12703699 0.19873431 0.3323443 0.07796781 0.22070129 0.4508351 -0.018388182 0.09035165 0.35470855 0.08896701 0.24201843 -0.117708124 -0.11273185 0.082532175 -0.3180984 -0.09321586 -0.19522919 -0.05627073 -0.25596994 0.27541223 0.21967442 0.320595 0.25113866 0.06562917 -0.06568035 0.09432017 0.2817292 -0.4863557
36 -0.11870999 0.20003994 0.26507342 0.0811635 0.19284816 0.53314316 0.079609945 0.102806985 0.4030774 0.05600847 0.3095423 -0.08612639 -0.064682335 0.048879843 -0.36908913 -0.02832049 -0.20004067 -0.057517283 -0.2409021 0.28724876 0.20198803 0.32021543 0.19652686 0.11702396 -0.12928447 0.0050322074 0.20450443 -0.45817026
66 -0.12572153 0.4504833 0.35319218 0.054522995 -0.1615359 0.31254262 -0.057173602 0.31978127 -0.22023575 0.09634537 0.19401343 -0.06689207 -0.07903225 -0.2585452 -0.22939134 -0.04135292 -0.20485638 -0.1861525 0.012781601 0.032639183 -0.07937853 0.09443435 0.026496708 0.27761 -0.34220237 0.31650516 -0.20713496 -0.2759897
42 -0.118960075 0.29756758 0.29497692 -0.007986967 0.05199943 0.46758914 -0.04443196 0.116632834 0.44826815 -0.114164986 0.31828356 0.01638042 -0.08643301 0.09524535 -0.2564394 -0.033722997 -0.2167108 -0.12317874 -0.2401548 0.34624332 0.16883597 0.37968013 0.15632722 0.11451837 -0.08683599 0.1280077 0.3144343 -0.43077183
38 -0.10975851 0.24596898 0.17699881 0.07535969 0.11603754 0.4740891 0.025196737 0.25347468 0.36375636 0.04471589 0.39772633 -0.036328737 -0.12112741 0.04800623 -0.33062014 -0.032111187 -0.11818509 -0.06389261 -0.21194324 0.2548862 0.14029317 0.28221783 0.26977617 0.037096173 -0.14468013 0.12519765 0.3716026 -0.5069483
41 -0.11493689 0.26147616 0.18374333 0.029043246 0.27075094 0.48214814 -0.054805264 0.06688571 0.30291006 0.007087821 0.3785676 0.0074676126 -0.05590454 0.072384626 -0.23462898 -0.092927635 -0.144624 -0.13134974 -0.12389063 0.39009964 0.04470966 0.4453124 0.24246475 0.16675553 -0.12794322 0.112950884 0.26780745 -0.42944133
113 0.0046886234 0.34312314 0.34946424 0.08907942 -0.24707837 0.16517681 -0.2508198 -0.049509913 -0.32117367 0.1266724 0.16734885 0.017324926 -0.18184802 -0.3680766 -0.33485997 -0.07809882 -0.29480606 -0.056816775 0.09055638 0.083681844 -0.016738014 0.3323878 0.030432718 0.058356475 -0.31411305 0.53920376 -0.3854532 -0.29565763
97 -0.02182138 0.49430448 0.31971702 0.074728765 -0.26455966 0.24790165 -0.27920598 -0.13960777 -0.31250057 0.095714346 0.265263 0.0006149067 -0.10533357 -0.43629587 -0.35262918 -0.13718031 -0.23634356 -0.13116048 0.04919971 -0.016828805 -0.05289547 0.3481436 0.0367517 0.058757953 -0.172078 0.42073622 -0.45457038 -0.2611301
114 -0.034579623 0.44535613 0.3926756 0.17727633 -0.35790953 0.24402666 -0.19777468 -0.059927065 -0.31080264 0.1526211 0.2697563 -0.021124931 -0.051875863 -0.39760247 -0.18488401 -0.13957883 -0.26392925 -0.21474305 0.061439037 0.12472097 -0.04104729 0.22536272 -0.013214796 -0.10642053 -0.34533718 0.4873129 -0.4407811 -0.28140226
90 0.060339987 0.3516253 0.51330906 0.1647016 -0.26907396 0.2698127 -0.2290956 -0.07765526 -0.3423952 0.23414457 0.21600096 -0.12325567 -0.16360167 -0.35803312 -0.19480912 -0.008539764 -0.2627664 0.0038862878 -0.029098177 0.04929022 -0.04604239 0.30228812 0.0047220928 0.020368977 -0.22589354 0.39501753 -0.54547524 -0.3153379
91 0.0675009 0.42145562 0.43454897 0.08430059 -0.1718118 0.23405346 -0.22533791 -0.1026366 -0.31542414 0.21657291 0.19152641 -0.036158904 -0.08300543 -0.3539575 -0.35615262 -0.061790034 -0.20370582 -0.17692463 0.06483368 0.081750296 -0.07604001 0.31409714 0.00017214913 0.056925826 -0.29017037 0.3917152 -0.51226145 -0.25079536
86 -0.004983367 0.4532996 0.36148238 0.052919216 -0.23899917 0.20358409 -0.17655863 -0.08550656 -0.308758 0.015623379 0.16162494 -0.061240952 -0.16007166 -0.39253289 -0.25593236 -0.07822859 -0.24988016 -0.1815117 -0.07017739 0.076995835 -0.04679606 0.35618138 0.047527872 -0.08453473 -0.27298784 0.4233 -0.49776042 -0.29333687
34 -0.10687832 0.22771363 0.28173715 0.0033238137 0.18027519 0.45772478 0.16093928 0.031546574 0.4253724 -0.026157722 0.30790117 -0.07038244 -0.09933931 0.0009589325 -0.20845254 0.0649361 -0.12559116 -0.19326031 -0.18714505 0.31598213 0.047325585 0.35382304 0.32500634 0.1114205 -0.18277979 0.07625225 0.27006966 -0.5470476
116 -0.06676458 0.51003134 0.3426004 0.07999744 -0.35292417 0.22311172 -0.14378025 -0.10889373 -0.25732234 0.102026924 0.25743762 -0.0049623935 -0.074346125 -0.36558956 -0.2519786 -0.03793881 -0.1814731 -0.13058193 0.11301189 0.067845 -0.02668255 0.31237695 0.07974865 -0.033675358 -0.3724881 0.50232863 -0.5102057 -0.2664091
96 -0.074103616 0.36882114 0.35186335 0.07428552 -0.21400012 0.2698907 -0.17832862 -0.053611293 -0.39412075 0.12846506 0.17592458 -0.1704696 -0.09767951 -0.35818073 -0.3276815 -0.06487333 -0.18403283 -0.06374212 0.104313694 0.060913563 0.044544466 0.28599018 0.07826941 -0.0071348785 -0.31012943 0.46015805 -0.47613502 -0.3367984
112 -0.019943837 0.37168258 0.37124678 0.09841864 -0.25902236 0.229843 -0.152919 -0.11926687 -0.29209659 0.2174817 0.24647178 -0.05796751 -0.17525424 -0.36871657 -0.27950695 -0.12597215 -0.25972262 -0.15923502 0.09185515 0.09098383 -0.066740885 0.2995024 0.06027866 -0.14987314 -0.34755993 0.455738 -0.43221387 -0.24711275
95 -0.052150063 0.41569155 0.43370926 0.03255708 -0.21512893 0.17281671 -0.2582918 0.03918591 -0.3306391 0.22858621 0.15175961 -0.13185097 -0.22600073 -0.3032624 -0.21192555 -0.093350805 -0.30945888 -0.11578153 0.07418332 -0.033798408 -0.02856954 0.292634 -0.10654987 -0.07273476 -0.27286932 0.57903856 -0.38619283 -0.34827805
83 -0.11528648 0.4430485 0.35236615 0.13436589 -0.2497486 0.2196852 -0.20613122 -0.14111224 -0.4623695 0.20588169 0.23697917 0.0019658285 -0.14237586 -0.3277608 -0.3603227 -0.12030408 -0.22375728 -0.11069096 0.046667736 0.16590536 -0.0046013156 0.27205297 0.16494007 0.043604974 -0.2557382 0.4027113 -0.48985067 -0.21150278
92 -0.03435099 0.37918887 0.35558602 0.11548335 -0.2102243 0.29157272 -0.21948186 -0.16732392 -0.24832173 0.22500305 0.2761757 0.034683365 -0.07909073 -0.35256582 -0.24851479 -0.12842962 -0.2707312 -0.04204152 0.082573324 0.1674427 -0.07378553 0.26260614 0.037735622 -0.05902157 -0.18684089 0.5046169 -0.56486326 -0.31841713
43 -0.19712165 0.20191893 0.23277418 0.021399144 0.17869774 0.46593815 0.15050758 0.046636935 0.28072 0.07949942 0.32376364 -0.10840365 0.013992306 -0.047811504 -0.2683714 0.2112471 -0.28323027 -0.11373358 -0.3392779 0.35470814 0.13657883 0.23371121 0.25983602 0.05970676 -0.14518091 0.10165702 0.24541588 -0.43848532
71 -0.21564664 0.49475116 0.32906017 0.060253102 -0.0768884 0.4557794 -0.15840608 0.24365723 -0.21338116 0.21211454 0.19852127 -0.17956734 0.0015535539 -0.16816488 -0.22734545 -0.091952786 -0.22485524 -0.12453402 0.017053857 0.14603604 0.07104262 -0.044397768 0.115888506 0.25334674 -0.3257064 0.38043568 -0.30073056 -0.09419677
118 -0.12528393 0.3502442 0.4448675 0.107933104 -0.28770122 0.24637797 -0.00959859 -0.07823553 -0.36086237 0.24521996 0.20541327 -0.09979527 -0.118472226 -0.29933998 -0.3505801 -0.062345736 -0.3465862 0.011744842 0.049093075 0.039367132 -0.047315966 0.35512617 0.007378695 -0.11527058 -0.2628079 0.41264755 -0.46133873 -0.25407407
93 -0.03029969 0.4732497 0.3778665 0.07737273 -0.34309497 0.32129768 -0.18797688 -0.13451688 -0.28130433 0.32471603 0.3538235 -0.12198802 -0.050481115 -0.41676405 -0.29321873 -0.06228455 -0.25105456 -0.09821314 0.044201583 0.15803596 -0.04135125 0.25165167 -0.038123187 -0.06818349 -0.16628267 0.35982943 -0.5176379 -0.21471275
110 -0.11257865 0.37096828 0.4270758 0.031417873 -0.3101646 0.04580962 -0.22817332 -0.10250275 -0.24899963 0.18029417 0.23968597 -0.17459066 -0.19032891 -0.4120088 -0.382673 -0.11831722 -0.37725073 -0.03136939 0.08000329 0.107508585 0.07786053 0.14957783 -0.05548361 -0.08009998 -0.1262301 0.38048872 -0.4439764 -0.46576145
62 -0.15484023 0.3137985 0.4100543 -0.01941668 0.004526622 0.36407706 -0.23858279 0.03091999 -0.34411862 0.14336102 0.11643045 -0.19728106 -0.25627226 -0.2559812 -0.24784786 0.043015867 -0.38350937 0.10697285 0.022110268 0.24300371 -0.16041125 -0.059919298 0.18103647 0.24448383 -0.26354903 0.43492934 -0.23048736 -0.2746322
88 0.012141673 0.43819803 0.41953385 0.093522765 -0.18814002 0.2810503 -0.23529802 0.013335854 -0.34429976 0.131931 0.17822321 -0.0035477197 -0.12913387 -0.23591524 -0.24964677 -0.14472805 -0.22962172 -0.1416662 0.14675128 0.057565946 -0.007961207 0.19680603 0.14477557 -0.128562 -0.38526404 0.5980293 -0.46159068 -0.21287072
31 -0.08043841 0.2711304 0.3347184 0.18036842 0.2664693 0.32314608 0.047389157 0.36815813 0.18668015 0.11885733 0.28051594 -0.011123636 -0.05370524 0.09142797 -0.26512483 -0.022773398 -0.15111957 -0.1675179 -0.40211242 0.27662137 -0.011186788 0.24915372 0.25065994 -0.0027930804 -0.25614235 0.08754588 0.20413418 -0.44042006
103 0.017455922 0.3609273 0.34275183 0.018556226 -0.37309718 0.2308011 -0.1494067 -0.051086243 -0.2759101 0.13266857 0.2909441 -0.03429424 -0.15295348 -0.60138816 -0.36645404 -0.1850187 -0.30591953 -0.06544116 0.060459897 0.15282145 0.045091834 0.2769625 -0.16730079 -0.091559194 -0.20957579 0.46821788 -0.45157874 -0.3677331
94 0.04839496 0.4790973 0.23774211 0.07142099 -0.3124258 0.26064715 -0.16261116 -0.21366794 -0.29648766 0.36592948 0.21762991 -0.16048545 -0.050341394 -0.25759202 -0.3114133 -0.13104928 -0.2887122 -0.18126406 0.030026883 0.16875495 0.010606443 0.3905177 -0.03944278 -0.17835094 -0.33697522 0.28265676 -0.4799857 -0.2904189
48 -0.15073228 0.25500986 0.19430037 0.13911024 0.09662501 0.13507244 0.09872312 0.1537947 0.04504871 0.22635031 0.17330146 -0.06710432 -0.03819765 -0.14808182 -0.29793426 0.096601784 -0.23501572 -0.15459721 -0.29102024 0.24050927 -0.08834657 0.15712573 0.25444072 0.20517388 -0.4400056 0.22417063 0.22630009 -0.426792
27 -0.10003447 0.13362692 0.37213355 -0.016799027 0.19609272 0.4213705 -0.09245512 0.09133277 0.42802006 0.13618064 0.30085263 0.0073082675 -0.06329951 0.0724833 -0.18827671 0.10372229 -0.16256207 -0.12052785 -0.2600632 0.26358163 0.34585637 0.527935 0.32883528 0.08872935 -0.045257255 0.07421444 0.49047127 -0.69334555
64 -0.1597286 0.3486627 0.3185768 0.14547484 -0.034825467 0.31598225 0.04581142 0.042162687 -0.19631329 0.17622054 0.2147876 0.027258312 -0.12732697 -0.47216102 -0.3206131 -0.06299233 -0.11375714 -0.11781334 0.28158426 -0.0010582493 -0.06481947 0.08246026 0.20180005 0.04517406 -0.40384647 0.5489047 -0.3055066 -0.24425735
73 -0.07749827 0.4471418 0.3500383 0.19708855 -0.38762242 0.2826567 -0.15818864 0.033250894 -0.2502225 0.2408747 0.22546266 -0.0425286 -0.12211331 -0.31403798 -0.330372 -0.06572722 -0.1352699 -0.19365022 0.017559988 -0.10289033 -0.040575117 0.19949774 0.13315265 -0.07013813 -0.26516512 0.4798566 -0.31902614 -0.2617641
25 -0.14850292 0.11972488 0.2397786 0.07339887 0.2942162 0.45053926 -0.13239513 0.06477556 0.54101914 0.08770482 0.26407892 0.08391939 0.025565846 0.101197466 -0.34350264 -0.051347747 -0.12169158 -0.039538044 -0.26246676 0.28948623 0.36452615 0.5802278 0.1801568 0.13048758 -0.23836797 0.0736024 0.44841677 -0.657967
26 -0.12717743 0.11066543 0.34060284 0.06652977 0.10427858 0.38519126 0.036614593 -0.004192357 0.47754204 -0.06457164 0.25937667 -0.05117161 -0.08858008 0.03597511 -0.27545038 -0.08565159 -0.057049103 -0.10572619 -0.25638682 0.26638323 0.36729363 0.6903971 0.35859272 0.17690396 -0.07345337 0.05137437 0.39805773 -0.6062603
24 -0.08795956 -0.012989772 0.46087635 0.023944415 0.26245534 0.47212064 -0.10330657 0.07382606 0.46716678 -0.041762784 0.19061783 0.2049133 -0.078552574 0.08325441 -0.32271126 -0.00026908875 -0.2313816 -0.00483204 -0.26436168 0.17985609 0.2722225 0.6073905 0.26363334 0.11425931 -0.035664283 0.1599924 0.36988476 -0.63516295
33 -0.2134129 0.31151575 0.24193673 0.09152621 0.10352215 0.19996959 0.09163599 0.25877586 0.22113249 0.09719268 0.1425559 -0.2114685 0.03289618 0.0253411 -0.38311318 0.10459603 -0.092025876 0.01973861 -0.41998783 0.4305539 0.110805824 0.16247486 0.3691802 0.15807682 -0.18790606 0.11848113 0.17157724 -0.5350299
87 -0.038072713 0.5025865 0.43571728 0.034465738 -0.21197432 0.20148157 -0.19078058 -0.05092324 -0.38319528 0.19421032 0.2750175 -0.048947345 -0.17562492 -0.4410462 -0.4862823 -0.13838363 -0.09175098 -0.075041704 0.14298047 0.16581568 -0.014716146 0.09483327 0.16430885 -0.13308512 -0.22433472 0.39331663 -0.37461397 -0.23153885
77 -0.1582052 0.48699713 0.24476822 0.1929794 -0.2680053 0.4423868 -0.11757426 0.046108287 -0.3932251 0.15328795 0.08285845 -0.191227 -0.10489271 -0.39494133 -0.36245847 -0.11168284 -0.16148292 -0.20863752 0.15437168 -0.097806096 -0.10886348 0.024152925 0.2635224 -0.027724387 -0.35739857 0.5440888 -0.113777444 -0.25021085
101 0.031834673 0.3287425 0.32729024 0.019963272 -0.13823666 0.29381913 -0.04218767 -0.121253416 -0.35609114 0.19377705 0.20039402 -0.19932216 0.015147685 -0.4146585 -0.38284606 -0.18907158 -0.3999241 -0.01173595 -0.019211726 0.14451808 0.05481934 0.2948548 -0.12161155 -0.18094449 -0.1582273 0.36857438 -0.58932686 -0.408265
85 -0.08460702 0.4918656 0.37026274 0.0380438 -0.23927729 0.24339277 -0.049641326 0.003973608 -0.3270005 -0.027045725 0.009035196 -0.100251175 -0.221941 -0.446926 -0.22744033 -0.20630695 -0.15182674 -0.16576204 0.21102232 0.054759085 -0.1261015 0.22935674 0.27093166 0.08633574 -0.23835795 0.5609999 -0.33699742 -0.34578666
98 -0.05255091 0.3624952 0.21232894 -0.006676328 -0.44361863 0.22549935 -0.13844694 -0.04837417 -0.33010933 0.31240115 0.20305128 -0.1860312 -0.04543099 -0.35326192 -0.36147472 -0.2628147 -0.40354416 0.056046225 -0.08165086 0.19285013 0.077410795 0.35639873 -0.09910219 -0.12908821 -0.2220139 0.4072089 -0.5597124 -0.40214688
105 -0.029690588 0.19312793 0.29587236 0.09298959 -0.34448764 0.21715613 -0.09167614 -0.09053301 -0.38047296 0.24843639 0.24610327 -0.11076406 -0.044479925 -0.33508214 -0.33099276 -0.12531212 -0.48557067 -0.057974447 0.05040577 0.11544392 0.1303267 0.32314244 -0.2489366 -0.12714845 -0.3029132 0.44740063 -0.5446946 -0.51352006
117 -0.0064510475 0.3062198 0.22993752 -0.012549879 -0.2970538 0.26567596 -0.12873267 -0.0836111 -0.2806307 0.2180137 0.24917202 -0.1665267 -0.0120552005 -0.40974003 -0.32350883 -0.07135529 -0.37300643 -0.12543985 0.027735617 0.11633626 0.061965358 0.27883434 -0.10455469 -0.25235257 -0.2957304 0.4713821 -0.4819855 -0.43313748
81 -0.1982725 0.55786663 0.2536039 -0.037101712 -0.20516716 0.23666576 -0.20758414 -0.04341975 -0.09011697 0.08130197 0.12709506 -0.11301285 -0.18852298 -0.41622883 -0.38271692 -0.022766145 -0.14868867 -0.09729539 0.117576905 0.011847642 0.021910047 0.02341055 0.33413154 0.114596486 -0.43040776 0.5052739 -0.21556792 -0.14244302
115 -0.05710525 0.37288433 0.27699196 0.065988354 -0.20677668 0.27809793 0.0038445697 -0.05085754 -0.20771065 0.16306132 0.19398019 -0.24351895 -0.04606913 -0.34718025 -0.40008515 -0.22102399 -0.3246992 -0.15368803 -0.074389525 0.07662238 -0.066713504 0.3563913 -0.13632011 -0.28605437 -0.24728602 0.4497665 -0.48779353 -0.29947484
89 -0.16874848 0.48120183 0.33112895 0.076675974 -0.19239461 0.31300855 -0.20937558 -0.10888299 -0.21598661 0.13773237 0.097419865 -0.11586669 -0.17302892 -0.39192253 -0.3561423 -0.04157976 -0.12543587 -0.17361176 0.14266199 -0.111913025 0.12702662 0.124021426 0.25361744 0.038361713 -0.35571343 0.54491043 -0.41187707 -0.17737633
8 -0.060464613 0.14263552 0.49694318 0.15474258 0.24529949 0.4107604 -0.13263935 0.03183619 0.3614053 0.0054867044 0.28034648 0.008179505 0.010786302 0.15555412 -0.24524352 -0.055306874 -0.045649845 0.014903249 -0.297568 0.20547406 0.3318706 0.52962625 0.35437703 0.25060317 0.012580525 0.06698791 0.33063576 -0.68195754
7 -0.083821215 0.24237481 0.42699736 0.08330882 0.168667 0.54328287 -0.10589297 -0.04091777 0.4772096 0.10880861 0.23233603 0.13846894 -0.012156646 0.042543758 -0.36224866 -0.02389891 -0.10385565 -0.026735066 -0.29202333 0.17749727 0.3522767 0.45655584 0.35803244 0.12907395 0.03731508 -0.02880229 0.50130403 -0.6295792
107 0.06978594 0.35439405 0.23780492 0.03299594 -0.33234146 0.25675577 -0.1636444 -0.18209492 -0.25884604 0.15067655 0.24330156 -0.16372775 -0.020729125 -0.46753225 -0.4100572 -0.30296966 -0.3743455 -0.043543495 -0.018687204 0.17907828 0.017104939 0.30933636 -0.11065137 -0.14931393 -0.27343616 0.2841799 -0.4840556 -0.37558082
111 0.07733732 0.43098104 0.35607052 0.07501459 -0.26359594 0.24502768 -0.18752538 -0.11255717 -0.37643912 0.19678684 0.3098707 -0.10317817 -0.059123654 -0.31800848 -0.32853892 -0.14728223 -0.34789014 -0.028476605 -0.08811508 0.06885083 0.0013285037 0.3274908 -0.109536916 -0.09640913 -0.14006056 0.39035347 -0.53643554 -0.3482004
68 -0.124317214 0.523093 0.4096461 0.035743758 -0.22726041 0.26359925 -0.034862228 0.0493999 -0.08771755 0.124915875 0.1730832 -0.1753318 -0.17163235 -0.27863485 -0.18533927 -0.02747536 -0.11145579 -0.17466077 0.2690525 -0.043707468 0.06660218 0.13685717 0.26414526 0.039486784 -0.2692173 0.4679923 -0.42752108 -0.2903722
9 -0.10869029 0.09460992 0.4436606 0.10930521 0.13898925 0.4542822 -0.028016824 0.16264163 0.3474899 0.0014085807 0.20077108 0.04060854 -0.057266425 0.084089495 -0.27288866 0.031928133 -0.142883 -0.038059574 -0.15054618 0.28828558 0.32016847 0.46189502 0.42053503 0.11689965 0.100757025 0.12904322 0.4402056 -0.7171465
10 -0.06532945 0.1688015 0.51204413 0.104691945 0.21755165 0.48088384 -0.107420415 0.008977873 0.44926098 -0.021603815 0.09129843 0.05782942 0.06687097 0.04758077 -0.28346995 0.010909513 -0.08191573 -0.13172162 -0.31076968 0.26451048 0.3776364 0.47377798 0.3188091 0.07213117 0.022992859 0.04384088 0.43349352 -0.72588587
18 -0.011374649 0.14193715 0.46441907 0.034546163 0.21165267 0.5019855 -0.18034683 -0.027634164 0.3936029 0.076015025 0.24356306 0.010282243 -0.12262514 0.14250992 -0.32732955 -0.026149847 -0.16384865 -0.07733751 -0.30203974 0.3054759 0.290047 0.3956442 0.44071817 0.047611523 0.07595561 -0.018370673 0.41407 -0.6703378
122 -0.020560496 0.34075257 0.2681136 0.021737654 -0.31192914 0.32198632 -0.042650785 -0.09705491 -0.19251493 0.23965311 0.24395236 -0.29391924 -0.098791726 -0.36293647 -0.30071276 -0.19933975 -0.5083531 -0.08077703 -0.0063472018 0.21676902 -0.09220038 0.34702227 -0.11469856 -0.29584005 -0.17404242 0.39715934 -0.6205049 -0.3111268
11 -0.14132546 0.14300023 0.44428477 0.15965718 0.13661605 0.55348855 -0.116894625 0.11364803 0.40149525 0.03584984 0.12201898 -0.016245006 -0.11349237 0.16076428 -0.18429394 -0.019178433 -0.07941555 -0.13811833 -0.18148398 0.2809046 0.43140128 0.44900998 0.5159857 0.012413732 0.03570202 0.06875358 0.4316699 -0.67576617
15 -0.09752699 -0.025636075 0.4059925 0.1530076 0.14201559 0.5607627 0.0029595676 0.067674555 0.57190466 -0.011461497 0.28999788 0.07597764 -0.06799626 -0.100602336 -0.3293492 0.13612558 -0.11339264 -0.13626534 -0.30252403 0.21713495 0.3427221 0.44831672 0.39937863 0.12628792 -0.04085115 -8.6063104e-05 0.400719 -0.7123567
50 -0.023973312 0.28967744 0.29018107 0.07565037 0.27545628 0.17600794 0.19714092 0.13214523 0.12358124 0.1381823 0.22842547 -0.06803207 -0.026915863 -0.19787209 -0.38180095 0.22540137 -0.18227373 -0.22110412 -0.31378743 0.09560045 -0.12032514 0.24462366 0.33675706 0.16984856 -0.45056129 0.11758216 0.24168713 -0.36806747
32 -0.04318548 0.38440955 0.34670487 0.09863852 0.18778585 0.252711 0.14014149 0.27906963 0.31292883 0.09790993 0.16983779 -0.021001901 0.03181746 -0.009521123 -0.40576932 0.09878361 -0.25685623 -0.10732174 -0.49917695 0.28227028 0.0034688246 0.21228974 0.20786136 0.10895444 -0.19873789 0.06974889 0.1218929 -0.3593207
3 -0.113745995 0.12238965 0.36425048 -0.0760158 0.03408817 0.45113456 -0.08540998 0.07826211 0.5437863 0.024162106 0.22112153 -0.05072242 0.097926825 0.07827987 -0.238844 -0.011203968 -0.15895975 -0.022760676 -0.36977112 0.22696932 0.4267781 0.44583344 0.37141463 0.11185794 0.013936691 0.1519887 0.36398143 -0.7608213
60 -0.20216428 0.5592522 0.31612593 0.0029535422 -0.27598122 0.36730456 -0.20753284 0.09424912 -0.14645584 0.06970243 0.21646634 -0.07146807 -0.09520976 -0.37848225 -0.20673583 -0.00078446144 -0.067440026 -0.03460486 0.19075845 0.017711917 0.08699375 0.022125127 0.25262147 0.097194746 -0.304122 0.6011647 -0.40491733 -0.1957046
45 -0.077894345 0.40614313 0.17695831 0.02872424 0.12259097 0.13183865 0.2798125 0.2331366 0.12232579 0.049306728 0.20116162 -0.11851323 -0.08242161 -0.13881643 -0.3543407 0.013498771 -0.13229196 -0.08055249 -0.32832143 0.2785583 -0.06378197 0.20290065 0.31578845 0.02587822 -0.32990983 0.18535504 0.15167303 -0.44404477
16 -0.040954538 0.060525727 0.42949718 0.17054377 0.1768134 0.411588 -0.1254025 -0.032147985 0.4437813 0.01775872 0.27445796 0.043095592 -0.016695721 0.03226655 -0.25698853 -0.10159635 -0.09925941 -0.15004867 -0.3052316 0.2606989 0.25829345 0.5219625 0.3621333 0.21505363 0.06291009 0.12224182 0.3500077 -0.6471543
12 -0.18410581 0.15200278 0.41377604 0.15854314 0.14220849 0.43507785 -0.056465596 -0.023160705 0.44894278 0.110580996 0.2183374 -0.022089968 -0.011618643 0.12733707 -0.24723247 -0.011555647 -0.06360318 -0.047303345 -0.2748054 0.27390605 0.46811244 0.61548483 0.34573925 0.119684495 -0.07057874 0.0016597972 0.40399098 -0.60086673
74 -0.014672249 0.5150016 0.3586898 -0.029263001 -0.23514888 0.296682 -0.21245258 0.0008406048 -0.06283098 0.088795304 0.21219449 -0.07808825 -0.085952 -0.33953407 -0.367143 -0.016496206 -0.055628583 -0.121531576 0.24365026 -0.085424595 0.026131697 0.1388912 0.22024497 0.034242887 -0.32454455 0.4079895 -0.4168433 -0.25652367
6 -0.06254045 -0.018200127 0.43575013 0.10549381 0.18136364 0.44617286 -0.05494187 0.08399342 0.46044663 0.038968932 0.28021586 0.15860787 0.018831953 0.07888745 -0.2996628 -0.036222406 -0.118831284 -0.18545088 -0.2827282 0.09799991 0.41867822 0.5648914 0.41551843 0.10464655 -0.028145066 0.10480734 0.36234516 -0.67352366
82 -0.07517183 0.3986837 0.38350442 0.11595129 -0.2686994 0.2600243 -0.05322448 -0.1724655 -0.3798858 0.0013569584 0.014811426 -0.047493923 -0.16866398 -0.3519845 -0.39192173 -0.0043983734 -0.12535448 -0.051997576 0.19131565 0.08769668 -0.0022402464 0.20337799 0.31294364 0.068063565 -0.37203935 0.4651969 -0.4544817 -0.3431918
78 -0.0803451 0.53549343 0.33598375 0.023841327 -0.22469695 0.26954314 -0.21758541 -0.052322373 -0.2568925 0.015020073 0.1799276 -0.03512559 -0.11942363 -0.303242 -0.2510546 -0.04677302 -0.117133684 -0.0453662 0.27460185 -0.019647922 -0.09535943 0.10903629 0.33014676 0.0640137 -0.35901675 0.5981514 -0.22315092 -0.2984308
63 -0.10445422 0.4412207 0.29859075 0.15284847 -0.26027563 0.28140825 -0.17038108 0.0032994777 -0.23243856 0.21525441 0.10940899 -0.075839296 -0.17212203 -0.29811132 -0.34393707 -0.011805271 -0.14193362 -0.11403841 0.22225116 0.056793638 0.009813379 0.11916525 0.2577016 0.046650007 -0.4755654 0.5177585 -0.32075068 -0.2196819
5 -0.13922836 0.09384347 0.35575578 0.1432784 0.10095548 0.4968688 -0.20998245 0.00023105605 0.4677594 0.07682744 0.2373139 0.06979188 0.05653607 0.0873462 -0.33731985 0.022602513 -0.11374877 -0.0073237857 -0.30465546 0.18453717 0.34930742 0.41914642 0.4182914 0.13140091 -0.07084235 0.08045142 0.4867359 -0.7522147
28 -0.088409156 0.23923434 0.3737451 0.108379856 0.2634848 0.20701605 0.16326267 0.24719523 0.2427665 0.14427929 0.17702685 -0.05573215 0.06336109 -0.036995992 -0.41606888 0.047781885 -0.34051836 -0.139814 -0.37581462 0.22280163 -0.083333544 0.13370997 0.31022558 0.17369813 -0.27220407 0.10525221 0.22964221 -0.410357
109 0.049405128 0.2853423 0.344206 -0.013765654 -0.350611 0.25940412 -0.19729696 -0.10856712 -0.18916681 0.09317896 0.3166482 -0.09192135 -0.07157174 -0.40789688 -0.2403782 -0.22281899 -0.43764165 -0.018842174 0.08016593 0.12642965 0.048110183 0.29875162 -0.18391864 -0.07941378 -0.16310938 0.50485927 -0.5191398 -0.44839606
58 -0.04066009 0.4940593 0.26866725 -0.07500194 0.3115647 0.17826982 0.07357839 0.25010544 0.1850935 0.12195914 0.17469926 -0.15185617 -0.096272245 -0.108299255 -0.3570626 0.07160064 -0.1285423 -0.1645036 -0.33201677 0.22827557 0.022534607 0.20620944 0.23813607 0.14441031 -0.2938068 0.10480065 0.00035460008 -0.27838147
119 0.0069766575 0.33482343 0.44002342 0.067526914 -0.30585676 0.17608193 -0.0033600596 0.012987018 -0.44383803 0.27637646 0.18507536 -0.1902142 -0.14247626 -0.3910163 -0.43267104 -0.22379638 -0.387533 0.0062643285 -0.014640215 0.10332948 0.053325586 0.3310707 -0.13863838 -0.14849839 -0.13744056 0.33000812 -0.5696477 -0.41672772
13 -0.0053317975 0.07587139 0.4322096 0.15528028 0.25477847 0.49875417 -0.106571876 0.0057939827 0.45799592 0.048963983 0.18070489 -0.024767008 0.025030464 0.17454487 -0.36491984 -0.05768774 -0.2267977 -0.14754456 -0.27124876 0.101481125 0.35675007 0.47886887 0.34402886 0.1456242 -0.029674374 -0.0088923555 0.3105833 -0.7280122
14 -0.12429022 0.060414385 0.3582045 0.17042273 0.25814804 0.52191734 -0.0044789375 0.016407467 0.4687218 0.09127682 0.2883983 0.104646504 0.043815706 0.12553309 -0.16576399 -0.025171073 -0.12772831 -0.2736 -0.2658016 0.29647 0.33195546 0.45435673 0.43907374 -0.001097454 -0.05441643 0.07229227 0.3700274 -0.73165023
104 0.06478861 0.30885223 0.31153783 0.0097642755 -0.16303983 0.18129843 -0.14095598 -0.08696772 -0.3221915 0.3136783 0.3007582 -0.20918979 -0.10198141 -0.4139011 -0.37745538 -0.177457 -0.31959078 -0.02064454 0.010918715 0.12602967 -0.05085061 0.2248759 -0.13303685 -0.0981258 -0.34184846 0.36181614 -0.6579082 -0.5099444
80 -0.043647647 0.5741234 0.47516418 0.012113191 -0.26468024 0.31381842 -0.26549697 -0.053823266 -0.25939047 -0.05617402 0.02463435 -0.058469728 -0.15189034 -0.34390873 -0.355703 -0.13233963 -0.115984105 0.0055508614 0.24106906 0.056579586 -0.03881604 0.09820865 0.29677576 0.1066725 -0.30272704 0.5098417 -0.36622775 -0.22578107
100 -0.026403517 0.23378363 0.32205537 0.02799001 -0.30096257 0.31731817 -0.02651946 -0.12521513 -0.23242655 0.21475856 0.1060907 -0.18874045 -0.111968964 -0.38345847 -0.41772103 -0.3241452 -0.49132228 -0.108772054 0.00222265 0.07129956 -0.033456344 0.28695524 -0.15388602 -0.13012846 -0.29154646 0.279868 -0.42697665 -0.40415284
46 -0.09202543 0.058051184 0.27949518 0.06357855 0.24132858 0.25135666 0.2246098 0.22040401 0.5706109 0.09936637 0.37611207 0.15779929 -0.039698318 0.074559554 -0.20731851 -0.040430635 -0.13372281 -0.022882279 -0.25558543 0.2656253 0.19218455 0.53605515 0.2541387 0.04895099 -0.13013928 0.2988622 0.17518988 -0.6679265
17 -0.11343897 0.15048645 0.4369783 0.11597621 0.16885269 0.61232215 -0.082182534 -0.021603022 0.41563267 0.023200367 0.1875985 0.027679741 0.08470432 0.2174316 -0.110356204 0.052998018 -0.21417713 -0.14308602 -0.15369613 0.2195144 0.43396375 0.53009325 0.3189808 0.040056452 -0.04244757 0.026108019 0.36565498 -0.7356145
108 0.0149914455 0.22958536 0.2729617 0.0004159565 -0.33508006 0.26419377 -0.107768364 -0.052002877 -0.19390671 0.03233839 0.19379136 -0.1730569 -0.01100718 -0.3668014 -0.35791227 -0.24355696 -0.5371981 -0.19268006 -0.07684844 0.030081745 -0.10213452 0.3571982 -0.14918253 -0.2008578 -0.28446665 0.40505272 -0.44630438 -0.41287377
79 -0.061117772 0.44279706 0.35665348 -0.01851541 -0.3330736 0.25390032 -0.21081446 -0.025519837 -0.15504274 0.108352385 0.13240442 -0.15186924 -0.17228965 -0.2858343 -0.3075962 -0.06450109 -0.13865685 0.00049053534 0.2540766 0.024588814 0.025225991 0.079862885 0.24228746 0.055988163 -0.39206058 0.57185584 -0.36898163 -0.31869236
4 -0.22308818 0.0010805852 0.3098719 -0.07851734 0.2247305 0.5326021 -0.08911492 -0.038713932 0.29762274 0.12183217 0.260523 -0.003167288 -0.007216998 0.08409827 -0.1325195 0.15592088 -0.21775159 -0.088358164 -0.1396645 0.31003648 0.34955654 0.4877809 0.42149273 0.2789976 -0.0729702 0.120371 0.38872114 -0.68712044
21 -0.06696435 0.07386034 0.35352325 0.08753875 0.08214634 0.45297515 -0.07376934 0.061205626 0.4533 0.027011836 0.25878295 0.104755886 -0.05462528 0.10147327 -0.27803576 0.094462804 -0.06052616 -0.05809761 -0.13418086 0.27514482 0.4066284 0.4694277 0.436598 0.09160158 0.01785308 0.13896127 0.35809937 -0.732221
99 -0.016309226 0.25811544 0.2710193 0.061698202 -0.29806083 0.42277876 0.0008870555 -0.10055321 -0.219147 0.10172968 0.15755811 -0.1409568 0.016013088 -0.42636105 -0.40196204 -0.37931973 -0.47350076 -0.07320241 0.115867466 0.119579256 -0.102762684 0.30498338 -0.13950306 -0.062210664 -0.19137481 0.35781127 -0.5740397 -0.43234265
120 0.09108581 0.24194624 0.33815083 0.0683089 -0.32409462 0.25825733 -0.0129499715 -0.029116645 -0.2514713 0.29303318 0.26804778 -0.26148328 -0.1871932 -0.50223607 -0.39228025 -0.3356034 -0.4021112 -0.07615796 0.121022195 0.0750959 0.009035786 0.23019959 -0.14896832 -0.22140394 -0.15194352 0.42186323 -0.44234547 -0.46954888
0 0.044881903 0.244713 0.47927985 0.14596483 0.22255307 0.481769 -0.12480796 -0.035105594 0.4251685 -0.11420896 0.18759157 0.04208331 0.001268569 0.16232595 -0.20369723 -0.061241753 -0.10449773 -0.13887729 -0.22400187 0.21401656 0.3174736 0.42569652 0.29320475 0.01875277 0.028129172 0.086102575 0.33418298 -0.7089934
47 0.007294963 0.56106204 0.30809176 -0.11047062 0.17724718 0.085218854 0.14809279 0.24379973 0.2332753 0.14762765 0.17715551 -0.098153286 0.048375607 0.022729311 -0.33314326 0.14203079 -0.20279047 -0.25747746 -0.317501 0.1926225 -0.0042412463 0.19217746 0.20879345 0.076552436 -0.35600984 0.07792839 0.18881226 -0.4321925
23 0.007829113 0.13433973 0.5219127 0.07797617 0.1922432 0.42512718 -0.1941672 0.03653136 0.413836 -0.07002378 0.13229825 0.025828002 -0.022433411 0.2127361 -0.2736639 -0.07479673 -0.25004056 -0.094292425 -0.31390923 0.2766509 0.3102467 0.50497395 0.3090598 0.08614244 0.069477476 0.053823348 0.4306475 -0.7692045
49 -0.09340796 0.3389413 0.15660399 0.055457626 0.24795742 0.10854377 0.06638757 0.2792247 0.13960674 0.14716165 0.11615195 -0.07527096 -0.014558112 0.022476496 -0.34599468 0.11792071 -0.18101972 -0.20867698 -0.26578933 0.19440341 -0.06925493 0.29253048 0.24868299 0.22968228 -0.4129137 0.27695847 0.047703248 -0.41984093
22 -0.1557469 -0.0279921 0.41892898 0.12245347 0.30117142 0.51617914 -0.10725814 0.06167226 0.3501262 0.01226311 0.27887517 0.031782012 0.06436403 0.20201242 -0.2186586 0.013830122 -0.11776957 -0.14979091 -0.17392989 0.2137853 0.4298759 0.52224475 0.41964647 0.10665521 -0.05155692 0.10966467 0.39158276 -0.8153777
76 -0.16223513 0.43597123 0.32211864 0.06307505 -0.20766404 0.33214086 -0.10401807 -0.10713228 -0.2461106 0.04527293 0.15472326 -0.08905145 -0.12732674 -0.38930503 -0.35344782 -0.060595784 -0.19252531 -0.036846057 0.35079253 -0.077074386 0.06383914 0.17662792 0.26488686 0.06699963 -0.4346398 0.4518596 -0.33343077 -0.22347216
19 -0.10678574 0.15191409 0.38029832 0.076691374 0.2643663 0.49677995 -0.18744108 0.034135934 0.38018733 0.0071891085 0.29621384 0.16559155 0.063665815 0.30808055 -0.17021833 -0.05977145 -0.21095449 -0.1724356 -0.24041043 0.26772475 0.40584007 0.5225124 0.35684258 -0.04211684 -0.0027457231 0.19108534 0.36906314 -0.662275
57 -0.14831762 0.4993337 0.2370862 0.004916024 0.13631275 0.13037762 0.121057965 0.2078736 0.110170096 0.09919929 0.22344856 -0.18580148 0.026469724 -0.17462543 -0.2954079 0.061375722 -0.12814735 -0.13897868 -0.38132018 0.18534666 -0.03138848 0.2623566 0.20205803 0.22463216 -0.4006576 0.06448321 0.25320244 -0.37036902
102 -0.02409705 0.29036826 0.32244074 -0.092710316 -0.2965585 0.14082117 -0.12285004 -0.15139875 -0.32803494 0.2805625 0.21752392 -0.15671998 -0.025284631 -0.44638988 -0.43282723 -0.23080479 -0.38776737 -0.05320612 0.038775623 0.15429571 0.14351162 0.3060836 -0.15034238 -0.09173099 -0.19986613 0.41410562 -0.4564048 -0.44303685
20 0.026576972 0.2432464 0.33880934 0.17051429 0.068436734 0.4260288 -0.099304184 0.064658016 0.37773222 -0.03635781 0.18981601 0.12530507 0.07616389 0.17796776 -0.23686022 0.02223676 -0.14315598 -0.059509017 -0.14444669 0.29037052 0.40151563 0.4229547 0.387821 0.08577425 -0.05063359 0.086104855 0.33540654 -0.72790545
53 -0.11450577 0.43036413 0.29840645 0.040220995 0.37319803 0.12605032 0.24473149 0.15509775 0.06386553 0.2520645 0.2715322 -0.054949485 -0.041467007 -0.04843401 -0.31442752 0.11785958 -0.16190614 -0.2314372 -0.2266524 0.21102798 0.074620694 0.23723744 0.15628357 0.13604487 -0.3309144 0.09677807 0.024864377 -0.3428158
2 -0.09057601 0.13009176 0.32804257 0.045292474 0.26263386 0.52817124 -0.10584463 -0.118062094 0.4311319 -0.03874345 0.18077599 0.060270637 0.07732708 0.08930041 -0.13140254 0.0411295 -0.12018373 -0.18306197 -0.24364842 0.3336077 0.45913267 0.55692744 0.32982802 0.11540068 0.039443992 0.13618626 0.32216746 -0.7696645
44 -0.1342822 0.39739066 0.15096518 -0.082707286 0.20673276 0.20699508 0.115707256 0.14057823 0.18587543 0.15246156 0.2292401 -0.18407463 -0.007095957 -0.07830028 -0.39243495 0.16588813 -0.22013569 -0.16239682 -0.25043082 0.35964683 0.005188995 0.1263332 0.25048065 0.16667537 -0.41031376 0.098893955 0.02136125 -0.3182902
1 -0.07419572 0.030118499 0.24406026 0.06364113 0.23442084 0.4472926 -0.0481868 0.07181116 0.32399783 0.058435284 0.15552019 0.107575 0.019448379 0.117949106 -0.17796624 0.025104642 -0.17414317 -0.11445593 -0.27173296 0.33887058 0.3775682 0.52217585 0.36644417 0.20666593 0.015331572 0.2680252 0.27949432 -0.7771538
54 -0.09743252 0.44275948 0.11547897 -0.13439493 0.23074637 0.13892724 0.13182138 0.35416165 0.18719925 0.08008766 0.33632725 -0.06093384 0.08327489 -0.083714366 -0.24637254 0.0185781 -0.21882789 -0.16128822 -0.19934003 0.25017536 0.0376236 0.251275 0.23008648 0.22980815 -0.34061047 0.23918451 -0.012176549 -0.31470388
55 -0.05618972 0.6060498 0.19022112 -0.093681276 0.19508709 0.12673669 0.12290746 0.27776644 0.023428913 -0.014376288 0.16916437 -0.01979745 0.051277246 -0.00028717128 -0.29081455 0.0576101 -0.27063674 -0.25806013 -0.3253755 0.29778907 0.07458484 0.21193509 0.16906048 0.1916274 -0.24868254 0.17273064 0.19662413 -0.3765102
56 -0.023552246 0.42472398 0.19013837 -0.040352616 0.30281422 0.15207514 0.20137686 0.17558259 0.18537273 0.18168618 0.3458755 0.003609383 -0.030802669 -0.042894185 -0.21181795 0.15832277 -0.17163071 -0.026888253 -0.19528821 0.3484093 0.0040109768 0.31355003 0.18056567 0.18160215 -0.28482923 0.26868844 0.03847245 -0.35369945
51 -0.123747885 0.16512936 0.42580482 0.033264577 0.10360425 0.3919258 0.17125559 0.124160394 0.6010012 0.062112596 0.12866473 0.039246544 -0.041773826 0.07988203 -0.1344713 0.050590325 -0.16103488 -0.036039438 -0.33899525 0.30721346 0.37012854 0.52958846 0.23771665 0.22676803 -0.12551995 0.087843195 0.12182773 -0.6442772
65 -0.070448525 0.56312853 0.38050842 0.064402774 -0.2126843 0.20311648 -0.12347377 0.15779506 -0.31225035 0.08929073 0.18955213 -0.092598505 -0.18945275 -0.36096328 -0.332165 -0.049074207 -0.035321217 -0.05869041 0.3098281 -0.20972203 0.0583712 0.19129875 0.24467412 0.11586289 -0.32313967 0.5496955 -0.31821403 -0.29418454
59 -0.11331589 0.46407574 0.2574163 -0.008385106 0.2534035 0.10157559 0.24212308 0.20062946 0.11001011 0.0643407 0.29080042 -0.053620987 -0.01967982 -0.06690235 -0.20450644 0.11473777 -0.12657642 -0.22663371 -0.28532547 0.23923261 0.06265463 0.26938492 0.120719306 0.12951739 -0.35995367 0.15437004 0.03762359 -0.41643086
123 0.07391246 0.4102767 0.3312949 0.04218675 -0.437707 0.22061968 -0.10423754 0.013817186 -0.34491372 0.21359478 0.12187326 -0.16746181 -0.13111296 -0.37346762 -0.35177308 -0.22951521 -0.44057232 -0.13147494 0.032156512 -0.02805772 -0.006043861 0.3908354 -0.21073057 -0.25638086 -0.31554857 0.5735811 -0.43918413 -0.40111145
121 -0.019771975 0.45897862 0.35460424 -0.05721582 -0.41963038 0.25304642 -0.066789754 0.010537506 -0.29179713 0.08458519 0.18853162 -0.085715145 -0.003540822 -0.33837137 -0.37363705 -0.06485842 -0.37891933 -0.0134036895 0.0526439 0.08818774 0.18766002 0.34688124 -0.2711765 -0.1408326 -0.23963057 0.48255584 -0.52610546 -0.33432427
106 -0.037046544 0.31840405 0.38997746 0.006881344 -0.33552733 0.32825038 -0.23201758 -0.023595642 -0.329261 0.1927142 0.28940797 -0.13816087 -0.1475584 -0.335343 -0.3073595 -0.101299524 -0.37367243 -0.045292623 0.06566843 0.12653397 0.21807896 0.2978864 -0.21593611 -0.20305748 -0.1398566 0.49386337 -0.6269788 -0.33051953
52 -0.01399661 0.48687544 0.26000643 0.046189785 0.2770544 0.066129744 0.1625549 0.15804335 0.1601852 0.025184762 0.18878299 -0.046675432 -0.057413276 0.013818311 -0.32315022 0.048183467 -0.10917778 -0.07859854 -0.21024956 0.28445822 0.0056550656 0.26495057 0.27440628 0.21808808 -0.33047533 0.2117335 -0.013399164 -0.37681758
