124 20
44 -0.0903361 0.007096471 -0.24118201 -0.24413998 0.20966308 0.4692151 0.06685947 0.079099886 -0.09849741 0.045238685 0.053998128 -0.017463822 -0.024435204 0.0234829 -0.52778643 -0.11932761 -0.09933245 0.14847684 0.18607396 -0.08280719
77 -0.035054345 0.096414685 -0.3183865 -0.29503798 0.043245833 0.36786565 0.08718355 0.20149222 -0.14691639 0.041401956 0.0038753778 -0.15985113 -0.1623474 0.10960066 -0.48021987 -0.055582758 0.089017674 0.18250571 0.055643447 -0.17818987
54 -0.052786548 0.048996 -0.2614299 -0.21313436 0.2093544 0.41156575 0.05671866 0.050240126 -0.18107828 0.003926812 -0.05905882 -0.054963622 -0.027425658 0.10905916 -0.54730344 -0.053970557 -0.035730626 0.13362591 0.15038022 -0.13432898
73 -0.11340723 0.05050728 -0.28327936 -0.29505402 0.20994562 0.2976262 0.061064623 0.13070539 -0.16294138 0.031488556 0.055798102 -0.087655365 -0.0019807762 0.03246205 -0.5515391 -0.10026784 -0.006767768 0.11714934 0.15167621 -0.14748226
43 -0.13341771 0.04741879 -0.30645433 -0.18675569 0.2312554 0.31444022 0.09055557 0.18681996 -0.15762976 0.03484439 -0.0474331 -0.114279635 -0.17979512 0.01970533 -0.5208345 -0.09568988 -0.06633177 0.116865896 0.09543877 -0.14365245
40 -0.12197534 0.050776515 -0.27609834 -0.17312504 0.19267324 0.32491785 0.07843872 0.10954593 -0.2507469 -0.031608418 -0.07138971 -0.07599558 -0.091015205 0.03646321 -0.5499189 -0.06264951 -0.011120304 0.1252487 0.228411 -0.08048886
78 -0.07387718 -0.0070365444 -0.15072116 -0.21521367 0.24027221 0.40511146 0.045281965 0.09150179 -0.18983877 -0.020524284 -0.051597714 -0.040089324 -0.16633315 0.088083975 -0.5481473 -0.07817513 0.025083981 0.18683891 0.058658205 -0.16187365
33 -0.07477735 0.08605249 -0.29585287 -0.20273668 0.27994555 0.33744827 0.15324041 0.21626261 -0.12693052 0.108142205 -0.08695269 -0.108863994 -0.10859711 0.15163483 -0.4448021 -0.08179353 0.037461203 0.25034663 0.102264844 -0.062763646
36 -0.1184698 0.039608937 -0.26018065 -0.19412938 0.14861673 0.3476801 0.10629544 0.15072899 -0.18819188 -0.09628253 -0.06570255 -0.10102155 0.020867633 0.061828196 -0.52868575 -0.089977376 -0.0051991427 0.24034102 0.21515626 -0.16938213
48 -0.122844346 0.040996104 -0.2542569 -0.25942633 0.18457617 0.42196396 0.20416743 0.14118125 -0.23791377 -0.06755127 -0.03853393 -0.16732155 -0.10845905 0.059984814 -0.39697292 -0.15341802 0.1601349 0.20021534 0.07383779 -0.0827498
42 -0.17444347 -0.052383978 -0.19356771 -0.2771076 0.1314156 0.31580004 0.15132831 0.15616153 -0.11594759 0.032366935 -0.083580874 -0.0995575 -0.1349285 0.12992114 -0.57159495 -0.0936027 0.032144483 0.07958555 0.16681334 -0.073121406
41 -0.11001193 0.044790726 -0.23665284 -0.285042 0.16719508 0.36103782 0.08799733 0.076027095 -0.16978018 0.0030683526 -0.16806735 -0.0021798403 -0.1416008 0.112663694 -0.5556237 -0.089632265 -0.031954873 0.1532703 0.02276284 -0.035150345
37 -0.14331649 -0.026884288 -0.2175785 -0.21281734 0.16881172 0.3303208 0.04115396 0.22947085 -0.23335986 0.069540985 -0.04814686 -0.0121508315 -0.001633302 0.0613371 -0.5499311 -0.16923052 0.105207555 0.16623946 0.100613855 -0.090734445
64 -0.1220046 0.049554415 -0.2799514 -0.22640865 0.10967681 0.40482017 0.19424097 0.13044782 -0.2135573 0.0025043131 0.030648304 -0.047978804 -0.11892878 0.13009414 -0.48584053 -0.047202677 0.07977586 0.13418959 0.043759413 -0.115905315
38 -0.17332634 0.06215148 -0.21667613 -0.13960794 0.24705108 0.38075307 0.123616874 0.09345915 -0.27339995 0.020059442 -0.038034525 -0.10309733 -0.063292995 0.10941425 -0.49636403 -0.1411736 0.13080485 0.14877912 0.15128523 -0.017902782
79 -0.06700241 0.05671511 -0.19313583 -0.14345989 0.21832572 0.4169871 0.07817301 0.13467948 -0.14360245 0.016066413 -0.0024868397 -0.09569622 -0.14956892 0.049144343 -0.5346852 -0.1853484 0.10874914 0.1776698 0.06705532 -0.15762956
69 -0.2480229 0.058805212 -0.1826661 -0.26313445 0.27770063 0.35794207 0.11543629 0.1571715 -0.22289416 0.14592393 -0.0397519 -0.055047736 -0.061940785 0.089726426 -0.46709755 -0.055375416 -0.0040838704 0.09562321 0.07702925 -0.12644997
60 -0.12494393 -0.0127981575 -0.23463355 -0.24979486 0.20668447 0.44448945 0.04606441 0.1338949 -0.18477638 0.026150055 -0.06562398 -0.07411392 -0.12104243 -0.06425376 -0.494576 -0.0652036 0.01322603 0.09232402 0.0839151 -0.20608231
45 -0.29716727 0.008826745 -0.38852325 -0.1304185 0.15378205 0.2863034 0.10513137 0.11458269 -0.19181159 0.034050714 -0.006238066 -0.032558598 -0.13442987 0.07703028 -0.48672268 -0.14552024 0.06859828 0.1969767 0.12872581 -0.16065909
28 -0.11387866 0.042038593 -0.34795085 -0.23719469 0.19789031 0.40508115 0.04921602 0.13978776 -0.2450536 0.06297396 -0.088081114 0.04755632 -0.13710618 0.0077660903 -0.43307263 0.037133913 -0.023563698 0.21924105 0.1496815 -0.11244625
118 -0.06615369 0.009329819 -0.23134188 -0.20776232 0.2482021 0.38294926 0.097665906 0.24708189 -0.2810963 0.1143882 -0.067813955 -0.02872186 -0.017194057 0.077558294 -0.43313658 -0.17917864 0.10933075 0.110818915 0.17442727 -0.16884625
71 -0.19644338 0.05228441 -0.31312218 -0.241679 0.23723474 0.40831187 0.09936734 0.094115086 -0.14489011 -0.053561416 -0.016392551 0.05254009 -0.13766088 0.05393256 -0.47909388 -0.059046127 -0.032338217 0.18593813 0.07370466 -0.035758797
29 -0.09373314 0.018869061 -0.3417455 -0.26114157 0.14608967 0.3278725 0.16729204 0.18043838 -0.17393309 0.115861006 0.04126868 -0.050118744 -0.16172798 0.15754236 -0.47572023 0.010973724 0.0010597074 0.1995555 0.01670039 -0.11374199
49 -0.24851252 0.04686127 -0.21341261 -0.3625118 0.13429579 0.29082453 0.06699465 0.13875708 -0.23702408 -0.043915994 0.025598139 -0.0785751 -0.0563933 0.1042449 -0.5301963 -0.09472833 0.014635438 0.054222908 0.19377169 -0.037915736
63 -0.19408806 0.11382418 -0.19653249 -0.21673355 0.21788897 0.42443615 0.13582051 0.18065697 -0.2696789 0.012124033 0.032608002 -0.10335933 -0.052173544 0.045769326 -0.47097173 -0.049706332 0.05890089 0.16725935 -0.030581398 -0.05757104
66 -0.113679275 0.08780214 -0.31880173 -0.25439933 0.20664069 0.29407936 0.008270704 0.17927834 -0.09472959 0.04127488 0.0048723877 -0.06529526 -0.077329285 0.08034417 -0.5182765 -0.12358406 0.098256394 0.274191 0.06275493 -0.17274438
96 -0.17974581 -0.079426564 -0.21836872 -0.30946627 0.1837556 0.31413642 0.08787499 0.08331964 -0.111740604 0.11147187 -0.026243817 -0.06719634 -0.14858785 0.04622446 -0.5526816 -0.06240028 0.06317258 0.20634006 0.0433317 -0.19586883
34 -0.18496075 0.03279566 -0.23782662 -0.18390498 0.14374933 0.31897664 0.18182568 0.12654594 -0.18668273 0.0838596 -0.06502929 -0.036901563 -0.10004016 0.0847671 -0.5441149 -0.10900495 -0.025892897 0.18576708 0.14568162 -0.08759798
84 -0.09638197 0.11736159 -0.23858333 -0.23708555 0.21817617 0.3966447 0.16657689 0.18436135 -0.19027089 0.08910877 -0.066644214 -0.13384433 -0.04467473 0.17278275 -0.45734054 -0.07149174 0.09697074 0.14335987 0.02389618 -0.08675069
35 -0.09635983 -0.0883179 -0.23789583 -0.2291269 0.16823901 0.335736 0.037204336 0.11382572 -0.25775805 0.067456044 -0.07902774 -0.076738976 -0.17786516 0.08045127 -0.5160008 -0.13703124 -0.036505632 0.21798605 0.14265904 -0.053079005
31 -0.08791329 0.007408486 -0.19562387 -0.21822529 0.22247037 0.4095454 0.20815228 0.045050576 -0.21104959 -0.0031644288 -0.08672812 -0.09218041 -0.20461616 0.08300936 -0.51492476 0.02512207 0.09148222 0.102269724 0.0802347 -0.14360355
55 -0.106018834 -0.062826164 -0.32759535 -0.31244949 0.21401054 0.3155094 0.15397972 0.2025462 -0.1929252 0.0913992 -0.05909714 -0.068717755 -0.0816796 0.08391598 -0.47376323 -0.103556864 0.045123205 0.033087187 0.08365337 -0.105129406
95 -0.22115768 0.07528632 -0.3300981 -0.21803442 0.14442158 0.36041155 0.03698699 0.16648921 -0.15071063 0.11117052 -0.074391074 0.044172913 -0.05686562 -0.0237222 -0.54074264 -0.13263875 0.07972061 0.067537256 0.073041566 -0.11956043
75 -0.15640923 -0.039988 -0.30954292 -0.21864334 0.1809455 0.4315721 0.10726585 0.2108434 -0.11721586 0.0638935 -0.10684768 -0.014104201 -0.066673025 0.07945303 -0.47119793 -0.08965277 -0.011449247 0.1087251 0.13718604 -0.08270481
30 -0.18709937 0.0445768 -0.10952163 -0.22867043 0.23362069 0.4447953 0.17026643 0.089466624 -0.20903002 -0.03030009 -0.010412346 -0.07344659 -0.06916856 0.19986102 -0.47977903 -0.042109054 0.060019772 0.19299795 0.11866671 -0.039336722
68 -0.14243484 0.008347715 -0.2841895 -0.18692432 0.16723037 0.31496987 0.09728078 0.12346745 -0.22319523 0.06973396 0.05556954 -0.19310032 -0.10713282 0.14245743 -0.5064416 -0.04772381 -0.03644477 0.15110685 0.16241978 -0.19509168
94 -0.12172551 0.087660626 -0.25430876 -0.19159304 0.22224486 0.41308913 0.20065945 0.11671992 -0.17858872 -0.013390385 -0.013072923 -0.15414034 -0.16724983 0.038122687 -0.49366817 0.008370973 0.040612258 0.14400363 0.092875354 -0.012107991
39 -0.0081310375 0.06937092 -0.26332948 -0.2439948 0.051016588 0.34871522 0.086172104 0.09879715 -0.2604434 0.0640459 0.05857277 -0.06516533 -0.105286606 0.16799627 -0.5537082 -0.062003314 0.043086257 0.1630384 0.14270467 -0.0794114
122 -0.20934117 0.079463735 -0.22339147 -0.36527818 0.22273414 0.27358487 0.19111422 0.106942855 -0.22443734 0.07351874 -0.14895898 0.0063301213 -0.13099058 0.09617517 -0.46645373 -0.13570127 0.12384494 0.17644666 0.057531472 -0.027628906
32 -0.110892326 0.065095425 -0.2392289 -0.17091334 0.20299043 0.3587722 0.19161439 0.12532528 -0.22324358 0.1043126 -0.036115736 -0.011127587 -0.12323904 0.061347306 -0.52716345 -0.14147776 0.0013298206 0.16760854 0.07526861 -0.017764598
56 -0.18124211 0.10736888 -0.23286156 -0.119910575 0.23006417 0.40813875 0.20824058 0.10815557 -0.28705025 -0.0025408273 -0.018693574 -0.037790615 -0.2517275 0.032231938 -0.47205243 -0.13366091 -0.012974536 0.06708573 0.029486602 -0.10385798
59 -0.13824324 0.033989154 -0.211008 -0.18124788 0.2682633 0.38728797 0.20704484 0.12162753 -0.11526028 0.11844575 -0.09035145 -0.024573447 -0.09263986 0.08441897 -0.47640046 -0.052813288 0.0934091 0.124521025 0.235282 -0.26619902
112 -0.12333328 0.08084986 -0.22801095 -0.2807633 0.2617802 0.33716834 0.04509696 0.07104218 -0.22673953 0.12115123 -0.0033038124 -0.010565092 -0.12612604 0.024340216 -0.5295765 0.050860465 0.0055326824 0.17822482 0.08679544 -0.11306714
47 -0.12765563 0.051035866 -0.24137306 -0.16498223 0.14357746 0.37951386 0.1717781 0.14841639 -0.2690119 0.10846013 -0.054731455 -0.074619606 -0.18402202 0.015940847 -0.49496156 -0.1376823 -0.036458008 0.14457755 0.12999152 -0.016391398
50 -0.0059770364 -0.0024592993 -0.24339986 -0.32126808 0.16735321 0.3651245 0.1874073 0.18262653 -0.16695821 0.059997555 0.011195233 -0.07422884 -0.08397668 0.06307085 -0.49353802 -0.009275918 0.074974194 0.20898736 0.14148949 -0.041521627
61 -0.10239814 0.06981961 -0.33133554 -0.18155044 0.12880473 0.4785222 0.037549824 0.16556056 -0.13791803 0.13355498 -0.0016116307 -0.10143578 -0.1089613 0.0050206417 -0.4614373 -0.15909146 0.10679093 0.16461526 0.06332291 -0.059174478
57 -0.13969569 0.08586374 -0.24509236 -0.18992108 0.18780342 0.39616734 0.17332596 0.1261591 -0.23092155 0.021804743 -0.025679467 -0.05242524 -0.016561124 0.023194524 -0.51158845 -0.058355898 0.067447305 0.19473459 0.13428837 0.0059759887
90 -0.14736976 -0.060829982 -0.30998388 -0.21662132 0.15190226 0.37550512 0.15740743 0.20547205 -0.26310748 0.034130562 0.033494093 -0.07123744 -0.068648785 0.07360369 -0.4486125 -0.14062448 0.007734804 0.18846296 0.118111394 0.019210756
52 -0.11925401 -0.047151398 -0.22763726 -0.17505904 0.23503809 0.30050787 0.097853184 0.11183117 -0.13591972 -0.017655374 0.060482908 -0.09111784 -0.21409605 0.104228064 -0.5703432 -0.08494351 0.060087074 0.2175838 0.06506208 -0.17655474
91 -0.13354881 0.03501538 -0.29108977 -0.13501427 0.2368772 0.387392 0.14503305 0.15547457 -0.18521424 0.024009492 -0.008981395 -0.048682895 -0.11432991 0.13105007 -0.50556844 -0.05703189 0.07076222 0.09446493 0.03895232 -0.16530746
58 -0.20506814 -0.023593333 -0.39610335 -0.24082074 0.23366083 0.3732439 0.07966383 0.13280424 -0.109906524 0.0065860134 0.05246513 -0.04278914 -0.12005713 0.06848427 -0.47705427 -0.07662338 0.054751515 0.10930138 -0.037867755 -0.14307792
114 -0.113792725 0.04706937 -0.14009653 -0.3003683 0.19054821 0.28488758 0.10064681 0.09495452 -0.23505548 0.092150465 -0.06405186 -0.038636595 -0.09065456 -0.051416676 -0.5984981 -0.094480224 -0.0022045672 0.17693323 0.105345614 -0.11030966
115 -0.20351493 0.05151572 -0.31277505 -0.31175014 0.18887456 0.26983586 0.099397786 0.120400295 -0.2206678 0.023243947 -0.0020855102 -0.12132567 -0.14121328 0.0292658 -0.49096686 -0.04099011 0.03682362 0.13197042 0.13780239 -0.08955376
92 -0.17060845 0.024064561 -0.24092314 -0.31711727 0.16650516 0.36695987 0.16189918 0.15383802 -0.23031387 -0.0004563127 -0.08619566 -0.11323054 -0.11425357 0.067942716 -0.44438234 -0.03892416 0.079784505 0.10673299 0.05203648 -0.19507593
70 -0.13453846 -0.065896094 -0.33648843 -0.28145048 0.12676808 0.3771125 0.14192064 0.14958176 -0.17528954 -0.0118952235 -0.084525645 -0.11463872 -0.10639333 0.070447065 -0.49574813 -0.08023573 0.06839823 0.101165056 0.06110267 -0.019823791
101 -0.17256005 0.06731468 -0.21008705 -0.319365 0.15337242 0.3101844 0.19015044 0.055941008 -0.20199402 0.1063118 -0.02761802 -0.00819402 -0.13445345 -0.034095876 -0.498512 -0.18773672 0.05144868 0.22783121 0.10872974 -0.13186367
74 -0.12665164 0.08039595 -0.25239587 -0.30786023 0.15303814 0.35219848 0.16110894 0.16945401 -0.20904835 -0.0224369 -0.099508196 -0.10446921 -0.09712789 0.09458981 -0.45871717 -0.18759547 -0.0047582784 0.115114614 0.0910418 -0.09392136
116 -0.07694305 0.1330451 -0.20899644 -0.2562749 0.17240523 0.40788776 0.06295149 0.11581315 -0.26797235 0.021541372 0.0067960653 -0.09399431 -0.05837397 0.09698625 -0.50133395 -0.108705014 0.08739039 0.15443891 0.035148993 -0.082108535
81 -0.14911641 0.072222136 -0.24493156 -0.2641509 0.24465917 0.3118333 0.10694433 0.08006335 -0.22622305 -0.0592586 -0.0198912 -0.013485763 -0.027270759 0.055984553 -0.53735584 -0.16138142 0.14387189 0.19431624 0.0428917 -0.034704253
53 -0.12288504 0.07149373 -0.28440318 -0.19106913 0.2514288 0.32478818 0.09724738 0.09751302 -0.21942392 0.035808302 -0.02450256 -0.09684532 -0.056583572 0.14983006 -0.5643802 -0.09794128 -0.014873379 0.09175059 0.01460992 0.018170677
72 -0.18355191 0.15983826 -0.25370955 -0.2301274 0.2311617 0.3511082 0.031817656 0.102656126 -0.16541402 0.0052656378 0.01752716 -0.07923799 -0.03069993 0.06637587 -0.5244266 -0.12919724 0.04588122 0.16040142 0.050569274 -0.159798
93 -0.1940938 0.023778386 -0.15474586 -0.23334171 0.13866624 0.30644092 0.14291489 0.18983807 -0.19337125 0.13478345 -0.15224217 -0.05114568 -0.1910297 0.04869849 -0.5731316 -0.0668305 -0.0012132792 0.04609058 0.11388914 -0.14856818
67 -0.2065928 0.10048474 -0.2323416 -0.13925044 0.17117469 0.43544102 0.07957176 0.13005395 -0.23116443 0.067297764 -0.05372535 -0.07844302 -0.21670231 0.08249711 -0.4621768 -0.056217648 0.01977702 0.1288518 0.16950181 -0.07053837
113 -0.22835994 -0.023772081 -0.23918784 -0.18977195 0.22685441 0.40767893 0.17995945 0.06270205 -0.17988293 0.10109672 0.055348303 0.0023487813 -0.037218772 0.12732203 -0.49398783 -0.19702993 -0.020941505 0.1337377 -0.015512178 -0.17818436
88 -0.2013729 0.040183198 -0.32014108 -0.2342867 0.25893092 0.34893712 0.18707925 0.052707683 -0.17470036 0.11064874 0.009002021 -0.097949214 -0.12877525 0.015054939 -0.4738393 -0.13022609 0.047080103 0.040630948 0.08784787 -0.09093153
110 -0.12089238 0.013292868 -0.28137994 -0.20470174 0.2053157 0.34858054 0.17716715 0.049176835 -0.19823913 0.069883615 0.073383085 -0.1704927 -0.20420176 0.034769528 -0.5099932 -0.13620326 0.043055996 0.14758933 0.06746632 0.00918312
65 -0.113424875 0.05380109 -0.1458806 -0.25871047 0.3546033 0.37712142 0.09679372 0.11827984 -0.22416478 -0.003954746 -0.0153825 -0.105797745 -0.17280407 0.0954443 -0.44725987 -0.09856244 -0.046293795 0.20720775 0.05359226 -0.17051099
97 -0.066754654 0.05371449 -0.27513534 -0.28263503 0.21697657 0.3505178 0.09850711 0.21117224 -0.2489971 0.079300106 -0.07052043 -0.0077170604 -0.1523901 0.033143938 -0.45660946 -0.12327973 0.06540156 0.09598571 0.11937324 -0.051613677
26 -0.043401662 0.1333982 -0.26921588 -0.22721595 0.14578667 0.3407148 0.11454102 0.12572388 -0.12211471 0.022314223 -0.10477558 -0.082688764 -0.052256238 0.103049606 -0.5640572 -0.10433984 0.06818378 0.15419184 0.14304227 -0.12852688
117 -0.12896024 0.0683033 -0.30727556 -0.24792558 0.23352379 0.32419494 0.10479743 0.16402607 -0.20315683 0.031559806 0.033767965 -0.14309216 -0.017882448 -0.015574421 -0.5329083 -0.033022434 -0.0031562157 0.12714913 0.071511574 -0.041154087
11 -0.110090196 0.100813895 -0.19905435 -0.25757626 0.14960879 0.38795424 0.10210127 0.29873997 -0.2932479 0.02154391 -0.07437941 -0.0021662356 -0.096344024 0.032836832 -0.4645017 -0.10474956 -0.008838291 0.1421663 0.110055916 -0.008988655
107 -0.0949921 0.05077684 -0.26265246 -0.33303925 0.22989854 0.28881878 0.12632567 0.07943484 -0.26546738 0.12484362 -0.039059576 -0.012232323 -0.025500922 -0.038770877 -0.5649426 -0.045562837 0.15631422 0.063615784 0.016803265 -0.07617487
62 -0.15478697 0.0048985425 -0.2454761 -0.27724653 0.20170456 0.3295647 0.0033915958 0.2042038 -0.15684947 0.052406944 -0.05004415 0.01515378 -0.028528582 0.09301537 -0.5816249 0.013542169 -0.05949263 0.12531893 0.011280577 -0.15037972
10 -0.07129119 -0.010674697 -0.3054066 -0.19333035 0.23792656 0.33888358 0.1464891 0.23102666 -0.18853275 0.058573686 0.022832902 -0.032918938 -0.123319454 0.1376903 -0.5332636 -0.05861807 0.12176994 0.13399632 -0.122191556 -0.027592065
6 -0.06189101 0.07982235 -0.22747971 -0.23586275 0.14110094 0.36123815 0.06900612 0.23005198 -0.22609058 0.05905383 0.026531864 0.013430288 -0.14200944 0.09255342 -0.5316783 -0.042681806 -0.014813592 0.06163471 0.17992872 -0.12565023
111 -0.17735468 0.016085843 -0.23039751 -0.32097813 0.12258776 0.32975093 0.08505769 0.15619788 -0.17579345 0.05675558 0.034882866 -0.04567854 -0.051817086 0.032145828 -0.550483 -0.11706442 -0.016191246 0.103395216 0.066031545 -0.14849725
27 -0.1266983 -0.033488993 -0.20324028 -0.21848857 0.079759635 0.37482762 0.06406108 0.14586793 -0.2940336 0.07759618 -0.103003755 -0.11191725 -0.07439142 0.12713724 -0.5705793 -0.082790576 0.14022976 0.08973655 0.031275485 0.0039532473
25 -0.1867488 0.11432244 -0.29302388 -0.31185177 0.16406938 0.34026685 0.03321087 0.091590635 -0.26562768 0.06632701 -0.061686862 -0.004904994 -0.1148362 0.11326583 -0.49728283 -0.024685653 0.08420371 0.040941093 0.09075704 -0.06042609
103 -0.042713653 -0.0003790986 -0.22595987 -0.28096753 0.19825062 0.41991454 0.08389051 0.22096482 -0.25802776 0.15389834 -0.050989337 -0.00015707381 -0.0910855 0.1185533 -0.46330824 -0.027248459 0.025357714 0.11299133 0.07727779 -0.054377582
89 -0.06507364 -0.030032359 -0.3009394 -0.3484632 0.22027713 0.30152068 0.24628145 0.1004326 -0.2354133 0.15912855 0.07175347 -0.041418783 -0.025780587 0.100416146 -0.50012386 -0.062451597 -0.022714607 -0.031606212 0.17068072 -0.10912295
7 -0.11424981 0.06499788 -0.19976157 -0.29305938 0.06308569 0.4093786 0.15585747 0.25091508 -0.1846392 0.084186934 -0.048818547 -0.01234768 -0.16666642 0.17414436 -0.5057467 0.082709715 -0.0041127894 0.10497914 0.026122784 -0.109802306
24 -0.086342596 0.11939719 -0.28550124 -0.24659845 0.17341194 0.2197598 0.13847166 0.13088872 -0.17065333 0.073578626 -0.030547969 -0.10822088 -0.072477736 0.09557651 -0.5694426 -0.03866192 0.084089175 0.19925097 0.24290612 -0.050038334
83 -0.119067885 0.031098846 -0.26392415 -0.3001283 0.23725088 0.31428242 0.30077013 0.14276463 -0.1215585 0.028971521 0.0056090406 -0.12818263 -0.0010838062 0.09096593 -0.52068335 -0.113947704 -0.037744828 0.053830832 0.11064048 -0.06728723
9 -0.11952181 0.11321753 -0.17718783 -0.16216862 0.1617462 0.3380616 0.18342239 0.12418005 -0.0856233 0.049145866 0.016373532 -0.046224944 -0.16535863 0.21959391 -0.6129356 -0.01534247 0.048454065 0.15351412 0.06988813 -0.10427749
46 -0.17345567 0.014366982 -0.29363537 -0.21200739 0.16551122 0.41464698 0.16062732 0.18938942 -0.13375738 0.006995417 -0.16646653 -0.14424676 -0.19355388 0.049800437 -0.46168777 -0.09112892 -0.017176358 0.12032191 0.077841714 -0.019795602
51 -0.030977173 -0.024918081 -0.21322326 -0.1869785 0.16489163 0.43018216 0.08612671 0.061793927 -0.21077956 0.06366016 0.013453839 -0.016708141 -0.08191873 0.0015487451 -0.59025645 -0.11261591 0.077401176 0.12580727 0.11289455 -0.03556302
82 -0.07219644 0.13450673 -0.2747521 -0.28339306 0.23663817 0.34432194 0.118594036 0.23746839 -0.22531168 0.022021761 0.0800304 -0.010930851 -0.052778818 0.13354285 -0.44415462 -0.2179881 0.017974958 0.060053714 0.055101644 -0.17480113
121 -0.09460429 0.094003275 -0.18152738 -0.28870013 0.045578957 0.41543496 0.08857157 0.22080795 -0.33197284 0.026436636 -0.057700906 -0.095790364 -0.07683527 0.17119081 -0.46911186 -0.07149506 -0.15345979 0.18764944 0.04148117 -0.04321011
76 0.058417927 0.099170886 -0.26130337 -0.25125974 0.17773618 0.2548195 0.10568298 0.26204455 -0.3093247 0.074589856 0.12331861 0.02240919 -0.12703866 0.104700185 -0.55580866 -0.053286802 -0.121598236 0.05642074 0.16933154 -0.12291845
123 -0.13708685 -0.030895399 -0.20730895 -0.2408466 0.26278663 0.33302495 0.14690757 0.26663426 -0.11842901 0.048663832 0.195108 -0.100889646 -0.041113462 0.04423195 -0.53134024 -0.12791616 0.01232436 0.17765097 0.074509606 -0.032608658
19 -0.10844035 0.10870808 -0.22653209 -0.31085798 0.16560066 0.38817152 0.05944913 0.1419592 -0.1466348 0.031802226 -0.13644011 0.030148678 -0.092702426 0.12725504 -0.5492305 0.027465431 0.043393146 0.046047054 0.21082869 0.0017814435
12 -0.14664571 0.11595347 -0.23935963 -0.32658425 0.12564656 0.355253 0.06873227 0.11329171 -0.09659741 0.05969127 -0.056326654 -0.026466496 -0.17415355 0.116511606 -0.56016284 0.06880978 0.013512472 0.09639994 0.14701493 -0.058788642
108 -0.041271675 0.052491203 -0.2661152 -0.37594458 0.25354177 0.35638714 0.20442808 0.12392182 -0.13026017 0.010750863 0.06103796 -0.053751238 -0.25802 0.059325732 -0.46326783 -0.04223596 -0.0717035 0.06476838 0.088922374 -0.1025225
2 -0.13113092 0.076477945 -0.26168954 -0.2268226 0.015222312 0.4116401 0.042412993 0.083014056 -0.2240262 0.017376935 -0.046066675 -0.08996967 -0.06783252 0.10833269 -0.5926065 0.022867624 0.18689689 0.10676798 0.12380097 0.06036293
14 -0.17475176 0.015774027 -0.20930246 -0.15783699 0.0715068 0.36158067 0.05103195 0.20870405 -0.13725297 0.035488088 -0.023533482 -0.08570536 -0.14210679 0.21535799 -0.57462263 -0.14300889 0.13013867 0.09399611 0.23460649 0.041160975
20 -0.14463745 0.10662313 -0.23017766 -0.21261595 0.19093634 0.3872875 0.03594728 0.11108063 -0.23718895 0.11794396 -0.022891816 0.04223228 -0.20281681 0.2175842 -0.48425102 -0.11522628 -0.01778081 0.077778734 0.15604134 -0.051249098
3 -0.19530232 0.053443477 -0.26745003 -0.26340213 0.2367563 0.33847383 -0.027468827 0.085110225 -0.21125953 0.00030928617 -0.03803489 -0.11472859 -0.11412001 0.082093276 -0.5232279 -0.0022911471 0.08644892 0.1713828 0.19479474 0.102919355
17 -0.14928707 0.10025464 -0.3442076 -0.18721443 0.05511982 0.413766 0.110006064 0.22114134 -0.13254596 0.027028225 0.090578094 0.069569394 -0.14793827 0.15379961 -0.5084911 0.01362147 0.16047473 0.12849534 0.10824059 -0.0350214
106 -0.024354797 -0.011127434 -0.1913327 -0.2992876 0.22202924 0.25268686 0.11137029 0.13502781 -0.31636342 0.13573022 -0.043437254 -0.015298253 -0.120701514 0.074086115 -0.59208566 -0.046055075 -0.05364988 0.09090158 -0.022416184 -0.14310963
119 -0.1543309 0.15056911 -0.19984815 -0.21073286 0.15720052 0.31452754 0.20777802 0.17383906 -0.2582517 0.091101274 -0.0070886565 -0.14222537 -0.14063486 0.092170246 -0.5165892 -0.09153078 -0.11139768 0.12812029 0.042363904 -0.09542221
21 -0.15648894 0.095849894 -0.2575472 -0.26302776 0.14719667 0.4101113 -0.16268325 0.20785601 -0.09818712 0.02459331 0.008250344 -0.10666883 -0.17774461 0.19008929 -0.5479359 -0.08046656 0.12761569 0.053147823 0.06639345 0.019377185
13 -0.21370186 0.06521311 -0.21202165 -0.17707214 0.12633899 0.4128755 0.086987324 0.1479417 -0.15864888 0.030457135 -0.019114701 0.064710535 -0.20225877 0.1649151 -0.5029797 -0.026162688 0.08147973 0.21474074 0.15974043 -0.030251201
18 -0.20724955 0.07528902 -0.25778285 -0.08426983 0.07924705 0.4107068 0.13622206 0.2056046 -0.1880854 0.077934064 -0.019520067 -0.15713754 -0.12810169 0.120021746 -0.53249824 -0.01320544 0.04624823 0.12035346 0.118003294 -0.046168935
109 -0.033659022 0.026429005 -0.17658396 -0.2875519 0.24067822 0.37137318 0.02430786 0.17114677 -0.22971427 0.045233864 0.021904016 -0.05701044 -0.01840256 0.13423955 -0.5504428 -0.030204471 -0.10266668 0.18805419 -0.012517616 -0.109147534
5 -0.15238895 0.044166587 -0.15841398 -0.18817468 0.23912376 0.4510583 -0.028404118 0.21034224 -0.2081315 -0.013073246 -0.033152584 0.028557034 -0.1534078 0.1177016 -0.5224357 0.05408835 0.054178532 0.14685005 0.103235096 -0.026157249
16 -0.12678398 0.058489587 -0.23773175 -0.10630368 0.17163931 0.43941122 0.018355215 0.1523975 -0.22541374 0.016429089 -0.032971386 -0.0073523796 -0.18947901 0.12394324 -0.50103146 -0.084238514 0.2016463 0.16259865 0.1635494 -0.0118450485
80 -0.036014758 -0.07355016 -0.078143276 -0.18755902 0.2064396 0.29157344 0.13525374 0.24783 -0.253082 0.07734303 0.023344664 -0.057457738 -0.09281077 0.11597687 -0.60293 -0.10255016 0.01714744 0.21529092 0.13679785 -0.08593464
104 -0.13560247 0.11881944 -0.20236762 -0.24027556 0.27712882 0.2962083 0.11618486 0.22396445 -0.2745895 0.031589188 0.08795125 -0.070081785 0.027895376 0.07473665 -0.5405812 -0.07144003 -0.06893814 0.09117619 0.081788465 -0.0733238
8 -0.17586575 0.075668156 -0.13374656 -0.1840534 0.074010886 0.48775786 0.04608795 0.2702035 -0.116159946 0.1271683 -0.087954454 -0.107597075 -0.11970385 0.05734701 -0.56991655 0.012593781 0.20270829 0.051699143 0.06806675 -0.039411183
22 -0.22967976 0.030122656 -0.21324839 -0.1671466 0.17575529 0.37437966 0.113140285 0.11946294 -0.12618321 0.087523565 -0.0452939 -0.039182067 -0.11967653 0.074064896 -0.584344 -0.03621109 0.16388835 0.07243986 0.10970813 -0.05485616
23 -0.21495454 -0.022175172 -0.36555424 -0.13545336 0.07357967 0.3929256 -0.0057951673 0.12298132 -0.17681338 0.056192152 -0.046936758 -0.06029608 -0.20235625 0.13875738 -0.56272185 -0.0494184 0.13355109 -0.033633657 0.11038154 -0.045800835
99 -0.045727048 0.008515554 -0.1493366 -0.2744448 0.18419841 0.30889824 0.062093474 0.22106615 -0.22784027 0.108702116 0.09957467 -0.062705174 -0.17984234 0.027461201 -0.5892496 -0.08446609 -0.08365895 0.08146432 0.0657073 -0.12903395
86 -0.044503983 0.021423457 -0.21234809 -0.2900172 0.19217226 0.25988927 0.0727153 0.12959321 -0.26430893 0.0019462209 0.068974525 -0.0012064637 -0.04760928 -0.013330359 -0.6240348 -0.08857046 -0.14841084 0.09834766 0.08846558 -0.19261168
120 -0.05563005 0.03742493 -0.24820991 -0.25987178 0.20439112 0.26088303 0.112828165 0.17391421 -0.17488037 -0.028325683 0.089083716 -0.036630794 -0.21438766 0.10686816 -0.55542356 -0.12651166 0.026638089 0.119488895 0.062006824 -0.19066912
102 -0.16520071 0.041099027 -0.1559564 -0.2254355 0.19156875 0.19734707 0.14507966 0.15586776 -0.21434112 -0.03498209 0.072011404 -0.072862916 -0.0010122069 0.066033915 -0.68086606 -0.16275097 -0.12529638 0.11581766 0.103570804 -0.08298214
1 -0.18468866 0.03740439 -0.20906934 -0.22850029 0.13829976 0.37194273 0.08498931 0.12071517 -0.14698464 0.14891227 0.024639754 -0.024072217 -0.17983685 0.16870928 -0.49923107 -0.08105763 0.1519277 0.22025953 0.17819943 -0.002961032
15 -0.29155734 0.07232586 -0.20429598 -0.26530236 0.11142622 0.33972642 0.0496425 0.15464394 -0.23736322 -0.11214746 -0.13662179 -0.16539426 -0.121681914 0.11886109 -0.5182772 -0.06106963 0.103451945 0.060519498 0.116990715 -0.080906525
85 -0.069988556 -0.03310784 -0.2301336 -0.28777677 0.3613344 0.25360236 0.091327906 0.23155068 -0.3110183 0.034844387 0.025468756 -0.08177316 -0.10956308 0.119311206 -0.5017547 -0.117946446 -0.12836692 0.060366865 0.026693454 -0.02961596
98 -0.04946729 -0.06827989 -0.10694714 -0.2086662 0.18083788 0.3252483 0.19622943 0.23145984 -0.26537842 0.035891738 0.054065064 -0.078798495 -0.12223183 0.14685956 -0.5780303 -0.08960338 -0.07399834 0.11328161 0.057105724 -0.13439359
4 -0.24439847 0.09989958 -0.15789871 -0.19460797 0.20424542 0.4396024 0.07559474 0.08958697 -0.14867064 0.17556372 -0.12472093 -0.13636346 -0.15455338 0.15307392 -0.51272094 -0.054034226 0.12626484 0.00893179 0.1964858 0.024266941
87 -0.086824745 0.099807374 -0.204613 -0.40151942 0.15671849 0.29775447 0.15194845 0.23853314 -0.2088943 0.08219833 0.10781632 -0.09143842 -0.09390164 0.07222314 -0.503696 -0.05375841 -0.14363104 0.12148866 0.09990646 -0.035515428
105 -0.111262344 0.15218854 -0.20876613 -0.25342995 0.2388858 0.2812954 0.15042172 0.2545392 -0.2804302 0.03723942 0.04046398 -0.07919654 -0.03774942 0.15016085 -0.47322008 -0.098648146 -0.1605137 0.15584502 0.12608176 -0.16106984
100 -0.15781175 0.08382567 -0.22922128 -0.24866112 0.12952702 0.29802606 0.13245142 0.18485278 -0.24733433 0.016353093 0.17754343 0.010458385 -0.070126094 0.07241663 -0.59572625 -0.054886058 -0.02623905 0.098128974 0.03246742 -0.045941878
0 -0.0748594 0.0229202 -0.2974772 -0.22573009 0.1209155 0.34065074 0.048578233 0.10015367 -0.17969213 0.054208 0.013765169 0.0006219886 -0.15764298 0.053026773 -0.57040745 -0.0585772 0.04035365 0.20709597 0.17096473 0.03302174
