704 12
318 -0.47737 -0.831808 -0.716958 -1.10456 -0.761434 -0.57625 0.576438 0.157367 -0.731345 1.09649 0.793408 0.47317
296 -0.333017 -0.71016 -0.770315 -1.10375 -0.601841 -0.899256 0.444357 0.219247 -0.703018 1.05627 1.06227 0.610815
300 -0.34126 -0.643783 -0.771055 -1.16057 -0.783471 -0.752642 0.665901 0.0122346 -0.735113 0.971579 0.924291 0.506934
348 -0.327068 -0.362413 -0.851217 -1.12484 -0.860885 -0.87455 0.689676 -0.0183069 -0.7897 0.860784 0.826874 0.701043
386 -0.455556 -0.693288 -0.820055 -1.07291 -0.622621 -0.736795 0.528856 0.0890754 -0.779257 1.07548 0.862746 0.503325
391 -0.241938 -0.461485 -1.08226 -1.16196 -0.839742 -0.77508 0.305611 0.309784 -0.513708 1.02184 0.883099 0.561606
398 -0.419458 -0.642681 -0.905522 -1.22658 -0.61714 -0.842652 0.657321 0.223336 -0.593617 1.10926 0.693306 0.681305
409 -0.367135 -0.847423 -0.712956 -0.933281 -0.700729 -0.801704 0.605733 0.438137 -0.68258 1.19367 0.713178 0.669233
379 -0.269907 -0.70528 -0.690086 -1.04509 -0.581958 -0.78497 0.453818 0.131312 -0.577865 1.08434 0.927935 0.654068
364 -0.47608 -0.78283 -0.93702 -0.945469 -0.487359 -0.694315 0.602306 0.230793 -0.50679 1.05838 0.648742 0.809813
313 -0.35578 -0.682309 -0.782635 -1.08251 -0.604195 -0.869831 0.604982 0.311339 -0.615339 1.05503 0.985687 0.63012
432 -0.448647 -0.837548 -0.522038 -1.00192 -0.790387 -0.722128 0.820286 0.161021 -0.874 1.02735 0.754265 0.475507
351 -0.353205 -0.705476 -0.904598 -1.35462 -0.717239 -0.745701 0.593762 0.145682 -0.540667 1.05161 0.666378 0.679604
328 -0.235198 -0.641337 -0.928229 -1.12273 -0.778137 -0.789652 0.44332 0.161012 -0.690372 1.00125 0.957713 0.578134
299 0.813489 -0.309597 -0.570515 -0.197717 -0.136477 0.318104 0.530746 -1.29844 0.0967909 1.33876 0.478274 0.663082
113 0.581314 -0.280716 -0.359246 -0.893848 0.542831 0.10358 -0.142118 -0.12332 -1.37284 0.728467 -0.153923 0.715572
60 0.746759 -0.441331 -0.337986 -1.12424 0.585916 -0.0432771 -0.0561911 -0.304234 -1.12975 0.834399 -0.0508543 0.355798
77 0.453482 -0.696522 -0.444676 -1.0067 -0.362378 0.00256503 -0.503124 -0.372844 -1.1807 1.01217 -0.124151 0.515856
200 0.873431 -0.265383 -0.3263 -0.855043 0.600491 0.113194 -0.0969106 0.153328 -1.42977 0.539786 0.0367575 0.633528
96 0.726345 -0.390673 -0.541233 -1.01328 0.534276 0.486527 -0.00425314 -0.0915715 -1.31643 0.316065 -0.209274 0.716937
573 -0.390601 0.652286 -0.0200384 -0.259881 -0.0140252 1.08573 0.215599 0.544635 -0.442619 1.0446 1.36793 0.599513
471 -0.0198567 0.61497 -0.0306897 -0.618771 0.0164419 1.15065 0.826348 0.756917 -0.24079 0.774515 1.1885 0.666144
508 -0.280008 0.0785233 -0.428321 -0.536546 0.277451 1.36809 0.869706 0.474339 -0.117999 0.559066 1.28109 0.485818
689 -0.117557 0.548764 -0.119019 -0.57482 -0.0630397 1.18188 0.839539 0.861632 -0.270603 0.829607 0.998096 0.592573
634 -0.604273 0.414433 -0.019233 -0.12938 -0.00608549 1.22166 0.48244 0.438789 -0.49996 0.948434 1.17478 0.83404
627 -0.0457083 0.651719 -0.127881 -0.64487 -0.103969 1.09888 0.721304 0.66348 -0.233155 0.599495 1.2486 0.821895
646 -0.141665 0.407025 0.260176 -0.959552 0.343945 0.858775 0.760259 0.762165 -0.0413308 0.701757 1.46152 0.357355
575 0.191984 0.263468 0.434714 -0.899927 0.537795 0.859227 0.917574 0.625675 0.152909 0.740163 1.62011 0.511658
602 0.162932 0.530445 0.756397 -1.04278 0.272968 0.766754 1.21213 0.802101 0.00552949 1.01934 1.11045 0.612179
682 0.0860381 0.650303 0.451293 -1.08031 0.184342 0.912802 1.10819 0.792746 -0.0985929 0.813257 1.07382 0.438721
557 0.122648 0.618686 0.338769 -0.817875 0.158531 0.963734 1.28932 0.632128 -0.302471 0.622771 1.38181 0.365836
684 0.0759527 0.49569 0.0686493 -0.776619 0.132907 1.02726 0.952967 0.721227 -0.146491 0.602308 1.32569 0.579461
490 -0.303616 0.366796 -0.0752303 -0.634159 -0.265749 1.34969 0.567112 0.592765 -0.273434 0.696673 1.06254 0.820608
498 -0.476022 0.298902 -0.409956 -0.640158 0.204949 1.4089 0.647422 0.538845 -0.011895 0.848228 0.895938 0.741024
523 -0.128069 0.662035 -0.117739 -0.649909 -0.0117685 1.13517 0.814514 0.595874 -0.29545 0.597533 1.16111 0.74219
656 -0.198562 0.218694 -0.249014 -0.870902 -0.139204 1.46133 0.454791 0.631861 0.0952023 0.848496 0.934047 0.629686
688 -0.198524 0.469978 -0.194768 -0.597127 -0.132968 1.15909 0.697046 0.4582 -0.171564 0.681481 1.21199 0.838303
549 -0.401964 0.272999 -0.126987 -0.546026 -0.388802 1.0956 0.419602 0.350993 -0.252839 0.615589 1.40551 0.746139
574 -0.14763 0.510625 -0.155379 -0.604522 -0.222419 1.24811 0.746329 0.53632 -0.293073 0.609532 1.15256 0.824228
514 -0.0976711 0.47379 -0.131126 -0.548818 -0.0367457 1.33218 0.997612 0.74915 -0.391725 0.745394 1.16853 0.324751
496 -0.054543 0.574676 -0.0695286 -0.579348 -0.0526414 1.18567 0.755274 0.598582 -0.215395 0.69575 1.26192 0.86982
511 -0.472039 0.65505 -0.390985 -0.522538 0.385402 1.12162 1.06116 0.737258 -0.260317 0.777145 0.828224 0.698943
686 -0.241723 0.495108 -0.178127 -0.667384 -0.296597 1.12574 0.532403 0.616081 -0.236669 0.699903 1.19198 0.699013
91 0.680827 -0.421973 -0.804279 -0.672774 0.971103 0.308205 -0.141035 0.284871 -1.1403 0.484177 -0.00524164 0.721215
65 0.782386 -0.227922 -0.357949 -1.01575 0.648106 0.142855 -0.167123 0.147052 -1.30976 0.571111 -0.0514455 0.597671
114 0.803688 -0.23062 -0.273332 -0.93457 0.645388 0.109858 -0.0816017 0.234508 -1.45207 0.574914 -0.054638 0.540733
280 0.706206 -0.335259 -0.0875077 -1.35057 0.53681 0.203273 -0.317381 -0.0100032 -0.968963 0.389454 -0.229278 1.01585
71 0.846822 -0.230653 -0.354465 -0.938212 0.639273 0.104477 -0.113301 0.139939 -1.3431 0.611173 -0.0266315 0.596071
111 0.704346 -0.488193 -0.715988 -0.907008 0.903159 0.135337 0.34402 0.152348 -1.24369 0.123827 0.00114366 0.505874
150 0.756838 -0.297208 -0.322465 -0.965516 0.736092 0.0912077 -0.125843 0.090904 -1.36181 0.623292 0.0164286 0.528695
133 0.606914 -0.232503 -0.378372 -1.28874 0.782522 0.195326 -0.340711 0.0228916 -1.21805 0.467796 -0.0525335 0.513
286 0.738666 -0.530867 -0.101227 -1.25882 0.665848 0.285031 -0.198009 -0.173531 -1.13269 0.240162 0.112298 0.646766
1 0.814156 -0.267861 -0.238043 -1.01319 0.599156 0.139273 -0.153505 0.235487 -1.39347 0.545513 -0.0837683 0.616028
19 0.903143 -0.144526 -0.269231 -0.964104 0.611325 0.0808181 -0.0919719 0.0948334 -1.44335 0.512141 0.0238023 0.61499
250 0.344826 0.0850792 -0.515082 -0.932123 0.762214 0.18379 -0.285046 -0.0332347 -1.53391 0.626421 -0.183488 0.550254
647 0.0132333 0.478125 0.215133 -0.750651 0.120542 1.0554 1.0062 0.741847 -0.284021 0.55262 1.35614 0.466891
475 -0.240585 0.438903 -0.0284911 -0.622587 0.0416909 1.24373 0.574753 0.589426 -0.225776 0.656614 1.21408 0.85614
462 -0.392928 0.195138 -0.476591 -0.476353 0.182576 1.31558 0.846447 0.390041 -0.267643 0.26939 1.31827 0.785607
692 0.00283807 0.598353 -0.127093 -0.665064 -0.0844396 1.17533 0.698114 0.583551 -0.199575 0.639837 1.23892 0.77362
616 -0.483454 0.416342 -0.288443 -0.683368 0.414186 1.16476 0.235275 0.340161 -0.00518884 0.642764 1.62039 0.724743
685 -0.0177468 0.554925 -0.0514939 -0.592634 0.0423522 1.08841 0.800186 0.733502 -0.20374 0.664383 1.22344 0.788305
641 -0.204704 0.222441 -0.10289 -0.593847 -0.0550292 1.35949 0.777009 0.350025 -0.278458 0.605195 1.31982 0.568815
675 -0.501113 -0.120062 -0.270342 -0.747874 -0.156874 1.25841 0.680327 0.349981 0.0422872 0.618567 1.02428 0.7504
531 -0.538767 0.747928 -0.103477 -0.713577 0.190084 1.16825 0.462594 0.0514532 -0.288843 0.730479 1.40881 0.645712
659 0.0514953 0.524388 -0.0500284 -0.637878 0.081031 1.04129 0.835075 0.787223 -0.184377 0.669491 1.30892 0.536059
513 -0.0507903 0.502363 -0.24108 -0.547353 -0.129333 1.33082 0.755422 0.699067 -0.179874 0.841782 1.12904 0.672756
476 -0.079014 0.59692 -0.0341775 -0.647607 -0.0182493 1.08048 0.737795 0.686011 -0.231484 0.582074 1.25731 0.81394
694 -0.0997669 0.465374 -0.0929962 -0.634902 -0.125231 1.06041 0.719153 0.611073 -0.195981 0.634004 1.26157 0.69978
540 0.202883 0.887316 0.254924 -0.813169 -0.369904 1.15083 0.766298 0.761154 -0.45093 0.798128 1.12342 0.331858
584 -0.116545 0.703732 0.449776 -0.929421 0.259989 0.95937 1.1478 0.901501 -0.294346 0.835046 1.02302 0.432429
502 -0.076307 0.550167 -0.0455049 -0.636216 -0.00893211 1.09415 0.747442 0.677971 -0.184949 0.684172 1.24469 0.779749
614 -0.330708 0.431835 -0.00165506 -0.692596 -0.194798 1.34241 0.441947 0.401482 -0.241624 0.707155 1.0559 0.886297
690 -0.375297 0.495419 0.146598 -0.494921 -0.179372 1.39398 0.552398 0.189624 -0.37788 0.934851 1.29531 0.863304
580 -0.346473 0.137204 -0.412793 -0.54728 -0.550647 1.25637 0.789608 0.728442 -0.126734 0.759222 0.60525 0.745071
657 0.0729436 0.668651 -0.0472038 -0.615183 -0.169317 1.21362 0.883808 0.646936 -0.297636 0.869569 1.09582 0.614044
515 -0.0196467 0.476179 -0.100366 -0.471724 -0.0342646 1.21844 0.7839 0.580113 -0.250194 0.798136 1.29746 0.702506
596 0.01397 0.620706 -0.265446 -0.783444 -0.163565 1.51467 0.601145 0.456285 -0.08588 1.04794 1.06783 0.418481
460 -0.0699013 0.549373 -0.0430844 -0.623882 0.0111864 1.10963 0.773435 0.642691 -0.178354 0.661113 1.25045 0.828899
671 -0.15776 0.397615 -0.174481 -0.421936 -0.369873 1.51856 0.756445 0.699461 -0.367436 0.813194 0.91883 0.887075
643 0.0954462 0.63144 0.0699974 -0.664908 0.142232 1.02437 0.864117 0.795422 -0.142871 0.774746 1.30805 0.663302
640 0.226568 0.779059 0.581464 -0.970034 0.197873 0.722551 0.955011 0.864104 -0.185003 0.723408 1.34899 0.462105
639 0.0117437 0.599913 -0.0398953 -0.643601 -0.00291645 1.08889 0.790174 0.645408 -0.184047 0.690976 1.24361 0.779643
529 -0.116634 0.554889 -0.0704766 -0.603656 -0.0162677 1.12092 0.732669 0.566059 -0.184377 0.708626 1.24353 0.859074
547 0.221297 0.74199 0.0287721 -0.651147 -0.228047 1.14303 1.12873 0.404741 -0.438693 0.616588 1.42204 0.28716
517 -0.00629741 0.564943 -0.0365094 -0.653202 -0.0163317 1.13244 0.794394 0.676806 -0.201886 0.652488 1.23487 0.752387
495 -0.119593 0.608599 -0.105335 -0.669978 -0.125686 1.23174 0.731923 0.666494 -0.237806 0.692608 1.08303 0.818749
483 0.118817 0.471363 0.0397652 -0.755545 -0.134476 0.876259 0.91228 0.657169 -0.0678931 0.655657 1.25771 0.615351
607 -0.616216 -0.187634 0.163084 -0.567366 -0.379709 1.20011 0.495256 0.265474 -0.260513 0.723877 1.19352 0.675265
455 -0.0948796 0.589665 -0.0991728 -1.04757 -0.29643 1.40998 0.578929 0.429706 -0.203709 0.678642 0.997338 0.346504
477 0.0228484 0.633357 0.0440228 -0.768208 -0.0445511 1.09123 0.838701 0.56272 -0.232205 0.522039 1.2778 0.768808
307 -0.340165 -0.911103 -0.824033 -1.20463 -0.763951 -0.548791 0.784581 0.100137 -0.536705 1.00045 0.648418 0.48759
315 -0.320961 -0.65661 -0.685938 -1.13919 -0.745862 -0.862183 0.586235 0.0968063 -0.68277 1.06979 0.960423 0.718503
438 -0.437682 -0.583609 -0.750396 -1.34832 -0.64699 -0.720574 0.499973 -0.0520517 -0.608864 1.03557 0.826577 0.383181
376 -0.442336 -0.504112 -0.874882 -0.930916 -0.792224 -0.832819 0.416652 0.00239375 -0.911083 1.02167 1.03042 0.607393
337 -0.314388 -0.677158 -0.835549 -1.08189 -0.626038 -0.866263 0.459928 0.196782 -0.661784 1.16609 1.06503 0.519706
394 -0.482188 -0.931192 -0.819886 -1.10005 -0.698728 -0.609578 0.548582 0.108521 -0.66304 1.04627 0.878001 0.545437
334 -0.537535 -0.502756 -0.769644 -1.21889 -0.779062 -0.801239 0.729391 0.0914353 -0.74897 1.22007 0.614374 0.586255
343 -0.337514 -0.740077 -0.691051 -1.10234 -0.672249 -0.83374 0.539317 0.155333 -0.644382 0.995881 0.992537 0.75064
121 0.963972 -0.21182 -0.511883 -0.856175 1.07258 0.0105196 -0.0140423 0.0277273 -1.20774 0.528475 0.12857 0.681481
234 0.784935 -0.324061 -0.24862 -1.11667 0.993733 0.143211 -0.520079 -0.0892443 -1.11572 0.648181 0.250447 0.691345
7 1.05995 -0.258521 -0.226124 -0.801135 0.619863 0.16367 -0.0715278 0.0460962 -1.43721 0.614209 0.0966401 0.683276
288 0.78269 -0.304307 -0.33849 -0.967098 0.593374 0.229016 -0.263265 -0.0389963 -1.33781 0.60257 0.0788235 0.561486
219 0.518809 -0.206572 -0.13286 -0.71609 0.734351 0.206049 -0.414998 0.04817 -1.55505 0.97469 -0.0429186 0.500094
151 0.835412 -0.256209 -0.280881 -0.93433 0.69714 0.0914173 -0.114778 0.212656 -1.37723 0.551367 0.0286194 0.558466
102 0.660547 -0.559948 -0.464649 -0.785917 1.06544 0.24241 0.0221864 0.0882475 -1.22354 0.710546 -0.0660848 0.516518
278 0.721214 -0.193233 -0.374106 -1.13781 0.721163 0.235264 -0.219718 -0.0721011 -1.3251 0.38769 0.0552244 0.606625
267 0.719607 -0.192641 -0.429873 -0.968048 0.474363 0.125417 -0.0257766 -0.110077 -1.47958 0.524663 -0.118802 0.655676
173 0.873525 -0.234673 -0.332345 -0.928248 0.662417 0.111871 -0.0678608 0.184558 -1.43211 0.560319 0.0221385 0.513948
180 0.832756 -0.393389 -0.360628 -0.779814 0.564939 0.175992 -0.223852 0.149616 -1.49301 0.636848 0.126094 0.419388
156 0.591227 -0.479504 -0.671379 -0.607424 0.55878 0.591955 -0.0363744 -0.116355 -1.54024 0.540107 -0.180762 0.697387
63 0.775869 -0.428055 -0.486502 -0.802128 0.626121 0.270949 -0.306725 -0.11231 -1.24831 0.711831 0.12262 0.539544
62 0.790242 -0.417774 -0.339159 -1.29408 0.686617 0.190104 -0.394396 -0.217702 -1.04196 0.301682 0.219308 0.739641
51 0.77132 -0.240885 -0.345718 -0.912064 0.66351 0.0841385 -0.116607 0.150192 -1.38964 0.623338 -0.014225 0.567143
270 0.696694 -0.40097 -0.790533 -0.703105 0.59328 0.390674 -0.0249086 -0.0449008 -1.41475 0.357853 -0.110568 0.807084
207 0.917239 -0.316148 -0.336044 -0.905066 0.624789 0.0867311 -0.081417 0.190805 -1.33425 0.583083 0.0163602 0.535192
293 1.22508 -0.745881 -0.264221 -0.752024 0.539757 0.244365 -0.287046 0.595258 -1.20157 0.568123 0.0389728 0.630154
90 0.869622 -0.302833 -0.340934 -0.992211 0.675697 0.194053 -0.212065 0.0693879 -1.32014 0.709518 0.00235063 0.508716
190 0.98746 -0.521861 -0.234841 -1.01587 0.540999 0.21119 -0.320775 -0.0626976 -1.28121 0.165759 0.383433 0.586595
274 0.765774 -0.489372 -0.363136 -1.06423 0.73244 0.230129 0.100785 -0.0416045 -1.33321 0.498843 -0.0303517 0.394314
25 0.807493 -0.294502 -0.39305 -0.893622 0.62777 0.154456 -0.120714 0.170867 -1.36902 0.621105 -0.0585529 0.585853
58 1.10766 -0.304112 -0.4981 -0.766819 0.473691 0.160234 0.244964 -0.109622 -1.37794 0.216189 -0.123588 1.116
157 0.911722 -0.243981 -0.346691 -0.816376 0.569402 0.127986 -0.141575 0.196168 -1.48135 0.564683 0.0494376 0.556093
57 0.864385 -0.283584 -0.375981 -0.8608 0.626334 0.0794439 -0.0923217 0.0377701 -1.37531 0.618297 0.0666216 0.580469
48 0.717378 -0.784555 -0.231928 -0.94623 -0.469605 0.204444 -0.632658 -0.0915563 -1.05749 0.925759 -0.132041 0.521587
441 -0.246439 -0.666817 -0.740352 -1.09594 -0.625358 -0.793072 0.550137 0.120838 -0.585942 1.06869 0.894881 0.64036
336 -0.335599 -0.50773 -0.767563 -1.12964 -0.936319 -0.849502 0.47843 0.114834 -0.753587 1.10465 0.777279 0.748228
389 -0.26592 -0.724041 -0.661432 -1.10475 -0.644168 -0.877093 0.399408 0.279612 -0.61595 1.09945 0.941696 0.649973
320 -0.353884 -0.666772 -0.717535 -1.1005 -0.674976 -0.911673 0.547064 0.180219 -0.73533 1.05901 1.01556 0.667359
333 -0.38253 -0.92467 -0.600869 -0.76188 -0.761711 -0.757239 0.47612 0.319629 -0.889391 1.11925 0.937205 0.629795
327 -0.366026 -0.701692 -0.720084 -1.14782 -0.648047 -0.890069 0.518906 0.191277 -0.692565 1.0079 0.976623 0.684925
374 -0.374175 -0.489053 -1.03078 -1.06715 -0.700182 -0.751954 0.4572 0.159684 -0.676706 1.20012 0.785513 0.43929
423 -0.361592 -0.679498 -0.78511 -1.0845 -0.693335 -0.82502 0.580218 0.145697 -0.696108 1.02202 0.937365 0.709141
361 -0.285447 -0.696517 -0.866666 -1.02009 -0.740986 -0.809456 0.390398 0.244268 -0.667088 1.23705 0.909076 0.627257
431 -0.334992 -0.863598 -0.574547 -0.963589 -0.853264 -0.589309 0.418233 0.129489 -0.552764 1.37534 0.755327 0.645841
387 -0.41808 -0.780066 -0.710815 -1.14522 -0.649149 -0.81561 0.491459 0.266131 -0.726845 1.06433 0.967701 0.565646
316 -0.377464 -0.789517 -0.857205 -1.14892 -0.646681 -0.761329 0.68756 0.290216 -0.639804 1.01783 0.828923 0.577921
416 -0.329255 -0.613487 -0.846788 -1.08641 -0.918439 -0.76749 0.533448 0.339019 -0.667597 1.01632 0.754163 0.647295
383 -0.275909 -0.690608 -0.773476 -1.1154 -0.720363 -0.894082 0.493326 0.405327 -0.669059 1.02607 0.942546 0.621037
310 -0.403349 -0.629159 -0.722112 -1.08146 -0.595839 -0.83552 0.535545 0.226565 -0.669678 1.08024 0.898019 0.616452
421 -0.635582 -1.01058 -0.731439 -0.93339 -0.60223 -0.550181 0.524035 0.0382661 -0.786758 1.13542 0.861723 0.567585
440 -0.159777 -0.762464 -0.788541 -0.974578 -0.55162 -0.842136 0.48305 0.181258 -0.645284 1.09198 0.904082 0.585605
436 -0.542393 -0.864444 -1.01979 -1.05395 -0.530284 -0.613822 0.464545 0.169669 -0.464345 1.25491 0.677965 0.764924
312 -0.436797 -0.807959 -1.04681 -1.02847 -0.464718 -0.665709 0.285166 0.130309 -0.431429 1.09683 0.681468 0.889046
346 -0.365123 -0.734365 -0.747871 -1.10822 -0.662937 -0.825019 0.549956 0.251305 -0.686901 1.05195 0.924098 0.637728
415 -0.254674 -0.454007 -0.81866 -1.05226 -0.911405 -0.767895 0.511184 0.293793 -0.836086 1.01708 0.774275 0.315636
332 -0.358302 -0.661161 -0.690605 -1.17073 -0.772977 -0.817612 0.5266 0.179972 -0.677386 1.06651 0.884174 0.662017
340 -0.483664 -0.798914 -0.996573 -1.00914 -0.601259 -0.723882 0.667256 0.35527 -0.511488 1.18947 0.606363 0.79865
377 -0.579495 -0.648467 -0.761909 -1.24726 -0.497922 -0.793436 0.401755 -0.113837 -0.640252 1.09741 0.884495 0.615661
325 -0.46206 -0.706846 -0.698205 -1.14005 -0.661477 -0.931729 0.57202 0.302004 -0.694004 1.10466 1.0196 0.688667
358 -0.256924 -0.82322 -1.0845 -1.26705 -0.862829 -0.597542 0.658398 0.196528 -0.36965 1.09504 0.604978 0.804547
14 0.893137 -0.276955 -0.364687 -0.982138 0.638276 0.129438 -0.111514 0.0876944 -1.30362 0.643909 -0.00841975 0.514291
139 0.894465 -0.401266 -0.920236 -0.553501 0.709846 0.39253 0.0096469 0.007971 -1.46385 0.435604 0.0328038 0.570536
106 0.861942 -0.283998 -0.269239 -0.880896 0.708118 0.0956039 -0.1032 0.187511 -1.40809 0.553316 0.0742943 0.586207
163 0.443466 -0.48474 -0.165766 -0.605986 0.849759 0.149222 -0.285649 -0.069948 -1.66936 0.711812 0.264378 0.460732
290 0.742136 -0.51918 -0.563021 -0.615023 0.600648 0.498189 -0.454817 -0.0453942 -1.47474 0.676261 0.232004 0.342964
275 0.88439 -0.240174 -0.32159 -0.962367 0.61838 0.0647742 -0.0808306 0.143003 -1.3578 0.598104 -0.0153692 0.578893
75 0.510632 -0.570916 -0.538043 -0.782594 0.179282 0.259783 -0.393412 0.10046 -1.16415 0.890308 -0.409858 0.851319
61 1.02071 -0.492776 -0.550233 -1.118 0.427964 0.478369 -0.141158 0.0560263 -1.29497 0.358567 -0.017583 0.291693
251 0.780983 -0.289531 -0.366876 -0.996284 0.594822 0.112484 -0.194093 0.16048 -1.38947 0.580972 -0.00127851 0.523066
195 0.810269 -0.444775 -0.178962 -0.947452 0.822767 0.276229 0.0540888 -0.251287 -1.53044 0.528307 0.0923105 0.436127
282 0.862128 -0.261273 -0.396884 -0.957763 0.601696 0.132005 -0.0876864 0.138721 -1.31331 0.620412 -0.065979 0.573111
168 1.10564 -0.268962 -0.226232 -0.780739 0.784893 0.0783048 -0.0628659 0.141902 -1.46936 0.354651 0.203391 0.687192
85 0.811913 -0.24454 -0.434333 -1.04615 0.719483 0.134098 -0.0836865 0.0725455 -1.29084 0.698662 -0.114296 0.494136
82 0.909888 -0.460012 -0.366966 -0.918245 1.16117 -0.139436 -0.0180796 0.118014 -0.865463 0.486201 0.156712 0.938528
28 0.879602 -0.249755 -0.279077 -0.88767 0.592111 0.10369 -0.126772 0.20578 -1.49524 0.504554 0.0469501 0.55502
97 0.413195 -0.572408 -0.16769 -0.834346 1.01728 0.163237 -0.436423 0.272647 -1.46719 0.656442 0.240177 0.274473
159 1.18273 -0.0628137 -0.601044 -1.01042 0.599343 0.265236 0.262971 -0.152412 -1.45972 0.181694 -0.0504231 0.579544
197 0.998693 -0.45759 -0.21977 -1.06967 0.659482 0.230089 0.117803 -0.20996 -1.25884 0.258502 0.101428 0.637929
22 0.849118 -0.314372 -0.4341 -0.971323 0.653613 0.0929199 -0.0934306 0.175332 -1.29584 0.608412 -0.0320718 0.529645
21 0.626848 -0.395936 -0.297313 -1.155 0.685296 0.382241 -0.424396 -0.102946 -1.25847 0.693553 -0.0473526 0.511336
297 -0.305913 -0.818249 -0.782872 -0.960554 -0.908656 -0.647261 0.534993 0.207966 -0.797713 1.03121 0.927432 0.448674
447 -0.338223 -0.658361 -0.660287 -0.940604 -0.759129 -0.931548 0.331158 0.385838 -0.669909 1.18088 0.882817 0.802037
324 -0.234768 -0.996093 -0.547962 -1.04434 -0.860157 -0.72744 0.663434 0.226933 -0.891513 0.92258 1.0316 0.376362
384 -0.0845068 -0.42221 -0.731335 -0.671794 -0.486873 -0.305119 0.58358 -0.466127 -0.229482 1.22515 0.81208 0.557618
402 -0.442129 -0.752604 -0.61351 -1.16031 -0.778559 -0.750657 0.609873 0.361873 -0.78042 0.966028 0.778523 0.420136
433 -0.328777 -0.8474 -0.947278 -1.23112 -0.759544 -0.574413 0.50928 -0.0994439 -0.576003 0.929001 0.904217 0.527959
408 -0.322771 -0.669264 -0.729212 -1.09941 -0.654972 -0.876754 0.465716 0.233218 -0.685174 1.05195 0.967567 0.660386
381 -0.476738 -0.514343 -0.891994 -0.92333 -0.809604 -0.683994 0.424477 0.151571 -0.864619 1.14621 0.817439 0.452156
329 -0.396335 -0.634895 -0.753739 -1.12094 -0.641792 -0.848625 0.459635 0.202319 -0.615308 1.05978 0.98192 0.706882
43 0.369763 -0.826872 -0.261676 -0.852356 0.269986 -0.00363839 -0.178766 0.0715114 -1.02223 1.02665 -0.424973 0.796237
0 0.847886 -0.179865 -0.268218 -0.902128 0.623733 0.0569248 -0.11269 0.14707 -1.44115 0.572511 0.0135287 0.612839
142 1.17494 -0.419292 -0.106141 -0.586466 0.546304 0.0675257 -0.0588314 0.216343 -1.53301 0.24576 0.186268 1.06244
149 1.14421 -0.324481 -0.498783 -0.936195 0.357392 0.371654 0.134504 0.0508574 -1.29954 0.0355621 -0.141698 0.9643
81 0.632455 -0.721119 -0.189946 -0.802917 0.928268 0.220473 -0.443648 0.354014 -1.18724 0.743781 0.201274 0.377068
258 0.476074 0.0765244 -0.435655 -0.745132 0.564767 0.187181 -0.0621876 0.0535064 -1.71745 0.520346 -0.299747 0.739059
146 0.376679 -0.423757 -0.180839 -1.02513 0.572382 0.00473947 -0.0899146 -0.200989 -1.27432 0.584099 -0.155497 0.850319
164 0.825018 -0.26867 -0.330552 -0.795535 0.536001 0.205571 -0.0457407 -0.0567155 -1.5794 0.586482 0.0313498 0.535768
240 0.645626 -0.408431 -0.361243 -0.693295 0.569627 0.517168 -0.155536 0.0498852 -1.5958 0.928002 -0.386671 0.608639
184 0.578055 -0.255474 -0.19188 -1.22748 0.80394 0.154931 0.0736412 -0.235451 -1.3657 0.216771 -0.0543057 0.749628
160 0.619142 0.0626879 -0.125103 -0.962554 0.634141 -0.115967 -0.0115368 -0.0713651 -1.71853 -0.00122727 0.152315 0.827307
187 0.777103 -0.394687 -0.0898005 -0.691326 0.317675 0.128983 -0.430056 -0.0129485 -1.61916 0.333027 0.213518 0.942266
6 0.729409 -0.345716 -0.226757 -1.37786 0.232577 0.381744 -0.391593 -0.00701901 -1.08344 0.424438 -0.340406 0.87187
194 0.988463 -0.309965 -0.296135 -0.640281 0.445965 0.142836 -0.255269 0.0766386 -1.64727 0.482875 0.357177 0.372488
294 0.920326 -0.277265 -0.480078 -0.795969 0.493301 0.185127 -0.0765979 0.0168139 -1.45565 0.470716 0.0729298 0.597868
206 0.746649 -0.291429 -0.281867 -0.921927 0.605622 0.256455 -0.30505 -0.0562045 -1.27435 0.698576 0.0401233 0.625677
166 1.29499 -0.236704 -0.62991 -0.959078 0.634348 0.220293 0.00820279 -0.164273 -1.16771 0.42392 0.0481057 0.70552
17 0.8284 -0.245597 -0.406509 -0.943508 0.591981 0.164475 -0.151011 0.14894 -1.3559 0.576408 -0.0262412 0.586606
216 0.76643 -0.21094 -0.897879 -0.667389 0.790706 0.204737 -0.285248 0.093144 -1.16128 0.533985 -0.0665122 0.95595
222 0.849854 -0.484728 -0.360983 -0.810841 0.924702 0.252858 -0.248426 -0.0764697 -1.2163 0.647348 0.192454 0.688377
98 0.880656 -0.247374 -0.340943 -0.921031 0.583264 0.0904612 -0.0646321 0.139315 -1.35889 0.615931 -0.0480771 0.576155
92 0.67623 -0.203503 -0.508325 -1.00396 0.901377 0.104013 -0.617785 -0.0502789 -1.17591 0.578055 0.235392 0.742965
203 0.96229 -0.27994 -0.223892 -0.904075 0.786496 0.0701672 -0.386307 -0.0897785 -1.23568 0.477042 0.3203 0.822272
188 0.695788 -0.0487093 -0.338638 -1.05801 0.861403 0.164634 -0.317451 -0.216995 -1.15884 0.819886 -0.225224 0.96469
148 0.51965 -0.136434 -0.219184 -1.11335 0.451514 0.187852 -0.282906 -0.256496 -1.33336 0.483698 -0.138289 0.815845
256 1.11439 -0.159613 -0.67052 -0.383019 0.82428 0.244177 0.0318614 0.0174538 -1.54957 0.64856 0.135685 0.640029
218 0.801571 -0.53395 -0.687711 -0.752605 0.80394 0.294937 -0.429894 0.331811 -1.2184 0.569114 0.134885 0.487027
41 0.609669 -0.360513 -0.391024 -0.713562 0.980204 0.205862 -0.00663314 0.116121 -1.40993 0.992415 -0.119125 0.194814
116 1.13359 -0.233135 -0.673015 -0.993819 0.59529 0.338398 -0.0754075 -0.0637373 -1.17246 0.421 0.043706 0.48481
243 0.821363 -0.281341 -0.336272 -0.899127 0.654708 0.0565096 -0.0874661 0.163033 -1.3833 0.598009 0.0538105 0.483594
201 0.993315 -0.19605 -0.413491 -0.930256 0.607727 0.0359588 -0.0710688 -0.123887 -1.3822 0.255588 0.239042 0.592698
220 0.602865 -0.612432 -0.187808 -0.943197 0.420184 0.198645 -0.508614 -0.00968284 -1.18084 0.914434 -0.160148 0.764826
103 1.02205 -0.452194 -0.893536 -0.546935 0.315284 0.427604 0.0848492 0.0516927 -1.2867 0.281565 -0.130996 0.868788
161 0.67944 -0.221812 -0.635911 -0.973446 0.715564 0.213605 -0.330608 0.0801248 -1.36335 0.434227 -0.00986478 0.679381
68 0.953945 -0.295779 -0.305499 -0.891676 0.613211 0.0942509 -0.11164 0.225194 -1.36472 0.452369 0.100653 0.605475
167 1.06256 -0.351583 -0.393186 -1.02535 0.810154 0.140075 -0.118225 -0.227348 -1.18783 0.488443 0.216888 0.605286
277 0.971052 -0.00971103 -0.851018 -0.715767 0.725214 0.050781 -0.185592 0.0278715 -1.18744 0.292664 0.109003 1.01574
171 0.855886 -0.165484 -0.522424 -1.0496 0.409399 0.209312 -0.0163224 -0.00871627 -1.36594 0.0375248 -0.10589 0.91924
291 0.515717 -0.0779535 -0.493786 -0.780822 0.207061 -0.158819 -0.306549 0.222921 -1.28167 0.604997 -0.415685 1.15026
12 0.797032 -0.147969 -0.428109 -0.848717 0.582011 0.118327 0.0294041 0.152676 -1.40515 0.219825 -0.0492777 0.914932
237 1.07441 -0.288968 -0.365761 -0.637967 0.467115 0.349466 -0.276047 0.0607896 -1.4666 1.00562 -0.14145 0.450963
244 1.1322 -0.214041 -0.169517 -0.550329 0.615759 0.0922261 -0.278344 0.0380595 -1.71271 0.578231 0.46008 0.429085
181 1.02424 -0.436708 -0.319226 -0.996055 0.331952 0.44086 -0.481577 0.00515064 -1.4883 0.48669 0.21124 0.282546
26 0.586605 -0.508884 -0.290141 -1.04853 0.593414 0.281208 -0.536681 0.284787 -1.03821 0.863018 -0.137601 0.429065
64 0.680271 -0.6639 -0.584156 -1.00127 0.144705 -0.02207 -0.491995 -0.0351948 -1.04704 0.644357 0.0882622 0.594166
118 0.652686 -0.289112 -0.663534 -0.798141 0.872731 0.343246 -0.215068 0.303884 -1.44798 0.686434 -0.12961 0.3425
70 0.874025 -0.479171 -0.290445 -1.13816 0.141702 0.58158 -0.343095 -0.0434066 -1.36026 0.741636 -0.165003 0.12636
357 -0.0823273 -0.722225 -0.787239 -0.957563 -0.481244 -0.871753 0.433722 0.0209582 -0.694048 1.06108 0.893977 0.591855
305 -0.345715 -0.525622 -1.06111 -0.937144 -0.860575 -0.774609 0.574704 0.247558 -0.731571 0.876097 0.703239 0.876962
368 -0.210219 -0.771888 -0.781459 -0.9985 -0.56467 -0.821659 0.538354 0.128599 -0.683359 1.03624 0.934898 0.612432
401 -0.261214 -0.50894 -0.882161 -1.01283 -1.04728 -0.700905 0.439072 0.0127897 -0.957264 0.958606 1.0064 0.350449
353 -0.349864 -0.672504 -0.82916 -1.13647 -0.623365 -0.859401 0.543267 0.275907 -0.662943 1.09128 1.01477 0.532175
363 -0.324082 -0.656935 -0.835046 -1.07224 -0.658566 -0.838743 0.587215 0.13211 -0.710079 1.03563 0.939599 0.642435
410 -0.3193 -0.602456 -1.049 -1.16681 -0.858774 -0.712282 0.510592 0.263042 -0.714894 0.964009 0.773329 0.453552
367 -0.354936 -0.633039 -0.731093 -1.1638 -0.76678 -0.814748 0.567606 0.0791653 -0.668016 1.08967 0.977373 0.658432
385 -0.224551 -0.744742 -0.860964 -0.931306 -0.87123 -0.733601 0.529276 0.361052 -0.869193 0.875153 0.919974 0.391309
331 -0.414786 -0.565674 -0.929496 -1.13013 -0.889212 -0.549703 0.577875 -0.114031 -0.80089 1.0069 0.786376 0.391299
369 -0.372401 -0.744508 -0.821905 -1.07745 -0.732725 -0.794849 0.543513 0.337188 -0.633357 1.10424 0.879179 0.676835
427 -0.316484 -0.588915 -0.998859 -0.999315 -0.73309 -0.718457 0.411915 0.0601913 -0.537593 1.32452 0.755812 0.645221
404 -0.111889 -0.484487 -0.928878 -0.987076 -0.928187 -0.801474 0.350688 0.0296326 -0.582536 0.983609 0.832787 0.944932
446 -0.654656 -0.665104 -0.840792 -0.838929 -0.645192 -0.734077 0.495423 0.090825 -0.870207 1.26429 0.682187 0.73906
311 -0.399784 -0.649551 -0.853106 -0.966803 -0.867088 -0.685635 0.34251 0.160692 -0.638203 1.12607 0.808475 0.906186
370 -0.606197 -0.838644 -0.708603 -0.623246 -0.726855 -0.69142 0.474247 0.130381 -1.0607 1.16421 1.06555 0.509813
298 -0.416995 -0.735279 -0.807311 -1.10127 -0.579089 -0.861979 0.673703 0.209704 -0.650906 1.06662 0.909924 0.710445
428 -0.429819 -0.696585 -0.76482 -0.975635 -0.825631 -0.671798 0.393697 0.171724 -0.708897 1.2985 0.618968 0.686701
261 1.01342 -0.400343 -0.0406625 -1.1009 0.459928 0.176275 -0.134777 0.148179 -1.5081 0.291107 0.14059 0.283682
262 1.06317 -0.157214 -0.706518 -0.807168 0.695233 0.309181 0.139973 -0.283539 -1.47647 0.331217 0.06378 0.691971
225 0.573741 -0.235565 -0.0680135 -0.510112 0.859554 0.219861 -0.147723 -0.0102531 -1.70225 1.00969 -0.120712 0.641753
135 0.559108 -0.252306 -0.39681 -0.891603 0.90627 0.0552127 0.0532534 -0.142139 -1.35469 0.526786 -0.0730144 0.850196
20 1.14594 -0.281953 -0.584993 -1.16267 0.63 0.353067 -0.0500473 -0.0258048 -1.26865 0.116221 0.110844 0.54101
34 1.31467 -0.562547 0.20891 -0.434596 0.500511 0.20366 -0.431961 0.0380668 -1.38627 0.833021 0.326693 1.07544
40 1.03065 -0.55754 0.252184 -0.386965 0.650525 0.183604 -0.0499111 -0.188722 -1.651 0.537286 0.341622 1.12904
169 0.942423 -0.143603 -0.0684154 -0.872955 0.634947 0.0115083 -0.0114249 -0.236607 -1.61278 -0.0557127 0.429519 0.915634
66 1.29382 -0.417621 -0.588994 -0.686582 0.510439 0.376782 0.0155466 -0.0658088 -1.25104 0.490987 0.0477008 0.830245
49 0.828814 -0.268492 -0.35474 -0.896058 0.675174 0.0682519 -0.0972044 0.205143 -1.41947 0.535312 0.0375217 0.56339
87 0.856182 -0.751471 -0.559501 -0.708341 0.886313 0.428609 -0.0047783 0.104597 -1.05008 0.843337 -0.0942005 0.481163
55 1.11135 -0.588145 -0.667115 -0.841115 0.452963 0.476635 -0.141665 -0.152004 -1.31137 0.569621 0.11688 0.425305
279 0.880221 -0.294476 -0.368543 -1.23806 0.51261 0.176774 0.00128988 -0.257652 -1.18458 0.282221 -0.0625883 0.674824
287 0.73851 -0.118714 -0.315325 -1.18331 0.463958 0.247799 -0.203218 -0.054266 -1.15584 0.47393 -0.334017 0.887586
435 -0.339896 -0.908615 -0.956646 -1.07392 -0.691636 -0.652006 0.63656 0.242067 -0.581625 1.08042 0.718054 0.644467
339 -0.309577 -0.969075 -0.686785 -1.07463 -0.795241 -0.647897 0.848732 0.285984 -0.744268 0.928493 0.879378 0.334408
412 -0.494554 -0.468161 -1.07036 -0.919813 -0.802844 -0.696465 0.514142 0.229274 -0.784193 0.976921 0.711359 0.701452
86 0.838437 -0.527893 -0.30428 -0.923709 0.688519 0.255833 -0.214098 0.143791 -1.31237 0.544452 0.11767 0.556112
595 -0.234214 0.385712 -0.173966 -0.424556 -0.0139339 1.51626 0.774482 0.904157 -0.384988 0.978594 1.06183 0.327402
601 0.259936 0.416176 0.149978 -0.318171 0.0640145 1.02637 1.26238 1.24547 -0.266703 0.801849 1.13638 0.508613
509 0.0493199 0.706954 -0.237208 -0.666355 0.0827589 1.28688 0.775719 0.990178 0.0179789 1.16786 0.874473 0.526109
648 -0.442201 0.189148 -0.404737 -0.651129 0.0265681 1.45192 0.935539 0.203532 -0.258663 0.403652 1.09973 0.677046
695 -0.147453 0.570349 -0.128134 -0.596119 -0.230672 1.20035 0.659325 0.607512 -0.315033 0.710143 1.12158 0.76062
470 0.0249025 0.587949 -0.133255 -0.576362 -0.0532943 1.19436 0.79122 0.653747 -0.224884 0.592331 1.25618 0.843984
660 0.125262 0.453958 0.225065 -0.794677 0.199382 1.10901 0.832334 0.569011 -0.0945491 0.87248 1.5401 0.379263
628 0.070445 0.723593 0.0167159 -0.602201 -0.0834577 1.15195 0.842919 0.61453 -0.27302 0.73303 1.21094 0.751161
679 0.141403 0.530058 -0.141142 -0.937332 -0.357561 1.41081 0.701516 0.748904 -0.0604003 0.850235 1.01582 0.358739
564 -0.110043 -0.00819386 -0.356066 -0.584687 -0.0380808 1.46025 0.503705 0.901814 0.0735924 0.738815 0.994307 0.595981
533 -0.0040475 0.753653 -0.331413 -0.495839 -0.0158693 1.39489 0.536765 0.645532 -0.0872313 1.10622 1.08517 0.750596
543 0.127995 0.074796 0.00358495 -0.671562 -0.0875177 1.34499 0.465551 0.300492 -0.00293837 0.522425 1.39683 0.724814
703 -0.0441422 0.5939 -0.0345155 -0.641606 0.0363027 1.10146 0.786027 0.753867 -0.195806 0.69273 1.17377 0.804005
466 -0.00833303 0.647026 -0.0112616 -0.640338 -0.0102671 1.04823 0.769914 0.714686 -0.218499 0.648675 1.25906 0.81872
473 -0.0877738 0.703685 -0.347435 -0.694919 -0.000693634 1.11826 0.511248 0.508484 -0.230911 0.63469 1.42675 0.234866
585 0.0220551 0.504995 0.838613 -1.00239 0.564944 0.66772 1.15389 0.78123 -0.0164594 1.09273 1.21267 0.555583
535 -0.249667 0.906011 -0.0821628 -0.619415 -0.00888888 1.08994 0.937091 0.32563 -0.475496 0.909796 1.20702 0.277121
472 0.032392 0.568754 0.0640896 -0.613326 0.105286 1.02656 0.882445 0.81985 -0.308252 0.7341 1.28346 0.52675
697 0.119777 0.689433 0.0656032 -0.592489 0.0942548 0.99453 0.989603 0.668325 -0.263863 0.783505 1.28767 0.586492
661 0.313074 0.498122 0.640735 -0.858652 0.470224 0.69367 1.23936 0.705019 0.0684365 0.997958 1.3153 0.670269
633 -0.0212859 0.581199 0.04099 -0.718233 0.0468428 1.07499 0.827457 0.763029 -0.174712 0.592196 1.16319 0.823998
702 0.101303 0.710644 0.308338 -0.861129 0.143808 0.840084 0.789108 0.988077 -0.16437 0.764773 1.3548 0.448744
626 -0.317181 0.38504 0.0461699 -0.3393 -0.120667 1.44755 0.413038 0.331511 -0.278422 0.954209 1.32308 1.01789
617 -0.000256583 0.558206 -0.0145991 -0.625761 -0.031899 1.16926 0.848993 0.595495 -0.215694 0.641008 1.21961 0.853075
650 0.114081 0.589633 0.620914 -0.91859 0.532453 0.702475 1.15339 0.881561 -0.0353403 0.893019 1.26464 0.549147
556 0.232149 0.435211 0.676521 -0.993743 0.284254 0.881272 0.969667 0.674854 0.0831106 0.976653 1.29976 0.560234
699 0.109813 0.493312 0.818521 -0.95241 0.476887 0.739437 0.98979 0.73461 0.0811769 1.13985 1.27395 0.655582
696 0.0613854 0.445481 0.246233 -0.564939 0.156808 0.991245 0.712761 1.28754 -0.0702141 0.900303 1.15432 0.666986
700 0.298828 0.613867 0.442255 -0.742446 0.37742 0.772174 1.02305 0.701024 -0.0669503 0.928107 1.44673 0.524883
562 -0.00769105 0.58176 0.470291 -0.897744 0.390747 0.825543 1.14281 0.72138 -0.174414 0.859286 1.28591 0.388971
3 1.24895 -0.616415 0.278045 -0.678682 0.464515 0.18125 -0.442724 0.110601 -1.38264 0.545774 0.364579 0.959323
67 0.670393 -0.748115 -0.73099 -0.817134 0.473377 0.168515 -0.104063 0.329669 -1.10258 0.294312 -0.000461725 0.547779
265 0.872004 -0.39937 -0.529859 -0.982466 0.696213 0.19868 -0.0114527 0.0431514 -1.24506 0.482541 -0.0129437 0.628166
24 0.838874 -0.76118 -0.456902 -1.16675 0.401275 0.497391 -0.148668 -0.0985043 -1.2232 0.527454 -0.00839767 0.258985
47 0.899842 -0.284343 -0.417542 -0.882804 0.557578 0.199856 0.0450244 0.0340723 -1.39218 0.523827 -0.063956 0.627153
211 0.800742 -0.218049 -0.136806 -0.429138 0.552508 -0.0768352 -0.475545 0.108255 -1.76933 0.553672 0.525507 0.562332
105 0.729592 -0.77209 -0.516729 -0.798203 0.66141 0.54149 -0.13917 -0.0242472 -1.34942 0.366806 -0.0141837 0.752628
214 0.594002 -0.225693 -0.238807 -1.18254 0.590394 0.216943 -0.642671 0.0890473 -1.11424 0.676819 -0.189913 0.843184
2 0.74106 -0.4386 -0.318576 -0.963523 0.726442 0.182833 -0.28433 0.168517 -1.24545 0.537473 0.0828277 0.650704
137 0.814529 -0.266128 -0.280836 -1.24689 0.0846863 0.401127 -0.380553 -0.00512984 -1.35336 0.325705 -0.214526 0.624809
132 0.699751 -0.514335 -0.635211 -0.757508 0.566781 0.390908 -0.185722 0.0544883 -1.53689 0.44648 -0.0042674 0.489556
272 0.729783 -0.485943 -0.0886468 -0.91287 0.528223 0.290825 -0.498608 0.0964424 -1.41514 0.582903 0.245987 0.348686
254 0.788347 -0.126329 -0.242538 -0.894397 0.642486 0.238433 -0.247228 -0.0825071 -1.4487 0.855458 -0.167387 0.540642
217 0.622787 -0.386059 -0.552997 -0.8128 0.680456 0.418105 -0.227169 0.0371642 -1.59647 0.294764 0.158412 0.397976
235 0.221236 -0.577177 -0.208735 -0.870092 0.416932 0.0786551 -0.377329 -0.109481 -1.36835 0.903776 -0.26342 0.74172
227 0.510896 -0.081388 -0.361337 -1.07691 0.911808 -0.0163678 -0.344532 -0.223903 -1.24787 0.641981 0.0226725 0.821108
177 0.500383 -0.0179391 -0.299298 -1.16626 0.728036 0.13805 0.00899583 -0.0690715 -1.347 0.381987 -0.356503 0.963993
590 0.0348219 0.712562 0.215316 -0.66878 0.00123025 1.01408 1.03546 0.788537 -0.458365 0.659789 1.27385 0.411855
541 0.0969535 0.667748 -0.0607884 -0.431898 0.0785264 1.19015 0.760072 0.461069 -0.282669 1.08968 1.43858 0.307293
593 -0.222425 -0.142438 -0.278009 -0.869315 -0.404251 1.34972 0.562105 0.320416 0.119699 0.521094 1.34636 0.580401
478 0.0108518 0.275282 0.204021 -0.680226 -0.351538 1.52154 0.353859 0.48523 -0.155976 0.80445 1.36948 0.755805
550 -0.044371 0.683868 -0.188696 -0.701939 -0.145474 1.48153 0.973579 0.269835 -0.386849 0.858227 1.11745 0.3197
638 -0.339574 0.251287 -0.293786 -0.814269 -0.236604 1.18455 0.680439 0.117016 -0.0772749 0.5723 1.2855 0.591837
622 -0.339012 0.572126 -0.0786596 -0.873936 -0.351848 1.36342 0.889758 0.0510601 -0.346647 0.302798 1.08945 0.911753
489 -0.0675214 0.580535 -0.0447089 -0.628064 -0.0314929 1.0751 0.653301 0.656683 -0.218308 0.650836 1.28312 0.778757
605 0.0365048 0.437135 0.603119 -0.706508 0.272577 0.876259 0.868933 1.01876 -0.261785 0.827011 1.47208 0.388912
536 0.0603136 0.27465 -0.204704 -0.736027 -0.00928955 1.35368 1.21403 0.0637983 -0.143526 0.661479 1.38806 0.325457
674 -0.546542 0.656822 0.183679 -0.432593 -0.315883 1.14229 0.313048 0.379593 -0.610711 0.652872 1.15145 0.908103
524 -0.026613 0.633649 -0.0276348 -0.615409 -0.0274802 1.08671 0.837485 0.59733 -0.233225 0.683296 1.22135 0.819754
668 0.185379 0.442725 0.50089 -0.638298 0.629186 0.678925 1.23316 0.957722 -0.073179 0.955629 1.38822 0.5053
649 0.0898205 0.375511 0.231374 -0.746927 0.390532 0.976183 0.773435 1.15678 0.0126383 0.86605 1.35397 0.39533
663 0.228239 0.168518 0.474211 -1.04618 0.532137 0.872998 0.793049 0.59417 0.285124 0.803088 1.64698 0.473908
655 0.219542 0.336188 0.126503 -0.692402 0.0865939 1.10675 1.09927 0.825694 -0.14123 0.652265 1.28486 0.465267
464 -0.161213 0.614647 -0.07201 -0.665549 0.015403 1.06197 0.710972 0.661534 -0.233766 0.598092 1.28447 0.764539
497 -0.165313 0.137837 -0.107892 -0.853786 -0.0100413 1.43739 0.595241 0.427147 0.0566166 0.742479 1.22542 0.646216
592 0.0211479 0.600152 -0.155547 -0.435601 -0.232189 1.21426 0.309483 0.93973 -0.0891373 0.873156 1.24061 0.885242
525 -0.121685 0.383843 -0.0369514 -0.722247 -0.00464111 1.18381 0.609501 0.348733 -0.114768 0.614705 1.44641 0.7454
486 0.0170677 0.652289 -0.227371 -0.649816 -0.287542 1.18794 0.591915 0.779763 -0.200646 0.885998 0.889996 0.435326
454 -0.0257833 0.650521 0.0517401 -0.460653 -0.256651 1.14711 0.662973 0.636183 -0.442566 0.715444 1.30237 0.727654
693 -0.418121 0.177732 -0.354846 -0.354909 0.115872 1.51039 0.891332 0.630249 -0.358429 0.699632 1.01349 0.653081
654 0.144347 0.574634 0.134956 -0.75141 -0.118369 1.21725 1.22413 0.0997284 -0.326789 0.658471 1.37654 0.390578
480 0.00150475 0.784701 -0.227926 -0.52688 -0.0369694 1.22475 0.385738 0.960347 -0.176448 1.01927 1.17911 0.491013
463 -0.00296614 0.620202 0.130849 -0.722811 -0.154779 1.23384 0.690103 0.716594 -0.395902 0.810046 1.37 0.226632
32 0.5463 -0.562794 -0.423706 -1.10148 0.425176 0.181398 -0.232388 -0.207405 -1.11746 0.470003 -0.0640174 0.766158
241 1.23135 -0.272812 -0.0289492 -0.801254 0.390838 0.280688 -0.0777312 -0.116788 -1.44375 0.824296 -0.150282 0.702468
9 0.462259 -0.798685 -0.274072 -0.963373 0.040461 -0.110669 -0.609965 -0.352266 -0.986562 1.32033 0.0523175 0.299115
281 0.661765 -0.516801 -0.645185 -0.389632 0.887748 0.110853 -0.0894527 0.296458 -1.48782 0.622155 0.182408 0.415641
186 0.824089 -0.28198 -0.409802 -0.942024 0.628829 0.167453 -0.0821524 0.118035 -1.38129 0.510733 0.0111288 0.555756
199 0.791077 -0.518411 0.113146 -0.411549 0.513495 0.0216333 -0.373758 0.0891475 -1.72985 0.693686 0.414234 0.579907
39 1.0715 -0.332849 -0.189694 -0.56115 0.522111 0.137394 -0.14897 -0.0515641 -1.60043 0.452559 0.320141 0.870491
205 0.937072 -0.636169 -0.401307 -0.809973 -0.157806 0.0409398 -0.387796 0.0847058 -1.38011 0.505791 0.21421 0.234833
230 1.45768 -0.34416 -0.559124 -0.435353 0.314658 0.22432 0.115527 -0.0352935 -1.40102 0.577108 0.0145906 0.973776
175 0.925476 -0.0555863 -0.580157 -1.04714 0.440516 0.142996 -0.0771615 -0.121811 -1.34613 0.129025 -0.0131311 0.847593
125 0.894116 -0.272602 -0.874591 -0.77573 0.370005 0.328367 -0.171743 0.109965 -1.38096 0.340984 -0.077651 0.682069
100 0.874804 -0.026458 -0.589784 -1.25933 0.777305 0.0433885 -0.449043 -0.122441 -1.11327 0.29891 0.262979 0.61728
165 1.21739 -0.134491 -0.282444 -0.78297 0.447851 0.0723599 -0.0528419 0.0662043 -1.82695 0.409107 0.289429 0.118252
269 0.615674 -0.417286 -0.599183 -0.586893 0.604779 0.479298 -0.0361049 -0.0110214 -1.62502 0.604968 -0.058617 0.331117
131 0.738987 -0.714684 -0.422577 -1.00505 0.703205 0.382239 -0.0713613 0.125191 -1.2478 0.483135 -0.030123 0.457668
238 0.819279 -0.607226 -0.636737 -0.593454 0.809812 0.284983 -0.110541 0.217106 -1.40279 0.644489 0.102715 0.362916
119 0.84164 -0.271709 -0.3304 -0.834858 0.590286 0.00855169 -0.051401 0.0907833 -1.37177 0.619398 0.0187224 0.632698
259 1.07316 -0.15299 -0.506562 -0.972718 0.809996 0.130167 -0.44493 -0.170937 -1.18409 0.704746 0.290771 0.42789
257 0.846707 0.0786679 -0.488645 -1.14219 0.75336 0.00772791 -0.149912 -0.295172 -1.35411 0.282204 0.182485 0.699871
54 1.05655 -0.246151 -0.128824 -0.658959 0.505516 0.055467 -0.0791703 0.153508 -1.43119 0.677281 -0.0292098 0.94799
93 0.952119 -0.604964 -0.262782 -0.819231 1.01015 0.183917 -0.266083 0.469085 -1.07427 0.777226 -0.0668938 0.751905
126 0.534459 -0.46293 -0.438429 -1.10546 0.654509 0.387704 -0.114382 -0.258806 -1.38549 0.414005 -0.0497559 0.529937
239 0.935956 -0.224009 -0.565325 -1.00523 0.561677 0.198337 -0.273497 0.0357001 -1.2807 0.390901 -0.00750219 0.647288
183 0.771682 -0.485653 -0.476049 -0.78669 0.723687 0.340242 -0.377045 -0.164236 -1.30823 0.409999 0.265088 0.79368
147 1.30854 -0.385598 -0.251211 -0.749465 0.788252 -0.041854 0.0854879 0.315093 -1.37455 0.50435 0.198408 0.412754
129 0.83903 -0.243875 -0.376422 -0.945904 0.672358 0.15053 -0.126395 0.111313 -1.43143 0.527446 0.0731992 0.477841
209 0.713538 -0.103794 -0.506714 -0.959482 0.354964 0.29589 -0.493375 -0.0274151 -1.35847 0.518395 -0.146114 0.787039
196 0.920121 -0.0817727 -0.722316 -0.926478 0.668224 0.197088 -0.127579 -0.00723609 -1.18321 0.197394 -0.027931 0.986868
59 0.837129 -0.636374 0.238041 -0.409131 0.456913 0.0857534 0.00197357 -0.112838 -1.6964 0.466525 0.263656 1.02037
140 0.507356 -0.628093 -0.369499 -0.983445 0.0981844 0.234214 -0.781194 -0.152495 -1.02084 0.875844 0.0359625 0.552959
141 1.02058 -0.550308 -0.0567556 -0.676077 0.639037 0.100777 -0.0870477 0.213982 -1.44871 0.212737 0.202208 1.11667
228 0.634911 -0.436809 -0.640624 -0.464492 0.765273 0.305465 -0.137099 -0.0605343 -1.44672 0.830772 -0.131078 0.764869
16 1.07839 -0.400836 -0.0440555 -0.522762 0.597716 0.159704 -0.17623 -0.028328 -1.54347 0.595978 0.280306 0.921992
154 0.868485 -0.332248 -0.733444 -0.802008 0.717647 0.335283 -0.13752 -0.154024 -1.35473 0.368684 0.04184 0.739064
36 0.799162 -0.6867 -0.557841 -0.849362 0.354104 0.509255 -0.379216 0.144636 -1.27671 0.722131 -0.112485 0.416764
120 0.806189 -0.876575 -0.132293 -0.817938 0.633063 0.414413 -0.210672 -0.137065 -1.22245 0.631288 0.142483 0.608535
155 0.724911 -0.585652 0.0250115 -0.797815 0.778444 0.0416474 0.0826408 -0.0739101 -1.47989 0.238951 0.131957 0.998066
468 -0.228772 0.465045 0.0672915 -0.800188 0.137462 1.16083 0.745074 0.643189 -0.079137 0.783929 1.10833 0.775428
510 0.0974206 0.265353 -0.202668 -0.452086 0.136565 1.23064 0.526683 0.824313 0.140694 1.02279 1.34173 0.648471
548 0.142725 0.634048 0.0681387 -0.455469 -0.00962302 1.09654 1.02064 0.830011 -0.435457 0.775349 1.29389 0.313351
527 0.28674 0.848554 0.0831748 -0.962887 -0.479869 1.17031 0.755152 1.10775 -0.239063 0.685208 0.965923 0.3281
653 -0.380272 0.475838 0.117447 -0.316393 -0.343266 1.43827 0.28264 0.628382 -0.403374 0.825497 1.16773 1.20363
459 -0.190141 0.503049 0.0653128 -1.0172 -0.194199 1.25734 0.715836 0.555342 -0.217289 0.521931 0.951086 0.433772
520 -0.0423106 0.986058 -0.0568568 -0.579743 -0.0240247 1.06753 0.936133 0.796022 -0.390779 1.01836 1.016 0.388605
625 -0.229545 0.294146 -0.0607986 -0.501154 -0.248342 1.33404 0.226056 0.365436 -0.235582 0.546474 1.13908 0.980411
587 -0.267904 0.374163 -0.264912 -0.523367 -0.0981628 1.27493 0.774539 0.54162 -0.370939 0.75275 1.12845 0.295298
539 0.00873779 0.967231 0.200313 -0.798916 -0.506238 1.25537 0.57264 0.239159 -0.330665 1.07045 1.03173 0.604473
594 0.0959219 0.479406 -0.263707 -0.361373 -0.280911 1.48171 0.666449 0.735453 -0.173298 1.06319 1.04741 0.628671
461 -0.202299 0.787385 -0.0796003 -0.699263 0.0346644 1.22026 0.560041 0.584666 -0.252272 0.997298 1.23911 0.479509
561 -0.442118 0.425272 -0.251049 -0.27746 -0.0789126 1.28386 0.33276 0.73485 -0.290738 0.630863 1.11182 1.16752
493 -0.0947439 0.537742 -0.118508 -0.55327 -0.147795 1.26061 0.564508 0.698187 -0.230226 0.861929 1.18718 0.750288
669 -0.0782367 0.669329 -0.231532 -0.541769 -0.0575053 1.34229 0.992337 0.569023 -0.341692 0.896032 1.12089 0.511043
642 -0.0647425 0.450371 0.00669551 -0.513307 -0.267462 1.34742 0.757805 0.618446 -0.294672 0.830018 1.10855 0.809188
559 -0.48182 0.84585 0.119748 -0.452687 -0.3068 1.02586 0.59142 0.246302 -0.599576 0.82249 1.01058 0.741534
578 -0.40494 -0.139023 -0.171207 -0.596502 -0.244905 1.59418 0.846228 0.586578 -0.227126 0.512825 0.902164 0.757635
665 -0.200298 0.184314 -0.0227811 -0.535764 -0.227567 1.62307 0.322442 0.765919 -0.0887332 0.775492 0.998655 1.12946
546 -0.236198 0.560019 0.20225 -0.728854 -0.327328 1.29572 0.244769 0.479659 -0.295981 0.469885 1.06579 1.09694
558 -0.51028 0.347375 0.166018 -0.32206 -0.0897243 1.38236 0.536861 0.434335 -0.503301 0.764828 1.09725 0.985171
691 -0.12124 0.359859 0.0639746 -0.773323 -0.0375712 0.890164 0.736226 0.42387 -0.0790758 0.686399 1.45821 0.496203
552 -0.223531 0.488117 0.0537335 -0.802693 -0.261434 1.32881 0.34228 0.244925 -0.182309 0.487912 1.31192 0.960837
613 -0.303407 0.357475 -0.0996872 -0.524948 -0.115418 1.34985 0.562928 0.407892 -0.211617 0.812805 1.16533 0.936382
8 1.15504 -0.366559 -0.359706 -0.5826 0.601452 0.162228 -0.00407042 0.263384 -1.3614 0.386246 -0.00718236 1.23403
134 0.520463 0.0238543 -0.524574 -1.12231 0.857634 0.106176 -0.327505 -0.232203 -1.26565 0.402535 0.02314 0.832171
185 0.956821 -0.365598 -0.314521 -0.854966 0.697876 0.331567 -0.00976774 -0.0890876 -1.76558 0.357755 0.28917 0.152265
143 0.700828 -0.554705 0.0838986 -0.973535 0.458353 0.255719 -0.447302 0.194176 -1.40697 0.51347 -0.0179021 0.701597
145 0.576633 -0.560731 -0.0357526 -1.1432 0.795321 0.20486 -0.244544 -0.0781124 -1.26033 0.373645 0.113755 0.64611
179 0.886427 -0.0612231 -0.501718 -0.909071 1.12054 0.0305176 -0.19645 -0.412156 -1.27746 0.780441 0.289293 0.568752
124 0.826787 -0.431958 -0.603403 -0.795248 0.778815 0.24953 -0.307356 -0.149691 -1.16084 0.662886 0.168392 0.651457
215 0.549302 -0.341173 -0.550901 -0.855715 0.866364 0.266299 -0.376491 -0.195257 -1.31279 0.578779 0.187477 0.541729
74 0.607554 -0.643946 -0.602848 -0.923163 0.661498 0.332202 -0.343831 -0.110356 -1.03462 0.741654 -0.0639632 0.766251
11 1.06336 -0.425749 0.0980654 -0.633829 0.519284 0.0698241 -0.230137 -0.0376074 -1.57634 0.342261 0.378094 1.07059
255 1.111 -0.285188 -0.207689 -0.609919 0.464615 -0.0373249 0.175684 0.176218 -1.43678 0.0962186 0.140656 1.06955
42 1.23366 -0.245495 -0.145691 -0.448503 0.515568 0.0486921 0.135149 0.078103 -1.54958 0.344111 0.109566 1.20198
15 1.16357 -0.308421 0.0351521 -0.399702 0.337776 0.0984904 -0.322793 0.086626 -1.60942 0.528885 0.236444 1.19061
152 0.543827 -0.277915 -0.119186 -0.742862 0.443865 0.378591 -0.0662438 -0.205419 -1.59426 0.676694 -0.278943 0.789051
117 0.737287 -0.125588 -0.704221 -0.752171 0.869806 0.030543 -0.180408 -0.120288 -1.28503 0.512461 0.110926 0.788783
635 -0.458262 0.689308 0.117261 -0.764073 -0.226777 1.2784 0.611618 0.194096 -0.475384 0.587236 0.886143 0.817619
553 -0.390768 0.707552 -0.231471 -0.552881 0.122476 1.27173 0.521039 0.745367 -0.450962 0.81557 1.17059 0.29258
670 -0.248747 -0.171496 -0.221829 -0.309504 -0.728724 1.06813 0.628083 0.184334 -0.0434707 0.598976 1.32191 1.12256
618 0.131775 0.479569 -0.0537603 -0.481671 -0.515715 1.37178 0.275649 0.803847 -0.105257 0.939005 1.11347 0.898661
589 0.038969 0.672011 0.0173985 -0.863318 -0.361613 1.38278 1.01389 0.716096 -0.371936 0.666107 0.904343 0.374375
465 -0.0829424 0.631256 -0.0740809 -0.666163 0.00953359 1.08802 0.721332 0.709172 -0.182273 0.678339 1.20241 0.826452
608 -0.195004 0.837263 -0.0893005 -0.76585 -0.274706 1.35536 0.623597 0.526958 -0.399302 0.769478 1.06452 0.568692
621 -0.23417 0.836997 0.0266365 -0.807814 -0.260285 1.30953 0.338781 0.784738 -0.312891 0.723057 1.10705 0.743989
469 0.0779472 0.833277 -0.338459 -0.890289 -0.0451143 1.24888 0.614296 0.717494 0.0258397 0.978073 1.15691 0.357622
664 -0.214269 0.936208 0.220206 -0.592411 -0.459728 1.33474 0.875062 0.0974617 -0.615816 0.815269 0.957239 0.861702
637 -0.394458 0.461952 0.0267442 -0.592068 -0.186407 1.27103 0.564559 0.18782 -0.421146 0.572535 1.35401 0.843565
629 -0.0191806 0.541461 0.323525 -0.648927 0.120419 1.08714 1.29645 1.02408 -0.318925 0.826676 0.870801 0.530256
672 -0.106048 -0.10339 -0.186594 -0.727964 0.0305212 1.03928 0.583459 0.465005 0.398661 0.996911 1.19626 0.578407
484 -0.0659444 0.588866 -0.121667 -0.549486 -0.291579 1.45325 0.695559 0.479248 -0.461842 0.6493 1.28758 0.577526
492 -0.384813 0.56391 -0.0669838 -0.438081 -0.0241075 1.25376 0.459002 0.730209 -0.11399 0.995505 0.949863 1.17265
698 -0.333266 0.448762 0.0158923 -0.589093 -0.258769 1.33206 0.401997 0.375858 -0.374416 0.646781 1.17648 0.879846
662 -0.316616 0.508901 -0.0970934 -0.701033 -0.25926 1.44717 0.804443 0.318789 -0.372419 0.447914 1.09943 0.915712
676 -0.136992 0.361889 -0.194423 -0.487566 -0.131948 1.48066 0.745886 0.797567 -0.191265 1.03965 0.962094 0.546231
439 -0.319046 -1.13332 -0.690896 -0.904994 -0.834152 -0.663481 0.606127 0.236387 -0.782762 1.03228 0.987385 0.600557
330 -0.619129 -0.742388 -0.913268 -0.868766 -0.606726 -0.59468 0.472846 0.0893698 -0.589956 1.29787 0.702451 0.809577
359 -0.482286 -0.792691 -0.747371 -1.17423 -0.511376 -0.731315 0.404387 -0.0503849 -0.4857 1.10766 0.813589 0.855508
434 -0.435888 -0.672444 -0.53198 -1.32722 -0.650704 -0.800448 0.376934 0.0666626 -0.584724 1.19096 0.998639 0.426201
193 0.922657 0.0567477 -0.514087 -0.577615 0.169183 0.175682 -0.0747818 0.2682 -1.71803 0.446249 -0.319562 0.911726
349 0.129582 -0.829043 -0.939149 -0.865245 -0.35889 -0.726281 0.383709 -0.170508 -0.606857 1.02004 0.735767 0.557915
301 -0.479111 -0.492666 -0.828734 -0.960119 -0.617322 -0.949164 0.274948 0.0707432 -0.728934 1.11105 1.05686 0.824104
429 -0.394064 -0.817282 -0.783135 -1.2164 -0.553497 -0.762662 0.55971 0.284591 -0.459156 1.22712 0.679304 0.607226
399 -0.457166 -0.91364 -0.556384 -1.20007 -0.773688 -0.681445 0.565918 -0.0093824 -0.80226 1.08649 0.924813 0.419811
411 -0.578828 -0.620568 -0.996817 -0.842798 -0.700394 -0.69693 0.707376 -0.00408644 -0.925967 1.03682 0.871913 0.585144
356 -0.325175 -0.559677 -1.0144 -0.768618 -0.790603 -0.84546 0.366487 0.309954 -0.771748 1.18161 0.852553 0.743133
341 -0.374046 -0.693642 -0.772378 -0.952098 -0.656194 -0.850309 0.597968 0.322205 -0.744535 1.08567 0.877382 0.725962
162 1.12343 -0.17859 0.117804 -0.68413 0.509305 0.116161 -0.0732622 -0.0890427 -1.86909 0.438824 0.357109 0.389939
292 0.695419 -0.397266 -0.319581 -0.79879 0.527889 0.241367 -0.298188 0.0927978 -1.50938 0.476367 0.143228 0.450303
108 0.73924 -0.673596 -0.592158 -0.808955 0.649838 0.49755 -0.130751 -0.00932411 -1.22839 0.628001 -0.0940459 0.515017
264 0.783343 -0.390959 -0.453562 -0.846458 0.951678 0.11973 -0.224206 -0.105094 -1.05391 0.594164 0.164508 0.814201
189 0.634773 -0.236752 -0.327353 -1.04284 0.747974 0.000123185 0.068337 -0.10798 -1.41753 0.14203 -0.00456385 0.842902
221 0.793969 -0.440378 -0.0967767 -0.867291 0.742536 0.1577 -0.763597 0.197842 -1.23987 0.646585 0.315302 0.692698
248 0.451206 -0.0982664 -0.271296 -1.21884 0.471102 -0.235204 -0.00209212 -0.320112 -1.11411 0.647217 -0.396903 1.03407
31 1.17653 -0.375866 -0.00298266 -0.151383 0.507309 0.219566 0.0252311 -0.18969 -1.76746 0.684883 0.293893 1.02256
4 1.10577 -0.424577 0.122251 -0.402721 0.500736 0.115674 -0.0192399 0.037946 -1.52114 0.571334 0.0706077 1.31816
99 0.990901 -0.252993 -0.34646 -0.826091 0.400524 0.0933587 0.360805 0.229727 -1.66636 0.114323 -0.156979 0.66276
226 0.940586 -0.35193 0.0537633 -0.928404 0.502785 0.174293 -0.311341 0.0389139 -1.39607 0.879951 -0.0249166 0.491938
191 0.946009 0.0464912 -0.274011 -0.576498 0.446375 -0.181295 -0.329496 -0.0116437 -1.57399 0.0157102 0.471911 1.21712
76 1.06958 -0.134094 -0.185296 -0.426461 0.388279 0.00453788 -0.126382 0.133449 -1.73177 0.393173 0.236325 0.961682
44 0.546026 -0.38957 -0.364581 -1.32491 0.932492 0.304513 -0.0826853 -0.50417 -1.08935 0.348193 0.0162324 0.811806
354 -0.334155 -0.979995 -0.836024 -1.25225 -0.603215 -0.61878 0.595711 0.129537 -0.405468 0.967677 0.719848 0.690483
425 -0.253528 -0.558654 -0.861438 -0.888407 -0.943206 -0.695546 0.430966 0.0727727 -0.929316 0.954474 0.999147 0.402845
344 -0.242837 -0.729503 -0.887849 -1.14377 -0.760631 -0.759772 0.262771 0.179526 -0.449088 1.17405 0.869382 0.728836
407 -0.299485 -0.658768 -0.718028 -0.926872 -0.888265 -0.777704 0.366278 0.198513 -0.847144 1.19314 0.900213 0.486382
518 -0.127829 0.294217 -0.221161 -0.27327 0.223458 1.35482 0.653922 0.576723 -0.108247 1.17487 1.43285 0.549515
526 0.142247 0.481267 -0.173854 -0.794804 -0.0309458 1.38297 0.826558 0.599391 0.00811751 0.99419 1.09918 0.417912
488 0.174951 0.422266 -0.293049 -0.590238 0.126678 1.31281 0.469269 0.762443 0.184976 1.09211 1.25126 0.516262
522 -0.635939 0.92957 -0.327337 -0.616974 0.399878 1.01967 0.409983 0.332355 -0.241993 0.909123 1.33916 0.634433
534 0.0747234 0.89796 -0.0685271 -0.813384 -0.00514619 1.0546 1.28446 0.776686 -0.121128 1.04249 0.703116 0.505277
555 -0.401226 0.54048 0.020884 -0.967805 -0.342629 1.30242 0.395802 0.269809 -0.129535 0.501825 1.02055 1.07679
528 -0.0488934 0.650824 -0.28416 -0.732175 -0.0385328 1.32559 0.579072 0.871136 -0.231022 0.844211 1.20756 0.174135
568 0.180625 0.436208 -0.0537613 -0.497568 -0.0934699 1.24986 1.22313 0.677914 -0.435602 0.589456 1.33844 0.215277
600 -0.104074 0.56929 -0.0449443 -0.919181 0.0123653 1.28837 0.809667 0.958518 -0.0889193 0.625887 0.983861 0.600943
583 0.0760362 0.704303 -0.144757 -0.431946 -0.0355883 1.22435 0.93495 0.949902 -0.378179 1.03198 1.07149 0.246561
677 0.020605 0.567272 0.201707 -0.84901 -0.0281577 1.16965 1.0923 0.879024 -0.307793 0.74532 1.0303 0.29553
571 -0.152994 0.466618 -0.207042 -0.665703 0.103718 1.15679 0.334132 0.245094 -0.0421707 0.65596 1.54678 0.651152
491 -0.0729097 0.322327 0.261414 -0.592171 0.0142651 1.40852 0.749561 0.150814 -0.212405 0.829114 1.50146 0.668527
632 -0.00307012 0.676324 0.365092 -0.861853 0.270861 0.913723 0.989829 0.660088 -0.215647 0.894043 1.287 0.467071
615 -0.300647 0.36744 0.178196 -0.931224 -0.249592 1.37016 0.26122 0.22018 -0.170661 0.454595 1.35335 0.887771
444 -0.316103 -0.864969 -0.823386 -1.2937 -0.63804 -0.619919 0.540819 0.123696 -0.335971 1.02484 0.693148 0.733205
347 -0.627342 -0.680838 -0.502266 -0.927619 -0.712549 -0.78197 0.616975 0.120555 -0.992018 1.09666 0.854681 0.516276
335 -0.32814 -0.646319 -1.1939 -1.0874 -0.56348 -0.888859 0.454834 0.378704 -0.455284 0.884615 0.890202 0.852038
406 -0.369758 -0.862963 -0.838827 -1.15661 -0.744015 -0.592486 0.728987 0.19423 -0.615822 0.893119 0.800376 0.433745
350 -0.420656 -0.571532 -0.84929 -1.06499 -0.588231 -0.811409 0.662911 0.132954 -0.689639 1.00448 0.715694 0.616835
405 -0.455056 -0.604779 -1.02822 -0.745654 -0.790951 -0.737889 0.310351 0.209561 -0.666731 1.27391 0.828552 0.90686
380 -0.126215 -1.04448 -0.658866 -0.977751 -0.915647 -0.698392 0.660504 0.336152 -0.940524 0.870262 1.00831 0.295757
306 -0.540712 -0.60075 -0.596755 -1.03894 -0.675106 -0.819591 0.582345 0.0996815 -0.908145 1.04608 0.901175 0.443319
342 -0.272604 -0.706938 -0.738705 -1.00653 -0.639739 -0.809747 0.519605 0.070373 -0.683513 1.02739 0.926206 0.694774
308 -0.529308 -0.747771 -0.65669 -1.18265 -0.573803 -0.763088 0.297147 0.0902867 -0.535657 1.05026 0.879641 0.820144
424 -0.205246 -0.80038 -0.969826 -1.18563 -0.876468 -0.686494 0.689376 0.173859 -0.785909 0.784156 0.994705 0.297284
426 -0.306541 -0.724909 -0.836761 -1.26157 -0.693567 -0.681706 0.375539 -0.0286807 -0.345095 1.12525 0.840867 0.826819
355 -0.390659 -0.728839 -0.765998 -1.10446 -0.568597 -0.893623 0.511075 0.339636 -0.683523 0.971524 0.971327 0.637074
371 -0.220366 -0.721476 -0.738244 -1.3029 -0.709264 -0.880357 0.474837 0.129896 -0.422054 0.874491 0.864764 0.886596
598 -0.279043 0.251782 0.0994959 -0.767899 -0.390275 1.14678 0.162511 0.0533043 -0.07874 0.801914 1.56732 0.593123
263 0.702227 -0.311507 -0.702754 -0.935239 0.90527 0.294096 -0.206608 -0.190085 -1.16841 0.509262 0.0790492 0.737185
144 0.619492 -0.138776 -0.123846 -1.25737 0.473545 0.19283 -0.241878 -0.117534 -1.14414 0.578481 -0.331277 0.885092
245 0.940406 -0.504109 -0.335429 -0.815621 0.652639 0.195901 -0.591864 -0.0416956 -1.16761 0.763259 0.355876 0.427092
233 0.893076 -0.367133 -0.858297 -0.518301 0.674685 0.470688 0.0189888 0.148669 -1.40335 0.447754 -0.0970757 0.755882
271 0.899417 -0.635228 -0.444548 -0.704827 0.392484 0.335855 -0.0894702 0.24357 -1.44122 0.194621 -0.00404549 0.841788
56 0.555431 -0.573651 -0.627964 -0.844549 0.491836 0.223539 0.130784 -0.302615 -1.15927 0.517444 -0.264075 0.972863
83 0.832076 -0.51402 -0.427464 -1.01499 0.449633 0.341004 -0.0116614 -0.0801028 -1.33116 0.311943 -0.0825065 0.633827
45 0.618763 -0.638675 -0.21786 -0.93562 0.390855 0.610378 -0.357683 -0.156275 -1.35182 0.861066 -0.178259 0.443348
182 0.559874 -0.348125 -0.383982 -0.861198 0.746462 0.266706 -0.342017 -0.0257893 -1.38739 0.66173 0.0332067 0.621667
89 0.89851 -0.600172 -0.277332 -0.953894 0.674756 0.246665 -0.506282 0.403924 -1.17243 0.471483 0.208106 0.475388
153 0.942839 -0.322887 -0.210831 -0.691303 0.534195 0.0430539 -0.191263 0.0122858 -1.62739 0.172116 0.440182 0.69817
289 0.885829 -0.287865 -0.136579 -1.00094 0.732427 0.14821 -0.552339 0.110845 -1.22619 0.521401 0.230918 0.668851
246 0.777276 -0.534919 -0.577858 -0.529071 0.848053 0.479765 -0.173881 -0.198876 -1.45662 1.06431 -0.0534778 0.554171
136 0.722716 -0.517081 -0.526629 -0.967224 0.825905 0.194755 -0.530884 0.388375 -1.20705 0.729026 0.0893147 0.289384
170 1.0067 -0.0634437 -0.284804 -1.30596 0.940151 0.0785706 0.0496344 -0.351735 -1.23014 0.56066 0.0120291 0.537088
46 0.752765 -0.701729 -0.204785 -1.24382 0.536619 0.413682 0.0389224 -0.43103 -1.32575 0.388171 0.0664634 0.307087
268 0.835919 -0.732352 0.114784 -0.815957 0.653913 0.155861 -0.219933 0.48236 -1.38967 0.448206 0.074359 0.645366
80 0.7586 -0.682388 -0.450347 -0.992969 0.323295 0.494021 -0.654753 0.0153306 -1.17951 0.614175 0.167346 0.390353
115 0.673529 -0.59429 -0.220931 -1.02714 1.03251 0.0476584 -0.410264 0.257494 -0.991335 0.649009 0.0853811 0.745825
29 0.662531 -0.242582 -0.0812273 -1.17474 0.833347 0.209726 -0.122921 -0.314096 -1.24391 0.611737 -0.0452918 0.644153
84 0.469301 -0.337629 -0.514538 -0.826253 0.857682 0.217825 -0.219124 -0.27265 -1.40357 0.642587 0.189561 0.359675
53 0.828446 -0.539842 -0.290603 -1.28905 0.149498 0.360767 -0.217708 0.0321911 -1.30777 0.689679 -0.30758 0.280022
680 0.0733727 0.640968 0.579691 -1.05068 0.438165 0.786353 1.03214 1.02722 0.0399277 0.992395 1.09528 0.607472
485 0.176182 0.592648 0.432228 -0.906331 0.369163 0.765582 1.18833 0.710275 -0.12852 0.761649 1.39945 0.36106
604 0.150123 0.524703 0.566968 -1.08068 0.334191 0.838092 0.934714 0.892434 0.159372 1.03795 1.1898 0.547035
474 -0.313174 0.566082 -0.28956 -0.749029 0.188095 1.08794 0.232663 0.267633 0.0234427 0.9036 1.4296 0.46892
579 -0.310426 0.0389371 -0.079927 -0.656152 -0.165388 1.56738 0.694818 0.418044 -0.197043 0.490244 1.02245 0.868785
516 -0.228452 0.211669 -0.117719 -0.911989 -0.111347 1.37098 0.394631 0.469568 -0.0141775 0.664171 1.05262 0.488085
503 -0.0402131 0.0875488 -0.0865061 -0.507971 -0.0259856 1.33051 0.704397 0.371979 -0.145593 0.794691 1.28923 0.441745
644 -0.476189 0.442993 -0.133097 -0.598852 -0.0498144 1.40644 0.401014 0.227006 -0.457863 0.500243 1.30558 0.689944
623 0.126058 0.671316 0.062667 -0.514364 -0.533279 1.36148 0.636691 0.623141 -0.458405 0.967255 1.17558 0.413537
582 -0.188049 0.22115 -0.275331 -0.523977 -0.0721854 1.57394 0.747357 0.477463 -0.277136 0.789576 0.977243 0.482721
519 -0.0654667 0.374833 -0.317459 -0.312965 0.0734349 1.44188 0.655468 0.77668 -0.0893072 1.10219 1.18798 0.654973
611 0.108392 0.955867 -0.0395748 -0.638045 -0.422048 1.28906 0.708248 0.63745 -0.404401 1.05961 1.031 0.352249
499 -0.541768 0.782187 -0.123349 -0.795672 -0.0558708 1.15987 0.784868 0.564386 -0.337179 0.900565 0.855236 0.463655
413 -0.689102 -0.762389 -0.640672 -0.81294 -0.556074 -0.657571 0.54555 0.0912661 -0.914275 1.17871 0.797432 0.578084
321 -0.276162 -0.759805 -0.750435 -0.930651 -0.972138 -0.704419 0.516701 0.115279 -0.952676 1.07664 1.0635 0.303725
366 -0.392741 -0.76926 -0.915016 -1.01436 -0.574241 -0.771404 0.179026 0.100041 -0.471732 1.11438 0.907013 0.958511
422 -0.29036 -1.08745 -0.707649 -1.07726 -0.610393 -0.68879 0.729228 0.250795 -0.53052 1.03937 0.766352 0.654022
372 -0.361431 -0.703493 -0.799835 -1.23182 -0.719817 -0.68678 0.643726 0.181776 -0.398051 1.04833 0.682127 0.677791
448 -0.259086 -1.04881 -0.849905 -0.985928 -0.794345 -0.603941 0.368147 -0.108415 -0.52687 0.997939 1.02629 0.910222
388 -0.202047 -0.748941 -0.78811 -1.20221 -0.886301 -0.668543 0.289551 -0.096549 -0.662766 0.78775 1.14029 0.516408
360 -0.321773 -0.764461 -0.842473 -1.02321 -0.581793 -0.780692 0.556116 0.223156 -0.751761 0.937029 0.92505 0.544634
430 -0.119467 -1.01945 -0.650243 -1.02405 -0.715478 -0.735721 0.150464 0.178451 -0.510995 1.1144 1.01458 0.67023
345 -0.380606 -0.528564 -0.653951 -1.14567 -0.737613 -0.897744 0.654901 0.302109 -0.79257 0.997566 0.7152 0.486965
396 -0.215557 -0.777932 -0.902295 -0.749347 -0.941437 -0.615192 0.422655 0.163186 -0.870958 1.14708 0.943398 0.488045
420 -0.245161 -0.578725 -1.00276 -1.18289 -0.582293 -0.900195 0.676518 0.441338 -0.558426 1.01734 0.617703 0.5775
397 -0.191906 -0.735867 -0.844569 -0.940139 -0.702414 -0.901054 0.654352 0.41448 -0.600179 0.717781 0.914146 0.866554
507 -0.209909 0.34163 -0.124715 -0.722963 -0.0810403 1.42297 0.599522 0.363906 0.137869 1.02771 0.885091 1.00243
566 0.193524 0.233227 -0.235471 -0.394361 -0.0321849 1.17732 0.47162 0.363791 -0.0543383 0.712099 1.57522 0.50395
242 0.887607 -0.542781 -0.251562 -0.559661 0.837232 0.36532 -0.12027 -0.0170753 -1.41757 0.820295 0.0405588 0.692138
252 0.919423 -0.249392 -0.468855 -0.890626 0.696541 0.1163 0.0554909 -0.0200784 -1.35536 0.478908 0.0876588 0.544507
192 0.911941 -0.0056747 -0.880076 -0.784443 0.812399 0.2537 -0.0839211 -0.231136 -1.27388 0.783312 -0.177316 0.77949
109 0.793733 -0.517747 -0.694044 -0.657456 0.674845 0.237279 0.0812519 0.115711 -1.43112 0.532899 0.0232912 0.285911
88 0.935099 -0.589275 -0.117974 -1.02437 0.314202 0.313804 -0.385303 0.180886 -1.41251 0.224773 0.227555 0.413341
419 -0.335672 -0.889473 -0.436833 -1.00599 -0.549476 -0.734824 0.605316 0.15282 -0.800442 1.11263 0.852278 0.236148
449 -0.526377 -0.539504 -0.929243 -0.925555 -0.690413 -0.78681 0.227328 -0.118577 -0.698897 1.10997 0.957925 0.968034
319 -0.35362 -0.65594 -0.784243 -1.04527 -0.587083 -0.880065 0.456671 0.0850705 -0.626305 0.935153 1.16066 0.655907
445 -0.408407 -0.996857 -0.885868 -0.739548 -0.625128 -0.70879 0.418118 0.354476 -0.560686 1.30854 0.811454 0.85189
400 -0.283782 -0.631052 -0.854962 -0.985463 -0.900696 -0.767885 0.661353 0.437606 -0.76984 0.996993 0.822942 0.48212
303 -0.260051 -0.69592 -0.846556 -1.13679 -0.843717 -0.750238 0.391956 0.338554 -0.716496 0.987151 0.93497 0.488375
373 -0.23825 -0.606459 -0.902254 -1.19308 -0.518574 -0.893119 0.36966 0.214324 -0.552206 0.948209 1.12924 0.371802
302 -0.430089 -0.594569 -1.04408 -0.935575 -0.83941 -0.695802 0.473879 0.140039 -0.99274 0.969953 0.86224 0.443173
603 -0.509479 0.32529 -0.193512 -0.871345 -0.104889 1.3183 0.756166 0.499879 -0.26313 0.297016 1.0466 0.710302
577 0.155906 0.594978 -0.0547288 -0.53658 -0.040226 1.25867 1.06135 0.544465 -0.342068 0.826643 1.29408 0.310742
501 0.0816068 0.0370629 -0.201441 -0.816553 -0.0373555 1.31848 0.614246 0.367357 0.00422164 0.300832 1.46771 0.477065
599 0.0691635 0.463194 -0.0246381 -0.253464 -0.0572186 1.11422 0.918824 0.999545 -0.303388 1.05756 1.20168 0.396747
532 -0.352134 0.584318 -0.0144902 -0.850971 0.135049 1.22079 0.516903 0.519649 -0.172553 0.711332 1.40887 0.521109
500 0.0302578 0.789985 -0.609356 -0.64178 0.038396 1.18724 0.849459 0.829949 0.0641426 0.821184 1.00671 0.726237
521 -0.0204815 0.531583 0.587998 -1.15346 0.338509 0.930473 0.837691 0.633867 -0.0731465 0.873736 1.45536 0.240828
479 -0.178401 0.516195 -0.351823 -0.804668 -0.193346 1.50912 0.619838 0.919469 -0.126927 0.643518 0.987255 0.658561
588 -0.235956 1.00803 -0.048712 -0.671188 -0.0380271 1.11427 0.605903 0.158152 -0.39239 0.941805 1.04519 0.518689
530 0.00277289 0.844681 0.0677927 -0.745052 -0.326855 1.33941 0.175775 0.480431 -0.19463 1.11543 1.26231 0.506308
624 0.286951 0.656786 0.0109353 -0.705161 -0.237637 1.22027 0.966986 1.03574 -0.200656 0.91494 0.875759 0.364205
198 0.917542 -0.114574 -0.458147 -1.36972 0.339719 -0.200852 -0.152379 -0.179388 -1.16139 0.174287 0.192916 0.427713
72 0.921114 -0.195097 -0.389344 -0.403814 0.544382 0.0650498 -0.231462 -0.136121 -1.32683 0.609661 0.122341 1.28324
224 0.844218 -0.293309 -0.414383 -0.932244 0.532132 0.270147 -0.170863 -0.153095 -1.25437 0.472997 -0.108302 0.913825
101 0.446071 -0.49306 -0.446564 -0.768243 0.658092 0.453903 -0.329565 0.068183 -1.49167 0.642291 -0.0323529 0.38695
172 1.15445 -0.625644 -0.433142 -0.94709 0.604447 0.432871 -0.106726 -0.28061 -1.20748 0.46376 0.118015 0.777157
687 0.0482375 0.551972 0.5127 -0.617349 0.462705 0.710915 1.06137 1.00001 -0.157231 0.945282 1.33206 0.591212
542 -0.401322 0.626438 -0.0985661 -0.484971 -0.130355 1.33578 0.636717 0.271493 -0.455906 0.995612 0.92016 0.471969
538 0.0993905 0.43931 0.700191 -0.985001 0.565519 0.754275 1.0906 0.680596 0.0703682 1.11584 1.28659 0.502427
506 -0.16641 0.363884 -0.236842 -1.18789 -0.0858812 1.3961 0.627811 0.254048 0.107079 0.552134 1.11958 0.515609
609 -0.361608 0.465871 -0.157703 -0.696688 0.168406 1.29274 0.620256 0.158577 -0.403229 0.441594 1.38976 0.438029
678 -0.393399 0.691325 0.051301 -0.635821 -0.101824 1.39961 0.671579 0.122472 -0.327855 0.940398 1.05056 0.893558
456 -0.129054 1.07754 0.0359559 -0.81189 -0.110611 1.04594 0.71824 0.889119 -0.41791 0.865259 1.02571 0.319088
537 -0.552741 0.456333 0.212552 -0.49976 -0.0776592 1.25216 0.566919 -0.0985597 -0.467165 0.753598 1.23181 0.9315
481 -0.0557739 0.765528 -0.334314 -0.888292 0.311524 1.18747 0.735287 0.583214 0.0726565 0.983271 1.20514 0.34269
652 -0.0610789 0.726165 0.0525723 -0.564341 -0.484963 1.23647 0.972246 0.687388 -0.60923 0.611313 1.03308 0.572415
581 0.00950622 0.652216 0.562 -0.931475 0.502373 0.722505 1.32652 0.865777 -0.126033 0.839473 1.08483 0.573897
565 -0.299537 0.754312 0.00107436 -0.460944 -0.0933484 1.42198 0.690238 0.592912 -0.50673 1.07076 0.942876 0.597761
451 -0.479993 -0.579873 -0.795919 -1.01242 -0.710912 -0.871502 0.375158 0.195742 -0.73426 0.92881 0.897817 0.840115
395 -0.343898 -0.574821 -1.11561 -1.02951 -0.808945 -0.659575 0.373867 -0.159153 -0.69665 1.08457 0.988504 0.641026
323 -0.399179 -0.898044 -0.575079 -1.23652 -0.782944 -0.658945 0.476328 0.0357592 -0.627682 0.887441 0.943634 0.630949
375 -0.295524 -0.537697 -1.06075 -1.01498 -0.852195 -0.801796 0.55225 0.329889 -0.711876 1.06203 0.844451 0.624374
326 -0.292954 -1.01066 -0.552522 -1.17742 -0.776055 -0.705784 0.562811 0.22872 -0.622757 1.07828 0.8369 0.628319
403 -0.368741 -0.513294 -0.865591 -0.975266 -0.839143 -0.759457 0.302577 0.192106 -0.822555 1.15387 0.713587 0.578146
338 -0.441796 -0.42485 -0.957169 -0.918197 -0.716601 -0.852634 0.524955 0.381325 -0.708913 0.88088 0.671039 0.869322
322 -0.364482 -0.611547 -0.653569 -1.10699 -0.700986 -0.911494 0.496459 0.149693 -0.720787 1.0297 0.998795 0.724919
442 -0.216588 -0.877075 -0.708585 -1.31234 -0.773021 -0.743409 0.471846 0.240993 -0.50228 0.830134 1.00547 0.593209
247 0.722393 -0.458638 -0.749275 -0.595556 0.604048 0.418302 -0.0166483 0.0214236 -1.58263 0.56976 -0.0923166 0.447758
178 1.1715 -0.0445133 -0.611217 -1.06242 0.388767 0.182234 0.0100559 -0.13159 -1.47677 0.202837 0.0385871 0.543879
202 1.04932 -0.272953 -0.290071 -1.38593 0.428599 0.27006 -0.233545 -0.205728 -1.25153 0.0798374 0.166582 0.615534
122 0.629207 -0.635991 -0.120407 -0.786545 0.684463 0.263416 -0.540605 0.058777 -1.30097 0.660101 0.141341 0.82171
260 0.950847 -0.39182 -0.523863 -0.418031 0.292098 0.236829 -0.185917 0.58447 -1.40501 0.684541 -0.189772 0.640238
208 0.996061 -0.605941 -0.294808 -0.72198 0.409009 0.277219 -0.201961 -0.0548868 -1.19475 0.346289 0.139405 0.923058
38 0.459202 -0.554176 -0.224889 -1.07531 0.443852 0.523469 -0.254832 -0.0443044 -1.34049 0.649008 -0.354872 0.700731
110 0.779083 -0.722393 -0.597196 -0.844022 0.784399 0.337628 -0.178715 0.352912 -1.32288 0.646542 -0.0470569 0.274881
414 -0.300589 -0.545101 -0.936544 -1.51036 -0.693131 -0.775878 0.457752 0.224946 -0.409357 0.913698 0.732463 0.539332
390 -0.364265 -0.78299 -0.801561 -0.9886 -0.625724 -0.754965 0.257055 0.022828 -0.387981 1.12485 0.964431 1.08635
309 -0.277208 -0.641596 -0.669348 -1.26518 -0.666256 -0.818479 0.656698 0.172089 -0.854033 0.925221 0.920668 0.0284797
362 -0.361209 -0.603073 -0.919769 -1.17471 -0.680769 -0.818004 0.63444 0.0365564 -0.81972 0.919886 0.94916 0.392617
317 -0.465402 -0.688541 -0.682406 -0.881688 -0.708573 -0.772597 0.237343 0.277755 -0.610328 1.00065 0.892609 0.951162
352 -0.326529 -0.492807 -0.916573 -1.06219 -0.810075 -0.758432 0.415001 0.152809 -0.772108 1.06505 0.80355 0.480536
365 -0.402062 -0.7597 -0.250772 -0.947032 -0.696038 -0.504286 0.710746 0.378926 -0.48185 1.22193 0.719839 0.224504
378 -0.316211 -0.588748 -0.894806 -1.04961 -0.700567 -0.735931 0.220278 -0.0542893 -0.631647 1.26504 0.874212 0.59804
418 -0.499287 -0.731894 -0.811253 -1.21325 -0.666842 -0.7239 0.666407 0.244744 -0.618109 1.03978 0.582222 0.683073
450 -0.182115 -0.788927 -0.932609 -1.11998 -0.8677 -0.703733 0.44912 0.0220979 -0.558999 0.894699 0.919705 0.786347
417 -0.471838 -0.810636 -0.872325 -1.15081 -0.51637 -0.706883 0.415084 0.145375 -0.396579 0.975753 0.65702 1.02311
443 -0.511347 -1.00232 -0.830642 -1.05573 -0.443508 -0.68297 0.367358 0.153905 -0.320363 1.23179 0.788795 0.946714
504 -0.0893993 0.509039 -0.405834 -0.914625 0.0796054 1.4516 1.07789 0.403776 -0.0483412 0.781455 1.08433 0.307694
560 -0.246257 0.441968 0.232577 -0.876718 0.37745 1.06965 0.665662 0.82279 -0.228637 0.591842 1.47199 0.350693
597 -0.0248336 0.618988 -0.0406828 -0.544444 -0.316999 1.29882 1.00743 0.68197 -0.576077 0.78314 1.17876 0.176061
572 0.2592 0.514256 0.623164 -0.877837 0.509852 0.774996 1.18049 0.642525 -0.0327505 0.969332 1.40473 0.48053
620 -0.225019 0.473145 -0.0352043 -0.717215 -0.292917 1.2222 0.45576 0.335642 -0.214889 0.56028 1.26429 0.888805
631 0.0252223 0.193154 0.100545 -0.774546 -0.290877 1.2641 0.6738 0.372622 -0.104958 0.547156 1.32775 0.575495
667 -0.120163 0.399865 -0.097183 -0.361365 -0.200849 1.48617 0.705032 0.675726 -0.37661 0.992989 1.15634 0.532477
35 0.922949 -0.564941 -0.24538 -0.675065 0.489903 0.299221 0.0770301 -0.0130823 -1.41615 0.559499 -0.129237 0.890372
79 0.476465 -0.677574 -0.549384 -1.02263 0.550823 0.0273312 -0.196423 -0.0677695 -0.92835 0.790265 -0.230056 0.818959
176 0.803834 -0.708976 -0.137231 -0.767941 0.684734 0.248444 -0.0918087 -0.0306008 -1.33748 0.575715 0.0781323 0.641185
138 0.63533 -0.354867 -0.533082 -0.90752 0.717717 0.235118 -0.271198 -0.0616361 -1.24224 0.681579 -0.068245 0.771401
52 0.639715 -0.811 -0.47011 -0.843885 0.537273 0.420764 -0.00970546 -0.159294 -1.21423 0.454209 -0.166436 0.911433
174 1.16478 -0.443037 -0.290289 -1.0638 0.619313 0.325324 0.00384315 -0.256765 -1.27872 0.560837 0.110293 0.312325
95 0.832977 -0.477076 -0.310911 -1.21141 0.882702 0.206487 -0.136314 -0.23817 -0.942043 0.470374 0.00779154 0.887497
266 0.53959 -0.457357 -0.679658 -0.56765 0.661289 0.533166 -0.213187 -0.202905 -1.36961 0.713823 -0.146144 0.839163
33 0.532547 -0.557293 -0.268821 -1.38203 0.409467 0.0366655 -0.290846 0.0748044 -1.11636 0.81612 -0.261401 0.235871
69 0.648241 -0.620543 -0.486009 -0.952199 0.723303 0.450539 -0.0733762 -0.399276 -1.31351 0.657679 0.0362349 0.504754
229 0.582466 -0.322568 -0.290632 -1.02063 1.04218 0.252166 -0.102989 -0.330215 -1.12559 0.629248 0.0337026 0.636799
285 0.914006 -0.722418 -0.338428 -0.940936 0.929956 0.261013 -0.039713 0.184661 -1.01083 0.496546 -0.0976589 0.929474
23 0.521075 -0.346974 -0.421379 -0.878571 0.3219 -0.0429765 -0.242997 -0.212951 -1.2994 0.926564 -0.0620388 0.287169
295 -0.310743 -0.822397 -0.655068 -0.973893 -0.834804 -0.630875 0.487305 0.193622 -0.904696 1.07117 0.845743 0.20779
457 0.0966343 0.563787 0.466365 -0.856048 0.180966 0.888367 0.907166 0.888494 -0.179798 0.824025 1.28928 0.421552
681 0.178324 0.22792 0.36069 -0.746525 0.377037 1.03405 0.706064 0.894819 0.0338835 0.801731 1.57873 0.498802
569 -0.485399 0.432109 -0.0670948 -0.162885 -0.177216 1.19762 0.3944 0.734034 -0.40647 0.878762 1.18562 0.998343
545 0.136547 0.47354 -0.0526917 -0.662584 -0.512783 1.49754 0.485596 0.937497 -0.0630207 1.00068 0.89224 0.763828
10 1.10084 -0.134028 -0.0746504 -0.416587 0.88451 -0.15559 -0.320157 0.176157 -1.45418 0.528983 0.426803 1.18517
284 0.647657 -0.210549 -0.489497 -1.00496 0.914369 0.0666467 -0.415927 -0.203791 -1.15639 0.466235 0.25379 0.752599
112 0.94027 -0.543299 -0.329731 -0.944013 0.40407 0.359187 -0.313171 -0.113475 -1.31818 0.369234 0.147458 0.621254
213 0.586772 -0.822489 -0.414252 -0.74965 0.66335 -0.0997952 -0.125872 0.388522 -1.00287 0.772054 -0.188741 0.782006
253 0.891449 -0.698964 -0.31689 -0.607589 0.741867 0.164249 -0.251928 0.4692 -1.13454 0.695245 -0.0136356 0.776409
5 0.904193 -0.227523 -0.41182 -0.855972 0.467422 0.186516 -0.367864 -0.0577031 -1.15331 0.565876 -0.0626382 1.06966
73 0.767089 -0.611185 -0.521228 -0.937751 0.589003 0.423326 -0.46286 -0.025319 -1.23775 0.718225 0.102241 0.319457
37 1.11064 -0.4278 -0.433249 -1.0368 0.826988 0.169379 -0.0751104 0.0528488 -1.03361 0.642524 -0.104071 0.783256
283 0.774522 -0.487384 -0.359466 -0.682719 0.230158 -0.115957 0.0237582 0.173388 -1.31081 0.134495 -0.0710638 1.20909
18 0.591737 -0.697795 -0.590762 -1.01596 0.807987 0.350818 -0.182158 -0.214862 -1.02894 0.486099 -0.0517864 0.955653
94 0.600017 -0.585099 -0.286834 -0.98745 0.857644 0.385804 -0.320351 -0.190682 -1.29617 0.672288 0.111984 0.464467
30 0.831819 -0.146116 -0.681376 -1.03263 0.389687 0.183836 -0.0593354 -0.202879 -1.61458 0.125928 0.167428 0.342641
276 0.779704 -0.362833 -0.585837 -0.907435 0.843744 0.196153 0.152019 -0.168568 -1.26686 0.148883 0.0374126 0.875009
123 0.425185 -0.68647 -0.533055 -0.804277 0.951491 -0.0156318 0.0761992 0.233883 -1.06936 0.541848 -0.205195 0.923956
223 0.610392 -0.169929 -0.518035 -0.812736 0.572777 0.212144 -0.330059 0.0246663 -1.31118 0.548009 -0.148763 0.867233
13 0.604048 -0.321621 -0.317899 -1.09929 0.565927 0.35959 -0.576787 -0.13904 -1.1337 0.865954 -0.123091 0.579447
78 0.788171 -0.318647 -0.0290908 -0.301228 0.553071 -0.0794826 -0.301663 0.0289741 -1.62422 0.53251 0.333238 1.23391
563 -0.0977243 0.625888 -0.0532493 -0.991443 -0.294758 1.46248 0.787109 0.587778 -0.215837 0.588096 0.918715 0.594828
666 -0.192398 0.227084 0.051501 -0.664231 -0.224418 1.38707 0.936643 0.140135 -0.281141 0.616111 1.03297 0.676745
467 -0.0413999 0.583015 0.164787 -0.824684 -0.227082 1.30614 0.46713 0.353545 -0.0560352 1.19453 1.15187 0.508371
494 -0.168132 0.358813 -0.26423 -0.982839 -0.145377 1.29912 0.586997 0.182293 -0.0482642 0.175754 1.36728 0.695265
619 0.0227613 0.658168 0.59983 -0.795858 0.189282 0.815194 1.07502 1.00111 -0.345903 0.712751 1.26281 0.437883
487 0.111272 0.681491 -0.0785955 -0.560328 -0.0777492 1.14789 1.20885 1.14487 -0.242841 0.929245 0.749918 0.486727
236 1.2263 -0.143378 -0.767031 -0.938969 0.550384 0.165234 -0.108426 0.0974588 -1.15159 0.414877 -0.0682224 0.800552
636 -0.0493738 0.421475 0.592648 -1.06529 0.599701 0.775361 0.876013 0.497115 0.166026 0.980609 1.44341 0.588577
586 -0.00107132 0.545777 0.791564 -1.01832 0.319472 0.828109 1.14139 0.850235 -0.175695 0.916274 1.16099 0.488835
701 0.0616704 0.570331 0.640163 -0.87423 0.289828 0.730534 1.15324 0.947375 -0.265757 0.694193 1.33027 0.449767
554 0.0578969 0.401177 -0.0112417 -0.593259 -0.56471 1.54577 0.807405 0.42115 -0.348399 0.455419 1.18539 0.925142
127 0.637905 -0.224343 -0.694014 -0.821808 0.952465 0.169396 -0.273496 -0.276556 -1.28087 0.52419 0.246416 0.635894
645 -0.21032 0.463027 0.0519502 -0.487999 -0.249814 1.49697 0.455948 0.157386 -0.318971 0.684753 1.39432 1.0385
610 0.0219753 0.423687 -0.0612981 -1.17971 -0.256751 1.58258 0.754984 0.51455 0.0806802 0.826545 0.899631 0.478912
314 -0.588178 -0.839428 -0.929875 -0.923933 -0.523824 -0.634697 0.498543 0.112053 -0.603352 1.2534 0.752618 0.79705
630 0.00967012 0.410255 0.487485 -0.817285 0.350927 0.982551 0.908987 0.797998 -0.160916 0.75821 1.46614 0.448571
576 0.104493 0.442566 -0.0147227 -0.570529 -0.230855 1.52468 0.913485 0.582717 -0.34714 1.00317 1.05536 0.275171
567 0.18804 0.432067 -0.138553 -0.392218 -0.102968 1.37984 0.68828 0.638894 -0.144988 1.19252 1.27927 0.359763
204 1.24159 -0.0366634 -0.700308 -0.961077 0.621854 0.133772 -0.0407065 0.0317704 -1.17451 0.315701 -0.03599 0.932842
231 1.0402 -0.012014 -0.444936 -0.63391 0.569992 0.155276 -0.132301 -0.15304 -1.52287 0.921709 -0.125664 0.647267
505 -0.226565 0.485635 -0.0686902 -0.825133 -0.0218644 1.12409 0.478113 0.272985 0.0177756 0.678394 1.28482 0.801678
393 -0.364566 -0.788392 -0.75593 -0.937092 -0.876237 -0.724551 0.475403 0.15359 -0.789595 1.12964 0.869021 0.664052
392 -0.479178 -0.938758 -0.559096 -0.887382 -0.506332 -0.862024 0.252301 0.4921 -0.622276 1.22962 0.907431 0.702182
658 0.219472 0.634631 -0.0945122 -0.498365 -0.322499 1.31964 0.898125 0.781959 -0.263873 0.957932 0.973852 0.630176
158 0.681346 0.0230008 -0.382096 -1.34439 0.525032 0.0426909 -0.0745368 -0.234312 -1.36035 0.091846 -0.0213672 0.648583
212 0.656242 -0.370068 -0.157154 -0.431767 1.09187 0.027224 -0.174225 -0.0576308 -1.43237 0.458843 0.506742 0.851679
232 0.801572 -0.329446 -1.04159 -0.623099 0.600231 0.318795 -0.293872 0.322406 -1.25576 0.401266 -0.0693786 0.877389
104 0.680938 -0.0770426 -0.710566 -1.03073 0.769907 0.189146 -0.526275 -0.0472062 -1.2138 0.45629 0.220039 0.527955
304 -0.234092 -0.664201 -1.14923 -1.08129 -0.871188 -0.605186 0.595852 0.072375 -0.733267 0.817939 0.845684 0.474206
452 -0.37703 -0.584835 -0.714183 -0.965333 -0.94656 -0.702052 0.409115 0.0285667 -0.980865 1.04648 1.00493 0.328503
382 -0.259493 -0.909414 -0.917109 -1.06188 -0.684124 -0.681566 0.363137 0.114881 -0.475957 1.10743 0.839397 0.81225
273 0.621676 0.0362322 -0.611091 -0.937592 0.676707 0.26357 -0.227132 -0.0168473 -1.45291 0.758593 -0.391326 0.767325
210 0.855509 -0.197073 -0.13283 -0.373603 0.477216 0.0189112 -0.546816 0.203829 -1.81271 0.486493 0.522376 0.565871
683 0.0790659 0.62197 0.49847 -0.795449 0.275378 0.79802 1.01966 0.854384 -0.250571 0.703757 1.52641 0.408326
591 0.0403549 0.244281 -0.105321 -0.530247 -0.267537 1.53285 0.794455 0.705499 -0.373044 0.726248 1.02953 0.327979
130 0.408359 -0.306115 -0.598569 -0.904605 0.974019 0.413042 -0.467195 -0.228268 -1.193 0.539727 0.114476 0.847612
651 0.201357 0.454863 0.750753 -0.857064 0.506519 0.654555 1.17561 0.741817 0.0104815 1.00357 1.36734 0.62928
512 -0.294631 0.618687 -0.15358 -0.825145 0.300712 1.20565 0.380509 1.16811 0.00641824 0.949946 1.16868 0.446985
606 -0.423754 0.572727 -0.270712 -0.651353 -0.0694054 1.36155 0.770727 0.395315 -0.312072 0.674414 0.659598 0.815768
128 0.858065 -0.795294 -0.485925 -0.782242 0.404829 0.150363 0.303034 -0.21568 -1.31266 0.208072 0.154121 0.472162
27 1.10056 -0.570303 -0.724241 -0.497239 0.334365 0.434373 -0.153954 0.0613226 -1.38824 0.62104 0.0812759 0.603972
673 0.00256397 0.71299 -0.038795 -0.648279 -0.257733 1.33089 1.03122 0.165248 -0.575434 0.499557 1.40089 0.334939
544 -0.0736145 0.426423 -0.10687 -0.697591 -0.418738 1.60607 0.946596 0.462977 -0.264545 0.660521 0.864515 0.826161
107 0.602962 -0.0886327 -0.673404 -0.904504 0.756105 0.164907 -0.146031 -0.0768173 -1.51597 0.342779 0.0442529 0.499466
482 -0.463873 0.218321 -0.309519 -0.538205 0.26706 1.19661 0.853391 0.358391 -0.389614 0.468153 1.47596 0.239467
453 -0.312316 -1.04983 -0.585096 -1.07362 -0.862784 -0.576382 0.63247 0.094877 -0.798952 0.98079 0.811679 0.456604
50 1.01002 -0.304571 -0.0788576 -0.326932 0.605332 -0.00450172 -0.0122354 -0.127956 -1.5108 0.56393 0.18593 1.38682
570 -0.275395 0.46563 -0.126896 -0.518901 -0.0923202 1.28783 0.558151 0.101035 -0.320464 0.590862 1.40492 0.75676
551 0.169405 0.983242 -0.0469462 -0.432973 -0.329351 1.13494 0.550966 0.538044 -0.335394 1.1156 1.22281 0.608437
612 -0.0887699 0.656217 -0.276432 -0.473932 -0.0594012 1.44532 0.895981 0.801581 -0.309767 1.01451 0.86945 0.507629
458 -0.134036 0.549885 -0.208017 -0.649117 0.165838 1.21423 0.830009 0.767216 -0.364581 0.61384 1.49479 0.134458
249 0.70344 -0.180038 -0.240578 -0.921267 1.13226 0.0135546 0.0078077 -0.527443 -1.32047 0.747721 0.0699432 0.850837
437 -0.645242 -0.536886 -0.929422 -1.088 -0.490542 -0.681036 0.38408 -0.14197 -0.622801 1.31007 0.865632 0.471426
