704 12
327 -0.496442 0.734714 0.190628 0.924622 -0.396102 -0.223469 0.696808 0.0456065 0.312854 0.227787 0.326663 1.96562
357 -0.519592 0.796713 -0.176847 0.629188 -0.429546 -0.293136 0.62004 0.0894723 0.264481 0.0742751 0.299811 1.89726
315 -0.487023 0.816818 0.117273 0.922052 -0.300873 -0.2411 0.655597 -0.0136901 0.332384 0.279936 0.411351 1.99316
359 -0.778115 1.02027 0.0713062 0.74742 -0.332537 -0.0497928 0.851564 -0.111651 0.270194 0.198224 0.53542 1.76541
355 -0.589159 0.730025 0.0886848 0.840827 -0.382033 -0.174169 0.709253 0.0613813 0.266527 0.257559 0.392585 2.07318
370 -0.370846 0.709868 0.0832479 0.955329 -0.667718 -0.450084 0.749555 0.171734 0.381223 0.507855 0.433429 1.83398
339 -0.63537 0.815592 -0.083231 0.785672 -0.154194 -0.611267 0.825054 0.032537 0.388013 0.21805 0.45592 1.95714
379 -0.564267 0.762775 0.0239345 0.781635 -0.33893 -0.206197 0.701966 -0.0120082 0.20154 0.207704 0.394574 1.87369
384 -0.821576 0.734729 -0.115126 -0.0123888 -0.379917 -0.608349 0.522352 0.274977 0.0896198 0.244877 0.376787 1.48752
329 -0.524125 0.772626 0.0331568 1.02707 -0.319008 -0.157931 0.757768 -0.0361033 0.242913 0.279111 0.29734 1.97844
401 -0.430641 0.604635 -0.0434104 0.845605 -0.344853 -0.535326 0.424819 -0.192258 0.274187 0.362015 0.573867 2.01229
318 -0.564385 0.806836 0.14282 0.894037 -0.488108 -0.427438 0.701656 -0.0998565 0.384787 0.0977426 0.385207 1.93885
412 -0.548393 0.424738 -0.141272 0.93643 -0.678951 -0.289094 0.637248 0.0101272 0.241909 0.477377 0.609816 1.92349
322 -0.591147 0.844963 0.157842 0.860017 -0.377375 -0.20222 0.747373 0.0062216 0.29108 0.215581 0.353372 2.00925
398 -0.763077 0.784905 0.0478463 0.835883 -0.422173 0.0148289 0.973516 0.0530547 0.166088 0.159687 0.365322 1.94691
373 -0.398976 0.759507 0.186763 0.693683 -0.308712 -0.0682356 0.642279 0.00108937 0.163207 0.155988 0.128505 2.13223
332 -0.515583 0.873232 0.0716187 0.860533 -0.280528 -0.183339 0.576745 -0.0373669 0.294016 0.3139 0.354618 2.07806
330 -0.498744 0.903791 0.0435959 0.801595 -0.706216 -0.0837009 0.567106 -0.145598 0.315359 0.278446 0.56843 1.82056
301 -0.443431 0.88662 0.177533 0.966971 -0.525627 -0.128565 0.563573 0.089175 0.462667 0.469834 0.298566 1.83952
408 -0.582913 0.808457 0.068473 0.965869 -0.32297 -0.236912 0.733244 -0.0232269 0.304913 0.310814 0.301399 1.97483
449 -0.458896 0.91786 0.0526324 0.719148 -0.656807 -0.0446382 0.616989 0.00733913 0.253063 0.349617 0.594705 1.94632
343 -0.528427 0.861605 -0.00435492 0.908672 -0.344583 -0.12398 0.682972 -0.0245637 0.268528 0.241434 0.280219 1.94491
451 -0.718486 0.987085 0.0839137 0.627503 -0.617628 -0.151963 0.695209 -0.106903 0.320597 0.16552 0.542805 1.8247
310 -0.587564 0.751614 0.0941854 0.905029 -0.25051 -0.156393 0.698143 0.0552955 0.322689 0.253608 0.336738 2.02064
416 -0.580729 0.717017 -0.00754614 0.781607 -0.421405 -0.21995 0.569082 -0.365891 0.145608 0.10756 0.633681 1.9022
296 -0.614334 0.756473 0.0770404 0.833751 -0.351421 -0.236966 0.686679 0.0317735 0.310015 0.240659 0.397716 1.96067
298 -0.470771 0.780954 0.0293395 0.911842 -0.35495 -0.210267 0.757234 -0.00916385 0.195269 0.295081 0.365536 2.03387
352 -0.365609 0.497092 0.0330741 0.743289 -0.529758 -0.284807 0.685045 -0.220025 -0.108022 0.17724 0.522377 2.06462
337 -0.534693 0.775888 0.0678382 0.851708 -0.307724 -0.231838 0.660203 -0.0149864 0.249029 0.237215 0.365315 2.00668
438 -0.573204 0.637923 0.0642869 0.853281 -0.525251 -0.165613 0.700484 -0.221524 0.121642 0.00781387 0.0983827 2.05179
361 -0.574177 0.894464 -0.0150085 0.854318 -0.445167 -0.291611 0.671381 -0.000786412 0.269834 0.42804 0.469308 1.94987
409 -0.580725 0.63476 0.102328 0.749047 -0.405189 -0.319018 0.794964 -0.0223538 0.263693 0.0383289 0.479528 1.95581
445 -0.503704 0.8525 -0.00837802 0.753974 -0.289942 -0.149998 0.941077 0.2259 0.232129 0.404411 0.762027 1.77981
325 -0.569778 0.79283 0.0777961 0.862402 -0.378691 -0.187944 0.706162 0.000259546 0.270951 0.239022 0.391637 2.02459
341 -0.540652 0.799756 -0.0880458 0.883747 -0.486091 -0.234671 0.732509 -0.0915216 0.153736 0.348451 0.488027 2.01448
335 -0.851895 0.64293 0.0239048 0.828978 -0.385884 0.172728 0.823315 0.0428223 0.238451 0.284475 0.594656 1.96794
316 -0.540228 0.747054 0.109244 0.951865 -0.346612 -0.138474 0.777598 0.0103061 0.264848 0.23149 0.310685 1.95858
427 -0.265098 0.49542 0.130205 0.901044 -0.569952 -0.0150116 0.835593 -0.0608651 -0.0878475 0.267828 0.419195 2.10702
393 -0.564065 0.68494 0.197387 0.742166 -0.693515 -0.348265 0.481113 -0.154312 0.373235 0.141227 0.460361 1.95651
360 -0.668784 0.727209 -0.0675528 0.849631 -0.53192 -0.341754 0.71988 -0.105909 0.241328 0.226325 0.493796 1.94863
386 -0.493512 0.66855 0.251705 0.868108 -0.595719 -0.303058 0.721748 0.0178024 0.221226 0.229816 0.324834 1.99838
403 -0.465827 0.608455 0.146946 0.646011 -0.699614 -0.372438 0.545138 -0.0837834 0.196868 0.248316 0.638229 1.98049
320 -0.586527 0.838443 -0.034277 0.777982 -0.341508 -0.277833 0.758884 0.0498807 0.251416 0.239292 0.352299 1.98428
324 -0.69108 0.783 0.0643854 0.929194 -0.167057 -0.618761 0.901182 0.0800437 0.527265 0.205862 0.493291 1.86471
328 -0.526115 0.670398 0.113926 0.900444 -0.267645 -0.244048 0.586015 -0.0209426 0.293668 0.231549 0.335138 2.13141
423 -0.5431 0.801918 0.100979 0.95232 -0.366858 -0.119846 0.710226 0.0662803 0.345037 0.293028 0.294481 2.01085
402 -0.6473 0.891466 -0.0328542 0.73039 -0.298188 -0.479204 0.913265 -0.194874 0.18463 0.0989049 0.56073 1.89956
313 -0.545304 0.786578 0.0837732 0.910533 -0.339526 -0.235701 0.722119 -0.00700285 0.252459 0.284392 0.252339 2.01666
439 -0.567635 0.757796 0.148136 0.891842 -0.410928 -0.463975 0.573242 -0.0864208 0.473716 0.236645 0.46999 1.84554
441 -0.506927 0.780835 0.0604223 0.640839 -0.424209 -0.25353 0.66897 0.0824335 0.19971 0.172217 0.328877 1.95293
365 -0.332548 0.907084 0.179991 0.851705 -0.350719 -0.552522 0.745429 -0.308404 0.173032 0.147718 0.270867 1.94972
342 -0.458522 0.74215 -0.039407 0.891227 -0.379266 -0.204335 0.718866 0.0782624 0.23716 0.269703 0.296099 2.01198
506 -1.11336 0.417364 0.685519 0.680024 0.0147539 -0.991786 0.0212931 0.270581 -1.33784 0.346413 0.469861 0.367461
638 -1.14929 0.315829 0.957183 0.686998 -0.0878741 -0.833251 0.031652 0.248935 -0.937315 0.342243 0.490501 0.533825
466 -1.01148 0.537479 1.03107 0.789741 -0.0222461 -0.615202 -0.59828 0.682742 -1.09767 0.440937 0.0406778 0.568658
562 -1.07647 0.615536 0.63322 1.02232 0.108057 -0.57719 -0.643031 0.246089 -1.36031 0.525943 -0.486096 0.590423
680 -0.907993 0.619824 0.728032 0.832381 0.311319 -0.64458 -0.279822 0.565127 -1.60212 0.393408 -0.749268 0.727277
471 -1.02612 0.382912 0.941488 0.879502 0.073849 -0.552011 -0.532693 0.647043 -1.21878 0.516826 0.0958452 0.584082
581 -1.05955 0.525538 0.665049 0.963714 0.235938 -0.376095 -0.372423 0.492388 -1.51455 0.481752 -0.795162 0.685208
633 -0.93819 0.536204 0.990234 0.837554 0.0389675 -0.673339 -0.616283 0.55167 -1.12117 0.484233 0.0166295 0.593017
487 -1.07404 0.249258 0.800097 0.753326 0.235711 -0.049226 -0.585319 1.00772 -1.33283 0.750279 -0.0253132 0.757245
669 -1.23375 0.430852 0.776207 0.841514 0.205974 -0.411782 -0.491875 0.819443 -1.07748 0.704319 0.366305 0.451394
513 -1.11758 0.431832 1.00546 0.611718 0.111986 -0.428968 -0.461618 0.747885 -1.21489 0.427711 0.425134 0.59614
523 -0.991524 0.476288 1.0056 0.86009 -0.0295591 -0.550303 -0.568509 0.708694 -1.00857 0.535663 0.0552983 0.545271
460 -0.986376 0.507449 1.07676 0.782891 -0.00200393 -0.661261 -0.540219 0.615234 -1.04936 0.392806 0.0893336 0.582376
635 -1.08397 0.549279 0.972495 0.915002 -0.481244 -0.46999 -0.0872368 0.550535 -0.955336 0.495003 0.397257 0.0620468
530 -1.16133 0.964172 0.74446 0.652872 0.148744 -0.640998 -0.126669 0.801862 -1.19965 0.724065 0.293961 0.197998
694 -1.02339 0.492841 1.02516 0.697433 -0.0254868 -0.598294 -0.397146 0.506903 -0.959839 0.47461 0.275408 0.592687
514 -1.22089 0.320501 0.84833 1.0543 0.316315 -0.250757 -0.686554 0.574837 -1.10908 0.62835 0.262667 0.477891
489 -0.995558 0.492548 1.0575 0.847424 -0.0560114 -0.604038 -0.511817 0.568783 -1.07177 0.425923 0.173658 0.498814
690 -1.41014 0.864699 1.06731 0.683757 -0.210334 -0.723592 -0.457072 0.546173 -0.858091 0.444644 0.268313 0.208883
591 -1.21879 0.501953 0.677084 0.50741 -0.0859469 -0.202896 -0.695488 0.393613 -1.33119 0.578887 0.374526 0.595074
642 -1.14396 0.502256 0.949493 0.643165 -0.110948 -0.402634 -0.445983 0.776309 -1.19842 0.508781 0.281058 0.532316
627 -0.992955 0.52051 0.984895 0.803397 0.0609574 -0.618577 -0.547008 0.548453 -1.07104 0.504527 0.217167 0.56895
671 -1.05799 0.448361 1.14808 0.651892 -0.167717 -0.183881 -0.498145 0.746693 -1.29009 0.488002 0.57867 0.530485
612 -1.11375 0.602473 0.789135 0.606124 0.293588 -0.164902 -0.570969 0.853957 -1.24009 0.705427 0.502465 0.527646
617 -1.00672 0.507679 0.997699 0.729614 -0.0552003 -0.671227 -0.539668 0.724618 -1.08879 0.491354 0.0498767 0.581447
458 -1.29322 0.297632 0.691462 1.02328 0.448289 -0.6744 -0.833012 0.365257 -1.0068 0.574303 0.187684 0.543456
688 -1.03933 0.475728 1.07953 0.727826 -0.0844917 -0.69975 -0.313953 0.553803 -0.978611 0.331013 0.347798 0.463381
607 -1.1984 0.914846 0.852974 0.486963 -0.212116 -0.399453 -0.178029 0.0195211 -0.843604 0.471054 0.404443 0.38977
684 -1.15773 0.387642 0.861365 0.859655 0.0702704 -0.549705 -0.564319 0.525804 -1.22657 0.431709 -0.169193 0.631764
500 -0.702169 0.522855 0.955985 0.681165 0.396327 -0.586256 -0.785774 0.652623 -1.21837 0.599774 0.39699 0.709465
529 -0.990807 0.513217 1.03844 0.818892 -0.0181916 -0.612791 -0.507334 0.629416 -1.05647 0.442295 0.177661 0.514212
648 -1.20154 0.419423 0.931881 0.796891 -0.100374 -0.610712 -0.667303 0.00342861 -0.919936 0.289006 0.60621 0.389425
657 -1.21624 0.376505 0.703114 0.626669 -0.00463132 -0.572671 -0.535176 0.763326 -1.2613 0.620409 0.19667 0.602388
596 -1.00705 0.581232 0.827281 0.742986 0.104344 -0.653515 -0.290871 0.759045 -1.35487 0.683431 0.458946 0.351463
468 -0.995736 0.752256 0.942222 0.78811 0.0351458 -0.534142 -0.484407 0.353773 -1.22813 0.437462 0.136229 0.483387
672 -1.00573 0.498375 0.88067 0.512405 0.336813 -0.520606 0.134398 0.0974004 -1.34649 0.236515 0.457163 0.676163
464 -1.03494 0.537399 1.03981 0.849372 -0.128057 -0.628552 -0.530034 0.484683 -1.01902 0.436768 0.0877576 0.48536
472 -1.04117 0.440338 0.885097 0.990477 0.162546 -0.434449 -0.576159 0.596124 -1.14421 0.524231 -0.155676 0.608615
651 -1.02079 0.662315 0.755613 0.999206 0.341723 -0.558463 -0.294254 0.376647 -1.58556 0.277642 -0.834877 0.67716
683 -1.20692 0.546791 0.702518 1.08048 0.12814 -0.37028 -0.637396 0.398208 -1.29198 0.469479 -0.655736 0.575655
685 -0.924532 0.541922 1.02623 0.869858 -0.0669072 -0.597436 -0.53595 0.539957 -1.05558 0.526972 0.0652018 0.564337
645 -1.45319 0.873239 1.1204 0.555866 -0.418836 -0.801092 -0.360523 0.56566 -0.913145 0.302673 0.355623 0.119647
574 -1.06771 0.404671 1.03534 0.741369 -0.24951 -0.575132 -0.517455 0.696924 -1.0658 0.474294 0.360299 0.468408
459 -0.953393 0.630199 0.523619 0.740928 -0.0621057 -0.723997 -0.379883 0.279835 -1.2073 0.731372 0.268037 0.362713
462 -1.32921 0.252397 1.04626 0.633078 0.00687703 -0.738873 -0.653639 0.200709 -0.829079 0.078644 0.496817 0.558114
476 -0.991677 0.509125 1.02869 0.820722 0.0275092 -0.581884 -0.534044 0.562782 -1.10534 0.432445 0.0923877 0.571963
455 -1.04995 0.498116 0.536434 0.888489 0.0159343 -0.614301 -0.226061 0.353404 -1.30814 0.686675 0.492171 0.272615
522 -0.939855 0.750275 0.97578 0.804276 0.498719 -0.868551 -0.375638 0.649722 -0.557683 0.374893 0.286338 0.291863
564 -0.874986 0.521281 0.897949 0.362645 0.279572 -0.317435 -0.368623 0.552934 -1.35545 0.344605 0.59138 0.664232
501 -1.00922 0.395257 0.833678 0.697695 0.0318588 -0.943018 -0.502491 0.00643804 -1.33688 0.226324 0.536598 0.457517
465 -0.94282 0.517459 1.02233 0.915031 0.0112786 -0.640213 -0.580881 0.561699 -1.09079 0.465928 0.111469 0.5012
585 -0.99921 0.822739 0.787336 0.883067 0.186451 -0.489358 -0.206503 0.324251 -1.66385 0.26783 -0.947994 0.694825
538 -0.9794 0.750041 0.760026 1.01757 0.394127 -0.487252 -0.261422 0.31307 -1.55749 0.295148 -0.769931 0.660997
604 -0.972995 0.86827 0.699321 0.846298 0.376987 -0.57941 -0.345743 0.2437 -1.48181 0.354492 -0.69465 0.605333
659 -1.08697 0.52953 0.883376 0.853646 0.135124 -0.571949 -0.578016 0.512802 -1.10518 0.495387 0.00916609 0.587373
656 -0.989521 0.486367 0.957994 0.828617 0.138467 -0.451088 -0.104291 0.365686 -1.35125 0.386267 0.731568 0.34769
643 -1.0384 0.478161 0.912336 0.922788 0.212575 -0.535747 -0.461609 0.603368 -1.23295 0.442776 -0.0915345 0.58325
654 -1.52874 0.20051 0.636062 0.794849 -0.238059 -0.721321 -0.346196 0.539698 -1.30239 0.537838 -0.103456 0.483012
463 -1.40055 0.594401 0.761801 0.650013 0.0717434 -0.428925 -0.494668 0.618555 -1.22706 0.473999 0.0190292 0.478845
502 -1.00113 0.556451 1.00778 0.847406 -0.0206429 -0.579676 -0.519826 0.596483 -1.09896 0.494393 0.0827922 0.525047
594 -1.11346 0.273852 1.09185 0.586066 0.106208 -0.267128 -0.293021 0.977835 -1.31861 0.479924 0.473035 0.627161
689 -1.06332 0.470705 0.893498 0.729831 0.157957 -0.254972 -0.465681 0.63237 -1.19351 0.559711 0.257249 0.621979
508 -1.34339 0.381981 0.927376 0.657651 0.336782 -0.488758 -0.577614 0.251123 -0.981532 0.188284 0.407842 0.588119
477 -1.03306 0.466484 0.991662 0.928591 -0.0904163 -0.598047 -0.5519 0.53273 -1.13925 0.45172 0.0442319 0.481288
478 -1.14539 0.9561 0.858896 0.418117 -0.213001 -0.631993 -0.311224 0.57822 -1.35239 0.506979 0.372142 0.293624
483 -0.977233 0.391533 0.939126 0.799269 0.0990021 -0.570242 -0.479928 0.582192 -1.25384 0.376914 -0.158674 0.677068
599 -1.25736 0.667303 0.705621 0.522781 0.391917 -0.268586 -0.724902 0.615534 -1.20801 0.646532 0.241701 0.66554
639 -1.00595 0.576365 1.03767 0.817318 0.0462058 -0.607523 -0.604347 0.553355 -1.03982 0.445334 0.0874832 0.564471
602 -1.03889 0.668765 0.656924 0.867007 0.172266 -0.445491 -0.152313 0.441467 -1.69922 0.41369 -0.828025 0.684628
521 -1.09225 0.554531 0.784473 0.838488 0.157969 -0.719665 -0.297891 0.348218 -1.54775 0.26581 -0.547777 0.621252
699 -1.0726 0.816581 0.746434 0.738344 0.0833589 -0.462803 -0.144018 0.492673 -1.73446 0.313203 -0.813237 0.648097
531 -1.31878 0.588024 0.982491 0.829676 -0.0707687 -0.872776 -0.102601 0.438659 -0.619498 0.211008 0.218712 0.113326
524 -0.997878 0.49717 1.00661 0.8799 -0.00883633 -0.661624 -0.555748 0.567656 -1.12828 0.397922 0.0653463 0.465938
552 -0.94811 0.809962 1.02313 0.663028 -0.283777 -0.909648 -0.409638 0.236599 -1.02288 0.324147 0.482997 0.253959
686 -1.0241 0.553566 1.06138 0.627581 -0.0435698 -0.5588 -0.391622 0.540232 -0.99283 0.438353 0.362689 0.605631
495 -1.00389 0.589031 0.992897 0.769706 -0.0561046 -0.471659 -0.572061 0.642314 -1.08744 0.538922 0.270648 0.499109
491 -1.38377 0.769804 0.957572 0.600958 -0.127675 -0.730549 -0.477574 0.342534 -1.10673 0.305008 0.187111 0.329522
470 -1.04222 0.525778 0.979513 0.727321 -0.067886 -0.664884 -0.606389 0.608619 -1.08434 0.442735 0.179195 0.536603
570 -1.37679 0.444191 0.95705 0.609848 -0.362053 -0.874657 -0.306408 0.539237 -0.855592 0.198249 0.303809 0.263583
469 -1.10052 0.712268 0.668084 0.511539 0.325161 -0.706785 -0.370598 0.910561 -1.25847 0.739263 0.228368 0.526836
613 -1.13613 0.732636 1.16286 0.713875 -0.166083 -0.512655 -0.238241 0.463589 -1.01857 0.262868 0.319663 0.307962
698 -1.12224 0.713706 1.07998 0.71831 -0.314192 -0.51991 -0.242988 0.500503 -0.995454 0.364121 0.374351 0.254765
696 -0.911362 0.608683 0.998409 0.733539 0.440502 -0.302727 -0.464321 0.601907 -1.33244 0.459422 -0.194193 0.769228
628 -0.994471 0.459251 0.982795 0.818807 -0.0672617 -0.519221 -0.520989 0.7704 -1.19125 0.517138 0.0390389 0.535159
512 -0.926735 0.721956 1.0126 0.856994 0.724566 -0.670571 -0.469492 0.651074 -1.12053 0.426891 0.168353 0.505424
600 -1.04959 0.695174 0.795408 0.591868 0.211223 -0.543 -0.566221 0.581236 -1.36876 0.638635 0.178209 0.590488
515 -1.18035 0.636607 0.972814 0.61288 -0.0147082 -0.519197 -0.472485 0.595065 -1.14984 0.451562 0.244507 0.54084
510 -1.14893 0.781396 0.879039 0.178865 0.455178 -0.662329 -0.633438 0.677699 -1.17961 0.374527 0.309049 0.7689
703 -1.03939 0.524511 0.986369 0.791417 0.0492001 -0.63601 -0.582172 0.589014 -1.10459 0.426561 0.0554884 0.586101
565 -1.18123 0.874068 0.882091 0.88589 0.131587 -0.324973 -0.420986 0.710534 -1.01816 0.734785 0.44168 0.179754
608 -1.07445 0.550693 0.782239 0.878807 -0.20965 -0.584467 -0.492421 0.87106 -1.08307 0.915858 0.314679 0.278656
647 -1.32452 0.575901 0.863997 0.790813 0.0941854 -0.385396 -0.50462 0.375046 -1.31312 0.292746 -0.251292 0.576237
551 -1.05557 0.687113 0.879167 0.784902 0.146259 -0.613287 -0.287704 1.05431 -1.122 0.767566 0.148114 0.330204
601 -1.07672 0.427822 0.92559 0.577557 0.216319 -0.147427 -0.655563 0.768708 -1.42757 0.470109 -0.287141 0.851696
658 -1.31847 0.301528 0.782286 0.635746 -0.103173 -0.368302 -0.477653 0.870454 -1.23221 0.628312 0.352718 0.554965
454 -1.16742 0.73203 0.961327 0.69891 -0.175956 -0.54246 -0.485924 0.707298 -0.853688 0.526034 0.0884084 0.34984
692 -1.03588 0.451212 0.944968 0.773801 -0.0510494 -0.637224 -0.508944 0.637202 -1.07951 0.531105 0.250089 0.511696
482 -1.53831 0.291473 0.631418 0.87219 0.3095 -0.63026 -0.400559 0.0834227 -0.969036 0.33419 0.349106 0.484631
563 -0.908479 0.549574 0.656739 0.900199 -0.258312 -0.648558 -0.481613 0.330198 -1.53362 0.785217 0.51186 0.280006
494 -1.09049 0.554121 0.675279 0.681079 -0.263998 -1.06532 -0.622283 0.0920807 -1.05812 0.536893 0.397787 0.406202
673 -1.61096 0.0534082 0.674829 0.774446 -0.399832 -0.782544 -0.561987 0.78994 -0.917817 0.623791 0.0177152 0.444471
697 -1.08814 0.442803 0.896637 0.808875 0.111135 -0.560515 -0.493454 0.621331 -1.28095 0.431787 -0.0880212 0.595687
624 -0.987902 0.460052 0.559743 0.601092 0.0358312 -0.380744 -0.538673 0.638061 -1.50958 0.819351 0.160179 0.677381
475 -1.01136 0.617148 1.07469 0.759222 0.053387 -0.631607 -0.406372 0.481907 -1.09447 0.329689 0.362464 0.459533
618 -0.862953 0.84394 1.14166 0.247364 -0.104751 -0.342423 -0.386288 0.943947 -1.30649 0.583504 0.509329 0.610939
527 -0.8457 0.464045 0.474083 0.553153 -0.104261 -0.531889 -0.577237 0.901243 -1.58104 1.0186 -0.0159046 0.708689
702 -0.94475 0.632333 0.749073 0.98824 0.219139 -0.559712 -0.385866 0.609129 -1.42233 0.592636 -0.521497 0.5337
556 -1.05871 0.64016 0.70241 0.910966 0.178035 -0.675719 -0.140724 0.419121 -1.56227 0.372218 -0.626931 0.538877
687 -1.02324 0.598533 0.886653 0.797183 0.387334 -0.458127 -0.375026 0.667562 -1.37046 0.33248 -0.755147 0.792034
632 -1.31255 0.64315 0.711742 0.81551 0.169338 -0.529805 -0.366354 0.587153 -1.25133 0.432842 -0.479227 0.521164
660 -1.30521 0.698948 0.79104 0.873344 0.432836 -0.615856 -0.647108 0.332836 -1.19121 0.355742 -0.159277 0.509254
118 -0.284313 0.403787 -0.762424 0.760946 -0.458833 -0.25637 -0.334628 0.946975 -0.629844 -1.35926 0.454612 0.737522
114 -0.0267991 0.784639 -0.730779 0.946687 -0.33822 -0.202958 -0.279076 0.841576 -0.460162 -1.0541 0.232629 0.713741
90 -0.140175 0.675374 -0.711921 0.836455 -0.380389 -0.221159 -0.250742 0.908433 -0.408522 -1.12515 0.316994 0.769291
126 -0.141389 0.445743 -0.553169 1.18757 -0.553846 -0.0104063 0.0117439 0.945602 -0.37774 -1.11226 0.454904 0.476236
17 -0.0362554 0.628145 -0.686542 1.06804 -0.355862 -0.126196 -0.202453 0.891264 -0.404459 -1.03423 0.292534 0.696827
223 -0.0923229 0.523615 -0.656073 0.906816 -0.750838 -0.271853 -0.450668 0.69131 -0.406439 -1.0232 0.728224 0.575305
28 0.0021799 0.796906 -0.821235 1.04662 -0.223868 -0.186068 -0.329913 0.887691 -0.505852 -0.971171 0.293305 0.652546
127 -0.228726 0.533494 -0.6259 1.00556 -0.684254 0.339417 -0.508127 0.613429 -0.518475 -1.17707 0.234195 0.73779
14 -0.077895 0.635215 -0.712587 1.04963 -0.296468 -0.095938 -0.187594 0.894791 -0.348286 -0.994474 0.322163 0.705781
117 -0.184528 0.696965 -0.821355 0.88845 -0.893552 -0.240472 -0.618248 0.894133 -0.304971 -0.864905 0.239037 0.576038
47 -0.174654 0.789985 -0.787601 0.962221 -0.348056 -0.254613 -0.226747 0.931516 -0.395499 -1.00036 0.263461 0.587204
108 -0.215042 0.511914 -0.491889 1.06451 -0.276998 -0.219011 -0.0710491 0.856847 -0.21775 -1.34248 0.331096 0.604021
164 -0.191469 0.736386 -0.867931 1.02565 -0.149749 -0.242459 -0.389211 0.85571 -0.392397 -1.03445 0.327723 0.641898
254 -0.0149229 0.324166 -0.717034 1.00159 -0.299294 -0.200504 -0.818238 1.03272 -0.20359 -1.04127 0.338317 0.910917
182 -0.123203 0.524184 -0.511076 0.997368 -0.444635 -0.0213385 -0.493524 0.75617 -0.268331 -1.2368 0.349264 0.806113
288 -0.154348 0.639821 -0.631904 0.931509 -0.382979 -0.0210941 -0.264192 0.861609 -0.36345 -1.08245 0.350539 0.735069
290 -0.464912 0.491898 -0.653445 0.773543 -0.253372 -0.105049 -0.535086 0.736463 -0.269289 -1.2858 0.469768 0.712039
186 -0.112348 0.676702 -0.723391 0.974812 -0.38022 -0.210663 -0.145822 0.939349 -0.43132 -1.04105 0.372796 0.637285
45 -0.17946 0.468579 -0.454352 0.993261 -0.0764817 -0.262973 -0.36888 1.07276 0.112674 -1.20066 0.575581 0.748462
129 -0.0877123 0.747792 -0.71263 0.953844 -0.278147 -0.0976503 -0.319281 0.891455 -0.51868 -1.09097 0.249125 0.693486
68 -0.0193788 0.801014 -0.757376 1.06177 -0.375979 -0.132543 -0.285441 0.733452 -0.504858 -1.01842 0.250362 0.644846
172 -0.358133 0.912735 -0.759458 0.954554 -0.369242 0.0304443 -0.376251 0.975764 -0.0831869 -1.05056 0.35745 0.517441
180 -0.211855 0.709994 -0.727508 0.896405 -0.241944 -0.259698 -0.314181 0.737332 -0.320403 -1.14734 0.285424 0.756047
163 -0.176379 0.716654 -0.711082 0.807419 -0.289267 -0.228686 -0.601988 0.539079 -0.431688 -1.23635 0.492143 0.790581
181 -0.447822 0.740864 -0.704576 0.970626 0.147713 0.115317 -0.172028 0.624583 -0.364454 -1.37273 0.547695 0.5868
49 -0.0783476 0.752362 -0.752303 0.931949 -0.382024 -0.212358 -0.237 0.867995 -0.397459 -1.02605 0.280141 0.719032
137 -0.0722065 0.729796 -0.639355 1.06095 -0.0402915 -0.0814322 -0.20685 1.28998 0.101531 -0.801896 0.693576 0.565885
25 -0.0770898 0.69303 -0.69903 0.97185 -0.412397 -0.170379 -0.240182 0.901982 -0.467229 -1.09446 0.288838 0.67836
150 -0.0453183 0.682706 -0.66228 1.07076 -0.340715 -0.0784907 -0.326053 0.908217 -0.383976 -1.03584 0.211401 0.706186
113 -0.0487384 0.563572 -0.591045 0.904556 -0.483105 -0.289071 -0.27568 0.84945 -0.27849 -1.03895 0.457946 0.737304
60 -0.087902 0.592387 -0.495194 0.871834 -0.395618 0.039304 -0.109351 1.10413 0.163436 -0.879977 0.185808 0.875264
200 -0.0499349 0.711631 -0.732503 0.987376 -0.301349 -0.213296 -0.326219 0.841663 -0.453902 -1.05066 0.20607 0.720323
283 0.058339 1.05193 -1.04483 0.940654 -0.351472 -0.477975 -0.245905 0.573336 -0.095525 -0.463296 0.827562 0.515937
0 -0.0482551 0.717659 -0.790996 0.985652 -0.376768 -0.165183 -0.301787 0.795713 -0.496701 -0.988527 0.316142 0.70328
188 0.114576 0.444902 -0.546708 1.01097 -0.644372 0.0311542 -0.562893 1.08303 -0.446235 -1.05576 0.377631 0.752586
51 -0.0509982 0.782193 -0.759965 0.919242 -0.335803 -0.224171 -0.267483 0.904002 -0.413472 -0.995535 0.250097 0.729287
183 -0.0100555 0.573349 -0.623131 1.11276 -0.516525 -0.141615 -0.317567 0.816798 -0.355846 -1.01877 0.321005 0.551282
135 0.033344 0.734623 -0.633708 0.928193 -0.831836 -0.0726569 -0.349775 0.861382 -0.526823 -0.929141 0.321308 0.546361
276 -0.296104 0.807587 -0.828951 1.11094 -0.84131 0.00922755 -0.4477 0.995983 -0.0567695 -0.700937 0.368561 0.371805
19 0.040662 0.802351 -0.749203 0.992452 -0.353795 -0.182874 -0.399732 0.887965 -0.456504 -0.905406 0.370631 0.662679
282 -0.07963 0.76212 -0.738231 1.01709 -0.343462 -0.186129 -0.216085 0.841587 -0.485375 -1.04059 0.21669 0.639346
148 0.409323 0.461781 -0.514466 1.26846 -0.52953 -0.0608541 -0.210983 1.05044 -0.472366 -0.842823 0.548207 0.598537
278 0.055099 0.6137 -0.603472 1.00465 -0.459272 0.14593 -0.180641 0.864838 -0.645323 -0.967517 0.555269 0.609045
109 -0.419011 0.454448 -0.807116 1.1135 -0.422366 -0.29323 -0.391725 0.870695 -0.0108914 -0.974147 0.101351 0.56084
94 -0.205195 0.821782 -0.420229 0.7022 -0.53114 0.0232617 -0.467225 0.885043 -0.163534 -1.26348 0.508524 0.729296
263 -0.253002 0.570861 -0.596031 0.88181 -0.805793 0.106701 -0.400745 0.730851 -0.362317 -1.12873 0.330008 0.7295
104 0.0997939 0.643245 -0.596147 0.763669 -0.559555 -0.0769969 -0.0866347 1.01822 -0.64189 -1.06235 0.67509 0.619022
275 -0.0264352 0.702469 -0.786486 0.989117 -0.296219 -0.232568 -0.309588 0.84532 -0.446599 -1.00593 0.202682 0.768785
222 -0.283858 0.816315 -0.477927 0.875686 -0.543251 -0.0707327 -0.667413 0.785974 -0.10021 -1.22555 0.406855 0.557071
351 -0.547957 0.698326 0.0710858 0.773752 -0.352196 -0.0795504 0.669028 -0.171417 0.0313744 0.201639 0.448394 2.07577
443 -0.810733 1.10053 0.166305 0.677184 -0.433508 0.153841 0.817085 -0.045075 0.34462 0.125156 0.510973 1.81319
389 -0.481042 0.850201 0.0618816 0.887405 -0.300424 -0.185908 0.677719 -0.0987328 0.197461 0.250011 0.34603 2.06536
453 -0.601263 0.912254 0.0757911 0.884626 -0.369274 -0.621212 0.780425 -0.23731 0.418664 0.0413643 0.424712 1.82893
440 -0.555366 0.766902 -0.0963267 0.83042 -0.394555 -0.184332 0.680321 0.00995888 0.243406 0.199097 0.387508 1.91532
307 -0.888096 0.596419 -0.0960056 0.840593 -0.389769 -0.139662 0.68526 -0.169876 0.283634 0.127145 0.60972 1.99696
435 -0.803328 0.740749 -0.0334482 0.773368 -0.39214 -0.216546 0.801358 -0.1268 0.182202 0.144116 0.536022 1.94369
358 -0.757252 0.546772 -0.0761145 0.756395 -0.259031 -0.0643811 0.802864 -0.274342 -0.00375041 0.0803979 0.665737 2.0464
353 -0.617659 0.767166 0.0827466 0.830793 -0.308644 -0.194637 0.683169 -0.0484691 0.24071 0.17334 0.313869 2.04196
350 -0.640736 0.355253 0.134279 0.787271 -0.458291 -0.0918611 0.900938 0.0566455 0.0861192 -0.0791101 0.358895 2.04857
367 -0.465963 0.772116 0.17479 0.912508 -0.231805 -0.211209 0.622937 -0.066282 0.285057 0.14931 0.373417 2.10805
422 -0.709432 0.840062 -0.00369989 0.798288 -0.290674 -0.252458 0.764952 -0.145637 0.332033 0.0622925 0.455915 1.86804
419 -0.409093 0.601098 0.153311 0.920964 -0.147569 -0.637533 0.93425 0.0314026 0.272505 0.08991 0.20027 1.93106
331 -0.613327 0.481568 0.0780412 0.900669 -0.589614 -0.446284 0.471385 -0.22504 0.354499 0.186522 0.489339 2.00501
303 -0.493637 0.786903 -0.105499 0.848356 -0.339261 -0.429632 0.623636 -0.184096 0.173886 0.334253 0.42607 2.02553
347 -0.527748 0.82273 -0.0287398 0.895087 -0.490452 -0.476836 0.655422 -0.0536841 0.457737 0.262757 0.412949 1.88687
363 -0.584903 0.79992 0.0379911 0.88229 -0.416512 -0.172546 0.759309 0.0807666 0.272644 0.283229 0.324586 1.95358
421 -0.606462 0.701804 0.119812 0.959284 -0.701876 -0.48786 0.81405 -0.102995 0.394803 0.18989 0.384258 1.77511
299 -1.0135 0.699838 -0.449631 -1.00279 -0.674559 -0.904845 0.29206 0.756562 -0.314534 -0.252856 0.317953 0.87632
655 -1.09924 0.352437 0.803093 0.865848 0.0634539 -0.479697 -0.600395 0.407437 -1.48284 0.457356 -0.102979 0.654197
675 -1.03667 0.311647 1.11822 0.687289 -0.0656783 -0.47286 -0.00618461 -0.0933419 -1.10749 0.137064 0.753295 0.57101
667 -1.31307 0.704982 0.853419 0.611264 0.221283 -0.221196 -0.619851 0.722639 -1.13232 0.60527 0.408754 0.438131
695 -1.01148 0.510107 1.06784 0.641346 -0.0957966 -0.571528 -0.479231 0.647089 -1.02895 0.444646 0.377659 0.560704
631 -1.04898 0.654991 0.72465 0.659311 -0.172732 -0.705025 -0.46082 0.140869 -1.27249 0.543675 0.408317 0.425644
641 -1.29586 0.399755 0.797498 0.720073 -0.0821504 -0.610905 -0.357361 0.314665 -1.04222 0.397314 0.331009 0.452731
123 0.155317 0.654356 -0.457877 0.968126 -0.934175 -0.491432 -0.0746091 0.656721 -0.221436 -1.04241 0.25524 0.694414
294 -0.252184 0.654204 -0.889285 1.02774 -0.364907 -0.124384 -0.291916 0.748965 -0.402512 -1.0036 0.350823 0.654608
256 -0.341358 0.732215 -1.03367 0.897286 -0.518846 -0.508466 -0.581774 0.708442 -0.306514 -1.09429 -0.103341 0.694738
54 0.0639243 0.9785 -0.85 0.903539 -0.149748 -0.42759 -0.598797 0.800667 -0.315173 -0.935916 0.325367 0.73963
187 0.000965188 1.09389 -0.782669 1.00924 -0.126837 -0.191964 -0.504479 0.482969 -0.28641 -0.961678 0.694769 0.534088
7 -0.0547018 0.959493 -0.800837 0.90185 -0.34981 -0.0846187 -0.527026 0.723313 -0.475811 -0.999109 0.266217 0.707368
227 0.033906 0.556153 -0.553873 1.00565 -0.683082 0.210507 -0.397004 0.982782 -0.33322 -0.959624 0.374145 0.721716
206 0.0298777 0.72834 -0.454239 0.953121 -0.379941 -0.137272 -0.336392 0.964657 -0.286525 -1.09066 0.45181 0.675519
211 -0.20277 0.786629 -0.782944 0.805172 -0.175095 -0.115843 -0.90279 0.421984 -0.337087 -1.16514 0.521168 0.815817
1 0.0210704 0.801364 -0.657645 0.981565 -0.280949 -0.190044 -0.233557 0.812682 -0.397592 -1.06694 0.339854 0.68826
2 0.0246444 0.774072 -0.497095 0.952673 -0.406367 -0.215361 -0.203566 0.853403 -0.403026 -1.17785 0.310295 0.682132
26 -0.0535815 0.718596 -0.259202 0.682844 -0.317243 -0.197319 -0.254286 1.11231 -0.0254838 -1.2938 0.475269 0.787297
286 0.107228 0.953835 -0.409784 0.944402 -0.459177 0.0782227 -0.0672471 1.02627 -0.368363 -0.948098 0.490729 0.422256
611 -1.18419 0.521238 0.617768 0.870171 -0.00452725 -0.329434 -0.339481 0.907709 -1.24084 0.975358 0.176652 0.379776
670 -1.09264 0.504894 1.39971 0.109405 -0.449212 -0.41133 0.0805239 0.241791 -0.845968 0.0789649 0.552255 0.867073
615 -0.971182 0.712449 1.03988 0.562258 -0.384429 -0.888012 -0.249377 0.242487 -1.11622 0.243449 0.415632 0.289982
614 -1.06602 0.773321 0.990153 0.738871 -0.127028 -0.684416 -0.255207 0.50567 -1.07859 0.407725 0.415704 0.238034
540 -1.11582 0.408443 0.590354 0.834387 -0.0562906 -0.60657 -0.432555 0.849392 -1.24028 0.825934 -0.00948835 0.442103
493 -1.09186 0.593335 0.98232 0.654507 0.0974827 -0.532386 -0.39569 0.639202 -1.20568 0.430181 0.363522 0.532675
555 -0.806673 0.723441 1.07457 0.782035 -0.459756 -0.84328 -0.178834 0.492452 -1.08199 0.4618 0.504923 0.109565
561 -1.03683 0.813108 1.42843 0.449211 -0.0705633 -0.437152 -0.40876 0.676859 -0.800872 0.165959 0.501629 0.427914
560 -1.12761 0.754217 0.760234 0.868362 0.295614 -0.650186 -0.546486 0.172808 -1.15423 0.357267 -0.173456 0.489849
636 -0.997316 0.755305 0.775004 0.820963 0.378447 -0.846446 -0.213495 0.15472 -1.56997 0.133618 -0.625008 0.636756
517 -1.00749 0.498975 1.03615 0.811624 0.00776412 -0.570198 -0.559855 0.568873 -1.11217 0.412977 0.108286 0.565877
630 -0.994252 0.740221 0.755143 0.884536 0.32892 -0.58815 -0.476748 0.316699 -1.43106 0.374079 -0.450831 0.589006
548 -1.33664 0.528656 0.665204 0.735062 0.163793 -0.315937 -0.574753 0.69083 -1.14043 0.648495 -0.119534 0.563989
526 -1.226 0.513016 0.700086 0.597331 0.343117 -0.541908 -0.291508 0.575585 -1.43818 0.469749 0.217226 0.598649
663 -1.09664 0.660362 0.796595 0.896939 0.344089 -0.939841 -0.252604 0.00273203 -1.5918 0.0763312 -0.436896 0.587045
543 -1.08718 0.659434 0.921068 0.122764 -0.275814 -0.832213 -0.336016 0.373788 -1.27984 0.242972 0.29519 0.654211
693 -1.12764 0.635546 1.06425 0.67414 0.195011 -0.150916 -0.72044 0.265377 -0.931437 0.193051 0.56917 0.475545
666 -1.35927 0.571587 0.949615 0.692859 -0.485514 -0.313975 -0.486213 0.216696 -1.10505 0.338077 0.280664 0.330336
541 -1.34012 0.476863 0.900284 0.712047 0.274559 -0.509574 -0.395227 0.798045 -0.983517 0.390772 -0.0376464 0.489632
542 -1.18653 0.451367 0.921848 1.12898 0.00204508 -0.248088 -0.176763 0.554041 -0.936974 0.624065 0.37304 0.202556
546 -0.814893 0.819714 1.05446 0.619502 -0.435256 -0.649918 -0.428674 0.454096 -1.07352 0.636295 0.417821 0.349978
300 -0.477494 0.595804 0.24744 0.817925 -0.503245 -0.400393 0.738107 -0.111053 0.17722 0.0625834 0.318653 2.00996
418 -0.533247 0.658519 0.0947644 0.747194 -0.565802 -0.172234 0.877403 -0.360885 -0.147172 -0.0224762 0.391573 2.06079
378 -0.395699 0.891401 0.160514 0.753397 -0.59605 -0.150944 0.65921 -0.045868 0.18317 0.338299 0.526823 1.96671
349 -0.554447 0.71497 -0.337171 0.443776 -0.449669 -0.249906 0.507725 0.112724 0.24097 -0.14369 0.356233 1.88598
424 -0.643051 0.427721 -0.0172241 0.952873 -0.0442325 -0.485289 0.667703 -0.0381087 0.374416 0.0898276 0.252381 2.05699
431 -0.387108 1.08005 0.211696 0.65385 -0.436322 -0.454504 0.638581 -0.211911 0.263374 0.178275 0.575185 1.96432
400 -0.626284 0.451601 -0.222987 0.870535 -0.265254 -0.407956 0.7671 -0.0863488 0.145623 0.323066 0.695127 2.02448
434 -0.342112 1.0703 0.169406 0.685449 -0.284878 -0.356661 0.78317 -0.291189 0.070387 0.0104106 0.203196 1.92821
405 -0.370406 0.8236 0.0249389 0.69316 -0.669251 -0.124049 0.599664 0.085713 0.2155 0.47344 0.662152 1.95751
346 -0.550651 0.763181 0.0802179 0.948646 -0.361957 -0.219108 0.774118 0.0139594 0.27651 0.275337 0.323211 2.04066
394 -0.556867 0.954329 0.168299 0.741147 -0.545643 -0.407175 0.598446 -0.32216 0.299661 0.105918 0.457403 1.94586
319 -0.630684 0.784791 -0.0732998 0.700205 -0.023264 -0.161482 0.503553 0.237274 0.480717 0.443842 0.551225 1.99053
387 -0.624888 0.827255 0.0957837 0.904731 -0.399972 -0.228408 0.696628 -0.0653457 0.32276 0.235631 0.388264 2.01903
305 -0.703439 0.698684 -0.0566372 0.811774 -0.509482 -0.00537999 0.58211 -0.129679 0.24393 0.312329 0.699044 1.87023
425 -0.583415 0.621029 -0.0843036 0.880069 -0.389918 -0.61117 0.297319 -0.179446 0.517469 0.33541 0.540872 2.00433
410 -0.590377 0.618355 -0.0813118 0.817058 -0.385186 -0.409005 0.612298 -0.273309 0.170125 0.225639 0.685763 2.05454
338 -0.604244 0.620141 -0.0967097 0.759751 -0.438724 0.00364301 0.682587 0.00222011 0.147664 0.350919 0.661814 1.98526
369 -0.529229 0.698602 0.0647467 0.912427 -0.47643 -0.359804 0.913074 -0.0270435 0.146869 0.228046 0.450311 1.92926
368 -0.573694 0.829592 -0.115252 0.829746 -0.391781 -0.299709 0.718598 -0.0386503 0.231359 0.215775 0.291128 1.92377
317 -0.586643 0.97659 0.151761 0.661121 -0.719555 -0.231809 0.723511 0.072351 0.334568 0.326588 0.532783 1.84091
311 -0.442549 0.790276 0.0520598 0.744226 -0.566603 -0.145332 0.460848 -0.067857 0.228403 0.330201 0.549787 1.99435
558 -1.23323 0.863729 1.18656 0.665232 -0.301849 -0.341711 -0.334486 0.478295 -0.941333 0.296059 0.455983 0.155404
525 -1.12516 0.686725 1.00724 0.697755 -0.0490983 -0.811812 -0.36094 0.296511 -0.982736 0.336647 0.275885 0.44566
637 -1.20061 0.707518 0.989782 0.814135 -0.361303 -0.743927 -0.400654 0.368097 -0.871131 0.368332 0.323952 0.162906
456 -1.02925 0.422089 0.698731 1.06296 0.307185 -0.566491 -0.466702 0.933715 -1.10018 0.846265 0.0982452 0.392496
679 -1.1618 0.636511 0.497599 0.688409 0.0873029 -0.563627 -0.449883 0.501363 -1.48017 0.797322 0.4742 0.379873
629 -1.13292 0.441117 0.881758 0.842838 0.0476541 -0.151064 -0.524831 0.621067 -1.38913 0.486658 -0.389004 0.636042
622 -1.13529 0.177148 0.990534 0.947619 -0.713629 -0.574765 -0.501745 0.350512 -0.916656 0.432661 0.381302 0.297707
626 -1.26872 1.06858 1.32159 0.574735 -0.186404 -0.290613 -0.383914 0.496466 -1.11215 0.195107 0.400777 0.208892
497 -1.07353 0.812929 0.90106 0.619802 -0.0934912 -0.658924 -0.34715 0.103945 -1.2094 0.350815 0.463298 0.342767
691 -1.24954 0.397056 0.973817 0.84315 -0.0136465 -0.589191 -0.238308 0.345535 -1.04517 0.272652 -0.0300539 0.539302
557 -1.29708 0.323254 0.769287 1.12387 0.105648 -0.530233 -0.595413 0.421328 -1.16112 0.536462 -0.535039 0.577525
576 -1.44129 0.361067 0.590549 0.796062 0.172651 -0.129192 -0.527549 0.575732 -1.32153 0.713246 0.463584 0.457148
681 -1.07023 0.740191 0.862886 0.714071 0.325118 -0.712138 -0.416449 0.225035 -1.46244 0.158537 -0.325566 0.611103
568 -1.50996 0.425827 0.501568 0.791879 0.119342 -0.405427 -0.753513 0.421233 -1.22117 0.650246 -0.026667 0.531623
533 -0.944494 0.730599 1.07902 0.684289 0.30892 -0.39328 -0.340243 0.865403 -1.19174 0.541804 0.498942 0.398845
571 -1.10753 0.488891 0.930529 0.515299 0.199069 -0.986587 -0.191867 0.49602 -0.985845 0.142486 0.318994 0.421656
519 -1.22696 0.558704 1.02038 0.401546 0.339755 -0.289386 -0.375653 0.891738 -1.22514 0.385789 0.469073 0.602458
131 -0.446523 0.750113 -0.44427 1.02605 -0.307372 -0.0780394 -0.156888 0.930339 -0.0550495 -1.21276 0.284058 0.41311
37 -0.36531 1.03572 -0.713383 0.733387 -0.597139 -0.279994 0.00014313 1.16307 -0.375017 -1.22801 0.127906 0.396167
31 -0.0220779 1.08826 -1.03002 1.07448 -0.225146 -0.39311 -0.971228 0.312533 -0.413345 -0.986095 0.347039 0.651383
233 -0.491734 0.377333 -0.957393 1.09432 -0.615585 -0.429067 -0.4979 0.734491 -0.141527 -1.03077 0.361505 0.572363
119 -0.126548 0.740395 -0.760669 0.9211 -0.39589 -0.142655 -0.209843 0.752496 -0.359552 -0.995851 0.183316 0.777972
91 -0.00170743 0.461565 -0.663933 0.882461 -0.735854 -0.416004 -0.121838 0.689697 -0.665953 -1.14875 0.49732 0.618694
152 0.0262892 0.560529 -0.60703 1.07008 -0.460625 -0.256742 -0.473709 0.861741 -0.251771 -1.07236 0.305357 0.679322
42 -0.0314877 1.23031 -1.06169 1.0367 -0.415664 -0.5109 -0.707584 0.559305 -0.415812 -0.800869 0.364061 0.417722
162 -0.252279 1.13137 -1.09518 0.761712 0.250668 0.000963273 -0.68571 0.632375 -0.591782 -1.10084 0.339083 0.757974
274 -0.223757 0.683308 -0.661958 1.02806 -0.39244 0.0894122 -0.228635 0.90587 -0.41037 -1.14786 0.267775 0.615903
98 -0.0436154 0.736043 -0.740866 1.04105 -0.295609 -0.147917 -0.267985 0.838522 -0.444889 -1.00774 0.266262 0.690217
194 -0.330009 0.666466 -0.948195 0.96762 0.00414261 -0.207039 -0.465287 0.65305 -0.442374 -1.13788 0.278444 0.702531
165 -0.333542 0.606074 -1.16556 0.752729 0.00513717 -0.135718 -0.392502 0.827049 -0.621706 -1.07836 0.438505 0.813513
16 -0.0508181 1.16767 -0.806017 0.900304 -0.24084 -0.369858 -0.724668 0.495535 -0.371065 -1.0068 0.470477 0.58342
155 0.0323676 1.05842 -0.614615 1.02284 -0.435225 0.0288529 -0.573483 0.830525 -0.0292805 -0.819601 0.374176 0.571725
144 0.205046 0.700138 -0.461192 1.02245 -0.449112 0.19662 -0.176086 1.00674 -0.477106 -1.00762 0.632754 0.644588
265 -0.190156 0.668213 -0.733148 1.06383 -0.535793 -0.108453 -0.247124 0.881189 -0.358693 -0.993095 0.297253 0.587879
46 -0.462287 0.852223 -0.594223 0.899376 -0.272147 0.287975 0.0174904 0.951908 -0.0114044 -1.11198 0.369121 0.579868
266 -0.346327 0.445283 -0.61365 1.01433 -0.671857 -0.363995 -0.580496 0.734084 -0.11677 -1.21653 0.583395 0.56073
448 -0.63572 0.922884 0.131305 0.801634 -0.526041 -0.102108 0.553456 -0.184932 0.369443 0.200275 0.4804 1.8441
304 -0.868609 0.44525 -0.11572 0.859593 -0.396765 -0.306966 0.97536 -0.0877484 0.143889 0.170374 0.651702 1.98968
160 0.0268419 1.0692 -1.08907 0.777881 -0.465231 0.0178989 -0.406569 0.939261 -0.499333 -0.538239 0.62078 0.580429
321 -0.485295 0.5754 0.0158156 0.838837 -0.352716 -0.515349 0.433786 -0.165496 0.37475 0.294831 0.514725 1.9425
383 -0.590958 0.798155 -0.0295432 0.892504 -0.346046 -0.111475 0.753482 0.0132537 0.198757 0.377628 0.431829 1.97933
348 -0.485044 0.470457 0.232994 0.670389 -0.441638 -0.300502 0.830767 0.164757 0.140957 0.117551 0.337857 2.08838
375 -0.489004 0.509382 -0.0414547 0.903652 -0.325314 -0.0575391 0.625355 -0.0784598 0.139138 0.220931 0.59042 2.11551
391 -0.366372 0.512707 0.0896051 0.784929 -0.386418 -0.0749139 0.748464 -0.0201385 -0.0182164 0.230563 0.386961 2.16169
189 -0.123894 0.994177 -0.787777 0.955802 -0.609868 0.0143752 -0.316756 1.15479 -0.155463 -0.666181 0.367105 0.38354
132 -0.553598 0.385438 -0.75959 0.894671 -0.326148 -0.158122 -0.215649 0.619935 -0.474425 -1.23436 0.838461 0.497981
151 -0.0317703 0.787335 -0.683368 1.07063 -0.291792 -0.160447 -0.321697 0.826933 -0.436498 -1.0576 0.260118 0.623908
4 0.0245871 1.29154 -0.929414 0.942121 -0.418753 -0.581488 -0.754799 0.441441 -0.383047 -0.914475 0.535875 0.455779
173 -0.128009 0.723155 -0.727669 0.961608 -0.378613 -0.132622 -0.362046 0.871704 -0.44342 -1.10361 0.236127 0.723311
143 0.0576547 0.946178 -0.569268 0.933786 0.0297249 -0.251909 -0.619679 0.89152 -0.0393579 -1.11279 0.539191 0.73141
80 -0.375286 0.743539 -0.448112 0.796813 0.00932006 0.034286 -0.17303 0.878995 -0.156486 -1.3681 0.765082 0.653185
243 -0.0317559 0.759223 -0.662968 0.905503 -0.328197 -0.145866 -0.220171 0.838838 -0.460304 -1.07882 0.209961 0.733438
97 -0.291859 0.702867 -0.49072 0.569552 -0.343537 -0.211307 -0.50839 0.718891 -0.177519 -1.37857 0.480093 0.847725
170 -0.165551 0.674636 -0.800171 0.81049 -0.604402 0.233617 -0.184156 1.05194 -0.716943 -1.06089 0.35914 0.648064
24 -0.464806 0.764608 -0.603611 0.867957 -0.253274 -0.059162 -0.0696516 1.10643 -0.00074629 -1.16409 0.334801 0.593826
207 -0.0675225 0.778435 -0.758767 0.922847 -0.245672 -0.209935 -0.260469 0.843831 -0.415607 -1.0262 0.265475 0.713359
73 -0.48017 0.529024 -0.444949 0.833929 -0.315981 0.0757627 -0.252553 0.860029 -0.160206 -1.41825 0.501551 0.668962
57 -0.0832327 0.787296 -0.733834 1.03867 -0.29833 -0.145178 -0.267661 0.833812 -0.383981 -1.01256 0.276432 0.655265
167 -0.184369 0.882926 -0.769522 0.781962 -0.516826 0.212923 -0.381526 1.16388 -0.410463 -1.02395 0.305228 0.68064
82 -0.0275736 1.13896 -0.475398 0.799105 -0.735245 -0.188528 -0.345581 1.02168 -0.168703 -1.00748 -0.0363487 0.512362
134 0.0217066 0.598782 -0.579631 0.835101 -0.830356 0.197071 -0.281318 0.891153 -0.547639 -0.931617 0.604442 0.67229
138 -0.0561556 0.621959 -0.48911 0.956561 -0.627306 -0.0254203 -0.161137 0.75834 -0.519085 -1.19671 0.617826 0.594289
287 0.14582 0.720018 -0.556968 1.21488 -0.541279 -0.170166 -0.372199 1.22575 -0.0339324 -0.778718 0.412928 0.490219
218 -0.477497 0.623085 -0.638668 0.732621 -0.559031 -0.451176 -0.439076 0.67438 -0.177836 -1.35607 0.182393 0.66507
101 -0.43496 0.443657 -0.69332 0.917424 -0.308974 -0.136068 -0.106876 0.595928 -0.426204 -1.42354 0.495423 0.660922
250 0.227104 0.304151 -0.701811 0.902628 -0.510245 -0.127106 -0.278777 0.908664 -0.63383 -0.922337 0.724505 0.820791
111 -0.426454 0.608263 -0.919785 0.938739 -0.641413 -0.125789 -0.299489 1.0112 -0.232984 -0.874239 0.220283 0.477621
154 -0.478883 0.47184 -0.855385 1.02318 -0.596938 -0.0662617 -0.535685 0.718789 -0.159818 -0.91795 0.500204 0.533768
201 -0.282939 0.90221 -0.982848 1.2318 -0.258511 0.000498195 -0.329894 0.853212 -0.104657 -0.757232 0.10632 0.412337
106 0.00684193 0.751883 -0.691985 0.993751 -0.345065 -0.189297 -0.340834 0.892912 -0.39034 -0.981979 0.267076 0.701671
291 0.455667 0.672087 -0.619235 1.00598 -0.625737 -0.67019 0.0888913 0.589859 -0.483572 -0.868682 0.585138 0.636059
249 -0.0771748 0.857726 -0.700343 0.864809 -0.766522 0.088596 -0.634658 0.913298 -0.314635 -0.974226 -0.0600703 0.724624
58 -0.306569 1.19205 -1.17794 1.02687 -0.564201 -0.442333 -0.311142 0.940223 -0.214237 -0.660869 0.333109 0.231707
158 0.0262824 0.601108 -0.75602 1.09611 -0.617912 0.375068 -0.146667 0.982781 -0.595151 -0.751838 0.547459 0.540658
230 -0.305512 1.05513 -1.14377 0.897953 -0.343727 -0.778232 -0.211613 0.64827 -0.390646 -1.03259 0.305959 0.408853
66 -0.331188 0.855259 -1.02565 0.999751 -0.408443 -0.325132 -0.450008 0.884061 -0.211352 -0.881897 0.286745 0.536248
252 -0.316176 0.698453 -0.792048 1.02855 -0.387511 0.019672 -0.381346 0.934198 -0.303914 -0.989524 0.351899 0.586435
264 -0.134811 1.02209 -0.488881 0.85453 -0.815251 0.0897862 -0.535336 0.820021 -0.172178 -1.00824 0.145913 0.549504
251 -0.072937 0.641708 -0.728544 1.10547 -0.276477 -0.134253 -0.240508 0.878217 -0.44936 -1.04668 0.251331 0.679285
121 -0.102778 0.844819 -0.892212 0.618663 -0.782798 -0.250619 -0.42974 1.21063 -0.4302 -0.902497 0.119152 0.703861
38 -0.0348368 0.494904 -0.496268 0.948943 -0.470223 -0.334784 -0.392592 1.2337 -0.0569514 -0.91371 0.690537 0.562214
87 -0.511636 0.607122 -0.617874 0.700029 -0.415128 -0.392864 -0.0606714 0.953348 -0.261285 -1.4194 0.0386465 0.622909
22 -0.114243 0.677479 -0.736096 0.929281 -0.347095 -0.110685 -0.243861 0.839232 -0.423352 -1.04517 0.23564 0.78182
64 -0.297784 0.73035 -0.558063 0.445579 -0.411411 -0.155186 0.0832575 0.773676 0.0854829 -0.972884 0.935401 0.905676
27 -0.426321 0.724422 -0.844243 0.894107 -0.266121 -0.465606 -0.302799 0.600535 -0.223908 -1.20059 0.357306 0.630001
62 -0.293922 0.986564 -0.504504 0.808531 -0.547136 0.259188 -0.254295 1.12222 -0.122178 -1.00111 0.484394 0.478309
29 0.0628702 0.683919 -0.487535 1.01208 -0.599441 0.139716 -0.390018 1.04459 -0.246649 -0.99702 0.176742 0.745272
231 -0.146458 0.434001 -0.927777 0.885163 -0.399615 -0.580757 -0.722213 1.10469 -0.210254 -1.01174 0.12951 0.812851
23 -0.258028 0.539023 -0.546863 0.619164 -0.279572 -0.356873 -0.344333 1.00273 -0.0452321 -1.11276 0.452137 0.801139
246 -0.418526 0.530478 -0.731476 0.841824 -0.646614 -0.366832 -0.51339 0.775862 -0.344697 -1.40098 0.26771 0.666099
224 0.153724 0.613339 -0.588105 1.09308 -0.456082 -0.345485 -0.270976 1.19963 -0.211909 -0.8897 0.421604 0.522541
71 -0.0258275 0.719472 -0.667329 0.981504 -0.392089 -0.175501 -0.190599 0.863873 -0.465269 -1.06248 0.206591 0.698764
10 -0.0034034 1.31041 -0.89132 0.67852 -0.557985 -0.280347 -1.01155 0.512327 -0.413922 -0.862467 0.396347 0.690409
44 -0.111861 0.777842 -0.498921 0.952899 -0.762502 0.378382 -0.217991 0.991027 -0.392715 -0.975718 0.430146 0.540088
65 -0.0742879 0.650455 -0.646406 0.936792 -0.416373 -0.198038 -0.165169 0.921239 -0.436844 -1.06966 0.351582 0.688072
191 0.0648939 1.3004 -1.05167 0.8439 -0.235298 -0.272623 -0.501112 0.566942 -0.396205 -0.534928 0.723376 0.466645
95 -0.0839396 0.898718 -0.505208 0.99383 -0.785257 0.151942 -0.244085 0.989269 -0.272714 -0.975527 0.309748 0.454809
85 -0.114703 0.640022 -0.695392 0.969836 -0.52536 -0.109939 -0.27188 1.00637 -0.423599 -1.04862 0.269909 0.674751
32 -0.144315 0.708065 -0.50562 0.62693 -0.669151 -0.027716 0.103027 0.716183 -0.28348 -1.0397 0.867058 0.731085
81 -0.212776 0.943938 -0.267017 0.632498 -0.413657 -0.322207 -0.131957 0.678508 -0.264039 -1.69848 0.0236416 0.769765
153 -0.112859 1.03028 -0.900224 0.881124 -0.255038 -0.121134 -0.521151 0.568228 -0.3699 -0.88469 0.436676 0.604807
145 -0.14395 0.958844 -0.414896 0.811171 -0.455493 0.305977 -0.332025 0.678705 -0.399782 -1.31107 0.528832 0.661198
270 -0.375526 0.483389 -0.953132 1.08465 -0.597726 -0.424881 -0.160252 0.730046 -0.309581 -0.971633 0.623217 0.422746
70 -0.305772 0.350114 -0.626338 0.897554 0.096378 -0.0282956 -0.185799 1.05817 -0.232663 -1.24197 0.668694 0.798679
93 -0.110877 0.920477 -0.435712 0.716271 -0.640427 -0.210897 -0.44541 0.932183 -0.331783 -1.33815 0.260951 0.639016
204 -0.243293 0.880033 -1.21686 0.922856 -0.63785 -0.357513 -0.240356 0.941484 -0.547556 -0.726356 0.42235 0.409035
289 -0.0453562 1.0602 -0.451537 0.812161 -0.309143 0.212436 -0.376953 0.783745 -0.252579 -1.20143 0.32101 0.718147
244 -0.157212 1.00848 -1.01016 0.727338 -0.0544649 -0.0912571 -0.818038 0.734007 -0.521085 -1.07185 0.35713 0.796819
43 0.0837736 0.572312 -0.366422 0.749681 -0.467482 -0.543433 -0.111436 0.859133 0.330388 -1.0018 0.565019 0.967518
79 -0.146035 0.689638 -0.432344 0.618134 -0.912639 -0.169547 -0.0191633 1.01389 0.120034 -0.929747 0.582309 0.787858
269 -0.344656 0.190133 -0.808826 0.998313 -0.393478 -0.181385 -0.430096 0.685816 -0.356506 -1.17365 0.544749 0.789236
105 -0.446898 0.659768 -0.683303 0.94364 -0.405757 -0.310642 -0.357352 0.977279 -0.0929471 -1.17781 0.497202 0.502617
92 -0.19967 0.549707 -0.557567 0.769001 -0.789885 0.23743 -0.570585 0.714055 -0.343375 -1.08132 0.452233 0.807273
11 -0.0134043 1.18172 -1.04739 0.83048 -0.187884 -0.272225 -0.659303 0.527413 -0.47548 -0.854675 0.542617 0.6876
213 -0.0504398 0.830958 -0.30319 0.643815 -0.796919 -0.56735 -0.0727553 0.784587 0.079826 -1.19245 0.316087 0.749857
15 -0.0254604 1.32092 -0.948013 0.926176 -0.243161 -0.718111 -0.729883 0.329395 -0.4948 -1.16735 0.402362 0.489029
50 -0.0197716 1.28149 -1.02582 0.813688 -0.608485 -0.61992 -0.84996 0.574108 -0.407675 -0.801513 0.435937 0.507597
292 -0.198011 0.720911 -0.658041 0.933435 -0.220166 -0.0307314 -0.502155 0.688937 -0.353552 -1.15987 0.528205 0.674662
40 0.0214134 1.31406 -0.890575 0.941597 -0.212362 -0.329246 -0.952946 0.434674 -0.407591 -1.0557 0.355126 0.655042
34 0.138151 1.39366 -0.651579 0.995301 -0.0218246 -0.294435 -0.752884 0.517304 -0.324568 -1.16391 0.457906 0.566779
39 -0.130238 1.14683 -0.984956 0.904688 -0.11064 -0.467025 -0.611097 0.63495 -0.369504 -0.984627 0.263071 0.590809
115 -0.00248554 1.04066 -0.201189 0.6105 -0.620155 -0.25135 -0.168773 0.833405 -0.251028 -1.25383 0.390361 0.532061
133 -0.173768 0.626615 -0.475834 0.71707 -0.597239 0.329951 -0.107986 0.86935 -0.606629 -1.15132 0.545789 0.683624
210 -0.0977454 0.907325 -0.928544 0.871249 0.00249731 -0.157193 -0.805697 0.295093 -0.45675 -1.02662 0.55712 0.79572
75 -0.129332 0.248056 -0.58177 0.837354 -0.552169 -0.62468 -0.173132 0.764363 0.0175659 -0.980405 0.822716 0.801834
74 -0.308906 0.55796 -0.528196 0.790742 -0.659633 -0.181825 -0.326092 0.843561 -0.142692 -1.18846 0.714116 0.697507
139 -0.339305 0.387418 -0.835063 1.21602 -0.53452 -0.527283 -0.0831929 0.605066 -0.284606 -1.15228 0.240726 0.47622
110 -0.583028 0.623335 -0.642976 0.824702 -0.505892 -0.367675 -0.16834 0.8183 -0.154725 -1.33196 0.180373 0.519082
3 -0.0270482 1.46384 -0.70377 0.728118 -0.0515256 -0.191489 -0.696325 0.539254 -0.337706 -1.11327 0.673235 0.561658
388 -0.480231 0.738194 0.188781 0.86561 -0.159025 -0.18602 0.529128 -0.153281 0.339663 0.0932172 0.287476 1.99114
376 -0.633013 0.460716 0.115498 1.04148 -0.747688 -0.358486 0.408759 -0.0144821 0.606329 0.309363 0.37827 1.97812
396 -0.517192 0.48465 0.136535 0.79808 -0.603329 -0.326292 0.468331 -0.0433789 0.303986 0.291791 0.543829 2.0659
309 -0.447349 0.443202 0.0723948 1.03453 -0.0766702 -0.422668 0.783879 -0.0305845 0.247775 0.129954 0.243167 2.094
545 -0.771765 0.559015 0.95355 0.412892 -0.162289 -0.381304 -0.297257 0.907067 -1.46463 0.669423 0.406154 0.616342
520 -1.3475 0.473003 0.744945 0.805101 0.236379 -0.337725 -0.37904 0.964937 -1.20288 0.690432 -0.0562037 0.501833
590 -1.08297 0.522014 0.742956 0.935991 -0.0568286 -0.427355 -0.681796 0.545294 -1.2578 0.652656 -0.296541 0.583528
511 -0.994851 0.131887 1.10133 1.0254 0.253834 -0.31481 -0.450806 0.628117 -0.939395 0.43905 0.21731 0.594139
701 -1.2331 0.578817 0.665385 0.911882 0.162617 -0.493776 -0.360127 0.485254 -1.43853 0.438575 -0.812822 0.681267
616 -1.01579 0.686377 1.28251 0.884866 0.293146 -1.08127 -0.344799 0.221644 -0.775552 -0.0181862 0.316995 0.257126
559 -1.139 0.72492 0.831698 1.08025 -0.137192 -0.488662 -0.151201 0.687442 -0.713927 0.712132 0.202658 -0.0104686
583 -1.26834 0.592737 0.604898 0.590223 0.277063 -0.147245 -0.589156 0.876473 -1.27321 0.739984 0.0427742 0.599368
678 -1.38554 0.626145 0.998062 0.895796 -0.226967 -0.505086 -0.0687609 0.619404 -1.07447 0.389678 0.374195 0.0519708
652 -1.16999 0.44916 0.829532 0.663807 -0.361333 -0.479891 -0.598591 0.796826 -1.16597 0.734549 0.241833 0.495422
498 -1.04105 0.511543 1.05646 0.826659 0.228753 -0.438188 -0.179203 0.309124 -1.23326 0.190987 0.660551 0.290078
582 -1.28076 0.497995 0.823613 0.766088 0.114421 -0.109995 -0.447403 0.243202 -1.18967 0.446655 0.644802 0.436703
479 -0.808893 0.495696 0.864726 0.797178 0.144595 -0.365841 -0.74433 0.519194 -1.38433 0.778071 0.611801 0.619525
474 -1.17963 0.540407 0.874572 0.75222 0.453311 -1.12512 0.0989142 0.546214 -1.01375 0.146921 0.431333 0.188264
606 -0.952995 0.347852 1.0855 1.01518 -0.106034 -0.303763 -0.277279 0.522191 -1.12482 0.495476 0.583525 0.290891
503 -1.41787 0.542352 0.95142 0.607026 0.0156784 -0.437214 -0.354493 0.247193 -1.14922 0.0318291 0.377223 0.328341
549 -1.27319 0.646959 1.08923 0.643554 -0.312435 -0.618291 -0.0631265 0.411669 -0.730276 0.362361 0.366762 0.341592
532 -1.09164 1.01826 0.829129 0.742825 0.199115 -0.880885 -0.81727 0.215343 -0.961204 0.593478 0.110977 0.411286
593 -1.09752 0.391046 1.00504 0.45724 -0.130253 -0.673098 -0.101596 -0.0768092 -1.14374 0.217797 0.731745 0.618556
620 -0.994455 0.832715 1.10953 0.625085 -0.280116 -0.66843 -0.305118 0.474233 -1.15063 0.320624 0.419763 0.270469
505 -1.11057 0.67678 0.90433 0.667122 0.144475 -0.952506 -0.415469 0.390951 -1.03211 0.379258 0.3332 0.371539
579 -1.10461 0.610832 0.980177 0.456923 -0.23729 -0.37786 -0.429149 0.219997 -1.21981 0.248083 0.597841 0.456022
473 -1.14 0.425843 0.658435 0.663418 0.316206 -0.888332 -0.347227 0.611876 -0.905457 0.493302 0.30936 0.428843
496 -1.07977 0.447958 0.994846 0.779611 -0.00610664 -0.640757 -0.564466 0.645246 -1.11882 0.441949 0.150529 0.545617
587 -1.43659 0.248328 0.78447 0.839065 0.269365 -0.264197 -0.498329 0.530028 -1.00928 0.471748 0.516916 0.479491
136 -0.294353 0.594987 -0.556992 0.674277 -0.399343 -0.133761 -0.26476 0.798946 -0.364769 -1.38802 0.392484 0.813664
86 -0.071886 0.77453 -0.577932 1.08317 -0.202589 -0.00211364 -0.25313 0.73 -0.359889 -1.17247 0.290457 0.690796
280 0.233578 0.835641 -0.446125 1.01863 -0.46015 0.110694 -0.203711 0.930137 -0.358684 -0.971473 0.613314 0.604368
67 -0.428595 0.485319 -0.688604 0.760996 -0.59964 -0.23657 -0.0167464 0.699133 -0.196785 -1.00823 0.703323 0.631924
89 -0.283233 0.858893 -0.568174 0.937941 -0.20173 0.00320987 -0.316986 0.917342 -0.127331 -1.18909 0.376488 0.525391
35 -0.16417 0.988706 -0.775606 0.972354 -0.345999 -0.488198 -0.0895439 0.556694 -0.392066 -1.105 0.247614 0.421701
8 -0.193346 1.06866 -1.03497 0.930518 -0.583683 -0.591828 -0.411963 0.60125 -0.441033 -0.949154 0.326264 0.441596
78 0.0761638 1.20399 -0.797154 0.920742 -0.463388 -0.397946 -1.02156 0.239672 -0.316136 -0.941158 0.523561 0.661921
625 -0.968001 0.830341 1.17479 0.648878 -0.288948 -0.694827 -0.423634 0.347214 -0.93195 0.330216 0.602095 0.245599
621 -0.935927 1.02232 0.805124 0.598848 0.0193452 -0.584096 -0.378751 0.638781 -1.30018 0.744129 0.424947 0.282637
550 -1.45536 0.374901 0.681479 0.915968 0.0532472 -0.578304 -0.421863 0.696212 -1.04276 0.788236 0.376974 0.333382
567 -1.43518 0.688045 0.872159 0.336991 0.230638 -0.38435 -0.448702 0.766891 -1.13975 0.408009 0.287776 0.568983
572 -1.12855 0.501801 0.812754 1.035 0.311018 -0.598333 -0.290536 0.365918 -1.50014 0.182207 -0.828482 0.678791
485 -1.09691 0.42609 0.7361 1.03225 0.268283 -0.580547 -0.363662 0.346658 -1.45164 0.336775 -0.713887 0.695604
649 -1.08377 0.802225 0.94796 0.658792 0.636458 -0.425697 -0.380845 0.513251 -1.41132 0.207935 -0.35965 0.719539
646 -1.05353 0.694851 0.739643 0.776868 0.46153 -0.610786 -0.486418 0.170027 -1.26997 0.234281 -0.260437 0.64457
700 -1.14362 0.590232 0.629104 0.872842 0.174234 -0.793833 -0.32043 0.441221 -1.47167 0.418532 -0.654662 0.616712
573 -1.09602 0.561107 1.23654 1.00759 0.347761 -0.516863 -0.0818326 0.784486 -0.748944 0.207683 0.298116 0.133531
258 0.336607 0.283352 -0.785343 1.11153 -0.549878 -0.362005 -0.402327 0.929256 -0.691213 -0.893624 0.623645 0.726207
99 -0.338896 0.745997 -1.16444 1.13814 -0.245756 -0.217442 0.10488 0.48556 -0.535185 -0.825496 0.223164 0.402766
12 -0.190099 0.901414 -0.851015 1.05402 -0.561606 -0.368083 -0.224695 0.683534 -0.432638 -0.975054 0.428937 0.415924
107 -0.342919 0.573134 -0.860897 0.720793 -0.673003 0.0434206 -0.291115 0.898617 -0.554829 -0.904378 0.577393 0.575855
56 -0.401026 0.838396 -0.70335 0.844652 -0.807445 -0.407641 0.128681 0.78098 0.14382 -0.858203 0.51027 0.446091
103 -0.417345 0.647291 -1.07717 1.23661 -0.381401 -0.476447 -0.243437 0.710208 -0.202887 -0.870396 0.512006 0.301929
236 -0.282617 0.653646 -0.993301 1.08323 -0.57648 -0.113957 -0.281601 1.02113 -0.423894 -0.851838 0.353099 0.405695
215 -0.271524 0.54293 -0.581129 0.774703 -0.663686 0.0132665 -0.501964 0.916493 -0.366268 -1.16615 0.49712 0.675645
267 -0.0129493 0.547698 -0.80157 1.2126 -0.416348 -0.151131 -0.20173 0.927378 -0.492433 -0.873126 0.322533 0.54254
61 -0.569593 0.66032 -0.843727 0.901365 -0.167144 0.156332 0.0978239 0.910592 -0.49604 -1.21278 0.520867 0.476174
195 -0.154463 0.809125 -0.77623 0.866065 -0.409809 0.00936395 -0.467999 0.86494 -0.421245 -1.17004 0.214843 0.728165
171 -0.0137871 0.823098 -0.983451 1.00952 -0.488831 -0.308988 0.133715 0.935601 -0.594103 -0.710985 0.660424 0.296193
209 -0.0598413 0.533139 -0.72763 1.12738 -0.362497 -0.173403 -0.530672 0.952126 -0.0835075 -0.85903 0.69415 0.575341
30 -0.487629 0.58098 -1.08477 0.948725 -0.322676 0.260157 -0.164124 0.819036 -0.597902 -0.873149 0.620119 0.508257
219 -0.0274347 0.506547 -0.489302 0.822286 -0.300707 -0.435132 -0.427482 0.716497 -0.270496 -1.37482 0.231755 0.892647
238 -0.519466 0.414011 -0.647277 0.891445 -0.39489 -0.410989 -0.225791 0.568694 -0.237003 -1.39294 0.201795 0.642425
116 -0.43194 0.640675 -0.910031 1.1174 -0.472385 0.0275039 -0.0513303 0.945637 -0.232793 -0.939614 0.274058 0.449886
190 -0.29549 0.833269 -0.681747 0.994661 -0.0840783 0.219566 -0.372303 0.926039 -0.199235 -0.958864 0.549163 0.46117
41 -0.232615 0.399902 -0.615782 0.862875 -0.31882 -0.228129 -0.396952 1.10195 -0.112705 -1.20806 -0.0157082 0.883243
239 -0.206239 0.551609 -0.84283 1.06729 -0.504709 0.167085 -0.374282 0.900161 -0.425541 -0.922112 0.440766 0.58026
248 0.478516 0.529711 -0.634261 0.933038 -0.827947 -0.146047 0.0878859 1.02307 -0.459604 -0.573436 0.556375 0.783966
52 -0.243098 0.81204 -0.595586 0.97468 -0.620745 -0.29588 -0.211612 0.875511 -0.0699013 -1.09361 0.585963 0.460923
226 -0.0373859 0.673759 -0.613257 0.726301 0.037174 -0.120842 -0.657282 1.05507 -0.219507 -1.14367 0.548845 0.938612
203 -0.136181 0.960349 -0.73439 0.633479 -0.455682 -0.0224531 -0.665332 1.00659 -0.386911 -1.10137 0.498396 0.726052
247 -0.588354 0.319303 -0.952523 1.05929 -0.336856 -0.296207 -0.446578 0.687922 -0.169839 -1.12196 0.326865 0.614194
216 -0.294755 0.458849 -0.779306 0.969951 -0.860177 -0.3644 -0.459116 0.775243 -0.120401 -0.957209 0.379246 0.624173
228 -0.25073 0.518186 -0.663063 1.0464 -0.569579 -0.573699 -0.567628 0.594858 -0.219376 -1.30667 0.199596 0.593273
157 -0.125344 0.698051 -0.7746 0.966227 -0.243422 -0.26831 -0.221291 0.795322 -0.371485 -1.029 0.379562 0.689441
277 -0.114196 0.830335 -0.989698 0.896853 -0.830169 -0.347207 -0.472397 0.900277 -0.225977 -0.581325 0.315455 0.525347
146 0.39574 0.746989 -0.549748 0.933152 -0.673662 -0.198237 -0.00242667 0.615377 -0.647022 -0.968799 0.531786 0.749548
668 -1.13173 0.773247 0.704792 0.921294 0.503256 -0.5436 -0.425729 0.291727 -1.46411 0.281283 -0.749741 0.711572
586 -1.10275 0.725866 0.786695 0.882944 0.07563 -0.458837 -0.301739 0.622325 -1.40142 0.455282 -0.76961 0.571783
547 -1.44662 0.255488 0.571949 0.598427 -0.0447356 -0.67668 -0.567774 0.811416 -1.22484 0.616084 -0.0573195 0.583101
677 -1.309 0.523829 0.598907 0.727331 0.0481896 -0.327257 -0.644054 0.475962 -1.39781 0.570919 -0.101988 0.575255
598 -1.14621 0.767539 0.996559 0.515303 -0.187269 -0.807576 0.0993363 0.357338 -0.775872 0.321952 0.38379 0.288193
578 -1.08741 0.25327 1.02027 0.761767 -0.2993 -0.23965 -0.591796 0.0868671 -1.25859 0.278133 0.6714 0.502499
488 -0.990332 0.568731 0.956639 0.509616 0.468299 -0.561866 -0.420857 0.467454 -1.50852 0.329143 0.429966 0.680461
544 -1.21953 0.514115 0.923887 0.766875 -0.390847 -0.387713 -0.51454 0.461383 -1.26329 0.612575 0.531274 0.316735
653 -0.973245 0.924332 1.32046 0.626341 -0.180989 -0.457063 -0.413676 0.716966 -0.98407 0.411277 0.503505 0.254009
457 -1.15181 0.731515 0.652739 1.01346 0.254726 -0.491854 -0.398613 0.298662 -1.41685 0.504264 -0.439706 0.480651
528 -1.19873 0.684818 0.519491 0.648896 0.414929 -0.677187 -0.472732 0.670678 -1.25669 0.738341 0.278144 0.448049
605 -1.21695 0.914705 0.666909 0.821221 0.264207 -0.240487 -0.673898 0.217677 -1.3535 0.500931 -0.528731 0.580706
268 0.322021 1.07952 -0.458291 0.946239 0.00658595 -0.418976 -0.374487 0.826249 -0.364938 -1.2323 0.390915 0.62368
253 -0.144407 0.990567 -0.484935 0.842199 -0.455496 -0.54415 -0.389168 0.768822 -0.161896 -1.38199 0.190582 0.528812
130 0.0807093 0.614625 -0.426549 0.946532 -0.745999 0.0781129 -0.213941 0.905513 -0.498572 -1.11482 0.601979 0.601476
102 -0.228692 0.64652 -0.462178 0.926196 -0.540888 -0.0712632 -0.275528 0.763789 -0.371565 -1.35414 0.104658 0.59053
232 -0.412326 0.602364 -0.768833 1.00742 -0.867014 -0.569387 -0.186667 0.669725 -0.220709 -1.18505 0.290708 0.43226
149 -0.33366 1.02107 -1.11149 1.32159 -0.368725 -0.167649 -0.195127 0.781452 -0.180706 -0.712478 0.452524 0.189141
199 0.0645715 0.980959 -0.718524 0.825323 -0.021693 -0.208516 -0.920573 0.269519 -0.536693 -1.22798 0.473221 0.857823
208 -0.114442 1.0533 -0.628644 0.85506 -0.229243 -0.249617 -0.405041 0.799823 -0.095487 -0.9604 0.512005 0.485404
140 -0.0460119 0.659656 -0.279976 0.406361 -0.26985 -0.289958 -0.00584672 0.943753 0.0224163 -1.16558 0.883896 0.98296
192 -0.325146 0.362604 -0.918774 0.889367 -0.86048 -0.104726 -0.414053 0.885496 -0.592036 -1.0786 0.39386 0.663371
72 -0.0176648 1.08137 -0.853651 1.03146 -0.720946 -0.399105 -0.572271 0.477206 -0.318239 -0.875854 0.361369 0.477203
76 -0.0701935 0.989851 -1.2058 0.848932 -0.18362 -0.505892 -0.648443 0.314867 -0.682227 -0.883596 0.609982 0.666388
125 -0.544617 0.529323 -1.06564 0.950914 -0.462506 -0.451257 -0.0518725 0.71027 -0.494991 -1.15972 0.645867 0.452821
285 0.0318416 1.03285 -0.442748 0.945048 -0.557009 -0.404526 0.10657 0.949499 -0.206091 -1.13508 0.212773 0.374498
20 -0.435919 0.808523 -0.977504 1.16637 -0.490234 0.146636 -0.299979 1.0082 -0.22317 -0.862414 0.275832 0.407043
229 -0.0263593 0.744686 -0.421612 0.88042 -0.645662 0.232683 -0.311955 0.964361 -0.340167 -1.11684 0.279116 0.670841
124 -0.197082 0.642938 -0.512545 0.909525 -0.687801 -0.0985688 -0.486627 0.793724 -0.166314 -1.20199 0.22674 0.723448
281 -0.288381 0.601556 -0.687412 0.837417 -0.481378 -0.322155 -0.660752 0.582046 -0.272701 -1.31802 0.295155 0.770298
413 -0.58285 0.744127 0.147435 0.942323 -0.741512 -0.550305 0.777106 -0.0391228 0.442411 0.258829 0.386643 1.70715
395 -0.520686 0.724572 0.12919 0.759727 -0.434296 -0.213496 0.489296 -0.0784112 0.35897 0.251586 0.563823 2.09552
314 -0.737664 0.994005 0.0213664 0.62566 -0.451866 -0.186772 0.821703 -0.0365318 0.31728 0.117169 0.671451 1.79188
371 -0.513286 0.899882 0.115618 0.73592 -0.194321 0.098797 0.892918 0.0471428 0.0923905 0.201941 0.297572 1.9961
420 -0.76685 0.641837 -0.0176978 0.708275 -0.374932 -0.110575 0.782427 -0.178076 0.0645341 0.177248 0.53716 2.03695
428 -0.389023 0.805571 0.265305 0.712228 -0.664757 -0.312395 0.634496 -0.138248 0.248707 0.0833399 0.586241 1.90231
356 -0.610549 0.66691 -0.0330576 0.738508 -0.709966 -0.188384 0.513379 -0.0165451 0.339559 0.326764 0.639471 1.86846
437 -0.351898 0.776773 0.229306 0.893061 -0.627448 -0.237964 0.762117 -0.182212 0.122183 0.248375 0.369512 1.88055
392 -0.510322 1.03317 0.0236802 0.794249 -0.585902 -0.279397 0.674608 -0.0707423 0.29214 0.443336 0.444041 1.82616
417 -0.76932 1.11959 0.0326802 0.771747 -0.342919 0.183049 1.02959 -0.0741425 0.206145 0.104245 0.655059 1.71158
382 -0.596283 0.933043 0.12521 0.657837 -0.344143 0.0164982 0.73708 -0.0754358 0.171884 0.178666 0.577642 1.94662
553 -1.21082 0.767381 0.631311 0.732312 0.393357 -0.453408 -0.410058 0.590668 -0.831708 0.761531 0.404554 0.351968
516 -0.981403 0.578032 0.837623 0.823996 0.164722 -0.638867 -0.133023 0.242565 -1.30317 0.337583 0.554307 0.257949
609 -1.54308 0.436141 0.856973 0.576742 -0.0629181 -0.758948 -0.356791 0.276911 -0.897598 0.151817 0.257804 0.383891
589 -1.1802 0.25557 0.671772 0.872927 -0.144192 -0.343315 -0.47473 0.681657 -1.34177 0.766827 0.252505 0.491987
486 -1.0039 0.482902 0.645171 0.59533 0.0434937 -0.411678 -0.227897 0.84046 -1.16522 0.818554 0.261632 0.542569
569 -0.914952 0.930203 1.37981 0.385601 -0.136459 -0.384141 -0.458663 0.866483 -0.637526 0.305088 0.349957 0.409016
450 -0.792502 0.689333 0.0616536 0.759509 -0.434556 -0.145952 0.55258 -0.0362843 0.432763 0.110355 0.438211 2.07806
336 -0.284964 0.683258 0.316073 0.520143 -0.534131 -0.102064 0.526522 -0.0228566 0.0442612 0.153545 0.454956 2.29463
452 -0.422774 0.70795 0.042523 0.83273 -0.370272 -0.666475 0.524892 -0.145182 0.309861 0.369278 0.481781 2.07257
198 0.0422088 0.783819 -0.909015 0.883332 -0.275696 0.238755 0.199533 1.00276 -0.447163 -0.726137 0.595604 0.695096
214 0.123118 0.745694 -0.301735 0.884436 -0.426594 -0.0276429 -0.335283 1.07696 -0.111359 -1.09069 0.519531 0.666437
77 -0.153137 0.540961 -0.433334 0.343684 -0.228134 -0.413341 0.221232 0.879142 0.261218 -0.884094 0.944072 1.12963
217 -0.432064 0.44886 -0.7507 1.02083 -0.322687 -0.0208079 -0.332578 0.704133 -0.349165 -1.08568 0.544827 0.552545
202 -0.184212 0.888539 -0.704941 1.1774 -0.282443 0.452477 -0.181205 0.942598 -0.371764 -0.875418 0.402709 0.388352
88 -0.291683 0.76632 -0.739002 1.00544 0.168754 0.127291 -0.467321 0.884927 -0.0835049 -1.09687 0.644809 0.669666
197 -0.270118 0.967393 -0.624876 1.09037 -0.28872 0.0862628 -0.354472 1.04225 0.0430203 -0.964518 0.204617 0.427292
169 -0.0481863 1.37779 -0.928596 0.736918 -0.329984 0.022234 -0.472209 0.761552 -0.338486 -0.544705 0.6501 0.433639
193 -0.00693786 0.557195 -1.23109 1.00557 -0.253303 -0.675753 -0.426801 0.889663 -0.522162 -0.743312 0.673078 0.6117
255 0.015517 1.17366 -1.17308 1.08915 -0.469076 -0.345478 -0.411749 0.374861 -0.465974 -0.610787 0.393732 0.445888
411 -0.648119 0.613634 0.119051 0.776286 -0.745838 -0.29859 0.628065 -0.13069 0.235413 0.236604 0.43163 1.83867
161 -0.0759516 0.613454 -0.739082 0.954441 -0.700659 -0.0491342 -0.27585 0.798777 -0.609346 -1.02843 0.537328 0.607188
168 -0.260473 0.962132 -1.01202 0.935335 -0.507671 -0.10258 -0.621008 0.837284 -0.342932 -0.935034 0.229404 0.563581
237 -0.105064 0.541732 -0.744715 0.868938 -0.15679 -0.484182 -0.559742 1.02233 -0.101054 -1.12179 0.314859 0.869216
142 -0.0767448 1.22527 -1.02219 0.942774 -0.360577 -0.54559 -0.621289 0.612863 -0.329105 -0.870784 0.483748 0.456405
279 -0.185891 0.918509 -0.762372 1.09995 -0.488681 0.179176 -0.149879 1.08085 -0.220823 -0.766785 0.260051 0.382354
185 -0.519957 0.819812 -0.989179 0.977531 0.0396781 -0.0141906 -0.242213 0.7878 -0.382671 -1.20897 0.122256 0.561872
63 -0.251883 0.620884 -0.586843 0.846091 -0.365878 -0.123225 -0.401572 0.861563 -0.118095 -1.14814 0.357992 0.784252
13 0.16903 0.603771 -0.218282 0.868572 -0.288761 -0.275442 -0.187879 1.17903 -0.209676 -1.19435 0.503453 0.668139
100 0.11135 0.698514 -0.649442 0.747774 -0.650887 0.10385 -0.11668 1.10655 -0.519399 -0.81221 0.666342 0.657067
293 -0.491378 0.945646 -0.783408 0.800015 -0.256379 -0.433379 -0.201634 0.698717 -0.250174 -1.38053 0.0403938 0.571985
597 -1.4852 0.331876 0.575781 0.812664 -0.0306203 -0.322255 -0.721374 0.599328 -1.10105 0.760692 0.12897 0.500839
499 -1.12534 0.661979 0.640554 0.972068 0.245933 -0.503785 -0.384592 0.59678 -0.907593 0.704749 0.309981 0.177534
580 -0.796936 0.320771 1.03221 0.572094 -0.0984841 -0.212623 -0.313579 0.36369 -1.15507 0.573526 0.732476 0.73937
674 -1.07996 0.939856 1.08761 0.93319 -0.263081 -0.416587 -0.436773 0.587205 -0.693052 0.477664 0.391529 -0.0258734
665 -0.70233 0.865712 1.31486 0.463405 -0.187522 -0.447888 -0.392123 0.565407 -1.47157 0.40612 0.612229 0.494278
640 -1.09721 0.614935 0.660163 1.04054 0.151244 -0.53356 -0.447058 0.447557 -1.43775 0.521542 -0.650127 0.545788
650 -1.21527 0.660749 0.754558 0.86952 0.26728 -0.611796 -0.390574 0.466133 -1.39305 0.285828 -0.901117 0.741372
21 -0.0857542 0.62476 -0.405834 0.93833 -0.502665 -0.0112825 -0.283588 0.906556 -0.236185 -1.23136 0.455027 0.718093
177 0.422806 0.577891 -0.665365 1.24987 -0.736437 -0.132179 -0.0900944 1.05425 -0.546539 -0.715523 0.537731 0.544688
225 -0.0266096 0.663836 -0.650508 0.756666 -0.266065 -0.615863 -0.67278 0.686296 -0.508109 -1.4961 0.124869 0.881237
147 -0.196434 0.89927 -0.967519 0.862072 -0.153173 -0.0677201 -0.512007 1.00351 -0.271135 -0.968134 -0.0127093 0.727468
262 -0.374086 0.631055 -1.10799 1.01663 -0.612137 0.0298561 -0.581024 1.02948 -0.24548 -0.721987 0.276335 0.597868
381 -0.631737 0.540216 0.156003 0.812126 -0.74069 -0.553291 0.654836 -0.148109 0.243608 0.262587 0.310115 1.90758
436 -0.443369 0.941564 0.0473211 0.751641 -0.581487 -0.0618929 0.956012 -0.0467368 -0.00701596 0.288899 0.36926 1.84305
430 -0.415927 1.10549 0.0345354 0.724308 -0.39441 -0.164686 0.703028 -0.162497 0.224734 0.232366 0.534271 1.88707
295 -0.505391 0.558744 0.0560489 0.933985 -0.383916 -0.773716 0.555764 -0.21633 0.399485 0.20366 0.504982 1.94944
404 -0.558375 0.69879 0.123509 0.588176 -0.217596 0.0605841 0.501215 0.162591 0.321221 0.231286 0.755589 2.09034
340 -0.857116 0.845541 -0.0489948 0.712412 -0.482534 -0.0917052 1.09769 -0.12612 0.0675878 0.116089 0.705208 1.75506
390 -0.612605 1.13634 0.134236 0.680958 -0.576633 0.112339 0.594185 -0.0795 0.389538 0.257246 0.644352 1.91485
433 -0.632452 0.725243 0.216242 0.740588 -0.357809 -0.270283 0.58024 -0.206221 0.318164 -0.0469528 0.345399 1.99288
366 -0.634856 1.08779 0.247451 0.569137 -0.510966 0.130333 0.751831 0.123679 0.331279 0.262421 0.521897 1.95082
326 -0.503292 0.836023 0.151659 0.863617 -0.271432 -0.383905 0.685301 -0.227115 0.266402 0.0647766 0.264935 2.01176
354 -0.682229 0.988807 -0.12202 0.666602 -0.105102 -0.159976 0.812415 -0.228761 0.104645 0.203062 0.618378 1.90434
577 -1.58695 0.333401 0.715625 0.638601 0.0805348 -0.453132 -0.448842 0.71864 -1.22557 0.426611 0.085554 0.481715
536 -1.51486 0.0391907 0.693062 0.915014 0.0763648 -0.855008 -0.321381 0.322068 -1.21548 0.314103 0.297488 0.442103
634 -1.23298 0.903689 1.15871 0.6901 -0.00540223 -0.344197 -0.447091 0.648091 -0.694183 0.307719 0.366797 0.148024
566 -1.08265 0.383223 1.06997 0.498141 0.182795 -0.686147 -0.32729 0.520427 -0.971534 0.121083 0.381241 0.5823
484 -1.45372 0.390796 0.969044 0.594305 -0.247721 -0.462703 -0.326699 0.719947 -1.02856 0.431394 0.320123 0.44583
461 -1.34957 0.813958 0.819835 0.77364 0.248612 -0.689667 -0.270052 0.674446 -0.975184 0.51363 0.250813 0.222595
661 -1.08215 0.599141 0.808253 0.968732 0.257074 -0.560601 -0.283781 0.433054 -1.54701 0.29458 -0.901552 0.699929
662 -1.31852 0.662795 1.00815 0.651268 -0.482676 -0.674231 -0.623226 0.419246 -1.07507 0.497609 0.507373 0.297039
664 -1.23865 0.731291 0.768673 0.795357 -0.587578 -0.516465 -0.370963 0.743636 -1.13084 0.937943 0.222431 0.178521
682 -1.07448 0.420156 0.688544 0.943634 0.0899976 -0.564221 -0.328582 0.517736 -1.48487 0.437448 -0.501291 0.612621
426 -0.496524 0.838287 0.222813 0.619023 -0.410656 -0.0248284 0.685399 -0.101409 0.0777537 0.0605363 0.358032 2.07329
306 -0.319459 0.766529 0.0278475 0.82216 -0.601623 -0.55068 0.69302 -0.0404665 0.241786 0.299718 0.316504 1.95301
534 -0.926306 0.181317 0.723039 0.998726 0.14916 -0.331867 -0.536392 0.780442 -1.41079 0.768018 -0.11696 0.670151
575 -1.08362 0.71145 0.762331 0.836835 0.206331 -0.783726 -0.394609 0.0707028 -1.4997 0.237715 -0.554861 0.638468
595 -1.50006 0.496683 0.863649 0.582677 0.279227 -0.221686 -0.515985 0.62565 -1.23208 0.42483 0.467476 0.539035
603 -1.17668 0.590728 0.9765 0.795481 -0.179253 -0.596099 -0.519858 0.164411 -1.10273 0.371062 0.356068 0.323555
610 -1.05637 0.212355 0.660962 0.734983 0.00199626 -0.707606 -0.321602 0.447811 -1.68552 0.554156 0.631811 0.487071
623 -1.29416 0.609159 0.761387 0.630974 -0.204655 -0.243519 -0.440134 0.826481 -1.23685 0.752829 0.314729 0.38988
297 -0.390253 0.809058 -0.0361632 0.760745 -0.50353 -0.487894 0.737046 -0.126191 0.123234 0.372713 0.63406 1.89358
397 -0.732098 0.883777 -0.187429 0.714379 -0.148201 -0.237013 0.73291 0.097319 0.337348 0.502119 0.767149 1.88213
312 -0.719727 0.988307 -0.017605 0.771554 -0.492053 0.0730184 0.894826 -0.254829 0.137033 0.113037 0.600339 1.87159
302 -0.486048 0.441268 0.108493 0.866639 -0.543952 -0.431013 0.533092 0.0387355 0.36994 0.302092 0.504564 2.06287
432 -0.688909 0.626789 0.034683 0.79974 -0.342578 -0.594396 0.906171 0.00603783 0.317404 0.147742 0.516569 1.89729
364 -0.76255 0.825183 0.0760482 0.752549 -0.485542 -0.103119 0.928941 0.0184808 0.295649 0.148913 0.550481 1.80402
584 -1.11986 0.559976 0.67727 0.97912 0.194231 -0.210701 -0.541547 0.512548 -1.41436 0.613436 -0.545168 0.612356
535 -1.45205 0.6734 0.524235 0.766851 0.00198263 -0.684428 -0.391208 0.785978 -1.04127 0.821286 0.0888994 0.240262
240 -0.136804 0.230623 -0.789323 0.949243 -0.359272 -0.568705 -0.597936 0.888432 -0.441543 -1.19935 0.485808 0.740691
36 -0.297851 0.596254 -0.524218 0.539448 -0.172325 -0.574312 0.48941 0.53439 -0.361315 -1.4308 0.739055 0.757902
33 -0.101213 0.596347 -0.357723 0.682069 -0.197459 -0.0986213 0.107259 1.30213 0.0290621 -1.07744 0.462975 0.811803
48 -0.204868 0.668552 -0.46069 0.424088 0.137091 -0.507764 0.511383 0.651243 0.0985222 -1.13908 0.877698 1.01981
537 -1.28216 0.798987 1.04456 0.85012 -0.342826 -0.711828 -0.0261921 0.401628 -0.748356 0.326966 0.329253 0.0351904
554 -1.06963 0.705921 0.968316 0.630368 -0.662072 -0.612688 -0.724116 0.550705 -1.22703 0.692935 0.433522 0.329138
644 -1.24524 0.873866 1.0154 0.727927 -0.153246 -0.554059 -0.453581 0.32858 -0.826994 0.434475 0.482825 0.215478
334 -0.485352 0.59113 0.12156 0.674012 -0.359736 -0.370823 0.906285 -0.0661342 -0.00399888 -0.011528 0.426351 2.09321
323 -0.642301 1.0004 0.10364 0.774144 -0.255704 -0.383608 0.593175 -0.240318 0.431792 0.0635577 0.38584 1.84133
415 -0.542744 0.445995 -0.182591 0.798432 -0.308608 -0.535012 0.637551 -0.160679 0.119369 0.262456 0.710226 1.9669
444 -0.586945 0.877781 0.225989 0.639815 -0.274412 0.00233196 0.928451 -0.103416 0.00358469 -0.00994966 0.394306 2.05619
442 -0.763589 0.868605 0.0816408 0.844662 -0.190512 -0.352986 0.601656 -0.260653 0.41111 0.122597 0.344302 1.93728
492 -0.837898 0.985412 1.31897 0.466832 0.0128468 -0.568423 -0.421118 0.834609 -1.09576 0.430241 0.451507 0.426992
507 -0.972792 0.677288 1.12797 0.7178 -0.000255325 -0.59974 -0.352841 0.448146 -1.27634 0.331318 0.584679 0.357084
257 -0.118807 0.694082 -0.818819 0.994293 -0.588021 0.310516 -0.330671 0.868635 -0.636679 -0.912565 0.381336 0.628765
128 -0.499848 0.857193 -0.893367 1.0516 -0.262736 -0.136691 -0.0531194 0.639571 -0.297141 -1.11852 0.277181 0.378434
245 -0.366577 0.664411 -0.42177 0.786458 -0.129674 0.25813 -0.573296 0.756313 -0.139425 -1.28617 0.401163 0.746953
221 -0.0912998 0.863151 -0.364665 0.660278 -0.46342 -0.00158745 -0.647617 0.775094 -0.232424 -1.23221 0.630303 0.715246
53 -0.179558 0.451015 -0.523738 0.849981 -0.0496164 -0.197872 0.173412 1.05629 -0.250744 -1.15061 0.884968 0.693016
122 -0.153983 1.01325 -0.30301 0.752914 -0.394458 -0.221898 -0.231473 0.702134 -0.207926 -1.36295 0.563867 0.519086
480 -1.0216 0.707163 0.929342 0.624825 0.481707 -0.45735 -0.461109 0.828348 -1.20214 0.575558 0.353613 0.501811
377 -0.712114 0.845064 0.341477 0.748986 -0.627799 -0.150846 0.739382 -0.0513373 0.368703 0.0710177 0.106803 1.79496
481 -1.1005 0.327642 0.759248 0.824868 0.628347 -0.935817 -0.449936 0.727917 -1.17899 0.488094 0.243135 0.562579
159 -0.414181 0.581383 -1.26363 1.06523 -0.618712 0.0122478 -0.174954 0.942798 -0.533808 -0.771228 0.270602 0.502029
212 0.0399799 1.08024 -0.592084 0.728981 -0.568928 -0.180833 -0.740911 0.570114 -0.321194 -1.0021 0.312286 0.714119
120 -0.375132 1.07029 -0.482164 0.807279 -0.30589 -0.221306 -0.102152 0.76576 -0.0505815 -1.35779 0.225639 0.502075
83 -0.212037 0.717797 -0.820304 1.24284 -0.343463 -0.0433096 -0.0423026 0.737904 -0.329386 -0.940892 0.418248 0.385326
184 0.020163 0.741937 -0.734819 0.950187 -0.573297 0.188362 -0.281631 0.8825 -0.530675 -0.830929 0.4978 0.618696
179 -0.173999 0.608163 -0.816177 0.799941 -0.696043 0.257619 -0.516739 0.87052 -0.489158 -0.947987 0.100516 0.830416
273 0.060385 0.337941 -0.700213 0.914376 -0.722402 -0.268233 -0.579025 1.05259 -0.537996 -1.05079 0.506101 0.740816
284 -0.0947451 0.678704 -0.616599 0.881568 -0.760037 0.233221 -0.567587 0.950957 -0.135033 -0.854695 0.450913 0.771026
446 -0.601408 0.859858 0.00345614 0.786183 -0.760623 -0.356599 0.691508 -0.152171 0.238371 0.340148 0.562883 1.82964
374 -0.187696 0.448473 0.072722 0.868122 -0.524528 -0.170428 0.858661 0.0141021 -0.124645 0.33722 0.357619 2.09419
69 -0.348782 0.56129 -0.622426 0.903682 -0.519086 -0.0610131 -0.14999 0.937867 -0.162657 -1.12315 0.317256 0.64553
141 -0.00197019 1.10718 -0.904564 0.800045 -0.341793 -0.513611 -0.690943 0.76988 -0.243824 -0.917148 0.470435 0.635572
220 0.107616 0.614514 -0.290579 0.590151 -0.287988 -0.25711 -0.26439 0.860629 -0.162016 -1.13503 0.764263 0.852889
414 -0.565165 0.663146 0.146735 0.738158 -0.104319 0.00856438 0.832833 -0.21574 -0.0501799 -0.0305729 0.51153 2.03151
344 -0.425217 0.885628 0.0103237 0.664034 -0.531259 -0.172226 0.654081 -0.239698 0.0504535 0.135386 0.437013 2.03924
380 -0.604762 0.563951 -0.0354204 0.951282 -0.0736346 -0.570247 0.829128 0.129845 0.429122 0.250071 0.480032 1.85402
362 -0.572913 0.343021 0.133048 0.847183 -0.258095 -0.401874 0.668747 0.0678157 0.306497 0.0965167 0.36893 2.25488
308 -0.648427 1.2411 0.13321 0.682408 -0.40578 -0.268557 0.643311 -0.304535 0.344297 0.166757 0.674309 1.75434
399 -0.556082 0.806423 0.184417 0.846467 -0.449577 -0.608345 0.801417 -0.206799 0.337595 -0.0634281 0.0974683 1.88914
406 -0.684409 0.770418 -0.00327251 0.764193 -0.454905 -0.441701 0.687697 -0.229803 0.321057 0.0587249 0.397538 1.88395
175 0.0634451 0.676308 -0.955481 1.21479 -0.50487 -0.0556742 -0.0955027 0.927267 -0.47713 -0.480346 0.555112 0.334884
112 -0.347166 0.899001 -0.642184 0.724232 -0.246152 -0.0816071 -0.232397 0.892734 -0.300481 -1.05893 0.595 0.399148
18 -0.257123 0.730038 -0.408384 0.870031 -0.795865 -0.0239662 -0.23077 0.839275 -0.140564 -1.14713 0.713264 0.49873
234 -0.0838868 0.88284 -0.355266 0.860226 -0.474834 0.316143 -0.447793 0.687319 -0.357175 -1.25731 0.38708 0.6984
259 -0.3477 0.687831 -0.754889 0.748451 -0.404579 0.168865 -0.622762 1.08343 -0.253388 -1.11702 0.246297 0.803984
178 -0.418317 0.625428 -1.27507 1.06886 -0.320696 0.00855292 -0.267911 1.06319 -0.541976 -0.746873 0.387989 0.489834
6 0.154444 0.769192 -0.317918 0.886991 -0.314031 -0.353991 0.151677 1.26703 -0.202694 -1.01367 0.943574 0.42729
55 -0.554657 0.602298 -0.931863 0.85102 -0.361799 -0.0523025 -0.108761 1.06323 -0.272809 -1.0601 0.466294 0.579444
619 -1.09313 0.699641 0.695485 0.930453 0.140959 -0.31738 -0.391223 0.489496 -1.37266 0.633914 -0.716148 0.636094
490 -0.944992 0.759298 0.966195 0.684401 -0.146345 -0.468314 -0.508916 0.499159 -1.13202 0.583749 0.489877 0.418645
5 -0.112886 1.08194 -0.541117 0.892402 -0.598767 -0.32771 -0.131894 0.786906 -0.331343 -1.03636 0.357203 0.272635
176 -0.192773 0.842391 -0.480527 0.884644 -0.361952 0.0154245 -0.203678 0.49832 -0.612558 -1.50086 0.349844 0.578263
205 -0.279006 0.647458 -0.888834 0.747439 0.259289 -0.15866 0.0767246 0.408054 -0.286028 -1.0524 0.854355 0.865261
241 -0.0405678 0.85308 -0.811481 1.00587 -0.0183217 -0.342985 -0.478989 1.09569 -0.114692 -1.02268 0.0884896 0.692847
9 -0.104494 0.539667 -0.199427 0.197499 -0.118551 -0.269575 -0.0846132 0.99 0.592092 -1.04959 0.707415 1.47787
156 -0.034865 0.266534 -0.617726 1.17517 -0.434382 -0.522963 -0.113379 0.561419 -0.472383 -1.10007 0.687875 0.453924
261 -0.274408 0.790633 -0.870443 0.985971 0.154569 0.122914 -0.292847 0.897751 -0.310267 -1.02374 0.40932 0.621041
96 -0.352149 0.634103 -0.70434 1.34528 -0.638437 0.0319387 -0.258018 0.897721 -0.129069 -0.982677 0.441911 0.274507
518 -1.48135 0.772868 1.01491 0.387955 0.479474 -0.514999 -0.577021 0.6014 -1.05848 0.199901 0.254811 0.592726
588 -1.23942 0.202815 0.837623 1.10476 -0.0176978 -0.565502 0.0763005 0.845486 -0.815924 0.523376 0.0587947 0.171446
333 -0.620671 0.939579 0.0935052 0.792745 -0.606873 -0.439424 0.801668 -0.0321737 0.410714 0.272703 0.579728 1.76963
242 -0.284064 0.782267 -0.570801 0.789697 -0.351517 -0.367668 -0.553811 0.692215 -0.244968 -1.46659 0.237937 0.707429
196 -0.285724 0.788872 -0.949911 0.992631 -0.709289 -0.104787 -0.138937 0.817275 -0.410259 -0.880722 0.523933 0.398718
509 -0.773752 0.398709 1.01877 0.784665 0.52973 -0.258667 -0.305347 1.01459 -1.372 0.587657 0.226669 0.664904
467 -1.20587 0.810656 0.767003 0.623688 0.0555325 -0.771287 -0.0245635 0.702147 -1.28586 0.530249 0.272727 0.219104
385 -0.711637 0.454039 -0.127386 0.910566 -0.362993 -0.310076 0.552736 -0.163793 0.276522 0.269972 0.439719 2.05348
272 -0.0945994 0.803147 -0.480772 1.04444 -0.0601571 0.0995415 -0.568297 0.821881 -0.216528 -1.30383 0.323946 0.687535
407 -0.200637 0.80432 -0.136273 0.756044 -0.489555 -0.488245 0.613507 -0.191232 0.0222149 0.446278 0.550099 1.98759
271 -0.0500723 0.826902 -0.72015 1.18677 -0.202355 -0.47294 -0.247198 0.709167 -0.38537 -1.09337 0.649243 0.300658
84 -0.293952 0.478613 -0.57725 0.838071 -0.505574 0.134149 -0.421449 0.516642 -0.563878 -1.30438 0.457133 0.743347
345 -0.577062 0.628783 -0.151303 0.744988 -0.309391 -0.463478 0.615614 -0.131331 0.285489 0.143635 0.678153 1.98064
429 -0.635077 0.770988 0.0717287 0.77359 -0.319344 -0.161576 0.861954 -0.19423 0.0769749 0.0879854 0.507149 1.95421
447 -0.547688 0.757515 0.30984 0.720817 -0.556033 -0.0439115 0.613935 0.0679849 0.334884 0.258546 0.570406 2.00718
235 0.238439 0.482922 -0.377698 0.776386 -0.34425 -0.385332 -0.137269 0.870775 -0.200959 -1.11329 0.840797 0.89109
260 -0.205573 0.436668 -0.891018 1.12975 -0.0294981 -0.777945 -0.334642 0.726385 -0.204803 -1.13146 0.170839 0.659505
592 -0.94024 0.93584 1.11922 0.293767 0.100681 -0.488406 -0.483161 0.947842 -1.15677 0.560956 0.32747 0.575541
676 -1.2958 0.642284 0.873335 0.420373 0.204165 -0.264022 -0.446786 0.698069 -1.34307 0.476123 0.445756 0.553058
504 -1.36935 0.272872 0.615748 0.550388 0.117567 -0.846784 -0.440967 0.364514 -1.35164 0.485236 0.480528 0.598022
372 -0.790757 0.840081 -0.0442358 0.758782 -0.36843 -0.0325079 1.02231 -0.198644 0.0741856 -0.00101191 0.52961 1.78042
174 -0.276825 0.739441 -0.774934 1.06816 -0.0953412 0.285239 -0.501951 1.09933 -0.121306 -1.05828 0.0775071 0.73331
539 -1.13295 0.499643 0.866369 0.939809 -0.251254 -0.657307 -0.0950191 0.972632 -1.04869 0.770538 0.206193 0.160054
166 -0.370266 0.827632 -1.06826 1.0544 -0.553518 -0.0245006 -0.298252 1.16836 -0.28257 -0.80975 0.161222 0.404233
59 0.0814081 1.21525 -0.801135 1.09245 -0.199323 -0.330297 -0.830536 0.390419 -0.168189 -0.872812 0.440807 0.567187
