704 12
660 1.3174 1.43706 -0.319042 0.772355 0.692497 -0.000764124 -0.579351 -0.288833 -0.0153844 0.0227381 -0.825514 0.403243
677 1.21257 1.30613 -0.24646 0.609023 1.07411 -0.0765907 -0.427394 -0.0728697 0.0958571 -0.114474 -1.01881 0.685845
682 1.26917 1.20645 -0.368369 0.809816 1.08173 -0.0560831 -0.421386 -0.0623529 -0.188076 0.0999292 -1.07281 0.489563
472 1.13083 1.14288 -0.398359 0.894552 1.07433 -0.099566 -0.487421 -0.304442 0.160245 -0.156955 -0.633766 0.540879
602 1.09793 1.16567 -0.600326 0.932251 1.31866 -0.146925 -0.654123 0.15855 -0.491647 0.307782 -0.812365 0.36419
526 1.29089 1.32707 -0.113892 0.924444 0.831702 0.212604 -0.437464 -0.226029 0.306363 -0.0331356 -0.838517 0.327342
466 1.18213 1.05485 -0.231124 0.92765 1.00907 -0.0177141 -0.620433 -0.46757 0.268856 -0.0715974 -0.6522 0.529999
585 1.23489 1.18798 -0.634657 0.871273 1.23066 -0.171264 -0.695368 0.0362012 -0.512799 0.487597 -0.862423 0.337867
575 1.55821 1.16332 -0.650323 0.690611 0.863329 0.0488463 -0.816057 -0.219495 -0.352398 0.225211 -0.803421 0.324623
684 1.28293 1.03281 -0.383144 0.857806 0.993328 -0.0214407 -0.535053 -0.284615 0.173791 -0.0520601 -0.774035 0.560096
506 1.27925 0.883035 0.0165031 1.28176 0.38382 0.497264 -0.706336 -0.0426369 0.323552 0.198975 -0.772049 0.287645
504 1.4036 1.22263 -0.262023 1.17011 0.54107 0.248407 -0.45522 -0.122429 0.464301 -0.0860238 -0.585079 0.505712
692 1.10689 1.07159 -0.180205 1.06972 0.765645 0.015187 -0.664926 -0.439494 0.387799 -0.249237 -0.551921 0.515167
528 1.21919 1.51604 0.00310924 0.855855 0.752594 0.111293 -0.490585 -0.258963 0.481754 -0.0764071 -0.746783 0.426215
515 1.16878 1.15909 -0.103555 0.947087 0.818151 0.0634496 -0.69432 -0.418626 0.316366 -0.223825 -0.622408 0.545072
630 1.32307 1.31693 -0.399669 0.586712 0.940922 -0.0993983 -0.782402 -0.220659 -0.223566 0.0960075 -0.828957 0.485637
554 1.03873 0.889626 0.19572 1.02014 1.00586 -0.0715116 -0.79001 -0.372594 0.572932 -0.360406 -0.657204 1.02443
695 1.02376 1.09426 -0.00235497 1.04065 0.952784 0.0366111 -0.73025 -0.458354 0.408185 -0.263343 -0.553856 0.551075
539 0.923559 1.15934 0.216202 1.18597 0.910987 -0.148265 -0.597457 -0.220852 0.531524 0.194008 -0.610694 0.86206
495 1.04417 1.10368 -0.0343403 1.06124 0.92329 0.0571559 -0.639614 -0.341653 0.317367 -0.297461 -0.686015 0.486563
686 0.989359 0.994887 -0.035921 1.0316 0.825253 -0.004211 -0.77022 -0.491442 0.478563 -0.258098 -0.607301 0.471402
603 1.06723 0.689673 0.0658579 1.11046 0.563681 0.152106 -0.545864 -0.3105 0.210605 -0.516843 -1.05887 0.542046
681 1.41254 1.32657 -0.399844 0.543454 0.97669 0.0649229 -0.811276 -0.337837 -0.078115 0.144627 -0.752274 0.299979
465 1.1696 1.01275 -0.214206 0.962483 0.941773 0.00982218 -0.679763 -0.479811 0.227214 -0.162731 -0.627101 0.52555
587 1.14508 1.26221 -0.14867 0.787425 0.631147 0.0414636 -0.306133 -0.30686 0.579014 -0.44041 -0.791172 0.5611
474 1.19636 1.3335 -0.0209289 1.15906 0.205094 0.163079 -0.661679 -0.524994 0.143988 -0.0831727 -0.639791 0.216886
638 1.06976 0.769066 -0.0853305 1.1395 0.272049 -0.0020122 -0.741008 -0.389006 0.434678 -0.104528 -0.87169 0.393554
470 1.24213 0.977098 -0.171661 0.923596 0.905318 0.0762664 -0.651768 -0.520882 0.365048 -0.193509 -0.642808 0.605053
613 0.886111 1.0491 0.188368 1.27853 0.703215 -0.01684 -0.820732 -0.504923 0.169673 -0.374071 -0.793297 0.399663
659 1.29112 1.06635 -0.444636 1.00138 0.908552 0.106084 -0.555037 -0.304868 0.105033 -0.300229 -0.609889 0.447746
468 1.14231 0.95616 -0.0627422 0.904562 0.924026 0.144461 -0.743575 -0.322006 0.12821 -0.107292 -0.823273 0.446093
617 1.14295 1.06773 -0.156315 1.01934 1.00797 -0.0504526 -0.596211 -0.509947 0.310673 -0.112368 -0.616898 0.572316
690 0.946291 1.25612 0.278195 1.26712 0.46322 -0.209301 -0.930411 -0.476654 0.191335 -0.162872 -0.71998 0.702623
517 1.1731 1.04215 -0.217016 0.966899 0.951475 0.0215588 -0.66015 -0.486371 0.325369 -0.14141 -0.583746 0.502651
543 1.22127 0.854519 -0.0825882 1.08926 0.510662 0.283483 -1.08842 -0.366138 0.303158 0.0813354 -0.304616 0.356976
475 1.09904 1.09517 -0.0399471 1.0523 0.849598 0.143349 -0.752916 -0.57601 0.236292 -0.34056 -0.665858 0.277781
676 1.02346 1.36524 0.160448 0.987091 1.04124 0.128418 -0.556172 -0.269362 0.485219 -0.167501 -0.812245 0.223128
489 1.16079 1.03956 -0.185546 0.944449 0.880785 0.0210973 -0.720284 -0.54828 0.327826 -0.268611 -0.566353 0.484913
653 0.901962 1.10806 0.429466 1.14178 0.865648 -0.0671821 -0.928532 -0.807815 0.323176 -0.233848 -0.642298 0.495301
513 1.1767 1.07158 -0.133994 1.10109 0.981842 0.198162 -0.469871 -0.375208 0.593631 -0.14797 -0.568897 0.375694
685 1.18771 1.06289 -0.235297 0.922424 1.00666 -0.0213388 -0.663789 -0.431953 0.249115 -0.164695 -0.659688 0.565718
623 0.911383 1.32014 0.104483 0.982383 0.975148 0.0455013 -0.650381 -0.0105929 0.598649 -0.174554 -0.449447 0.686594
636 1.51498 1.11622 -0.630914 0.82769 0.832603 0.0990802 -0.872166 -0.160878 -0.455053 0.394948 -0.773102 0.235889
616 1.22855 1.06381 -0.0706721 1.023 0.302762 0.0240683 -0.698156 -0.997764 0.133226 -0.0986054 -0.666528 0.209315
487 1.02682 1.26146 -0.330875 1.03776 1.43718 -0.0134415 -0.0924887 -0.0172092 0.442975 -0.0728098 -0.52138 0.506972
697 1.18895 1.19752 -0.309204 0.960452 1.00922 -0.0874111 -0.452363 -0.30874 0.243739 0.0813704 -0.672708 0.570153
643 1.21116 1.17147 -0.352586 0.848093 1.05163 -0.0615444 -0.50622 -0.477713 0.157992 -0.0960528 -0.66654 0.490213
476 1.1845 1.00418 -0.248497 0.936391 0.947428 -0.0114906 -0.658674 -0.452736 0.25272 -0.194918 -0.657911 0.555366
325 -0.707453 0.59157 -1.50588 0.502889 0.13814 -0.0241176 -1.08781 -0.20611 0.967568 0.0178838 -1.09501 -0.0443695
305 -0.66484 0.583863 -1.29287 0.502408 0.0429584 0.118642 -1.17807 -0.191371 1.31772 0.272151 -0.910387 -0.0573174
357 -0.834856 0.477338 -1.24494 0.342301 -0.0049333 -0.00173765 -0.807059 -0.491324 0.80269 0.280102 -1.15301 0.118003
355 -0.700025 0.582003 -1.54904 0.481065 0.148934 -0.0766709 -0.9933 -0.200871 0.960869 0.036898 -1.16834 -0.00464502
358 -0.708712 0.645046 -1.16469 0.60979 -0.082093 0.0849098 -1.19694 0.043401 1.24028 0.412757 -0.973631 0.0259686
440 -0.725185 0.513235 -1.46042 0.485834 0.0964417 -0.00441358 -1.00649 -0.213916 0.809274 0.0924884 -1.18316 -0.0332708
428 -0.614225 0.366701 -1.39308 0.549488 0.098086 0.0553618 -1.20072 -0.353851 1.08767 0.0344979 -1.06881 -0.0957471
342 -0.729549 0.513899 -1.4787 0.505334 0.0266632 -0.0567533 -0.991961 -0.2894 0.909944 0.0660072 -1.21459 0.0444439
429 -0.740918 0.419347 -1.22774 0.448628 0.190576 0.000549289 -1.21301 -0.026885 1.08194 0.04102 -1.16038 0.126745
387 -0.650777 0.516858 -1.54327 0.538502 0.118424 -0.0944952 -1.03587 -0.220919 0.930446 -0.0231182 -1.12911 0.0122782
318 -0.555551 0.36437 -1.41326 0.67777 -0.0702136 0.0587155 -1.04015 -0.242563 1.0772 0.0846413 -1.2492 0.00422349
347 -0.571923 0.471085 -1.59166 0.561041 -0.101366 -0.0756354 -0.832319 -0.43465 1.05686 -0.0807518 -1.20717 -0.00585997
350 -0.920793 0.486836 -1.31109 0.681332 0.0594572 -0.126736 -1.10265 0.0592947 0.884123 0.0432285 -1.18992 0.228272
338 -0.807637 0.691719 -1.42088 0.440663 0.0218821 -0.0957626 -1.18888 -0.20368 1.0894 0.266527 -0.686327 0.176034
384 -0.459466 0.567231 -0.777759 0.42863 0.0047581 -0.220249 -0.603332 -0.564073 1.09392 0.352065 -1.18368 0.0367109
406 -0.610897 0.51265 -1.19288 0.705173 -0.168625 0.0770434 -0.961129 -0.214039 1.10647 0.0477277 -1.31382 -0.168288
298 -0.73893 0.474438 -1.50103 0.594361 0.172824 0.0119374 -1.08933 -0.191857 0.914916 -0.00871245 -1.17164 -0.0736705
427 -0.718243 0.45007 -1.26693 0.385776 0.0322057 -0.109456 -1.19671 -0.318539 1.17099 -0.0477154 -1.0097 0.268039
353 -0.676937 0.50174 -1.45636 0.581902 0.138731 -0.0755151 -1.08325 -0.241906 1.01601 -0.0101544 -1.18135 -0.00721504
453 -0.553276 0.37069 -1.37201 0.746633 -0.126456 0.21532 -0.929093 -0.266291 1.09662 0.0159624 -1.3017 -0.234607
337 -0.688094 0.558059 -1.5057 0.480507 0.100654 -0.0894876 -1.07667 -0.231289 0.997527 0.0100766 -1.2312 0.0159259
365 -0.70508 0.427779 -1.33388 0.571547 -0.0232214 -0.16225 -0.945434 -0.451715 0.98607 -0.165765 -1.22336 0.0497453
346 -0.743864 0.557649 -1.51367 0.56788 0.161587 -0.0830774 -1.01127 -0.177414 0.968042 0.0104116 -1.10339 0.00595454
425 -0.822815 0.282056 -1.5345 0.980626 0.0496938 -0.133612 -0.910947 -0.566661 0.93492 0.119294 -0.848406 -0.0518041
56 -0.808371 0.668761 -0.291923 0.276157 -0.100179 1.26766 -0.247722 -0.250345 0.0193201 0.30894 -0.895383 0.808633
69 -0.605801 0.605544 -0.443885 0.286896 -0.0627749 1.1854 -0.158682 -0.883606 0.112112 0.495146 -0.536962 0.970841
173 -0.692295 0.660626 -0.635661 0.194166 0.483124 1.24638 -0.0976529 -0.746961 -0.196952 0.263118 -0.453231 0.854553
103 -0.390459 0.362614 -0.471924 0.287621 -0.00243654 1.53285 -0.345347 -0.312618 -0.242056 0.538179 -0.769146 1.01022
200 -0.718439 0.624928 -0.666941 0.190631 0.427761 1.25802 -0.175762 -0.62927 -0.19893 0.231063 -0.5054 0.833761
267 -0.637994 0.655004 -0.500035 0.122253 0.205467 1.34871 -0.0873091 -0.754316 -0.200568 0.157525 -0.789031 0.810219
76 -0.591484 0.416578 -0.611589 0.509014 0.501333 1.54769 -0.514044 -0.740844 -0.717921 0.633397 -0.481761 0.436508
204 -0.583954 0.556265 -0.592085 0.317397 0.340768 1.50809 0.0941346 -0.273058 -0.42367 0.382249 -0.965799 0.814396
106 -0.698054 0.627431 -0.655742 0.205097 0.39913 1.26507 -0.0832018 -0.621892 -0.17604 0.188507 -0.539065 0.849058
148 -0.897598 0.86137 -0.341316 0.272411 0.0707009 1.1009 -0.16794 -0.974174 -0.407627 -0.0531934 -0.724547 0.765637
51 -0.650602 0.614567 -0.653072 0.18319 0.363856 1.26665 -0.187788 -0.684257 -0.211266 0.309182 -0.52976 0.866351
283 -1.00723 0.304881 -0.396643 0.777724 0.270305 1.22716 -0.38491 -0.422933 -0.390905 0.38633 -0.682091 0.589206
243 -0.716189 0.640446 -0.593377 0.19373 0.456901 1.24251 -0.184552 -0.796523 -0.17525 0.234192 -0.441589 0.870161
219 -0.647537 1.01702 -0.69223 -0.043613 0.351461 1.33446 -0.286025 -0.812434 -0.185612 0.463808 -0.069048 0.621897
90 -0.669243 0.647613 -0.61212 0.135151 0.40527 1.25998 -0.164188 -0.794831 -0.075512 0.416802 -0.472986 0.885666
88 -0.673138 0.232795 -0.540504 0.497736 0.306647 1.12972 -0.37906 -0.924156 -0.315715 0.157424 -0.293078 1.25571
137 -0.69767 0.397455 -0.441568 0.268573 0.125125 1.02373 -0.300786 -0.819503 -0.359002 0.118364 -0.716053 1.25337
22 -0.694728 0.671611 -0.656493 0.145562 0.345935 1.23845 -0.158365 -0.680684 -0.119568 0.242788 -0.502119 0.866732
289 -0.847349 0.62645 -0.714731 0.633507 0.345106 1.10375 0.0982872 -0.755229 -0.129082 0.156635 -0.168798 0.996239
98 -0.695564 0.597383 -0.600407 0.241584 0.38231 1.25023 -0.143075 -0.741165 -0.170714 0.28871 -0.541818 0.807994
83 -0.625951 0.402207 -0.294541 0.333816 0.241465 1.42911 -0.32475 -0.658219 -0.162587 0.0874082 -0.587309 1.02545
186 -0.694224 0.646227 -0.586532 0.200968 0.349736 1.28564 -0.213778 -0.728701 -0.188065 0.330264 -0.532711 0.863561
124 -0.710948 0.726414 -0.678404 0.306597 0.171147 1.28464 -0.119244 -0.643739 -0.136631 0.282183 -0.291199 0.905144
0 -0.704731 0.634184 -0.597417 0.220641 0.409251 1.30337 -0.240098 -0.719883 -0.254722 0.295583 -0.51905 0.770962
95 -0.750416 0.669015 -0.503106 0.485341 0.0571013 1.14194 0.177669 -0.635268 -0.266394 0.0674422 -0.720832 1.03274
263 -0.572582 0.617345 -0.59443 0.394063 0.0471312 1.35504 0.0894121 -0.793389 -0.0220799 0.17442 -0.532989 0.8861
299 -0.221146 0.467594 0.272788 0.109565 -0.0751818 -0.281106 -0.0385911 -1.3448 0.750045 1.1754 -1.32559 0.314984
483 1.26101 0.959752 -0.391065 0.90237 1.11945 0.0577744 -0.597996 -0.226038 0.131769 -0.0178785 -0.656931 0.532264
562 1.27638 1.26938 -0.503781 0.885224 0.947495 -0.102341 -0.443523 -0.00792164 -0.213098 0.117269 -0.90358 0.509374
285 -1.0115 0.787689 -0.152458 0.419481 0.294606 1.23124 -0.0818802 -0.538556 0.134868 0.241374 -0.461097 1.05853
251 -0.692921 0.627326 -0.617504 0.145391 0.354085 1.28203 -0.158945 -0.724747 -0.0662771 0.247505 -0.552267 0.830677
53 -0.569836 0.495155 -0.662069 -0.0831299 -0.00663655 0.942137 -0.460754 -0.826236 -0.220292 0.0967207 -0.465742 1.36455
48 -0.959904 0.212023 -0.77781 -0.0383746 0.0898747 0.595372 -1.00047 -0.789843 -0.105199 0.394994 -0.378674 1.03462
275 -0.714845 0.64525 -0.65664 0.193093 0.43955 1.27154 -0.143966 -0.665862 -0.197166 0.281986 -0.513731 0.81512
16 -0.749553 0.536168 -0.490548 0.670374 0.411955 1.31654 -0.38562 -0.962148 -0.400367 0.706484 -0.259182 0.723404
268 -1.03476 0.534831 -0.252204 0.428105 0.823045 1.14135 -0.380297 -0.772256 -0.205032 0.134319 -0.145021 0.899694
7 -0.70656 0.599397 -0.643546 0.455066 0.427103 1.27521 -0.121333 -0.744003 -0.352313 0.392237 -0.429219 0.805665
181 -0.441803 0.339389 -0.59538 0.098572 0.263871 1.25142 -0.44812 -0.943845 -0.202174 0.362362 -0.341574 1.15458
24 -0.560662 0.340849 -0.605493 0.197965 0.11787 1.11413 -0.21487 -0.806957 0.11024 0.291606 -0.411602 1.33975
265 -0.628568 0.605009 -0.487433 0.318989 0.243882 1.37058 -0.0185749 -0.652517 -0.0808963 0.308286 -0.671914 0.9881
292 -0.589074 0.474305 -0.630188 0.348501 0.0694665 1.3271 -0.19426 -0.976757 -0.13886 0.332452 -0.477288 0.852667
114 -0.707948 0.678743 -0.625642 0.178866 0.43789 1.27578 -0.114702 -0.720352 -0.193477 0.253154 -0.499097 0.83115
232 -0.475727 0.856541 -0.535814 0.261112 -0.0848973 1.55052 -0.16229 -0.0852854 -0.0264696 0.535441 -0.43585 0.883526
233 -0.445483 0.712947 -0.522441 0.245272 -0.185735 1.4383 -0.296082 -0.334832 -0.197748 0.463889 -0.558487 0.987224
119 -0.75883 0.59 -0.657242 0.16073 0.416525 1.16768 -0.172063 -0.673415 -0.116974 0.360981 -0.559764 0.769762
37 -0.858889 0.663854 -0.404047 0.280369 0.563851 1.28136 0.0811625 -0.340211 0.00998091 0.411352 -0.594657 1.14823
62 -0.767683 0.485076 -0.597304 0.572227 0.141324 0.920051 0.164872 -0.680396 -0.183668 0.106651 -0.675279 1.18269
17 -0.673409 0.683021 -0.543705 0.177441 0.345161 1.27192 -0.122446 -0.726044 -0.156681 0.233163 -0.560501 0.94232
218 -0.685947 0.888184 -0.585024 0.180918 0.218197 1.41496 -0.190612 -0.461723 0.196109 0.492558 -0.0641965 0.943078
129 -0.718754 0.672022 -0.626232 0.148384 0.523376 1.30178 -0.0886341 -0.697748 -0.0937016 0.223096 -0.436426 0.882542
270 -0.511846 0.597813 -0.408372 0.18413 -0.119543 1.52661 -0.292414 -0.642281 -0.183287 0.394068 -0.754862 0.887944
86 -0.724026 0.61427 -0.560037 0.244369 0.42264 1.32797 -0.222321 -0.757068 -0.112527 0.20405 -0.373273 0.943826
126 -0.701089 0.599335 -0.190937 0.383902 -0.0418217 1.35973 0.00317518 -0.898124 0.131511 0.0345996 -0.715782 0.961978
288 -0.647958 0.577697 -0.655329 0.261265 0.274273 1.24403 -0.116352 -0.827519 -0.0971906 0.113277 -0.415812 0.935892
250 -0.615734 0.898062 -0.493072 0.0696638 0.0305062 1.43185 -0.105049 -0.862602 -0.26981 -0.14881 -0.603724 0.515851
139 -0.450341 0.789148 -0.48634 -0.037412 0.153591 1.70683 -0.318931 -0.360714 -0.10165 0.481431 -0.546417 0.69077
27 -0.611133 0.50275 -0.554555 0.195923 0.179458 1.29514 -0.593289 -0.421266 -0.261259 0.656869 -0.420227 1.04699
110 -0.669484 0.743475 -0.590988 0.125527 0.307192 1.4073 -0.20754 -0.453974 0.311762 0.327086 0.0121491 1.08221
18 -0.725443 0.660149 -0.419102 0.644216 -0.11446 1.25733 -0.0460013 -0.619182 -0.026502 0.0969569 -0.449558 0.97606
93 -0.890228 0.914726 -0.5771 0.562155 0.296573 1.25662 0.169044 -0.60942 -0.0238505 0.452408 -0.174054 1.08245
147 -0.629152 0.36867 -0.841889 0.330268 0.702506 1.18738 0.0914277 -0.699422 -0.179959 0.690977 -0.312062 1.03811
3 -1.0025 0.290547 -0.417579 0.844684 0.583495 1.04179 -0.468327 -1.0732 -0.613151 0.55953 -0.376628 0.801502
15 -0.831795 0.626593 -0.596214 0.730541 0.493303 1.36732 -0.511387 -0.444665 -0.883529 0.823426 -0.352703 0.602836
72 -0.791555 0.802336 -0.557372 0.842946 0.216797 1.30964 0.00589286 -0.278058 -0.490088 0.618898 -0.490787 0.618064
35 -0.934788 0.717383 -0.311258 0.289835 0.354172 1.30975 -0.515206 -0.407043 -0.421175 0.423742 -0.549533 0.777868
71 -0.676286 0.610857 -0.675762 0.155615 0.423957 1.30262 -0.0761869 -0.625368 -0.147791 0.191278 -0.58144 0.860418
32 -0.852194 0.626545 -0.358162 0.339767 -0.247177 1.06423 -0.29876 -0.861266 0.137756 0.178849 -0.622159 0.941733
278 -0.68863 0.663862 -0.459383 0.282434 0.135183 1.24625 -0.0118977 -1.00179 -0.0705187 0.100283 -0.60864 0.865508
216 -0.59142 0.852587 -0.558983 0.458962 -0.139073 1.4782 -0.051975 -0.412215 -0.19145 0.423871 -0.515389 0.794618
113 -0.727584 0.774106 -0.619994 0.239432 0.0313941 1.1739 -0.162893 -0.712645 -0.187048 0.312621 -0.566026 0.739133
14 -0.697292 0.708674 -0.643455 0.12952 0.378707 1.26064 -0.113218 -0.710789 -0.133363 0.192565 -0.512689 0.878591
196 -0.485148 0.343953 -0.528332 0.386132 0.135808 1.54906 -0.0769171 -0.568509 -0.219086 0.201408 -0.790277 0.864402
2 -0.794817 0.637744 -0.499186 0.306156 0.388129 1.197 -0.140296 -0.71304 -0.0505669 0.240639 -0.41632 1.06774
253 -0.960724 0.843932 -0.482851 0.513578 0.44923 1.16414 -0.131356 -0.526858 -0.11499 0.522117 -0.109773 1.01581
459 0.973375 1.06161 -0.0788431 0.936651 0.722857 0.11957 -0.577158 -0.00806911 0.231551 -0.261539 -0.667867 0.497359
464 1.16498 1.06538 -0.108653 0.984769 0.855609 0.0185213 -0.715101 -0.506785 0.233645 -0.120122 -0.655823 0.538477
532 1.15729 1.46617 -0.00437916 0.908669 0.62959 -0.033502 -0.752689 -0.490355 0.173587 -0.129841 -0.642665 0.42479
567 1.12284 1.62727 -0.14747 0.821213 0.843512 0.0951998 -0.645178 -0.33014 0.420636 -0.1381 -0.384835 0.233235
604 1.30294 1.25679 -0.489273 0.689119 1.1397 -0.0700826 -0.704835 -0.182931 -0.376149 0.249551 -0.936668 0.243261
625 0.925879 0.878261 0.356091 0.945554 0.726742 0.1275 -1.1788 -0.497372 0.30765 -0.345346 -0.623461 0.569819
678 1.01806 1.15283 0.326995 1.22786 0.534179 -0.0107024 -0.785507 -0.416787 0.266498 -0.229354 -0.830139 0.723345
574 1.0062 0.96673 -0.105829 1.16546 0.903331 0.00810978 -0.675431 -0.412674 0.358092 -0.316118 -0.521721 0.543307
597 1.12682 1.42698 -0.11174 0.829742 0.907173 -0.150295 -0.204774 -0.134901 0.62512 -0.139881 -0.764006 0.843918
524 1.16588 0.97439 -0.309897 0.909503 0.970444 -0.0501281 -0.657111 -0.439421 0.311737 -0.219358 -0.56361 0.610032
691 1.21116 0.999206 -0.368088 0.865251 0.533923 -0.0549749 -0.730764 -0.239805 0.207998 -0.102274 -0.753986 0.514562
171 -0.780441 0.316845 -0.307507 0.222967 0.308632 1.53442 -0.243642 -0.605775 -0.000596277 0.0662492 -0.993186 0.546742
182 -0.711697 0.815848 -0.547339 0.330497 0.104674 1.10364 -0.0924315 -0.958935 -0.204115 0.325857 -0.377774 0.887491
205 -0.658425 -0.132352 -0.688729 0.139219 0.216959 1.12856 -0.785374 -0.95284 -0.125475 0.312974 -0.535142 0.802476
29 -0.763891 0.746625 -0.613186 0.233771 0.106109 0.988882 0.117601 -0.942363 -0.233539 0.105648 -0.673591 0.869592
157 -0.623943 0.525426 -0.671207 0.175102 0.512632 1.31023 -0.190647 -0.6775 -0.222545 0.337117 -0.490639 0.842682
294 -0.620004 0.550913 -0.639449 0.200864 0.416173 1.33608 -0.194128 -0.623664 -0.270936 0.396952 -0.590404 0.857858
194 -0.497433 0.331942 -0.771719 0.235965 0.533815 1.32963 -0.306715 -0.829363 -0.199077 0.725564 -0.278159 0.909197
150 -0.688374 0.719911 -0.599779 0.230692 0.340272 1.27126 -0.0147285 -0.822475 -0.0739447 0.227213 -0.495494 0.829937
23 -0.721657 0.532669 -0.824258 0.0375926 0.0524558 1.00751 -0.167222 -0.910702 0.14125 0.282774 -0.454626 0.791615
199 -0.612133 0.546425 -0.663109 0.530572 0.377742 1.32673 -0.463847 -1.08862 -0.510489 0.468239 -0.0618021 0.474104
151 -0.690582 0.640301 -0.682709 0.226879 0.447024 1.2958 -0.171533 -0.669404 -0.222703 0.279703 -0.453029 0.807737
180 -0.560098 0.568718 -0.719778 0.311967 0.358183 1.27577 -0.203381 -0.766273 -0.178244 0.487224 -0.257417 0.819286
272 -0.988302 0.455522 -0.618247 0.377279 0.240951 0.811574 -0.215986 -1.00062 0.0734269 0.264501 -0.278234 0.954703
19 -0.672884 0.582033 -0.586305 0.272465 0.478915 1.34835 -0.0871958 -0.73088 -0.243419 0.24534 -0.578633 0.784584
234 -0.733103 0.721015 -0.65135 0.485942 0.24617 1.11416 0.181007 -0.862764 -0.0627334 0.0400178 -0.248048 0.946739
68 -0.717198 0.582047 -0.615633 0.316384 0.435794 1.30217 -0.118998 -0.683335 -0.188776 0.274447 -0.505566 0.832322
138 -0.673814 0.778159 -0.488487 0.182231 0.0822025 1.30547 -0.165896 -0.870468 -0.106243 -0.0235042 -0.464372 0.89441
206 -0.713973 0.735633 -0.681101 0.263138 0.170858 1.14795 -0.136376 -0.746026 -0.229254 0.216176 -0.448953 0.897532
28 -0.696348 0.557411 -0.63603 0.308001 0.490449 1.26506 -0.187579 -0.743012 -0.327512 0.270033 -0.498249 0.850576
38 -0.725882 0.878376 -0.493225 0.291131 -0.0552578 1.06632 -0.177142 -0.854727 -0.383994 0.0193698 -0.480014 1.14355
57 -0.742348 0.612172 -0.68296 0.263196 0.486006 1.28507 -0.163769 -0.625495 -0.19365 0.27871 -0.420166 0.801603
172 -0.583324 0.429763 -0.493293 0.468069 0.265703 1.15974 -0.0392092 -0.793176 -0.299006 0.588756 -0.630031 1.15817
89 -0.73876 0.362708 -0.578776 0.308674 0.353822 1.10907 -0.226223 -0.67134 0.223389 0.39708 -0.230835 1.08424
65 -0.707102 0.657075 -0.5287 0.197002 0.310846 1.25799 -0.144668 -0.712349 -0.128698 0.186854 -0.609455 0.860023
107 -0.387036 0.541391 -0.621988 0.299879 0.0752401 1.51756 0.109071 -0.795201 0.00851966 0.251146 -0.611722 0.696441
146 -1.05803 0.735144 -0.197175 0.354316 0.0624249 1.11698 -0.268769 -0.955258 -0.0108237 -0.165122 -0.688198 0.551544
211 -0.538885 0.43291 -0.726556 0.633743 0.362315 1.50402 -0.266858 -0.999198 -0.305944 0.532044 -0.0560235 0.420206
203 -0.722515 0.691331 -0.726699 0.524826 0.349862 1.21746 0.19193 -0.926385 -0.264631 0.288175 -0.368839 0.832292
212 -0.75557 0.73551 -0.573494 0.722422 0.345145 1.1866 0.0633755 -0.947975 -0.272618 0.520912 -0.204291 0.513005
47 -0.63231 0.605205 -0.699091 0.234338 0.402234 1.31019 -0.140031 -0.573335 -0.355716 0.229849 -0.546346 0.870331
201 -0.608494 0.275926 -0.573961 0.391446 0.463359 1.31388 0.0242173 -0.617892 -0.0892095 0.528689 -0.63777 0.923092
266 -0.558707 0.867873 -0.445345 0.30996 -0.140689 1.40274 -0.324979 -0.644429 -0.242582 0.408592 -0.344024 0.870696
96 -0.640944 0.592403 -0.474663 0.348327 -0.0636196 1.3403 -0.191371 -0.460783 -0.253387 0.292848 -0.734708 1.03922
207 -0.698265 0.623944 -0.633965 0.169232 0.484009 1.27286 -0.197579 -0.75158 -0.192824 0.205921 -0.45165 0.840125
12 -0.748081 0.541801 -0.429414 0.423353 0.320825 1.4104 -0.240116 -0.421861 -0.242676 0.39866 -0.712308 0.749824
228 -0.595997 1.0787 -0.612644 0.105587 0.0944686 1.43796 -0.160292 -0.543082 -0.181204 0.680398 -0.323835 0.682159
85 -0.671232 0.713912 -0.595776 0.174439 0.354526 1.25325 -0.0227269 -0.695434 -0.1598 0.228397 -0.56559 0.995773
41 -0.547478 0.938154 -0.842647 -0.0251511 0.152137 1.09212 0.0458323 -0.714395 -0.0486743 0.532555 -0.24375 1.10262
193 -0.466494 0.611456 -0.65208 0.203467 0.198112 1.44738 -0.314268 -0.725697 -0.824385 0.505979 -0.855751 0.476689
25 -0.714754 0.738772 -0.540135 0.15907 0.390575 1.30487 -0.168396 -0.636659 -0.150999 0.20135 -0.506023 0.875507
112 -0.670912 0.429798 -0.734652 0.420671 0.287584 1.25917 -0.202943 -0.673399 -0.367076 0.0321722 -0.336046 1.00767
290 -0.467998 0.494652 -0.784121 0.308839 0.0819436 1.31475 -0.232004 -0.852729 -0.0243553 0.366918 -0.0745814 0.955654
1 -0.771196 0.627385 -0.680512 0.1997 0.51725 1.25741 -0.163672 -0.614403 -0.203832 0.154652 -0.469731 0.768595
220 -0.92077 0.715687 -0.505196 0.307707 -0.0436103 0.920745 -0.440337 -0.967707 -0.178204 0.0733742 -0.347921 0.775147
341 -0.730337 0.692178 -1.49475 0.554373 0.0359561 -0.0188458 -1.07462 -0.23723 1.06407 -0.0648045 -1.01406 -0.0580945
359 -0.5911 0.667886 -1.41413 0.224853 0.101259 0.091685 -0.99648 -0.127487 1.36435 0.0322278 -1.12106 0.00796903
315 -0.76364 0.508763 -1.40986 0.539913 0.136569 -0.0688787 -1.03838 -0.15828 0.994592 -0.0429475 -1.20843 0.0789115
345 -0.729699 0.561479 -1.57 0.844545 -0.154275 -0.171105 -0.792871 -0.318963 1.10802 0.192304 -0.907167 0.067825
407 -0.654474 0.426378 -1.38318 0.668403 -0.0154849 -0.154493 -0.981732 -0.655818 1.14983 0.012209 -0.989966 -0.0600529
311 -0.63704 0.493371 -1.43618 0.42558 0.22719 0.0650801 -1.17569 -0.316489 1.24176 0.00910194 -1.03453 -0.0946136
383 -0.691499 0.551061 -1.51677 0.463001 0.13119 -0.0696936 -1.05377 -0.195543 1.05072 0.037604 -1.14074 0.0530808
314 -0.477606 0.625939 -1.40129 0.352925 -0.16961 0.0617075 -1.06093 -0.0302772 1.22943 0.0830658 -1.0633 0.189402
408 -0.642172 0.539047 -1.509 0.463511 0.199202 -0.0567881 -1.16992 -0.0975943 0.931186 0.0251788 -1.14067 -0.0039438
367 -0.722467 0.433056 -1.45164 0.562028 0.240071 0.0196425 -1.01155 -0.286908 1.07473 -0.0519844 -1.10131 -0.0783957
333 -0.403573 0.499996 -1.57687 0.476304 -0.216624 0.153114 -0.855294 -0.437909 1.20657 0.087077 -1.05107 -0.10493
349 -0.820024 0.405618 -1.21604 0.266904 -0.0451319 0.049797 -0.731204 -0.491711 0.692438 0.5656 -1.19937 0.159653
380 -0.476275 0.238603 -1.5752 0.927826 -0.270936 0.0932996 -0.782297 -0.270096 0.948367 -0.0417774 -1.12215 -0.0306638
316 -0.722119 0.562742 -1.34944 0.49438 0.0878794 -0.030767 -1.12175 -0.118157 1.01801 0.101637 -1.17533 0.0278265
452 -0.610915 0.256607 -1.39608 0.812059 -0.0301739 -0.194738 -0.808884 -0.774554 0.935611 -0.0403339 -1.13559 -0.125264
360 -0.597116 0.519347 -1.45143 0.515939 -0.12701 -0.0120248 -1.03509 -0.326148 1.03102 0.170635 -1.11316 0.0702151
324 -0.501937 0.445084 -1.49139 0.619856 -0.245257 0.038876 -0.92734 -0.361258 0.919983 0.0109094 -1.284 -0.0843641
361 -0.574225 0.550686 -1.62228 0.524016 0.104606 -0.024681 -1.09273 -0.33039 1.18603 0.0331485 -0.974985 -0.0317711
417 -0.714439 0.649034 -1.10816 0.287644 0.127877 0.14594 -1.19446 0.0803674 1.15728 0.191221 -1.10367 0.0106431
446 -0.477264 0.528622 -1.48796 0.404402 -0.143504 0.00726695 -1.1474 -0.260181 1.10372 0.175857 -1.01682 0.058554
310 -0.725761 0.545223 -1.49426 0.589255 0.158173 -0.0538416 -1.08149 -0.19573 1.03315 0.0045472 -1.07192 -0.002143
395 -0.669451 0.3412 -1.45383 0.584088 0.177124 -0.16256 -1.11435 -0.369245 0.943825 0.127011 -0.883313 0.0359607
386 -0.546427 0.358478 -1.56239 0.445052 0.0641378 -0.0186098 -1.03126 -0.318318 1.05597 0.0279373 -1.16587 0.0832982
313 -0.741689 0.507341 -1.48905 0.516054 0.141459 -0.0892977 -1.0565 -0.275937 0.923824 -0.0160167 -1.13366 0.0300188
352 -0.712228 0.232813 -1.36296 0.521208 0.0728159 -0.252583 -1.19019 -0.508585 1.06339 -0.0657682 -1.08502 0.350038
317 -0.560536 0.336026 -1.42743 0.368827 0.171251 0.235841 -1.0226 -0.197287 1.31826 0.0612645 -1.13654 -0.0439539
296 -0.690364 0.509485 -1.45538 0.5168 0.097201 0.0214043 -1.06409 -0.255881 0.999887 -0.0779579 -1.14905 -0.0544061
412 -0.709095 0.536517 -1.46962 0.569765 -0.19734 -0.176709 -1.13072 -0.46208 1.14055 0.311064 -0.891574 0.270977
451 -0.478441 0.462075 -1.51202 0.332135 0.00489862 0.0228884 -1.02907 -0.256054 1.24633 0.203803 -1.10644 0.112542
327 -0.719783 0.558822 -1.47609 0.510742 0.123007 0.026685 -1.05378 -0.128783 0.99236 -0.0320494 -1.08754 -0.0192356
432 -0.724703 0.441255 -1.35043 0.716897 -0.0853325 0.074829 -0.851609 -0.203856 1.11628 0.00948826 -1.20508 -0.0149051
319 -0.747029 0.797056 -1.39603 0.535606 0.0875284 -0.159297 -1.00551 -0.173133 0.887028 0.0344157 -0.962178 -0.210359
398 -0.777311 0.627863 -1.31634 0.508005 0.0883843 -0.018925 -1.11257 -0.0134185 1.15391 0.0942851 -1.11913 0.122743
426 -0.65542 0.418323 -1.23137 0.312745 0.172104 0.125356 -1.15025 -0.167438 1.25946 -0.0139302 -1.12953 0.111613
405 -0.691332 0.661196 -1.40267 0.303616 0.0387239 0.0431908 -1.17876 -0.456057 1.24185 0.106288 -0.919699 -0.0777538
388 -0.866392 0.335138 -1.43637 0.649952 0.406778 0.0315315 -0.975371 -0.362108 1.06754 -0.205532 -1.05689 -0.186855
323 -0.598548 0.23338 -1.41183 0.717406 0.241336 0.141372 -0.815633 -0.27265 1.26526 -0.0844015 -1.23233 -0.172733
404 -0.734049 0.477793 -1.3934 0.548035 0.370878 -0.0258513 -1.27074 -0.131855 1.13236 0.272098 -0.787317 -0.0567368
448 -0.605194 0.295504 -1.32371 0.40379 0.234918 0.224309 -1.31934 -0.286307 1.00636 0.14706 -1.24015 -0.275415
389 -0.807636 0.591888 -1.40787 0.462369 0.0748581 -0.0370407 -1.07562 -0.341014 0.947538 0.0847341 -1.04004 0.014883
332 -0.697586 0.592663 -1.53494 0.452546 0.188759 -0.0952723 -1.09003 -0.212594 0.857873 -0.0621969 -1.16116 -0.104581
379 -0.64484 0.577833 -1.38132 0.403896 0.117605 -0.0807961 -0.939009 -0.31604 0.952166 0.0173129 -1.17053 -0.0223879
326 -0.727593 0.422125 -1.22851 0.61001 0.046964 0.0561377 -1.03127 -0.323697 0.916006 -0.0560963 -1.35658 -0.197118
363 -0.692863 0.529974 -1.46408 0.508172 0.116306 -0.0341438 -1.02019 -0.197591 0.865723 0.0346527 -1.21428 -0.0428036
402 -0.657815 0.60294 -1.50998 0.791981 -0.212742 0.0453753 -0.823828 -0.176064 1.27755 0.0361075 -0.969363 0.0341827
399 -0.590193 0.194156 -1.28946 0.721103 -0.0668575 0.0111356 -0.965795 -0.254964 0.942416 -0.122661 -1.47241 -0.0130327
441 -0.623704 0.606263 -1.43435 0.491284 0.164587 -0.0793896 -1.0198 -0.180317 1.00052 -0.0199031 -1.07742 -0.0456472
364 -0.52159 0.548712 -1.39807 0.450829 -0.131815 0.0823892 -1.1125 0.0552998 1.07134 0.214907 -1.15082 0.0788273
351 -0.843229 0.50721 -1.27373 0.51437 0.211689 -0.0851322 -1.2311 -0.159791 1.16441 -0.0178913 -1.09654 0.17523
340 -0.591776 0.623155 -1.17221 0.490115 -0.134665 0.00197873 -1.234 0.0658483 1.10064 0.293839 -1.21198 0.086238
343 -0.662827 0.533214 -1.53769 0.518379 0.103014 -0.0407939 -1.03873 -0.199583 0.966861 0.0263023 -1.11314 0.0141956
301 -0.576493 0.519535 -1.51518 0.293193 0.0911254 -0.124393 -1.03875 -0.451332 0.953944 0.016952 -1.02433 -0.000985105
369 -0.622073 0.559133 -1.45927 0.497446 -0.0947769 -0.0746091 -1.10587 -0.218372 1.02005 0.0329506 -1.20627 0.158203
328 -0.763211 0.5048 -1.47524 0.648154 0.203347 -0.12021 -1.06217 -0.237815 0.942434 -0.0397052 -1.14186 -0.0626254
393 -0.623375 0.345672 -1.29664 0.554012 -0.0532334 0.00283183 -1.23414 -0.45601 0.827304 0.0745412 -1.22276 -0.157233
415 -0.756237 0.364982 -1.46111 0.794245 0.049454 -0.0330398 -0.908081 -0.465801 1.20864 0.124157 -0.767022 0.0428999
322 -0.754421 0.583083 -1.46255 0.604141 0.0953751 -0.0919723 -1.06523 -0.183043 0.97039 0.0119271 -1.1769 -0.0209809
378 -0.511541 0.23478 -1.48488 0.412705 0.157302 0.105985 -1.12453 -0.44233 1.17571 0.0146667 -1.01086 -0.02207
375 -0.834222 0.574884 -1.36524 0.687241 0.0558021 -0.173028 -1.16396 -0.19648 1.04972 0.143874 -1.02219 0.143585
371 -0.708326 0.463898 -1.25766 0.302607 0.262615 -0.0518729 -1.15423 -0.28213 1.16405 0.0118495 -1.15801 0.0248261
423 -0.721267 0.488553 -1.47315 0.497666 0.129114 0.0191205 -1.06957 -0.165512 0.937923 -0.0352306 -1.19038 0.00608857
439 -0.702028 0.505607 -1.22657 0.630424 -0.0785081 0.086317 -1.06973 -0.462877 0.896592 0.0196118 -1.33032 -0.361132
329 -0.728883 0.565447 -1.50466 0.6231 0.0474395 -0.0344179 -1.11681 -0.177849 0.901986 0.0526454 -1.08402 -0.0327634
444 -0.838676 0.553499 -1.04058 0.456777 0.139005 -0.0359552 -1.21822 0.0783136 1.14466 0.109119 -1.16268 0.2178
132 -0.365379 0.465438 -0.482902 0.210365 -0.0961596 1.63014 -0.429686 -0.974103 -0.0524784 0.168719 -0.384785 0.840642
111 -0.512565 0.500869 -0.480982 0.360087 0.103553 1.5656 0.176007 -0.470901 0.178862 0.404743 -0.732781 0.924933
136 -0.710372 0.694035 -0.679995 0.196218 0.281803 1.31947 -0.072819 -0.780342 0.177675 0.129476 -0.121191 0.892023
117 -0.636928 0.812883 -0.863162 0.532966 0.171273 1.35417 0.327178 -0.282618 -0.29311 0.292743 -0.539051 0.671531
259 -0.359364 0.536847 -0.939177 0.347458 0.102646 1.40109 0.232809 -0.84113 -0.0879319 0.348992 -0.325854 1.05532
252 -0.57243 0.481116 -0.591093 0.261387 0.398657 1.43476 -0.0143717 -0.670778 -0.0896095 0.264057 -0.628988 0.961548
178 -0.31476 0.264885 -0.676887 0.20659 0.162301 1.54825 -0.0105894 -0.694855 -0.416041 0.343618 -1.06086 0.968544
134 -0.675717 0.791299 -0.623079 0.417373 0.0626927 1.28077 0.266817 -0.937165 -0.264313 0.00804018 -0.642856 0.693517
166 -0.562247 0.493809 -0.607623 0.309807 0.289846 1.38535 0.131848 -0.424909 -0.329218 0.544019 -0.896137 1.13993
249 -0.817885 0.900226 -0.632294 0.554411 0.333041 1.17995 0.403971 -0.862293 -0.265649 0.416333 -0.493657 0.736801
195 -0.709648 0.723482 -0.396914 0.322495 0.349123 1.37719 0.0341217 -1.06458 -0.00562765 0.482561 -0.431926 0.885368
188 -0.787779 1.06629 -0.58208 0.181584 -0.0220558 1.14028 0.0619725 -0.748487 -0.479212 0.223327 -0.703321 0.978547
60 -0.719122 0.528018 -0.867793 0.123121 0.058669 0.851873 0.0441035 -0.578217 0.0448383 0.296751 -0.622903 1.20051
84 -0.55397 0.8228 -0.669032 0.268128 0.0232815 1.36587 0.0441348 -1.02916 0.0354469 0.256517 -0.229649 0.822329
163 -0.678019 0.673352 -0.723469 0.321693 0.219892 1.23325 -0.226272 -1.02605 -0.123403 0.383159 -0.178955 0.614933
240 -0.489732 0.966778 -0.658446 -0.0998514 -0.0106555 1.3412 -0.386175 -1.02106 -0.418596 0.399647 -0.377716 0.740985
282 -0.680813 0.583765 -0.635058 0.217254 0.405934 1.30933 -0.0906415 -0.699561 -0.115523 0.229245 -0.560865 0.79342
31 -0.756707 0.579065 -0.458318 0.68836 0.428613 1.29013 -0.401222 -1.09154 -0.676173 1.06862 -0.531278 0.448049
78 -0.890241 0.68337 -0.571697 1.01696 0.233764 1.24312 -0.298906 -0.663411 -0.658896 0.738792 -0.308613 0.393433
4 -0.906406 0.61102 -0.473957 0.815602 0.475739 1.29156 -0.347615 -0.440546 -0.724336 0.726533 -0.521171 0.625091
231 -0.468262 0.877142 -0.826604 0.00154018 0.179959 1.29071 -0.0645427 -0.635852 -0.385945 0.740967 -0.509698 0.866378
66 -0.55233 0.589228 -0.782322 0.307921 0.282653 1.36169 -0.105626 -0.386376 -0.508453 0.595014 -0.67008 0.924656
105 -0.64186 0.580318 -0.353093 0.436637 -0.0247305 1.30515 -0.185252 -0.736976 -0.00267193 0.386351 -0.436664 1.14428
36 -0.914882 0.312856 -0.341027 -0.199387 0.160761 1.01585 -0.986154 -0.774976 0.314085 0.240033 -0.49416 0.848616
120 -0.783406 0.558458 -0.432683 0.317501 0.367962 1.22843 -0.463548 -0.616622 -0.116576 0.386176 -0.184667 1.18068
224 -0.826606 0.743016 -0.464508 0.305692 0.158297 1.12904 -0.00668641 -0.630762 -0.354209 0.0358694 -0.707348 0.925042
168 -0.603345 0.425742 -0.548322 0.484305 0.344662 1.41386 -0.0223512 -0.704873 -0.279742 0.628299 -0.63161 0.902692
242 -0.650645 0.88379 -0.499999 0.326757 0.110873 1.21439 -0.273643 -0.822051 -0.223263 0.785901 -0.166361 1.03387
254 -0.603738 0.871316 -0.703138 0.200718 0.0754307 1.07977 -0.0294522 -1.01743 -0.391815 0.490758 -0.447256 0.845701
247 -0.313266 0.632059 -0.696909 0.127422 0.0310499 1.42673 -0.214471 -0.529418 -0.0871088 0.522142 -0.301494 0.997197
133 -0.685774 0.669811 -0.633559 0.188919 0.13072 1.23826 0.11233 -0.895551 0.0186011 -0.219745 -0.499428 0.977751
75 -0.710667 0.904613 -0.487302 0.150339 -0.415223 1.00096 -0.485047 -0.773245 -0.283174 0.402725 -0.558403 0.891642
104 -0.565122 0.690888 -0.587551 0.152212 0.244148 1.47714 0.164206 -0.841297 0.00895858 -0.267103 -0.507706 0.792676
100 -0.665112 0.4675 -0.624078 0.261619 0.39959 1.39645 0.27618 -0.805306 0.0774577 -0.0685339 -0.655981 0.751956
258 -0.615953 0.969544 -0.487612 0.0655268 0.0348697 1.42509 -0.172355 -0.918203 -0.467191 0.159495 -0.737398 0.413451
281 -0.464284 0.627703 -0.736722 0.409463 0.0753269 1.49237 -0.1902 -0.845678 0.108058 0.559765 -0.00198012 0.628932
159 -0.376041 0.347866 -0.57526 0.130573 0.247551 1.58459 0.0664315 -0.539948 -0.282023 0.462253 -1.09165 0.918533
255 -0.773629 0.36333 -0.473651 0.628319 0.490333 1.54348 -0.263377 -0.528137 -0.518259 0.563839 -0.784577 0.528771
9 -0.985074 0.639237 -1.07474 -0.0250987 -0.309836 0.27076 -0.333133 -1.12431 0.249266 0.365726 -0.43478 0.758292
74 -0.700542 0.837511 -0.529288 0.350422 -0.18355 1.19879 -0.21108 -0.837595 -0.00654728 0.332316 -0.367172 1.03744
229 -0.765567 0.715509 -0.598159 0.411196 0.165225 1.11536 0.299567 -0.775419 -0.0173785 0.0803555 -0.522602 0.936457
118 -0.539767 0.928594 -0.458339 0.00692677 0.140294 1.45192 -0.153173 -1.01669 -0.00840295 0.537456 -0.396684 0.805325
664 0.885104 0.982346 0.21068 1.43189 0.755193 -0.177549 -0.584394 -0.276059 0.331918 -0.328897 -0.695697 0.993341
642 1.03139 1.23677 -0.0174475 1.04083 0.998381 0.0766226 -0.635657 -0.268037 0.43896 -0.171845 -0.575529 0.54693
611 0.924176 1.42463 -0.0166478 1.15118 1.03177 -0.0606706 -0.425719 0.106643 0.444429 -0.015904 -0.520912 0.680527
618 0.916571 1.1569 0.335469 1.12869 1.20447 0.127227 -0.902091 -0.489417 0.667504 0.0926782 -0.418796 0.35376
525 1.19899 1.02998 -0.0779499 1.00862 0.559151 0.11126 -1.01516 -0.439203 0.157481 -0.163769 -0.595508 0.503587
496 1.18459 1.0869 -0.159023 1.02252 0.88243 0.0261208 -0.635474 -0.460777 0.29546 -0.0938395 -0.60473 0.555488
703 1.15846 1.03154 -0.262436 0.946646 0.985602 -0.0559871 -0.595803 -0.493469 0.274873 -0.157168 -0.643349 0.545348
512 1.19871 1.38148 -0.0191082 1.01333 0.899492 0.254473 -0.574388 -0.342725 0.303364 0.0632693 -0.784371 -0.0576632
694 1.12169 1.03048 -0.16371 0.910711 0.818709 -0.0311822 -0.770094 -0.439204 0.399557 -0.238382 -0.623212 0.524829
646 1.41039 1.23297 -0.535441 0.680963 0.713125 0.122445 -0.799616 -0.309041 -0.193145 -0.0677877 -0.766783 0.108681
507 1.12557 1.05174 0.387944 0.986282 0.722648 0.189683 -0.679325 -0.609071 0.418022 -0.249885 -1.20114 0.310246
679 1.15059 1.33182 0.168727 0.818652 0.966625 0.174029 -0.497763 -0.0568459 0.527585 0.11041 -0.83614 0.6113
461 1.14316 1.4577 0.0175519 0.729208 0.776851 -0.0866487 -0.706406 -0.460962 0.260317 -0.149983 -0.75421 0.544976
590 1.11172 1.25235 -0.45265 0.969539 1.16799 -0.187961 -0.489819 -0.115627 0.0673084 -0.128821 -0.543155 0.690205
688 1.11584 0.920756 -0.103799 1.08528 0.700643 0.0669763 -0.671084 -0.490848 0.44108 -0.275224 -0.680395 0.512108
652 0.962265 1.1511 0.0446247 1.06139 1.02056 -0.179307 -0.415029 -0.292378 0.522815 -0.167689 -0.744578 0.798403
454 0.845306 1.25853 -0.0392174 1.05605 0.848528 -0.201052 -0.791621 -0.382191 0.327533 -0.226206 -0.420733 0.635461
658 1.00004 1.22803 -0.0237689 1.15665 1.11683 0.0250994 -0.338786 -0.224648 0.587536 -0.0392805 -0.614444 0.532364
500 1.23725 1.03979 -0.164706 0.991701 1.25726 0.216796 -0.45876 -0.481336 0.566812 -0.25463 -0.586147 0.214903
469 1.2242 1.44156 -0.17414 1.01297 0.900723 0.168923 -0.425983 -0.250161 0.431891 -0.160041 -0.582296 0.261287
471 1.14613 1.05135 -0.255192 1.03216 1.07727 -0.00357463 -0.560295 -0.385415 0.265309 -0.150686 -0.597419 0.545211
584 1.15542 1.18177 -0.405856 0.969208 1.03923 -0.225713 -0.225613 -0.0361655 -0.106842 0.106117 -1.10444 0.519601
540 1.10385 1.3356 -0.0310716 0.952091 1.00141 -0.13551 -0.353388 -0.0783596 0.484702 0.269062 -0.717142 0.840674
657 1.13026 1.26489 -0.191385 0.983964 1.00941 0.0615482 -0.374535 -0.273683 0.44575 -0.160078 -0.618788 0.505962
571 1.13301 1.0078 -0.160667 1.23599 0.30498 0.0465065 -0.879509 -0.507525 0.184418 -0.00356394 -0.404227 0.275327
595 1.17114 1.47338 -0.0763232 0.929917 0.897392 0.268697 -0.438573 -0.144673 0.360423 -0.427314 -0.651362 0.298794
641 1.08653 1.10006 -0.194641 1.08104 0.498342 0.0588795 -0.843751 -0.238951 0.194748 -0.400574 -0.590026 0.470132
666 1.03208 0.966826 0.00552036 1.0707 0.596957 0.0380728 -0.750974 -0.132431 0.265291 -0.385575 -0.726002 0.724268
608 0.995982 1.29059 0.12179 1.0677 0.877098 -0.14587 -0.624821 -0.235285 0.507292 -0.100796 -0.552459 0.8798
639 1.20795 1.01558 -0.265355 0.991955 0.940363 0.0171831 -0.655955 -0.481406 0.251458 -0.132876 -0.627806 0.508103
633 1.16447 1.00429 -0.322009 0.915842 1.0184 0.00221137 -0.661334 -0.386872 0.242128 -0.1604 -0.612365 0.447153
699 1.17552 1.18338 -0.432432 1.01074 1.25115 -0.123175 -0.681073 0.051931 -0.470724 0.512393 -0.950796 0.313338
177 -0.837126 0.829619 -0.200868 0.26355 0.00706356 1.25245 -0.0763496 -0.962687 -0.307885 -0.102174 -0.991786 0.658875
245 -0.551603 0.517485 -0.872526 0.331324 0.174527 1.07713 -0.167596 -0.870287 -0.134825 0.32072 -0.0509106 1.1289
55 -0.432871 0.468447 -0.598658 0.162158 -0.0911454 1.21445 -0.119375 -0.876332 -0.0655617 0.605967 -0.719618 1.26467
131 -0.680108 0.579449 -0.56735 0.346316 0.231792 1.26149 -0.0902263 -0.699249 0.0900544 0.305892 -0.287484 1.2366
13 -0.894035 0.971284 -0.504363 0.0886473 0.260602 0.954757 -0.0821532 -0.965473 -0.229609 0.0250675 -0.418298 0.947566
221 -0.772008 0.601907 -0.723217 0.585403 0.273538 0.918547 -0.0883691 -0.860765 -0.313294 0.0680974 -0.0274094 0.941618
135 -0.786007 0.876356 -0.421368 0.376335 0.186989 1.4374 0.0779142 -0.645358 -0.0603287 0.29587 -0.597773 0.672524
122 -1.16875 0.604852 -0.620202 0.552931 0.135443 0.832152 -0.234306 -0.868969 0.0569143 0.167945 -0.180863 0.960947
44 -0.687632 0.55988 -0.450093 0.595098 -0.0457088 1.17567 0.312164 -0.811588 -0.0466131 0.025526 -0.801681 0.934209
293 -0.683288 0.620358 -0.556964 0.197574 0.582781 1.36596 -0.281433 -0.519762 -0.0333069 0.608901 -0.118363 1.24716
33 -0.973501 0.655289 -0.651466 0.153087 0.124945 0.718946 -0.0713965 -0.73809 0.134191 0.135905 -0.382524 1.32789
34 -0.940772 0.458592 -0.657195 0.847421 0.565642 1.03007 -0.254708 -0.882196 -0.683241 0.612793 -0.252076 0.849558
101 -0.571037 0.617993 -0.481135 -0.0389343 0.287575 1.41229 -0.441671 -0.746165 0.115271 0.168014 -0.177399 0.863577
508 1.24672 1.16881 -0.293112 0.925238 0.570863 0.315339 -0.556401 -0.212574 0.223077 -0.572682 -0.616141 0.207969
370 -0.422416 0.335836 -1.58406 0.464292 -0.152829 -0.153421 -1.2493 -0.521249 0.794766 0.0187062 -1.27047 -0.0146893
391 -0.921018 0.359279 -1.15827 0.497155 0.339505 -0.221411 -1.33334 -0.349527 0.901985 -0.0555428 -0.979554 0.151
377 -0.531107 0.221986 -1.45467 0.351263 0.0581183 0.00021922 -1.09339 -0.162733 0.956094 -0.102334 -1.45436 0.169218
385 -0.806215 0.426119 -1.33569 0.829695 0.0187543 -0.105831 -1.15401 -0.481553 0.881858 0.103957 -0.963342 -0.171776
418 -0.730184 0.470879 -1.108 0.496476 -0.0116287 -0.0704002 -1.2986 -0.290927 1.13825 -0.00416042 -1.13654 0.110592
397 -0.659345 0.818505 -1.44424 0.660218 -0.131993 0.0672322 -0.973198 -0.0960825 1.2065 0.138031 -0.947655 -0.22122
320 -0.630081 0.574845 -1.43758 0.479936 0.0673209 -0.00202182 -1.03519 -0.224077 0.986593 0.0239569 -1.17031 -0.0680123
414 -0.789278 0.31275 -1.14468 0.68245 0.261029 -0.0140514 -1.03051 0.0482978 1.2675 0.121627 -1.03791 0.266378
435 -0.711968 0.51646 -1.32068 0.616764 -0.0587036 0.0745939 -1.15774 -0.0700521 0.963179 0.0520827 -1.16404 -5.64864e-05
411 -0.536513 0.379652 -1.46889 0.509646 -0.104616 -0.0803189 -1.07951 -0.23484 1.00559 0.153808 -1.03059 0.195909
339 -0.659796 0.498357 -1.41008 0.880303 -0.180518 -0.00459151 -0.92627 -0.210581 0.925942 0.100097 -1.12348 -0.108114
354 -0.713546 0.713784 -1.20401 0.444618 0.0899915 0.131797 -0.948755 -0.0536992 1.21929 0.0588894 -1.12432 -0.197729
344 -0.691224 0.370283 -1.2908 0.454959 0.253893 0.0879658 -1.24065 -0.230041 1.09785 0.082607 -1.01822 -0.0831372
434 -0.728164 0.304992 -1.38714 0.473332 0.19906 -0.0755421 -0.9875 -0.347953 0.998599 -0.303123 -1.20261 0.080136
348 -0.753227 0.340046 -1.48259 0.657116 0.0849441 -0.254695 -0.96348 -0.214187 0.925688 -0.0354551 -1.21278 0.228931
394 -0.674451 0.308547 -1.25946 0.662863 -0.0497121 0.113744 -1.00909 -0.316229 1.11999 -0.036077 -1.21415 -0.0100471
422 -0.551674 0.451488 -1.32913 0.598261 -0.144663 0.133182 -1.1606 0.0100335 0.934617 0.154975 -1.27082 -0.0846592
277 -0.610324 0.641543 -0.697874 0.450198 0.08146 1.38632 0.135041 -0.218305 -0.262419 0.40775 -0.770109 0.661124
238 -0.48855 0.741834 -0.508077 0.0792808 0.180353 1.5801 -0.331488 -0.545373 0.174367 0.616708 -0.203764 0.93653
161 -0.539242 0.645274 -0.528079 0.313226 0.0920197 1.5273 -0.0490934 -0.832279 -0.0269146 0.115934 -0.550864 0.65467
235 -0.976655 0.832526 -0.468929 0.171127 -0.142339 1.0124 -0.499028 -1.01849 -0.108055 0.0203447 -0.390316 0.636941
49 -0.683874 0.621411 -0.677011 0.205017 0.458719 1.2618 -0.164914 -0.637569 -0.223619 0.345119 -0.498826 0.811244
143 -0.74705 0.408509 -0.526816 0.44453 0.232261 1.11045 -0.41592 -0.873795 -0.294526 0.18519 -0.273225 0.93451
145 -0.785291 0.641887 -0.511415 0.559403 0.124717 1.18162 -0.107549 -0.998247 -0.224957 0.0571949 -0.289224 0.851435
52 -0.742909 0.767635 -0.36941 0.537898 -0.11451 1.16968 -0.237706 -0.609629 -0.309342 0.371981 -0.525501 1.091
198 -0.91458 0.0504921 -0.578936 0.21798 0.360109 1.0551 0.0425134 -0.718893 0.29774 -0.0360463 -0.957431 0.853606
190 -0.59492 0.132275 -0.742479 0.579668 0.295938 1.1784 -0.180838 -0.874173 -0.295851 0.297889 -0.392672 1.03549
64 -0.843182 0.298364 -0.591993 0.38814 -0.102865 0.866891 -0.282659 -0.8725 0.336302 0.300942 -0.487398 0.879093
580 0.808515 0.699097 -0.00762546 1.27467 0.948227 0.148935 -0.608717 -0.217246 0.729114 -0.402994 -0.633563 0.103308
421 -0.379709 0.318097 -1.48176 0.40624 -0.204561 0.194922 -1.09329 -0.123491 0.975302 0.100835 -1.36993 -0.00472868
424 -0.789263 0.366388 -1.29288 0.918098 -0.103517 -0.135352 -0.869826 -0.12353 0.973746 0.0138567 -1.2922 0.140541
303 -0.627017 0.407325 -1.46611 0.759022 0.0634357 -0.0325271 -0.970559 -0.316821 1.12829 0.108069 -1.04102 -0.036696
300 -0.710095 0.199148 -1.47343 0.648796 0.098042 -0.138379 -1.03957 -0.324804 0.956134 -0.0684068 -1.25687 0.201879
309 -0.798379 0.546528 -1.40267 0.795996 -0.118885 -0.256461 -0.806127 -0.284047 0.948956 -0.129726 -1.16172 0.155373
436 -0.647342 0.634145 -1.15887 0.104133 -0.0984122 0.10006 -1.33254 -0.289953 1.14422 -0.0243217 -1.152 0.0723794
382 -0.578968 0.433769 -1.27404 0.389336 0.162809 0.12705 -1.25574 -0.201338 1.23866 0.166599 -1.22711 -0.117571
302 -0.659107 0.406805 -1.51559 0.770109 -0.0251462 -0.141426 -1.09596 -0.394849 0.910197 0.185327 -0.916927 -0.0160276
433 -0.767682 0.453574 -1.09221 0.51857 0.0418438 0.0365845 -1.2813 -0.102849 0.992335 0.0313458 -1.23368 0.0644303
334 -0.782068 0.478442 -1.37221 0.645738 0.0447425 -0.243375 -1.08605 -0.0845018 1.13527 0.0516791 -1.01511 0.40194
438 -0.768181 0.204012 -1.28954 0.513955 0.200816 -0.167051 -1.02771 -0.208217 0.993004 -0.0704104 -1.27648 0.353083
381 -0.555385 0.140392 -1.4898 0.651171 0.0894333 -0.0740166 -1.08273 -0.50773 1.06587 0.0772765 -1.12957 0.0411126
477 1.17848 0.992183 -0.27807 0.904106 0.915378 -0.0762514 -0.697001 -0.346907 0.238166 -0.108331 -0.711566 0.633456
606 0.839419 0.8485 0.140416 1.39868 0.747722 0.089616 -0.448704 -0.275876 0.405345 -0.423509 -0.885787 0.329274
550 1.24028 1.31655 -0.129459 1.13177 0.615595 -0.0612464 -0.327053 -0.0869509 0.514075 -0.119519 -0.671242 0.898632
672 1.18815 0.956816 -0.234825 0.558641 0.599253 0.249735 -0.88852 -0.177007 0.505533 -0.100334 -0.919782 -0.158853
628 1.11958 1.02618 -0.179913 0.952092 1.12076 -0.0843438 -0.548126 -0.451807 0.362853 -0.0960348 -0.585655 0.630864
620 1.0234 0.849337 0.143196 1.10253 0.597642 0.120931 -0.992688 -0.420064 0.31607 -0.119449 -0.613041 0.570105
674 0.552597 1.17802 0.310015 1.09393 0.53742 -0.256538 -0.845845 -0.417563 0.163712 -0.516478 -0.596241 0.687312
501 1.46113 0.925561 -0.271763 0.914123 0.396549 0.400747 -0.731391 -0.193832 0.301811 -0.287087 -0.642737 0.451454
542 0.781227 1.25355 0.111317 1.24409 0.533334 -0.130031 -0.297768 -0.290623 0.417946 -0.332461 -0.961904 0.380177
560 1.26964 1.31401 -0.426632 0.79112 0.697778 0.0289233 -0.655131 -0.191579 -0.0624477 -0.115086 -0.663177 0.422486
640 1.18204 1.23692 -0.454313 0.944547 1.0769 -0.159199 -0.48941 -0.115002 -0.387821 0.0963856 -0.936454 0.427572
521 1.34836 1.14765 -0.469523 0.84369 0.993081 -0.0941775 -0.636372 -0.221224 -0.339803 0.413171 -0.994378 0.291782
502 1.13997 1.06709 -0.226595 0.946566 0.971333 -0.0092548 -0.600299 -0.438528 0.290505 -0.271504 -0.614813 0.573716
457 1.26096 1.29504 -0.433902 0.743336 1.07142 -0.0822701 -0.527479 -0.0606126 -0.194968 0.031981 -0.917324 0.511116
570 1.0392 0.829584 0.0353911 1.11505 0.36397 -0.0239671 -0.878141 -0.631322 0.331504 -0.0812362 -0.518526 0.558112
479 1.20578 1.01294 0.0300413 0.98747 1.08379 0.27607 -0.314637 -0.330632 0.651767 -0.307262 -0.875787 0.39228
615 1.06369 0.836804 0.187707 1.4555 0.456847 0.13185 -1.036 -0.319908 0.253368 0.048926 -0.628964 0.470974
689 1.10472 1.25392 -0.17577 0.966742 0.969312 0.128236 -0.407381 -0.33942 0.446267 -0.275178 -0.601001 0.353004
702 1.13098 1.34025 -0.448965 0.854841 1.18082 -0.185209 -0.464651 -0.133587 -0.197853 0.161673 -0.785527 0.376227
581 1.29477 1.14868 -0.678238 0.810496 1.33151 -0.242982 -0.296594 0.0148937 -0.233448 0.300274 -1.01466 0.501951
687 1.1639 1.31416 -0.605853 0.954171 1.24125 -0.206882 -0.403527 -0.20154 -0.418853 0.175144 -0.748525 0.269622
632 1.23102 1.22742 -0.504472 0.936845 0.954169 -0.24261 -0.551845 -0.269937 -0.161746 0.138948 -0.778784 0.502172
491 1.21397 1.20496 -0.0471334 1.03606 0.617682 0.0323792 -1.10759 -0.264326 0.146095 0.00193072 -0.394856 0.67384
478 1.10562 1.22425 0.342509 0.927884 0.810895 0.156448 -1.04216 -0.32963 0.401749 0.169884 -0.670776 0.511716
696 1.09845 1.35406 -0.2642 0.671996 1.30045 -0.015597 -0.517412 -0.385067 0.100488 -0.0257647 -0.727251 0.109694
63 -0.647839 0.705149 -0.731164 0.280209 0.189919 1.16726 -0.0941213 -0.732101 -0.274333 0.279637 -0.343935 1.02625
227 -0.681782 0.832269 -0.689287 0.44823 0.0653538 1.11485 0.297246 -0.863269 -0.328121 0.0930403 -0.609485 0.773226
115 -0.9789 0.865979 -0.538086 0.563477 0.256357 1.1969 0.159708 -0.558702 0.139651 0.200044 -0.168427 0.994135
202 -0.720405 0.195058 -0.506738 0.379752 0.399588 1.25439 -0.0941776 -0.762175 -0.13079 -0.0112702 -0.647383 1.19868
61 -0.389701 0.320376 -0.561079 -0.0496775 0.143196 1.30656 -0.319014 -0.8763 -0.0306797 0.227072 -0.559068 1.3211
274 -0.619293 0.516555 -0.566515 0.343696 0.204762 1.30019 -0.0318078 -0.843778 0.105663 0.395096 -0.491627 0.955474
99 -0.56605 0.247872 -0.381566 0.20305 0.574491 1.57837 -0.366868 -0.352648 -0.26756 0.346069 -0.71342 0.83266
276 -0.592297 0.363847 -0.579363 0.783467 -0.0287215 1.34409 0.239419 -0.533013 -0.125592 0.414127 -0.761582 0.909801
264 -0.869944 0.806019 -0.752597 0.593064 0.252512 1.12233 0.243845 -0.487632 -0.206637 0.293615 -0.28754 0.995423
59 -0.848657 0.452201 -0.558665 0.874326 0.411958 1.16464 -0.404646 -0.856224 -0.579436 0.611755 -0.27424 0.47677
50 -0.802605 0.711051 -0.55668 0.856464 0.445475 1.42402 -0.196243 -0.549433 -0.780417 0.780651 -0.470928 0.469957
54 -0.726597 0.634134 -0.75724 0.388998 0.454171 1.22998 -0.24029 -0.653984 -0.646648 0.546663 -0.524492 0.793007
214 -0.899507 0.859384 -0.543153 0.414597 0.15124 0.964991 -0.0183709 -0.709133 -0.312868 0.00649622 -0.372931 1.08544
213 -1.12918 0.99102 -0.459561 0.335646 0.155969 1.08467 -0.208881 -0.299596 0.24367 0.364145 -0.188877 0.914545
20 -0.505164 0.323851 -0.666934 0.404988 0.244098 1.33416 0.245746 -0.703849 -0.160954 0.535293 -0.884679 1.03963
167 -0.589871 0.433468 -0.590261 0.471546 0.230169 1.14425 0.215755 -0.827247 -0.209417 0.284904 -0.647001 1.2406
46 -0.686533 0.235404 -0.561463 0.35545 -0.0186484 0.753621 -0.0408521 -0.694219 0.310205 0.436819 -0.587537 1.25278
102 -0.751361 0.877448 -0.584034 0.26747 0.258299 1.25956 -0.0549085 -0.614112 -0.0234347 0.267865 -0.196369 0.916346
153 -0.610454 0.135989 -0.665632 0.558205 0.569845 1.49301 -0.176218 -0.902734 -0.307323 0.285626 -0.520658 0.541971
127 -0.37742 0.623683 -0.828214 0.280121 -0.0722626 1.40004 0.18277 -0.986305 -0.109578 0.219427 -0.57606 0.683598
192 -0.485309 0.959411 -0.647576 0.216916 -0.023949 1.50736 0.130235 -0.606003 -0.366478 0.358163 -0.725398 0.708338
287 -0.874819 0.676864 -0.632504 0.254589 0.238681 1.06066 -0.0151646 -0.403426 -0.480495 -0.0571942 -0.752615 1.11135
82 -0.896479 0.758726 -0.471602 0.726797 0.363662 1.14043 0.356208 -0.380926 0.0685268 0.235376 -0.346466 0.970434
241 -0.656782 0.552682 -0.746884 0.164946 0.388392 1.02273 -0.240705 -0.786991 -0.637691 0.679685 -0.568687 1.17135
39 -0.759727 0.533576 -0.479071 0.533557 0.52841 1.26953 -0.367807 -0.770828 -0.356632 0.895921 -0.423215 0.627518
529 1.05285 1.03219 -0.181458 0.980032 0.896528 -0.046635 -0.747079 -0.492256 0.323826 -0.229045 -0.520582 0.517384
480 1.06932 1.57438 0.136811 0.94551 0.88509 0.0253773 -0.30884 -0.552713 0.534694 -0.16874 -0.819534 0.254699
649 1.26724 1.31921 -0.340262 0.792383 1.19754 0.0930087 -0.605161 -0.421687 -0.137132 0.177785 -0.783659 -0.0422536
654 1.25181 1.10494 -0.409509 1.24782 0.683328 -0.102581 -0.545347 0.0166625 0.120979 -0.0192233 -0.520506 0.864516
635 0.810721 0.902528 0.259752 1.45916 0.655277 -0.0598015 -0.645111 -0.244414 0.222152 -0.234605 -0.809583 0.698188
607 0.822565 1.07274 0.107909 0.70129 0.561168 -0.0803244 -1.29522 -0.200929 0.292659 -0.442527 -0.671139 0.460795
634 0.798676 1.19531 0.173498 1.0062 0.689678 -0.0916507 -0.856235 -0.56162 0.133887 -0.496463 -0.568479 0.460588
599 1.1161 1.37195 -0.15793 0.725199 1.19686 0.0658821 -0.427841 -0.264378 0.441697 -0.264571 -0.65066 0.305357
493 1.09695 1.09822 -0.0585042 0.995206 0.949579 0.114191 -0.653424 -0.4258 0.434649 -0.238332 -0.594506 0.463499
482 1.4118 1.1873 -0.455988 0.751209 0.221108 0.144987 -0.510169 -0.219744 0.283209 -0.438769 -0.718368 0.515705
549 0.906286 0.964873 0.0268324 1.0077 0.347188 -0.185174 -0.938426 -0.607007 0.455786 -0.1955 -0.696087 0.386054
596 1.1177 1.33825 0.0840978 0.853592 0.822288 0.145604 -0.687233 -0.184624 0.603265 -0.0612231 -0.607774 0.471255
612 1.01307 1.40831 -0.0777913 1.15988 1.11749 0.235443 -0.298799 -0.155417 0.565647 -0.379808 -0.438189 0.301756
481 1.53491 1.17492 -0.389903 1.02007 0.752197 0.180341 -0.206354 -0.553813 0.379666 0.20353 -0.700073 0.294583
559 0.721349 1.18812 0.166723 1.36193 0.622328 -0.309234 -0.532297 -0.296051 0.278825 -0.304848 -0.667301 0.810165
497 1.14976 1.01814 0.0153915 1.03313 0.51362 0.178971 -0.836822 -0.323381 0.478287 -0.113625 -0.686044 0.415727
614 0.951329 1.12367 0.268854 1.11468 0.664972 0.0708478 -0.866704 -0.452687 0.388921 -0.275024 -0.762836 0.501522
373 -0.899496 0.338398 -1.11029 0.580842 0.30546 -0.2733 -1.23092 -0.404401 0.857353 -0.129339 -1.26787 0.0532988
409 -0.636465 0.562745 -1.37734 0.526509 -0.0698674 -0.0420786 -1.33186 -0.103119 0.898464 0.114149 -1.06931 -0.0342134
675 1.07449 0.649108 -0.0531008 1.13877 0.440829 0.231151 -0.805368 -0.319541 0.4469 -0.383815 -1.00644 0.0617709
648 1.16047 0.965786 -0.0249505 1.18558 0.274352 0.306313 -0.668319 -0.38015 0.263152 -0.641134 -0.707025 0.481282
673 1.23149 1.16304 -0.324127 1.24709 0.454464 -0.289419 -0.508268 -0.254001 0.433593 -0.0186449 -0.427158 1.0635
665 0.971182 0.914502 0.427969 1.05475 1.14116 0.314065 -1.07602 -0.490865 0.426871 -0.25298 -0.652821 0.343304
523 1.07262 1.01446 -0.222361 1.13886 0.948787 -0.0291366 -0.589544 -0.470126 0.272488 -0.28115 -0.552883 0.49878
533 1.05497 1.29124 0.167414 1.17641 0.909423 0.0668379 -0.383067 -0.598325 0.399889 -0.185553 -0.819168 0.232004
510 1.31978 1.5056 -0.172645 0.703364 0.870264 0.302928 -0.734198 -0.601525 0.481613 -0.0674882 -0.275439 0.076833
627 1.13754 1.0488 -0.201704 0.9783 0.945171 -0.0262003 -0.68632 -0.511461 0.242369 -0.189641 -0.574332 0.536
505 1.12586 1.00296 -0.105492 1.02298 0.419555 0.0901839 -0.767199 -0.500365 0.138745 -0.16867 -0.610922 0.354944
460 1.12598 1.0698 -0.207899 1.01587 0.94667 0.00963083 -0.623159 -0.466424 0.203309 -0.236713 -0.591831 0.482405
592 0.955542 1.34206 0.068257 1.07767 1.02548 -0.01927 -0.706635 -0.729249 0.435273 -0.232904 -0.384709 0.196211
671 1.03719 0.993271 0.137345 1.21346 1.05702 0.223015 -0.648925 -0.316138 0.645385 -0.214482 -0.546686 0.510131
683 1.18664 1.2952 -0.516933 0.778471 1.05258 -0.259917 -0.676073 -0.0303539 -0.343701 0.0177732 -0.754919 0.671343
700 1.29865 1.20091 -0.603514 0.863137 1.01489 -0.092151 -0.619843 -0.168466 -0.299509 0.243381 -0.776903 0.353445
631 1.13877 0.94915 -0.0475297 0.886113 0.688771 0.218532 -0.980263 -0.127473 0.229271 -0.293257 -0.577793 0.558981
467 1.01447 1.45804 0.226339 1.06208 0.753008 0.0945909 -0.859573 -0.216969 0.304945 0.18669 -0.61811 0.431794
637 0.905604 1.04538 0.118581 1.13075 0.398547 -0.101494 -0.835583 -0.539119 0.222373 -0.389412 -0.647462 0.660695
536 1.60751 0.816577 -0.389699 1.08151 0.439588 0.324922 -0.561119 0.0452225 0.393727 -0.136685 -0.754686 0.823151
669 1.05782 1.34471 -0.142321 1.23509 0.922323 0.0476395 -0.263366 -0.159926 0.456197 -0.217445 -0.570607 0.507991
535 1.04266 1.57989 0.00127023 1.17178 0.558777 -0.214335 -0.406446 -0.156757 0.302226 0.0113626 -0.623852 0.820034
629 1.13443 1.27161 -0.373731 0.912039 1.31327 -0.0730257 -0.260317 0.0038122 -0.059012 -0.114521 -0.933985 0.373979
647 1.32939 1.09744 -0.484662 0.745173 0.944832 0.0294284 -0.642199 -0.11569 -0.0769168 -0.246798 -0.889247 0.474678
650 1.21245 1.11522 -0.691307 1.00215 1.3084 -0.162098 -0.649208 -0.0642871 -0.476462 0.325711 -0.655907 0.341834
572 1.33171 1.23646 -0.723981 0.746147 1.19378 -0.159323 -0.64917 0.00392438 -0.46947 0.299077 -0.813806 0.459071
437 -0.634269 0.505693 -1.45178 0.326391 0.0601096 -0.163215 -1.07752 -0.225166 1.15385 -0.0842266 -1.01306 0.31391
447 -0.638172 0.381692 -1.4045 0.408427 0.193025 0.00786572 -1.32841 -0.336603 0.956261 0.139823 -1.10089 -0.116178
312 -0.603182 0.509795 -1.30133 0.224004 0.157961 0.131973 -1.2435 -0.055107 1.1731 0.216865 -1.03177 0.057232
431 -0.626124 0.407081 -1.25918 0.577827 0.151969 0.147371 -1.18054 -0.394032 1.23766 -0.130621 -1.03212 -0.232506
390 -0.557611 0.466771 -1.29568 0.180175 0.201698 0.159459 -1.31913 -0.268176 1.0739 0.180362 -1.05775 -0.168148
335 -0.648769 0.710954 -1.40611 0.409591 0.013946 -0.0976592 -1.22877 -0.00449353 1.09892 0.257486 -0.899519 0.139543
374 -0.741422 0.461345 -1.2714 0.488682 -0.0719707 -0.267006 -1.18185 -0.443722 1.14063 -0.0983035 -1.00277 0.356052
372 -0.615502 0.394194 -1.28733 0.564645 0.0984669 0.154952 -1.02137 0.00137391 1.35393 0.103201 -0.951265 0.14019
304 -0.663714 0.345329 -1.36353 0.740119 -0.119745 0.025327 -1.0739 -0.0373215 0.982343 0.242452 -1.10026 0.135187
442 -0.748697 0.413024 -1.32833 0.636162 0.188983 0.161921 -1.00115 -0.118083 0.971287 0.091949 -1.2483 -0.266702
430 -0.765993 0.545946 -1.2322 0.363403 0.183959 0.258131 -1.13713 -0.348838 1.1147 -0.0956839 -1.09535 -0.361286
396 -0.769957 0.446225 -1.28899 0.762727 0.0410837 -0.0865369 -1.32016 -0.436182 0.786595 0.0962785 -0.971319 -0.245705
210 -0.4444 0.349139 -0.833878 0.51005 0.414223 1.39698 -0.350776 -1.05286 -0.32341 0.594624 -0.0490239 0.349833
286 -0.804517 0.349908 -0.308697 0.528668 0.292828 1.20029 -0.0310849 -0.880553 0.0207275 -0.230254 -0.537581 0.98103
128 -0.545174 0.258589 -0.449909 0.319374 0.297626 1.55797 -0.342361 -0.524931 0.116165 0.345873 -0.397757 0.943986
269 -0.379643 0.577051 -0.593027 0.10478 0.0297993 1.36058 -0.227781 -0.940138 -0.104561 0.331492 -0.440474 0.75957
97 -0.731012 0.683495 -0.648506 0.496606 0.233055 1.07684 -0.162781 -1.09772 0.0543077 0.471117 0.116662 0.858331
183 -0.680107 0.580912 -0.429516 0.236876 0.238035 1.36182 -0.15047 -0.889158 -0.0243617 0.23428 -0.55005 0.681549
261 -0.509977 0.184625 -0.71855 0.128732 0.451066 1.15867 -0.366318 -1.06961 -0.357512 0.149839 -0.36816 1.03205
217 -0.532177 0.421112 -0.483985 0.287412 0.0792468 1.44013 -0.25924 -0.934806 0.131043 0.325563 -0.41966 0.824632
244 -0.534258 0.432652 -0.722953 0.516808 0.456574 1.41464 -0.0656342 -1.11864 -0.278637 0.693683 -0.270801 0.589432
209 -0.646664 0.743196 -0.712044 0.298659 -0.0216603 1.27968 -0.174298 -0.622603 -0.53911 0.11352 -0.615104 0.816215
222 -0.765443 0.733033 -0.692698 0.507918 0.130784 1.15349 -0.00173454 -0.762621 -0.18674 0.288318 -0.208888 0.907193
191 -0.733785 0.294888 -0.664654 0.825084 0.54369 1.53531 -0.074528 -0.571022 -0.522232 0.345495 -0.585419 0.390271
21 -0.666378 0.714067 -0.609864 0.289825 0.0310463 1.02463 -0.116888 -0.927797 -0.120531 0.198442 -0.354813 1.08516
237 -0.6369 0.813559 -0.713579 0.121237 0.266562 1.15253 -0.165985 -0.675871 -0.456762 0.583148 -0.368867 1.0689
279 -0.733257 0.322547 -0.547075 0.443613 0.264577 1.22603 0.0904744 -0.493476 -0.243337 0.070673 -0.869294 1.17607
144 -0.822953 0.765219 -0.455727 0.2161 0.16018 1.02953 -0.119339 -0.867654 -0.560696 -0.276188 -0.743017 0.922252
392 -0.67791 0.6028 -1.44353 0.489053 0.0259505 -0.0214764 -1.06971 -0.415535 0.943549 -0.0588094 -1.18539 -0.245423
401 -0.595421 0.293794 -1.53877 0.876276 0.0127142 -0.105261 -0.999493 -0.481508 0.930205 0.0814002 -1.00263 -0.12314
174 -0.555108 0.434986 -0.876841 0.28016 0.37002 1.10277 0.185103 -0.966794 -0.317462 0.442342 -0.536735 1.1616
81 -0.942466 0.860207 -0.49165 0.306703 0.535922 1.15644 -0.173719 -0.689988 0.285297 0.48397 0.149239 1.00055
271 -0.795727 0.494841 -0.16855 0.485328 0.193615 1.44815 -0.5108 -0.712892 -0.199286 0.457122 -0.556605 0.721241
175 -0.629825 0.465734 -0.290196 0.244338 0.25567 1.55515 0.0118042 -0.632282 -0.113211 0.100339 -1.021 0.669105
108 -0.615115 0.743471 -0.364026 0.0931604 -0.00884939 1.31141 -0.36748 -0.804391 -0.0535915 0.214778 -0.390959 1.11255
164 -0.509769 0.587709 -0.622034 0.110727 0.347009 1.38366 -0.293435 -0.717963 -0.253748 0.415956 -0.471631 0.90029
170 -0.638465 0.657032 -0.605654 0.171901 0.239203 1.2668 0.338779 -0.924172 -0.205568 0.116911 -0.922272 0.917286
531 1.09148 1.16488 -0.150135 1.27595 0.18926 -0.168645 -0.577529 -0.744104 0.157037 -0.154526 -0.615591 0.424244
541 1.1682 1.47305 -0.209325 1.17749 0.696741 -0.111861 -0.524073 -0.349069 0.268769 0.183216 -0.435542 0.436199
519 1.18543 1.34851 0.052207 1.00297 0.958238 0.251803 -0.494311 -0.515225 0.608714 0.010289 -0.573631 0.142328
534 1.17054 1.14858 -0.375223 0.951527 1.35529 0.0371018 -0.15455 0.0337376 0.531747 0.0172016 -0.573928 0.640522
463 1.32521 1.44361 -0.221161 0.627562 0.795485 -0.00408054 -0.726278 -0.305868 0.275294 -0.0955523 -0.55903 0.688349
670 0.764243 0.549028 0.104936 1.08591 0.454961 -0.124042 -1.02991 -0.772254 0.79793 -0.0971946 -0.81173 0.0499595
662 1.16374 0.80964 0.341148 1.05969 0.742925 0.0435222 -0.774461 -0.568561 0.454403 -0.368065 -1.03192 0.875858
621 0.971304 1.25235 0.296849 0.974528 0.896622 0.0178621 -0.697086 -0.399854 0.35344 -0.208517 -0.863786 0.506569
589 1.14881 1.09102 0.0461054 0.965496 1.01139 0.0130598 -0.484959 -0.0125613 0.639349 0.21541 -0.874379 0.773564
582 1.13408 1.19238 -0.0269304 0.890717 0.619927 0.273221 -0.514592 -0.0542204 0.523443 -0.545233 -0.88668 0.384134
546 0.883202 0.741832 0.29041 1.39183 0.833235 0.0566335 -0.986774 -0.291576 0.314494 -0.140435 -0.711139 0.551345
490 0.968276 1.05316 0.0705112 0.893428 0.888343 0.101388 -0.771063 -0.376757 0.398079 -0.360601 -0.670033 0.473542
622 1.03349 0.546024 0.0147573 1.42947 0.577637 -0.127011 -0.523852 -0.364186 0.362134 -0.249752 -0.827992 0.95779
538 1.27812 1.28253 -0.577706 0.706757 1.25098 -0.0650172 -0.753984 -0.0735018 -0.409629 0.451447 -0.809145 0.265839
668 1.40013 1.2912 -0.748912 0.668881 1.0413 -0.104646 -0.654946 -0.126211 -0.532767 0.233102 -0.833769 0.274174
701 1.20049 1.19554 -0.77428 1.01336 1.19277 -0.227939 -0.599936 0.0786953 -0.46393 0.0414334 -0.624234 0.491725
644 1.01233 0.959655 0.0782209 1.03715 0.340972 -0.090251 -0.847535 -0.519675 0.168162 -0.570978 -0.833737 0.623485
537 0.88526 0.958465 0.109871 1.34222 0.429639 -0.175749 -1.01167 -0.439441 0.00309657 -0.291964 -0.562318 0.74009
449 -0.481577 0.334949 -1.64088 0.239469 0.318157 0.0716771 -1.0696 -0.404416 1.29785 0.0261526 -0.899586 0.0105011
564 1.10677 1.08302 0.00777769 0.863601 0.926288 0.507481 -0.828085 -0.207537 0.569484 -0.254999 -0.574877 -0.136696
552 1.05272 0.827865 0.0637305 1.08307 0.448209 -0.0248262 -1.02552 -0.569107 0.321172 -0.103526 -0.598728 0.545149
605 1.20043 1.43096 -0.381884 0.655987 1.06254 -0.181101 -0.681586 -0.121619 -0.348684 -0.0968266 -0.910264 0.450038
456 1.05086 1.26443 -0.101002 1.14896 1.12408 -0.161544 -0.0506037 -0.33627 0.464277 0.162993 -0.774084 0.580219
578 1.21021 0.663577 0.0416454 1.0444 0.738382 0.433326 -0.631117 -0.251861 0.466526 -0.49845 -0.853974 0.432489
8 -0.76206 0.702681 -0.261175 0.484704 0.419279 1.52252 -0.37855 -0.280699 -0.447511 0.726658 -0.635018 0.844807
215 -0.450839 0.747878 -0.850959 0.352783 -0.126635 1.36441 0.153552 -0.681337 -0.100004 0.216754 -0.399681 0.838689
226 -0.694007 0.686126 -0.829466 0.241759 0.300803 0.965755 -0.10062 -1.05382 -0.475888 0.312482 -0.315904 1.03333
257 -0.4405 0.401487 -0.791688 0.404982 0.231966 1.36793 0.260039 -0.772301 -0.164095 0.106381 -0.65822 0.781024
58 -0.724835 0.486558 -0.281952 0.642146 0.242912 1.52526 -0.147716 -0.349052 -0.389219 0.672572 -0.927266 0.801641
140 -0.8761 0.626848 -0.664284 0.259314 -0.18333 0.649204 -0.336923 -1.08111 0.0688729 0.266332 -0.311256 0.915833
162 -0.512181 0.188781 -0.767484 0.525609 0.50116 1.27725 -0.117341 -1.28364 -0.376307 0.803065 -0.425377 0.67183
43 -1.10427 0.934587 -0.589676 0.118611 -0.126982 0.711778 -0.427984 -0.506882 -0.0207422 0.171759 -0.387199 0.853762
11 -0.8029 0.443879 -0.448415 0.808898 0.4801 1.29932 -0.260616 -0.90784 -0.652588 0.572402 -0.548197 0.60869
26 -0.876501 0.9162 -0.706725 0.121815 0.24547 0.903816 -0.0859513 -0.77674 -0.118847 0.0929914 -0.131855 1.2156
230 -0.683514 0.51457 -0.555855 0.246462 0.524998 1.50557 -0.371388 -0.133243 -0.538511 0.756762 -0.704409 0.96653
10 -0.825159 0.636072 -0.625275 0.930018 0.458447 1.37314 -0.00657668 -0.679096 -0.573421 0.658052 -0.438223 0.383405
141 -0.870639 0.483971 -0.528387 0.710025 0.493622 1.33342 -0.222621 -0.762536 -0.3821 0.519792 -0.338669 0.696012
70 -0.529765 0.409116 -0.694976 0.0583884 -0.107295 0.882441 -0.509195 -1.02346 -0.235793 0.289846 -0.420438 1.35485
516 1.19124 0.88692 0.120814 0.814434 0.58974 0.325485 -0.78889 -0.289349 0.44327 -0.266778 -0.895726 0.448932
530 0.97157 1.56491 0.286671 0.796628 0.829255 -0.0230422 -0.834118 -0.239481 0.330921 -0.0814779 -0.710957 0.553971
520 0.997917 1.41669 -0.229241 1.11834 1.04164 -0.119416 -0.16199 -0.260675 0.288931 -0.143535 -0.71027 0.428631
518 1.14193 1.49592 -0.0866028 0.999421 0.74695 0.10188 -0.698006 -0.524493 0.342357 -0.0935163 -0.448767 0.151793
566 1.27982 1.08587 -0.319259 0.945918 0.547077 0.290059 -0.791862 -0.527132 0.44641 -0.0274339 -0.0811091 0.257162
503 1.19168 1.21108 -0.115738 0.957832 0.362333 0.147457 -0.963986 -0.332681 0.303775 -0.209844 -0.401095 0.419291
551 0.882346 1.55614 -0.00969154 1.1984 1.02471 -0.150153 -0.570967 -0.174557 0.410495 0.040006 -0.280149 0.535961
458 1.34864 1.32729 -0.47758 1.04869 0.622688 -0.0879445 -0.23923 -0.263183 0.413458 -0.104506 -0.500346 0.682845
484 1.05118 1.13006 -0.0620798 1.3402 0.798492 -0.0232697 -0.532157 -0.375382 0.484259 -0.0989438 -0.421097 0.5793
656 1.11532 1.09056 0.227374 1.09925 0.617455 0.410479 -0.599312 -0.279544 0.467642 -0.150181 -0.983033 0.121787
462 1.31515 0.9118 -0.172382 1.06747 0.31387 0.187815 -0.435634 -0.80511 0.390541 -0.519101 -0.727425 0.409717
499 0.930139 1.40707 0.0329055 0.920463 0.655744 -0.0092639 -0.460488 -0.0864036 0.272096 -0.441311 -0.795501 0.612158
473 1.21779 1.33109 -0.305729 1.26983 0.331226 0.209835 -0.389123 -0.325809 0.298277 -0.0863938 -0.396189 0.168539
555 0.772779 0.707931 0.273271 1.39358 0.674618 0.0144366 -0.976567 -0.275041 0.255044 -0.202734 -0.652113 0.602649
645 1.07668 1.10272 0.298122 1.1728 0.504697 -0.107524 -1.01417 -0.640314 0.248803 -0.272748 -0.653277 0.870127
494 1.28941 0.792671 0.0102445 0.966721 0.445445 0.115524 -0.767332 -0.467731 0.298214 -0.227509 -0.738869 0.770993
548 0.986904 1.6114 -0.249109 0.743974 1.16476 -0.261924 -0.381167 -0.258287 0.126113 -0.256101 -0.634802 0.535372
594 1.08483 1.17772 -0.00139686 1.15648 1.10841 0.150302 -0.504194 -0.332554 0.742624 0.0394362 -0.402761 0.372246
544 1.01591 0.9507 0.243721 1.26772 0.956792 0.168496 -0.612157 -0.118539 0.586071 -0.371706 -0.847709 0.637049
308 -0.495146 0.632909 -1.60644 0.32114 0.115013 0.186696 -0.834135 -0.13427 1.31105 -0.0231431 -0.943108 -0.108881
400 -0.661832 0.4592 -1.44125 0.810926 -0.162784 -0.0419238 -0.978218 -0.320156 1.0614 0.224201 -0.944042 0.0177524
376 -0.537514 0.240917 -1.63853 0.67325 -0.118288 -0.0937058 -1.07809 -0.318374 0.887287 0.244753 -1.0181 0.180435
208 -0.806512 0.427098 -0.457498 0.680791 0.400827 1.23979 -0.251681 -0.548544 -0.325604 0.407258 -0.321659 0.982261
87 -0.645524 0.770537 -0.680736 -0.0166075 0.205811 1.25306 -0.199025 -0.463985 0.130649 0.41085 -0.217561 1.12451
91 -0.613036 0.854505 -0.341648 0.242988 0.150622 1.71772 -0.0464782 -0.713223 0.181393 0.31402 -0.473022 0.569661
169 -0.719744 0.0896102 -0.50982 0.829347 0.518936 1.3933 0.0231845 -0.807021 -0.257301 0.29774 -0.666167 0.592429
184 -0.668522 0.599188 -0.401635 0.323023 0.27884 1.33936 0.131876 -0.85972 -0.220853 0.00850516 -0.837606 0.782481
155 -0.791824 0.452698 -0.342233 0.720218 0.302015 1.16873 -0.0889525 -0.767564 -0.370339 0.446095 -0.614963 0.808302
123 -1.0772 1.00126 -0.134953 0.391037 0.0589228 1.3055 -0.0942333 -0.451918 0.326837 0.252469 -0.525696 0.564997
142 -0.809792 0.458338 -0.374786 0.683011 0.419956 1.27937 -0.344327 -0.807325 -0.534342 0.762492 -0.521822 0.80715
176 -0.74036 0.602101 -0.564674 0.304628 0.319272 1.15148 -0.381028 -0.873792 -0.313163 0.214148 -0.205764 0.872609
152 -0.716608 0.825814 -0.434556 0.12793 0.0517878 1.22035 -0.474077 -0.779816 -0.346527 0.280076 -0.374388 0.878281
77 -0.928332 0.409648 -0.645201 0.0708773 -0.422902 0.494636 -0.748147 -0.954316 0.0461078 0.471016 -0.723459 0.987676
619 1.11034 1.2561 -0.511395 0.904246 1.25029 -0.282963 -0.367788 -0.107127 -0.34644 -0.0349898 -0.913797 0.466133
598 0.873757 1.06604 0.0502428 0.944026 0.224941 -0.182249 -1.19328 -0.388223 0.236748 0.0431417 -0.662451 0.355809
568 1.22429 1.42787 -0.533735 0.896463 0.869199 -0.125116 -0.304891 -0.057789 0.118329 -0.416092 -0.580878 0.680099
256 -0.464089 0.775344 -0.662369 0.118676 0.37581 1.52971 -0.0527723 -0.550821 -0.192111 0.83672 -0.491354 0.707043
556 1.26978 1.19444 -0.390193 0.806278 1.10267 -0.122609 -0.689801 -0.153367 -0.38188 0.450103 -0.974242 0.420759
624 1.09388 1.29537 -0.166673 0.846706 1.29044 0.114281 -0.349795 0.0333202 0.447371 -0.132718 -0.628122 0.486818
593 1.0648 0.577774 0.0197439 1.04511 0.396315 0.289833 -1.06637 -0.287255 0.480359 -0.357564 -0.761513 0.247713
30 -0.269523 0.141915 -0.616659 0.262357 0.133841 1.61666 0.0130785 -0.866922 -0.0149961 0.174358 -0.821095 0.923996
246 -0.537896 1.0505 -0.565959 0.0141393 0.0356083 1.37688 -0.177454 -0.750726 -0.11727 0.680784 -0.322941 0.914709
284 -0.697229 0.716541 -0.681221 0.562359 0.0951939 1.20473 0.394419 -0.768813 -0.0168377 0.183855 -0.490974 0.857246
80 -0.577945 0.421267 -0.66039 0.329502 -0.0316204 1.11501 -0.416229 -0.876887 -0.0619005 0.290855 -0.195278 1.24162
197 -0.650183 0.236681 -0.447393 0.566892 0.297636 1.16201 -0.0305605 -0.492577 -0.131857 0.353188 -0.634177 1.32137
130 -0.726824 0.850543 -0.466719 0.43973 -0.0302514 1.32083 0.136704 -0.939548 0.0451937 0.0357102 -0.431141 0.73648
280 -0.816744 0.605447 -0.485408 0.380156 0.169182 1.06839 -0.0652502 -0.814821 -0.393778 -0.133547 -0.641961 1.08037
189 -0.721582 0.464139 -0.421369 0.627029 0.136351 1.44553 0.235283 -0.598829 0.00314196 0.209265 -0.810205 0.868155
291 -1.06579 0.782035 -0.340225 0.200199 0.141308 1.26339 -0.397214 -0.555574 -0.276939 -0.0657961 -0.761636 0.398762
445 -0.474789 0.551236 -1.36531 0.313667 -0.222981 0.1913 -1.1479 -0.158495 1.06393 0.175949 -1.17546 0.0153531
403 -0.670095 0.357144 -1.48074 0.568447 -0.129734 -0.0268837 -1.10053 -0.4852 1.12069 0.124003 -0.888482 0.177622
558 0.773444 1.01255 0.252603 0.907204 0.723498 -0.0664864 -0.907003 -0.493075 0.230568 -0.669984 -0.766155 0.524091
553 0.99962 1.48553 -0.0262422 0.90121 0.590012 0.11611 -0.276324 -0.32512 0.351635 -0.536127 -0.76959 0.322648
651 1.28447 1.12822 -0.747094 0.787488 1.18046 -0.116517 -0.714313 0.00220517 -0.470533 0.312741 -0.842364 0.352626
626 0.95976 1.31865 0.245146 1.11239 0.836515 0.0682096 -1.07701 -0.611158 0.216413 -0.434876 -0.435003 0.372438
260 -0.576325 0.662264 -0.574767 0.0500047 0.421533 1.41252 -0.61401 -0.321337 -0.510604 0.65954 -0.344696 0.824188
79 -1.10045 0.761663 -0.509565 0.409116 -0.163099 0.902846 -0.0896543 -0.28065 0.262773 0.254953 -0.580335 0.976893
693 1.11278 1.09842 0.00122373 0.879844 0.662092 0.260229 -0.612182 -0.554225 0.328635 -0.748466 -0.791015 0.227041
680 1.14876 1.24369 -0.531529 0.92248 1.25814 -0.145323 -0.525216 -0.0807191 -0.332972 0.259905 -0.831852 0.292555
601 1.18249 1.28591 -0.546819 0.712482 1.55729 -0.0473853 -0.348461 -0.277527 0.138436 -0.240678 -0.466139 0.278614
488 1.34819 1.35524 0.0164257 0.759975 0.836562 0.28308 -0.626457 -0.512306 0.482644 0.287319 -0.786246 0.0166329
600 1.15148 1.29644 -0.0455235 0.795148 1.00702 0.121989 -0.503316 -0.301671 0.3206 -0.29081 -0.790133 0.386246
655 1.42891 1.22987 -0.470926 0.720927 0.889912 0.106617 -0.511659 -0.15517 0.0429363 -0.257686 -0.841519 0.512207
239 -0.542717 0.4335 -0.542501 0.282974 0.209507 1.41949 -0.0752572 -0.657712 -0.18046 0.264356 -0.680605 0.929313
149 -0.623049 0.128817 -0.396686 0.597298 0.252845 1.34411 -0.194133 -0.285253 -0.331731 0.513701 -0.964007 1.03648
420 -0.846128 0.600137 -1.39084 0.51848 0.251531 -0.0213627 -1.19088 0.100542 1.02606 0.155459 -0.902073 0.0360616
330 -0.573271 0.551343 -1.40868 0.264466 0.0501717 0.0191651 -1.19592 -0.383014 1.18066 0.0643076 -0.90388 0.0247896
297 -0.587202 0.520837 -1.33369 0.649233 -0.165359 0.0342241 -0.987735 -0.52438 1.19605 0.0378615 -1.00168 -0.159197
160 -0.716209 0.30336 -0.605576 0.55705 0.452535 1.35864 0.156031 -0.842937 -0.290292 0.0816318 -0.812886 0.443101
485 1.33203 1.15628 -0.714201 0.932357 1.02485 -0.146995 -0.511592 -0.0460188 -0.279069 0.213776 -0.730773 0.481889
586 1.19855 1.20058 -0.596305 0.833717 1.19711 -0.152712 -0.571631 0.0535455 -0.44655 0.199676 -0.84468 0.417371
698 0.892998 1.04808 0.215716 1.0969 0.541232 -0.0659863 -0.945728 -0.50819 0.201378 -0.265385 -0.744216 0.608001
486 0.800646 1.30145 -0.0416524 1.06356 1.02379 0.106053 -0.51785 0.01878 0.603652 -0.0625181 -0.388006 0.266077
522 0.974449 1.27387 -0.0533801 1.31125 0.421265 -0.1744 -0.496731 -0.79255 0.197186 -0.287213 -0.650476 0.203722
455 1.00269 1.00469 -0.0120518 1.13051 0.602229 0.13717 -0.476927 0.0670544 0.453796 -0.117187 -0.940826 0.437668
514 1.28413 1.24569 -0.222144 0.825899 0.865106 0.0729366 -0.333637 -0.275836 0.39722 -0.356481 -0.75973 0.597659
94 -0.578836 0.577564 -0.461222 0.363186 0.123224 1.11759 -0.0166696 -0.905244 0.171064 0.111028 -0.193021 1.12325
165 -0.382928 0.117991 -0.803569 0.188741 0.525727 1.38555 -0.106461 -1.04914 -0.29555 0.526222 -0.629858 0.810023
248 -1.10645 0.903181 -0.255404 0.104863 0.0622774 1.11483 -0.0777166 -0.700208 -0.159929 -0.179897 -1.07456 0.470848
225 -0.724444 0.98762 -0.684852 0.157438 0.330113 1.16348 -0.322679 -0.906416 -0.516676 0.615841 -0.125636 0.79876
573 0.951556 1.20625 0.0499378 1.06701 0.571672 -0.129066 -0.526115 -0.685445 0.398139 0.0364223 -0.5047 0.465625
577 1.21601 1.40824 -0.342996 0.887725 0.803119 -0.113732 -0.400808 -0.25276 0.354048 -0.0870284 -0.472218 0.65877
609 1.12317 1.17585 -0.16428 1.28939 0.168354 0.0126387 -0.704926 -0.319231 0.161409 -0.288861 -0.605852 0.453802
92 -0.544664 0.638135 -0.694034 0.508632 0.0188351 1.31091 0.157542 -0.84984 -0.0600626 0.143695 -0.359271 0.851607
579 1.08167 0.756868 0.150419 0.986636 0.569495 0.324147 -0.965381 -0.224938 0.404804 -0.481965 -0.828451 0.421389
498 1.07784 0.937537 0.036264 1.29597 0.520549 0.276032 -0.551678 -0.40936 0.262797 -0.445593 -1.00876 -0.0121597
610 1.44555 0.916776 0.11307 0.976424 0.778232 0.449268 -0.711826 0.0337422 0.635675 0.213319 -0.915345 0.58577
563 1.10404 1.00184 0.223192 1.07064 0.970189 0.123611 -0.602128 -0.031175 0.473019 -0.0618298 -1.01156 0.654294
667 0.999627 1.2481 0.0903177 0.966692 0.921839 0.0684614 -0.523915 -0.266936 0.504799 -0.396734 -0.695608 0.495648
591 1.04087 1.30089 -0.0612906 0.647396 0.867755 0.319342 -0.591672 0.0773245 0.599608 -0.492999 -0.443775 0.588186
527 0.938933 1.3647 0.0891469 0.756934 1.46971 -0.0362664 -0.438371 -0.0374709 0.56305 0.0801717 -0.705905 0.626198
509 1.15995 1.30922 -0.262149 1.16907 1.31972 0.292792 -0.204551 -0.264834 0.496655 -0.0429574 -0.34323 0.105516
588 0.930727 1.17616 -0.237616 1.39643 0.526957 -0.186243 -0.322965 -0.133896 0.367835 -0.0799374 -0.334536 0.765361
109 -0.513536 0.594746 -0.738372 0.166501 0.259278 1.46908 0.0228491 -0.363607 0.188208 0.622088 -0.383896 1.01324
185 -0.448489 0.273736 -0.512565 0.156246 0.552888 1.51834 -0.173421 -0.956155 0.135146 0.663091 -0.372878 1.06466
116 -0.459473 0.389048 -0.690929 0.285327 0.111329 1.21754 -0.00652768 -0.461855 -0.236666 0.240749 -0.649813 1.22595
236 -0.488092 0.572535 -0.535633 0.198263 0.186708 1.43155 0.0582676 -0.589283 -0.359147 0.391825 -0.940399 1.08012
187 -0.751549 0.332698 -0.637488 0.596247 0.305598 1.22124 -0.339136 -0.933837 -0.456366 0.220837 -0.387729 0.647773
125 -0.366203 0.574123 -0.461587 0.0800919 0.00153619 1.62243 -0.346075 -0.43779 -0.157293 0.453748 -0.72595 0.845644
5 -0.965479 0.664741 -0.377973 0.446447 0.487473 1.20343 -0.182734 -0.315311 -0.245729 0.259406 -0.493751 0.859108
67 -0.684796 0.370932 -0.430395 0.301907 -0.0671806 1.34037 -0.370365 -0.55021 0.290754 0.41663 -0.539312 0.980265
492 0.771079 1.14472 0.376991 1.28253 1.03565 -0.0902885 -0.618713 -0.88402 0.365996 -0.322125 -0.877457 0.113715
419 -0.71915 0.462185 -1.41066 0.606316 -0.139184 -0.212044 -0.886481 -0.324116 0.784641 -0.16043 -1.32057 0.134723
356 -0.784087 0.625916 -1.40487 0.520203 0.0443428 -0.125821 -1.19664 -0.295368 1.01935 0.192531 -0.906679 -0.0180863
336 -0.846429 0.394352 -1.30549 0.481771 0.278056 -0.13511 -1.16862 -0.447246 0.975276 -0.0418388 -1.02822 0.0242071
368 -0.757103 0.496816 -1.40504 0.461793 0.123004 -0.0359736 -1.0601 -0.203722 0.850026 0.118456 -1.1237 0.0464684
321 -0.614267 0.232102 -1.48073 0.874023 -0.0158879 -0.0439894 -0.911873 -0.479538 0.94191 0.108016 -1.14284 -0.145599
156 -0.65088 0.733332 -0.238355 0.0866654 0.0559101 1.53949 -0.486573 -0.820263 -0.15017 0.110232 -0.531811 0.698957
179 -0.466213 0.773643 -0.769856 0.342753 0.0838637 1.38833 0.399181 -1.10358 -0.155382 0.349961 -0.61353 0.698206
121 -0.711645 0.70783 -0.611696 0.443923 0.372737 1.43456 0.401896 -0.533281 0.155394 0.532771 -0.519989 0.852906
45 -0.633449 0.724907 -0.604802 0.156902 -0.06639 0.896229 -0.35349 -0.882982 -0.383253 0.325283 -0.385018 1.33784
443 -0.646882 0.650571 -1.30106 0.266252 0.0202743 0.182314 -1.08881 0.0428931 1.09017 0.105193 -1.26335 -0.0401115
413 -0.419805 0.333635 -1.55142 0.459954 -0.20708 -0.00643203 -1.08305 -0.337528 0.902194 0.0605414 -1.21157 0.101785
450 -0.723161 0.290086 -1.25071 0.73422 0.119907 0.106624 -1.08203 -0.220138 0.940591 0.234491 -1.03771 -0.145037
410 -0.649336 0.40109 -1.3702 0.775067 -0.109583 0.0125343 -0.974291 -0.363925 1.12436 0.117717 -0.827686 0.0500395
362 -0.792874 0.40427 -1.49716 0.839451 0.0930797 -0.343315 -1.0154 -0.157082 0.784274 0.060492 -1.07168 0.182625
154 -0.34309 0.501809 -0.673594 0.335041 -0.0355225 1.46202 -0.0654541 -0.657116 -0.140811 0.513679 -0.517295 0.89432
262 -0.332008 0.423377 -0.642476 0.404406 -0.0318412 1.4967 0.0910839 -0.740547 -0.311373 0.4836 -0.883467 0.957302
511 1.12188 0.837338 -0.4848 1.40173 0.898485 0.207421 -0.158225 -0.365245 0.329071 -0.453974 -0.339861 0.273895
569 0.616066 1.16477 0.18881 1.08117 0.936187 -0.234415 -0.761037 -0.907728 0.344645 -0.481567 -0.310621 0.330875
6 -0.919451 0.681417 -0.135429 0.257563 0.02246 0.975568 -0.315076 -0.927011 -0.150825 -0.178121 -0.711059 1.08131
73 -0.57905 0.647223 -0.68721 0.145888 0.035958 1.11973 -0.267002 -0.772099 -0.0533055 0.244328 -0.194223 1.22922
576 1.18259 1.40804 0.0079791 0.823895 0.880144 0.058691 -0.483494 -0.0717635 0.570408 -0.0875993 -0.654198 0.755646
547 1.17288 1.2611 -0.245097 0.971899 0.884557 -0.200518 -0.394604 -0.05278 0.279487 0.0881988 -0.676537 0.890417
557 1.42861 0.920305 -0.59183 0.927663 0.977787 -0.241488 -0.422253 -0.0845558 -0.130359 0.0816545 -0.908506 0.84159
273 -0.638323 0.976455 -0.661731 0.173192 -0.0122694 1.24891 0.112175 -0.860353 -0.360281 0.300857 -0.622319 0.836858
583 1.04829 1.65166 -0.0550189 0.794933 1.12484 -0.0304376 -0.136058 -0.209734 0.499379 -0.158115 -0.800618 0.409383
561 0.821104 1.04365 0.139802 1.03545 0.793202 -0.0540715 -0.866176 -0.960406 0.254014 -0.473147 -0.513395 0.132338
565 0.853366 1.39726 0.192926 1.0518 0.837074 -0.127915 -0.354601 -0.403262 0.378304 -0.369564 -0.839253 0.566227
366 -0.528672 0.490781 -1.35455 0.0682264 0.195296 0.187268 -1.15626 -0.289364 1.27068 0.116656 -1.1227 -0.0656313
307 -0.709786 0.405631 -1.2078 0.707248 -0.0222097 0.0396502 -1.11297 -0.0715624 1.07289 0.275051 -1.24543 -0.0141355
416 -0.872742 0.628985 -1.28817 0.817692 0.1261 0.0716139 -1.05974 -0.312886 1.24335 0.0846041 -0.786619 -0.236697
663 1.62389 1.18883 -0.618735 0.810342 0.668431 0.12359 -0.838549 -0.320828 -0.379389 0.381115 -0.865569 0.155222
331 -0.661654 0.26089 -1.40399 0.789165 0.101671 -0.0428528 -1.14108 -0.321415 0.926683 0.178611 -0.9126 -0.0332744
545 0.988042 1.09855 0.224143 1.18172 1.23012 0.313651 -0.859326 -0.148809 0.574202 0.0578219 -0.399692 0.263331
661 1.37546 1.20808 -0.715319 0.67423 1.23787 -0.0465267 -0.606233 -0.0214092 -0.367405 0.334881 -0.817916 0.356123
42 -0.794245 0.501297 -0.406554 0.818188 0.425011 1.44826 -0.316183 -0.486872 -0.709738 0.77544 -0.707675 0.565153
40 -0.760197 0.54169 -0.500562 0.854102 0.460032 1.25225 -0.230476 -1.06336 -0.628447 0.691332 -0.297227 0.529956
158 -0.663055 0.390694 -0.415526 0.447408 0.120742 1.12565 0.147031 -0.912548 -0.241786 -0.010134 -0.97282 0.867294
295 -0.721021 0.450294 -1.4027 0.956751 -0.217526 -0.111472 -0.965883 -0.3813 0.909514 0.0172993 -1.2184 -0.0679123
306 -0.687995 0.546539 -1.47101 0.617445 -0.232002 -0.222326 -0.945968 -0.417702 1.01257 -0.0246383 -1.10349 0.209324
223 -0.675787 0.832523 -0.610776 0.372954 0.0364417 1.44222 -0.10801 -0.612405 -0.321449 0.121522 -0.442876 0.705038
