2496 20
1364 0.46151772 -0.85661656 0.32374996 -0.04202634 -0.21577245 0.13031131 0.3223233 0.24699765 0.2433244 -0.0060750423 -0.1874005 -0.17870995 0.36354452 0.12898974 -0.021770105 -0.18726195 -0.24836136 0.2835065 0.16107327 -0.6434759
1906 0.57966137 -0.82852495 0.2711573 0.018887825 -0.059600517 0.19277677 0.2901932 0.3274157 0.1925088 -0.13159008 -0.06832021 -0.15966238 0.33462146 0.16990496 -0.06485022 -0.34304535 -0.2327984 0.3804801 0.13265808 -0.4887275
2037 0.47323158 -0.7680463 0.3147062 -0.117096275 -0.29035178 0.069246665 0.41178367 0.22403641 0.18853381 -0.024489792 -0.24631123 -0.10490848 0.5251458 0.11651585 0.045730058 -0.1662854 -0.24821392 0.21097766 0.16825199 -0.6043313
2472 0.4339034 -0.88052773 0.24554951 -0.12791768 -0.17122407 0.11842886 0.27714142 0.2782606 0.22340652 -0.038115393 -0.060056962 -0.23358998 0.42944252 0.089708105 0.0038302483 -0.20078284 -0.3890285 0.35294855 0.29388398 -0.55801547
432 0.50422674 -0.775382 0.2641649 -0.1723723 -0.32176986 0.00564674 0.36385334 0.12339435 0.14509504 -0.08942308 -0.24353816 0.026498144 0.448319 0.045406528 0.04231752 -0.27725896 -0.1655399 0.09787322 0.2096623 -0.64079255
1697 0.51741 -0.92532367 0.19220135 -0.13246062 -0.1553569 0.18635204 0.240195 0.29912326 0.22467972 -0.15932007 -0.03590399 -0.254608 0.38912895 0.12699716 -0.08296962 -0.3272163 -0.27676046 0.45628446 0.23834422 -0.46014312
2106 0.507246 -0.8150859 0.45249832 -0.08709279 -0.1484984 0.06860857 0.2891571 0.21738243 0.074608594 -0.073670834 -0.16251692 -0.11935453 0.4363075 0.1791425 -0.04473916 -0.2494493 -0.33657217 0.239707 0.17428538 -0.6008657
438 0.4853926 -0.90362096 0.37726596 -0.079339705 -0.08773844 0.124000154 0.18214312 0.21070753 0.15222628 -0.16637783 -0.044337332 -0.19808008 0.37301573 0.1631677 -0.015861569 -0.2449724 -0.3053045 0.43858278 0.30279127 -0.53785366
489 0.4776688 -0.57703835 0.30609977 -0.13791344 -0.3242919 -0.10855683 0.3163909 0.15414388 0.20520204 -0.026445381 -0.31647402 0.15318966 0.47412643 0.051135816 0.06544628 -0.13681607 -0.16608085 0.13298593 0.14247017 -0.59613353
1884 0.6090515 -0.73535687 0.46337053 -0.006852701 -0.17902663 0.03642061 0.3089472 0.29392394 0.17041901 0.026381463 -0.16683166 -0.21508098 0.36038888 0.1706329 -0.048266422 -0.33304837 -0.3268958 0.26543412 0.13250786 -0.592214
2261 0.5553972 -0.7488549 0.38472864 0.09246889 -0.18277888 -0.04247027 0.16879414 0.19379781 0.063348584 -0.07126513 -0.15561903 -0.0071111447 0.52324545 0.12705456 0.06570969 -0.26486856 -0.24200465 0.22928734 0.15974285 -0.59316254
2188 0.50819534 -0.89721537 0.36799547 -0.14883491 -0.28715304 0.03166267 0.27583483 0.1864636 0.11767032 -0.10511862 -0.09984828 -0.18247901 0.3935685 0.14949393 -0.06400355 -0.25515732 -0.29317164 0.2989856 0.2708776 -0.6427869
552 0.5927085 -0.68480617 0.33081642 -0.03147611 -0.108935855 0.1381373 0.3333738 0.43103227 0.22487593 -0.07077695 -0.14345667 -0.1338395 0.2782048 0.05848956 0.18084846 -0.37192482 -0.29685915 0.4192318 0.23167552 -0.48708057
948 0.4813608 -0.8959092 0.43718275 -0.14110568 -0.21340705 0.07338305 0.30339125 0.27314344 0.09861071 -0.10439726 -0.07195986 -0.21394673 0.38648823 0.25467253 -0.14290643 -0.30928004 -0.25754976 0.34749848 0.22238822 -0.5741318
1096 0.54548436 -0.8843087 0.18507199 -0.07890315 0.012504498 0.24720275 0.19950701 0.3596554 0.31221014 -0.15086092 0.053061686 -0.195222 0.3445115 0.23109517 -0.12437299 -0.3639558 -0.29990602 0.5331458 0.15998255 -0.44868898
701 0.57347965 -0.83496135 0.31597605 -0.015643235 -0.3058894 0.052431684 0.2971089 0.19962667 0.09001723 -0.07573298 -0.12839988 -0.16025986 0.5169716 0.11137044 -0.011107359 -0.22143333 -0.3472715 0.17877132 0.25097746 -0.61149466
1023 0.46261996 -0.73872614 0.48619124 -0.11867709 -0.24201158 -0.049468316 0.31061754 0.11554502 0.08157888 -0.13488889 -0.3777644 0.017186457 0.53165656 0.049445573 0.061377686 -0.24523622 -0.18421194 0.15658474 0.16788404 -0.6888144
894 0.38817504 -0.79015845 0.5007792 -0.100009255 -0.30574724 0.0011511677 0.38283196 0.06611544 0.12180004 -0.11229854 -0.20848188 -0.17573026 0.43598816 0.21283372 0.050576814 -0.14051881 -0.33788794 0.28113255 0.2734546 -0.670654
2362 0.58820707 -0.9295663 0.15411393 0.0057062632 -0.018339572 0.19309549 0.21909581 0.38335368 0.24104227 -0.02754008 0.11820063 -0.16069426 0.44034883 0.15969807 -0.0064292448 -0.11002011 -0.40402108 0.42928556 0.18686843 -0.5749417
61 0.4407363 -0.9935398 0.2518024 -0.12533972 -0.21736017 0.22101335 0.21565463 0.21930559 0.14214744 -0.14289238 -0.026770744 -0.23990901 0.40608993 0.2841819 -0.12269532 -0.26540005 -0.35739118 0.33182377 0.314841 -0.568086
1284 0.54079753 -0.9002261 0.27983204 -0.008022819 -0.14469324 -0.038664855 0.14017273 0.21569684 0.18115285 -0.11392133 -0.025123486 -0.13791911 0.36518976 0.21249652 -0.043291226 -0.22995001 -0.25037643 0.30747074 0.21005929 -0.5766869
1630 0.40977645 -1.06322 0.3029571 -0.15801328 -0.34223384 0.08346835 0.24743523 0.14611591 0.16309848 -0.18225946 -0.042018402 -0.29154354 0.40649742 0.25515392 -0.10298769 -0.26144165 -0.2981595 0.37106273 0.29163364 -0.524749
579 0.67087835 -0.62033474 0.32225016 0.16417047 -0.006081331 0.038767464 0.30459923 0.3602292 0.2605463 0.049230833 -0.09005795 -0.04909364 0.4354304 0.011942417 0.17335619 -0.17768903 -0.3189928 0.3288577 0.09704049 -0.5884121
1122 0.46325135 -0.74947506 0.58599824 -0.09175568 -0.2677666 0.0027340925 0.2929394 0.13850154 0.0373765 -0.03233416 -0.32912362 -0.1691903 0.42419437 0.18581145 0.03369289 -0.28316438 -0.21959536 0.1984205 0.29190323 -0.7068723
1089 0.47798625 -0.8050659 0.6043091 -0.1546486 -0.24019864 -0.068710804 0.3431093 0.29910797 0.051657844 -0.20197622 -0.27449286 -0.082039356 0.32639444 0.26040182 0.037140265 -0.22213902 -0.3065066 0.3081646 0.19937041 -0.6757721
774 0.4430252 -0.91140395 0.2204 -0.09599903 -0.15840496 0.2821744 0.27384046 0.27074647 0.2633181 -0.029430699 0.14415516 -0.10166267 0.3030446 0.15378655 -0.15990002 -0.31339538 -0.3190992 0.4787929 0.14940399 -0.54125136
650 0.5790893 -0.8480949 0.3411746 -0.09706058 -0.36276668 0.02952499 0.19986993 0.23663308 0.32309455 -0.1361008 0.018204182 -0.19085523 0.33429202 0.1772921 -0.21213965 -0.4162014 -0.24466458 0.37260458 0.24215716 -0.54292846
2158 0.43527338 -1.0021031 0.2228453 -0.09881175 -0.23429532 0.20799513 0.32961908 0.34444737 0.35861403 -0.17069097 -0.0024459022 -0.26736224 0.33066767 0.24643421 -0.10429572 -0.21837981 -0.34182113 0.52928567 0.106775254 -0.38834977
957 0.5826318 -0.92619246 0.32496136 0.028948095 -0.19581953 0.061952166 0.3240516 0.3175943 0.31790867 -0.08632874 0.2527831 -0.21729952 0.38941857 0.2705783 -0.14670064 -0.2534359 -0.3631894 0.4473256 0.18257593 -0.5334266
1521 0.37885398 -0.94458884 0.4340535 -0.10019539 -0.17625393 0.10971697 0.24718006 0.13437244 0.12910068 -0.24207184 -0.18403514 -0.32958853 0.3922685 0.2732544 -0.16672608 -0.284726 -0.26227716 0.35380852 0.33572587 -0.6420995
512 0.3685769 -0.8975524 0.45552483 -0.10548471 -0.15510437 0.078064285 0.33070102 0.06385444 0.033673137 -0.15957935 -0.11816549 -0.24224474 0.49342138 0.2117058 -0.091153845 -0.44615725 -0.38798365 0.2212324 0.2934907 -0.63253886
1909 0.62855715 -0.55460757 0.42903787 -0.0400184 0.0033286703 0.074866 0.3273798 0.39070356 0.06292029 0.006998719 -0.20045109 -0.0033657355 0.28004795 0.03389692 0.23583153 -0.43069634 -0.34873715 0.36978883 0.082146935 -0.3922405
749 0.38820738 -0.7601416 0.5625781 -0.09711959 -0.121652596 -0.005683234 0.3737101 0.20295335 0.084840775 -0.20426415 -0.30294275 -0.2460113 0.250516 0.1691187 0.010717566 -0.32491156 -0.3275508 0.34857312 0.2619016 -0.6967508
1314 0.5387694 -0.96519107 0.24227543 0.015658693 -0.1131974 0.038799245 0.14427808 0.20445977 0.2521356 -0.17513852 0.047701407 -0.2507195 0.4665826 0.28009504 -0.09402904 -0.047409475 -0.43030128 0.35952687 0.2977852 -0.67846614
1804 0.6116113 -0.78149265 0.43471742 -0.10149382 -0.054676577 0.160325 0.09830018 0.2979086 0.115962304 0.042597093 -0.15483998 -0.08677639 0.4388939 0.17034072 0.2386089 -0.26234224 -0.3455077 0.34843296 0.30004916 -0.5392538
1313 0.34128797 -0.9155827 0.42236236 -0.114934854 -0.20309785 0.11541839 0.2742315 0.14489602 0.066838466 -0.2284487 -0.26331803 -0.2081583 0.46198013 0.3035255 0.04873011 -0.26364484 -0.4282688 0.2601318 0.30287287 -0.6069542
2112 0.63636976 -0.7220105 0.4020998 0.016338032 -0.32905376 0.0360244 0.32024217 0.29086494 0.06810626 -0.04984504 -0.088133216 -0.10266641 0.36169806 0.20905004 -0.088618435 -0.18248618 -0.32215348 0.2637296 0.15439811 -0.5395468
1753 0.5341869 -0.830395 0.20608495 -0.079831555 -0.40444425 -0.031606134 0.24655437 0.16279893 0.29027802 -0.13259761 -0.012252236 -0.2586232 0.44453377 0.15335374 0.025134917 -0.14032654 -0.22869155 0.40243545 0.44166684 -0.6280939
941 0.42756662 -0.7747302 0.52115697 -0.13361196 -0.35481188 0.042180344 0.36166015 0.25115374 0.12266759 -0.1842319 -0.08406849 -0.09162187 0.383639 0.17774929 -0.08502007 -0.23029846 -0.28542626 0.30282247 0.36717248 -0.6227085
1257 0.5204809 -0.78314185 0.40192038 -0.11894051 -0.3351809 0.118843906 0.28133702 0.3337617 0.1237012 -0.16643478 -0.2752676 -0.12545279 0.30128083 0.26281485 -0.0156079875 -0.25572702 -0.39258513 0.22677007 0.27334723 -0.6494449
726 0.46030638 -0.8256282 0.28925967 -0.02352887 -0.18291241 0.25541267 0.36660212 0.45204768 0.41491562 0.05535946 -0.042027995 -0.27204072 0.33107388 0.4074 -0.019777838 -0.38208216 -0.4156446 0.399856 0.098012604 -0.4064905
1716 0.34405357 -0.9646315 0.1989524 -0.12808189 -0.1020448 0.12682031 0.056906004 0.038911924 0.09033401 -0.13812685 -0.17123066 -0.31922972 0.40417227 0.22230364 -0.008342403 -0.32332602 -0.32497382 0.40774953 0.34093842 -0.542565
1413 0.34286824 -0.803475 0.30855668 -0.1689015 -0.26042724 0.039454225 0.28454912 0.30594328 0.10652796 0.07554505 -0.3700798 -0.19470182 0.5409622 0.13186988 0.0832151 -0.22093074 -0.26872045 0.17193751 0.2782686 -0.58745
442 0.309592 -0.90440124 0.48632914 -0.12969215 -0.24960758 0.11721397 0.23948081 0.13071011 0.135994 -0.22062427 -0.21336293 -0.27129623 0.4136464 0.22777982 -0.12609616 -0.23087063 -0.29409438 0.36002305 0.37298498 -0.58327174
892 0.50657356 -0.74797726 0.4620232 -0.0965298 -0.2950266 -0.053565085 0.2549262 0.098725185 0.07223715 -0.09079937 -0.24236424 -0.08887784 0.34871042 0.2058635 -0.019538812 -0.27171907 -0.35698998 0.123322554 0.27085003 -0.7896604
2464 0.5625947 -0.77961606 0.42215547 -0.11052415 -0.2756034 0.09003585 0.30198467 0.15297985 0.10340834 -0.13725826 -0.14587355 -0.19513014 0.33809724 0.20210765 0.12420181 -0.41590482 -0.3243825 0.34177658 0.32672095 -0.585377
1784 0.36979845 -0.76043206 0.49995217 -0.2587951 -0.4222968 -0.017647006 0.5038565 0.30074888 0.12836295 -0.24040753 -0.34760103 -0.14508973 0.25755027 0.18417019 0.002131372 -0.18969536 -0.41164476 0.25602216 0.24471022 -0.6095707
2219 0.41469952 -0.94799966 0.5144207 -0.26786447 -0.21661271 0.09489743 0.19433044 0.08094079 0.1382838 -0.32179138 -0.19477606 -0.16973121 0.3961696 0.21419063 -0.088180065 -0.24147113 -0.39918014 0.4084511 0.26173028 -0.53861445
161 0.4629835 -0.8359448 0.049946304 -0.053621154 -0.09661472 0.26717427 0.1319526 0.14655127 0.34891406 0.014452845 0.19894713 -0.22706771 0.2927781 0.20480847 -0.11099214 -0.1915741 -0.36798757 0.61332047 0.17274827 -0.27193066
1840 0.59210086 -0.7676107 0.4062865 0.057341862 -0.044623215 0.1382535 0.15834613 0.085622594 0.018366376 -0.09293533 -0.07468097 0.061277125 0.60391206 0.14582957 0.13301805 -0.342598 -0.33015084 0.20409347 0.22761635 -0.6255692
1369 0.4807706 -0.72268426 0.6254261 -0.1604893 -0.21547075 -0.057453547 0.21170674 0.18529274 0.015778916 -0.057149183 -0.41733083 -0.15116745 0.46286917 0.13639505 -0.011148196 -0.23905286 -0.32569417 0.20266315 0.23490109 -0.6614513
1136 0.449121 -0.9233971 0.3460242 -0.015473067 -0.032101467 0.08623567 0.09996392 0.069431126 0.19408263 -0.14987989 -0.03955449 -0.31452528 0.54756194 0.18391548 -0.10318781 -0.34866434 -0.02987108 0.4983684 0.35236973 -0.52689004
1768 0.34589005 -0.8419382 0.48376042 -0.2553664 -0.3251102 0.18353091 0.23489782 0.22454269 0.059074298 -0.077260554 -0.20055693 -0.17437187 0.30426064 0.31798077 -0.039551888 -0.30925745 -0.43380615 0.26660508 0.38963675 -0.55628455
31 0.4951031 -0.9243007 0.32224095 0.025931742 0.20078264 0.18346612 0.19855879 0.29326364 0.26457092 -0.041659333 -0.10053712 -0.1352329 0.5811293 0.093919866 0.29147312 -0.13343781 -0.45008335 0.35225403 0.21463162 -0.5598468
971 0.46765336 -0.89838827 0.3075767 -0.09558504 -0.25357723 0.13973689 0.45623353 0.40042445 0.17442964 -0.00037544168 -0.081832156 -0.23646173 0.17871171 0.16304831 0.06812766 -0.19598839 -0.47909164 0.43646714 0.050300896 -0.50819075
1338 0.35619152 -0.81998605 0.53193057 -0.17528954 -0.38382766 -0.04962698 0.32392853 0.18798414 -0.015944723 -0.20833465 -0.22593562 -0.19541395 0.24581955 0.22861302 -0.19121462 -0.27325228 -0.40306473 0.22231425 0.2893534 -0.6358119
1419 0.43381938 -0.9514094 0.2994172 -0.18248199 -0.27203903 0.022077762 0.21769208 0.17000957 -0.06680156 0.03394165 -0.006652811 -0.051229484 0.47037143 0.3122462 -0.007839731 -0.43528613 -0.38599685 0.18048815 0.19739366 -0.61825335
463 0.41390777 -1.009014 0.28162095 -0.13750248 -0.04217398 0.30480814 0.35746652 0.29724076 0.37318617 -0.09592312 0.04185853 -0.26972947 0.2879788 0.2318105 0.031683955 -0.21896179 -0.35901278 0.61534137 0.119667105 -0.42292625
1311 0.49978545 -0.77873427 0.15820043 -0.09330304 -0.3863958 0.11094606 0.34295708 0.31583562 0.34726268 -0.011546336 -0.106839776 -0.13921055 0.2624016 0.28339458 0.025144715 -0.024617415 -0.24038282 0.2966747 0.33631814 -0.7638097
1613 0.7223912 -0.6006985 0.38147295 -0.014655754 -0.28809437 0.1895644 0.37556726 0.28736886 0.10982197 -0.12452067 -0.09244856 0.0885076 0.1568287 -0.017739587 0.1352616 -0.2713688 -0.4707356 0.29529908 0.18925351 -0.74385333
703 0.23510015 -1.0965183 0.36766666 -0.13526505 -0.13620734 0.18768759 0.25894037 0.12739787 0.1389997 -0.11897843 0.0598722 -0.082260005 0.507316 0.33620948 -0.1491878 -0.39026463 -0.22452185 0.3122425 0.18175532 -0.5046316
2260 0.32040274 -0.8916756 0.42228377 -0.16200899 -0.15912001 0.03674327 0.35212055 0.18383996 0.08043532 -0.2905626 -0.1972107 -0.13647495 0.4846384 0.22869287 -0.0029275334 -0.36594903 -0.48805198 0.21287096 0.25540295 -0.58616275
2207 0.3572109 -0.97415555 0.16044946 -0.02059217 -0.119725555 0.120956115 0.2736221 0.12140542 0.07198754 -0.2211425 -0.092412814 -0.2329603 0.42678148 0.21030155 0.11768095 -0.36131278 -0.16387019 0.46221936 0.24922632 -0.50158614
545 0.56481767 -0.9256903 0.41631138 -0.0013978933 -0.09057291 0.16963996 0.20987037 0.30653173 0.32983178 -0.38888177 -0.040712975 -0.15217361 0.31797785 0.05666206 -0.020883584 -0.22608866 -0.33858055 0.57959914 0.21371739 -0.5349775
2269 0.38371423 -0.96448636 0.26059088 0.031235918 0.14102711 0.21338812 0.3759574 0.30887878 0.49232778 -0.17153455 0.09550008 -0.29145002 0.2567222 0.24097613 0.018423863 -0.19421564 -0.5040961 0.59551734 0.073173404 -0.52552986
2128 0.3676613 -0.78682965 0.6554209 0.013010545 -0.20990385 -0.07497735 0.218111 0.14518805 0.004091853 -0.07484639 -0.3131243 -0.045644257 0.6287789 0.09824159 -0.034189038 -0.076503284 -0.3134927 0.13605464 0.2539022 -0.74219555
915 0.40048656 -0.77785724 0.18834256 -0.072325125 -0.13353981 0.26851273 0.4764223 0.37471923 0.32594314 0.0142036555 0.02162758 -0.27036217 0.19006675 0.0911865 0.050718796 -0.35610753 -0.4465622 0.51485974 0.15444373 -0.4434905
48 0.4153925 -0.962991 0.3772966 0.05491507 -0.10098838 0.056951836 0.07317332 0.33621824 0.18609597 -0.3049109 -0.007700517 -0.046113584 0.54932743 0.20165637 -0.05866282 -0.12532756 -0.4605965 0.34315106 0.2949618 -0.5977592
1246 0.7739924 -0.81222075 0.067045555 0.03353031 -0.076395586 0.1385452 0.13372995 0.40160775 0.18741895 -0.12247526 0.26515952 -0.017929068 0.30300134 0.014351732 -0.10694019 -0.24994309 -0.34382418 0.58903515 0.088094085 -0.4327222
681 0.7249193 -0.76009107 0.0029319902 -0.0118948305 0.042060617 0.28958017 0.12559703 0.31197366 0.3435279 -0.0028409797 0.29870903 -0.15460551 0.36777672 -0.084029675 -0.20124893 -0.35845006 -0.33782822 0.5629801 0.2343692 -0.5222619
1015 0.4070177 -0.9033939 0.2828034 0.05220826 0.10933382 0.1928396 0.0048253923 0.2069886 0.16263142 0.023460906 -0.056695852 -0.26918414 0.45874125 0.14609414 -0.017505778 -0.1361044 -0.330861 0.47477427 0.27306595 -0.5468037
1954 0.41207188 -0.73481995 0.5043753 -0.2896822 -0.3522027 0.06897606 0.23256361 0.12344992 0.029652579 -0.13500711 -0.25857037 -0.24724974 0.29771787 0.1300973 -0.08742034 -0.38244233 -0.44419807 0.30630344 0.43661207 -0.63699925
769 0.41589588 -0.7216949 -0.015846366 0.42893055 0.4774574 -0.36229393 0.46038765 -0.29465356 0.019189898 0.4896691 -0.5818843 0.88258684 -0.1947881 0.30419716 -0.56964695 -0.12149175 -0.3330808 0.5954018 1.063801 0.5853869
1633 0.37087345 -0.95597416 0.45671296 -0.2356127 -0.22228186 0.01571883 0.312645 0.4032128 0.20426986 -0.086073846 -0.08969905 -0.022201117 0.32156074 0.25829786 0.044026274 -0.10261845 -0.23908073 0.34507656 0.24179886 -0.63975126
1021 0.54551685 -0.5110109 0.7232342 0.021980608 -0.39994714 0.022803199 0.39497578 0.14615561 -0.09749435 -0.14718121 -0.2992514 -0.122159 0.4131879 0.064026676 0.0026128534 -0.17106129 -0.32252917 0.2989207 0.32665634 -0.5602051
1626 0.39178437 -0.7288007 0.58334833 0.16214712 -0.10259819 0.009476676 0.34510404 0.37278467 0.053834602 0.012495462 -0.19804525 -0.15849333 0.5484702 0.21495585 0.041215528 -0.2789169 -0.101238586 0.2255699 0.29956496 -0.672982
849 0.43762624 -0.68410623 -0.1624929 0.4212617 0.41925952 -0.42226744 0.5404803 -0.3108716 0.077100344 0.47146884 -0.620323 0.87441456 -0.25916246 0.39563265 -0.6462054 -0.22427738 -0.2866205 0.5586857 1.04404 0.5165199
672 0.33193216 -0.90777194 0.46946985 -0.3002784 -0.21661183 0.11365459 0.25054947 0.13834524 -0.06869363 -0.023345472 -0.25293627 -0.42542621 0.44463876 0.33194956 -0.06732098 -0.21359019 -0.4168677 0.35729787 0.38483638 -0.5366137
966 0.35643506 -0.89772457 0.39188436 -0.058135763 -0.21159332 0.00070499163 0.23203924 0.19135393 0.036920473 -0.12213249 -0.26497853 -0.41013226 0.3806544 0.24729761 -0.043373436 -0.28117508 -0.28083456 0.3192214 0.3904444 -0.7049506
1516 0.422729 -1.0247371 0.2849956 -0.16847979 -0.044279832 0.16895945 0.36935836 0.27336726 0.3162692 -0.052140534 0.096659355 -0.2753897 0.19082604 0.2738437 -0.03236399 -0.24790731 -0.32790363 0.5785664 0.10553569 -0.4912205
1365 0.45744345 -0.952965 0.22910467 -0.036479153 -0.21818218 0.001440575 0.13892841 0.29618979 0.3615825 -0.3178564 0.072775446 -0.059075173 0.3449508 0.17207533 -0.30895147 -0.30007622 -0.35932916 0.39370668 0.14431272 -0.66261
1856 0.45087892 -1.0789058 0.22288413 -0.20681399 -0.21369304 0.06904082 0.20084734 0.11342071 0.008948115 -0.23381475 -0.013781665 -0.10602503 0.5474933 0.23670053 0.17186025 -0.4443502 -0.31816193 0.3715213 0.26833612 -0.45063207
393 0.47448272 -0.99724084 0.16754991 -0.07401266 -0.06189878 0.24375507 0.26743054 0.04810244 0.33378753 -0.09870902 0.15798841 -0.3817933 0.2245192 0.28682852 -0.14273168 -0.3118096 -0.33211416 0.630717 0.16290861 -0.5955211
1841 0.41978994 -0.9269143 0.40537786 -0.14257284 -0.30202067 0.011457803 0.30970025 0.2863767 0.23558244 -0.22591978 -0.13358124 -0.2122882 0.33680177 0.29537088 -0.20766059 -0.2229135 -0.20958832 0.34920844 0.21062477 -0.60476214
1887 0.4194773 -0.74798846 0.5279287 0.11056813 -0.101117454 -0.036719304 0.20159557 0.26270503 0.043603975 -0.13843499 -0.16248526 -0.095303506 0.53945637 0.13982388 -0.040169213 -0.23817368 -0.33895153 0.15379192 0.37084866 -0.7707694
1191 0.34193817 -0.8297815 0.47644484 0.04455277 -0.31014645 0.0088736825 0.281711 0.1433605 -0.03293798 -0.18834619 0.029821424 -0.0829556 0.428171 0.20587453 -0.25758743 -0.25191265 -0.3185243 0.24728216 0.33471325 -0.7477862
655 0.40407303 -0.82201576 0.44017833 -0.2746926 -0.22362873 -0.023346495 0.3710697 0.24046546 0.18043049 -0.3431136 -0.16672555 -0.17778194 0.22249934 0.095244035 0.016371392 -0.40386945 -0.16118574 0.46249694 0.4027315 -0.63802105
2186 0.53540695 -1.0145099 0.1813662 0.020751433 -0.15936925 0.15432884 0.08690364 0.0895852 0.18267979 -0.17671646 0.22710456 -0.25658673 0.39399746 0.1922537 -0.20761862 -0.28850278 -0.24969521 0.5495665 0.28271535 -0.4989714
1457 0.3084597 -0.7226995 -0.21455827 0.46700245 0.4526227 -0.46122676 0.55850255 -0.25882623 0.19705597 0.49425972 -0.6559503 0.7708671 -0.15140826 0.295831 -0.6268576 -0.24843338 -0.32884532 0.5879431 1.0070214 0.6023152
2022 0.66179657 -0.754705 0.6105901 -0.00065480446 -0.3638741 0.014262243 0.17298031 0.26733416 -0.03688881 0.007579733 -0.043631 0.02038986 0.31589666 0.18919232 -0.04553676 -0.14937805 -0.46734235 0.19551143 0.23725025 -0.68385166
1262 0.29415396 -0.7862209 0.31666484 0.1723761 -0.024628516 0.21069002 0.395043 0.23634651 0.06808751 -0.028845081 -0.2785899 -0.2245242 0.5446332 0.12529624 0.32046932 -0.37968615 -0.11921204 0.28582987 0.35045573 -0.6292362
2482 0.35765254 -0.72179806 -0.17440426 0.43351594 0.5540365 -0.43291426 0.34317917 -0.14108407 -0.04692272 0.37949127 -0.68552274 0.84195024 -0.20666926 0.2903366 -0.73375046 -0.3217993 -0.27128768 0.6768469 1.0556729 0.5318755
977 0.8251891 -0.6222091 0.48950627 0.10194314 -0.3141845 -0.04659449 0.24765788 0.33790004 0.104067296 0.12420267 0.13818917 0.15032457 0.32265475 0.17587076 0.06975843 -0.25755867 -0.38095483 0.2572139 0.09875132 -0.6885255
567 0.25654337 -0.74509966 -0.25836292 0.41987234 0.49783963 -0.4151524 0.55650735 -0.31486174 0.114342816 0.48475432 -0.67038894 0.78754425 -0.13592541 0.24325319 -0.7940581 -0.3336216 -0.38284668 0.6015442 1.0877334 0.58473104
546 0.31192884 -0.6905022 -0.19493836 0.44268882 0.5251107 -0.42728785 0.45784286 -0.2885371 0.113917865 0.44126633 -0.639032 0.8843844 -0.19252552 0.35028356 -0.68197316 -0.34454235 -0.46085247 0.5762372 1.0521874 0.52815217
1900 0.61395127 -0.7094163 0.5050576 -0.1835938 -0.3005653 0.1638299 0.20395678 0.3093202 0.19678344 -0.28791797 -0.26822478 -0.09222101 0.33966443 0.016500395 0.046974927 -0.2762633 -0.26406378 0.45310983 0.37265575 -0.53905237
439 0.4552284 -0.917552 0.36640018 -0.06577227 -0.117671885 0.25332993 0.2383905 0.252164 0.36676317 -0.15299645 0.13041635 -0.111210756 0.48999208 0.29448366 -0.097530395 -0.20024434 -0.4011024 0.52663887 0.17197837 -0.46166456
1318 0.34970757 -0.7862493 -0.15760085 0.3329723 0.46102476 -0.4977643 0.37459725 -0.16163753 0.023213306 0.52272856 -0.7092095 0.7312283 -0.35094458 0.23578657 -0.7044128 -0.3429379 -0.24174587 0.6526958 0.9893451 0.5568896
1094 0.64088094 -0.7716273 0.36902705 0.011456144 0.16874208 0.25430554 0.107597545 0.6598523 0.21192382 -0.03080862 -0.20541337 -0.08205748 0.40052235 0.20912917 0.0060952613 -0.3742228 -0.39614123 0.40505445 0.043912966 -0.47607967
91 0.288362 -0.7572306 -0.19723342 0.42065668 0.50002676 -0.4845195 0.45173985 -0.22940768 0.18819506 0.48887953 -0.63158 0.71528065 -0.29069933 0.23972185 -0.7104632 -0.31849092 -0.30261445 0.7119544 1.0478262 0.5519153
21 0.6221419 -0.61339194 0.62307554 0.11058766 -0.27033246 -0.06530767 0.40786007 0.14714053 -0.07142767 -0.062930554 -0.36015266 0.02097923 0.31654882 0.026932528 0.026448345 -0.3356514 -0.25754803 0.11695059 -0.0134822 -0.6881279
1647 0.43020913 -0.6451586 -0.011083107 0.38969034 0.45828047 -0.3966675 0.44326243 -0.31934074 -0.04250538 0.45482156 -0.6618162 0.98091966 -0.060664818 0.26487926 -0.6128255 -0.108851016 -0.300803 0.5517942 0.98200136 0.57211256
348 0.30280566 -0.86022377 0.5619996 -0.25811586 -0.17467694 -0.102467954 0.26057363 0.213259 0.025159925 -0.091150574 -0.121330746 -0.1759124 0.42508355 0.24631906 -0.121868834 -0.33075345 -0.30517226 0.20972255 0.43680838 -0.7702609
1081 0.74220747 -0.50043035 0.24583563 0.14547208 0.14496864 0.50336695 0.12792355 0.64042133 0.1992875 0.0767951 -0.22822283 0.10790068 0.3788636 -0.06868571 0.057620756 -0.713426 -0.14359981 0.42687404 0.076710165 -0.4901704
1225 0.5091504 -0.44973722 0.05243338 0.07039929 -0.6348602 -0.06570865 0.46592507 -0.15448144 0.3944169 0.52859575 -0.69407177 0.40495124 0.5176063 -0.5433677 0.13553043 0.027101703 -0.13483554 0.012977252 0.05590715 -0.669226
2117 0.6828673 -0.63690716 0.42872024 0.13919504 -0.2863872 0.15821914 0.4158876 0.56174123 0.27698353 0.0808055 0.1583002 -0.13697247 0.4562857 0.17408888 0.053387072 -0.39183137 -0.37938252 0.491634 0.1402851 -0.33828643
2347 0.44765207 -0.83733934 0.13021176 0.023739235 -0.18652089 0.051704086 0.35972875 0.4931586 0.4861398 0.02363525 0.1983717 -0.24599412 0.12326678 0.39306572 -0.042142548 -0.05124434 -0.34253752 0.5715417 0.17102416 -0.50124145
1218 0.41468468 -0.98679185 0.2949557 0.020154681 -0.05216519 0.35112548 0.3561722 0.33727077 0.40349114 -0.04497428 0.07500096 -0.38995197 0.22706044 0.26320723 -0.07524798 -0.06559667 -0.47326112 0.6431248 0.12453034 -0.5108568
1725 0.42796698 -0.6158398 -0.13396987 0.3724914 0.36220446 -0.6004809 0.3714203 -0.19753921 -0.12799037 0.42967677 -0.71653587 0.80331033 -0.24229208 0.2636929 -0.47620592 -0.29569617 -0.25938034 0.7422603 1.0693698 0.5727314
434 0.91008353 -0.62057066 0.5445987 -0.030092215 -0.38138252 0.0661028 0.3143274 0.40565717 0.088010184 0.193785 -0.039888017 0.20098972 0.259015 0.12029127 0.07106637 -0.30469966 -0.34698072 0.23766795 -0.08475757 -0.5465136
1622 0.7348427 -0.5733551 -0.13436686 0.07162471 0.047242038 0.3751819 0.2183053 0.69506943 0.20324531 -0.058283802 -0.23008548 -0.0640359 0.30338016 0.019904632 -0.24171981 -0.7037377 -0.1211198 0.41334072 -0.026195219 -0.45378602
540 0.5747191 -0.8290689 0.34087655 -0.15921259 -0.096443824 0.3119301 0.2505259 0.5925893 0.37309694 0.015561488 -0.03476646 -0.2295136 0.3277393 0.25518125 -0.2339717 -0.26162523 -0.50932544 0.52007025 -0.0072051412 -0.28841186
1893 0.21537936 -0.7232726 -0.17649229 0.37994212 0.46965054 -0.3334594 0.45374852 -0.29421777 0.1035414 0.40846637 -0.5980809 0.9322501 -0.13201326 0.36731935 -0.5560183 -0.1335009 -0.4515222 0.64948404 1.0593152 0.5394691
2388 0.79678077 -0.5507588 0.30490765 0.03819562 -0.06401959 0.1265574 0.39402452 0.6499399 0.2992527 -0.017878843 -0.11492406 -0.14164616 0.26522648 -0.013581226 0.31876764 -0.34074086 -0.26337916 0.62328035 0.12829196 -0.34081498
1844 0.707667 -0.25760502 -0.058742043 0.22187196 0.23689185 0.39520875 0.15385014 0.74540365 -0.0961391 -0.0068465956 -0.25182962 0.20490938 0.1860186 0.010960385 -0.12468637 -0.63174474 -0.030217674 0.4773488 -0.0017703306 -0.35666355
171 0.26185858 -0.8947583 0.57525104 0.16227001 -0.05726184 -0.0812862 0.19356681 0.15360962 -0.009385909 0.047837894 -0.2477704 -0.06725878 0.79828554 0.023234129 0.08501436 -0.14628269 -0.18833081 0.10561214 0.26753378 -0.75531405
272 0.4316682 -0.7497618 -0.10193213 0.46393546 0.41554508 -0.27396598 0.46615985 -0.27235827 -0.0002259226 0.41259518 -0.74420726 0.8740534 -0.18452 0.29751888 -0.69430727 -0.23187676 -0.26686096 0.6370524 1.047603 0.7146049
1659 0.5477371 -0.6459385 0.35932845 -0.060378034 -0.12545979 0.12909523 0.4496912 0.38179296 0.2832345 0.18740296 0.15818217 -0.17360277 0.16380899 0.15517908 0.2785861 -0.29988834 -0.49751207 0.49317124 0.27760923 -0.5674385
1273 0.4993915 -1.0147779 0.3469863 -0.0048705633 -0.040988125 0.33956167 0.2631861 0.15070893 0.44909513 -0.25773132 0.18383035 -0.24457859 0.3558557 0.2833026 -0.27887154 -0.0018892711 -0.5054002 0.630959 0.076914795 -0.46437028
1047 0.35310954 -1.0040473 0.38951427 -0.21301118 -0.2738178 0.13672619 0.14388303 -0.038626153 0.08842715 -0.28254637 -0.09317789 -0.18556552 0.4252378 0.27539855 -0.224808 -0.32838526 -0.3373115 0.30515593 0.36935323 -0.66741186
1605 0.5135608 -0.91800314 0.2356074 0.10608503 0.099788286 -0.09062901 0.18296681 0.3907536 0.21497609 -0.1198365 -0.04019217 -0.28191575 0.473604 -0.16411708 0.16240883 -0.578829 -0.1389237 0.587083 0.14203174 -0.4890687
1564 0.26320496 -1.0295618 0.4109864 -0.2174224 0.10403197 0.09466828 0.09061037 0.06518428 0.10483752 -0.12111784 -0.23986356 -0.29403764 0.3250281 0.231634 0.09658137 -0.43435466 -0.17248301 0.50471795 0.27844673 -0.62126684
975 0.34513474 -0.98938197 0.3704872 -0.1624493 -0.30989712 0.25057647 0.31211284 0.06882312 0.055036027 -0.25530794 -0.17574249 -0.33905014 0.41230375 0.3409112 -0.15653937 -0.37218186 -0.32184076 0.3750493 0.31776875 -0.5563998
110 0.4981784 -0.745453 0.5524331 -0.11604696 -0.33669934 0.08571736 0.305746 0.37747028 0.006536523 -0.0941833 -0.46736038 -0.30403334 0.23184612 0.21147127 -0.024230612 -0.5800362 -0.25484976 0.33703014 0.1148999 -0.41446322
365 0.45429346 -0.57379806 -0.017603958 0.4287408 0.44043875 -0.4071835 0.36694777 -0.36339253 -0.069183685 0.45897174 -0.58291876 1.035688 -0.04094796 0.29549018 -0.6146954 -0.18777265 -0.26964945 0.6987971 0.9684886 0.54726267
2250 0.41675913 -1.0063211 0.24811524 -0.14729609 -0.21887666 0.1663118 0.3267191 0.24955994 0.019947078 -0.056722928 -0.032040186 -0.1744757 0.44700757 0.2357717 0.15986712 -0.43272346 -0.21258563 0.4392674 0.22640009 -0.4637851
1371 0.6845629 -0.8822341 0.29258966 -0.1085612 -0.24177597 0.03216882 0.38584635 0.4057115 0.24781218 -0.07448664 0.23100229 -0.0036290716 0.118419155 0.1998659 0.03778141 -0.25533596 -0.43074974 0.4765692 0.08024767 -0.60399026
781 0.39505127 -0.8143253 0.4193844 -0.2229531 -0.17002115 0.05169044 0.24015735 0.08597994 0.09462169 -0.083419815 -0.2802183 -0.3627454 0.3101173 0.24097107 0.009543128 -0.6601116 -0.32626602 0.3116931 0.3403171 -0.6240971
387 0.44339782 -0.74111515 0.614213 -0.20541713 -0.27884877 0.04983993 0.35651204 0.28695303 -0.023413863 -0.1330461 -0.42555586 -0.36075756 0.35970235 0.14809103 -0.07841888 -0.36716065 -0.4071634 0.29345793 0.257104 -0.4817259
391 0.7395786 -0.35289145 0.25557947 0.34071434 -0.07656298 0.16004144 -0.042242873 0.46224165 0.1326654 -0.025523834 -0.21886072 0.0519875 0.3252744 0.02211029 0.31900454 -0.37132922 -0.19085643 0.51098627 0.31603292 -0.42918962
1485 0.24671617 -0.8001987 -0.25278124 0.39842692 0.5149516 -0.51800233 0.46338817 -0.22603339 0.113824956 0.47375217 -0.6344154 0.6612202 -0.4513568 0.2725903 -0.87243456 -0.37292075 -0.3203831 0.62363064 1.1737301 0.3909729
1403 0.39931843 -0.71106356 -0.34721926 0.33873913 0.6399208 -0.44912285 0.43448392 -0.21729371 -0.025608229 0.5067779 -0.6536807 0.6160287 -0.36176857 0.24701475 -0.7324412 -0.394203 -0.34524652 0.7216509 1.1393683 0.456729
1491 0.34186265 -0.92949754 0.26776946 -0.054823082 -0.0060026958 -0.14476307 0.21933645 0.22660469 -0.0132303 -0.060409583 -0.2228186 -0.3560185 0.4113078 0.13417548 0.09781692 -0.3551068 -0.25278968 0.31434837 0.32740417 -0.8047442
1248 0.42778993 -0.9350134 0.35338223 -0.0113417255 -0.14898576 0.2607982 0.17338935 0.30111173 0.5082482 -0.0010430651 0.0846966 -0.18804719 0.22991943 0.4913689 -0.20722397 -0.13149253 -0.28779176 0.42488647 0.25429016 -0.7245442
406 0.32620993 -0.6901602 -0.03735069 0.38867038 0.53193 -0.37358263 0.39390647 -0.42854756 0.014502818 0.44460967 -0.6293525 0.9500072 -0.06102071 0.33031452 -0.628785 -0.19400755 -0.42362392 0.6557638 1.0487925 0.5751475
669 0.29577973 -0.8054042 -0.34278902 0.32607383 0.5830349 -0.3714762 0.43647712 -0.2525111 0.114278026 0.50433105 -0.6993789 0.64791363 -0.4376498 0.12747188 -0.68896604 -0.30108777 -0.32613182 0.6962143 1.0899154 0.45131236
2062 0.23118968 -0.9913975 0.44628194 -0.2714518 -0.19257784 0.050951287 0.11520984 0.059367724 -0.0959225 -0.3664087 -0.29707727 -0.32291177 0.27631396 0.24877833 -0.23556341 -0.2124906 -0.3827898 0.40581223 0.40421942 -0.64558226
1728 0.279041 -0.8990927 0.41222882 -0.12144683 -0.023411086 0.07518409 0.3290678 0.519024 0.265531 0.098665506 0.0012021724 -0.34776872 0.17692102 0.18986496 0.16918132 -0.20820768 -0.4756716 0.6486373 0.23975462 -0.50748295
1436 0.6145072 -0.7658075 0.56011367 -0.25655267 -0.43526247 0.006223753 0.31363913 0.19741066 -0.06990373 -0.18364576 -0.21316493 0.013573458 0.26696455 0.3564635 -0.024562256 -0.34975022 -0.3919287 0.2031183 0.16579697 -0.5947216
1981 0.39381823 -0.9159866 0.2879936 -0.14536583 -0.189587 0.3067746 0.32720852 0.15987875 0.33469835 -0.103631094 -0.0937141 -0.37117308 0.2734743 0.2591244 -0.09166179 -0.12907958 -0.4802698 0.49035004 0.23403835 -0.5492059
1439 0.3117858 -1.0190834 0.40825897 -0.12209846 -0.32424337 -0.08729631 0.19792335 0.23921931 -0.17020604 -0.2204074 -0.064036675 -0.23603351 0.49142873 0.23104937 -0.10674123 -0.20941627 -0.45261034 0.34536067 0.3576685 -0.5832727
1652 0.4140187 -0.94566494 0.56037176 -0.29844907 0.008916458 0.082246855 0.05786004 -0.013721084 0.08369221 -0.19504292 -0.23244494 -0.28896666 0.4465912 0.11518602 -0.039115295 -0.2313209 -0.2544627 0.4761876 0.41635832 -0.68433577
2403 0.6338212 -0.866922 0.31749946 -0.24528842 -0.12225103 0.07855291 0.13183913 0.51570725 0.37042886 -0.15265661 0.056123856 -0.03920676 0.38952702 0.011748903 -0.25623396 -0.39561996 -0.27593812 0.6040855 0.0031012183 -0.36679664
51 0.42742568 -0.7170473 -0.09836178 0.5111354 0.41326627 -0.38205734 0.53024006 -0.31172976 -0.04903906 0.31632456 -0.621191 1.00313 -0.12531659 0.26595727 -0.5720196 -0.20403649 -0.34762427 0.7065326 1.0040948 0.69968814
923 0.37075523 -0.6703115 -0.1658825 0.31161767 0.41110516 -0.3762713 0.52473056 -0.36389604 -0.041523382 0.46276113 -0.5546946 1.0182531 -0.054470938 0.37625846 -0.57800716 -0.14073329 -0.285426 0.7093693 1.0236079 0.58953214
1007 0.38792738 -0.8946033 0.42804515 0.05979092 -0.20500532 0.24979311 0.40919062 0.5573572 0.49157926 -0.25413674 -0.22487283 -0.17916825 0.26076683 0.475319 -0.05405051 -0.32377842 -0.24601243 0.53989804 -0.07647039 -0.3476363
1052 0.27576098 -0.72385556 0.23789677 0.13188611 0.027812073 0.43923414 0.39597186 0.12537694 0.42520422 0.1199555 0.17590606 -0.385967 0.23113827 0.355745 -0.16254301 -0.26037621 -0.30427447 0.6154342 0.21486902 -0.45600498
2374 0.51369727 -0.6272705 0.5065359 -0.12353697 -0.5180201 0.07005472 0.39481372 0.25563675 0.16519544 -0.33235788 -0.11109862 -0.075248495 0.31396604 0.20333594 -0.19951032 -0.25073797 -0.37705833 0.33842576 0.3717546 -0.5975495
16 0.48727837 -0.57995564 0.08502443 0.21327458 -0.49960285 -0.16687332 0.48980308 -0.23311116 0.44936755 0.55731237 -0.97900283 0.39882156 0.5940279 -0.5559154 0.28291818 0.12902412 -0.1848973 0.066090815 -0.13894378 -0.69031113
170 0.27364025 -0.7146329 -0.28943223 0.009225709 -0.47846287 -0.1689982 0.5444908 -0.050884735 0.6080361 0.6090897 -0.7569263 0.36690772 0.7560812 -0.63615596 -0.013735207 -0.13266078 -0.034137387 0.063753426 -0.109449826 -0.55551356
1147 0.3280301 -0.6359568 -0.030010518 0.37955362 0.47653678 -0.30074283 0.41073164 -0.31652436 -1.0021036e-05 0.44235274 -0.70780116 1.0736227 -0.025317911 0.40476918 -0.6340865 -0.1673015 -0.37228304 0.60290885 0.99544954 0.6028422
953 0.2854429 -0.72990257 -0.19611971 0.48236522 0.48789936 -0.47372082 0.50107735 -0.23601876 0.011623059 0.25359362 -0.63909864 0.8530894 -0.12457446 0.28767473 -0.63214225 -0.11269694 -0.30053857 0.73055065 1.1643993 0.5616269
1693 0.36353478 -0.6912208 -0.30166143 0.4111445 0.44509736 -0.4475693 0.5360678 -0.38796306 0.04540364 0.45719925 -0.5971703 0.6567263 -0.20953256 0.18794575 -0.63580906 -0.27941984 -0.3091763 0.5621764 1.1581659 0.47224572
1914 0.3329117 -0.9817712 0.39385855 -0.1180029 -0.003425644 -0.021035258 0.2777291 0.22803496 0.08271864 -0.21718095 -0.24632825 -0.27355227 0.20951685 0.31530586 0.0019941987 -0.17320795 -0.11950328 0.3604044 0.327716 -0.80550003
529 0.5058914 -0.92485046 0.2696258 0.055395063 -0.30427805 -0.06412944 0.27550456 0.25249624 0.12132945 -0.33449903 0.12739679 -0.03571271 0.42360586 0.22799662 -0.24210492 -0.26238215 -0.39762524 0.3724741 0.057967965 -0.5058632
507 0.5159519 -0.7505448 0.5784484 0.033649128 -0.10509881 -0.1545354 0.26774785 0.18966897 -0.18685697 0.12847283 -0.3537321 -0.030944038 0.51380044 0.0074660177 0.2643542 -0.031169936 -0.26631692 0.21644825 0.1239147 -0.7796651
2248 0.43457976 -0.5152335 0.07177686 0.3978774 0.4153604 -0.417574 0.6227961 -0.25864372 -0.0392795 0.41853452 -0.44415227 1.0574026 0.03198572 0.30419376 -0.4456604 -0.1699962 -0.20161803 0.7139344 1.0141096 0.6646899
1919 0.43530118 -1.0189835 0.12932695 -0.011599362 0.06883998 0.44351572 0.38889235 0.122968614 0.19418444 0.09617905 0.22769389 -0.47960326 0.52558035 0.13024531 -0.029078089 -0.20960449 -0.3448133 0.7134664 0.15931349 -0.3298483
714 0.6523721 -0.4890451 0.38552105 -0.07527696 -0.1569659 0.08314901 0.17285432 0.4660386 0.1786288 0.13896951 0.00036775036 0.073542155 0.3333073 0.018578 0.35439005 -0.32781544 -0.22712171 0.522814 0.38574407 -0.5138212
1620 0.20224328 -0.7670152 -0.2675621 0.48253015 0.40144885 -0.4668919 0.58939856 -0.31859857 -0.05850968 0.53429765 -0.60533476 0.56873715 -0.28993943 0.11775713 -0.77211654 -0.39127177 -0.38979852 0.62316954 1.203858 0.4938588
485 0.37204272 -0.99846274 0.3558764 -0.13315848 -0.51734984 0.09994225 0.20256758 0.14498438 0.06071031 -0.45374426 -0.00362173 -0.017572083 0.42502335 0.29918733 -0.058426037 -0.36365426 -0.36346135 0.32446522 0.43156812 -0.4876448
1392 0.32406127 -0.90916204 0.5628373 -0.14276904 -0.31879798 -0.015066715 0.13788646 0.25123793 -0.13364884 0.012172426 -0.1982943 -0.094611496 0.52351624 0.008454171 0.16343588 -0.28858715 -0.08373788 0.36404428 0.4315577 -0.5695901
1305 0.5839209 -1.0333936 0.09150234 -0.061727416 -0.06397744 0.30254027 0.28788823 0.061384372 0.30403385 -0.14543544 0.30011427 -0.31444648 0.23149036 0.18873984 -0.27282116 -0.20913658 -0.4491153 0.6078356 0.10972931 -0.60497385
986 0.5072133 -1.0327628 0.28995672 -0.11927679 -0.05810545 0.15956756 0.27487525 0.2820645 0.20361622 -0.0076324423 0.003123554 -0.3938945 0.337926 0.24928401 -0.15480465 -0.26720217 -0.3111278 0.6032444 -0.005316386 -0.45369342
1451 0.3179627 -0.7456298 -0.21523009 0.38184595 0.40649837 -0.39819723 0.48511916 -0.22149484 -0.04094999 0.4636112 -0.59368473 0.8108996 -0.21985993 0.15874922 -0.61852944 -0.33446196 -0.34711367 0.72121376 1.1875151 0.64008677
1929 0.4978389 -0.8743615 0.33855417 -0.046048943 -0.2423934 0.17802627 0.5068223 0.3580996 0.24990411 -0.08260721 0.18253528 -0.28251824 0.23001386 -0.06005444 -0.046668705 -0.53222716 -0.04053887 0.7892652 0.12500499 -0.39933205
2198 0.4181329 -0.60099095 -0.110220194 0.41423628 0.5102632 -0.29151762 0.43154043 -0.3279677 0.13833533 0.39075226 -0.6875464 1.0656649 -0.032999564 0.4230194 -0.49154532 -0.11550488 -0.32090306 0.6011983 1.0695401 0.54208636
2473 0.34766823 -0.6787545 -0.14592533 0.09221422 -0.5927982 -0.02030381 0.53703606 -0.24677064 0.57492745 0.55354995 -0.9941428 0.29803663 0.7731287 -0.74465555 0.072759315 0.059751667 -0.1989819 0.18745013 -0.08314789 -0.6071424
1520 0.47116175 -0.6995142 0.5629308 -0.026291521 -0.34681374 -0.094219424 0.11121011 0.2780706 0.1393138 -0.31620315 -0.17273752 -0.15797167 0.4467428 0.20180772 -0.27991623 -0.046966236 -0.18320702 0.41267556 0.4452456 -0.6666069
1084 0.3557617 -0.93894047 0.36385122 -0.15720503 -0.15174605 0.09152678 0.28484946 0.4405788 0.17596877 -0.1932616 -0.09895516 -0.16056818 0.3423183 0.060722247 0.06625544 -0.44309637 -0.30609658 0.53621274 0.17140684 -0.3812758
716 0.33695874 -0.8846646 -0.0070462977 0.020467835 -0.103347875 0.13866791 0.39866576 0.122781016 0.41323182 -0.1941741 0.017093211 -0.3651268 0.1806963 0.1208486 -0.025661165 -0.32128006 -0.30392355 0.54337025 0.21316217 -0.6517563
558 0.4781898 -0.7131658 -0.022819627 0.15796338 -0.6222157 -0.17502019 0.5019701 -0.17512012 0.6204762 0.58097446 -0.901022 0.45137793 0.77731824 -0.63029444 0.30012226 0.005149245 -0.096907385 0.13303757 -0.124055564 -0.65851444
2049 0.4318983 -0.71794415 -0.21433274 0.03873996 -0.56804764 -0.18002169 0.6204314 -0.13895838 0.57629466 0.70955676 -0.8851229 0.3015996 0.76978654 -0.76565063 0.112369366 0.07780386 -0.14746591 0.17801625 -0.10937425 -0.5996899
1458 0.29058793 -0.65522254 0.0031987594 0.43562758 0.4321923 -0.40371305 0.5352956 -0.48804575 -0.044967663 0.36650357 -0.59487647 1.0132002 -0.031120826 0.4129151 -0.67050517 -0.1979971 -0.2657781 0.6599858 1.1130426 0.5372544
1187 0.78441614 -0.6691526 0.23951781 -0.17372955 0.025915235 0.16691199 0.05719881 0.53286415 0.45918554 -0.069118224 0.03939262 -0.115659036 0.29305735 0.07259167 0.037057225 -0.30047682 -0.6429273 0.68402064 0.07718202 -0.40327683
1601 0.28133687 -0.88308436 0.5769952 0.08753095 0.19115797 -0.142955 0.27949518 0.20537268 0.028866757 -0.16469544 -0.23810565 -0.26818666 0.5035679 0.21596824 0.102670796 -0.15522115 -0.2603929 0.34909925 0.28878483 -0.85529935
1533 0.30470547 -0.72652155 -0.10676028 0.56100166 0.46218094 -0.5174393 0.48285377 -0.21873938 -0.008428182 0.35836476 -0.69136995 0.78173816 -0.020270262 0.24343956 -0.62253475 -0.3123703 -0.326942 0.6990409 1.1723465 0.7336747
1509 0.44741297 -0.6177997 -0.14849815 0.3317517 0.54661685 -0.33810416 0.48698366 -0.33191183 0.19016138 0.4095091 -0.5900586 0.9338934 -0.18977025 0.29801252 -0.8151928 -0.26796722 -0.38922915 0.70894414 1.0096338 0.54376984
2389 0.20706815 -0.76789176 -0.15707967 -0.029891256 -0.58327276 -0.16239397 0.49618548 -0.33476892 0.6214441 0.63368773 -0.90516704 0.32377166 0.7462713 -0.66117895 0.1466077 0.10066523 -0.2691038 0.2452753 -0.07436496 -0.57059723
1595 0.7058604 -0.6560868 0.74257267 -0.10479605 -0.49705574 0.10292897 0.2185858 0.41819316 0.22689499 -0.075669035 -0.21722592 -0.08818276 0.3546144 0.08821451 -0.09874922 -0.23965688 -0.20379823 0.48459706 0.18955113 -0.3948012
2305 0.5824779 -0.69774485 0.47884247 -0.08221562 -0.57075226 -0.040604807 0.17214161 0.29678154 -0.023953969 -0.0763599 0.01369356 -0.13017559 0.45875022 0.14955822 -0.3082509 -0.18145625 -0.5149994 0.25751173 0.36925596 -0.5948642
1195 0.39504603 -0.6107855 -0.049082287 0.38950756 0.37256125 -0.41794747 0.5707218 -0.26600948 0.047237393 0.42190537 -0.5955501 0.7540172 -0.053895805 0.2737314 -0.6986373 -0.16433334 -0.3481119 0.79454184 1.1006135 0.79425615
1694 0.21918315 -0.714598 -0.013452006 0.12847246 -0.60255647 -0.11100153 0.5837002 -0.32966292 0.6667004 0.494664 -1.0006549 0.44762355 0.70282656 -0.72308904 0.10650749 0.049154308 -0.20258087 0.18979447 -0.09779525 -0.6555113
856 0.68895704 -0.6506593 0.14115031 -0.2887607 -0.0022329567 0.57790095 0.2746405 0.62735647 0.2668327 -0.012891589 -0.07670502 -0.0011200662 0.3052242 -0.09613554 -0.09629544 -0.7181975 -0.14947395 0.6501819 0.12800723 -0.4036079
647 0.29512715 -0.7985501 -0.21622512 0.12334396 -0.6601973 -0.23246698 0.5716702 -0.31281915 0.61846685 0.60391814 -0.9282646 0.41233823 0.86679584 -0.7411358 0.12660278 0.02466244 -0.2251885 0.21233554 -0.16064 -0.6551987
1112 0.38297623 -0.5655346 -0.15992182 0.2194609 0.41225287 -0.23454481 0.3797588 -0.23304665 0.027619379 0.57960445 -0.7161284 1.025841 -0.12301477 0.34948093 -0.5982292 0.021535778 -0.3668117 0.74634856 0.95824 0.5505579
493 0.4634207 -0.6029629 -0.051703032 0.034496177 -0.69214827 -0.18264723 0.6338828 -0.28429952 0.5084029 0.53161496 -0.9822273 0.2851127 0.71492887 -0.68377846 -0.044480417 -0.035637073 -0.27990013 0.06985986 -0.19668426 -0.57470864
1373 0.3297705 -1.1047982 0.2513289 -0.042835843 0.05074784 0.37866834 0.3780843 -0.007144082 0.30178925 -0.14171961 0.1281706 -0.33764568 0.2709958 0.32225603 -0.11007885 -0.2264961 -0.475745 0.589306 0.055511795 -0.5919809
1512 0.40982044 -0.61673975 -0.08553461 0.28804952 0.4894586 -0.3062811 0.50424564 -0.3186719 -0.07298735 0.47544408 -0.8015169 0.9494219 0.004852841 0.34517142 -0.65553087 -0.11330755 -0.35409135 0.59470046 1.0127827 0.6627149
1815 0.58490443 -0.6394555 -0.043440405 0.48146147 0.293372 -0.3110385 0.35993695 -0.3706182 -0.0032568295 0.54309386 -0.65181893 1.0789343 -0.24232765 0.35787535 -0.7058119 -0.15535878 -0.086179525 0.7950535 0.9275037 0.56928563
2138 0.21191795 -0.8366239 0.5937962 -0.13992326 -0.20828788 0.136474 0.36799458 0.29857695 -0.078004666 -0.07717856 -0.32147047 -0.37113288 0.4922925 0.19805041 -0.00021499378 -0.30079997 -0.4917423 0.32599938 0.36079055 -0.49701232
1657 0.3831108 -0.6723063 -0.17129517 0.04311816 -0.68417704 -0.21881387 0.5490067 -0.2380971 0.4829305 0.5985152 -0.8889571 0.4754468 0.69863373 -0.6749958 0.11023404 0.11899249 -0.23882635 0.09425236 -0.062373776 -0.6664748
77 0.33837217 -0.5925773 -0.10274123 0.43015304 0.4706149 -0.40906078 0.36641464 -0.2572501 0.17498429 0.45013583 -0.6507638 0.97823113 -0.077185415 0.33547774 -0.68593746 -0.21243025 -0.45339346 0.6952675 1.1197381 0.59057796
1532 0.26448733 -0.76423 -0.22121426 0.08608135 -0.6491087 -0.10171284 0.46528488 -0.23162754 0.5424327 0.60628736 -0.82433164 0.5090368 0.75507116 -0.63231206 0.04146989 0.07554593 -0.20193984 0.1369865 -0.12404287 -0.5678157
802 0.4697475 -1.1524119 0.2869415 -0.1721517 -0.20320798 0.16063054 0.043212656 -0.023514563 -0.1213754 -0.03583318 -0.06400049 -0.40679395 0.59124094 0.32745242 -0.119718015 -0.27947608 -0.26328522 0.50307333 0.19290252 -0.439127
2427 0.26841396 -0.7678085 -0.3705151 0.4528882 0.60036117 -0.3921369 0.33197698 -0.35953683 0.006476456 0.41710564 -0.63818204 0.7110248 -0.24312434 0.2011772 -0.7534999 -0.5568687 -0.5454046 0.6354259 1.0365688 0.50131905
259 0.29463992 -0.7506397 0.5931547 -0.21289392 -0.3140176 0.20619057 0.30563304 0.29141885 0.045078445 -0.20167066 -0.2621632 -0.22887038 0.366914 0.3449597 -0.1918302 -0.3119535 -0.43450496 0.23148794 0.5177003 -0.69225115
2457 0.23184358 -0.5384732 -0.26450002 0.38533446 0.6646774 -0.3969668 0.49987382 -0.2988958 0.21155526 0.45593628 -0.7232349 0.781351 -0.047078833 0.2920292 -0.5801407 -0.3490625 -0.4471322 0.661738 1.1164824 0.50206435
1093 0.66886175 -0.70216453 0.2527236 0.11444016 -0.01675844 0.2452075 0.24645595 0.4371577 0.44688487 -0.17905165 0.07895336 -0.3063627 0.36698496 0.010026466 -0.19924206 -0.38997632 -0.4696243 0.59250283 0.19920832 -0.5409494
1411 0.336334 -0.82724357 -0.1910925 0.11447238 -0.6034623 -0.1401784 0.5779858 -0.27701113 0.68824375 0.60933805 -0.88870525 0.33784446 0.75993717 -0.6993008 0.069299124 0.07860204 -0.15856503 0.14686354 -0.11310271 -0.72946846
1632 0.47203627 -0.9707315 0.35265547 -0.11869952 -0.18921518 0.12855485 0.30516496 0.21304807 0.33326304 -0.53437513 -0.052274138 -0.13557798 0.41735086 0.15900724 -0.1330435 -0.122550555 -0.2238431 0.6765878 0.13758527 -0.42552078
757 0.34050694 -0.75825524 -0.14671746 0.051691253 -0.61573815 -0.1983083 0.5825041 -0.27822316 0.59827894 0.6980063 -0.8866126 0.48012015 0.78784364 -0.7242151 0.16052324 0.086470924 -0.22589205 0.18861061 -0.13354239 -0.7242946
356 0.25976107 -0.6744149 -0.38302946 0.4718527 0.66391504 -0.40739474 0.46643406 -0.33944565 0.28358918 0.5161238 -0.65937775 0.63132745 -0.22792682 0.36394134 -0.7492423 -0.37244263 -0.537826 0.50497013 1.0225703 0.3954776
563 0.37167656 -0.7619581 0.45312157 -0.0510759 -0.34735453 0.071256064 0.3757309 0.30716878 0.06108047 -0.26799828 -0.35037938 -0.34969744 0.36201584 0.13810274 -0.08875707 -0.36142626 -0.40042126 0.37982288 0.2875323 -0.5603255
694 0.73311603 -0.8368118 -0.043969024 0.047756158 0.15071374 0.18319471 0.2561131 0.48986137 0.12370796 -0.13262276 0.25953066 -0.21663754 0.56823534 -0.21098472 0.15489882 -0.4243228 -0.50730735 0.74003047 0.15385675 -0.39545733
1288 0.4470907 -1.1023282 0.044728115 0.033895176 -0.1438456 0.26087895 0.06845836 -0.006566904 0.06109968 -0.2897734 -0.11050938 -0.3390542 0.45513615 0.26081115 -0.040264353 -0.52474004 -0.07164736 0.39891195 0.38693252 -0.6403825
515 0.5731978 -0.9260977 0.1646706 -0.028560298 -0.07502272 0.25281292 0.345842 0.2617007 0.27092543 -0.20878257 0.1706245 -0.34369856 0.18151352 0.1290559 -0.0624084 -0.068499014 -0.43217868 0.8345822 0.10392948 -0.41421568
2428 0.50415623 -0.7207488 0.5716118 -0.06145441 -0.48705712 -0.2011983 0.27691665 0.15547025 -0.21272238 -0.21471673 -0.081370786 0.07277548 0.48134664 0.031571195 -0.28538767 -0.18251143 -0.46521407 0.20907056 0.100449555 -0.62284356
2433 0.46345547 -0.94236237 0.15582089 -0.035671834 -0.2821702 -0.06972856 0.6430703 0.38670546 0.030253693 -0.26557797 0.12199284 -0.04086588 0.06347364 0.1847337 0.22747232 -0.34774095 -0.345321 0.4421562 0.10598637 -0.68196523
1896 0.4280904 -0.51553667 0.010159691 0.016548853 -0.76177394 -0.119130075 0.6767644 -0.30407006 0.3820519 0.56428653 -0.859951 0.38080403 0.52053684 -0.5576204 0.06251957 0.09339912 -0.21766886 0.08268318 -0.09261456 -0.53925186
18 0.5249218 -0.307196 0.535886 0.14584331 -0.38358396 -0.28962108 0.34574416 -0.012219744 -0.2033596 0.20562914 -0.27163357 0.30919123 0.40967518 -0.07511256 0.062227663 -0.0046002734 -0.24905995 0.16161667 -0.025138715 -0.6478363
1295 0.5115544 -0.8471887 0.2782452 0.07376249 -0.16051564 0.094634674 0.38290974 0.5139525 0.41137812 -0.36909696 -0.09880325 -0.23722707 0.27155113 0.27330032 0.093366526 -0.11414327 -0.1391242 0.78188694 0.11723008 -0.37512553
1951 0.3470985 -0.6543188 -0.14465892 0.4826701 0.51846594 -0.56691885 0.54819524 -0.30376413 0.17356929 0.37434873 -0.6594865 0.73715454 -0.119527966 0.2765292 -0.63759714 -0.3962265 -0.53431314 0.5309957 1.1980337 0.6415527
2378 0.49117047 -1.0257396 0.44973797 0.3381851 0.023233555 -0.12662162 0.05791056 0.12666135 0.014548855 -0.282628 0.073287144 0.007930695 0.6665967 0.19659828 0.16623539 -0.44162425 -0.26441705 0.18947263 0.31780252 -0.7987219
1545 0.27575004 -0.70872337 -0.11507837 0.5326802 0.5460723 -0.39752725 0.5119821 -0.312051 -0.10659611 0.30791152 -0.53061986 1.0356416 0.11332633 0.2716515 -0.7020835 -0.27229747 -0.4083927 0.6846269 1.0427179 0.6750773
2077 0.8366099 -0.48067737 -0.003623127 0.19236684 0.17274204 0.32911208 0.1404183 0.73257464 -0.0151269 -0.1713566 -0.38440603 0.047797415 0.35992342 -0.111477226 0.04607064 -0.651588 -0.12533984 0.4013304 0.121028624 -0.5968098
803 0.96550506 -0.5957016 -0.13146487 -0.09931932 0.052702677 0.5064587 0.22453079 0.7502327 -0.047829308 -0.15323952 -0.3617221 0.07450093 0.35295415 -0.06039948 -0.14502145 -0.5767196 -0.06438558 0.45972872 0.029793777 -0.65716445
607 0.24851097 -0.7420386 -0.18172355 0.107560806 -0.6122811 -0.23123905 0.4365975 -0.25546715 0.6062744 0.67804784 -0.9217494 0.38258442 0.7787254 -0.5788165 0.0571131 0.15679206 -0.17134899 0.24989001 -0.16409704 -0.53722036
108 0.24059859 -0.7128345 -0.19797568 0.049975317 -0.6417274 -0.13391681 0.566176 -0.3964267 0.60389525 0.6404071 -1.0447006 0.5231384 0.780058 -0.66672516 0.013565562 0.093810596 -0.17882678 0.22214028 -0.12860943 -0.60425127
361 0.29801765 -1.0239296 0.4178347 -0.16999237 -0.3293878 0.044363726 0.2747127 0.23098014 -0.045406036 -0.29960802 -0.14785315 -0.0010610998 0.46250483 0.32245874 0.014146629 -0.16252518 -0.42661306 0.26062283 0.24281518 -0.5715239
2416 0.41236866 -0.5800145 0.06825383 0.47436622 0.38755554 -0.2826559 0.44649267 -0.25060844 0.0677081 0.4338566 -0.5791671 0.9833765 -0.021289462 0.38487515 -0.7287652 -0.16617146 -0.39751533 0.75551325 0.88786286 0.76316595
1812 0.5033477 -1.0994259 0.124749415 -0.099846326 0.08009319 0.3913155 0.22434585 0.19104776 0.18594989 0.09361896 0.10495284 -0.37884733 0.19496219 0.1822984 -0.11149387 -0.17108756 -0.45442018 0.6940108 -0.05201535 -0.49870506
2183 0.7174779 -0.49633673 0.1396633 0.03170015 0.0366124 0.44977862 0.26690838 0.7740286 0.33907047 -0.101341814 -0.34923312 -0.08589965 0.3109299 0.03398461 -0.22309355 -0.7736903 -0.21571854 0.44383782 0.0036535326 -0.48262566
2475 0.3042279 -0.67575336 -0.17922598 0.079251796 -0.6162518 -0.19217783 0.5072661 -0.32118985 0.52695435 0.63668376 -0.89620316 0.5329167 0.7916699 -0.642119 0.051353946 0.16859454 -0.17401186 0.17901686 -0.10521374 -0.5403543
1263 0.38388485 -0.5621252 0.04284365 0.4735809 0.36996615 -0.26545694 0.5023278 -0.26132601 0.12088195 0.500686 -0.7199406 0.7998158 -0.12003157 0.3430686 -0.50776565 -0.21237811 -0.28391552 0.5813191 1.2088977 0.65157217
1387 0.4046036 -0.9972943 0.17419201 -0.0037108907 -0.015643742 0.3962433 0.2869877 0.06458893 0.39181226 -0.02283776 0.04876274 -0.3814051 0.30874875 0.21355677 0.073675774 -0.11282874 -0.56225014 0.7034609 0.041986033 -0.4246374
1763 0.88582844 -0.37694886 0.54997915 0.012791944 -0.37240154 0.117999054 0.24488422 0.1713497 -0.029978888 -0.11869147 -0.10281419 0.28165153 0.3406995 -0.11420488 0.06895225 -0.2589375 -0.40855193 0.35837132 0.1531128 -0.6566547
369 0.41134387 -0.66809535 0.7870874 0.14379606 0.11024409 -0.12254878 0.22833644 0.21942815 -0.069819905 0.052312624 -0.35854203 -0.25252378 0.34757647 0.19561031 0.093100406 -0.12876664 -0.31865397 0.24808155 0.31987098 -0.95955414
2352 0.33661896 -0.7235147 -0.16977496 -0.0848055 -0.6024285 -0.15839645 0.57792425 -0.3104051 0.6267327 0.7233067 -0.90624094 0.42761362 0.7869871 -0.7290625 0.068440996 0.13202527 -0.25931346 0.27351695 -0.14781344 -0.69990724
1037 0.3355575 -0.71408373 0.53164405 -0.19546565 -0.28228244 -0.046250336 0.27396303 0.29748738 -0.023000745 -0.17651685 -0.17487659 -0.06765552 0.3194688 0.17928822 -0.17864586 -0.24624701 -0.58296794 0.17422849 0.36047456 -0.7678069
1346 0.482576 -0.46576267 -0.035238378 0.32388127 0.4189765 -0.37475652 0.51023954 -0.054953683 -0.1856106 0.48717973 -0.70910674 1.0955945 -0.019839585 0.5302017 -0.4935858 -0.24232806 -0.17989649 0.6308517 0.945209 0.6056957
1692 0.44472206 -0.83722883 0.36315298 -0.3788521 0.15866141 0.2989043 0.22062431 0.14028654 0.3662652 -0.1549344 -0.17819549 -0.1477871 0.36677164 0.1352765 0.10841197 -0.7520426 -0.45904604 0.45099813 0.14758077 -0.48078656
1788 0.3054937 -0.5880383 -0.04820168 0.091075085 -0.67365646 -0.1905368 0.4683724 -0.20438664 0.5017152 0.59513533 -0.7853041 0.51440704 0.5942722 -0.6796859 -0.0035524336 0.09061316 -0.16470775 0.17468572 -0.071456 -0.60256904
2120 0.5606317 -0.53547096 0.79815435 -0.040984865 -0.32035288 -0.0023316443 0.43727255 0.14318731 -0.17551754 0.06102633 -0.3530826 -0.13659278 0.3503158 -0.12463392 -0.0034839031 -0.14942749 -0.414266 0.27995154 0.15974586 -0.6951175
2412 0.4714423 -0.8503484 0.3850695 0.0049865437 -0.094753735 0.08449811 0.43461642 0.58886474 0.4294638 -0.2214345 0.28381586 0.13745609 0.21096897 0.13551006 0.13078561 -0.3652056 -0.40056667 0.589531 0.07302968 -0.47950792
1472 0.36157233 -0.7950162 -0.16801046 -0.03888928 -0.5726343 -0.17922671 0.5454158 -0.25775272 0.61022496 0.6765042 -0.92972326 0.5018745 0.8484895 -0.7520209 0.06621356 0.09461144 -0.23801039 0.1132003 -0.1066986 -0.54101455
1029 0.33122844 -0.603099 -0.32274583 0.45681533 0.696483 -0.5305066 0.44011554 -0.2830233 0.053915538 0.2556794 -0.8147293 0.7702391 -0.07258759 0.4422075 -0.53129977 -0.29826984 -0.49268532 0.5557107 1.1605116 0.4696436
1162 0.32294527 -0.8074086 -0.16393933 0.008005347 -0.6765101 -0.15395938 0.6474558 -0.27315295 0.61718917 0.64318687 -0.9209312 0.41751337 0.62483406 -0.6932989 0.11128479 0.11902694 -0.17570363 0.22309473 -0.1894822 -0.7162506
2485 0.30688828 -0.9163032 0.5192312 -0.2519755 -0.28759685 0.04469907 0.1745298 0.21572906 0.03622724 -0.44015527 -0.15082526 -0.023864167 0.3562427 0.20225528 -0.4035734 -0.16394041 -0.54454666 0.26188576 0.32204255 -0.72406805
1843 0.2899394 -0.78639466 0.47387317 -0.12933157 -0.27586228 0.28699917 0.5735409 0.55145746 0.27881813 -0.24096277 -0.10099224 -0.12679741 0.40742818 0.29832795 -0.1547216 -0.17154022 -0.40778723 0.48764545 0.12685543 -0.33058277
1645 0.49244902 -0.5665972 0.5886708 0.09393035 -0.118880145 -0.08878515 0.4762905 0.30257332 0.04753189 0.136954 -0.1769694 -0.2834629 0.17109527 0.2118915 0.19808432 -0.22564499 -0.39146167 0.40058467 0.16964841 -0.7154455
295 0.19522548 -0.8696233 -0.20243886 -0.0019094542 -0.6416782 -0.15715322 0.58613205 -0.27422607 0.58034396 0.6726944 -0.928285 0.3538868 0.80128765 -0.7160174 0.046802793 0.101004064 -0.15255557 0.21503687 -0.098253645 -0.61965245
189 0.4193074 -0.64392257 -0.2513867 0.23956563 0.41561842 -0.5336836 0.4949439 -0.2529897 0.05835443 0.33697948 -0.66373855 0.871817 -0.34529343 0.18986121 -0.66456133 -0.27627033 -0.3189394 0.79014045 1.144993 0.5221535
294 0.37086853 -0.7746497 -0.24519633 0.03365965 -0.554173 -0.23291689 0.43370298 -0.38634834 0.69302034 0.7041666 -0.8592192 0.34703782 0.7972672 -0.6542492 0.06446733 0.078921296 -0.08333578 0.2814744 -0.13210805 -0.63377476
2102 0.3134873 -0.52945685 -0.14110227 0.3388594 0.47984302 -0.36846334 0.6586711 -0.24825022 0.1758322 0.31282842 -0.737596 0.7740586 -0.063016385 0.32605144 -0.74606746 -0.38776195 -0.37050912 0.55145055 1.3198957 0.6233615
860 0.4673314 -0.6825484 0.46702158 -0.2335982 -0.34944388 -0.017910862 0.24950871 0.21969926 0.14639397 -0.27426288 -0.36974895 -0.24917723 0.3994568 0.14056602 -0.16626628 -0.4879016 -0.3534589 0.33103904 0.29123014 -0.5947792
1482 0.31467023 -0.56793416 0.009226952 0.34641516 0.47009596 -0.3105797 0.43563208 -0.064830646 -0.10414008 0.4541334 -0.7056792 1.1097355 -0.026492208 0.46847272 -0.41831258 -0.12178743 -0.20992766 0.8799593 0.95974976 0.7024861
969 0.21885203 -0.68051255 0.06313381 0.5107973 0.39602068 -0.31372568 0.4986044 -0.16709848 -0.1115268 0.4473962 -0.64478743 0.9899108 0.039620023 0.46511352 -0.5722516 0.00693666 -0.22901197 0.6940202 0.9585198 0.6631661
2266 0.3416389 -0.6050595 0.0005630051 0.5142228 0.23000386 -0.41081125 0.5288098 -0.25133514 -0.026258092 0.47606826 -0.4925758 1.0712053 -0.042937167 0.2823897 -0.4596496 -0.2401401 -0.1766586 0.84347177 0.82560676 0.72443855
695 0.77701527 -0.7076838 0.1493653 0.02127885 -0.056399018 0.23510274 0.1937612 0.64629316 0.22890207 0.024604158 0.33483076 0.18430988 0.50591505 0.08919356 -0.0111326 -0.33697936 -0.31894258 0.5475181 0.10520134 -0.44964275
125 0.33192402 -0.8084289 -0.16300102 -0.046460308 -0.644647 -0.25167385 0.6568563 -0.29360405 0.6584831 0.6439899 -0.8253752 0.44582742 0.7836838 -0.7816288 0.10497505 0.0077023874 -0.204879 0.23696148 -0.1698163 -0.68044096
388 0.5158064 -0.6084211 -0.17522632 0.26310292 0.40706292 -0.4475987 0.47002932 -0.14839856 0.03761722 0.50998056 -0.8414155 0.8942385 -0.30377468 0.27412263 -0.5051555 -0.3364258 -0.032896977 0.85796374 1.0625789 0.6333062
478 0.4554813 -0.71393687 -0.092752025 0.4463733 0.29860306 -0.42423558 0.5342396 -0.21993403 -0.22340347 0.6839498 -0.54136854 0.7524772 -0.17197625 0.2661166 -0.80075234 -0.41429114 -0.25555786 0.59926885 1.1740279 0.6737388
989 0.49382862 -1.0103508 0.39825398 0.014854108 -0.34123728 -0.19913694 0.014262502 0.15454067 0.019663192 -0.17164731 -0.051716093 -0.2854487 0.42518044 0.16665433 -0.12513933 -0.3713653 -0.1645021 0.43550664 0.30639824 -0.6532562
1769 0.62452745 -0.8035366 0.22506942 -0.15279017 -0.141343 0.0066509037 0.23752996 0.55068773 0.36706677 -0.1994732 0.068638675 -0.21912201 0.28647822 0.08217335 0.1696336 -0.05508095 -0.6371005 0.7706103 0.1895131 -0.41606435
1608 0.26307416 -1.0185083 0.41309455 -0.15886658 -0.051337555 0.16825652 0.042439543 0.16556491 0.11807823 -0.07028439 -0.31484133 -0.40271303 0.43313217 0.38463628 -0.1618626 -0.1123956 -0.40212706 0.33286142 0.34086117 -0.70285505
1636 0.61775124 -0.5809764 0.3500512 -0.07740104 -0.19964634 0.38570294 0.40329754 0.6403987 0.40841284 0.020710917 -0.15634543 -0.13101462 0.31723744 0.0045563662 -0.091962114 -0.7085521 -0.29809403 0.56572276 -0.044274125 -0.28448334
1131 0.42804506 -0.9540699 0.14217375 0.087058105 -0.37743035 0.43266708 0.2559762 0.41635373 0.23630434 0.051042162 0.2739818 -0.13737826 0.30860475 0.33529618 -0.17869233 -0.29330087 -0.40171772 0.54079306 0.1710871 -0.508993
2041 0.29404345 -0.8394375 -0.34602037 0.34588674 0.529054 -0.43174183 0.44871038 -0.24097516 0.10860641 0.55275697 -0.551552 0.56314373 -0.5828738 0.16332081 -0.8669268 -0.44627383 -0.44894525 0.7370847 1.0447285 0.4157519
1787 0.2304897 -0.80831194 -0.15813564 0.0018071192 -0.64755833 -0.174795 0.5772272 -0.21199237 0.6804635 0.6932048 -1.0505788 0.4203357 0.7770206 -0.69226205 0.12029897 0.078326896 -0.19353978 0.21722026 -0.13391398 -0.68391156
1497 0.42502418 -0.5566606 0.08948123 0.1433388 -0.5575386 -0.14691487 0.6025684 -0.18964946 0.45144492 0.4832184 -0.9214497 0.4441935 0.6181636 -0.5128178 0.35045868 0.020505548 -0.18295021 0.15689793 -0.22433284 -0.49005866
28 0.2844971 -0.72732514 -0.14446804 0.4544958 0.70916814 -0.43080115 0.62059724 -0.40275595 0.10482571 0.37507138 -0.71056163 0.582219 -0.05394243 0.33667377 -0.874093 -0.28586116 -0.5711148 0.61825407 1.062067 0.6606329
572 0.27354646 -0.8484583 -0.30279922 0.4408085 0.5397032 -0.62020147 0.6465928 -0.33294576 0.06885683 0.47386277 -0.61394006 0.4127905 -0.4891165 0.17047736 -0.82220984 -0.50524026 -0.36781663 0.6552452 1.1310511 0.47613537
1210 0.3631495 -0.62202585 0.10497266 0.4496473 0.422673 -0.28479993 0.5155833 -0.26237822 0.0315232 0.4230751 -0.66703236 1.0175117 -0.00085560646 0.57252926 -0.49523494 -0.19830096 -0.31795484 0.6254547 0.9601296 0.74898505
987 0.20381834 -0.6831187 -0.2185364 0.6165082 0.49795467 -0.35976663 0.38556278 -0.24548092 0.30408305 0.27628133 -0.6895634 0.9315983 -0.09336486 0.21278164 -0.5445771 -0.10043301 -0.38829398 0.6309721 1.1893696 0.48284677
2319 0.28484276 -0.6776733 -0.09395811 0.24014226 0.3662768 -0.22255862 0.33469006 -0.43310422 0.052694738 0.7541358 -0.8182793 0.775783 -0.30246466 0.23829398 -0.6984956 -0.16234379 -0.21955635 0.8105534 0.9704502 0.48619986
381 0.2912195 -0.7155996 -0.21094613 0.5679288 0.47907436 -0.38856348 0.34583652 -0.5029301 0.20272024 0.45219633 -0.63957983 0.7475182 -0.23020999 0.14972022 -0.68859684 -0.19209409 -0.5502726 0.55047154 1.0740741 0.38985416
2262 0.24862067 -0.7425464 -0.17199408 0.03205085 -0.6077335 -0.25181392 0.5544713 -0.17052387 0.5211816 0.58551836 -0.855613 0.42173788 0.69386655 -0.8126305 0.046444513 0.14267084 -0.33385572 0.15253642 -0.06787188 -0.68804497
1811 0.84073645 -0.6771189 0.3852484 0.052505907 -0.24912424 0.014078009 -0.008222831 0.43227687 0.19829315 -0.022115143 -0.050493877 0.12045671 0.3477582 0.21444285 -0.08750417 -0.49409816 -0.30916807 0.32724828 0.025065716 -0.6507756
1642 0.29349065 -0.98464906 0.23212092 -0.1345294 -0.08112377 0.08047582 0.42913345 0.17241813 0.06531361 -0.28450024 -0.06590689 -0.21447907 0.29516628 0.062017564 0.088739514 -0.6410005 -0.33256483 0.39195412 0.24096213 -0.6150645
1510 0.5547711 -0.9574683 0.39026192 -0.22500028 -0.35926855 0.21041209 -0.04605853 0.31217048 0.11373746 -0.115946546 -0.04155299 -0.087960355 0.5374731 0.2809532 -0.15419717 -0.27147773 -0.2767007 0.43811604 0.33418518 -0.4124922
2328 0.20762978 -0.9896748 0.3357416 -0.16490817 -0.07567317 0.4004008 0.3145682 0.096840076 0.19225337 -0.105076134 -0.18936346 -0.27865422 0.41268188 0.3559526 0.0042419443 -0.4101896 -0.45880306 0.34665257 0.23487079 -0.5289195
620 0.34798425 -0.872381 0.49114984 -0.1814658 -0.36139968 -0.018827606 0.29490808 0.12552497 -0.06844035 -0.22388162 -0.07036809 0.0074933595 0.4323992 0.22087207 -0.31561357 -0.15617071 -0.38775405 0.1493379 0.30286342 -0.8517367
124 0.8630849 -0.44762698 -0.093237974 0.049071297 0.059079558 0.467159 0.19438446 0.7454118 -0.17194775 -0.02618158 -0.4104439 0.091135666 0.25985688 0.012774683 -0.023952859 -0.5697403 0.060920194 0.5109258 0.053277947 -0.5648135
1105 0.28500232 -0.8156158 -0.20478395 0.03402013 -0.62378424 -0.23687355 0.5445103 -0.28928533 0.5537152 0.5691922 -1.0243263 0.4376396 0.8568392 -0.7798223 0.02294963 -0.012641294 -0.22036083 0.1535667 -0.16929685 -0.69339246
54 0.23233558 -0.9084552 0.34759584 -0.04097207 -0.31199905 0.2638483 0.3165172 0.07657584 0.08596231 -0.3577948 -0.2773936 -0.31990975 0.54934156 0.41423216 -0.047692586 -0.41238847 -0.22373328 0.3578062 0.43041354 -0.5527898
120 0.37411046 -0.9576507 0.31890324 -0.11362752 -0.015732996 0.2925489 0.34559438 0.1239001 0.3597933 -0.08337794 0.046675913 -0.33699167 0.089094274 0.41921195 0.060337886 -0.15643927 -0.52665865 0.7194739 0.10007973 -0.60118663
63 0.67634517 -0.74618185 0.077612616 0.04049593 0.011651506 0.05613976 0.26966336 0.32695884 0.34154773 -0.027591009 0.37823558 -0.17471227 0.38821924 0.10224838 0.020139188 -0.31956726 -0.76026464 0.6278364 0.066035375 -0.5373418
1705 0.5970743 -0.92087233 0.43866104 -0.1407745 -0.52318376 -0.09943746 0.026832677 0.20275156 -0.0641473 -0.08465743 -0.044512022 -0.09289136 0.43372148 0.278657 -0.18976277 -0.3587476 -0.31394947 0.25894344 0.24198535 -0.55608135
2181 0.33836675 -0.63444424 -0.08295486 0.5264102 0.49712116 -0.4076013 0.3026107 -0.27052402 0.034591626 0.3766901 -0.66095793 0.780241 -0.13320544 0.21688011 -0.8245164 -0.27724847 -0.44080076 0.7063166 1.0886128 0.5648971
1143 0.7695285 -0.57192624 0.032004233 -0.04475362 0.14450544 0.25133362 0.07752241 0.6606307 0.24983552 0.0063967654 -0.03837953 -0.07600208 0.5214294 -0.014339086 -0.035994183 -0.686301 -0.5385329 0.4195856 0.13306056 -0.4128348
686 0.37842268 -0.7337253 0.66826946 0.12895605 0.20191628 -0.12838587 0.2854765 0.42075917 0.32979828 0.07494058 -0.006568367 0.10814033 0.3074562 0.26911828 0.33404395 -0.2687494 -0.22666301 0.36377087 0.16404945 -0.8316173
805 0.320035 -0.723633 -0.17718408 -0.09402331 -0.58802825 -0.25319585 0.63264245 -0.28917408 0.6605904 0.58810145 -1.0014862 0.40758172 0.8231064 -0.7258169 0.09512319 0.09077189 -0.22253089 0.2053636 -0.0782117 -0.7132516
1945 0.39092404 -0.471363 0.11406312 0.4768985 0.2606385 -0.3239514 0.39879334 -0.13547258 -0.058204174 0.5925138 -0.62735826 1.0427818 0.0038337267 0.58908975 -0.41189122 0.014469704 -0.26322412 0.67791504 0.97231054 0.5961134
1066 0.77843904 -0.62477034 -0.08811986 0.04030635 -0.028250206 -0.11514483 0.28989232 0.42043602 0.20167483 -0.100970075 0.2804197 -0.22665076 0.4212032 -0.18808618 0.15222415 -0.27110264 -0.55613565 0.7445167 0.17042115 -0.45817986
1695 0.5236328 -0.5350224 0.058275145 0.55975115 0.33227858 -0.5022121 0.61695373 -0.29408988 -0.014709925 0.5504779 -0.5153141 1.0396137 0.02471683 0.46885666 -0.59621334 -0.050881073 -0.08829344 0.72822917 0.767387 0.6208165
2040 0.79787916 -0.64568937 -0.043134548 -0.03899734 0.1907195 0.37902585 0.1260926 0.78697336 0.17294069 -0.002877199 -0.007605246 -0.043795552 0.4215509 0.013848243 -0.38256386 -0.74959546 -0.20559654 0.5374578 -0.0059169563 -0.546895
2468 0.35498223 -0.62208 -0.04593347 0.52878237 0.6752834 -0.46557406 0.4473794 -0.15550447 0.0794643 0.32248548 -0.7829123 0.89821994 -0.010218882 0.4517286 -0.47993907 -0.15304086 -0.30830017 0.78850186 1.0869771 0.66480553
601 0.44201496 -0.55588436 0.06644416 0.5322458 0.17150834 -0.265372 0.5815523 -0.24241607 -0.00375251 0.54381365 -0.55271006 1.0671923 -0.097632974 0.3771008 -0.5531048 -0.052074026 -0.030794837 0.7293288 1.04938 0.6263825
2493 0.38664964 -0.7677556 -0.14587784 -0.021332031 -0.7191768 -0.22460723 0.6405765 -0.29191044 0.6322953 0.554787 -0.9756691 0.40788192 0.7187523 -0.7662791 0.0728765 0.1629723 -0.2680138 0.25546822 -0.16408423 -0.6762801
656 0.46828863 -0.8478346 0.40308836 0.097054794 -0.49249974 0.07877483 0.43966797 0.16409004 0.17573263 -0.43301705 0.029762775 -0.15534024 0.35576105 0.20874414 -0.17494395 -0.36012572 -0.042500887 0.39960712 0.43738315 -0.7314016
1734 0.29862654 -0.7513903 -0.18974234 0.04784655 -0.52124643 -0.23096457 0.51870954 -0.21799667 0.65966946 0.712339 -0.94868785 0.415266 0.81464857 -0.72220397 0.07239713 0.048216805 -0.1483167 0.13519378 -0.064797014 -0.59014827
1063 0.3739017 -0.47254238 0.12085466 0.6825481 0.19906338 -0.26807997 0.53449965 -0.14696093 -0.053712957 0.47185808 -0.60244936 1.0660274 0.037072252 0.6103703 -0.47400585 -0.09518919 -0.06801939 0.6823819 0.83623284 0.6415195
2208 0.35537234 -1.0251573 0.276661 -0.3584078 -0.22730447 -0.06971165 0.16472377 0.12638184 -0.13156766 -0.11043872 -0.058557957 -0.123969264 0.193223 0.14166941 -0.1253649 -0.33995673 -0.39500624 0.26830128 0.34518605 -0.9147686
1278 0.4387094 -0.84906924 0.6672166 0.36270088 -0.16430807 -0.097937465 0.33123502 -0.039841533 -0.36545056 -0.08435846 0.0015731878 -0.14330496 0.61099494 -0.09194382 -0.050790418 -0.2933553 -0.23964275 0.28729758 0.16372308 -0.7068925
1325 0.8838725 -0.5635273 -0.06400624 0.036809538 0.17721215 0.3567597 0.22087994 0.8140268 0.00367012 -0.031235185 -0.30833954 -0.026693767 0.4340392 0.013430402 -0.19874497 -0.71688956 0.0974994 0.4619835 -0.024168966 -0.5631966
821 0.7053089 -0.3403853 0.563663 0.045796 -0.48321894 -0.06121513 0.45564726 0.0377875 -0.12153784 0.18563421 -0.30188966 0.33462295 0.23658016 -0.25111914 0.082638085 -0.12206006 -0.21164429 0.18668765 -0.08494968 -0.562527
668 0.3913963 -0.6513963 -0.26591745 0.32392782 0.4603498 -0.50672984 0.44688582 -0.37014234 0.07374056 0.2828477 -0.71737933 0.78351027 -0.42795667 0.1701715 -0.77371174 -0.5126832 -0.4194865 0.74401957 1.1017402 0.49220827
2065 0.3356958 -0.58465654 0.0018394528 0.50310624 0.3309489 -0.3504737 0.4974712 -0.17528026 -0.07661082 0.3702475 -0.85079294 1.0156354 -0.031913154 0.46098378 -0.50220764 -0.08126552 -0.18624507 0.63801265 0.96460426 0.6355986
1166 0.45900786 -1.077872 0.28864622 0.14166428 0.15928644 0.084438585 0.011664871 0.17212324 -0.13274087 -0.18943745 0.013903824 0.11997043 0.6760358 0.22912812 0.22095093 -0.4862465 -0.16717644 0.23279965 0.25467357 -0.7233418
467 0.6820119 -0.5235161 0.6693649 -0.14186186 -0.5526748 0.03313988 0.48077378 0.09129039 -0.28781345 0.05518928 -0.27941585 0.15933658 0.41816542 -0.13446222 -0.014489286 0.025355116 -0.51976 0.13651177 0.078609735 -0.64739865
1389 0.1981937 -0.88603914 -0.1781693 -0.017347703 -0.6394692 -0.17847137 0.59629333 -0.28984323 0.5803815 0.65111715 -0.95478535 0.35567454 0.7726979 -0.6337702 0.096229374 0.13878837 -0.16371778 0.18390979 -0.1433426 -0.5989102
2324 0.4580642 -0.69727635 0.4616887 -0.14061141 -0.35899064 -0.03775049 0.48040453 0.28233334 0.05027464 -0.1267297 -0.2003495 -0.25811136 0.19027399 0.28944442 -0.18309872 -0.4680684 -0.5454201 0.20708361 0.1597531 -0.7270036
2139 0.2657695 -0.94385767 -0.3600356 0.4786979 0.5820728 -0.65056944 0.47628498 -0.24449557 -0.01082954 0.4999083 -0.6125242 0.49085563 -0.5772527 0.099513255 -0.86652803 -0.4483672 -0.4815259 0.6185628 1.0916541 0.39356348
421 0.39796048 -0.92783624 0.40199414 -0.23526943 -0.08740333 0.2846374 0.13367656 0.21928516 0.31903496 -0.20443256 -0.08941069 -0.22033 0.2967547 0.08422344 -0.046832714 -0.08253872 -0.39225292 0.6941162 0.2725167 -0.53068477
627 0.28548065 -0.8403987 -0.23365453 -0.019942615 -0.60938287 -0.2704774 0.5748854 -0.18751152 0.69235617 0.7081158 -1.0014853 0.46799943 0.7066614 -0.7504554 0.10232121 0.09448782 -0.26616627 0.12827644 -0.09853489 -0.73894316
229 0.28902587 -0.77652544 -0.17324738 0.03765543 -0.58225894 -0.22724122 0.6750476 -0.2595285 0.5999905 0.67449266 -0.97909147 0.37329623 0.84499234 -0.6723252 0.08798544 0.13552237 -0.17621876 0.17817083 -0.14164352 -0.6050738
239 0.3937805 -0.6170326 -0.010281262 0.15205953 -0.56930757 -0.15607558 0.52434576 -0.20134051 0.3653306 0.46612132 -0.85539436 0.5537217 0.74590015 -0.59652746 0.20235242 0.06951221 -0.14481547 0.14759701 -0.19085452 -0.591656
1129 0.68130255 -0.5783245 0.114908926 0.11251472 0.2813922 0.3780439 0.14000626 0.7035814 0.23861559 -0.09129629 -0.271312 -0.12746814 0.6116371 -0.028422816 -0.16862445 -0.7435327 -0.24277596 0.56439865 -0.047733165 -0.44339052
335 0.4154597 -0.71154916 0.025628347 0.6564114 0.5067916 -0.24463277 0.6262309 -0.4237726 -0.2582204 0.55969673 -0.78125316 0.80492556 -0.050030887 0.28085804 -0.80976874 -0.2721005 -0.11960195 0.6845145 0.8720294 0.6878749
2461 0.30417785 -0.7867481 0.26620418 0.06970702 -0.117358066 0.3771064 0.48717773 0.51669765 0.2798939 0.026244514 0.0153287705 -0.25094345 0.35478935 0.2907247 0.14462864 -0.05107281 -0.7470121 0.4714598 0.21983601 -0.54956627
2348 0.5880153 -0.5513033 0.5651494 0.012201588 -0.46244788 0.058514226 0.19801673 0.22222702 -0.088112906 -0.18909211 -0.40342826 -0.046826854 0.29537746 -0.17067309 0.1618785 -0.4823321 -0.36597496 0.3676419 0.26518676 -0.50481445
10 0.47862753 -0.8103072 0.52923316 -0.05324854 -0.29961002 -0.02635923 0.20420973 0.044219587 0.046115693 -0.32379425 0.18164875 -0.05309544 0.44296575 0.15751684 -0.34942657 -0.20434678 -0.23098655 0.36523527 0.5069141 -0.8160686
517 0.31631437 -0.7122367 -0.32056203 0.61288494 0.59465516 -0.36889678 0.5508988 -0.3316366 0.05508207 0.2950434 -0.5442473 0.7667168 0.0037939493 0.22621782 -0.6855023 -0.27446103 -0.3479293 0.69275284 1.0488148 0.6079438
1855 0.2634101 -0.6308286 -0.15583773 0.45762604 0.52442 -0.41450745 0.3616991 -0.32633716 0.101233974 0.30112594 -0.6020725 0.88391787 -0.13978742 0.24118161 -0.6537704 -0.218548 -0.6044054 0.6767943 1.3749888 0.51199275
773 0.38355953 -0.8792793 0.0317698 0.074297786 0.067408375 0.39627904 0.24072519 0.26238945 0.21984532 -0.011876615 0.36156353 -0.11569319 0.29291198 0.25401515 -0.076763906 -0.13970469 -0.6277662 0.6703992 0.12094336 -0.51885873
1336 0.32977974 -0.55681735 -0.18045907 0.39165515 0.43983918 -0.44407228 0.50728023 -0.17097579 0.1027988 0.2585759 -0.65712655 0.8642353 -0.10549439 0.4083969 -0.50423723 -0.2751238 -0.41700843 0.7846496 1.2274253 0.6757334
359 0.4347391 -0.7582941 -0.19214194 0.4762171 0.7268389 -0.42789334 0.44286433 -0.16903572 0.12425129 0.33925793 -0.77399874 0.48853537 -0.3649106 0.1519516 -0.74165756 -0.31014085 -0.48121852 0.5401371 1.0259005 0.5930598
415 0.19532588 -0.7957455 -0.25043398 0.036477696 -0.6510376 -0.07704914 0.52114326 -0.21945986 0.50543016 0.68258965 -0.8700114 0.34834546 0.87383705 -0.7341657 0.07431999 0.2133113 -0.2046388 0.28306362 -0.012987488 -0.60935014
527 0.23007181 -0.9375959 0.58756256 0.08549306 -0.15970154 -0.13440056 0.21680416 0.3148134 -0.20566364 0.09047906 -0.038188264 0.06352325 0.5933331 0.07364159 0.028802592 -0.19369683 -0.23563915 0.1594629 0.25294623 -0.7646826
1986 0.15251826 -0.8771715 -0.39317316 0.35329005 0.59444124 -0.45695838 0.4692486 -0.34174234 0.19350104 0.6208082 -0.6198476 0.49120128 -0.57142967 0.16174641 -0.811223 -0.3452182 -0.46791926 0.4981858 1.0339891 0.20986915
410 0.7290785 -0.6470329 0.52197963 0.23200907 -0.1852557 0.09836927 0.1055165 0.21886055 -0.15402734 0.18242589 -0.16852015 0.20138887 0.35988012 0.07468646 0.2760782 -0.62129915 -0.2451094 0.24488163 -0.07690655 -0.51626164
236 0.28204426 -0.707768 -0.02193756 0.0400472 -0.48822248 -0.23892702 0.6408598 -0.2407225 0.55962527 0.65860695 -0.93977875 0.49422804 0.8627072 -0.75409615 -0.0009178715 0.20145579 -0.27426192 0.08090846 -0.12622654 -0.69139534
1138 0.48961237 -0.8886804 0.2922724 -0.17993788 -0.13381378 0.05556143 0.30323815 0.36153448 0.37821954 -0.04417037 0.22323486 -0.10419705 0.20924914 0.18114996 -0.0582519 -0.21139696 -0.5670304 0.5955063 0.076464236 -0.5806177
2310 0.33450818 -0.74081475 -0.038280662 0.0066327793 -0.66638815 -0.24020982 0.6559447 -0.3072243 0.5832667 0.5979192 -0.87211645 0.4727409 0.83949524 -0.75133204 0.09863875 0.029653473 -0.14363813 0.21822844 -0.15598506 -0.6871277
617 0.34518796 -0.9571147 0.28263155 0.09453108 -0.26463833 0.3386879 0.51191086 0.31639153 0.25666007 -0.00042817238 0.32889333 -0.14557713 0.49577305 0.5320305 -0.11502079 -0.30794775 -0.4641829 0.49281794 0.071045965 -0.5111657
1700 0.82661515 -0.6579752 0.026443899 -0.07617121 -0.26225665 -0.23109673 -0.022786278 0.62449384 0.22446528 0.05889466 -0.027853359 -0.08224201 0.154756 -0.0871104 0.29083893 -0.35866585 -0.19102407 0.70388556 0.20604521 -0.5514195
1824 0.18840136 -0.64284885 -0.12159122 0.5520814 0.6196097 -0.48033708 0.5643225 -0.3550611 0.08375997 0.2177842 -0.85182506 0.82529837 -0.05521101 0.53989756 -0.61671066 -0.17609309 -0.54235613 0.6033372 1.1571157 0.53640807
2067 0.37851277 -0.87081665 -0.060074165 -0.0008169918 0.25941068 0.39897692 0.37909102 0.12640528 0.11174399 0.031792827 0.3100756 -0.2642236 0.37472954 0.07369359 -0.020783601 -0.36011347 -0.38777453 0.7782898 0.04386618 -0.42820817
2046 0.2890655 -0.74061453 -0.21201742 -0.083879195 -0.6325096 -0.20661841 0.5595505 -0.28404027 0.60992473 0.64286023 -1.0541857 0.4501577 0.6651344 -0.6813156 0.06735083 0.14986062 -0.17664602 0.17699723 -0.04550104 -0.7035849
980 0.2641674 -0.61147857 -0.044938542 0.48640284 0.4653161 -0.16312514 0.40378433 -0.4332271 0.154634 0.26609695 -0.6845832 0.88143647 -0.18274102 0.22351569 -0.7880369 -0.32951462 -0.48884794 0.6908167 1.1423922 0.56616104
2286 0.31400406 -0.7625187 -0.26797286 -0.038264994 -0.7059265 -0.25128505 0.58052754 -0.24999215 0.6176567 0.6622552 -0.9973579 0.36296484 0.7516851 -0.6941989 0.07852609 0.09708541 -0.18391502 0.24510878 -0.0828339 -0.6559048
1385 0.2349598 -0.86577433 -0.36254025 -0.030789893 -0.7411086 -0.13953896 0.4756693 -0.23431931 0.6262054 0.72852534 -1.0345417 0.31821162 0.68886936 -0.67896694 0.032954846 0.063899755 -0.21368335 0.17635645 -0.06797712 -0.6465894
1978 0.5521565 -0.5605331 0.048435494 0.47356975 0.26925018 -0.15032949 0.4208701 -0.31153402 -0.14904614 0.50287956 -0.6356594 1.139521 -0.15718122 0.32870495 -0.5551966 -0.117767625 -0.053415023 0.74950075 0.82516956 0.5894072
1431 0.3979147 -0.72057337 -0.057009548 0.30729023 0.42604813 -0.2898137 0.3961549 -0.30815983 -0.12662175 0.45820826 -0.6664987 0.97209406 -0.4094382 0.2011511 -0.63954335 -0.30095664 -0.2469036 0.82238823 1.0036159 0.5587899
1957 0.5064509 -0.8695671 0.38046658 -0.2205379 -0.336872 0.043609083 0.33547547 0.32024962 0.3643752 -0.34654388 0.20034413 -0.0019797955 0.26870936 0.15524594 -0.10614883 -0.45253217 -0.14588307 0.7046352 0.20252277 -0.4189907
1733 0.8089487 -0.67577326 -0.22291143 0.21760793 0.033551835 0.19103833 0.06229372 0.844909 0.0136324335 -0.11757368 -0.43137485 -0.15934078 0.40692046 0.05910894 -0.20747207 -0.5914726 -0.07616042 0.46931034 -0.09265551 -0.6823411
2341 0.66622305 -0.6549486 0.5471551 0.2527431 0.19984815 0.013838061 0.18197882 0.46178034 0.23671526 0.07157605 -0.1822012 -0.09591542 0.26746473 0.042184006 0.3438353 -0.40838027 -0.24022546 0.4492509 0.07734907 -0.5880173
113 0.27051657 -0.8322796 -0.1741424 -0.030273208 -0.61489725 -0.26019388 0.60586786 -0.23347677 0.6146828 0.68290824 -0.9767485 0.4812803 0.7818706 -0.69531065 0.12275258 0.036596525 -0.2632622 0.11438033 -0.1351263 -0.75421196
1924 0.34532008 -0.6395041 -0.18536602 0.5467413 0.4446563 -0.15545726 0.41921 -0.26706663 0.41542855 0.45712748 -0.7385014 0.90648437 -0.22795406 0.30118787 -0.70848036 -0.29010272 -0.42269376 0.59752744 1.2557453 0.5607609
424 0.53269047 -0.92766637 0.22275808 0.19429834 -0.04644546 -0.18548623 -0.07834778 0.20266202 0.0846078 -0.08814473 0.29046753 -0.05254367 0.40848774 0.10593542 0.02981393 -0.3450392 -0.2794149 0.5480962 0.2073175 -0.57276833
1013 0.47786605 -0.7208385 0.5625893 -0.23699532 -0.2382552 0.095898174 0.23488724 0.017625974 -0.05587544 -0.2925847 -0.3806586 0.0064407997 0.14754838 0.24202396 -0.09496817 -0.33142176 -0.5364781 0.19278163 0.20321551 -0.86222166
1230 0.7364461 -0.5781095 0.015466076 0.11346418 -0.25516397 0.34803462 0.102185786 0.45237452 0.26149267 0.022584233 0.0581301 -0.022942288 0.48152152 0.00022643886 -0.30752447 -0.70982957 0.089732476 0.5327794 0.2094029 -0.6296935
913 0.3393949 -0.7645807 -0.14792305 -0.036254246 -0.59962934 -0.1933523 0.6092231 -0.28477672 0.58144325 0.5792165 -0.84760624 0.49870804 0.8255617 -0.74896467 -0.011189377 0.07041307 -0.14853053 0.12265471 -0.10061403 -0.68610823
2034 0.5196992 -0.9363692 0.20657083 0.056395527 0.12798165 0.2956989 0.3123917 0.21043609 0.2678075 -0.15698178 0.23598331 -0.3660543 0.3180938 0.020876348 -0.27114958 -0.07042663 -0.58557916 0.8471273 -0.08056765 -0.38751134
307 0.17739339 -0.87635463 0.29095888 -0.17175134 -0.2352298 0.26280263 0.3983141 0.09017503 0.0031931244 -0.29365227 -0.23076259 -0.1709326 0.5454916 0.24579436 -0.020387523 -0.6210684 -0.5218105 0.1388491 0.35965285 -0.56546825
419 0.7510821 -0.44059384 -0.05268974 0.42683482 0.17196979 0.1057813 -0.09616059 0.6049866 -0.11893971 -0.12530684 -0.30738384 0.07922793 0.37386143 0.16666469 0.0014506585 -0.6694439 -0.12349216 0.45639116 -0.05778175 -0.45779452
2175 0.36338118 -0.9668413 0.42308688 -0.39618513 -0.026615603 0.24106395 0.18792748 0.25921896 0.04050053 0.012457078 -0.2729167 -0.35079768 0.30938357 0.29910582 -0.12585753 -0.47787142 -0.35005027 0.600651 0.03698553 -0.4522854
323 0.5757438 -0.71110564 0.5609959 -0.38678733 -0.41741335 0.07074822 0.11480603 0.46421602 -0.06350425 0.056269154 -0.22273204 -0.17402714 0.27124107 0.022834638 -0.0006731743 -0.3221229 -0.3870846 0.5161107 0.36063328 -0.4963135
1653 0.20220716 -0.75438344 -0.20753025 0.03471042 -0.6624674 -0.18339053 0.5410948 -0.18619962 0.545639 0.68910587 -0.85957044 0.43582118 0.7986233 -0.6643152 0.030132117 0.027780462 -0.26250213 0.10062383 -0.0754 -0.71295416
2327 0.26607037 -0.77429956 -0.24262007 0.5224626 0.57400894 -0.43765563 0.46250424 -0.28515026 -0.037855532 0.23992054 -0.7509159 0.6373553 -0.12256176 0.2127353 -0.6713646 -0.38596597 -0.5288537 0.74902385 1.0262629 0.7232548
1675 0.17325047 -1.1099669 0.5025955 -0.10868378 -0.22905904 0.09144276 0.16711158 0.17455636 0.10912145 -0.15393601 -0.14455284 -0.1775775 0.39276302 0.40348503 -0.16828349 -0.48740962 -0.19885243 0.3726112 0.17981997 -0.6497747
1340 0.3423482 -0.72776407 -0.16419716 -0.03662112 -0.6756346 -0.2646929 0.49074912 -0.25719744 0.58160526 0.5935138 -0.9957823 0.44489822 0.859732 -0.74802536 0.025552318 0.05110117 -0.15733607 0.19893637 -0.089137 -0.61000264
930 0.37034234 -0.80981797 -0.008088192 -0.035305265 -0.5803231 -0.27172256 0.5638872 -0.33497468 0.60099334 0.6546321 -0.99731785 0.48934007 0.872998 -0.7597863 0.03556427 0.22653086 -0.16353257 0.2106965 -0.16792011 -0.7013696
1221 0.31869587 -0.9474885 0.50728714 -0.20140502 -0.22863135 -0.21429433 0.081139036 0.2195639 0.09581227 -0.34369567 -0.22030738 -0.29603028 0.2098578 0.11097425 -0.3593247 -0.16188723 -0.3974478 0.4494121 0.3010251 -0.8098851
1666 0.60775465 -0.7344983 0.2704302 0.024037758 -0.07585567 0.13155383 0.29708394 0.72320837 0.18951634 -0.039092887 -0.23758098 -0.29676944 0.39709052 0.03468145 -0.059560496 -0.7892473 -0.070577815 0.6744794 -0.0843466 -0.3113583
1038 0.48306093 -0.4367501 -0.04639241 0.3656462 0.19271243 -0.3037266 0.44084606 -0.11392152 -0.084222294 0.5881011 -0.730488 1.0647292 -0.0727569 0.47944996 -0.29759192 -0.15469804 -0.14526969 0.632163 0.9896947 0.6094058
2474 0.2238277 -0.8264988 -0.27640814 0.044972118 -0.6931647 -0.16688399 0.5459045 -0.23279528 0.7547464 0.6072098 -0.9753659 0.40024295 0.7842075 -0.6983955 0.056665882 0.0031757264 -0.22657177 0.16429143 -0.08585497 -0.6914144
2160 0.6458478 -0.46141106 0.13838926 -0.17748971 -0.13652523 0.5071403 0.4108568 0.7235456 0.15162694 -0.002521003 -0.11938527 0.14156345 0.25599793 -0.007230683 -0.266969 -0.9726984 -0.32574508 0.30713153 0.062240276 -0.5733137
2227 0.45706618 -0.50235325 -0.031161083 0.46833792 0.29505458 -0.36033607 0.62725395 -0.12278134 -0.10688733 0.4039331 -0.70185184 1.1684834 0.032550473 0.35662317 -0.5203909 -0.20572944 -0.19592357 0.66932464 0.83627355 0.72140574
853 0.6379661 -0.3079568 0.584107 0.35327965 -0.39697447 -0.123143926 0.45553455 0.27811515 0.016926082 -0.12571457 -0.20306376 -0.14720242 0.22806099 0.037823033 -0.045698043 -0.32893586 -0.43252793 0.25486305 0.24526262 -0.73931074
132 0.87989897 -0.44812596 -0.16528504 -0.07788125 0.05873628 0.6076055 0.24389738 0.72286254 -0.025124183 -0.15792717 -0.24278107 0.28058395 0.33848408 -0.043414045 -0.1832286 -0.3669233 -0.08942309 0.3072236 0.31266427 -0.8696499
451 0.13502592 -0.60015434 -0.47082272 0.12132532 -0.48383915 -0.1306322 0.2977936 -0.12156584 0.5529895 0.7059661 -0.75329655 0.34877512 0.79508215 -0.55041474 0.031886674 0.112433665 -0.3034675 0.14624177 0.10023348 -0.5624165
972 0.35187522 -0.88864326 -0.28409755 0.41822344 0.47135958 -0.56089914 0.38200355 -0.07717984 0.117795825 0.45983937 -0.5762888 0.64943814 -0.6681367 0.056895707 -0.7856653 -0.38505155 -0.4902648 0.65502137 1.103127 0.45163667
1236 0.4719287 -0.37637156 0.16602428 0.29821223 0.0906244 -0.4398185 0.42186457 -0.06562349 -0.061694443 0.6084053 -0.675189 1.0512658 -0.08416637 0.50597614 -0.454062 -0.18897599 -0.33725128 0.654451 0.7380552 0.7166055
533 0.6823895 -0.5319059 0.5421817 0.17249678 -0.02774671 0.16603085 0.09271002 0.44274405 0.1727124 0.13658267 -0.12704036 -0.035554368 0.57544464 0.020338379 0.40121114 -0.46525776 -0.31007293 0.50371736 0.29302174 -0.5215124
1797 0.27909535 -0.7959293 -0.36987165 0.13926637 -0.56302124 -0.10908814 0.49325544 -0.23523621 0.80354327 0.6899982 -0.86449414 0.2748789 0.74557686 -0.6593821 0.0851036 0.072977774 -0.22152768 0.24238235 -0.09528443 -0.69644004
2296 0.6217926 -0.4226196 0.7337908 0.29590484 0.07400329 0.24164136 0.44932577 0.24411836 0.030092563 0.16882068 -0.46626383 -0.038740803 0.3965032 -0.031497054 0.30110103 -0.3262255 -0.31930324 0.22343187 0.026033508 -0.735819
1158 0.6973514 -0.64566946 -0.096016265 0.17592046 0.046379227 0.025738277 0.1957937 0.38689917 0.18904394 -0.14602034 0.03187938 -0.011774334 0.27132264 -0.068165325 0.23201925 -0.57773054 -0.22512418 0.597439 0.030398712 -0.4728944
1553 0.28065622 -0.75862795 -0.07203322 -0.025029773 -0.6233477 -0.25731266 0.7016672 -0.16724953 0.5616977 0.5265899 -0.9753759 0.47305027 0.87775826 -0.78410983 0.10024184 0.15673456 -0.24845125 0.15791933 -0.109097555 -0.66945964
1347 0.5296216 -0.6703523 0.67084116 0.010043303 -0.32850814 -0.16633499 0.3180588 0.18079497 -0.23428667 -0.20741035 -0.30905396 -0.30427468 0.41943285 0.03621428 0.043044798 -0.2654948 -0.2769839 0.4779093 0.29078534 -0.57585
1759 0.5336667 -0.5613708 0.2761233 0.20911945 0.1883611 0.40322125 -0.015108425 0.576907 0.2889017 0.08123077 -0.132864 -0.016915632 0.5059001 0.28356776 -0.10382862 -0.7281071 -0.44421148 0.30467784 0.11592943 -0.5497325
1437 0.1634495 -0.8194695 -0.14578094 0.21881929 0.6732817 -0.3444029 0.4029729 -0.28904915 0.20319575 0.5864439 -0.7111223 0.64478654 -0.5174792 0.1494845 -0.82046527 -0.26847163 -0.6865093 0.62232214 1.1911316 0.40626997
231 0.6617535 -0.31258 0.77843887 -0.054514594 -0.39821717 -0.09346383 0.53902197 -0.11075231 -0.22300391 0.17580356 -0.5642181 0.017839957 0.43308637 -0.23274736 0.04779635 -0.15879455 -0.34866363 0.22510041 -0.09321551 -0.61716294
257 0.5039132 -0.66455334 0.5024538 0.52423495 0.27645078 0.28584796 0.14903833 0.40978122 0.039702628 0.06985841 -0.27300775 0.04257722 0.4448214 0.096113004 0.2760851 -0.7241904 -0.019089535 0.33251145 0.05188986 -0.7117197
1100 0.90201885 -0.40398592 -0.28249386 0.07748588 0.38559997 0.39801356 0.09102563 0.74266195 -0.17193915 -0.21698345 -0.27906984 0.02000013 0.48431152 0.023393089 -0.11971974 -0.4106211 -0.12957093 0.54917246 0.17025703 -0.4504593
373 0.5908643 -0.45165157 0.80451727 0.39123425 -0.03457877 -0.07997253 0.3321468 0.123026885 -0.12318026 0.16100793 -0.5156815 -0.07069957 0.3721227 -0.074545704 0.22542465 -0.30427483 -0.086907 0.28745472 -0.0047993553 -0.87807405
111 1.0901062 -0.5957399 -0.26885167 0.17564996 0.1585634 0.22703753 0.16851515 0.78327566 -0.11260824 -0.28638446 -0.17989586 0.048127536 0.51036346 -0.047424264 -0.09119548 -0.59099394 -0.2024973 0.47332823 -0.009230276 -0.62435824
1167 0.34407124 -0.57171965 -0.12989894 0.5151051 0.4953567 -0.32706136 0.5507911 -0.39635244 -0.04844981 0.2916006 -0.62776744 0.74854505 0.08228831 0.11964734 -0.75169355 -0.4917655 -0.4201983 0.5829519 1.19977 0.672618
2411 0.42190623 -0.4889868 0.10356138 0.37673447 0.12122268 -0.44618908 0.43832347 -0.117746666 -0.037600275 0.40380764 -0.81977004 1.1703801 -0.08573851 0.5001865 -0.53465813 -0.1906313 -0.35718817 0.6469201 0.9119072 0.72898406
588 0.46522617 -0.70499337 -0.29903388 0.4663904 0.35160178 -0.352078 0.3415027 -0.24391074 0.247591 0.3515214 -0.5586066 0.8838956 -0.3936595 -0.032040857 -0.81654304 -0.17132823 -0.47411638 0.8326739 1.1565442 0.5696053
1274 0.43225524 -0.5071318 -0.17377897 0.2546576 0.20782898 -0.298508 0.37903807 -0.23790902 0.13107383 0.4546936 -0.7100912 1.0895096 -0.12292541 0.46568176 -0.504124 -0.20181565 -0.40113354 0.68548197 1.1097876 0.63067627
612 0.23623045 -0.764872 -0.20902003 0.1364988 -0.6613032 -0.13096713 0.42890945 -0.3071684 0.7985866 0.82337785 -0.95178694 0.38450894 0.71794266 -0.6399018 0.078097194 0.2010038 -0.22439213 0.20813182 0.03832493 -0.7313851
1646 0.21745203 -1.0408016 0.47646868 0.04432065 0.18198234 0.040431734 0.14650208 0.0047644516 -0.17228794 -0.032729086 -0.17481767 -0.108775385 0.5146407 0.21358974 0.058262654 -0.46232858 -0.009158273 0.1543811 0.36847803 -0.97180414
1778 0.917672 -0.61007154 -0.3383271 0.0149428435 0.30346188 0.33625743 0.34792957 0.9382361 -0.25912595 -0.10225412 -0.29132473 -0.08667976 0.44242114 0.043706577 -0.026515078 -0.48060778 -0.14614385 0.40660188 0.061362926 -0.5242577
1822 0.18851075 -0.6431219 -0.15538572 0.51658976 0.3561163 -0.3553771 0.24103086 -0.17142561 -0.04374502 0.27354145 -0.5913067 1.1862059 -0.056635354 0.4386255 -0.56189746 -0.04659976 -0.34174392 0.7960145 1.0348237 0.45007673
697 1.0377091 -0.4973166 -0.41633382 0.06669669 0.17984958 0.28251612 0.21006739 0.846988 -0.12080254 -0.30098376 -0.28659952 -0.014451112 0.49914077 -0.046403144 -0.19365495 -0.46156764 -0.08587688 0.45766708 0.13300861 -0.5558662
2146 0.353501 -1.0208868 0.4177728 -0.4638075 -0.29741228 0.17776585 0.04437794 0.048354104 -0.13597466 -0.05380912 -0.24135081 -0.20299344 0.40718415 0.1416031 -0.06615942 -0.4846542 -0.28680393 0.4082796 0.37262258 -0.6096642
855 0.25490257 -0.80414486 -0.24309804 0.57166696 0.520063 -0.4044113 0.6015267 -0.29699084 -0.045853812 0.37404308 -0.5836417 0.5932962 -0.26783866 0.110907085 -0.6594421 -0.21864568 -0.7472244 0.5087492 1.2109998 0.576083
426 0.36712208 -1.0415694 0.23589928 -0.02417388 -0.1698551 0.41643527 0.42272872 0.35281667 0.38673052 -0.18200523 -0.10318936 -0.3382587 0.21593335 0.29296967 -0.38713968 -0.26592088 -0.30024597 0.66117364 -0.23192942 -0.41857132
811 0.19026959 -0.90065795 0.365208 -0.029444292 -0.38100865 0.07315945 0.40774593 0.27527657 0.038522143 -0.35347804 0.009734349 -0.04075498 0.0662202 0.18712197 -0.010539485 -0.29701862 -0.29909933 0.63111365 0.1381062 -0.4027784
628 0.3951105 -0.5695335 -0.12379032 0.44742382 0.51725894 -0.569723 0.4555283 -0.11667053 0.09279589 0.2008255 -0.5958811 1.2324483 -0.07633402 0.29111055 -0.54095435 0.07941331 -0.38130403 0.72989714 1.0595925 0.4754469
237 0.45789263 -0.63483864 0.24495977 0.2786005 -0.53830576 0.07044772 0.22177832 0.11842795 0.051164847 -0.147347 0.11899337 -0.30565834 0.32821816 -0.011352205 -0.44966608 -0.4874919 -0.11036671 0.3204336 0.6095833 -0.91008776
2392 0.36282438 -0.79005045 -0.22219382 -0.07285357 -0.7268132 -0.41252473 0.56729484 -0.40349472 0.6472347 0.6023285 -1.0118431 0.47776458 0.6833344 -0.7048747 -0.002327692 0.117402226 -0.24269488 0.16618559 -0.14143148 -0.6870287
1146 0.4011045 -0.5574126 -0.33399305 0.7582965 0.39896023 -0.40473968 0.32865053 -0.39790887 0.07745898 0.528196 -0.74038976 0.39808843 -0.14979985 0.20235133 -0.6778533 -0.36596695 -0.2418214 0.8194968 1.0008044 0.53589576
73 0.2774297 -0.59024924 -0.14535543 0.6512102 0.4269583 -0.39201978 0.67022854 -0.20103799 0.17835993 0.43898153 -0.65196735 0.84601307 0.08712489 0.29203832 -0.7470845 -0.17454986 -0.07486511 0.7267185 1.0623854 0.6524891
1323 1.0152878 -0.50437444 -0.3653114 -0.026090208 0.38850895 0.43445957 0.18430275 0.8494992 -0.11396712 -0.03301373 -0.3472426 -0.030540202 0.466109 0.023619553 -0.0384494 -0.41394493 -0.0899875 0.37346876 0.19978502 -0.655723
1573 0.8002809 -0.3850331 0.67773545 0.09451 -0.24333894 0.4792244 0.24605586 0.19063103 0.11511282 0.15387519 -0.48668677 0.121870264 0.17859268 -0.08751988 0.14517982 -0.6064823 -0.10123512 0.4280667 -0.047677293 -0.674346
1612 0.3271651 -0.73738474 0.5965245 -0.17691597 -0.41612673 -0.11480732 0.32720214 0.32798377 -0.14916316 -0.0769909 -0.3137978 -0.37751853 0.28943232 0.24536996 -0.21007535 -0.22174351 -0.31246683 0.34659815 0.4382457 -0.7924631
200 0.5762545 -0.8240121 0.24185584 -0.10433013 -0.12067049 0.1734233 0.35475683 0.4233147 0.3847196 -0.13203305 0.0632105 -0.0537943 0.37636265 0.13020927 -0.13782206 -0.6929185 -0.043910448 0.66069824 -0.110425435 -0.39609864
297 0.38811964 -0.9478568 0.24357808 0.07183285 -0.11902702 0.17320076 0.33345404 0.7609774 0.2669908 0.40513736 0.014543707 -0.31734037 0.39222908 0.31402388 0.10724168 -0.03280984 -0.15540347 0.68374157 0.00042645074 -0.46284783
876 0.29371762 -0.6798946 -0.12120115 -0.07076882 -0.5546083 -0.2747282 0.74332464 -0.33458015 0.50147337 0.57313764 -0.89213663 0.55140847 0.8224447 -0.7272798 0.09343438 0.053150576 -0.20168965 0.17139803 -0.15320225 -0.7000196
153 0.14360413 -0.5655301 -0.15437904 0.47610888 0.41274375 -0.33979183 0.47479138 -0.14658868 0.36328915 0.26756564 -0.7628388 1.0859592 -0.020698907 0.46960866 -0.4840789 -0.110027954 -0.4438816 0.74881274 1.2230403 0.6282457
962 0.2851868 -1.0982367 0.37155882 -0.26350662 -0.09965789 0.11956486 0.22991787 0.005926791 0.083446264 -0.38245967 -0.2075274 -0.1957837 0.4165489 0.32253885 -0.14223097 -0.41836607 -0.3595981 0.38110042 0.15602845 -0.6177081
2355 0.21115552 -0.89544183 -0.33917677 0.2573668 0.66116345 -0.3847304 0.5842601 -0.23549612 0.06581331 0.72962356 -0.46137467 0.50212747 -0.7058514 0.100701235 -0.9449718 -0.31226677 -0.40008008 0.751547 0.93756276 0.26964283
1454 0.28374997 -0.67459077 0.71220624 -0.33915475 -0.18910635 0.005133129 0.2333999 0.26528955 0.17675646 -0.15749115 -0.47039786 -0.30511642 0.2151449 0.09694265 -0.10699213 -0.3233651 -0.3324786 0.42579323 0.39671627 -0.6805238
1583 0.22674315 -0.8885825 -0.29684842 0.28391966 0.37334853 -0.38756582 0.45570257 -0.21305874 0.0429945 0.4908415 -0.58955944 0.60628676 -0.7368254 0.06746845 -0.76990896 -0.31959334 -0.52870256 0.6230732 1.18573 0.36875698
2078 0.51835877 -0.52899176 0.7666046 -0.13426217 -0.16833878 -0.07856244 0.23248355 0.25166303 -0.11223005 0.0052723913 -0.21203415 -0.13231172 0.3666155 -0.030160367 -0.19126831 -0.31305414 -0.27009633 0.29914483 0.42755222 -0.8743322
176 0.35046 -0.7932778 0.20190202 0.02478435 -0.18007816 0.21761186 0.3204816 0.6498639 0.3499762 -0.30139852 0.038767356 -0.043677866 0.42011246 0.038681224 0.052550793 0.021209039 -0.5810928 0.69363534 0.18068923 -0.34348136
204 0.43394062 -0.50028074 -0.27564105 0.1552511 0.6406206 -0.27414042 0.51945394 -0.30283332 0.09606136 0.29481745 -0.78335017 0.84214133 -0.1257132 0.39223006 -0.745989 -0.36160672 -0.5727889 0.574713 1.2046062 0.5485282
1012 0.35522512 -1.2341694 0.18912123 -0.07845936 -0.28642523 0.36386585 0.23850462 0.011789968 0.1754884 -0.18466559 -0.14427294 -0.4128993 0.053925987 0.41427 -0.12486079 -0.025947267 -0.36700276 0.6190487 0.07937187 -0.7029158
1803 0.30286828 -0.72621226 -0.1741704 -0.16478577 -0.61604476 -0.17693152 0.64536804 -0.2227551 0.61077225 0.52487177 -1.0740142 0.4405616 0.6727493 -0.65658784 0.045535352 0.15985747 -0.117793374 0.26270643 -0.16640249 -0.74174494
117 0.3889547 -0.6219164 -0.13901575 0.5498241 0.26067358 -0.2312578 0.5030216 -0.22130364 -0.16206361 0.3523359 -0.8250746 0.957456 0.034434885 0.32464513 -0.7435147 -0.34050077 -0.32586524 0.66993743 0.9374028 0.83124393
219 0.17402498 -0.79517496 -0.19666232 0.14799574 -0.46715856 -0.032549534 0.5650284 -0.27317566 0.5884815 0.77314854 -0.87800574 0.44069585 0.72914857 -0.7682916 0.1444851 0.20331235 -0.25827515 0.3051483 -0.17003419 -0.6839015
1215 0.56318086 -0.9728059 0.103192605 0.045093343 -0.016308028 0.2713952 0.21424912 -0.018875163 0.15594998 -0.09846797 0.39617896 -0.16619568 0.5673348 0.13406746 -0.21087965 -0.3348076 -0.36467972 0.7302731 -0.032848448 -0.43338737
2105 0.35183498 -0.43173683 0.223812 -0.08953732 -0.55434966 -0.10640445 0.6508098 -0.32665285 0.38254866 0.3822745 -1.0969249 0.19401152 0.76461756 -0.59300184 0.07943048 0.091010645 -0.2274087 0.19247763 -0.07007919 -0.61521953
278 0.90894985 -0.5419484 -0.26274252 -0.057752423 0.30241606 0.42085928 0.21093272 0.8260042 -0.25174433 -0.24226588 -0.37961152 0.039519265 0.52932984 0.06296402 -0.13083929 -0.43869573 -0.20357957 0.37423706 0.12770487 -0.5598303
2465 0.35562986 -0.5910299 -0.45200613 0.313133 0.5502226 -0.4190464 0.4894927 -0.34028664 0.24211566 0.52270734 -0.6612601 0.42003477 -0.27825233 0.3733097 -0.58358747 -0.3931378 -0.62100184 0.5237988 1.1938956 0.45151785
1923 0.40352732 -0.9083134 0.24542993 0.0023818787 -0.4867775 0.0859327 0.21915507 0.07968493 0.16736051 -0.14695185 0.20016694 -0.18853651 0.5294708 0.3873313 -0.1359378 -0.5799428 -0.16282822 0.5071827 0.3222334 -0.5346368
336 0.76613355 -0.37506023 0.6634668 0.15040371 -0.47528076 0.08974487 0.47434628 -0.041702516 -0.23284939 0.01631096 -0.5845441 -0.1465552 0.33182764 -0.16027223 0.09061907 -0.3042616 -0.33935252 0.3107596 -0.029912807 -0.6590578
1908 0.38867787 -0.80063444 0.35922992 -0.23193556 -0.22361624 0.14811316 0.49452075 0.49792492 0.43224463 -0.048954185 -0.014267333 -0.2628958 0.10782387 0.21716422 -0.09177933 -0.31116453 -0.39867952 0.7172517 0.025232362 -0.49882042
482 0.7934303 -0.38898972 0.26482266 0.058021635 -0.03737993 0.3598874 0.25705126 0.5968945 0.07869903 0.023066917 -0.26994282 0.18876737 0.22604688 -0.052062098 0.11605664 -0.7643409 -0.13654381 0.4832545 -0.015071062 -0.52546906
734 0.22684653 -0.7789937 -0.2957024 0.356212 0.35975474 -0.8068404 0.5979151 0.0585698 0.08646255 0.49248424 -0.6248496 0.51219827 -0.70126814 0.102149196 -0.950319 -0.4122371 -0.37249145 0.74254775 1.127261 0.40695927
413 0.34509182 -0.8120369 0.5140535 -0.19502603 -0.16177164 0.07757928 0.056174703 0.116319865 0.12732095 -0.34430987 -0.2809711 -0.22977714 0.45275933 0.020192986 -0.1336437 -0.42128342 -0.45765495 0.53924054 0.28850985 -0.5469751
584 0.6194964 -0.44187486 0.056529284 0.1471456 0.29599288 -0.37843096 0.46884748 -0.13893954 -0.07528761 0.5355949 -0.81055695 1.0183423 -0.21878831 0.42611775 -0.7632961 -0.15833749 -0.3276588 0.6994149 0.9862599 0.68125397
2484 0.21230985 -1.0045649 -0.45067066 0.43230164 0.51034504 -0.64021575 0.52839303 -0.2122278 0.042037383 0.6310485 -0.57661825 0.50618124 -0.7107219 0.11492929 -0.90834624 -0.49319533 -0.42024574 0.70072055 0.95372325 0.3373102
1014 0.36310723 -0.7224471 -0.11472931 -0.006318873 -0.55898327 -0.21267073 0.6697579 -0.26933885 0.4269175 0.60614073 -0.92427135 0.49043614 0.8354145 -0.7612062 0.10137287 0.17678252 -0.286611 0.20505233 -0.25317323 -0.6619009
644 0.44998878 -0.5061813 0.09945012 0.011643297 -0.5621685 -0.21321015 0.5229979 -0.43815315 0.3130474 0.6132813 -0.7924558 0.5726358 0.59981626 -0.50992334 0.15687129 0.041370828 -0.1435951 0.24090318 -0.30349037 -0.5242718
1471 0.34085485 -0.6382469 0.059116937 0.5686776 0.2837626 -0.09053315 0.5656417 -0.27222267 -0.025588134 0.43824336 -0.68973655 1.0581415 0.012088535 0.3050634 -0.6355158 -0.17748961 -0.27409992 0.74986345 0.8824925 0.83514595
1851 0.2587269 -0.8698577 -0.14269748 -0.0050084377 -0.56764835 -0.33468238 0.640085 -0.24621283 0.60091025 0.58115745 -0.8957164 0.49032244 0.73891246 -0.7588044 0.15968068 0.19054194 -0.22217953 0.22647703 -0.15521377 -0.7286701
651 0.28361902 -0.77281904 -0.10639531 -0.17770365 -0.5658402 -0.23397888 0.45199782 -0.30877978 0.6453151 0.7529053 -1.0411024 0.41724533 0.8661089 -0.6335936 0.03196629 0.07488774 -0.25345317 0.20419101 -0.17152049 -0.68359333
806 0.27065042 -0.99571663 0.43081892 -0.19428422 -0.083896935 0.01629347 0.17569469 0.03399764 -0.040674232 -0.31222865 -0.354756 -0.28919628 0.27895176 0.2814494 -0.046553206 -0.20235533 -0.14966671 0.51133645 0.25014225 -0.72156376
1629 0.2561336 -0.7917697 -0.279193 0.26847574 0.50401384 -0.50764465 0.5360156 -0.14766099 0.048414323 0.63251764 -0.4257712 0.6496464 -0.61099404 0.0639206 -0.9238238 -0.3378968 -0.25207153 0.95806116 0.9856645 0.39033058
143 0.65250456 -0.8241492 0.16899124 0.05370422 0.2527484 0.24692556 0.10409374 0.46799952 0.31825003 0.20487061 0.3116417 -0.3630673 0.5266256 0.029062245 -0.10180302 -0.06401745 -0.5105409 0.7618063 0.17526145 -0.5125742
2084 0.4393807 -0.55104697 0.011524003 0.38344982 0.15779978 -0.27225336 0.69797283 -0.24489738 -0.17744064 0.5624741 -0.73171705 1.0871285 -0.058418866 0.46452206 -0.42781776 -0.071455136 -0.16927241 0.7769292 0.85291654 0.7477413
