704 12
334 -0.350707 -0.964393 -1.16797 0.513512 0.30868 0.457261 -0.610162 0.838228 0.0296522 -0.174938 1.51896 0.354816
343 -0.708809 -0.982542 -1.22667 0.480417 0.276869 0.572628 -0.636477 0.57631 0.0352495 0.168235 1.41807 0.245952
451 -0.728586 -0.941713 -1.30306 0.212734 0.199174 0.705359 -0.381938 0.638935 0.047558 -0.0483911 1.42516 0.636603
441 -0.541421 -1.02621 -1.212 0.436056 0.188572 0.616653 -0.563819 0.585805 0.0658682 0.0986421 1.40771 0.279551
379 -0.559832 -1.01275 -1.17 0.472001 0.19067 0.555765 -0.488866 0.651257 0.0632583 -0.00159631 1.42614 0.338852
300 -0.477186 -1.00472 -1.30404 0.667344 0.20684 0.567353 -0.435816 0.633656 0.138796 -0.00368144 1.45402 0.283746
357 -0.630365 -0.90259 -1.21523 0.540077 0.500607 0.56896 -0.551383 0.607588 0.0833895 0.163457 1.17315 0.376126
368 -0.671882 -1.01015 -1.21752 0.511151 0.311425 0.609583 -0.499521 0.561019 -0.00965943 0.0356141 1.3879 0.325762
295 -0.6608 -0.739181 -1.24547 0.850654 0.392764 0.508844 -0.173861 0.613515 0.00566425 -0.141182 1.49784 0.383542
315 -0.685538 -1.01892 -1.28149 0.57979 0.244526 0.626045 -0.525539 0.593983 -0.0728504 0.00793997 1.52048 0.167957
329 -0.643274 -0.885938 -1.24071 0.459069 0.154205 0.747822 -0.590987 0.644019 0.0330381 0.0958256 1.56091 0.286404
354 -0.484295 -0.881957 -1.15322 0.298123 0.510145 0.520832 -0.708337 0.594758 -0.0628421 -0.108362 1.64819 0.592871
316 -0.612322 -0.911886 -1.17434 0.496339 0.319117 0.656798 -0.572796 0.511462 -0.149911 0.0194544 1.56941 0.271263
389 -0.648991 -0.944134 -1.24104 0.466579 0.381437 0.657521 -0.600547 0.538644 -0.0382402 0.125634 1.43533 0.27234
308 -0.671565 -0.681908 -1.34148 0.135762 0.307986 0.74039 -0.552705 0.857878 -0.193558 0.133572 1.53973 0.522308
383 -0.642985 -1.00754 -1.15139 0.521263 0.226803 0.647494 -0.703209 0.59815 -0.0189479 0.0589793 1.55364 0.246423
381 -0.80402 -0.889832 -1.31344 0.62244 0.284616 0.584693 -0.196557 0.673332 -0.0590801 -0.167492 1.38534 0.304119
408 -0.665638 -1.01066 -1.22045 0.523311 0.195262 0.696833 -0.597927 0.612933 0.0199797 0.032365 1.52863 0.251981
375 -0.689274 -1.0702 -1.09281 0.562312 0.217009 0.553519 -0.675115 0.554333 0.0670772 -0.0635535 1.58617 0.381621
326 -0.425745 -0.920469 -1.18653 0.771687 0.306731 0.447519 -0.504879 0.697069 -0.20358 0.0809057 1.53666 0.295773
337 -0.691999 -1.01643 -1.21549 0.451809 0.223744 0.607015 -0.621277 0.591869 -0.0313303 0.0921649 1.5528 0.360458
342 -0.601221 -1.02839 -1.18945 0.533671 0.28663 0.669499 -0.579238 0.538511 0.00982577 0.0166436 1.42802 0.283655
349 -0.645674 -1.01093 -1.12515 0.499596 0.694612 0.414893 -0.525222 0.509717 0.134189 0.161098 0.868104 0.441754
296 -0.678521 -1.05609 -1.27441 0.449052 0.172666 0.66303 -0.507399 0.575459 -0.106782 0.0444472 1.52747 0.208174
365 -0.588378 -0.757236 -1.12475 0.726532 0.289224 0.491451 -0.338922 0.718875 -0.214646 -0.0521279 1.53144 0.394442
373 -0.664247 -1.11819 -1.07006 0.76841 0.231437 0.355597 -0.658415 0.89284 0.136874 -0.095389 1.33815 0.304713
313 -0.520293 -0.981869 -1.30086 0.421748 0.192434 0.72662 -0.598046 0.655009 -0.0176648 0.080526 1.53816 0.22076
452 -0.888901 -0.787226 -1.35035 0.692043 0.305863 0.764958 -0.197487 0.57536 0.083807 -0.0812387 1.35943 0.307967
298 -0.563634 -1.01189 -1.26618 0.514487 0.222284 0.57934 -0.564035 0.602327 -0.0565817 0.118143 1.57062 0.312846
404 -0.861859 -0.876892 -1.00016 0.279538 0.337449 0.53549 -0.715212 0.643858 0.143916 -0.175738 1.46441 0.465145
332 -0.671893 -0.977314 -1.22392 0.438839 0.194202 0.781198 -0.57502 0.605187 -0.132756 0.0614791 1.49248 0.191024
377 -0.40804 -0.840484 -1.29627 0.421835 0.150707 0.735905 -0.563906 0.890924 -0.203677 0.118344 1.44138 0.239772
395 -1.0421 -0.877284 -1.124 0.443573 0.322722 0.736866 -0.549959 0.672038 0.00652969 -0.214562 1.38472 0.209351
346 -0.64528 -0.93979 -1.1611 0.508277 0.279988 0.652625 -0.668486 0.597011 -0.0100757 0.074023 1.53367 0.273497
415 -0.694116 -0.878672 -1.36585 0.554247 0.252215 0.670722 -0.366289 0.495454 0.4205 -0.139152 1.46261 0.42661
386 -0.644479 -0.9683 -1.27409 0.592731 0.220615 0.577387 -0.499908 0.722438 -0.0542724 0.0937633 1.54228 0.349588
366 -0.96403 -1.05329 -1.01668 0.20907 0.0831053 0.73651 -0.6662 0.654182 -0.267413 0.110287 1.36719 0.567808
306 -0.601652 -0.738808 -1.23489 0.746149 0.278138 0.636023 -0.479779 0.574091 0.0337731 0.0949214 1.52232 0.249365
362 -0.465153 -0.862571 -1.22901 0.850388 0.32032 0.53789 -0.607343 0.724384 0.34888 -0.136142 1.57214 0.286028
303 -0.705877 -0.798293 -1.32175 0.525895 0.396605 0.60967 -0.375002 0.587607 0.152008 -0.12306 1.5491 0.413855
396 -0.900469 -1.02377 -1.00363 0.821355 0.280312 0.498664 -0.392849 0.450554 -0.0981674 -0.164864 1.43861 0.413128
358 -0.513973 -1.0524 -1.09426 0.283672 0.461527 0.641838 -0.656952 0.299949 -0.0324042 -0.282016 1.60522 0.598157
406 -0.452939 -1.05979 -1.32539 0.519083 0.269952 0.59524 -0.300696 0.442352 -0.0153322 -0.0453288 1.40871 0.486325
331 -0.686459 -0.957633 -1.27911 0.606736 0.405972 0.609169 -0.324575 0.614111 0.01059 -0.266785 1.43723 0.323892
387 -0.667805 -0.993611 -1.25855 0.482585 0.267204 0.627904 -0.505352 0.690084 -0.0953303 0.016505 1.45108 0.252227
376 -0.757968 -0.945924 -1.31103 0.508307 0.0988181 0.779554 -0.191357 0.619492 0.102588 -0.0814425 1.27443 0.343462
440 -0.659312 -0.908734 -1.22549 0.478312 0.361896 0.648383 -0.647018 0.596104 0.0787461 0.0998003 1.39058 0.25915
586 -0.7121 -0.333031 0.32516 -0.461238 0.353466 -0.204099 0.756139 0.655694 0.432476 0.76319 1.76484 -1.12602
651 -1.02445 -0.384011 0.339244 -0.505247 0.261877 -0.208194 0.930442 0.58273 0.336549 0.964279 1.68156 -0.86818
604 -0.944671 -0.323798 0.38955 -0.594991 0.33415 -0.353959 0.745445 0.656761 0.593827 0.824616 1.69843 -0.633259
643 -0.24654 -0.779518 0.321631 -0.452864 0.110312 -0.22899 0.781577 0.419463 0.389982 0.777146 1.72683 -0.62403
700 -0.770612 -0.495893 0.131039 -0.483845 0.274792 -0.398883 0.912722 0.572581 0.552952 0.973845 1.63869 -0.646076
517 -0.158886 -0.843782 0.288408 -0.532965 0.106609 -0.178552 0.938659 0.476055 0.222358 0.627833 1.72718 -0.445731
547 -0.13166 -0.763162 0.0580643 -0.39376 0.203558 -0.172499 0.910327 -0.0990847 0.81853 0.636532 1.78537 -0.566839
642 -0.0364134 -0.995871 0.267439 -0.459033 0.191493 -0.283293 0.909229 0.541506 0.440809 0.34031 1.63435 -0.481432
545 -0.281516 -1.38446 0.241029 -0.572636 0.23503 -0.497091 1.13133 0.688819 0.356899 0.0925404 1.38597 -0.533121
515 -0.117985 -0.976859 0.245594 -0.497902 0.182261 -0.39128 0.896941 0.553007 0.464338 0.589491 1.6212 -0.336223
681 -0.715527 -0.478104 0.483523 -0.567067 0.16271 -0.34647 0.758712 0.715191 0.532335 0.781245 1.71022 -0.417529
483 -0.364771 -0.786385 0.297368 -0.573398 0.0464693 -0.100104 0.803448 0.466685 0.52253 0.679916 1.63494 -0.615511
685 -0.0499179 -0.878671 0.316946 -0.598413 0.0703263 -0.130137 0.811444 0.436641 0.290904 0.699971 1.69948 -0.458004
509 -0.477953 -1.40165 0.486845 -0.491301 0.0894491 -0.409105 0.954722 0.266291 0.239891 0.403997 1.4858 -0.647575
493 -0.197751 -1.02238 0.407449 -0.507847 0.12094 -0.212231 0.994888 0.339851 0.344593 0.388225 1.69092 -0.290538
584 -0.468262 -0.426878 0.418438 -0.464556 0.313219 -0.214903 0.577463 0.487773 0.552648 0.637299 1.84771 -1.05247
489 -0.0682921 -0.922978 0.138893 -0.581066 0.0759381 -0.192978 0.948428 0.479682 0.267769 0.626302 1.62103 -0.342489
583 -0.18941 -0.984189 0.473688 -0.308481 0.364242 -0.561304 0.581706 0.204715 0.656342 0.341893 1.80629 -0.638165
617 -0.0789084 -0.966026 0.207321 -0.609414 0.17673 -0.247403 0.963177 0.396361 0.410703 0.646825 1.65067 -0.414772
524 -0.0894469 -0.835261 0.225841 -0.478249 0.081697 -0.193903 0.913212 0.421918 0.336515 0.701048 1.68575 -0.439334
554 0.310971 -0.878437 -0.00768047 -0.781912 0.394273 -0.235458 1.02638 0.403154 0.658134 0.401939 1.67393 -0.260342
561 0.21337 -1.00768 0.404028 -0.609188 0.22179 -0.5622 0.760739 0.919505 -0.0704454 0.381247 1.64185 0.118296
630 -0.721621 -0.443283 0.304258 -0.581435 0.282685 -0.250878 0.846647 0.43927 0.539967 0.681198 1.82129 -0.540179
468 -0.286846 -0.634927 0.280187 -0.643821 0.183624 -0.0856276 0.909154 0.556559 0.407313 0.378514 1.73835 -0.375889
457 -0.59741 -0.414952 0.272413 -0.603336 0.338633 -0.236035 0.740157 0.410365 0.569046 0.828899 1.79431 -0.743709
464 -0.0811797 -0.769172 0.207935 -0.495567 0.107016 -0.186389 0.94268 0.552423 0.259659 0.624597 1.66002 -0.370045
522 -0.0225673 -0.727992 0.386075 -0.149579 0.17942 -0.460234 0.932687 0.309934 0.00746648 0.651645 1.75141 0.18008
627 -0.0419112 -0.907787 0.248499 -0.560343 0.0761455 -0.196795 0.877 0.511328 0.323362 0.649167 1.65043 -0.422445
533 -0.0947826 -1.11423 0.544988 -0.398252 0.159466 -0.496186 0.869918 0.40083 0.397234 0.389602 1.70953 -0.199605
613 0.151422 -0.800367 0.26206 -0.52804 0.24531 -0.364568 0.894026 0.858389 0.306608 0.335941 1.64968 -0.0989205
632 -0.397288 -0.58276 0.249659 -0.343608 0.236328 -0.362082 0.777526 0.60036 0.39141 0.929969 1.74287 -0.843375
696 -0.590405 -0.726342 0.681435 -0.705932 0.236089 -0.319481 0.460681 0.384533 0.281693 0.569303 1.81927 -0.666579
466 -0.129212 -0.956708 0.311659 -0.613423 0.0545874 -0.202261 0.844608 0.458631 0.28643 0.663891 1.67581 -0.379692
599 -0.164557 -0.964124 0.620762 -0.439313 0.135824 -0.258813 0.698715 0.171271 0.500591 0.343773 1.83208 -0.541559
460 -0.0845286 -0.844151 0.244543 -0.536538 0.0863878 -0.159694 0.885444 0.469764 0.289859 0.584526 1.70371 -0.36628
592 -0.252027 -1.19376 0.311647 -0.631135 0.395243 -0.697769 0.931754 0.522965 0.184548 0.389121 1.55702 -0.149621
639 -0.0844321 -0.803827 0.305717 -0.590863 0.129101 -0.146311 0.86343 0.470126 0.2409 0.639619 1.70133 -0.409169
562 -0.455339 -0.378653 0.280929 -0.457629 0.226063 -0.164846 0.715098 0.464441 0.620724 0.831436 1.82305 -0.890661
532 -0.224083 -0.640002 0.351209 -0.416788 0.308436 -0.483363 0.902742 0.22464 0.560671 0.712373 1.90595 0.0180899
698 0.159532 -0.644746 0.177196 -0.456732 0.369305 -0.348299 0.998999 0.819209 0.369251 0.293352 1.66344 -0.0656769
588 -0.0220615 -0.923122 0.0558949 0.0834652 0.16816 -0.345077 1.34124 0.336274 0.0639072 0.557079 1.49334 -0.616672
669 -0.00248463 -1.14993 0.362629 -0.220836 0.151911 -0.40105 0.954317 0.36159 0.512681 0.404931 1.66177 -0.546161
482 -0.077929 -0.503174 0.396335 0.0881521 -0.270099 -0.110114 0.930545 0.449746 0.712135 0.652954 1.74571 -0.0863042
470 -0.0795366 -0.89374 0.220005 -0.535653 0.137467 -0.244647 0.972273 0.568314 0.387862 0.661849 1.59672 -0.422298
659 -0.230275 -0.79991 0.381499 -0.472285 0.095869 -0.230559 0.7549 0.369809 0.429824 0.675731 1.72977 -0.403668
647 -0.347463 -0.543283 0.351748 -0.501828 0.0788404 -0.131519 0.801969 0.501772 0.579624 0.722905 1.77252 -0.606155
575 -0.826939 -0.323397 0.346558 -0.568643 0.0325204 -0.217832 0.841238 0.711854 0.501035 1.09042 1.74684 -0.44417
510 -0.545977 -1.10196 0.538905 -0.6014 0.145204 -0.663211 0.791488 0.583707 0.535107 0.61255 1.55938 -0.012276
692 -0.0350937 -0.968768 0.249944 -0.483936 0.0838331 -0.209969 0.928875 0.463413 0.355124 0.544635 1.61376 -0.367608
140 -0.30091 -0.656535 0.229164 0.77477 0.854989 0.911222 -0.121343 0.643442 0.622631 0.492476 0.324645 0.687541
115 0.12043 -1.0171 0.450489 0.39551 1.07299 1.12482 -0.0971251 0.402658 0.395301 0.670276 0.26567 0.435844
2 -0.180945 -0.917165 0.426676 0.491806 1.07432 1.15796 -0.0719126 0.398218 0.371651 0.733653 0.289228 0.282851
200 -0.278685 -0.818032 0.313473 0.401734 1.21273 1.14269 -0.00650553 0.498104 0.271256 0.824126 0.231438 0.0791777
86 -0.157006 -0.80959 0.398021 0.512087 1.15677 1.1238 -0.0100797 0.544807 0.262731 0.701341 0.287517 0.165697
176 -0.0595064 -0.76661 0.535035 0.492323 1.38975 0.92938 -0.0575072 0.574948 0.211473 0.59618 0.327284 0.31473
57 -0.221969 -0.812545 0.285083 0.417714 1.1549 1.16631 0.0346027 0.49934 0.259787 0.740189 0.246831 0.12162
196 -0.421415 -1.06578 0.272401 0.166318 1.15785 1.24921 0.386687 0.446362 0.0299501 0.498246 -0.00248391 0.20957
90 -0.214008 -0.759488 0.314374 0.52772 1.17992 1.11228 -0.0184329 0.478237 0.261055 0.864295 0.292012 0.239869
103 -0.568474 -1.00255 0.437208 0.32215 1.22161 1.01463 0.0779242 0.677162 -0.142715 0.393214 0.0399447 -0.14971
294 -0.329231 -0.795997 0.320048 0.380886 1.2856 1.17541 0.0832083 0.508349 0.0867185 0.640644 0.231031 0.00886834
124 -0.0327846 -0.910526 0.410348 0.376549 1.28149 1.07409 0.0196309 0.40742 -0.0229612 0.691438 0.281137 0.396499
186 -0.287157 -0.834587 0.336484 0.400707 1.18398 1.12265 0.100807 0.491717 0.242469 0.780315 0.220974 0.199581
201 -0.345336 -0.795473 0.198873 0.164704 1.38291 1.25867 0.223123 0.124377 0.217481 0.54931 0.185299 0.0465958
17 -0.304501 -0.904171 0.271763 0.466019 1.16477 1.11255 0.100982 0.455519 0.236698 0.801278 0.187293 0.191982
151 -0.230224 -0.824606 0.310241 0.387736 1.1998 1.14903 0.0106912 0.479712 0.274573 0.784819 0.2478 0.151822
132 -0.382034 -0.679392 0.406611 0.600767 1.29215 0.916336 0.368551 1.03995 0.0213097 0.504029 0.0767333 0.340393
0 -0.255153 -0.862487 0.361612 0.308684 1.13731 1.23368 -0.0620134 0.526709 0.32932 0.759414 0.220147 0.0317904
68 -0.217164 -0.832808 0.289404 0.37574 1.2451 1.16868 0.057393 0.500724 0.246087 0.778507 0.218868 0.0927847
202 -0.31492 -1.08454 0.250285 0.672896 1.36365 0.97485 0.332877 0.187995 0.495544 0.308165 0.111966 0.170455
283 -0.472674 -0.962697 0.239432 -0.0209718 1.11103 1.24793 -0.280002 0.599918 0.374071 0.152697 0.106753 0.0526391
39 -0.251034 -0.649388 0.385043 0.0963872 1.63795 1.07049 -0.282712 0.586028 0.320985 0.428692 0.343874 -0.110486
102 0.0208482 -0.913056 0.398386 0.623455 1.1976 0.731578 0.0369925 0.752408 0.102012 0.773729 0.178593 0.485218
207 -0.283414 -0.793451 0.277616 0.450081 1.13885 1.13396 -0.00527123 0.490626 0.278075 0.814994 0.237617 0.0942452
259 -0.0725139 -0.725893 0.234821 0.456851 1.50407 1.0529 0.18316 0.226715 0.322716 0.769296 0.286626 0.39828
206 -0.159661 -0.816521 0.328741 0.36801 1.10179 1.19625 0.031457 0.555414 0.372613 0.756224 0.256659 0.436688
214 -0.168986 -0.867493 0.471877 0.314048 0.923826 1.28872 0.125782 0.28432 0.576368 0.647055 0.253507 0.723686
1 -0.312394 -0.861526 0.302882 0.320032 1.12463 1.17508 0.00691735 0.507193 0.314138 0.770544 0.191263 0.192449
98 -0.274337 -0.82854 0.327011 0.427933 1.12538 1.18592 -0.00511213 0.43532 0.247342 0.719031 0.273046 0.099621
142 -0.109607 -0.789636 0.454184 0.160553 1.55887 1.04593 -0.252358 0.953014 0.595857 0.269552 0.166067 -0.209519
157 -0.376102 -0.727341 0.359368 0.440026 1.13043 1.15893 0.00283851 0.555708 0.177499 0.765851 0.252542 0.0463122
138 -0.23956 -1.04165 0.439924 0.313098 0.984954 1.09076 0.0409158 0.641011 0.334788 0.731697 0.118447 0.499371
150 -0.105637 -0.827395 0.180595 0.449789 1.20961 1.04519 0.131832 0.569175 0.303298 0.813063 0.211053 0.27958
270 -0.478637 -0.972983 0.281981 0.145091 1.22249 1.12227 0.173876 0.757704 -0.0977235 0.51791 0.0117959 0.334339
189 -0.0226137 -1.10521 0.212618 0.23986 1.33244 1.24471 0.198573 0.331005 0.279081 0.411949 0.103438 0.0943248
25 -0.260674 -0.902196 0.30692 0.391549 1.10311 1.15177 -0.0117578 0.478591 0.274856 0.792509 0.214789 0.116556
118 -0.109857 -0.874208 0.38279 0.585714 1.35531 0.851156 0.275678 0.930534 0.117306 0.894613 0.0362554 0.349227
21 -0.0961632 -0.952309 0.38488 0.51743 1.13318 0.926135 0.0240152 0.517752 0.312837 0.605715 0.254552 0.618162
14 -0.270455 -0.885088 0.253883 0.431026 1.16276 1.11178 0.0869429 0.392048 0.285659 0.794039 0.217501 0.213733
65 -0.266547 -0.924042 0.335679 0.416947 1.06044 1.15431 0.0563703 0.431496 0.270019 0.82502 0.192192 0.166245
263 0.112919 -1.0374 0.138402 0.417069 1.28446 1.07846 0.193457 0.527229 0.182718 0.65712 0.136776 0.335154
275 -0.303195 -0.874684 0.302924 0.408875 1.19897 1.11867 -0.053703 0.458516 0.317365 0.752272 0.227338 0.0693184
42 -0.352135 -0.849653 0.30456 -0.0979749 1.51753 1.12687 -0.280292 0.783283 0.565986 0.439372 0.0877752 -0.157843
59 0.007295 -0.492668 0.496068 -0.00175423 1.50969 1.22003 -0.194156 0.964549 0.557779 0.177795 0.355819 -0.0768295
187 -0.477913 -0.635732 0.378944 -0.05467 1.3678 1.12514 -0.025077 0.543243 0.58109 0.479272 0.232099 0.471466
243 -0.185659 -0.82633 0.319108 0.506981 1.22129 1.07086 -0.0240165 0.48091 0.275587 0.776149 0.280228 0.124568
153 -0.107579 -0.612694 0.233191 0.359941 1.29852 1.10649 0.113661 0.845231 0.525577 0.372075 0.155259 -0.213179
472 -0.221814 -0.829796 0.377281 -0.450466 0.0884129 -0.219898 0.788781 0.443375 0.356435 0.714555 1.68404 -0.649925
628 -0.087702 -0.966273 0.143368 -0.790057 0.228892 -0.187472 0.854372 0.279874 0.34699 0.593325 1.69571 -0.456303
551 -0.233691 -0.990796 0.15701 -0.254252 0.606998 -0.689646 1.14878 0.175319 0.0250079 0.37641 1.70217 -0.452789
523 -0.0428459 -0.941826 0.203129 -0.474116 0.111149 -0.214195 0.905617 0.444167 0.287206 0.558097 1.61213 -0.420789
638 0.00631195 -0.71889 0.0234744 -0.125856 -0.143827 -0.185038 1.01466 0.619511 0.531436 0.375741 1.60275 -0.0160353
496 -0.117916 -0.923736 0.259327 -0.52981 0.136029 -0.205171 0.958403 0.460026 0.337319 0.550284 1.65943 -0.397494
631 -0.177905 -0.606719 0.190635 -0.507579 0.0834957 -0.0474509 1.16947 0.61612 0.580167 0.240176 1.59679 -0.126592
563 0.00996409 -0.783351 0.186001 -0.73251 0.292901 0.0120305 1.15051 0.123745 0.789747 0.125736 1.80872 -0.247155
633 -0.153438 -0.789685 0.302492 -0.605233 0.102473 -0.162343 0.810666 0.523307 0.2977 0.68645 1.67009 -0.457852
667 0.070259 -0.956394 0.501043 -0.539676 0.389448 -0.383132 0.803944 0.308699 0.52281 0.142748 1.85021 -0.249307
477 -0.0694788 -0.784761 0.19504 -0.547967 0.0625619 -0.0666903 1.01378 0.461329 0.327014 0.665611 1.65242 -0.438072
565 -0.0242391 -0.749385 0.290955 -0.39372 0.535169 -0.445061 1.01286 0.195735 0.487326 0.138423 1.92529 -0.152485
703 -0.150522 -0.892892 0.199548 -0.60025 0.189329 -0.265933 0.910931 0.435063 0.329841 0.688605 1.6553 -0.410431
519 -0.243146 -1.3013 0.562814 -0.452973 0.0783658 -0.525415 0.855523 0.381916 0.375696 0.433789 1.63909 -0.186161
486 -0.20221 -1.1223 0.204103 -0.302152 0.360738 -0.443435 0.971126 0.329614 0.323331 0.219275 1.41288 -0.530506
543 -0.220531 -0.810743 0.0197671 -0.702738 0.141594 -0.28351 1.15811 0.715344 0.546569 0.484437 1.41567 0.0392286
646 -0.577386 -0.418511 0.472864 -0.400569 0.02146 -0.152985 0.807766 0.555368 0.37005 0.776643 1.76212 -0.369902
608 0.166948 -1.00185 0.119845 -0.381181 0.400278 -0.339294 1.17355 0.276479 0.44407 0.369422 1.65962 -0.538477
471 -0.14005 -1.00918 0.209388 -0.509603 0.207413 -0.330945 0.914027 0.345448 0.461593 0.664452 1.62168 -0.553158
527 -0.51131 -1.04963 0.11266 -0.740276 0.474181 -0.287266 1.03676 -0.0431124 0.769172 0.267074 1.57108 -0.725127
526 -0.419186 -0.961271 0.524229 -0.40926 0.125767 -0.386812 0.884967 0.443604 0.807792 0.387817 1.6226 -0.292979
568 -0.110805 -0.753711 0.401174 -0.210189 0.0508644 -0.346703 0.688046 0.285474 0.893331 0.754098 1.82983 -0.522259
529 -0.0588837 -0.936091 0.212467 -0.518292 0.106913 -0.214478 0.945661 0.429681 0.245905 0.58729 1.68252 -0.393153
488 -0.677251 -1.00645 0.502449 -0.555808 0.14834 -0.444085 0.996509 0.435093 0.453523 0.268967 1.58118 -0.0786239
462 0.289657 -0.914166 0.363688 -0.335141 -0.301997 -0.269576 0.69299 0.8086 0.711586 0.741649 1.57241 0.135656
550 0.075678 -0.930494 0.174378 -0.0296152 0.0990248 -0.321618 1.10604 0.347741 0.638725 0.431462 1.65816 -0.580088
688 0.0318346 -0.957864 0.173343 -0.491563 0.0486789 -0.239429 0.919813 0.542968 0.343659 0.481382 1.65429 -0.145643
664 0.488137 -0.739899 -0.0548499 -0.327446 0.449453 -0.317942 1.18366 0.54375 0.562241 0.345775 1.75866 -0.479687
465 -0.0790111 -0.895214 0.343141 -0.521045 0.0196684 -0.119079 0.861291 0.41704 0.210375 0.58764 1.71631 -0.399885
591 -0.138859 -1.01069 0.357871 -0.442974 0.0813837 -0.199057 0.831977 0.501772 0.737191 0.0185645 1.54488 -0.491245
682 -0.606656 -0.481671 0.303654 -0.488993 0.169299 -0.158392 0.778226 0.527019 0.615645 0.755942 1.71876 -0.867647
556 -0.81467 -0.397975 0.262754 -0.705907 0.324407 -0.239028 0.877799 0.707301 0.486646 0.788586 1.64484 -0.783049
657 -0.115827 -1.02826 0.342607 -0.403856 0.0965715 -0.279713 0.843043 0.321192 0.630575 0.480173 1.67538 -0.497459
637 0.306108 -0.662518 0.00425318 -0.358894 0.13639 -0.263109 1.06708 0.761141 0.400754 0.575544 1.54508 0.0727964
537 0.38728 -0.513203 0.0660631 -0.178013 0.242101 -0.331032 1.09114 1.02099 0.125242 0.434021 1.64035 -0.199052
650 -0.897357 -0.403155 0.165988 -0.573195 0.215452 -0.223495 0.793788 0.581731 0.348742 1.04706 1.69867 -0.954363
684 -0.203378 -0.736096 0.325387 -0.529962 0.0645902 -0.0960505 0.760205 0.47328 0.541842 0.685785 1.73968 -0.673999
619 -0.381093 -0.436892 0.27486 -0.489614 0.41013 -0.290052 0.630937 0.378045 0.463479 0.894498 1.83479 -0.988767
560 -0.517232 -0.389744 0.396004 -0.290903 0.101965 -0.163534 0.952305 0.420884 0.468094 0.672112 1.77609 -0.248407
478 -0.0790501 -0.811402 0.176456 -0.566839 0.395546 -0.380862 1.16979 0.62802 0.375576 0.215152 1.65213 -0.158978
579 0.122913 -0.731774 0.176458 -0.730224 0.122954 -0.116996 0.984737 0.708681 0.628428 0.254953 1.6029 0.0485528
559 0.346242 -0.581322 0.0715949 -0.343167 0.666087 -0.353363 1.06886 0.485438 0.162461 0.298529 1.73671 -0.460041
644 0.27969 -0.535616 0.188269 -0.262676 0.205987 -0.232353 0.990518 0.544668 0.209692 0.353874 1.77691 0.203321
605 -0.497465 -0.329082 0.379181 -0.696703 0.357814 -0.244087 0.537766 0.36679 0.614163 0.819502 1.92493 -0.662481
600 -0.304265 -0.867749 0.482662 -0.758247 0.167418 -0.11835 0.826035 0.129243 0.550476 0.315096 1.78151 -0.306958
689 -0.209941 -1.12342 0.522205 -0.363149 0.0803742 -0.273481 0.768547 0.336412 0.352374 0.345964 1.6457 -0.563589
697 -0.275198 -0.696209 0.336918 -0.465134 0.195032 -0.159684 0.92182 0.378011 0.361962 0.681548 1.74615 -0.66934
577 -0.0926001 -0.848694 0.39829 -0.0700659 0.0452862 -0.449277 0.847411 0.657059 0.820233 0.587489 1.65014 -0.630622
516 -0.377584 -0.68757 0.44381 -0.376297 0.0609917 -0.133297 1.16587 0.587609 0.594852 0.0695364 1.61552 0.0441731
694 -0.0438953 -0.920009 0.157792 -0.514025 0.113921 -0.260584 0.970532 0.52067 0.317603 0.51947 1.64989 -0.185186
645 0.306175 -0.671001 0.137183 -0.51313 0.307702 -0.368456 1.23028 0.815355 0.42684 0.554418 1.70004 0.0556516
475 -0.0711561 -0.878383 0.25963 -0.487505 0.0655142 -0.227921 0.938441 0.614011 0.229813 0.43499 1.68066 -0.181458
480 -0.21325 -1.07943 0.620965 -0.377163 0.284223 -0.641875 0.729124 0.293033 0.393527 0.294704 1.87361 -0.15404
511 -0.019318 -1.09001 0.388416 -0.271336 -0.181915 -0.0951748 0.813518 0.28739 0.196729 0.613647 1.54652 -0.535617
683 -0.551485 -0.356878 0.226561 -0.542883 0.373051 -0.282966 0.643051 0.312426 0.614931 0.914714 1.82273 -0.797969
538 -1.02109 -0.404749 0.320224 -0.652832 0.245108 -0.194214 0.872055 0.695089 0.315125 0.819625 1.65739 -0.858555
701 -0.629639 -0.405668 0.182112 -0.441147 0.239019 -0.182585 0.802486 0.532927 0.292301 0.921741 1.76437 -1.02354
687 -0.65356 -0.499456 0.375338 -0.53426 0.237322 -0.15174 0.715491 0.254828 0.191379 0.897644 1.84623 -0.791658
680 -0.903468 -0.500251 0.414264 -0.583558 0.275204 -0.211253 0.805344 0.574122 0.306997 0.714627 1.71066 -0.975974
668 -0.978398 -0.418127 0.469061 -0.513263 0.197918 -0.274661 0.693791 0.534315 0.334249 1.03616 1.80371 -0.871775
602 -0.872757 -0.350902 0.22326 -0.698582 0.354227 -0.0698814 0.84294 0.598151 0.292523 0.714192 1.7156 -1.08325
655 -0.315164 -0.706397 0.391162 -0.598666 0.0669742 -0.199472 0.702435 0.487874 0.775809 0.745233 1.72791 -0.624753
626 0.0308509 -0.834885 0.41733 -0.473136 0.362451 -0.470034 1.10442 0.995521 0.108612 0.28078 1.59972 -0.175825
454 0.101995 -0.782214 0.168521 -0.331834 0.360925 -0.366962 0.944806 0.471586 0.217493 0.461335 1.67365 -0.339712
690 0.205199 -0.733738 0.118531 -0.318554 0.382639 -0.526457 1.21317 0.755768 0.464053 0.466146 1.69539 -0.0721188
552 0.0912657 -0.740772 0.0546092 -0.526549 0.245008 -0.27702 1.22485 0.65152 0.469436 0.471088 1.54284 0.0772748
497 -0.240434 -0.756285 0.286344 -0.503693 0.0343541 -0.192236 1.21827 0.876948 0.405659 0.326798 1.50724 -0.0549093
487 -0.195099 -1.2162 0.495469 -0.395708 0.0790669 -0.283559 0.612415 0.204171 0.522772 0.492778 1.63683 -1.04474
648 0.186374 -0.692371 0.277586 -0.38344 -0.207702 -0.00649342 1.00113 0.648197 0.671397 0.445636 1.64882 0.142875
502 -0.0951982 -0.873156 0.320968 -0.575023 0.162483 -0.183335 0.868968 0.40393 0.275608 0.600584 1.72167 -0.416589
553 -0.227801 -0.864404 0.589557 -0.206852 0.330479 -0.483895 0.872398 0.255811 0.338559 0.221741 1.77758 -0.160823
678 0.309141 -0.8327 0.301945 -0.198753 0.311121 -0.413537 1.22243 0.838274 0.439125 0.244342 1.71988 -0.328957
539 0.0839587 -0.983134 0.0105206 -0.218479 0.459809 -0.37181 1.34508 0.427791 0.259159 0.247396 1.59306 -0.773671
641 0.142577 -0.683334 0.248687 -0.336439 0.0209254 -0.253674 0.866863 0.728931 0.621261 0.59883 1.65737 -0.114779
513 -0.153355 -1.18388 0.33458 -0.5669 0.111837 -0.313378 0.930793 0.326659 0.465845 0.410639 1.65436 -0.294131
587 0.0367945 -0.921228 0.504277 -0.188518 -0.0649717 -0.181919 0.881842 0.412799 0.485665 0.368866 1.70019 -0.323618
569 0.296279 -1.01157 0.408156 -0.501179 0.323296 -0.551341 0.668892 0.710683 -0.0527264 0.367713 1.58925 -0.0936414
508 -0.164919 -0.778321 0.518081 -0.342466 -0.214192 -0.0675301 0.941421 0.29014 0.635626 0.537564 1.70036 0.138242
476 -0.149654 -0.880996 0.259577 -0.59422 0.086807 -0.179182 0.873357 0.47191 0.263095 0.66287 1.65456 -0.407337
434 -0.572762 -0.699732 -1.13791 0.701655 0.362641 0.587908 -0.565893 0.830368 -0.177999 0.0394274 1.49913 0.199443
444 -0.321776 -0.981034 -0.996256 0.430272 0.458441 0.402585 -0.92659 0.7298 -0.224892 -0.0541117 1.62541 0.412882
402 -0.491575 -0.715365 -1.27854 0.5123 0.521028 0.520249 -0.483792 0.683867 -0.0710074 0.0211908 1.59501 0.77057
363 -0.682268 -0.972867 -1.18304 0.550568 0.299979 0.63608 -0.61969 0.582758 -0.00821137 0.0421666 1.47325 0.252179
311 -0.922985 -1.09066 -1.09684 0.349688 0.274762 0.615274 -0.458703 0.637743 -0.158178 -0.183352 1.41071 0.469316
327 -0.601205 -1.02248 -1.28863 0.542411 0.192077 0.641614 -0.475429 0.628405 -0.0932474 0.14665 1.44637 0.269419
419 -0.412504 -0.628439 -1.20172 1.00385 0.415372 0.436676 -0.476188 0.751492 -0.0194529 0.0497355 1.63041 0.342406
430 -0.915631 -0.929637 -1.18667 0.264828 0.306726 0.496923 -0.473786 0.571737 -0.228115 0.0755633 1.45453 0.551263
361 -0.81349 -0.893444 -1.29229 0.390499 0.335913 0.675224 -0.504488 0.687158 -0.0486692 0.013964 1.47366 0.257941
359 -0.695757 -0.733323 -1.13185 0.142031 0.416842 0.613492 -0.697232 0.808168 -0.239913 0.0779533 1.4301 0.506393
400 -0.62104 -0.959632 -1.26057 0.590251 0.303583 0.590152 -0.387148 0.521117 0.0867226 -0.107772 1.49527 0.542537
448 -0.914771 -1.0627 -1.10512 0.518934 0.307793 0.494334 -0.43575 0.585656 -0.337027 -0.0886581 1.39248 0.429709
341 -0.75309 -1.01784 -1.22432 0.448387 0.278469 0.620602 -0.540931 0.571823 -0.0112108 0.049508 1.48421 0.413584
385 -0.754234 -1.0417 -1.30301 0.617906 0.275435 0.668443 -0.273304 0.405374 0.204238 -0.229097 1.35619 0.398642
318 -0.530845 -0.830585 -1.23525 0.616429 0.291495 0.573711 -0.211988 0.733724 -0.190205 -0.0622323 1.48069 0.435064
378 -1.04033 -0.891775 -1.14011 0.400827 0.332691 0.508194 -0.385945 0.671113 -0.258987 -0.082087 1.42207 0.407489
360 -0.632645 -0.956058 -1.24187 0.501769 0.298691 0.708929 -0.398034 0.60872 -0.0421248 -0.0297423 1.37618 0.41178
433 -0.45589 -1.0137 -1.04192 0.618352 0.245643 0.645776 -0.568983 0.578342 -0.122526 -0.245443 1.56568 0.25718
299 -0.37802 -0.918933 -0.862113 0.057322 0.997019 -0.989922 -0.0453979 0.646278 0.847085 0.807736 0.0988231 0.859661
352 -0.593492 -1.19255 -1.11817 0.725192 0.183378 0.627043 -0.499017 0.803098 -0.00552656 -0.353469 1.39634 0.149042
320 -0.761524 -0.947099 -1.18464 0.517569 0.2475 0.674521 -0.554675 0.579369 0.0108822 0.0339957 1.48915 0.273365
384 -0.450746 -1.06232 -1.13284 0.355257 0.247749 -0.177206 -0.244628 0.547954 0.350369 0.333029 0.959153 0.503253
410 -0.484117 -0.974754 -1.23576 0.354949 0.328361 0.690748 -0.382127 0.415624 0.25044 -0.279648 1.4583 0.617671
325 -0.541947 -0.960767 -1.23942 0.437994 0.248514 0.629571 -0.570632 0.668025 -0.0885673 0.0136421 1.54969 0.212396
409 -0.647735 -0.969596 -1.03225 0.691626 0.35586 0.396169 -0.658195 0.541702 -0.226252 -0.00351374 1.67255 0.54271
412 -0.807378 -1.164 -1.22536 0.28175 0.188912 0.639602 -0.422087 0.574536 0.149489 -0.240646 1.36214 0.576255
453 -0.503807 -0.722283 -1.29939 0.689684 0.250112 0.564722 -0.199537 0.63094 -0.0676529 0.0535048 1.54271 0.57139
449 -0.912198 -0.870568 -1.24993 0.118757 0.259158 0.640935 -0.518829 0.9059 -0.0642861 -0.0543046 1.33221 0.422012
355 -0.611269 -0.971549 -1.27283 0.455745 0.229128 0.749584 -0.562272 0.62851 -0.0797072 0.0342181 1.56293 0.205668
427 -0.552876 -1.34381 -1.16539 0.451878 0.211878 0.473021 -0.550189 0.784323 -0.149113 -0.271415 1.35831 0.299559
353 -0.629002 -0.967634 -1.25922 0.488126 0.185267 0.639002 -0.495995 0.688834 -0.0359342 0.0573979 1.52009 0.264112
310 -0.574016 -0.912471 -1.23003 0.525101 0.269098 0.709879 -0.571766 0.556699 -0.0420531 0.0435984 1.54825 0.245698
143 -0.392305 -0.451932 0.353991 0.43277 1.09958 1.1023 -0.197697 0.536244 0.533385 0.433027 0.40998 0.457952
155 -0.0181342 -0.968338 0.198045 0.219474 1.3277 1.10195 0.013951 0.68061 0.43151 0.373838 0.0803458 0.0893
119 -0.301891 -0.801216 0.199572 0.404214 1.15863 1.13732 -0.0625059 0.413088 0.252935 0.764622 0.265879 0.146264
271 -0.259388 -0.920511 0.574802 0.461674 1.10573 1.07691 0.0202602 0.985447 0.18276 0.390273 0.0760705 -0.0327986
114 -0.236328 -0.846636 0.299847 0.390899 1.16253 1.14473 -0.0532253 0.473484 0.299968 0.86403 0.23943 0.128782
35 -0.375778 -1.01623 0.567883 0.277704 1.0441 0.979794 -0.446376 0.696262 0.177706 0.683062 0.135634 -0.110455
51 -0.277601 -0.858953 0.259876 0.434145 1.15739 1.12531 -0.03468 0.478113 0.284898 0.826007 0.214449 0.0736787
79 -0.180064 -1.27313 0.053065 0.346711 0.921628 0.885906 -0.290052 0.417641 0.301379 0.458652 0.161504 0.87763
32 -0.281116 -1.16605 0.305534 0.648786 0.913813 1.00751 0.0276763 0.615711 0.340659 0.407394 0.142957 0.648098
152 -0.0939481 -0.717145 0.492945 0.305222 1.25912 1.09162 -0.0502134 0.74771 0.317549 0.791904 0.200007 0.3256
188 0.14542 -1.08921 0.255987 0.289531 1.19966 1.15487 0.166249 0.493937 0.478385 0.922863 0.0643766 0.510886
574 0.0716899 -0.982168 0.233877 -0.552692 0.112421 -0.206453 0.952932 0.546414 0.345879 0.467443 1.6166 -0.315518
494 0.0454652 -0.585596 -0.0283456 -0.61326 0.146326 -0.139208 1.12844 0.48315 0.706319 0.56955 1.55517 0.140782
686 -0.0739959 -0.984219 0.126488 -0.510746 0.0386309 -0.300182 0.908814 0.552989 0.356005 0.3611 1.65679 -0.0692918
625 0.295998 -0.774065 0.208921 -0.639378 0.198222 -0.155063 1.00627 0.789736 0.182975 0.26102 1.5844 0.00366513
578 0.112837 -1.06583 0.425588 -0.562296 -0.253403 0.136032 1.03323 0.728746 0.568215 0.0610873 1.52797 -0.353102
490 0.0113968 -0.955017 0.233903 -0.679202 0.205095 -0.161205 0.988776 0.459368 0.329001 0.195639 1.68232 -0.153131
495 0.0548517 -0.880079 0.255554 -0.583028 0.19354 -0.170676 0.890753 0.456304 0.429807 0.426549 1.71527 -0.324884
566 -0.321881 -1.16338 0.243755 -0.100891 -0.315493 -0.458527 1.08237 0.693168 0.212132 0.755034 1.3184 -0.0139325
670 0.157903 -1.01033 -0.31873 -0.395666 -0.174257 -0.521296 0.545857 1.16039 0.370939 0.27443 1.31448 0.153371
702 -0.655471 -0.570839 0.397186 -0.596045 0.305468 -0.254336 0.746874 0.288788 0.429996 0.833419 1.81061 -0.780283
557 -0.143377 -0.462098 0.177889 -0.356204 -0.108539 0.10767 0.915439 0.368334 0.668033 1.00094 1.72747 -0.945882
673 0.244204 -0.874338 0.00235004 -0.119548 0.053603 -0.236589 1.15235 0.413138 0.621014 0.784119 1.60574 -0.689742
479 0.0274856 -1.191 0.45148 -0.708511 -0.0450669 -0.0764395 0.941034 0.228843 0.574802 0.338981 1.70462 -0.277598
521 -0.783068 -0.329328 0.193759 -0.516778 0.169326 -0.125461 0.978772 0.521017 0.582071 0.968851 1.70648 -0.793046
594 -0.15907 -1.22408 0.42727 -0.451613 0.0605835 -0.323646 0.950677 0.499809 0.304739 0.251643 1.58796 -0.555324
666 0.218605 -0.639423 0.0800741 -0.374598 0.177665 -0.132977 1.10969 0.773386 0.79645 0.313297 1.53208 -0.308283
525 -0.103349 -0.635135 0.178084 -0.460064 0.0964403 -0.177684 1.12909 0.651051 0.331791 0.565773 1.6874 -0.0241075
609 0.0793136 -0.658971 0.349195 -0.0449224 -0.0582042 -0.270084 1.16786 0.63283 0.604674 0.667071 1.62585 0.0200695
498 -0.173715 -0.867879 0.569436 -0.414121 0.0348824 -0.251844 0.806551 0.642292 0.478619 0.14935 1.53581 -0.0395463
512 -0.500138 -0.82245 0.836065 -0.347213 0.0227271 -0.336895 0.789427 0.398267 0.125161 0.467726 1.89671 -0.228687
467 -0.507369 -0.855935 0.251344 -0.208174 0.319486 -0.390562 1.46001 0.599932 0.298555 0.137088 1.59054 -0.468881
616 -0.197441 -0.542561 0.293903 -0.299329 0.00300415 -0.362831 1.06696 0.535664 0.172295 0.820924 1.74279 0.400474
699 -0.96339 -0.267727 0.295192 -0.562674 0.380052 -0.179087 0.909417 0.601485 0.318141 0.772146 1.73505 -0.987529
640 -0.590771 -0.475353 0.282347 -0.65414 0.348256 -0.270859 0.677093 0.454939 0.584136 0.898029 1.7512 -0.834826
520 -0.211181 -1.01273 0.269793 -0.404007 0.542527 -0.623696 0.727176 0.146351 0.525301 0.490157 1.71595 -0.755767
618 -0.10582 -1.20853 0.210322 -0.861196 0.489184 -0.585433 0.898051 0.593893 0.203111 0.207438 1.50862 -0.188355
504 -0.375471 -1.0425 0.295982 -0.0371452 -0.202165 -0.338369 1.19621 0.541554 0.975475 0.50345 1.49248 -0.353616
614 0.098565 -0.723631 0.180644 -0.53643 0.334116 -0.26613 1.09095 0.722833 0.384483 0.288921 1.62088 -0.0519688
693 0.00428066 -1.02073 0.658373 -0.486682 -0.168862 -0.192799 0.62836 0.525968 0.589203 0.212982 1.7505 -0.0101498
653 0.308354 -0.920176 0.371763 -0.601758 0.466777 -0.480348 0.972515 0.742111 0.138159 0.23962 1.78231 -0.137358
429 -0.582603 -0.959758 -1.06594 0.492305 0.351736 0.418272 -0.694472 0.736679 -0.155785 0.0189262 1.4811 0.519057
367 -0.711286 -0.88905 -1.18626 0.471106 0.291255 0.696521 -0.601805 0.690303 -0.028082 -0.026437 1.52602 0.255244
322 -0.675455 -0.959887 -1.20527 0.515116 0.243899 0.688561 -0.546315 0.642088 0.0221382 0.00861045 1.53244 0.373902
309 -0.399784 -0.796423 -1.28707 0.890327 0.388577 0.523729 -0.393818 0.61012 0.135032 -0.107466 1.54101 0.208647
437 -0.692786 -1.01693 -1.15211 0.390791 0.191744 0.572991 -0.585454 0.792966 -0.213991 -0.0258214 1.36801 0.17285
438 -0.447507 -0.840945 -1.11984 0.609739 0.295428 0.482017 -0.609601 0.965735 0.0798623 -0.178114 1.38353 0.129662
370 -0.896869 -0.857406 -1.21365 0.814477 0.0967036 0.595612 -0.206234 0.552278 -0.0705357 0.156132 1.40372 0.451014
423 -0.546772 -0.990259 -1.28841 0.512324 0.187695 0.699462 -0.503607 0.662323 0.0260788 0.0490918 1.49096 0.244231
447 -0.848266 -1.04338 -1.11466 0.475243 0.253675 0.485573 -0.578657 0.680134 -0.232538 0.0236154 1.36774 0.391281
436 -0.432176 -1.08173 -1.0333 0.444299 0.336213 0.486146 -0.677371 0.547793 -0.407658 0.0662262 1.51118 0.539429
426 -0.601256 -0.986096 -1.06004 0.437461 0.414196 0.53016 -0.773187 0.624969 -0.133523 -0.106077 1.55936 0.384468
398 -0.420266 -1.04012 -1.20625 0.347762 0.288515 0.547739 -0.624213 0.698203 -0.0591486 -0.0161022 1.5365 0.414291
307 -0.480983 -1.02605 -1.25117 0.543837 0.356324 0.560521 -0.499612 0.469976 -0.00785414 -0.107351 1.53558 0.484089
330 -0.870594 -0.958461 -1.023 0.351836 0.296196 0.644532 -0.558708 0.554033 -0.323444 -0.11512 1.48802 0.452631
333 -0.75014 -0.820908 -1.37416 0.462152 0.167034 0.673348 -0.211991 0.511876 -0.200516 0.267768 1.48942 0.630963
319 -0.83601 -0.752721 -1.27237 0.393821 0.393276 0.578627 -0.537367 0.623886 0.0849633 0.0347401 1.36283 0.328189
304 -0.445385 -0.947701 -1.21817 0.458969 0.261895 0.633635 -0.391513 0.485793 0.300241 -0.193127 1.43997 0.567695
435 -0.48237 -1.06699 -1.1472 0.440716 0.347616 0.547668 -0.57423 0.591375 -0.103669 -0.0737202 1.52507 0.56675
371 -0.560503 -1.08482 -0.982375 0.324345 0.216008 0.389814 -0.830941 0.703766 -0.0686957 -0.0175448 1.48131 0.449895
428 -0.804817 -1.01368 -1.00667 0.591586 0.284988 0.444936 -0.504316 0.596261 -0.316154 -0.106752 1.52983 0.511818
531 0.193216 -0.65857 0.234331 0.0689612 0.0464637 -0.507101 1.03726 0.892223 0.106015 0.786236 1.60688 -0.14739
656 -0.209412 -0.956446 0.464464 -0.459489 -0.0276403 -0.183055 0.994284 0.818846 0.496919 0.0222647 1.56885 -0.225579
542 0.157342 -0.921925 0.428675 -0.173996 0.266252 -0.414654 0.909224 0.679779 0.263176 0.168333 1.64755 -0.481131
491 -0.1955 -0.609396 0.108506 -0.404261 0.242277 -0.343335 1.24695 0.741537 0.445046 0.627193 1.62597 -0.331981
603 0.189045 -0.47827 0.0932898 -0.53049 0.0861785 0.0323999 1.00539 0.481946 0.640468 0.269042 1.78866 -0.0563083
662 0.467964 -0.772558 0.116668 -0.703628 0.228924 -0.180951 1.04033 0.498044 0.548694 0.474909 1.83006 0.0142323
571 -0.340808 -0.799162 0.0527645 -0.500267 0.139035 -0.376243 1.2679 0.266447 0.361967 0.713403 1.50633 0.337649
572 -0.93356 -0.3038 0.372902 -0.524083 0.285332 -0.244304 0.736008 0.490995 0.359154 1.09243 1.74086 -0.89699
607 -0.137153 -0.394184 -0.021017 -0.404277 0.263567 -0.310015 0.889719 0.685384 0.495134 0.00411072 1.82549 0.0796852
660 -0.543089 -0.604626 0.488025 -0.381265 0.00736342 -0.260564 0.830982 0.475979 0.49131 0.773382 1.7701 -0.350557
623 0.00163296 -1.07942 0.244167 -0.348244 0.388936 -0.466887 1.03607 0.429942 0.569394 0.153826 1.61655 -0.568619
473 -0.266594 -0.834242 0.202017 -0.122961 0.125996 -0.380955 1.20304 0.120607 0.420201 0.607679 1.53217 0.0512218
695 0.00270469 -0.993618 0.241579 -0.54117 0.177587 -0.254356 0.987085 0.499209 0.357959 0.44758 1.60385 -0.280307
458 -0.156913 -0.78021 0.398579 -0.0879992 -0.192168 -0.052057 0.939518 -0.0290516 0.518589 0.711786 1.85877 -0.488129
195 0.0489585 -0.912672 0.259184 0.399224 1.46711 1.02751 0.12061 0.515117 0.288745 0.807216 0.13785 0.17762
49 -0.250734 -0.774004 0.275268 0.456792 1.19221 1.15849 -0.0164537 0.552338 0.30907 0.780729 0.225327 0.0561968
37 -0.179844 -1.27497 0.46363 0.350802 1.21973 1.01863 -0.138785 0.158631 0.261862 0.897703 0.113126 0.138975
94 0.0288227 -0.886685 0.448428 0.595243 1.27536 0.864883 0.118682 0.309031 0.350135 0.547894 0.309385 0.451832
106 -0.244135 -0.820037 0.271802 0.38742 1.16772 1.1632 0.0654078 0.478117 0.279652 0.775898 0.226421 0.126596
217 -0.255574 -0.751345 0.405295 0.648349 1.39592 0.870506 0.281375 0.810292 0.108744 0.566324 0.17969 0.429782
19 -0.221459 -0.822071 0.273416 0.366237 1.19624 1.2102 0.0835627 0.572299 0.326699 0.772244 0.173258 0.0783438
193 -0.610419 -0.690251 0.196911 -0.0392996 1.32306 1.16941 0.0428989 1.05432 0.380651 0.772399 -0.0875636 0.027403
8 -0.416752 -0.988609 0.619474 -0.119435 1.38643 1.21289 -0.347256 0.561828 0.180588 0.540086 0.168469 -0.184862
76 -0.488766 -0.48222 0.287678 -0.0443098 1.54634 1.2573 -0.144231 0.884702 0.488781 0.588858 0.145169 -0.214307
240 -0.410308 -0.617526 0.473232 0.448613 1.17783 0.904282 0.0573683 1.08959 0.324618 1.01105 0.110109 0.498323
78 0.121219 -0.662301 0.433448 -0.188641 1.56264 1.14771 -0.426425 0.927925 0.526122 0.298414 0.310239 0.0699023
47 -0.342518 -0.873121 0.311538 0.321553 1.12872 1.22359 0.0402456 0.532065 0.271804 0.761644 0.160908 0.0454983
279 -0.331811 -1.22155 0.186352 0.234156 1.11654 1.30242 0.205138 0.00495194 0.409515 0.488028 0.0652894 0.277752
60 -0.188936 -0.982439 0.0466312 0.772578 1.03688 1.00194 -0.00011314 0.158355 0.309378 0.666552 0.213095 0.450979
4 -0.399849 -0.794558 0.485247 -0.27682 1.47366 1.23109 -0.525206 0.795423 0.566738 0.381787 0.19428 -0.0203093
40 -0.140177 -0.522933 0.511896 0.0591616 1.63268 1.17628 -0.228642 0.824089 0.70267 0.355358 0.32 -0.0821856
257 -0.135783 -0.907409 0.0344934 0.348326 1.20043 1.34372 0.410882 0.381956 0.332274 0.539874 0.0925344 0.140481
173 -0.232223 -0.797324 0.289901 0.367851 1.25801 1.13413 0.0855037 0.505909 0.327977 0.837908 0.219833 0.1832
163 -0.0179736 -0.490469 0.235614 0.29845 1.41007 0.983703 -0.0933963 0.837484 0.299667 0.595688 0.367691 0.556403
282 -0.239066 -0.859278 0.323609 0.406417 1.17095 1.14394 0.0164035 0.500069 0.198596 0.768696 0.232642 0.117914
197 -0.201515 -1.06269 0.289573 0.445593 1.38863 1.04415 0.100034 0.248279 0.248209 0.517566 0.140924 0.085588
253 -0.00541626 -0.978059 0.720761 0.37184 1.13893 0.968716 -0.454837 0.398411 0.242433 0.579701 0.38084 0.162439
139 -0.517921 -0.78257 0.290266 0.242798 1.12092 1.17738 0.156782 0.755206 -0.317209 0.885878 0.065945 0.192656
52 -0.216518 -1.02271 0.607313 0.336701 1.08598 1.11843 0.0189453 0.693073 0.110551 0.378255 0.179934 0.329498
62 -0.163695 -1.03982 0.293599 0.498946 1.14936 1.09349 0.368193 0.0686483 0.456383 0.334446 0.196911 0.284972
22 -0.262225 -0.863399 0.349694 0.422946 1.1249 1.14674 -0.00308808 0.460973 0.238011 0.827045 0.237682 0.181415
216 -0.112759 -0.996627 0.27551 -0.0979471 1.3114 1.24716 0.0864768 0.450211 -0.157869 0.571121 0.16164 0.417308
71 -0.285397 -0.889524 0.29675 0.4385 1.16943 1.15157 0.0708915 0.412509 0.223742 0.722276 0.227478 0.116718
293 -0.290434 -0.898139 0.658542 0.557358 1.42158 0.876397 -0.236435 0.387347 -0.0496197 0.827287 0.302614 -0.0117655
84 0.150276 -0.673315 0.14274 0.412799 1.38826 1.01135 0.1765 0.664955 0.130071 0.699186 0.258911 0.457774
50 -0.212034 -0.770854 0.380524 -0.311576 1.43813 1.32215 -0.438782 0.719294 0.525324 0.492591 0.208993 -0.112143
12 -0.34521 -1.03908 0.295258 0.138862 1.12409 1.19153 -0.00286767 0.644211 0.243053 0.547678 0.0622489 0.0360574
85 -0.239885 -0.934057 0.217468 0.402377 1.21288 1.09079 0.111464 0.417319 0.356838 0.807422 0.179392 0.288446
260 -0.4611 -0.666468 0.575712 0.279678 1.30855 1.03186 -0.240817 0.623422 -0.153812 0.917154 0.276534 0.00281838
113 -0.235594 -0.816479 0.350087 0.387402 1.03083 1.02789 0.0230886 0.762179 0.261252 0.714871 0.200708 0.479614
70 -0.688968 -0.576556 0.541002 0.831895 1.17478 0.928269 0.191862 0.333928 0.278776 0.701821 0.363862 0.61963
43 -0.225715 -0.907462 0.195374 0.55063 0.722344 0.917106 -0.534064 0.534461 0.368312 0.548394 0.351436 0.699368
167 -0.0052795 -0.934194 0.422199 0.581814 1.43425 1.09726 0.205168 0.312894 0.557967 0.569686 0.226157 0.312582
288 -0.198456 -0.80626 0.363447 0.422598 1.22246 1.14601 0.14708 0.475343 0.351334 0.635791 0.280336 0.345717
29 0.163253 -0.9876 0.261625 0.4305 1.0573 1.16644 0.229274 0.415117 0.511709 0.699853 0.132211 0.286706
181 -0.67249 -0.535495 0.490025 0.562437 1.49644 0.939135 0.158249 0.246266 0.256439 0.632503 0.363189 0.439758
190 -0.343848 -0.677097 0.307323 0.455456 1.45602 1.24626 0.256887 0.336148 0.335084 0.26281 0.296097 0.364571
224 -0.341567 -1.06515 0.475626 0.484897 1.04631 1.14296 0.156769 0.437769 0.336305 0.556649 0.0972178 0.309704
242 -0.108224 -0.877451 0.555626 0.283458 1.54793 0.786622 -0.145658 0.6614 0.295407 0.867625 0.196492 0.414777
46 -0.334808 -1.04481 0.122823 0.692726 1.31589 0.840497 0.17888 0.174888 0.253216 0.389059 0.207655 0.570347
45 -0.458864 -0.712263 0.53931 0.602903 1.1211 0.890997 0.0255128 0.468419 0.259577 0.686016 0.319749 0.641778
137 -0.566898 -0.886869 0.527911 0.612329 1.03614 1.1176 0.287138 0.385475 0.58315 0.345607 0.153901 0.338799
104 -0.0888347 -0.786198 0.203151 0.467719 0.890465 1.33491 0.456412 0.718915 0.301015 0.677212 0.0804454 0.324787
291 -0.564864 -0.955199 0.185812 -0.0327085 0.574976 1.19813 -0.326447 0.850104 0.35599 0.804198 -0.00719988 0.35002
158 -0.269784 -1.1021 0.00782983 0.29674 1.07946 1.28487 0.560833 0.347406 0.662424 0.56147 -0.106602 0.313831
54 -0.320636 -0.744834 0.383386 0.118054 1.32769 1.2199 -0.201867 0.470696 0.436237 0.635766 0.292749 0.0358652
265 -0.236935 -1.02462 0.278081 0.363559 1.22087 1.15967 0.227266 0.469523 0.237399 0.608811 0.125021 0.148268
198 -0.524724 -0.955712 -0.157499 0.791887 0.824911 1.22859 0.156479 0.276961 0.52701 0.438206 0.0533725 0.187577
18 -0.0312507 -1.06792 0.430343 0.413014 1.18303 1.03742 0.197049 0.628811 0.152275 0.372729 0.188298 0.595457
211 -0.080317 -0.302395 0.107615 0.211243 1.69432 0.990671 0.00877006 0.726215 0.313358 0.499677 0.374689 0.240294
28 -0.294197 -0.823862 0.313012 0.445725 1.27787 1.14512 0.0702382 0.486145 0.453836 0.746067 0.209668 0.0549115
258 -0.265754 -0.737136 0.109495 0.232429 1.03139 0.988612 0.224349 1.08418 0.400424 0.902061 -0.0677375 0.44714
145 0.0263224 -0.832478 0.44099 0.38474 1.15809 1.2305 0.148344 0.432685 0.492734 0.443248 0.308454 0.607092
191 -0.227153 -0.649858 0.0609344 -0.285743 1.37166 1.50318 0.0912916 0.529571 0.437789 0.326109 0.152649 -0.226388
548 -0.188588 -0.666161 0.445197 -0.399622 0.498815 -0.487544 0.606762 0.0397807 0.79658 0.636348 1.93305 -0.5808
576 -0.0651102 -1.01061 0.522588 -0.167358 0.0769829 -0.319539 0.819334 0.408826 0.698258 0.211605 1.75282 -0.715847
455 -0.192643 -0.590254 0.135993 -0.344012 0.142309 0.0214057 1.18731 0.204655 0.653484 0.0557948 1.74654 -0.176962
474 -0.28388 -0.650235 0.406996 -0.0794162 0.11882 -0.476835 1.16558 0.645198 0.256346 0.494225 1.66018 0.141758
530 -0.291317 -0.772553 0.421223 -0.34559 0.569454 -0.488871 1.27961 0.351262 0.257667 0.194595 1.79609 -0.278269
461 -0.190683 -0.781472 0.47512 -0.138192 0.361645 -0.549794 1.02686 0.517135 0.334492 0.414287 1.78547 -0.359434
484 0.133307 -1.21388 0.17968 -0.4875 0.130456 -0.347319 1.0399 0.554413 0.38539 0.375455 1.51203 -0.438629
691 -0.236634 -0.576773 0.146487 -0.270073 -0.149467 -0.0741963 0.880499 0.503564 0.328767 0.591935 1.75284 -0.252833
328 -0.690376 -0.885838 -1.17739 0.547422 0.351539 0.612139 -0.587354 0.565976 0.0192264 -0.0441049 1.52572 0.213519
397 -0.736275 -0.885048 -1.27428 0.297073 0.262521 0.656136 -0.415371 0.345736 0.0785102 0.0564621 1.44756 0.609605
369 -0.567143 -0.979837 -1.12521 0.582432 0.236844 0.649788 -0.574365 0.524854 -0.0394568 -0.002768 1.54181 0.383713
416 -0.638227 -1.0084 -1.1747 0.499419 0.450226 0.459915 -0.42393 0.559342 0.132927 -0.380992 1.51 0.570132
380 -0.433664 -0.702555 -1.39922 0.659957 0.254666 0.806119 -0.305473 0.350656 0.168165 0.10481 1.57194 0.375997
394 -0.539909 -1.01524 -1.24989 0.623775 0.244749 0.599215 -0.280841 0.5578 -0.0831596 -0.164265 1.48434 0.459708
251 -0.275595 -0.860928 0.22832 0.474088 1.13298 1.12361 0.000798157 0.420085 0.228535 0.865949 0.224662 0.182538
107 -0.191461 -0.883338 0.0852841 0.510737 1.19938 1.12346 0.51537 0.718874 0.0850745 0.60822 0.0058627 0.298203
44 0.165823 -1.11537 0.0304907 0.519655 1.15898 1.21997 0.425046 0.390318 0.34514 0.415984 0.0784901 0.334378
252 -0.22943 -0.923657 0.208528 0.565365 1.33173 1.10166 0.208279 0.42293 0.202303 0.599242 0.181523 -0.0347785
272 -0.206931 -0.594391 0.380661 0.623371 1.07358 1.10428 -0.167633 0.319473 0.442364 0.51122 0.4754 0.547119
38 -0.240032 -0.950126 0.427877 0.452325 0.944395 1.10408 0.150836 0.4291 0.564105 0.61598 0.202732 0.669351
256 -0.346167 -0.77924 0.263932 -0.0308883 1.60569 1.03578 -0.138866 0.430196 -0.0574862 1.01878 0.133451 -0.0585439
7 -0.210735 -0.735719 0.298261 0.264595 1.40936 1.12759 -0.0376014 0.484776 0.433959 0.742582 0.271702 0.0940127
165 -0.487929 -0.499109 0.109757 0.454341 1.68789 1.03713 0.267591 0.453541 0.308606 0.832917 0.16353 -0.0533145
180 -0.22479 -0.712835 0.294803 0.489164 1.3109 1.07983 -0.0761354 0.459971 0.15851 0.672943 0.337734 0.086088
233 -0.404368 -0.964142 0.315528 -0.0617332 1.40161 1.04026 0.163202 0.488204 -0.296396 0.706841 0.0949111 0.393961
250 -0.228479 -0.748649 0.129477 0.402755 0.92459 1.13866 0.322993 1.06825 0.484912 0.963716 -0.0845627 0.429131
203 0.0158323 -0.784169 0.266606 0.279757 1.50394 1.21019 0.196634 0.391702 0.480066 0.567026 0.254119 0.34641
66 -0.536692 -0.902608 0.370381 0.174586 1.33085 1.16224 0.00960105 0.426657 0.243871 0.64485 0.124302 -0.0408926
164 -0.322635 -0.705857 0.279854 0.438322 1.28815 1.0926 0.0884528 0.571339 0.241393 0.709091 0.224585 0.0335729
199 -0.105271 -0.296441 0.584475 0.288867 1.49879 1.0665 -0.179072 0.873153 0.548393 0.403032 0.452372 0.279938
111 -0.0895426 -1.28186 -0.0129243 0.418834 1.34632 0.950243 0.380108 0.460051 -0.106609 0.545943 -0.0765591 0.13679
255 -0.318517 -0.791996 0.234633 -0.139112 1.35174 1.18072 -0.121773 0.613083 0.438881 0.370932 0.10098 -0.297189
67 -0.344607 -1.10817 0.224275 0.565288 1.17992 0.623013 -0.0464058 0.847902 0.0473449 0.213331 0.0395154 0.272872
146 -0.248687 -0.883644 0.260965 0.379936 0.698344 1.21059 0.0505015 0.839169 0.510289 0.630814 0.0666833 0.440084
177 -0.158579 -1.02047 0.119452 0.182101 0.801901 1.32965 0.208559 0.739419 0.673319 0.795695 -0.054798 0.450254
208 -0.277825 -0.850618 0.629635 0.438192 1.2125 1.1453 -0.0671751 0.560565 0.444784 0.199105 0.242018 -0.0292719
292 -0.289751 -0.647978 0.39444 0.454038 1.33644 0.967774 0.163503 0.695306 0.325432 0.514341 0.256467 0.455055
63 0.000667372 -0.891958 0.50658 0.407213 1.27918 1.05583 0.101516 0.449479 0.21999 0.597322 0.279373 0.351545
55 -0.431053 -1.05886 0.325666 0.691808 1.43319 0.777771 0.156041 0.397855 0.260825 0.526204 0.0977647 0.240054
168 -0.199161 -0.916144 0.296982 0.371631 1.54626 1.00234 0.164753 0.594556 0.320472 0.536339 0.0706867 0.0213189
238 -0.214959 -0.794632 0.509268 0.52403 1.39025 0.940128 -0.0402507 0.487199 -0.501749 0.699729 0.333383 0.0764067
131 -0.213999 -0.964749 0.511492 0.706665 1.32905 0.888345 0.0562954 0.373025 0.0603009 0.588755 0.305322 0.313042
56 -0.506963 -1.30672 0.281233 0.0923651 0.99321 0.906641 -0.114957 0.588824 -0.0296871 0.430249 0.00267226 0.397535
26 -0.047353 -0.719979 0.561092 0.850433 0.894383 1.08129 -0.140261 0.429027 0.37459 0.737337 0.466363 0.576718
175 -0.558503 -1.11224 0.0512638 0.0781254 1.04955 1.30966 0.290215 0.511446 0.433291 0.640864 -0.164676 0.134854
27 -0.440186 -0.857451 0.643125 0.44001 1.27236 1.07065 -0.109972 0.474985 0.036785 0.637407 0.284465 0.0360903
218 -0.0510986 -0.80274 0.580909 0.281342 1.38303 1.04814 -0.103968 0.362968 -0.264358 0.784989 0.375706 0.264208
281 0.0815643 -0.493067 0.324594 0.424452 1.54103 0.911571 0.0873717 0.682385 -0.107469 0.648117 0.378446 0.322733
204 -0.251699 -1.05954 0.348858 0.208537 1.18721 1.40797 0.140685 0.527459 0.243291 0.592585 -0.011612 -0.294619
239 -0.391086 -0.734605 0.176402 0.439178 1.28721 1.20182 0.414964 0.446888 0.273847 0.554552 0.106752 0.164337
241 -0.306689 -0.832977 0.471449 0.556095 1.34667 1.00553 -0.233023 0.324843 0.695195 0.81086 0.22215 -0.0211253
166 -0.443512 -1.12583 0.262988 0.198541 1.44683 1.18511 0.264522 0.213514 0.204536 0.549584 0.00944161 0.0499883
75 -0.384684 -0.989657 0.410067 0.248159 1.00936 0.838252 -0.141954 0.788937 0.151372 0.564682 0.150418 0.791684
81 0.150884 -0.725394 0.582158 0.50274 1.22861 0.970949 -0.455583 0.293919 -0.0752061 0.904812 0.561118 0.331886
226 -0.309004 -0.447793 0.332191 0.486424 1.52061 1.03263 0.0325243 0.233037 0.61673 0.848653 0.411733 0.443118
246 -0.154926 -0.890775 0.460993 0.244012 1.48901 0.834274 -0.0186037 0.625971 -0.0916018 0.97593 0.176621 0.507378
74 -0.169845 -1.00693 0.465902 0.543877 1.1092 0.985276 0.00749976 0.603076 0.189316 0.563957 0.265423 0.689774
273 -0.256115 -0.821511 0.240758 0.235291 1.06292 1.23896 0.183789 0.749635 0.511642 0.989876 0.0284262 0.558967
129 -0.192444 -0.835381 0.350429 0.448596 1.1628 1.19885 0.0648422 0.496872 0.226047 0.845356 0.213929 0.0169726
134 0.114929 -0.992941 0.157205 0.196247 1.07286 1.23532 0.408711 0.589013 0.51669 0.544999 0.0342171 0.492289
122 -0.0566537 -0.777332 0.383979 0.635236 0.962802 0.99656 -0.172902 0.641556 0.329291 0.426609 0.349309 0.48543
356 -0.832862 -1.10597 -1.18264 0.370614 0.213306 0.709248 -0.590523 0.280324 0.125854 -0.0790676 1.46524 0.373519
234 0.17064 -0.852923 0.351196 0.368076 1.23397 1.20121 -0.0113389 0.263838 0.358453 0.507071 0.372801 0.451972
183 -0.0531923 -0.963989 0.286206 0.415764 1.23548 0.886164 0.0774034 0.771654 0.174778 0.709899 0.0761132 0.339842
120 -0.156594 -0.952872 0.727914 0.465835 1.2848 0.992699 -0.407601 0.35683 0.107724 0.577091 0.390291 0.194082
222 0.02374 -0.797851 0.431575 0.239897 1.2485 1.12644 0.0684928 0.531847 0.198485 0.547071 0.285003 0.452171
135 0.129286 -1.06844 0.207357 0.320107 1.1337 1.09974 0.125831 0.750412 0.277684 0.684855 0.0596475 0.20012
267 -0.356786 -0.857707 0.155352 0.328432 1.09635 1.1979 0.242022 0.495397 0.28168 0.813363 0.112368 0.230547
133 -0.020578 -0.946223 0.224504 0.632322 1.03807 1.14012 0.338193 0.461911 0.35521 0.740097 0.149917 0.472423
77 -0.617054 -0.716175 0.00752818 0.869207 0.912778 0.65343 -0.442328 0.652533 0.493915 0.393904 0.37322 0.775643
237 -0.25387 -0.58718 0.443902 0.398388 1.39661 1.04366 -0.0445828 0.459601 0.249676 0.959579 0.318328 0.338815
184 -0.00501186 -1.0127 0.136546 0.362629 0.964772 1.2636 0.399256 0.561582 0.50782 0.494802 0.0239419 0.281129
274 -0.0959068 -1.01911 0.21067 0.621103 1.26788 0.910909 0.129463 0.544243 0.223999 0.67063 0.144201 0.24934
24 -0.290227 -0.953197 0.42249 0.801038 1.20312 0.950463 0.076697 0.341919 0.123076 0.447146 0.304052 0.355838
36 -0.627741 -0.694623 0.51081 0.865339 0.814741 0.800517 -0.246252 0.873824 0.185678 0.681048 0.299068 0.659839
244 -0.104706 -0.401774 0.207815 0.338216 1.79393 1.0505 -0.0213785 0.560596 0.400067 0.536779 0.342328 -0.0627213
382 -0.791472 -0.948985 -1.09766 0.379894 0.42389 0.531948 -0.598537 0.47655 -0.23071 0.0135939 1.54741 0.620733
401 -0.697038 -0.800866 -1.27281 0.649295 0.163918 0.652716 -0.20732 0.60313 0.207406 -0.231172 1.48666 0.276767
302 -0.714712 -0.880263 -1.09897 0.605362 0.20645 0.60005 -0.364094 0.54296 0.257862 -0.302131 1.44454 0.223056
344 -0.774177 -0.993669 -1.18529 0.427869 0.317884 0.644404 -0.526545 0.616456 -0.01973 -0.0912464 1.3949 0.490381
420 -0.61809 -0.972274 -1.03829 0.254397 0.4057 0.511529 -0.656239 0.586589 0.119959 -0.376334 1.54105 0.41859
348 -0.406847 -1.14651 -1.1986 0.73292 0.136405 0.435269 -0.486422 0.945396 0.227225 -0.206309 1.3738 0.384417
117 -0.0310507 -1.07308 0.0409672 -0.0750963 1.3489 1.1784 0.183651 0.339638 0.00892876 0.714537 0.0766945 0.325773
266 -0.330563 -0.882357 0.454973 0.0211501 1.4109 0.892609 0.0510386 0.66882 -0.0660277 0.609833 0.181671 0.595381
159 -0.548437 -1.02873 0.148648 0.243593 1.39798 1.17873 0.445296 0.421941 0.250233 0.690749 -0.140759 -0.0934081
170 -0.0326335 -1.22015 0.136461 0.556338 1.1839 1.06864 0.397198 0.481863 0.496761 0.867475 -0.104828 0.1289
485 -0.83631 -0.395188 0.330611 -0.306207 0.0492227 -0.19741 0.856038 0.445005 0.451633 1.07224 1.70968 -0.841338
534 -0.32289 -1.07906 0.327788 -0.310132 0.122883 -0.14538 0.988364 0.176202 0.307027 0.465415 1.58952 -1.09219
595 -0.159014 -1.04559 0.627288 -0.232461 -0.0334948 -0.401027 0.793379 0.489302 0.727119 0.28283 1.78048 -0.281741
500 -0.277162 -1.20113 0.519579 -0.608528 0.00023479 -0.23301 0.938025 0.109597 0.356124 0.491467 1.66518 -0.20788
555 0.197793 -0.758451 -0.000715677 -0.65101 0.341394 -0.219545 1.29501 0.775545 0.19686 0.281857 1.55906 -0.0862895
635 0.255753 -0.735113 0.0244398 -0.360019 0.332026 -0.255833 1.20759 0.771187 0.315271 0.173266 1.54696 -0.304264
601 -0.310419 -0.948988 0.57401 -0.685375 0.0321432 -0.142211 0.424075 0.288245 0.539039 0.645153 1.70285 -0.990618
589 -0.0338469 -0.947871 0.106583 -0.38781 0.193971 -0.0278727 1.24338 0.119569 0.735613 0.19785 1.66962 -0.733484
598 -0.196502 -0.562882 -0.064175 -0.239098 0.127233 -0.513264 0.969875 0.835849 0.380471 0.396369 1.52115 0.240308
528 -0.315592 -0.850049 0.458189 -0.301503 0.224243 -0.34077 0.979638 0.133836 0.808119 0.211761 1.87754 -0.222482
505 -0.252568 -0.759978 0.344767 -0.346253 0.0594015 -0.388752 1.1218 0.772794 0.151447 0.55697 1.45045 0.0893486
212 0.373565 -0.589631 0.169185 0.112404 1.46473 1.27614 -0.0292836 0.689189 0.339474 0.536768 0.353787 0.146848
277 -0.121014 -0.952139 0.167574 0.041038 1.14862 1.43823 0.0885054 0.433681 0.011386 0.59046 0.0972543 -0.124132
213 -0.0591661 -1.12556 0.476421 0.469113 1.01235 0.956259 -0.567502 0.430801 0.0714625 0.637508 0.339085 0.487864
172 -0.252869 -1.10482 0.440421 0.475996 1.54346 0.949556 0.117095 0.303351 0.447445 0.481444 0.123584 0.315013
192 -0.29397 -1.03524 0.149032 0.0413505 1.23221 1.20632 0.289057 0.567042 0.038816 0.926114 -0.0621009 0.358924
215 0.00410405 -0.745871 0.283991 0.377202 1.40817 1.10168 0.294991 0.583415 0.102074 0.762826 0.208746 0.488756
83 -0.619163 -1.05241 0.45469 0.312521 1.16803 0.938912 0.128281 0.512723 0.314097 0.579732 -0.00181001 0.307046
230 -0.659308 -1.03876 0.504649 -0.0191435 1.50171 1.01754 -0.219145 0.48267 0.179546 0.731075 0.036902 -0.186068
162 -0.34017 -0.455438 0.171741 0.41538 1.81816 0.962698 -0.0251296 0.629294 0.737348 0.546901 0.209225 -0.228908
231 -0.278928 -0.74654 0.378005 0.269612 1.41032 1.05217 -0.0530778 0.275666 0.143362 1.27746 0.192449 0.104432
232 -0.360331 -1.05513 0.389266 -0.0284049 1.2425 1.08418 0.107226 0.370161 -0.40161 0.770166 0.136912 0.335444
73 -0.249732 -0.787271 0.604353 0.639923 1.31309 0.954829 0.132844 0.264588 -0.0147983 0.757993 0.391479 0.530043
99 -0.584286 -0.96645 0.301981 0.654004 1.15795 0.962143 0.00119733 0.729334 0.0329097 0.535529 -0.0476869 -0.551833
261 -0.494889 -0.631919 0.271292 0.700951 1.43448 0.935333 0.304373 0.322263 0.529497 0.468833 0.217981 0.239556
147 -0.0689768 -0.782749 0.28804 0.542513 1.65109 0.976966 -0.0118935 0.318896 0.409642 0.737418 0.245243 -0.0616022
136 -0.00600594 -0.676731 0.34689 0.621532 1.20565 1.00294 0.116525 0.562421 0.0286604 0.704894 0.344412 0.468612
48 -0.85304 -0.549676 0.436325 0.981707 0.782073 0.601101 -0.708123 0.588006 0.466513 0.397845 0.525799 0.623651
219 -0.0816595 -0.435948 0.295746 0.498096 1.19339 1.13835 -0.0150882 0.535847 0.0236471 1.07455 0.391369 0.411097
87 -0.107479 -0.978943 0.638325 0.750992 1.20775 0.820629 -0.170021 0.250709 -0.191371 0.769703 0.365144 0.193088
130 0.00242461 -0.858058 0.35488 0.278097 0.924701 1.25779 0.263568 0.746797 0.27679 0.699711 0.128354 0.481505
276 -0.0274239 -1.1337 0.225113 0.232489 1.21315 1.10981 0.340042 0.515044 0.276944 0.301191 -0.0141897 0.106177
254 -0.192273 -0.605107 0.349732 0.286046 1.29008 1.09921 0.13517 0.481749 0.420019 0.960141 0.257541 0.57261
34 -0.289457 -0.672856 0.655914 0.152947 1.57339 1.10684 -0.464548 0.561042 0.912477 0.295129 0.357833 -0.00578362
23 -0.255239 -0.60859 0.0354282 0.738784 1.08092 0.932448 -0.196879 0.551636 0.174337 0.741139 0.35608 0.545375
280 -0.330506 -1.0169 0.467454 0.387937 0.917237 1.18187 0.0350881 0.420871 0.615636 0.549309 0.145797 0.517297
148 -0.342069 -0.945672 0.229647 0.375903 0.841821 1.23326 0.150938 0.601091 0.655002 0.758933 0.0322138 0.525221
80 -0.236129 -0.68774 0.534379 0.735733 1.309 0.93351 0.0616068 0.366307 0.338143 0.303314 0.459846 0.623066
223 -0.378067 -0.791045 0.348659 0.0200743 1.14888 1.25395 0.174474 0.613461 0.241231 0.761197 0.135813 0.640602
116 -0.404457 -0.970389 0.324009 0.409625 1.32437 1.15527 0.301694 0.167649 0.0855192 0.485948 0.152045 0.0993763
248 -0.132623 -1.21885 0.0543278 0.29405 0.54122 1.19909 0.0159136 0.876036 0.60597 0.591473 -0.111136 0.437227
179 0.211472 -0.909018 0.0986408 0.366319 1.43221 1.15977 0.418662 0.371765 0.223335 0.796605 0.132516 0.264767
95 0.151946 -1.34084 0.338215 0.411398 1.10914 1.05552 0.12323 0.216302 0.463833 0.391759 0.112772 0.333634
149 -0.634805 -1.23191 0.441509 0.129558 1.27626 1.25469 0.115524 0.391003 0.165651 0.13938 -0.0169339 -0.315586
101 -0.34911 -0.620571 0.449884 0.560806 1.22901 0.897397 0.186739 0.626561 -0.0637916 0.922227 0.257949 0.446367
126 -0.31124 -0.973545 0.363619 0.453931 1.05989 1.16526 0.369753 0.565723 0.237702 0.602249 0.0623201 0.446512
235 -0.241134 -0.738315 0.407462 0.582124 0.86553 0.932509 -0.15513 1.05651 0.410672 0.790355 0.187883 0.791122
290 -0.292534 -0.523387 0.375908 0.517216 1.51411 0.928653 0.198753 0.573238 0.0777815 0.691602 0.317403 0.487201
15 -0.501702 -0.623506 0.645581 -0.243993 1.52172 1.22744 -0.555323 0.644205 0.428957 0.509778 0.329873 -0.0334185
9 -0.38903 -0.506069 -0.156788 0.872178 0.923607 0.751065 -0.527612 0.219069 0.44616 0.726255 0.607559 1.01742
11 -0.302776 -0.595451 0.361742 0.0760879 1.41857 1.29578 -0.100018 0.738376 0.74058 0.349795 0.235385 0.0271433
110 -0.0643513 -0.970685 0.566914 0.621604 1.3122 0.928379 -0.0654358 0.396832 -0.385474 0.833154 0.30646 0.171648
112 -0.546452 -0.800701 0.432898 0.301625 1.34377 0.994467 0.183174 0.299819 0.392048 0.511182 0.199785 0.462102
340 -0.32457 -1.18635 -1.20815 0.301387 0.219738 0.635983 -0.656585 0.619685 -0.129818 -0.0331416 1.52502 0.694151
450 -0.861139 -0.981604 -1.20389 0.394343 0.275177 0.603226 -0.418098 0.436974 0.0555133 -0.0963806 1.41687 0.465504
351 -0.578155 -1.06728 -1.06184 0.504859 0.262768 0.553748 -0.649112 0.544564 0.00889779 -0.111996 1.50308 0.249453
347 -0.62639 -0.738362 -1.38122 0.568794 0.186768 0.587221 -0.230562 0.853893 0.0463248 0.0871336 1.37029 0.430465
414 -0.34325 -0.894217 -1.07335 0.399162 0.487505 0.461617 -0.769541 0.918747 0.0802324 -0.281448 1.56733 0.50958
424 -0.243385 -0.939584 -1.33465 0.706993 0.212351 0.753471 -0.361663 0.687864 0.266281 -0.221043 1.47259 0.230085
312 -0.619395 -1.14533 -1.21205 0.0836909 0.368119 0.661132 -0.676214 0.682826 -0.334398 -0.0686072 1.41321 0.434671
305 -0.618324 -1.18238 -1.14315 0.100292 0.104 0.674962 -0.500499 0.515755 0.139124 -0.176311 1.36901 0.674552
442 -0.579605 -0.943918 -1.23569 0.456606 0.328419 0.552039 -0.496695 0.460692 0.173207 -0.081091 1.44374 0.430288
336 -0.659851 -1.05093 -1.03555 0.657925 0.178731 0.504949 -0.726464 0.810396 0.00330625 -0.0444344 1.40536 0.257907
324 -0.512781 -0.772245 -1.31318 0.780132 0.291756 0.658316 -0.120934 0.618212 -0.110243 0.00955896 1.45928 0.566045
581 -0.732263 -0.443491 0.425085 -0.494578 0.0486044 -0.0365246 0.603335 0.584964 0.45661 0.819506 1.75314 -1.14506
622 0.484704 -0.760389 -0.204103 -0.421548 -0.00785563 -0.0257815 1.16091 0.658433 0.488098 0.490145 1.602 -0.350086
536 -0.133604 -0.761346 0.314268 0.015208 -0.35714 0.0729668 1.28742 0.477861 0.805339 0.613382 1.65255 -0.510643
570 0.15048 -0.806487 -0.00157036 -0.284592 0.0341712 -0.339592 1.21511 0.782375 0.400264 0.580284 1.57301 0.0196598
567 -0.36444 -1.09697 0.633731 -0.210295 0.0661481 -0.601954 0.823481 0.670412 0.44978 0.393987 1.67599 -0.466083
596 -0.197708 -0.982227 0.37699 -0.352053 0.378034 -0.430011 1.19644 0.435447 0.482903 0.140267 1.65111 -0.311324
418 -0.404082 -1.1324 -1.10869 0.460655 0.263603 0.586324 -0.762444 0.688242 -0.0987942 -0.133271 1.52197 0.395123
317 -0.971249 -0.868273 -1.287 0.229203 0.196608 0.581045 -0.342761 0.784031 -0.0872026 0.090537 1.28804 0.58498
413 -0.68826 -0.924365 -1.23012 0.681824 0.234312 0.522448 -0.318689 0.826051 -0.202481 0.050118 1.37821 0.421915
407 -0.795334 -0.860739 -1.24695 0.644535 0.324129 0.528035 -0.299165 0.76278 0.0627788 -0.117033 1.37981 0.459822
443 -0.58696 -0.811295 -1.08956 0.272963 0.375603 0.540514 -0.641088 0.558903 -0.50115 0.165202 1.6017 0.541043
390 -0.892123 -0.974995 -1.13322 0.119351 0.191475 0.530083 -0.634551 0.712532 -0.358816 0.205983 1.43827 0.558491
345 -0.633742 -0.691657 -1.25899 0.421802 0.406967 0.634578 -0.394191 0.505847 0.123883 -0.199548 1.6534 0.515228
540 -0.130372 -0.907692 0.160026 -0.235099 0.377439 -0.305858 1.07263 0.111219 0.661262 0.28464 1.68353 -0.738742
501 -0.14546 -0.690496 0.178569 -0.36339 -0.252026 0.0135762 1.23804 0.547594 0.655064 0.588548 1.47167 0.129633
492 -0.0226971 -1.09295 0.34972 -0.885782 0.476517 -0.576943 0.85665 0.675 0.252596 0.314169 1.64906 -0.0508722
610 -0.275998 -0.942757 0.193728 -0.437616 -0.080653 0.0967187 1.46861 0.396814 0.715473 0.0993198 1.57047 -0.379003
178 -0.807042 -0.97584 0.00779824 0.347578 1.50152 1.11629 0.489966 0.402948 0.202089 0.669589 -0.146378 -0.087764
53 -0.57434 -0.71137 0.469994 0.897715 0.849855 0.988991 0.10556 0.527896 0.311589 0.646799 0.267736 0.398626
245 -0.16375 -0.522254 0.435115 0.410864 1.43596 1.06467 0.104351 0.264312 0.301033 0.640669 0.454861 0.601587
674 0.49116 -0.712257 0.230123 -0.443738 0.540915 -0.413206 0.86405 0.731827 0.110523 0.199145 1.71073 -0.137949
417 -0.521861 -0.978204 -1.13228 0.00471605 0.275349 0.563126 -0.86054 0.775173 -0.0695647 0.0592236 1.56306 0.605436
339 -0.427958 -0.740067 -1.22115 0.696978 0.392591 0.577713 -0.340455 0.430187 -0.0295454 -0.116155 1.70823 0.491278
411 -0.711447 -1.10755 -1.35872 0.396597 0.0928408 0.637345 -0.330699 0.81545 0.0152928 -0.0604767 1.28782 0.390827
393 -0.81565 -1.03516 -1.04411 0.799606 0.187134 0.451563 -0.370321 0.585461 -0.165772 0.0119672 1.34733 0.449467
421 -0.553084 -0.913775 -1.38106 0.401214 0.312834 0.763307 -0.245993 0.532347 -0.272782 0.0305199 1.3831 0.504189
405 -1.09401 -0.9913 -1.01139 0.316806 0.112724 0.662781 -0.572669 0.63186 -0.155513 -0.00396542 1.34288 0.47741
432 -0.415578 -0.770573 -1.23977 0.707413 0.394109 0.566573 -0.3973 0.755381 0.0212731 -0.0872164 1.53821 0.55595
182 -0.0695167 -0.769738 0.316092 0.330638 1.34737 1.08244 0.0937539 0.471623 0.274474 0.62644 0.301133 0.579765
161 -0.282444 -0.92134 0.261528 0.362774 1.04537 1.06617 0.256834 0.773445 0.193579 0.583447 0.0480041 0.344155
92 0.0702141 -0.802753 0.180003 0.209695 1.33531 1.24585 0.236349 0.331142 0.189734 0.633339 0.258444 0.532652
372 -0.364673 -0.9077 -1.16452 0.19233 0.370155 0.56799 -0.649311 0.819172 0.00594673 -0.15402 1.44765 0.532597
535 -0.0130416 -0.782893 0.248846 0.0451917 0.357417 -0.557273 1.06434 0.442235 0.578503 0.487709 1.72423 -0.670429
663 -0.876225 -0.200551 0.300398 -0.54327 0.0100612 -0.0988174 1.00661 0.783354 0.57655 1.06927 1.67779 -0.46139
564 -0.432984 -1.12492 0.516943 -0.611589 -0.0640775 -0.192927 0.931358 0.547516 0.423265 0.056029 1.42359 -0.115942
463 -0.187762 -0.729497 0.388213 -0.142159 0.130464 -0.417302 0.850854 0.614946 0.45941 0.567468 1.7401 -0.584111
654 -0.0278516 -0.701079 0.0843149 -0.101257 0.116498 -0.322054 1.03549 0.425364 1.01406 0.756276 1.59941 -0.625287
91 -0.00619113 -1.03675 0.283597 0.499665 0.923122 1.02903 0.0864052 1.01575 0.0381517 0.768962 -0.0383811 0.0994132
278 -0.197272 -0.794769 0.311893 0.425119 1.09131 1.31284 0.342587 0.493766 0.316891 0.675896 0.191521 0.294765
615 -0.019081 -0.660464 -0.127336 -0.674591 0.173663 -0.166547 1.29959 0.772261 0.40801 0.421985 1.34155 0.18512
582 -0.00548338 -0.94003 0.568221 -0.169256 -0.0139964 -0.304019 0.787246 0.672421 0.693313 0.0650496 1.58974 -0.23686
507 -0.187094 -0.957835 0.280954 -0.708635 0.177111 -0.40045 0.971148 0.844073 0.56245 0.276888 1.54911 -0.0674725
672 -0.78141 -0.804726 0.30969 -0.465658 -0.229025 -0.35295 0.730321 0.85991 0.485397 0.147496 1.50753 0.0765955
661 -0.917288 -0.342884 0.353291 -0.498708 0.156102 -0.15852 0.76662 0.562165 0.357175 1.04044 1.73273 -0.883589
456 -0.238221 -0.941593 0.217599 -0.340076 0.300091 -0.27179 1.00986 -0.0264459 0.334544 0.491089 1.76847 -0.637573
676 -0.259904 -1.06999 0.526604 -0.587624 0.306297 -0.500418 0.729601 0.434226 0.603679 0.135966 1.73289 -0.281373
506 -0.379016 -0.699255 0.180866 -0.195757 -0.127391 -0.0667406 1.43432 0.610682 0.635739 0.316801 1.54297 -0.0780531
611 -0.0484203 -1.00953 0.159989 -0.153751 0.411931 -0.463665 1.08155 0.349443 0.55197 0.201938 1.62198 -0.744609
64 -0.37115 -0.938677 0.0559455 0.754596 0.994344 0.871438 -0.0957 0.592223 0.411702 0.089225 0.266299 0.713922
96 -0.49563 -1.08403 0.451028 0.0711164 1.22751 1.09131 0.264247 0.364286 0.0454702 0.480765 0.0856942 0.499966
123 0.0281534 -1.32254 0.280311 0.288139 0.737099 0.978618 -0.350055 1.08943 0.0902034 0.635061 -0.00641903 0.429249
209 -0.569138 -0.655873 0.401134 0.0559446 1.12618 1.26632 0.197597 0.325264 0.156934 0.676291 0.205479 0.497408
210 -0.0545835 -0.128405 0.23785 0.148407 1.49336 1.17791 -0.180133 0.90667 0.395923 0.553589 0.433918 0.103091
69 0.00553456 -1.14381 0.244732 0.549193 1.27888 0.970483 0.138125 0.430945 0.0956301 0.592142 0.145955 0.360572
227 0.20979 -0.990395 0.12223 0.362887 0.999466 1.34276 0.234163 0.401545 0.415426 0.82733 0.131184 0.332099
20 -0.366527 -1.26218 0.244024 0.359905 1.50954 1.09138 0.385201 0.223181 0.25497 0.432364 -0.008727 0.0538538
144 -0.270496 -0.905955 0.462703 0.347356 0.853555 1.23882 0.145679 0.537386 0.750477 0.700377 0.128185 0.604598
264 0.167637 -1.02796 0.348155 0.266772 1.22032 1.23856 -0.0187502 0.268843 0.305068 0.491211 0.253199 0.192696
33 -0.272815 -0.929011 0.216431 0.899332 0.839501 0.915148 -0.0417135 0.185101 0.455454 0.725119 0.281487 0.573064
425 -0.790656 -0.888734 -1.3863 0.665727 0.303137 0.780711 -0.223946 0.449321 0.182713 -0.193906 1.43966 0.366398
321 -0.642098 -0.904784 -1.31805 0.699856 0.230099 0.601386 -0.185996 0.494175 -0.0116218 -0.101967 1.51524 0.402798
221 0.0346611 -0.623694 0.443471 0.255844 1.22962 1.09546 -0.0314806 0.30359 0.439122 0.426438 0.483528 0.679478
31 -0.233256 -0.58489 0.397662 -0.207461 1.89034 0.966555 -0.290545 0.879725 0.61396 0.483639 0.220296 -0.0315369
171 -0.637722 -1.06986 -0.0294355 0.225904 0.868632 1.11831 0.0521826 0.821472 0.372335 0.583034 -0.206363 0.0199527
6 -0.448318 -1.08781 0.512658 0.570344 0.748742 1.0962 0.0667805 0.474625 0.567442 0.576556 0.126312 0.642447
156 -0.676209 -0.866055 0.511326 0.0770629 0.958877 1.08541 0.214093 0.818832 0.115365 0.886343 -0.00624389 0.556043
287 -0.518412 -1.07177 0.369598 0.0879062 1.06408 1.25366 0.143472 0.0347646 0.491418 0.658244 0.110719 0.5141
612 0.0508675 -1.21176 0.497435 -0.281599 0.318092 -0.563395 0.722191 0.373642 0.555628 0.201816 1.71092 -0.532364
590 -0.207645 -0.71922 0.254869 -0.382164 0.186618 -0.214427 0.801625 0.291212 0.561835 0.773306 1.76886 -0.777846
459 -0.189998 -0.632264 -0.00229218 -0.538032 0.265679 -0.152119 1.0083 0.255665 0.71233 0.37457 1.57974 -0.294439
573 0.10812 -0.834585 0.241468 -0.167775 0.203719 -0.327512 0.963587 0.320838 -0.20525 0.380514 1.73612 -0.200789
675 -0.197167 -0.725141 0.141934 -0.445199 -0.182273 -0.148598 0.871518 0.836911 0.629987 0.0983025 1.61576 0.268832
620 0.0730391 -0.658527 0.0846349 -0.561339 0.301892 -0.294647 1.14285 0.843023 0.485137 0.389264 1.57087 0.00944312
503 -0.202423 -0.792743 0.372601 -0.248814 -0.0736743 -0.413473 0.998802 1.04111 0.44906 0.454172 1.4591 -0.136042
374 -0.524267 -1.09912 -1.0975 0.599055 0.196468 0.511341 -0.561326 0.833856 0.0807046 -0.226615 1.40654 0.352351
301 -1.04591 -0.871563 -1.28691 0.46967 0.0802934 0.5968 -0.392583 0.909266 0.0132067 0.178622 1.30394 0.472976
445 -0.755787 -0.96897 -1.02671 0.442914 0.271475 0.541552 -0.54914 0.447381 -0.45313 0.192666 1.46212 0.648459
544 0.251751 -0.937868 0.313721 -0.596 0.216254 -0.199906 1.00652 0.632404 0.817172 0.130955 1.68932 -0.347884
314 -0.576209 -0.830581 -1.26603 0.169644 0.323964 0.697953 -0.592742 0.649143 -0.191954 0.066235 1.548 0.565678
403 -0.96589 -0.988316 -1.22283 0.632154 0.258626 0.542002 -0.295981 0.758457 0.0235154 -0.225983 1.40776 0.48075
350 -0.338634 -1.10755 -1.03296 0.667673 0.313405 0.473145 -0.797258 0.720624 0.00672336 -0.137245 1.56287 0.364339
335 -0.481186 -1.2221 -1.09855 0.128713 0.165987 0.630923 -0.848965 0.480412 0.133642 -0.0187478 1.42567 0.557358
58 -0.354629 -1.2258 0.254053 -0.024739 1.38475 1.17553 -0.0201096 0.540973 0.220816 0.4493 -0.0821235 -0.276379
285 -0.0171422 -1.18635 0.57916 0.421975 0.871751 1.05327 -0.172619 0.711451 0.243058 0.56555 0.112061 0.233067
72 -0.202801 -0.943758 0.305659 -0.269092 1.1739 1.366 -0.30145 0.637954 0.28232 0.408446 0.144029 -0.00685551
128 -0.300578 -1.00967 0.354605 0.669655 1.4772 0.922729 0.069318 0.522278 -0.0558785 0.521825 0.104912 -0.192479
88 -0.453911 -0.660115 0.525119 0.592844 1.38037 0.932307 0.181947 0.413152 0.420329 0.211584 0.33353 0.429003
174 -0.262372 -0.81255 0.265092 0.531151 1.63906 0.979129 0.238963 0.0416031 0.43772 0.675622 0.248243 0.29894
236 -0.435914 -1.0912 0.356684 0.281795 1.29022 1.09984 0.26433 0.521958 0.23987 0.647213 -0.0375467 0.127766
297 -0.734334 -0.838152 -1.27299 0.502062 0.27246 0.625935 -0.239457 0.542838 -0.0026417 -0.0684652 1.48995 0.654566
392 -0.917403 -0.77643 -1.17393 0.52916 0.232921 0.500376 -0.394199 0.64169 -0.277381 0.242196 1.4379 0.446645
229 0.271216 -1.02543 0.229388 0.51047 1.20217 1.11499 0.102067 0.248017 0.463716 0.637684 0.223077 0.334213
268 -0.0808632 -0.573931 0.689735 0.533479 1.07184 1.15489 -0.343121 0.789771 0.691925 0.549705 0.380364 0.0705969
677 -0.309926 -0.657165 0.452811 -0.343086 0.262668 -0.292864 0.642581 0.320165 0.846638 0.525823 1.76563 -0.779916
636 -1.10525 -0.357378 0.27999 -0.567214 0.0151341 -0.190199 1.02666 0.725968 0.395624 1.00364 1.66251 -0.596149
585 -1.08491 -0.348848 0.33534 -0.543599 0.23882 -0.153908 0.846108 0.626389 0.206554 0.811605 1.71933 -0.974043
514 0.0318309 -0.950855 0.614268 -0.246593 -0.00353803 -0.131984 0.789978 0.172559 0.622832 0.423563 1.84396 -0.623855
160 -0.110022 -0.778055 -0.0916717 0.30471 1.33389 1.37478 0.362095 0.71714 0.564917 0.350489 0.0218954 -0.0196646
108 -0.361094 -0.830614 0.615957 0.66537 1.07474 0.861852 0.156003 0.64398 0.158841 0.634901 0.188954 0.445566
286 -0.232363 -1.03364 0.470834 0.564742 0.944994 1.2221 0.175903 0.527874 0.649568 0.364765 0.127342 0.387406
284 0.0874531 -0.994672 0.110625 0.239732 1.24682 1.23789 0.226681 0.297681 0.273511 0.470011 0.178592 0.396805
125 -0.614183 -0.915382 0.320953 0.31273 1.13821 1.14942 0.237702 0.578082 -0.294535 0.652207 0.0535872 0.175061
220 -0.272771 -0.701152 0.374717 0.423618 0.995673 1.08641 -0.116814 0.583212 0.458425 0.675502 0.309155 0.802637
154 -0.178207 -0.925063 0.24555 0.310695 1.50976 1.07196 0.38721 0.578477 -0.0150754 0.490733 0.0920435 0.327694
228 -0.223079 -0.705782 0.304201 -0.0658431 1.27437 0.977089 -0.022824 0.483035 -0.123337 0.890682 0.242263 0.470343
249 0.303554 -1.05888 0.162098 -0.0354851 1.3985 1.17695 -0.0142062 0.319526 0.406893 0.882787 0.158578 0.356196
262 -0.305819 -1.11488 0.0599738 0.323336 1.55379 0.863463 0.41355 0.602977 0.25079 0.562479 -0.0885254 0.203799
225 -0.0810012 -0.445272 0.389078 0.308496 1.45818 0.964435 -0.19503 0.822267 0.23803 1.06032 0.317265 0.235037
109 -0.324461 -1.02709 0.305546 0.297477 1.42736 0.853181 0.0586234 0.288851 -0.173622 0.802734 0.138706 0.157406
100 0.00294967 -0.952946 0.148542 0.592565 0.964386 1.36833 0.403281 0.405504 0.495206 0.689015 0.0944064 0.149241
121 0.168343 -1.10201 0.209011 0.425742 1.24409 1.17587 0.00102184 0.557382 0.233715 0.758531 0.107077 0.00400131
671 0.122678 -1.29505 0.36251 -0.624879 0.0531943 -0.220946 0.911184 0.712848 0.376274 0.170933 1.5325 -0.510777
606 0.294755 -0.940084 0.295761 -0.336361 0.0905616 -0.189354 0.841872 0.73207 0.326842 0.138165 1.5981 -0.484531
593 -0.137647 -0.8455 0.0396106 -0.592897 -0.318244 -0.0839767 0.777427 0.701325 0.618522 0.137645 1.56891 0.299998
679 -0.315007 -0.831372 0.263326 -0.659303 0.311249 -0.202969 1.03402 0.308815 0.796836 0.204174 1.68599 -0.47443
16 -0.235902 -0.505811 0.505457 0.10519 1.48814 1.22702 -0.195989 0.698889 0.526566 0.453466 0.39229 0.0509698
194 -0.354183 -0.466367 0.33791 0.438518 1.42412 1.10564 0.0172487 0.4842 0.0285232 0.677239 0.351958 -0.0968439
127 0.144578 -1.01593 0.0945656 0.597313 1.23734 0.908787 0.231016 0.573977 0.159894 0.559223 0.105439 0.295448
82 0.390862 -1.32147 0.431142 0.278299 1.13495 1.04038 -0.222488 0.364639 0.353655 0.530799 0.159304 -0.028114
649 -0.816673 -0.651773 0.642216 -0.669486 0.16886 -0.322712 0.637125 0.46461 0.403708 0.707439 1.77872 -0.463073
549 -0.0189175 -0.782031 -0.0253789 -0.315951 0.0510115 -0.449951 0.797067 0.800516 0.30616 0.232285 1.64856 0.0497141
481 -0.428675 -1.01944 0.380815 -0.118155 -0.0124777 -0.389746 1.19262 0.112273 0.334879 0.703755 1.69989 -0.323117
558 0.285899 -0.634803 0.424239 -0.399042 0.266462 -0.296339 0.905968 0.861759 0.188793 0.246918 1.67132 -0.00743925
391 -0.802739 -1.21012 -0.951723 0.630762 0.321167 0.328838 -0.656484 0.689184 -0.17625 -0.311289 1.43723 0.217564
89 -0.274501 -0.787881 0.501077 0.571301 1.38688 1.03225 0.0517682 0.343086 0.210241 0.510794 0.322044 0.308257
169 -0.0284309 -0.804484 0.0251028 0.263708 1.43951 1.2493 0.196106 0.682415 0.724255 0.137056 0.102196 -0.0222909
5 -0.414602 -1.08733 0.453214 0.0724051 1.09498 1.20376 -0.210858 0.308071 0.272641 0.554494 0.160764 0.222511
247 -0.417751 -0.781527 0.391041 0.215406 1.34985 1.06289 0.238127 0.482526 -0.376677 0.752742 0.205592 0.377656
364 -0.472502 -0.911573 -1.23111 0.311224 0.247776 0.667226 -0.58245 0.573296 -0.0611431 0.0865497 1.53667 0.701773
546 0.28188 -0.700398 0.0800621 -0.757565 0.353527 -0.13883 0.994241 0.699054 0.188041 0.168353 1.60406 -0.141155
13 -0.152316 -0.735244 0.5486 0.595838 0.801123 1.24127 0.095564 0.508183 0.442027 0.822519 0.30921 0.533507
97 0.184186 -0.516719 0.410823 0.42896 1.3808 1.05262 0.095916 0.670387 0.126203 0.751269 0.445428 0.712127
205 -0.939714 -0.388631 0.27654 0.75632 1.23138 0.957538 -0.156654 0.778111 0.363093 0.250016 0.291947 0.170926
10 0.0641773 -0.661888 0.277191 -0.190041 1.57035 1.32085 -0.269789 0.612287 0.539844 0.551491 0.261879 -0.159306
446 -0.699246 -0.921792 -1.16086 0.374283 0.28428 0.618604 -0.461781 0.717318 -0.0698163 -0.128221 1.40036 0.447042
388 -0.685121 -0.771058 -1.20417 0.487254 0.401281 0.667575 -0.485198 0.778706 0.0576096 -0.200582 1.33759 0.148217
422 -0.495298 -0.985648 -1.1212 0.649701 0.249214 0.429089 -0.408321 0.50103 -0.30769 0.0838178 1.58616 0.586627
597 0.0713769 -0.903101 0.240138 -0.159302 0.219982 -0.298125 0.955608 0.210753 0.749305 0.396699 1.72285 -0.657743
269 -0.341067 -0.70474 0.323251 0.494456 1.40589 0.910969 0.382824 0.886381 -0.111118 0.75147 0.112449 0.469689
658 -0.0498986 -1.19302 0.231601 -0.569939 0.207305 -0.31225 0.761496 0.342491 0.722757 0.273822 1.58067 -0.673874
580 -0.00756999 -1.1239 0.125445 -0.574644 -0.141666 -0.133941 0.63078 0.508428 0.495594 -0.0671676 1.50133 -0.196307
338 -0.66963 -1.23421 -1.11869 0.205371 0.12605 0.524522 -0.637056 0.469375 0.0583594 -0.0886677 1.37388 0.473245
289 -0.133591 -0.730224 0.310279 0.292278 1.3746 1.15683 0.0545775 0.162668 0.453851 0.520187 0.370241 0.572073
499 -0.0170966 -0.699034 0.300518 -0.135774 0.328292 -0.323331 0.897115 0.233054 0.268829 0.329169 1.8321 -0.458579
621 -0.100465 -0.799119 0.16082 -0.607638 0.508994 -0.37366 1.06245 0.1644 0.396677 0.210265 1.76395 -0.112665
93 0.165657 -1.08584 0.484506 0.256153 1.47213 0.969792 -0.102179 0.422381 0.25291 0.780962 0.241726 0.520428
61 -0.340473 -0.985684 0.49592 0.951711 1.18511 0.793051 0.298043 0.480583 0.155423 0.589702 0.131312 0.185316
518 -0.306533 -1.06457 0.58209 -0.388347 0.0547324 -0.546063 0.828108 0.523426 0.368411 0.5139 1.72616 -0.0524203
652 0.283181 -1.04317 0.101839 -0.502009 0.382475 -0.372437 0.911524 0.358506 0.779895 0.430156 1.63785 -0.584376
634 0.227075 -0.660104 0.376345 -0.452388 0.376045 -0.340738 0.859204 0.45879 0.0607317 0.296897 1.86774 0.0870282
469 -0.425015 -1.05511 0.44832 -0.32831 0.339162 -0.525853 0.984872 0.214032 0.50171 0.353171 1.65297 -0.350318
624 -0.38608 -1.03935 0.360072 -0.393542 0.208979 -0.387772 0.827745 0.353192 0.804206 0.357413 1.56639 -0.857304
105 -0.173454 -1.04691 0.507997 0.595817 1.34201 0.86912 0.0753202 0.636749 0.0871137 0.295321 0.168113 0.344688
141 -0.00372487 -0.820372 0.552575 0.2362 1.41304 1.28295 -0.0932855 0.784394 0.476642 0.402264 0.204781 -0.146936
30 -0.459705 -0.926154 0.0475176 0.666355 1.30116 1.00924 0.576834 0.662661 0.205842 0.462664 -0.0734243 0.0892714
323 -0.628114 -0.714837 -1.39088 0.443136 0.298266 0.689433 -0.374675 0.888523 0.0118428 0.0177558 1.43022 0.471636
439 -0.701544 -0.964007 -1.26076 0.771726 0.154213 0.664248 -0.246825 0.347709 -0.16207 0.121134 1.42259 0.424915
665 0.0325191 -1.0875 0.254559 -1.00327 0.358044 -0.378399 0.990216 0.807181 0.483872 0.162665 1.57631 -0.0533581
541 -0.238957 -0.884443 0.324356 -0.0978897 0.192574 -0.499247 1.0517 0.401479 0.265567 0.596772 1.74418 -0.522844
431 -0.785672 -0.852951 -1.20462 0.514957 0.517244 0.428299 -0.425279 0.637625 -0.218326 -0.135248 1.52227 0.494929
185 -0.270562 -0.705846 0.412743 0.659617 1.66865 0.866037 0.161428 0.497302 0.173279 0.831805 0.197316 -0.0495634
399 -0.286429 -0.840943 -1.32351 0.737442 0.323776 0.497748 -0.358521 0.726217 -0.180037 0.113574 1.50175 0.372558
41 0.124027 -0.685812 0.240328 0.650999 1.28928 0.945928 -0.0182402 0.552347 -0.0363139 1.05626 0.328058 0.346498
3 -0.331552 -0.597479 0.688212 0.0731637 1.67286 1.04718 -0.347348 0.620882 0.852534 0.316486 0.380505 0.189766
629 -0.347088 -0.792006 0.505567 -0.427668 0.130723 -0.245801 0.609516 0.581681 0.573723 0.453128 1.74771 -1.06664
