2496 12
928 -0.464059 0.286791 1.54294 -1.29215 -0.154781 -0.709444 0.210963 -0.265585 0.0295634 0.1146 0.465556 0.370944
391 -0.787559 0.712576 0.757071 -1.14396 -0.183749 -0.318261 -0.0332964 0.181657 0.695774 0.152756 0.556539 0.389856
600 -0.687441 1.03014 0.811968 -1.22342 -0.735969 -0.828483 -0.10334 0.676715 -0.184839 -0.0533077 0.281536 0.233999
1273 -0.876551 0.693361 0.651053 -0.518021 -0.601912 -0.79789 -0.0741153 0.439299 -0.186117 0.752936 0.381241 0.418394
1218 -1.33813 0.460264 0.549144 -1.00258 -0.578857 -0.842693 -0.147742 0.47875 -0.548724 0.48391 0.397324 0.133369
1572 -1.17483 0.38995 0.748848 -0.595294 -0.71817 -0.972704 -0.18208 0.341178 -0.497524 0.452731 0.408414 0.130212
459 -1.29887 0.399758 0.586729 -0.668985 -0.942483 -0.651568 -0.206302 0.642185 -0.541904 0.927187 0.081086 0.358156
1387 -1.01307 0.422476 0.668415 -0.842808 -0.701197 -0.472803 0.0379817 0.404139 -0.139042 0.917828 0.499131 0.384375
2237 -0.636932 0.717406 0.372381 -1.0827 -0.897015 -0.582518 0.0708456 0.875894 0.0757038 0.994061 0.448805 0.176881
156 -0.802142 0.667077 0.287717 -0.966129 -0.466844 -0.938745 -0.00312412 0.302862 -0.273924 0.473633 0.591299 0.283941
1052 -0.94314 0.422372 0.586323 -0.928772 -0.352877 -0.646383 -0.287044 0.413953 -0.532679 0.661184 0.305916 0.423524
1659 -0.779489 0.417489 0.352686 -1.25285 -0.462797 -0.708222 -0.146087 0.0196256 -0.0117956 0.43581 0.646167 0.716015
1601 -0.951929 0.0684101 0.915537 -1.00076 -0.106016 -1.16124 0.348823 -0.530545 0.226008 0.395894 0.197635 0.326885
894 -0.858093 0.509602 0.517417 -0.630476 0.0057377 -1.25065 0.26747 -0.0703322 0.188466 0.653686 0.357151 0.303488
1434 -0.761277 0.606397 0.0413301 -1.35066 0.183576 -0.749994 -0.354444 0.0975125 0.491695 -0.0583871 0.842879 0.216791
1364 -0.941573 0.531236 0.717853 -0.896129 -0.226486 -0.848735 -0.0114808 0.214225 0.0343975 0.407226 0.425977 0.412139
1884 -0.873587 0.563989 0.507408 -0.904828 0.015183 -0.720971 0.0710957 0.0616885 0.315064 0.46042 0.583589 0.432745
1844 -1.23973 0.99167 0.81829 -0.907313 0.116679 0.461827 -0.25918 0.103905 0.671665 0.134743 0.848166 0.365058
2077 -1.09317 0.705902 1.01852 -1.07782 0.0150495 0.10907 -0.226245 0.127833 0.770223 0.00396977 0.803401 0.352164
945 -0.301293 0.958518 0.720206 -1.17861 0.376821 0.00952476 0.288515 0.326373 0.45405 0.689681 1.01326 0.423423
1081 -1.10818 0.514963 0.686998 -1.04144 -0.121878 0.0895028 -0.0812567 -0.136901 0.492194 0.349372 0.637947 0.686228
1091 -0.969069 0.953003 1.54588 -1.09113 0.0771445 0.235294 -0.107876 0.202681 0.351039 -0.0889518 0.852303 0.419465
2378 -0.598673 0.398952 1.3419 -0.852865 -0.134112 -0.686761 0.218134 -0.368135 0.431243 0.380067 0.283213 0.806205
820 -1.37609 1.4043 0.717215 -0.967914 -0.147525 0.692593 0.137485 -0.213257 0.759829 0.0364173 0.407601 0.535833
919 -1.63335 1.59016 0.868315 -0.808863 -0.145318 0.924795 -0.133167 -0.0601314 0.550997 -0.0794578 0.60476 0.217019
492 -1.59694 1.29536 0.443115 -0.824237 0.118075 0.116164 0.27841 -0.27229 0.829845 -0.226978 0.32374 0.272301
1826 -0.813599 1.43521 0.525162 -0.950645 0.0828053 -0.301016 0.444863 -0.076778 0.472053 -0.123579 0.189774 0.649893
1094 -0.950038 0.391685 0.904091 -0.900445 -0.199873 -0.64645 0.00751638 0.0249744 -0.00843593 0.455053 0.688646 0.504898
31 -0.848887 0.0900225 0.858489 -1.17292 -0.546925 -0.709366 -0.0495897 -0.0238471 0.205518 0.567679 0.286151 0.599782
871 -0.710681 -0.0209712 1.17114 -0.873869 -0.155685 -1.0547 0.290117 -0.0851285 0.123861 0.722786 0.549549 0.0992812
69 -0.579308 0.353844 0.776288 -1.15942 0.161722 -0.796151 -0.117553 -0.102629 0.593717 0.143861 0.258868 0.426375
2024 -0.4571 0.324939 0.83999 -1.63098 -0.345566 -1.04993 0.196979 -0.199806 0.428809 0.0624747 0.0871096 0.382361
348 -0.735478 0.678272 1.00241 -0.486827 0.106086 -1.16199 0.39694 -0.116178 0.167163 0.56156 0.438283 0.334543
761 -0.619838 0.305783 1.2857 -0.523216 -0.102332 -1.0956 0.251207 -0.0978385 0.195903 0.751953 0.491798 0.294662
925 -0.450225 0.465575 1.38052 -0.542514 -0.400597 -1.01197 0.45903 -0.411773 0.162209 0.650906 0.389383 0.705999
2251 -0.716057 0.90283 0.828616 -0.521993 -0.529222 -0.664118 0.301098 0.261986 -0.0988708 0.798957 0.150131 0.607281
1115 -0.628011 0.239019 1.17472 -0.888206 -0.904735 -0.463324 -0.0693217 -0.0420167 0.185544 0.766628 -0.0426282 1.22941
579 -0.850395 0.28754 0.58112 -1.346 -0.176649 -0.408371 -0.13404 0.0694786 0.67114 0.429421 0.207967 0.661269
1133 -0.334544 0.981519 0.828268 -1.4547 -0.782701 -0.442394 -0.076544 0.749253 0.279956 0.212652 0.169804 0.369988
1877 -0.573325 0.386981 0.742902 -1.45731 -0.0335331 -0.0148819 0.0673432 0.237103 0.886973 0.649006 0.696223 0.433446
552 -0.923298 0.637374 0.480201 -1.00863 -0.117139 -0.412221 -0.0691364 0.295025 0.300598 0.368944 0.548031 0.251018
1869 -0.759994 0.602608 0.595177 -1.03848 0.251943 -0.280894 0.0923518 -0.276738 0.166169 0.31539 1.20325 0.656698
726 -0.967953 0.635692 0.603949 -0.814765 -0.208745 -0.558887 -0.0896839 0.301107 -0.307157 0.60089 0.594981 0.4932
1956 -0.706184 1.09967 0.344384 -0.978937 -0.208585 -0.539161 0.223604 0.8597 0.120809 0.885422 0.845624 0.375719
1700 -0.645798 0.871866 0.58472 -0.974161 -0.133597 -0.494007 -0.0901444 0.505237 0.421065 0.313316 0.58055 0.236287
1827 -0.0264268 0.793526 1.23661 -1.17981 -0.587253 -0.690173 -0.107604 0.24979 0.608693 0.0642256 0.388224 0.723185
900 -0.697877 0.31549 0.618129 -1.0547 -0.171185 -0.95098 0.0750255 0.399246 -0.297508 0.86569 0.509665 0.201074
2129 -0.921776 0.669824 0.293433 -0.915195 -0.177626 -1.18802 0.124472 -0.399941 -0.663693 0.268464 0.573495 0.728753
2472 -0.802911 0.694556 0.66149 -0.639663 -0.11566 -0.874726 0.16671 0.229179 -0.0525591 0.622731 0.358424 0.247826
1313 -0.834998 0.533777 0.791679 -0.779266 0.205413 -1.08139 0.562831 -0.304029 -0.128241 0.631819 0.418893 0.205726
44 -1.21487 0.348126 0.573695 -0.572912 -0.0453926 -0.969913 0.642893 -0.49328 0.202488 0.731698 0.370986 0.364391
61 -0.906037 0.777489 0.657961 -0.529869 -0.0834279 -0.897623 0.263545 0.0098032 -0.244961 0.626996 0.246997 0.432835
442 -1.08062 0.726447 0.738154 -0.572835 -0.0118504 -1.08057 0.518421 -0.129863 -0.0132309 0.493779 0.333669 0.207343
218 -1.10713 0.440778 0.579647 -0.939123 -0.398039 -0.887618 0.168061 0.473519 -0.296636 0.529213 0.316158 -0.205968
1295 -0.853123 0.708069 0.536341 -0.921988 -0.172287 -0.653672 -0.109973 0.536586 -0.0199127 0.380829 0.790431 0.00310696
6 -0.893612 0.345942 0.359907 -1.08954 -0.04984 -0.431892 -0.170321 -0.148251 -0.201696 0.507386 1.24453 0.804976
1786 -1.05085 0.338013 0.919714 -0.723059 0.0573504 -1.45261 0.373599 -0.274167 0.262944 0.194726 0.378149 -0.102167
1021 -0.75225 0.62039 0.481664 -0.602186 0.270301 -1.36095 0.13237 -0.0433275 0.594021 0.386947 0.429519 0.243536
1436 -0.625315 0.742773 0.440413 -0.575645 0.208426 -1.10364 0.16571 -0.20697 0.316881 0.465263 0.606624 0.538999
1645 -0.821698 0.318826 0.42985 -1.18938 -0.239985 -0.945475 -0.00589857 0.0878177 0.224909 0.448174 0.400691 0.342511
1595 -0.799407 0.66721 0.265237 -0.757986 -0.0157766 -0.988833 -0.106105 0.072724 0.234589 0.406432 0.681805 0.570819
566 -0.641076 0.943741 0.630916 -0.787927 -0.457698 -0.832607 0.123798 0.385324 -0.271593 0.705141 0.215546 0.790728
1380 -1.05937 0.568187 0.587603 -0.164082 -0.741852 -0.811481 0.0634632 0.235813 -0.324017 1.09795 0.306557 0.639501
1716 -0.934517 0.527589 0.822452 -0.587856 -0.0114254 -0.809169 0.279147 0.14074 0.0174573 0.771283 0.237739 0.244844
1184 -1.8608 0.92657 0.674415 -0.799932 -0.030442 0.0548392 0.355209 0.54882 -0.295744 0.478446 0.228056 0.0149343
2040 -1.15085 0.951911 0.80076 -0.658588 -0.081526 0.339047 -0.138663 0.256161 0.120197 0.510646 0.9857 0.609192
1170 -0.901007 0.377591 0.558331 -1.06067 -0.344863 -0.245497 -0.0476947 -0.177583 -0.120504 0.703936 0.720888 1.16043
196 -1.18382 0.110154 0.244595 -0.979521 -0.150524 -0.519436 -0.097897 0.0642864 -0.211489 0.928413 1.19951 0.599952
2158 -0.987351 0.740978 0.529527 -0.619613 -0.380572 -0.730484 0.0195021 0.520346 -0.163151 0.706951 0.543235 0.153845
1244 -0.655595 0.768716 0.723925 -0.521092 -0.536493 -1.01577 -0.112624 0.406048 -0.434822 0.51643 0.747546 0.394185
703 -0.810806 0.665835 0.804931 -0.465125 -0.0375822 -0.974341 0.329441 -0.0899901 -0.226653 0.77694 0.33929 0.500904
1639 -0.759923 0.745394 0.363105 -0.228292 0.210634 -1.15364 0.430528 -0.280276 -0.109419 0.958394 0.427367 0.692263
432 -0.770778 0.768105 0.554645 -0.549043 0.185059 -0.944462 0.207045 -0.0227846 0.421999 0.490722 0.347735 0.456186
2328 -1.00469 0.479467 0.637722 -0.863023 -0.0804471 -0.909277 0.209464 -0.0891889 -0.540226 0.609278 0.504537 0.418218
1427 -0.963035 0.514146 0.435132 -0.799156 -0.0740902 -0.842204 0.137308 0.101745 -0.144354 0.641154 0.49833 0.407223
378 -1.16704 0.273497 0.529922 -0.80024 -0.511718 -0.218234 -0.0212661 0.205182 -0.231855 1.15852 0.700639 0.820988
1906 -0.973983 0.697084 0.707491 -0.624276 -0.2494 -0.452685 0.0594975 0.245126 0.0988059 0.647944 0.605474 0.512397
473 -0.264398 1.01839 -0.0930108 -1.25925 0.432957 -0.849377 -0.492321 0.471309 0.868861 0.251717 0.149983 0.816484
2068 -0.772969 0.613571 0.0552934 -0.989148 0.613069 -0.832243 -0.402723 -0.0072339 0.863044 0.348976 -0.186912 0.688766
16 -0.588876 1.08649 0.443964 -0.974082 1.30844 -0.698847 -1.47352 -0.158036 0.280187 0.817696 -0.875821 0.0564624
2255 -0.398476 1.0957 0.517266 -1.33333 1.43255 -0.627689 -1.79026 -0.367056 -0.0306532 0.680058 -0.663856 0.152829
170 -0.577567 1.22649 0.563671 -0.808742 1.17479 -0.577081 -1.57785 -0.176304 -0.306915 1.01935 -0.916724 0.133218
1835 -0.485488 0.318589 0.911713 -0.897891 1.50508 -0.836182 -1.17149 -0.151422 -0.616825 1.09921 -0.235383 0.0451687
1461 -0.564247 0.911112 0.261697 -1.24071 1.1229 -0.503503 -1.77078 -0.175944 0.016388 1.06393 -0.821909 0.345718
1462 -0.550299 0.832783 0.637597 -0.966511 1.06694 -0.589262 -2.24217 0.0028327 0.141636 1.0836 -0.706333 0.106215
998 -0.437127 0.968802 1.09348 -0.614434 0.936821 -0.500824 -2.34675 -0.0973035 -0.335566 1.01046 -0.724943 0.204293
2262 -0.610925 1.16721 0.678243 -0.778189 1.07006 -0.464111 -1.8367 0.0820152 0.181841 0.961158 -0.876878 0.0124387
1472 -0.574565 1.25629 0.708151 -1.0793 1.30318 -0.449391 -1.76354 -0.176527 -0.00369524 0.874238 -0.921138 -0.10362
723 -0.569967 1.08049 0.879149 -0.720867 0.727869 -0.59123 -1.89771 -0.177309 -0.548022 0.884092 -1.06446 0.271214
2147 -0.563688 1.32228 0.442364 -0.675729 0.97327 -0.46908 -2.07827 0.138604 -0.380899 1.12393 -0.721656 0.154095
179 -0.810291 1.3678 0.359807 -1.06213 1.34486 -0.447291 -1.66764 -0.206408 0.0253368 0.77621 -0.976689 -0.209188
2232 -0.516052 1.21393 0.484089 -0.59374 1.19339 -0.871162 -1.73082 -0.209494 -0.0211479 0.684272 -0.680103 0.381486
1225 -0.662176 1.11308 0.514345 -0.751189 1.18123 -0.490692 -1.33851 0.0269982 0.139564 0.779728 -0.726307 0.210094
1797 -0.478704 1.1674 0.775657 -0.75674 0.868847 -0.490991 -1.76529 -0.190316 -0.497499 0.948251 -0.95248 0.230124
398 -0.375812 1.18213 0.853997 -0.706077 0.985259 -0.669602 -2.15027 -0.183897 -0.273508 0.999645 -0.809264 0.466433
451 -0.549968 0.93614 0.670357 -0.772864 0.787046 -0.530187 -1.84161 -0.0730063 -0.248668 0.974641 -0.85445 0.322723
1734 -0.758063 1.25267 0.810498 -0.760647 1.28942 -0.237922 -1.75491 -0.313928 -0.0440696 1.00906 -1.00582 0.106484
2421 -0.619013 0.728357 1.13375 -0.56668 1.18203 -0.778608 -1.97082 -0.523619 -0.171817 0.892928 -0.887868 0.149402
108 -0.661748 1.27677 0.481878 -0.963704 1.35327 -0.562492 -1.56146 -0.134578 -0.0347743 1.00211 -0.949513 -0.158211
1719 -0.906271 1.4687 -0.302535 -1.2505 1.04077 -0.805265 -1.45584 -0.267772 0.0949388 0.855864 -1.55041 -0.175003
1105 -0.688686 1.29156 0.304003 -1.10581 1.13971 -0.440907 -1.64288 -0.152773 0.00547372 0.946504 -1.05743 -0.0130014
2080 -0.313092 1.55541 0.498754 -0.906933 1.38716 -0.426095 -1.57381 0.0811505 -0.16508 0.879758 -0.603276 -0.114948
824 -0.953391 1.22353 0.504955 -1.05047 1.43893 -0.40663 -1.45999 -0.218261 0.0868411 0.835527 -1.16524 -0.435321
1668 -0.821668 1.35757 0.776822 -0.693028 1.6064 -0.105074 -1.35015 -0.320466 -0.00443787 1.16722 -1.01639 -0.130102
1555 -0.683378 1.29453 0.522303 -0.786791 1.71813 -0.539675 -1.53673 -0.123998 -0.0423775 1.17126 -0.63624 -0.33498
493 -0.696103 1.26189 0.422205 -0.852926 1.33069 -0.42638 -1.4859 -0.175612 0.165638 0.920922 -0.855214 0.00120131
2105 -0.634919 0.847184 0.417819 -0.973555 1.4383 -0.774453 -1.149 -0.400527 0.132973 0.707128 -0.713536 0.257744
1896 -0.592432 1.17932 0.34902 -0.990713 1.37275 -0.705366 -1.38997 -0.214354 0.160802 0.895071 -0.914343 -0.0693036
262 -0.769152 1.08792 0.176663 -0.838957 1.37494 -0.510912 -1.78463 0.0800314 0.226151 1.29036 -0.740137 -0.306103
1050 -0.077648 1.35834 0.855879 0.330839 -0.846087 -0.206349 -1.10077 -1.48233 0.529457 1.13109 0.0579021 -0.900967
57 0.179629 1.60213 0.891181 0.0954897 -0.760563 -0.519375 -1.22543 -1.04097 0.743 0.89219 0.336585 -1.52771
997 0.0589918 1.42313 0.746756 -0.108413 -0.924579 -0.528424 -1.4122 -1.11045 0.632192 0.801146 0.211504 -1.41163
2168 -0.0440554 1.56549 0.773395 -0.0555207 -0.92252 -0.402945 -1.41424 -1.04521 0.928102 0.737695 0.446583 -1.58556
2346 -0.263384 1.67452 0.430831 -0.122821 -0.911613 -0.602435 -1.25534 -1.01535 0.771222 0.557364 -0.0134718 -1.74626
1910 0.0375485 1.72465 0.861338 -0.164443 -0.789221 -0.597051 -1.18703 -0.959761 1.05229 0.540615 0.210932 -1.78739
1761 0.0871728 1.41293 0.785678 -0.123332 -0.92589 -0.357765 -1.12485 -0.912769 1.39726 0.73928 0.366204 -1.37587
1634 0.171993 1.60944 0.711239 -0.414909 -1.06986 -0.882189 -1.51931 -0.818541 1.0388 0.545568 0.249807 -1.73259
829 0.12736 1.62771 0.722381 -0.383825 -0.797736 -0.58835 -1.40368 -0.980993 0.891916 0.489261 0.353 -1.62935
589 -0.0250391 1.51798 0.792457 -0.332348 -0.861797 -0.69046 -1.47041 -1.03347 0.913463 0.311684 0.421478 -1.66325
404 0.218679 1.59966 0.910941 -0.428309 -0.900451 -0.664804 -1.38269 -0.944849 0.975163 0.443448 0.17531 -1.67619
444 0.0133 1.62222 0.811842 -0.184043 -0.766428 -0.576516 -1.4144 -1.04711 0.987473 0.433626 0.255464 -1.5627
2075 0.261163 1.78598 0.806753 -0.651132 -0.985657 -0.679962 -1.3975 -0.889935 1.28735 0.250965 0.169494 -1.68391
2095 0.135673 1.71305 0.798038 -0.469101 -0.885008 -0.787349 -1.39823 -0.972449 1.14902 0.244489 0.07139 -1.68699
1172 0.0856542 1.63894 1.07816 -0.112078 -0.840758 -0.592315 -1.24523 -1.05627 1.04737 0.557217 0.128087 -1.63813
241 -0.244833 1.34849 0.27335 0.23258 -1.08958 -0.23857 -1.54976 -0.943501 1.10075 1.32955 0.0727649 -1.11995
1681 -0.294272 1.02603 -0.181637 -0.302111 -0.851058 0.0950953 -1.04554 -1.49664 0.716861 1.81001 0.15833 -0.573988
346 -0.426705 1.24323 0.0397054 -0.253179 -0.735942 0.440538 -0.750301 -1.36679 0.463328 1.95075 -0.168838 -0.886107
1112 -0.213965 0.947664 0.268497 -0.155025 -0.735448 0.00891186 -1.32151 -1.72427 0.545507 1.42548 0.284493 -0.442334
43 -0.0395358 1.50132 0.326488 -0.1327 -1.232 0.120304 -1.06561 -1.39636 -0.431817 1.60567 0.0909334 -0.668925
769 -0.334132 1.07131 0.0985655 -0.34671 -0.898003 0.0140077 -1.17164 -1.66184 0.135483 1.36776 0.179154 -0.719104
1683 -0.278961 0.751576 -0.012544 -0.125129 -0.538647 0.00455422 -1.35257 -1.74321 0.827756 1.89418 0.500672 -0.422215
556 -0.241469 0.792337 -0.102509 -0.458061 -0.685656 0.0655241 -1.03192 -1.69675 1.04502 1.81227 0.0926032 -0.46989
406 -0.293377 1.04005 0.337245 -0.514473 -0.768994 0.0710721 -0.868196 -1.96376 0.107948 1.20774 0.168733 -0.774718
870 -0.132043 1.08717 0.538524 -0.104045 -0.791198 -0.231277 -0.498906 -2.02153 0.0653121 1.64702 -0.172654 -0.758009
1893 -0.378235 0.993835 0.0922581 -0.59 -1.05232 -0.142921 -0.998474 -1.92128 0.0690755 1.20886 -0.126297 -0.664446
77 -0.300373 1.01188 0.198162 -0.473019 -1.12446 -0.24447 -1.08013 -1.7035 -0.15553 1.39314 -0.156385 -0.917142
1647 -0.255721 0.973457 0.0522505 -0.490986 -0.820541 0.0512978 -1.02278 -1.66656 0.321276 1.5311 0.17522 -0.777065
2416 -0.362819 1.07662 0.106979 -0.771114 -0.843733 0.458736 -0.986399 -1.5731 0.224641 1.61984 -0.0519642 -1.00056
969 -0.634811 1.01389 0.0444524 -0.645249 -1.07242 0.468731 -1.01402 -1.6551 0.202288 1.48843 -0.0717317 -0.781598
1147 -0.357379 1.1478 0.273506 -0.524473 -0.885126 0.324696 -0.743359 -1.79814 0.210399 1.51122 0.0189342 -0.817447
487 -0.416062 1.16956 -0.129982 -0.281096 -0.520051 0.362154 -0.791117 -1.4573 0.651247 1.97914 0.024926 -0.950856
1815 -0.356312 0.661196 0.318982 -0.0797454 -0.844415 -0.23453 -1.55388 -1.45944 0.333272 1.53838 0.441989 -0.912832
1798 -0.111933 1.38491 0.148695 0.230703 -0.833805 -0.0917392 -1.05966 -1.52973 -0.0571339 1.61756 0.565438 -0.643113
388 -0.336299 1.26348 0.0800459 -0.118924 -0.837278 -0.0366737 -1.20921 -1.42857 0.304654 1.26631 0.311535 -0.927861
1868 -0.375854 1.49052 -0.161978 -0.129101 -0.996934 -0.174096 -1.35038 -1.39058 -0.31922 1.14105 0.328293 -0.947587
1485 -0.0770599 1.49303 0.486799 -0.28351 -0.789248 -0.42054 -1.216 -1.50571 0.235156 0.606452 0.226151 -1.22144
1577 -0.275304 1.44948 -0.310814 -0.885887 -0.924431 -0.124472 -0.900166 -1.60405 -0.311963 1.01336 -0.133172 -1.1424
849 -0.370559 1.01159 0.216882 -0.388805 -0.800573 -0.0741331 -1.06164 -1.72994 0.177659 1.25744 0.0325144 -0.906362
1709 0.137614 1.56769 0.453778 -0.334103 -0.896246 -0.432093 -1.24529 -1.61064 -0.130881 0.772274 0.256222 -1.0113
1986 0.0602826 1.44324 0.757342 -0.585522 -0.785319 -0.532312 -1.38419 -1.45717 0.516581 0.310719 0.313736 -1.44626
304 0.261823 1.6828 0.392562 -0.015808 -0.715656 -0.972929 -1.29734 -1.55089 -0.146028 0.827006 0.462061 -1.22474
685 0.12502 1.49532 0.364634 -0.531772 -0.497241 -0.175203 -0.997561 -1.73863 -0.380294 0.987098 0.52985 -1.12256
2315 0.0744923 1.85826 -0.166185 -0.263474 -0.345619 -0.113746 -0.56916 -1.57608 -0.0443126 1.30279 0.691653 -1.19257
574 -0.0398687 1.72229 0.0671129 -0.249822 -0.59172 0.0421363 -0.603013 -1.87601 0.148272 1.31007 0.0502882 -0.741425
2003 -0.405451 1.20602 0.304233 -0.648899 -0.919199 0.50533 -0.595105 -1.44683 0.153812 1.59645 -0.21839 -1.24913
1924 -0.243217 1.07214 0.191665 -0.459692 -0.831638 -0.333845 -1.1539 -1.93339 -0.250785 1.03478 0.160525 -0.758219
2371 -0.436516 1.14296 0.0569679 -0.785549 -0.559824 -0.145846 -0.885902 -2.02972 -0.230847 0.857298 0.112542 -1.15249
1922 -0.26664 1.42665 0.0618768 -0.634096 -0.587979 -0.164067 -0.655786 -1.91516 -0.144423 1.00023 -0.175192 -1.18392
1457 -0.263528 1.23348 0.0868699 -0.520604 -0.78522 -0.111368 -0.878009 -1.75375 0.0100508 1.15716 -0.055787 -0.875778
272 -0.263904 1.04786 0.422214 -0.410481 -0.64072 -0.0253281 -0.844557 -1.82701 0.018619 1.37092 0.0494716 -1.04578
359 -0.324708 1.43393 0.352613 -0.571472 -0.77324 0.173709 -1.15438 -1.57452 -0.333271 0.875987 0.198465 -1.20304
2307 0.000375247 1.07563 0.52435 -0.0103358 -1.04373 -0.255985 -1.03182 -1.43687 0.114607 1.55167 0.937146 -1.12394
1570 0.0814971 1.30186 0.662399 -0.141746 -1.02913 -0.402101 -0.862927 -1.42253 -0.419787 1.5134 0.516387 -1.38951
572 0.139154 1.61556 0.652339 -0.466514 -0.629998 -0.318433 -1.13357 -1.38428 0.281368 0.568658 0.40331 -1.4472
2139 0.0958082 1.54161 0.604458 -0.505835 -0.609362 -0.377789 -1.19148 -1.25448 0.356543 0.596311 0.434202 -1.61448
2002 -0.38959 0.904268 0.312468 -1.09853 1.29194 -0.65916 -0.83661 0.0161665 1.00972 0.945504 -0.920562 0.501571
1744 -0.846805 0.965786 0.608731 -1.11514 1.35549 -0.0805294 -1.64896 -0.110003 0.571076 0.955299 -0.851792 0.0282202
2017 -0.0730479 1.34513 0.49665 -1.42478 1.3785 -0.54367 -1.61325 -0.251222 0.292318 0.761858 -0.805446 0.108943
757 -0.535821 1.21104 0.555493 -0.980528 1.25149 -0.550284 -1.77033 -0.233505 -0.0259468 0.93475 -0.865091 0.00364001
647 -0.51458 1.3385 0.378233 -0.930345 1.24778 -0.464021 -1.7563 -0.140912 -0.096059 1.06736 -0.795681 -0.0123706
2487 -0.606433 1.51051 0.522826 -0.714366 1.57668 -0.355989 -1.73852 0.0924467 0.0517367 1.01227 -0.528473 -0.422154
236 -0.591218 1.13767 0.541046 -0.915287 1.27255 -0.605931 -1.66175 -0.202827 0.0216028 1.05868 -0.945212 -0.0550679
2389 -0.663412 1.25452 0.662443 -0.790231 1.25238 -0.480873 -1.61556 -0.127479 -0.175126 0.999076 -0.893371 -0.0213598
786 -0.640089 0.849906 0.792858 -1.1855 1.11376 -0.478453 -1.12204 1.1429 -0.373544 0.418689 0.189767 0.0519534
85 -0.716124 1.04372 0.425279 -1.00926 1.3796 -0.561979 -1.63682 -0.229794 0.0790918 1.07523 -0.913457 -0.175998
558 -0.608821 1.21268 0.470826 -0.868167 1.27184 -0.555137 -1.63616 -0.232887 0.110093 1.02487 -0.937106 0.0970538
2333 -0.635979 1.15078 0.12384 -1.36361 1.38208 -0.4646 -1.65197 0.0218244 0.14954 1.10538 -0.80596 -0.159022
2469 -0.808128 1.16731 0.43791 -0.880151 0.974904 -0.243623 -1.85459 -0.277657 -0.098393 1.19291 -1.20082 0.43385
885 -0.469079 1.26161 0.832598 -0.680131 1.0774 -0.449653 -1.96516 -0.00168486 -0.180994 1.00473 -0.799431 0.0622113
738 -0.63545 1.50752 0.599627 -0.820489 1.16724 -0.383549 -1.78215 0.0741313 -0.666814 1.02666 -0.841916 -0.0960777
627 -0.418008 1.3242 0.756501 -0.940482 1.33444 -0.451866 -1.54146 -0.183095 -0.138283 1.02939 -0.864048 -0.0518161
758 -0.291045 1.09188 0.889808 -0.828493 1.15404 -0.59578 -2.09633 -0.0216466 -0.237019 1.05693 -0.598587 0.0725577
1975 -0.533205 1.14617 0.303682 -1.12638 1.31422 -0.403283 -1.86101 0.00749296 -0.11403 0.935089 -0.467441 -0.067473
239 -0.559133 0.930124 0.0994935 -1.36952 1.19321 -0.655798 -1.54893 -0.433305 0.221355 0.809077 -0.899648 0.34231
481 -0.726235 0.734179 0.517104 -1.28867 1.64519 -0.446186 -1.61148 -0.0950923 0.371917 1.24511 -0.769666 -0.500586
2493 -0.743069 1.24712 0.549158 -0.892485 1.29293 -0.414252 -1.65379 -0.0749715 0.0213068 1.06506 -0.958362 -0.20166
1126 -0.645063 1.39227 0.317026 -0.840106 1.67202 -0.260928 -1.59531 -0.290897 0.111531 1.14165 -0.593487 0.000878453
2474 -0.697731 1.34021 0.509366 -0.83124 1.31524 -0.615209 -1.804 -0.302881 -0.12898 0.792468 -0.869896 -0.00388431
167 -0.559459 1.33757 0.689717 -0.858084 1.37418 -0.542727 -1.77297 -0.181485 0.121387 0.850794 -0.908007 -0.151068
1553 -0.699883 1.13928 0.373478 -0.915931 1.0861 -0.646059 -1.7667 -0.014927 0.144051 0.919857 -0.949889 -0.085386
1499 -0.295729 1.02555 0.480417 -1.02639 1.18393 -0.699825 -1.92245 0.0718791 0.200492 1.22425 -0.743047 -0.127151
1428 -0.321334 0.970945 0.457321 -1.2864 1.6438 -0.143133 -1.49036 -0.117618 -0.164862 1.55867 -0.427587 -0.0538125
2042 -0.595185 1.4377 -0.080682 -0.890583 1.22597 -0.522732 -1.62364 0.0842533 0.306235 1.33643 -0.943282 -0.111395
664 -0.586951 0.98742 0.396433 -1.27241 1.24949 -0.452361 -1.75518 -0.0888503 0.177713 1.07934 -0.892421 -0.277871
644 -0.542042 0.827283 0.170602 -0.831153 1.09945 -0.369715 -1.42229 -0.30919 0.532002 1.17955 -0.785146 0.213493
2311 -0.296574 1.34599 0.918708 -0.569908 1.43556 -0.418351 -1.52234 -0.19601 -0.503694 1.26014 -0.559197 0.448804
1657 -0.570117 1.17189 0.461976 -0.842158 1.28207 -0.581608 -1.52775 -0.189688 0.130718 0.98221 -0.860432 0.140801
1361 -0.358615 0.820081 0.179558 -1.28995 1.40149 -0.811971 -1.52942 -0.0614638 0.347714 1.03915 -0.593631 -0.051947
959 -0.43338 0.957175 0.226629 -0.961235 0.85735 -0.35857 -1.35764 -0.0476089 0.518715 0.743499 -0.770974 0.51699
888 -0.76479 1.07811 1.01764 -0.452862 0.895553 -0.515011 -2.22486 -0.0435136 -0.17061 0.84203 -0.917167 0.155476
340 -0.498014 1.04419 1.04763 -0.576079 1.02606 -0.63661 -1.59913 -0.171966 -0.830051 1.02557 -0.773921 0.444238
2473 -0.55511 1.21082 0.577484 -0.826022 1.19621 -0.542332 -1.59102 -0.138176 -0.0970351 1.06475 -0.919477 0.0677812
825 -0.664849 1.46058 0.477229 -0.808564 0.805416 -0.551467 -1.98865 -0.0744691 -0.671402 0.923184 -1.11792 0.271622
1702 -0.458258 1.06942 0.517526 -1.35053 1.20132 -0.54407 -1.92548 -0.107202 -0.0291039 0.914909 -0.858445 -0.0185603
1808 -0.523931 1.53483 0.460392 -0.844507 1.05812 -0.347459 -1.79974 -0.0823673 -0.281388 1.00416 -0.914131 0.17704
2275 -0.631811 1.51776 0.449734 -0.592351 1.34669 -0.430729 -1.6535 -0.126206 0.0982893 1.16565 -0.922297 0.142697
403 -0.938373 1.6677 -0.000132258 -1.00437 1.68491 -0.475398 -1.54533 -0.307805 -0.301754 0.82301 -0.754275 -0.115536
2286 -0.443212 1.16219 0.628756 -0.881299 1.46953 -0.447331 -1.5022 -0.241329 -0.0264673 1.26053 -0.741665 0.0433553
876 -0.437069 1.1961 0.360454 -1.00944 1.54949 -0.623415 -1.57588 -0.211901 0.25345 1.02469 -0.660808 -0.129675
610 -0.924269 0.757005 1.03762 -0.116109 0.285656 -1.19794 0.439266 -0.290101 0.167184 0.585906 0.22526 0.630414
2188 -0.751101 0.712772 0.882938 -0.364915 -0.131454 -1.06495 0.0625924 0.0949478 0.164985 0.503098 0.425013 0.471928
948 -0.905463 0.590572 0.638192 -0.458915 0.0650731 -0.972794 0.310568 -0.154936 -0.119487 0.764196 0.471687 0.466757
1961 -0.699138 0.492248 0.876654 -1.24658 -0.0802991 -0.894007 0.118476 -0.131314 0.269395 0.0940575 0.300389 0.574131
1023 -0.950853 0.472016 0.645513 -0.757626 0.262339 -1.0061 0.184078 -0.250378 0.546968 0.32682 0.241444 0.374602
205 -0.67857 0.353183 1.00457 -0.428356 0.000267165 -1.1815 0.391974 -0.0558596 0.41697 0.752005 0.73332 0.0748685
1753 -0.698377 0.883879 0.630331 -0.697282 -0.0675696 -1.10381 0.413243 0.251348 0.240925 0.666659 0.380049 0.283804
763 -0.260394 0.57205 1.09346 -1.32214 -0.00532937 -0.729308 0.13539 0.732557 0.420163 0.537909 0.0834726 -0.0751018
1061 -0.676255 0.813871 1.01828 0.122239 -0.143394 -1.41411 0.0367195 0.14189 0.276132 0.485573 0.800786 0.402017
2039 -0.770331 0.615213 1.00192 -1.04092 -0.20656 -1.04237 0.383246 0.222876 -0.184877 0.329393 0.277764 0.0457086
1929 -0.946124 0.820575 0.274123 -0.814564 -0.27499 -0.545385 0.306284 0.364513 0.0365227 0.741868 0.620398 0.150918
180 -0.644481 1.19807 -0.109673 -0.84187 -0.334712 -0.627146 0.488141 0.60316 -0.0647015 1.17388 0.307572 0.524503
656 -0.778497 0.797644 0.426756 -0.471429 0.0994257 -1.06387 0.428415 0.177802 0.293215 0.951832 0.12008 0.452738
2119 -1.34154 0.674449 0.314541 -0.813979 -0.444041 -0.831283 0.482742 0.266501 -0.359186 0.778859 0.173037 0.187488
1954 -1.12496 0.644574 0.474488 -0.473398 0.0140218 -1.13058 0.405925 -0.127186 0.165952 0.567524 0.375735 0.154907
2132 -1.21162 0.714581 0.105301 -1.00423 -0.189169 0.0737455 0.124506 0.0695102 -0.0881847 0.843584 0.977844 0.801771
1772 -0.809784 0.695171 0.134614 -1.2146 0.0374122 -0.110838 -0.117532 0.0515066 0.181479 0.560783 1.33941 0.765177
1143 -0.901053 0.646909 0.687214 -1.02887 -0.292709 0.177691 -0.00276316 0.151912 0.409913 0.648498 0.829014 0.668562
2381 -1.09571 0.750527 0.603571 -1.15884 -0.253964 0.252621 -0.0540555 0.0622783 0.373701 0.373664 0.79175 0.731737
184 -1.08163 0.899479 1.11963 -1.07265 0.359675 0.331074 -0.153714 0.307381 0.411947 0.316368 1.17598 0.430541
819 -1.07607 1.00892 1.37517 -0.891053 0.238344 0.40575 -0.342105 0.672848 1.05195 0.479971 0.929929 0.653114
1684 -1.13011 0.850065 1.09124 -1.08583 0.216486 0.329365 -0.278781 0.209278 0.438428 0.0200639 1.26384 0.163943
1921 -0.871497 0.755359 1.29024 -0.841822 0.293595 0.499817 -0.137145 0.511525 0.623679 0.816366 1.19075 0.401304
314 -0.754775 0.714766 0.917621 -0.925899 -0.0249001 0.123355 -0.0645407 0.234705 0.438324 0.607694 0.990621 0.722474
1129 -1.16025 0.557212 0.907701 -1.03867 -0.222916 0.245122 0.0544379 0.300564 0.370831 0.560632 0.746501 0.16711
707 -1.70127 1.35757 0.036725 -0.807422 0.0409337 0.407939 0.156583 0.0272285 0.293788 0.180433 0.760348 0.381987
482 -1.08804 0.580201 0.256797 -1.26356 0.0312918 -0.0831541 0.0058614 -0.0141538 0.491504 0.480001 0.81891 0.679895
41 -0.0631348 0.938619 0.726926 -1.00371 -0.385651 -0.839931 0.255546 0.449478 0.298348 0.697391 0.624388 0.528011
666 -0.934355 0.875536 0.682408 -0.461215 -0.219576 -1.18835 0.0482902 0.335465 -0.282099 0.413508 0.674669 0.292028
1435 -1.17624 0.383316 0.728984 -0.841408 0.159316 -1.01595 0.389446 0.278786 -0.232564 0.618707 0.612748 -0.421389
591 -1.25277 0.431304 0.736399 -0.426367 0.0426167 -1.26445 0.306565 -0.00741408 0.105571 0.53808 0.431291 -0.184899
1135 -1.27676 0.526607 0.655737 -0.502376 -0.369333 -0.867802 0.184478 0.159114 -0.772934 0.748511 0.391912 0.14218
1373 -1.03882 0.521389 0.719056 -0.649393 -0.61858 -0.800121 -0.00566228 0.165567 -0.474617 0.752042 0.0646881 0.611207
438 -0.919864 0.70596 0.700404 -0.622906 -0.295579 -0.771266 0.233631 0.243221 0.139773 0.655112 0.370337 0.321674
1359 -1.09531 0.726201 0.589339 -0.325016 -0.475536 -0.981581 0.210593 0.510293 -0.228009 0.917612 0.257297 0.151688
1189 -1.60606 0.320923 1.10215 -0.215168 -0.281859 -1.12577 -0.225824 0.737539 -0.149542 0.564077 0.513367 -0.257597
1652 -0.850553 0.511464 0.976996 -0.613594 -0.0326425 -1.20556 0.228366 -0.061898 0.082967 0.382017 0.46545 0.116694
1424 -1.05705 -0.0139645 1.55311 -0.477185 -0.137663 -1.26426 0.136664 -0.334769 0.53875 0.353609 0.133602 0.278729
1136 -0.875527 0.562162 0.954017 -0.659229 -0.256429 -0.803522 0.271505 0.210654 0.105452 0.701939 0.293288 0.24908
1455 -1.03278 0.35234 0.918631 -0.396936 0.190151 -1.17902 0.500376 -0.307177 0.037438 0.772609 0.388877 0.144544
543 -0.725787 0.536232 0.625761 -0.327192 -0.0729587 -1.09053 -0.0962116 0.176625 0.0145013 0.712877 0.954334 0.515302
2098 -1.06176 0.390241 0.256632 -0.960021 0.180053 -1.05344 0.481066 -0.473413 0.0264113 0.518736 0.563894 0.362237
2195 -1.19944 0.63022 0.963776 -0.906482 -0.374437 -1.16789 0.194784 0.0678828 -0.0998296 0.0423268 -0.249212 0.282954
640 -0.997692 0.804381 0.491 -0.436518 -0.458019 -1.06401 -0.035513 0.564573 -0.305455 0.725304 0.327383 0.419476
379 -0.777004 0.748544 0.398929 -0.698163 -0.310559 -1.03209 0.146114 0.619664 0.146295 0.743774 0.450048 -0.0262211
515 -1.07941 0.560099 0.568283 -0.717705 -0.625506 -0.817077 -0.106268 0.663382 -0.142088 0.677475 0.327702 0.0866687
2047 -1.05869 0.588319 0.416379 -0.799668 -0.168394 -0.706117 0.067239 0.529787 -0.0722549 0.676187 0.506437 -0.0466445
2222 -0.602459 1.12103 0.25184 -0.931656 1.19615 -0.57953 -1.66423 -0.0430035 0.528904 1.16551 -1.0218 -0.158129
317 -0.824268 1.08998 0.200183 -1.07014 1.15204 -0.65947 -1.37302 -0.171082 0.252136 1.05199 -1.23312 0.192881
2156 -0.530445 1.10083 0.346226 -1.05217 1.42002 -0.6881 -1.75577 -0.0720716 -0.172162 1.21574 -0.69758 -0.420956
2026 -0.530091 1.53813 -0.267132 -0.856607 1.39532 -0.480705 -1.46471 -0.155514 -0.16196 1.38812 -0.760595 0.138699
1016 -0.66517 1.5376 0.690941 -0.588253 1.36299 -0.166338 -1.80331 -0.0982858 0.0472826 0.89696 -0.763921 0.0409167
1453 -0.980724 1.41652 0.182439 -0.990192 1.25301 -0.244301 -1.37239 -0.156368 -0.0541929 1.13924 -1.32985 -0.191196
206 -1.04064 0.889851 0.524801 -0.71948 1.10849 -0.57842 -2.25935 -0.343914 -0.29242 0.826736 -0.784199 0.127962
1043 -0.772197 1.37553 0.661985 -0.431733 1.11406 -0.495068 -1.98355 -0.274267 -0.393039 0.910512 -0.877394 0.32903
2049 -0.515988 1.23193 0.530591 -0.987181 1.23295 -0.498319 -1.66876 -0.207698 -0.0228781 1.01129 -0.90457 0.0405609
2057 -0.363417 1.33535 0.431658 -0.912604 1.31089 -0.313078 -1.59143 0.0734798 -0.129355 1.4166 -0.765236 -0.0675011
1109 -0.0991304 1.01813 0.793686 -1.10355 0.963702 -0.27142 -1.78999 0.144502 -0.0607933 1.55641 -0.931162 0.0825921
1788 -0.651659 1.17912 0.370261 -0.791784 1.06205 -0.648568 -1.76953 -0.27113 0.16959 0.73587 -0.912031 0.500858
598 -0.992228 1.20636 0.664746 -0.580112 1.06633 -0.465909 -2.07804 -0.299317 -0.657353 0.824779 -0.8503 0.140538
1385 -0.543522 1.37961 0.743098 -0.754608 1.32439 -0.3334 -1.56505 -0.214874 -0.280415 1.13029 -0.922151 0.072759
294 -0.517302 1.16123 0.745187 -0.834713 1.18927 -0.483916 -1.61053 -0.0739202 -0.341322 1.08351 -0.823781 0.0749246
1851 -0.338433 1.42104 0.405722 -1.18761 1.40932 -0.664282 -1.39493 -0.235346 -0.327077 1.00928 -0.926855 -0.199188
612 -0.51892 1.27175 0.663185 -0.777705 0.955416 -0.393045 -1.63024 -0.0188319 -0.527663 0.942096 -0.820117 0.162426
17 -0.81389 1.33767 0.793053 -0.235086 1.051 -0.369193 -2.04191 -0.0381061 -0.464071 0.894657 -0.688602 0.156367
20 -0.471883 1.50066 0.0661123 -0.743708 0.970056 -0.619153 -2.00176 0.0372426 -0.0484874 0.963166 -0.752243 0.414637
2310 -0.485574 1.39895 0.407054 -1.02747 1.45837 -0.647914 -1.7232 -0.358833 0.0934053 0.682657 -0.68754 0.0983695
1694 -0.539049 1.35714 0.450954 -0.943834 1.33123 -0.533793 -1.56215 -0.133745 0.178696 1.04492 -0.980945 -0.153841
1302 -0.264073 1.26799 0.76291 -1.25488 1.38516 -0.27864 -1.75431 0.125663 -0.431901 1.24121 -0.594161 -0.183057
2475 -0.695688 1.17504 0.511432 -0.946657 1.11591 -0.39757 -1.61609 -0.103421 0.246586 1.15194 -1.19233 0.0226822
1991 -0.552494 1.05086 0.610392 -1.13009 1.66636 -0.115063 -1.46362 -0.466076 0.154599 1.23776 -0.79986 -0.228508
2350 -0.247955 1.02325 0.594195 -1.30429 1.51527 -0.448647 -1.65375 -0.38948 -0.026821 1.08711 -0.658468 0.254966
219 -0.31215 1.29402 0.759172 -0.999114 1.10097 -0.275604 -1.72062 -0.292954 -0.12732 0.957004 -0.91443 0.165686
2027 -0.0806124 1.24756 0.249938 -1.31926 1.26762 -0.565877 -1.60342 -0.0206143 -0.035015 1.17219 -0.664395 0.0975259
2456 -0.44907 1.27777 -0.0336158 -1.06627 1.24699 -0.702545 -1.80803 0.141545 0.16108 1.19871 -0.720988 -0.137453
1162 -0.43284 1.38814 0.516846 -0.940209 1.25196 -0.413618 -1.63793 -0.094158 0.05994 1.15349 -0.925263 0.0448272
1217 -0.631941 1.45157 0.445336 -0.71683 0.841973 -0.657247 -2.06563 0.276659 -0.155979 0.91014 -1.00275 -0.0391977
1430 -0.593891 1.15635 0.987706 -0.771684 0.984618 -0.422236 -1.5839 0.27396 -0.417988 1.0901 -0.994928 0.128107
984 -0.709323 1.17764 0.29138 -1.13119 1.61456 -0.384248 -1.43996 -0.0399103 0.191911 1.32637 -0.846596 -0.128345
1327 -0.772752 0.732269 0.0788246 -1.4045 1.27824 -0.578552 -1.48101 -0.17041 0.451877 0.902782 -0.848271 0.313158
1531 -0.356754 0.927843 0.373513 -1.30033 1.14244 -0.504932 -1.54296 -0.148945 0.549118 0.805746 -0.87086 0.336139
82 -0.373162 0.960255 0.802789 -1.22498 1.37141 -0.268053 -1.71338 0.135089 0.576484 1.24086 -0.814243 -0.155779
230 -0.218922 0.773542 -0.0419219 -0.122933 -0.617855 -0.0589606 -1.36008 -1.50794 0.995745 1.84504 0.542302 -0.456259
2084 -0.308757 1.04466 -0.132363 -0.278445 -0.623478 0.219256 -0.958813 -1.46818 0.863988 1.91347 0.256244 -0.714312
2353 -0.254026 0.779592 -0.0623845 -0.30425 -0.525587 0.280482 -1.24868 -1.50077 0.899536 2.00867 0.489053 -0.413355
748 -0.42345 0.59389 -0.039949 -0.263138 -0.582699 0.124182 -1.27268 -1.53939 0.895622 2.08172 0.453567 -0.58732
1252 -0.683165 0.825898 -0.0462357 -0.0989709 0.0392555 0.230055 -0.906033 -1.97217 0.942441 1.89227 0.275813 -0.930045
1001 -0.306734 0.706408 0.0489655 -0.21113 -0.642139 0.200177 -1.11208 -1.29568 1.06679 1.80045 0.447005 -0.519873
1695 -0.291278 0.761829 0.0949628 -0.389016 -0.552868 -0.161074 -0.786851 -1.75433 0.597848 1.8637 -0.0147714 -0.956936
1838 -0.677092 0.930801 0.307342 -0.0286531 -0.777554 0.0897736 -0.596566 -2.14722 0.459031 1.5592 0.190789 -0.769433
163 0.198327 1.52888 -0.0602533 -0.944762 -0.786676 -0.14566 -0.47745 -2.06931 0.271558 1.25607 -0.359656 -0.681962
203 0.0287176 1.57141 0.01739 -0.596098 -0.521574 -0.14765 -0.565441 -2.33009 0.177575 1.18964 -0.252606 -0.597469
1029 -0.0775123 1.31262 -0.00952623 -0.741748 -0.683364 -0.0964482 -0.665292 -1.96193 0.0976854 1.20295 0.0342558 -0.792468
28 -0.0547956 1.41809 0.271921 -0.671529 -0.744351 0.0967987 -0.843152 -1.61837 -0.0867518 1.05314 0.130068 -1.04042
1064 -0.048683 1.15545 0.493793 -0.940857 -0.945295 0.171949 -0.87421 -1.87424 -0.211467 1.03629 -0.00582383 -0.815183
1153 -0.181862 1.20223 0.600072 -0.502645 -0.658665 -0.0172679 -1.30247 -1.71232 -0.0603974 0.740613 0.456921 -1.12598
747 0.148886 1.07583 0.588574 -1.1524 -0.993376 0.112783 -1.29833 -1.63579 -0.175498 0.807439 0.295934 -0.988314
1020 0.098291 1.42479 0.334678 -0.871399 -1.04153 0.0851427 -1.34729 -1.69723 -0.500884 0.746175 0.401701 -0.714393
855 -0.0437645 1.35709 0.446431 -0.76095 -0.909199 0.0596661 -0.874187 -1.89439 -0.139552 0.828814 0.335678 -0.874975
2330 -0.0381687 1.39562 0.325464 -0.163612 -0.754819 -0.238777 -1.48202 -1.78487 -0.258497 0.805402 0.569234 -0.634602
1517 0.0514304 1.48795 0.420471 -0.426404 -0.552192 -0.450628 -1.27027 -1.5219 0.0880327 0.663174 0.684665 -1.37117
2102 -0.320862 1.33727 0.151487 -0.434044 -0.804639 -0.121612 -0.759857 -1.84867 -0.109253 1.1311 0.0603427 -0.946774
2285 -0.812845 1.11105 0.029333 -0.340844 -1.03175 0.178041 -0.622829 -1.98828 0.566309 1.32321 -0.119715 -0.850223
153 -0.289842 0.991537 0.0742888 -0.550529 -0.82507 -0.219626 -1.04054 -2.08806 0.146127 1.20225 -0.128489 -0.586919
126 -0.272085 1.38521 0.618863 -0.166916 -0.871949 -0.352987 -1.27809 -1.27312 0.719588 0.629547 0.169474 -1.50013
2215 0.0860422 1.41642 0.887475 -0.220925 -0.856419 -0.439228 -1.39967 -1.09762 0.720905 0.747013 0.337547 -1.49523
401 -0.131518 1.42234 0.385684 -0.591356 -0.619926 0.0626991 -1.15407 -1.55681 -0.416117 0.866188 0.580856 -1.27062
441 0.0417308 1.62942 0.39445 -0.520612 -0.413538 -0.184173 -1.06006 -1.7445 -0.0710385 0.620147 0.662317 -1.21409
1882 0.349687 1.71299 0.808401 0.165042 -0.597428 -0.583367 -0.988936 -1.90718 -0.166999 1.04349 0.515659 -0.875891
30 0.124546 1.64661 0.513052 -0.0860999 -0.701979 -0.272893 -0.700946 -1.77989 -0.0733812 1.08328 0.975181 -1.1613
1004 -0.0893775 1.52926 0.549541 -0.614726 -0.482174 -0.231477 -1.17769 -1.66669 0.259554 0.340371 0.425454 -1.4763
478 -0.106151 1.10784 0.521736 -0.177412 -0.543484 -0.0915414 -1.05574 -1.58033 0.307086 1.21119 0.532713 -1.11911
2041 0.0506294 1.21012 0.79483 -0.415735 -0.663338 -0.435072 -1.41666 -1.5263 0.194144 0.652005 0.571481 -1.41722
220 0.126327 1.52637 0.712931 -0.436378 -0.760148 -0.731718 -1.5549 -1.20396 0.783181 0.286442 0.626974 -1.55244
2355 0.102901 1.43685 0.965119 -0.364179 -0.779366 -0.573993 -1.44496 -1.19287 0.638718 0.440364 0.297097 -1.57992
2116 -0.111709 1.53504 0.891709 -0.166686 -0.793844 -0.537252 -1.32199 -1.19376 1.01808 0.462477 0.140256 -1.63928
91 -0.12269 1.25173 0.49086 -0.444439 -0.811824 -0.148599 -1.02294 -1.72304 0.191919 0.932257 0.150396 -1.07284
2439 0.314305 1.5948 0.617661 -0.755765 -0.461123 -0.131163 -1.1677 -1.9528 0.0958747 0.346821 0.535187 -1.01819
734 0.222427 1.52962 0.799561 -0.340878 -0.913463 -0.567764 -1.36648 -1.18782 0.454941 0.59793 0.3261 -1.43232
588 -0.0633711 1.28593 0.56894 -0.116726 -1.01668 -0.316613 -1.49076 -1.62863 -0.105122 0.944703 0.117305 -0.724062
1432 -0.153378 1.2204 1.03415 0.0931166 -0.912181 -0.0104795 -1.21142 -2.19756 -0.0900993 0.865032 0.349779 -0.327423
356 -0.15089 1.29126 0.489484 -0.607994 -0.652726 -0.0490781 -1.06964 -1.91861 0.0701383 0.746072 0.160643 -0.984264
2202 0.219318 1.52537 0.947096 -0.1703 -0.550491 -0.554438 -0.897392 -1.89733 0.0853949 0.745778 0.549294 -1.3034
33 0.124789 1.46168 0.865915 -0.215934 -0.746671 -0.535448 -1.25025 -1.10803 0.810821 0.708144 0.298063 -1.58265
109 0.168104 1.59339 0.785625 -0.537728 -0.819948 -0.794465 -1.45485 -0.904728 1.11833 0.351792 0.332485 -1.86735
602 -0.0185469 1.73809 0.726623 -0.471023 -0.917981 -0.681393 -1.34957 -0.934434 1.20927 0.175829 0.210887 -1.77256
2407 0.0148665 0.850365 0.283456 -0.1142 -0.29639 0.0862853 -1.42502 -0.932897 1.3793 1.55254 0.0649651 -0.688491
1410 -0.687661 1.14516 0.133481 -0.308944 -0.839216 0.405885 -0.997987 -1.69378 0.183198 1.35451 -0.213563 -0.81873
457 -1.25818 0.260097 0.7111 -0.501666 0.139929 -1.08496 0.627294 -0.22314 0.167941 0.752912 0.0870225 -0.0922155
59 -0.487578 0.92142 0.638202 -1.08626 -0.268826 -0.900823 0.0612416 0.729232 0.176347 0.481478 0.592565 0.0974118
1679 -0.647585 1.12257 0.709256 -1.24605 -0.125654 0.288767 0.217678 0.422883 0.254432 0.447515 1.06326 0.270141
2341 -0.998324 0.367491 1.02722 -1.31823 -0.272618 -0.70807 -0.103676 0.10393 0.368538 -0.0960675 0.219066 0.318496
785 -1.06592 0.37703 0.819304 -1.03801 0.00848698 -1.01237 0.039082 -0.0725687 0.372144 -0.0800806 0.343389 0.0467566
2388 -0.807222 0.666278 0.25789 -1.08287 -0.128775 -0.354375 -0.196944 0.377253 0.596906 0.332333 0.799403 0.188029
1607 -0.790029 0.508895 0.295119 -1.25201 -0.182379 -0.36831 -0.0973652 0.0367353 -0.0300752 0.593063 1.01414 0.812094
2366 -0.739365 0.489292 0.0809105 -0.889667 0.649108 -0.945798 -0.597075 0.106716 0.719455 0.283628 0.706747 0.600516
2351 -0.966017 0.464354 0.0262822 -0.795385 0.57989 -0.956527 -0.504738 -0.0469198 0.973938 0.321207 0.402464 0.741262
1083 -0.93393 0.673193 0.126095 -1.07885 0.00439677 -0.531187 -0.315972 0.0558559 1.14154 0.108495 0.204694 0.645176
26 -0.674641 0.712775 -0.299343 -0.747903 0.530265 -0.813103 -0.85939 0.21342 0.911096 0.548522 0.197249 1.21335
1139 -0.387137 0.797823 0.863646 -1.12777 1.32349 -0.534387 -1.76156 -0.111194 0.323987 0.924596 -0.656908 0.126686
606 -0.426192 1.15704 0.884547 -0.516257 1.14502 -0.58064 -1.93477 -0.0904851 -0.314662 1.15338 -0.713034 0.337455
277 -0.622084 1.0027 0.894599 -0.529056 0.864244 -0.697283 -2.13013 -0.0816227 -0.0219418 0.984907 -1.02831 0.150849
1121 -0.605329 1.31689 0.478193 -1.20471 1.28572 -0.399985 -1.39361 -0.195168 -0.0193853 1.03251 -1.24278 0.0370415
229 -0.626696 1.11065 0.374074 -0.983451 1.40835 -0.690357 -1.61899 -0.155714 -0.112908 1.07403 -0.761754 -0.275193
1044 -0.547791 1.12698 0.263897 -1.0218 1.1169 -0.603067 -1.32685 -0.177156 -0.0182271 0.944466 -0.947196 0.456807
983 -0.933464 1.30921 0.0633568 -0.719828 1.33773 -0.441967 -1.56744 -0.180657 0.476645 1.19296 -1.12803 -0.127116
2256 -0.376223 1.43173 0.508153 -1.03363 1.19119 -0.447957 -1.45192 -0.0686395 0.440827 0.990697 -1.20567 0.0879438
1117 -0.404652 1.16784 -0.0695336 -1.14608 1.25372 -0.885638 -1.32863 -0.150608 0.432323 0.869518 -0.772299 0.517435
367 -0.518755 1.50825 -0.0229423 -1.47228 1.20986 -0.230784 -1.55109 -0.388368 0.1714 0.862695 -1.15493 0.239449
842 -0.122065 0.959229 0.60756 -1.08522 1.51944 -0.480452 -1.84292 -0.159668 0.00332681 1.48586 -0.425531 -0.0276442
882 -0.338612 1.28751 0.45532 -1.26823 1.02537 -0.745529 -1.54805 -0.149482 0.126558 1.00846 -1.38069 -0.0919808
994 -0.465532 1.45385 0.357321 -1.09911 1.07169 -0.477695 -1.60624 -0.0327118 -0.427447 1.06931 -1.09221 -0.087295
285 -0.886333 0.896142 0.517693 -1.07216 1.58914 -0.314133 -1.48681 -0.346365 -0.0420573 1.10923 -0.787039 -0.248132
270 -0.57753 1.15572 0.230157 -0.714672 1.65401 -0.480685 -1.59626 0.0390189 -0.126059 1.76255 -0.477376 -0.112893
1340 -0.596412 1.39994 0.47623 -0.610127 1.38489 -0.643613 -1.5209 -0.180267 0.205426 1.07098 -0.940063 -0.0468535
607 -0.88136 1.10466 0.669873 -0.72881 1.27149 -0.423646 -1.57007 -0.167403 -0.135984 1.09874 -0.985547 -0.149035
1411 -0.57252 1.23177 0.593848 -0.850484 1.19404 -0.493337 -1.78719 -0.21583 -0.0971193 1.00162 -0.900159 0.127756
1148 -0.728628 0.978325 0.718608 -0.562767 1.02448 -0.54198 -1.78344 -0.0503396 -0.35584 1.04744 -0.752582 0.330743
2386 -0.379667 1.08558 0.753647 -0.693319 0.653974 -0.198183 -1.86998 0.00389909 -0.455429 1.12956 -0.830257 0.314371
949 -0.426467 1.09358 0.947031 -0.590004 0.781519 -0.31536 -1.80831 -0.102736 -0.504486 1.16321 -0.936851 0.225614
1903 -0.629817 0.997432 0.471158 -0.960917 0.984719 -0.266238 -1.84302 -0.24921 -0.328829 0.99468 -0.783744 -0.0360895
1720 -0.381166 0.910807 0.976537 -0.809012 0.853031 -0.416202 -2.04565 -0.212386 -0.551719 1.18015 -0.791399 0.699468
764 -0.644158 1.05955 0.226503 -1.04045 1.45408 -0.802309 -2.01092 -0.0703365 -0.292981 0.839271 -0.356214 -0.390014
1535 -0.615438 1.12148 0.487067 -0.378927 -0.668709 -0.806012 0.265363 0.533942 0.064782 0.832363 0.461235 0.469351
774 -0.937768 0.863971 0.54122 -0.588744 -0.490399 -0.537583 0.0502035 0.320464 -0.142914 0.704201 0.2805 0.674726
790 -1.384 0.499268 0.308104 -0.891223 -0.90158 -0.363083 -0.290083 0.973912 -0.369214 1.0084 0.259401 0.294674
2347 -0.995748 0.801368 0.339422 -0.869912 -0.350362 -0.673471 -0.111585 0.617683 -0.263835 0.607809 0.528794 0.224413
1093 -0.692499 0.735967 0.684473 -1.07553 -0.300329 -0.713698 0.0658059 0.459896 -0.231923 0.538249 0.77588 0.290774
1 -0.931977 0.817036 0.790631 -0.359084 -0.607921 -0.893551 0.0544407 1.21852 0.221406 1.00848 0.422218 -0.357621
811 -0.857703 0.863466 0.50715 -0.460124 -0.231458 -1.12967 0.182992 0.21814 -0.00943602 0.438711 0.681295 0.115025
2433 -0.968667 0.646592 0.290821 -0.857964 -0.189329 -0.828375 0.00593488 0.449331 0.0926324 0.593081 0.725829 0.135874
1222 -0.369603 0.904809 0.358651 -0.737199 0.440148 -0.437959 -0.243629 -0.0336216 0.929165 0.429297 0.323174 1.15473
185 -0.696924 0.761903 0.535847 -0.754729 0.273435 -0.183399 -0.120211 0.37286 0.827815 0.721365 0.886217 0.664063
701 -0.86679 0.769325 0.61312 -0.617861 0.0763015 -0.933284 0.145442 -0.00896434 0.305155 0.500389 0.139475 0.742893
1448 -0.388998 1.335 0.658566 -0.19877 0.0285748 -1.38759 0.316008 -0.205187 -0.0587501 0.169017 0.670968 0.651131
1646 -0.748907 0.268204 1.31664 -0.664046 -0.111723 -1.13451 0.338066 -0.622434 0.169199 0.424592 0.264745 0.534909
1862 -0.703211 0.75505 1.07201 -0.959104 0.152921 0.290463 -0.0327771 0.142805 0.256967 0.521859 1.08252 0.685516
1622 -1.11223 0.93532 0.779337 -0.75827 0.125176 0.323703 -0.100532 0.30482 0.355441 0.404342 0.789013 0.246565
944 -0.500028 0.61195 0.931279 -1.29528 0.886062 0.348584 -0.214467 0.149325 0.345046 0.742378 0.839269 0.917718
1778 -1.25237 1.18967 1.04188 -0.999152 0.129146 0.670754 -0.260385 0.132767 0.657944 0.00258153 0.956774 0.155499
316 -1.79733 1.27213 0.680554 -1.03237 0.161668 0.76974 -0.164584 -0.264849 0.764706 -0.229673 0.829279 -0.0550326
1857 -1.61547 1.44743 0.580832 -0.945047 0.00665519 0.682528 0.0900046 0.106174 0.592364 0.0404892 0.588272 -0.0167595
603 -1.78563 1.37534 0.686757 -0.815611 -0.0190945 0.899133 -0.347119 -0.0111163 0.715268 -0.103951 0.798609 -0.114856
1255 -1.76209 1.64445 0.684587 -0.827316 0.0185796 0.871265 -0.091607 -0.0469965 0.638769 -0.0351457 0.639386 0.0384916
1443 -1.84265 1.50574 0.554888 -0.824607 0.0470781 0.820809 -0.214071 -0.14982 0.672927 -0.140333 0.524912 0.140276
1992 -1.5078 1.62824 0.741156 -0.739987 0.194112 0.705208 -0.152858 0.0264439 0.444475 -0.138819 0.917828 0.185242
1740 -1.90562 1.65718 0.779817 -0.99816 -0.120009 0.99297 -0.133818 0.00594053 0.524554 -0.15518 0.477585 -0.112619
2449 -1.65359 1.81727 0.778003 -0.785157 -0.0684157 0.887955 -0.0937637 -0.134304 0.486174 -0.272999 0.566132 0.100969
1624 -1.48638 1.08421 0.866089 -0.932195 0.137658 0.620378 -0.169821 -0.0585871 1.14649 -0.130044 0.546347 0.224643
1395 -1.71072 1.51449 0.639503 -0.583764 0.20249 0.639573 -0.364673 -0.0987813 0.844583 -0.223653 0.82843 0.226053
93 -1.70199 1.55583 0.756732 -0.922264 0.073841 0.875688 -0.0420853 -0.0997899 0.526732 -0.0550535 0.569334 0.0318076
1178 -1.18669 1.41401 0.71754 -1.08735 -0.104655 0.398936 -0.195515 0.122594 0.784208 -0.401988 0.74434 0.172309
132 -1.32137 1.46123 0.720446 -0.739896 0.204102 0.418208 -0.0172052 -0.146266 0.265205 -0.152652 0.472297 0.590903
1883 -1.69071 1.54443 0.89846 -0.671866 0.267367 0.729479 -0.397734 -0.118756 0.260057 -0.304854 0.964155 0.400952
1323 -1.31967 0.969285 1.22272 -1.11532 0.0624081 0.752601 -0.114662 0.0258874 0.682131 0.147057 0.856095 0.187652
1603 -1.63127 1.62725 0.74476 -1.11579 -0.0591091 0.971349 -0.080528 0.00108392 0.435368 -0.148436 0.497576 0.0740754
639 -1.79435 1.53232 0.889876 -1.18338 -0.0185319 1.05606 -0.127718 -0.229145 0.541184 -0.175629 0.506363 -0.0256843
2010 -1.45473 1.4464 0.655247 -1.07995 -0.169119 0.720401 -0.114694 0.0228166 0.771446 -0.12475 0.553882 0.226598
1915 -1.766 1.38007 0.654222 -1.03567 0.0677247 0.944167 -0.203917 -0.078495 0.735644 -0.121736 0.623177 -0.029905
1651 -1.73044 1.49505 0.564702 -0.73397 0.0788443 0.663862 -0.301417 -0.179144 0.675173 -0.268229 0.796746 0.219369
2321 -1.6017 1.60184 0.766086 -0.896541 0.0157016 0.899978 -0.0303128 -0.052739 0.708154 0.0076312 0.604841 0.164771
56 -1.91544 1.16367 0.514175 -1.0159 0.0762633 0.701628 -0.248184 -0.139219 0.43704 -0.216349 0.723793 0.111135
1100 -1.2253 1.1099 0.988618 -0.915002 -0.147621 0.543229 -0.287936 0.293636 0.78049 0.0791186 0.76258 0.235609
775 -1.75017 1.06279 0.909356 -0.954936 -0.207314 1.00339 0.0551824 0.016772 0.396219 0.398018 0.704876 0.149
1216 -1.94257 1.65552 0.788732 -0.974576 -0.0361998 1.06049 -0.141515 -0.233069 0.444318 -0.143242 0.544856 0.0861733
408 -1.90808 1.44005 0.860794 -0.648869 -0.129024 0.84827 -0.0983634 0.071717 0.611374 0.053261 0.578212 0.0291853
771 -1.23973 1.00651 1.1074 -1.04381 0.0459597 0.564076 -0.446185 0.285135 0.978819 0.033746 0.872599 0.255328
460 -1.48387 1.11836 0.988686 -0.568534 -0.15996 0.653682 -0.497776 0.187766 0.814852 0.121754 0.981576 0.452416
499 -1.06866 0.535551 0.86615 -0.838668 -0.113002 0.449035 -0.194797 0.0913874 0.814512 0.535367 1.03881 0.362184
677 -1.64812 1.09152 0.721138 -0.798838 -0.0424883 0.641856 -0.143118 -0.136969 1.02363 0.0595794 0.530035 0.443762
476 -0.567556 0.431929 0.911835 -1.21758 0.0333702 -0.691144 0.333713 0.35425 0.798884 0.329537 0.604515 -0.458246
1324 -1.13022 1.11308 0.461116 -0.228586 -0.0446327 -1.18765 0.331989 0.300263 0.311894 0.570716 0.0299541 0.638035
1305 -0.874764 0.898734 0.674179 -0.508331 -0.621524 -0.799518 0.136058 0.36221 -0.234293 0.692779 0.07887 0.423076
1926 -1.23362 0.531705 0.53063 -0.51621 -0.783456 -1.07426 -0.1399 0.321842 -0.390232 0.355583 0.365642 0.15594
563 -1.0099 0.635873 0.650303 -0.396823 -0.000507589 -1.30059 0.185311 -0.0655304 0.122511 0.358027 0.591539 0.149194
287 -1.25356 0.580453 0.643205 -0.632898 -0.531517 -0.467787 0.0188437 0.806479 0.0932298 0.911317 0.687965 -0.0637254
2372 -0.676137 0.636375 0.733286 -0.463409 -0.182759 -1.04352 0.301781 0.491888 0.242262 0.922287 0.636451 -0.0322976
1397 -0.646837 0.676323 0.924006 -0.114336 -0.405666 -1.18632 -0.23661 0.37579 0.131268 0.514748 0.921404 0.47156
550 -1.0768 0.404719 0.84445 -0.569273 -0.491678 -0.753523 -0.0997595 0.49067 -0.267925 0.721384 0.516067 0.0805827
2490 -0.714579 1.03889 0.381798 -0.570715 -0.911098 -0.936357 -0.137282 0.796708 0.349645 0.537263 0.19602 0.420757
920 -0.732075 0.846636 0.239533 -0.689622 0.0488373 -1.05311 -0.0642559 0.353007 0.817586 0.446589 0.279742 0.494004
844 -0.572895 0.868443 0.870821 -0.308727 -0.0814588 -1.41967 -0.12102 0.634031 0.335955 0.429331 0.54771 0.191467
392 -1.19227 0.272391 0.928619 -0.540159 -0.14241 -1.19104 0.135142 -0.232463 -0.301934 0.417782 0.582053 0.315078
585 -0.895531 0.523 0.855819 -0.549873 0.265832 -0.838943 0.356547 0.0032993 -0.330817 0.904929 0.355572 0.303683
2233 -1.28325 0.403718 0.679828 -0.663393 -0.951556 -0.564862 -0.246318 0.532419 -0.581258 0.854995 0.264762 0.400406
1268 -1.26876 0.453529 0.851645 -0.895232 -0.828216 -0.628422 0.0285404 0.522855 -0.479592 0.635796 -0.0457811 0.232258
717 -0.495071 0.782983 0.388725 -1.08656 -0.458032 -0.855708 0.0868532 0.593583 -0.073537 0.603058 0.783051 0.08112
323 -0.94272 0.7286 0.264102 -0.571796 0.0137208 -1.15474 0.120419 -0.165664 0.354896 0.253542 0.5821 0.374353
2247 -0.816742 0.685125 0.302125 -0.084954 0.244675 -1.55985 0.270447 -0.622504 0.320531 0.623351 0.450947 0.850845
1630 -0.791562 0.791148 0.733658 -0.430562 -0.294014 -1.06068 0.198929 0.120712 0.00204863 0.538451 0.436569 0.318403
1381 -0.747332 0.693399 0.0833047 -1.00752 -0.313216 -1.29676 -0.0593338 0.597605 0.743494 0.455189 0.428898 0.314974
821 -0.770357 0.683152 0.0965121 -0.788982 0.525317 -0.873297 -0.486916 0.147031 0.825875 0.333721 0.148658 0.6969
291 -1.22456 0.269289 -0.103225 -0.83064 0.785443 -1.18799 -0.493115 -0.114353 1.0704 0.352016 0.180777 0.500565
1497 -0.7385 0.720296 0.334806 -1.18286 1.23129 -0.695117 -1.38524 -0.117697 0.302619 0.576844 -0.66248 0.00329871
645 -0.630489 1.10066 -0.0622761 -0.957144 1.37082 -0.835672 -1.27357 -0.35172 0.444934 0.841042 -0.806226 0.491424
489 -0.809335 0.761513 0.424466 -0.796885 0.408486 -0.828402 0.0692426 0.028029 0.363608 0.377602 0.128237 0.481099
856 -1.26659 0.816065 0.464819 -0.869701 -0.0784884 -0.0322589 -0.022168 0.318338 -0.0284973 0.558482 0.870425 0.52501
1201 -1.16402 1.19271 1.05174 -0.56752 -0.0162287 0.681931 -0.0145888 0.299899 0.594777 0.494525 0.804046 0.347202
760 -1.15403 1.06059 1.30725 -0.596684 -0.346724 0.572925 -0.446893 0.401293 0.886427 0.15983 0.961235 0.288075
1733 -1.1399 0.959119 1.07551 -0.769866 0.261969 0.177361 -0.243968 0.264911 0.511468 0.20486 0.988353 0.537802
1242 -0.874292 1.13093 0.83183 -0.856503 0.19534 0.506499 0.114408 0.636857 0.263148 0.932786 0.939207 0.664305
1726 -1.39926 1.17489 0.759673 -0.682491 0.152436 0.573462 -0.398943 0.100246 0.333484 0.0239174 1.23788 0.292459
1900 -0.872388 0.711922 0.636022 -0.636432 0.276534 -0.787703 0.12372 0.222678 -0.0327066 0.438305 0.696236 0.0291941
2004 -1.41408 1.3394 1.07377 -0.690038 0.0618394 0.769307 -0.314949 0.18404 0.688464 0.0944208 0.966616 0.173834
254 -1.34264 1.30787 1.02351 -0.725118 -0.175619 0.754292 -0.355533 0.212178 0.86523 0.0500447 0.886403 0.290667
861 -1.57617 1.5799 0.711963 -1.00404 0.0483279 0.896322 -0.0698039 -0.0273355 0.68502 -0.00718349 0.568213 0.0794758
2180 -1.51215 1.4604 0.629306 -0.808756 0.115066 0.630995 -0.0287413 0.0985033 0.598518 -0.0373772 0.798912 0.0243769
765 -1.85212 1.65699 0.634544 -0.832202 -0.0239555 0.887995 0.070488 -0.119462 0.567218 -0.0517075 0.455659 0.107999
1418 -1.75732 1.56735 0.681653 -0.916115 0.00405532 0.878579 -0.301216 -0.0159111 0.719547 -0.175068 0.584961 0.0342455
148 -1.58343 1.2197 0.76774 -0.832076 0.0970175 0.594665 -0.290385 -0.174891 0.851337 -0.185572 0.709314 0.231231
926 -0.932146 0.777639 1.07924 -1.05254 0.156391 0.30199 -0.176993 0.00200192 0.712517 0.110666 0.996972 0.551537
282 -1.56753 1.3689 0.966724 -0.933177 0.0865936 0.763673 -0.0932358 -0.0681243 0.576515 -0.156789 0.668262 0.184986
1069 -1.04471 0.882195 1.02331 -0.973899 0.390135 0.298794 0.140877 0.567759 0.522259 0.648073 1.13241 0.0325501
2109 -1.1578 1.19055 1.05533 -0.757118 0.280168 0.648963 -0.227778 0.355317 0.731632 0.258455 1.19894 -0.0584962
803 -1.33804 1.15414 0.67121 -0.721806 0.149859 0.3753 -0.0662122 0.174996 0.595406 0.205914 0.964072 0.275675
136 -1.09314 0.93463 0.392446 -0.772176 0.320294 -0.112551 -0.259214 0.109613 0.552961 0.0979308 1.11697 0.407871
278 -1.26139 1.13315 0.973879 -0.903478 0.0465365 0.684796 -0.273848 0.162861 0.589169 0.174131 0.9909 0.203441
96 -1.16433 0.843594 0.944799 -1.03656 0.0845265 0.498864 -0.253022 0.0762061 0.788413 0.0943732 1.17133 0.0962365
118 -0.638629 1.29352 0.111627 -0.89488 1.30346 -0.867348 -1.11105 -0.0702258 0.431491 0.901493 -1.12136 0.155876
541 -0.336675 1.28445 0.364139 -1.3508 1.18326 -0.640188 -1.69376 -0.0192436 0.178708 0.929432 -0.961668 -0.146332
2101 -0.981086 1.04734 0.738221 -0.780682 1.4801 -0.588921 -1.62626 -0.459405 0.165424 0.789269 -1.15875 -0.113147
2339 -0.645466 1.04842 0.578043 -1.24569 1.2881 -0.260252 -1.43834 -0.0382906 0.307717 1.10764 -1.11032 -0.418471
1496 -0.43653 1.54633 0.570072 -0.752228 1.1469 -0.486204 -1.99962 0.443707 0.0246036 1.10183 -0.773872 -0.249768
1070 -0.36087 1.22927 0.660529 -0.771486 0.903702 -0.550873 -1.89018 0.0767125 -0.182423 0.968278 -0.843534 0.465302
498 -1.30502 1.06953 0.454312 -0.899604 1.37103 -0.276115 -1.58591 -0.0553518 -0.0374458 0.937133 -1.09211 -0.482046
1902 -0.647496 1.32849 0.463625 -1.08234 1.48628 -0.285577 -1.53558 -0.316664 0.35435 1.05012 -1.06681 -0.0324351
2392 -0.389291 1.82003 0.348289 -0.660713 1.40011 -0.517893 -1.46486 -0.0484806 0.148891 1.12447 -0.943185 -0.110629
1303 -0.355627 1.64723 0.558274 -0.876433 1.59463 -0.448632 -1.31715 -0.343102 0.242321 0.955085 -0.966471 -0.0228755
2125 -0.590597 0.81108 0.271648 -1.24841 1.19104 -0.788016 -1.13305 -0.117579 0.683426 0.575625 -0.873443 0.0867971
18 -0.871211 0.524116 0.165772 -0.984428 0.464731 -0.956538 -0.305253 0.0433796 1.09931 0.393991 -0.16083 0.715197
886 -0.805897 0.465189 -0.104468 -1.23827 0.863205 -0.801072 -0.899826 -0.0629439 0.796894 0.639224 -0.737904 0.740416
2090 -0.825766 0.40916 0.33394 -1.13601 0.397979 -0.864957 -0.139557 -0.00843395 1.06725 0.422181 -0.105951 0.591899
516 -1.0288 0.191702 0.451519 -1.10958 0.325933 -0.740853 0.0615747 -0.421263 1.02517 0.292404 0.0828515 0.462118
513 -0.672061 0.392672 0.806267 -1.47868 -0.237338 0.211572 0.145692 -0.0581931 0.302853 0.774311 0.715479 1.01264
883 -1.34812 1.1104 0.795074 -0.940314 -0.0113632 0.665891 -0.361738 0.0981761 0.818783 0.0590943 0.970342 0.185515
2153 -1.67901 1.5033 0.934333 -1.08091 -0.0867368 0.910108 -0.11627 -0.158116 0.426616 -0.285512 0.504973 0.20208
1077 -1.81896 1.41324 1.10903 -0.847056 0.079101 0.815972 -0.317159 0.0431031 0.621066 -0.296646 0.782004 -0.143902
826 -1.03309 0.907857 0.677937 -0.750971 0.48114 -0.0287409 -0.170305 0.360041 0.894557 0.273583 1.21132 0.115863
2348 -1.34945 0.584138 0.208694 -0.367686 0.402771 -1.05673 0.306903 -0.168943 0.634183 0.5345 0.370838 0.212649
336 -1.13838 0.571789 0.123783 -0.639162 0.458141 -1.03559 0.0371904 -0.208408 0.85763 0.337312 0.460332 0.426286
776 -1.29107 0.739757 1.27963 -0.466364 0.588009 0.0672754 -0.302045 0.0321324 0.925598 0.0584512 1.13033 0.324893
1356 -0.844006 1.20999 0.976772 -0.601275 0.301766 0.579315 -0.26054 0.441584 0.524356 0.639933 1.32259 0.701918
697 -1.17986 1.1859 0.872033 -0.903314 0.00837796 0.493032 -0.396983 0.198843 0.658354 -0.0320504 1.06142 0.366128
866 -0.961691 0.859983 1.00077 -1.09187 -0.0448574 0.521194 -0.112266 0.0539597 0.869875 0.33689 0.75773 0.578207
646 -1.73357 1.63277 0.635185 -0.988689 -0.0574152 0.944019 -0.0903265 -0.164838 0.587551 -0.0460803 0.71534 0.022445
1049 -1.80424 1.58956 0.594133 -0.994672 -0.0451875 0.950061 -0.0584906 0.147318 0.768633 -0.00685387 0.508599 -0.24471
1194 -1.63147 1.49641 0.721148 -0.741093 -0.00415782 0.707275 0.141229 -0.00552896 0.36537 0.0665022 0.597391 0.139716
1628 -1.57399 1.57756 0.781866 -0.621611 -0.0635567 0.786167 -0.121773 -0.0160547 0.554652 -0.0371569 0.710201 0.265876
186 -1.68976 1.55133 0.733054 -0.740762 0.053405 0.809955 -0.172246 -0.0408824 0.602586 -0.0410375 0.691659 0.0966302
342 -1.8175 1.50033 0.889927 -0.733936 0.127528 0.81588 -0.141593 -0.155026 0.607206 -0.144846 0.628263 0.126405
1842 -1.269 1.24295 0.985402 -0.731649 0.193345 0.450364 -0.128554 0.21419 0.80801 0.142424 0.86267 0.373114
3 -1.56294 1.4195 0.603712 -0.82512 0.11807 0.762922 -0.0999879 -0.0833602 1.11432 0.0540761 0.516773 0.281679
1114 -1.24414 0.720006 1.12075 -0.639761 -0.118828 0.334045 -0.37053 0.323941 0.2928 0.309559 1.09281 0.349574
952 -0.700297 1.00074 1.16525 -0.640915 -0.00910099 0.315502 -0.243184 0.47459 0.739751 0.468459 1.13692 0.579632
1699 -1.85874 1.60333 0.66648 -0.871127 -0.166284 0.95413 -0.27375 -0.101853 0.634781 -0.130377 0.532286 0.251863
2072 -1.72709 1.33376 0.709246 -0.743418 0.153515 0.672348 -0.291562 -0.041118 0.763194 -0.113895 0.822837 0.129183
1947 -1.61043 1.57857 0.62068 -0.881446 -0.154633 0.963937 -0.0267419 -0.0542804 0.581548 0.0834184 0.697454 0.306522
2246 -1.17455 1.58175 0.426562 -1.16343 -0.120734 0.78939 0.414527 -0.109103 0.371257 0.219439 0.457992 0.641657
462 -1.76855 1.43509 0.606215 -0.897356 -0.0344407 0.745335 -0.313253 -0.117122 0.789225 -0.211724 0.685334 0.118792
2360 -1.27229 0.79792 0.624214 -0.911932 0.105398 0.183116 -0.447892 -0.0611734 1.13033 -0.103464 0.806852 0.477998
2297 -1.80106 1.31498 0.489088 -0.8419 0.070576 0.713938 -0.210604 -0.0525993 0.877067 -0.0854889 0.655909 0.158818
174 -1.56778 1.61356 0.704628 -1.0412 0.0322413 0.847964 0.0907107 0.279491 0.617182 0.125801 0.501573 -0.0254922
133 -1.60915 1.37694 0.802754 -0.845883 0.0531499 0.766039 -0.173773 -0.210242 0.451907 -0.0622776 0.752513 0.414781
2163 -1.5557 1.29479 0.167654 -1.14481 0.0747035 0.481285 -0.136745 0.0535243 1.04041 -0.156475 0.687578 0.0740952
1806 -1.33453 0.990437 0.62651 -0.803517 -0.0113841 0.550223 -0.35139 0.0600594 0.884421 0.0948433 1.08836 -0.0493148
2113 -1.13014 0.786799 0.576244 -0.788924 0.306062 0.1274 -0.559415 0.265632 1.11706 0.227103 1.22776 0.479384
2423 -0.949245 0.956716 0.880768 -0.596985 0.398423 0.070331 -0.412871 0.191141 0.860154 0.24979 1.44947 0.692776
371 -0.750847 0.958891 0.735427 -0.805922 0.152642 -0.0539704 -0.0775686 0.248669 0.378476 0.494102 1.19528 0.838949
1326 -1.00503 0.0169905 0.211801 -1.73577 0.000669828 -0.749445 -0.100323 0.351143 0.991949 0.36577 0.53303 -0.152049
843 -1.16208 0.613002 0.317035 -0.994277 0.167964 -0.188181 -0.409096 -0.0862148 0.885814 0.0677062 0.623809 0.721476
943 -1.61567 1.54452 1.03252 -0.896737 0.0672555 0.917427 -0.340612 0.102965 0.596815 -0.164687 0.746725 -0.0406579
681 -0.79859 1.03668 0.766922 -0.722522 -0.509537 -0.172143 0.0116486 0.436965 0.0466178 0.477207 0.251382 0.559553
1476 -0.25997 1.39628 0.990083 -0.6798 -0.454928 -1.02269 0.307968 0.736223 0.52491 0.290491 0.138832 0.213166
1701 -0.863609 0.870821 1.13616 -0.365652 -0.488213 -0.840046 0.231687 0.837784 -0.074111 0.825416 0.322187 -0.0711166
1181 -1.10191 0.680834 0.91486 -0.179869 -0.19451 -1.01105 0.512795 -0.183346 -0.296898 0.666006 0.114208 0.317806
2208 -1.00055 0.765989 0.663181 -0.544142 0.0304923 -0.965523 0.567723 -0.179011 0.057259 0.60572 0.161112 0.474181
1191 -0.904586 0.970473 0.436986 -0.515155 -0.0843378 -1.19427 0.555491 -0.270716 0.161447 0.457154 0.230357 0.498903
2120 -1.04343 0.341236 0.202968 -0.845106 0.422582 -1.05281 -0.292555 -0.119147 0.827027 0.408704 0.171875 0.769662
1125 -0.926245 -0.25103 1.26173 -0.706036 -0.571358 -0.964751 -0.358211 0.112462 0.0846023 0.605397 0.611513 0.395558
830 -1.10615 0.347286 0.512241 -0.8144 -0.00756858 -0.584273 0.292046 0.458412 -0.638208 1.34181 0.12338 0.210189
2146 -1.27598 0.500154 0.743472 -0.364403 0.171246 -0.849071 0.533084 -0.266478 0.0707829 0.640884 0.541782 0.0635782
329 -1.1978 0.642365 0.909477 -0.345852 0.186442 -1.12951 0.648103 -0.151003 0.0424403 0.559747 0.279053 -0.0255537
2106 -0.81703 0.530091 0.692898 -0.651664 -0.120193 -1.04964 0.239835 -0.126618 0.224682 0.541646 0.476929 0.39564
1078 -1.23732 0.322514 0.601106 -0.781027 0.147065 -1.32339 0.57073 -0.321192 -0.0536734 0.357352 0.32716 -0.355638
975 -0.946985 0.785107 0.730249 -0.407439 0.0247578 -0.937412 0.45442 0.0862367 -0.101174 0.835747 0.320603 0.334423
743 -0.655321 0.981403 -0.426477 -1.16655 -0.50438 -0.831223 0.206804 0.517912 0.391778 0.716898 0.381746 0.396397
37 -1.00681 0.826151 0.44866 -0.602691 -0.616134 -0.389606 -0.0327062 0.569943 0.113868 0.92193 0.624599 0.644982
800 -0.74656 0.769408 0.594635 -0.741732 -1.05121 -0.532452 -0.184369 0.854504 -0.0906149 0.870813 -0.0129758 0.477694
1096 -1.02666 0.615391 0.777752 -0.666398 -0.614014 -0.566584 -0.0511198 0.495447 -0.15361 0.750917 0.417493 0.417182
2038 -0.726207 0.262494 1.27666 -1.22665 0.105644 -0.287068 -0.0224064 -0.126625 0.554194 0.343038 0.506564 0.765181
1804 -0.831397 0.292192 0.906948 -0.918115 -0.24901 -0.784948 -0.122174 0.0522105 0.193409 0.386394 0.456709 0.495014
1666 -1.10239 0.53008 0.488231 -0.994696 -0.161498 -0.194091 0.0731278 0.371162 0.213106 0.682152 0.984056 0.203637
1257 -1.04788 0.858625 0.298371 -0.80811 0.00984758 -1.09689 0.455327 -0.135869 0.203963 0.258424 0.414525 0.187883
2391 -1.12471 0.819359 -0.267988 -0.790646 0.173842 -0.822028 -0.171878 0.00896237 0.985287 0.30316 0.106253 0.837324
1099 -0.850094 0.658199 -0.0707766 -0.785587 0.318848 -1.16509 -0.330484 0.0225712 1.10938 0.251999 0.339942 0.604693
79 -0.976151 0.54712 0.776838 -0.40224 0.768723 -1.42172 0.0590924 0.0174555 0.307373 0.307226 0.242131 0.12934
509 -1.3166 0.338915 0.0532872 -0.578315 0.44094 -1.29724 -0.151923 -0.310992 0.707972 0.371961 0.219334 0.733046
2324 -0.981478 0.676595 0.289019 -0.721959 -0.0347613 -1.09942 0.492033 -0.274034 -0.0249418 0.66403 0.374055 0.470162
1280 -0.61177 0.581659 0.712988 -0.993964 0.0877505 -0.239617 0.370254 0.16957 0.407657 0.922652 0.763653 0.461689
835 -1.25345 0.566847 0.351681 -0.353485 0.190184 -1.35781 0.674813 -0.575359 0.0913266 0.585134 0.344793 0.17413
110 -1.10973 0.468268 0.441095 -0.614258 0.24723 -0.797076 0.221888 -0.135534 0.35393 0.553897 0.896653 0.242528
1272 -1.0724 0.0707278 0.532603 -1.45316 0.00871647 -1.0937 -0.0279838 0.00794143 0.458508 0.185341 0.401906 0.131777
1613 -0.92606 0.799911 0.4151 -0.771082 -0.209997 -0.940175 -0.134672 0.0675559 0.405445 0.0807485 0.489572 0.604859
1642 -0.862589 0.46233 0.850863 -0.737891 -0.249682 -0.978257 0.285614 -0.158818 0.147819 0.411521 0.487346 0.322042
672 -1.04552 0.455423 0.649211 -0.564198 -0.114616 -1.11867 0.153443 -0.00413141 -0.135081 0.572024 0.494094 0.179121
792 -0.66162 0.685645 0.927317 -0.403014 -0.41644 -0.872467 0.0547956 0.447592 -0.0406691 0.832939 0.553723 0.335258
1867 -1.03321 0.98956 1.02207 -0.0402753 -0.435037 -0.884133 0.132115 0.386102 -0.338801 0.653283 0.344564 0.499779
802 -1.18482 0.427733 0.7952 -0.115995 -0.294755 -1.07509 0.204074 -0.0806143 -0.242944 0.967104 0.418448 0.575196
1608 -1.01862 0.372003 0.846432 -0.594302 -0.206069 -1.11171 0.179091 -0.0542705 -0.0346301 0.492323 0.367408 0.104747
24 -0.963215 0.23712 0.501802 -1.20627 -0.156338 -0.744188 0.422551 0.575101 0.600652 1.092 0.0311044 -0.0548523
11 -0.892159 0.832678 0.254675 -0.677487 -0.614143 -0.890374 0.264668 0.478841 -0.0344516 0.816033 0.395843 0.243355
1168 -0.964533 0.544378 0.303161 -0.908158 -0.722206 -0.78782 -0.159229 0.498262 -0.49101 0.747255 0.41142 0.45913
1919 -0.982391 0.458525 0.654389 -0.641072 -0.831024 -0.57515 -0.0991488 0.444338 -0.150979 0.923872 0.430909 0.400605
2301 -0.862447 0.542955 0.456999 -0.817983 -0.457488 -0.424673 0.175313 0.410698 -0.0281755 1.10738 0.639889 0.570403
447 -0.868296 0.55932 0.451695 -1.21775 -0.315016 -0.358922 0.0203058 0.646982 -0.0419736 0.696458 0.702512 0.087773
1246 -0.943131 1.04853 0.684239 -0.617301 -0.591093 -0.298802 -0.0742619 0.643818 0.167562 0.546742 0.278061 0.561216
2081 -0.541241 0.417387 0.815442 -1.33587 -0.723766 -0.653664 0.0330491 0.323551 0.10626 0.520036 0.17855 0.433533
1696 -0.890427 0.938566 0.66177 -0.86685 -0.524948 -0.808355 0.00924772 0.795003 0.0695952 0.361206 0.531985 0.185596
1230 -1.14018 0.983004 0.872548 -0.408637 -0.0219614 -0.281223 0.141616 0.382176 0.5811 0.501986 0.531138 0.55914
1211 -1.60991 1.50441 0.655695 -0.724483 0.13426 0.809445 -0.116163 -0.148607 0.60619 -0.00854753 0.871179 0.245914
597 -1.31038 0.875943 0.1875 -0.917385 0.357369 0.0726703 -0.435995 0.0421699 1.01468 0.00830159 0.431126 0.458502
1828 -1.41445 0.937084 0.458661 -0.663407 0.00989218 0.428905 0.092649 -0.0699175 0.623587 0.626765 0.61162 0.989322
1576 -1.69885 1.38079 0.977705 -0.919855 0.134929 0.739535 -0.423584 -0.00289587 0.614637 -0.278533 0.781269 0.112875
1805 -1.76185 1.62146 0.689803 -0.902493 -0.00273722 1.00786 -0.169567 -0.128039 0.361042 -0.0724605 0.747192 0.0811802
1988 -1.23964 0.978438 0.685397 -0.903549 -0.320237 -0.174581 0.71814 0.212712 -0.307087 0.623809 0.146591 0.184191
749 -1.06676 0.441409 0.536995 -0.661527 0.0285736 -1.13992 0.330296 -0.110971 0.248653 0.573719 0.379417 0.118091
2236 -0.935479 0.725269 0.271595 -0.309076 0.443347 -1.23377 0.303117 -0.374455 0.247301 0.473215 0.607104 0.462671
892 -0.797229 0.745052 0.599413 -0.628199 0.0316855 -1.17334 0.338392 -0.299817 0.250025 0.353851 0.347132 0.527654
1047 -0.902199 0.898734 0.84351 -0.404688 -0.199775 -1.3149 0.273842 0.0572958 0.0172087 0.333247 0.304399 0.361989
369 -1.08679 0.189809 0.700974 -1.00562 -0.0422904 -1.22113 0.208811 -0.392418 0.413752 0.213614 0.0812723 0.207092
1971 -1.15356 0.418526 1.18724 -0.403046 -0.079644 -1.115 0.335569 -0.126102 -0.121174 0.456475 0.128415 0.20553
592 -0.95119 0.826904 0.155962 -0.818074 -0.404638 0.0687367 0.0690792 0.435286 -0.286112 1.27543 1.01567 0.852498
904 -1.13276 0.853334 0.915566 -0.235117 -0.684573 -0.863225 0.278298 0.286297 -0.460564 0.629425 0.0821851 0.242043
274 -0.685007 0.299615 0.101443 -1.59633 0.154394 -1.17665 -0.212504 0.123883 0.620785 -0.0345015 0.444446 -0.032718
2345 -0.751848 1.00146 0.757116 -0.409514 -0.831823 -0.502315 -0.0605652 0.909597 0.206226 0.820487 0.979049 0.278832
422 -0.90253 0.83822 1.05986 -0.580281 0.279505 0.281053 -0.203435 0.283027 0.558804 0.614646 1.24149 0.581887
1409 -1.16692 0.40521 0.654986 -1.57849 0.0730422 0.516342 -0.0141152 -0.136573 0.592138 0.399314 0.7357 0.445062
2121 -1.05634 0.275916 0.34272 -0.983604 0.176709 -0.353774 -0.265126 -0.0926122 0.403629 0.559135 0.955014 0.924101
383 -0.762098 0.89158 0.600318 -1.06515 0.101179 0.144376 0.211411 0.287553 0.0812125 0.826078 0.816724 0.686207
687 -0.768164 1.18245 0.728456 -0.582793 -0.892351 -0.852208 0.0437742 0.789632 -0.108912 0.351347 0.237496 0.0930942
884 -0.864336 0.755922 1.10692 -0.406679 -0.376396 -1.05001 0.187396 0.355672 -0.0241875 0.508627 0.367157 0.0737622
1960 -0.862677 0.71682 0.388798 -0.76875 -0.267689 -0.820127 0.179324 0.729469 -0.325632 0.9495 0.523667 -0.151646
590 -0.711477 0.878469 0.701619 -0.472225 -0.666426 -0.907656 0.0678902 0.305472 -0.220496 0.646274 0.276004 0.62391
1661 -0.736355 0.510899 1.22384 -0.151238 0.111542 -1.34248 0.221833 0.102042 0.0725843 0.623486 0.708909 0.0435164
394 -1.05298 0.771648 0.440216 -0.938559 -0.183035 -0.171479 -0.0343121 -0.0495295 0.0588702 0.398389 0.699469 0.984911
593 -1.08393 0.792086 0.443385 -0.990076 0.155448 -0.63973 0.0589152 -0.0459118 -0.416108 0.0903911 0.677065 0.510749
1913 -0.677603 0.665612 0.869819 -0.869034 0.240672 -0.953242 0.597682 0.00582031 -0.218163 0.643635 0.437334 0.162733
357 -0.103726 0.832016 0.564317 -1.05878 -0.49643 -0.859551 -0.174167 0.470075 0.570759 0.307592 1.0768 0.487831
1632 -0.690719 0.76271 0.707155 -0.464711 -0.345538 -1.01015 0.0709706 0.398838 0.018237 0.786023 0.705795 0.376365
2174 -0.950972 0.70583 0.453362 -0.861954 -0.277083 -0.555013 -0.019069 0.438203 -0.493491 0.729482 0.889102 0.472194
638 -0.975386 1.02755 0.431395 -0.351231 -0.159332 -0.487057 0.14177 0.121716 -0.328878 0.668318 0.918424 0.797468
1207 -0.572985 1.10355 0.157373 -1.00525 -0.959488 -0.615951 0.0810322 0.452001 -0.154188 0.669495 0.414122 0.881865
540 -1.01289 0.836385 0.337572 -0.871082 -0.469044 -0.531303 -0.00370914 0.29797 -0.295582 0.468906 0.673538 0.396887
727 -0.699007 0.856576 0.387577 -1.19334 -0.445486 -0.950838 0.0193739 0.421215 -0.756405 0.199978 0.712284 -0.0988977
2361 -1.02316 0.4564 -0.266242 -1.04116 0.347434 -0.561608 0.0756016 -0.0274101 0.0546674 0.922372 1.12941 0.636571
434 -0.877676 0.774349 0.168971 -0.948301 0.0652818 -0.614392 -0.296687 0.100011 0.341206 0.337521 0.543629 0.961055
225 -0.658875 0.532449 0.140561 -0.391541 0.205566 -1.38647 -0.404555 0.0208066 0.624783 0.467288 0.870713 0.797766
361 -0.717617 0.873584 0.736418 -0.502807 -0.128397 -1.28196 0.331482 -0.148168 0.291968 0.280121 0.430411 0.37553
1284 -0.597953 0.935353 0.929045 -0.687326 -0.116821 -0.870032 0.141139 0.117815 0.0199759 0.274465 0.307464 0.434123
1737 -0.622141 0.411765 0.515978 -1.70344 0.173364 -0.365318 -0.217561 0.103805 0.551173 0.327884 0.732863 0.734259
373 -0.733284 0.000451814 0.362458 -1.40878 0.434723 -0.917122 -0.182932 -0.291854 0.945767 0.315173 0.140626 0.295016
1881 -0.589924 0.82291 0.801645 -0.210904 -0.0011541 -1.06539 0.808278 0.175527 0.408829 1.21622 0.235941 0.224113
1278 -0.697861 0.399377 1.127 -0.59583 -0.0992537 -1.07543 0.311735 -0.339015 0.543595 0.46833 0.0432688 0.559928
1260 -1.14369 0.823192 1.27077 -0.377689 0.547555 -1.44305 0.36103 0.337549 0.162343 0.309341 0.339213 -0.0159581
903 -0.913135 0.553202 0.968399 -0.300455 -0.447982 -0.92574 -0.0559535 0.357136 -0.345237 0.858614 0.434328 0.537716
1138 -1.11578 0.71357 0.365763 -0.701935 -0.525118 -0.812153 -0.0666191 0.34654 -0.255118 0.621687 0.322019 0.593022
1704 -0.683838 1.13564 0.344486 -0.0869102 -0.248593 -1.04847 0.574909 0.284648 0.0902765 1.06665 0.600008 0.386636
1697 -0.929803 0.767531 0.620321 -0.616352 -0.315799 -0.585952 0.11717 0.347906 0.00981153 0.628272 0.580218 0.269481
1491 -1.21665 0.147296 0.839589 -0.58394 -0.331433 -1.09947 0.208396 -0.210718 0.432332 0.483695 0.292673 0.273584
577 -0.738747 0.878306 0.343838 -0.800496 -0.0693865 -1.21195 0.436808 -0.00118847 0.309616 0.37617 0.532156 0.190062
1585 -0.763588 0.899544 0.642068 -0.343742 0.165857 -1.06184 0.593741 -0.307909 0.108946 0.565041 0.638361 0.317727
273 -0.590207 0.8437 0.630117 -0.575109 -0.139831 -1.16534 0.48302 -0.22415 0.525793 0.433689 0.269195 0.646862
510 -0.598005 0.640935 0.719398 -1.29642 -0.307904 -0.810713 0.864386 0.15907 0.931711 0.733182 -0.464722 0.157286
1771 -1.03374 0.929521 0.333661 -0.564044 -0.34207 -1.02497 0.255495 -0.012789 -0.173227 0.407296 0.570926 0.458227
1730 -0.679836 0.91596 0.506237 -0.990078 -0.65057 -0.890335 0.00679295 -0.107063 -0.539428 0.191306 0.162222 1.12259
1185 -0.774839 1.21168 0.707904 -0.325412 -0.291785 -1.46348 0.16768 -0.229948 0.0572752 -0.289073 0.342072 0.471478
131 -0.47979 1.11921 1.27825 -0.679099 0.0683737 -1.05461 0.592125 0.175735 -0.236586 0.398116 0.358059 0.177691
777 -0.857275 0.788717 0.603784 -0.667905 -0.395369 -0.94502 -0.144813 0.212285 -0.591408 0.501815 0.42157 0.747875
2412 -0.679506 0.80223 0.436704 -1.00903 -0.507631 -0.861236 -0.0819543 0.362673 -0.194008 0.344478 0.673924 0.333794
2338 -0.603131 0.915138 0.625142 -0.953892 -0.727609 -0.668066 0.0165586 0.82211 -0.000141672 0.768426 0.302689 0.486514
337 -0.866697 0.82994 0.655568 -0.424676 0.243422 -1.17372 0.633677 0.24187 0.145736 0.712038 0.390982 -0.141688
2312 -1.47048 0.223045 0.527804 -0.825498 -0.369176 0.0153379 0.0111841 0.259787 -0.0877084 1.25044 0.739683 0.860035
1957 -0.925764 0.929797 0.446976 -0.429354 -0.298652 -0.75047 -0.0305396 0.493425 -0.113554 0.661112 0.812617 0.365845
70 -0.323701 0.904553 0.769237 -1.20513 -0.285867 -0.902563 0.310011 0.419147 0.0555236 0.342305 0.668169 0.084471
1510 -0.655256 0.805869 0.976531 -0.605128 -0.12052 -0.734562 0.371092 0.0832124 0.0241276 0.554168 0.606839 0.320224
1673 -0.552684 0.95496 1.03233 -1.22289 -0.319299 -0.942944 0.58762 0.394608 -0.339684 0.368749 -0.217839 0.0896626
1266 -1.082 0.424553 0.743722 -0.358876 -0.48332 -0.793919 -0.151514 0.485122 -0.221551 0.957521 0.121975 0.434667
915 -1.0091 0.443837 0.432414 -0.945134 -0.306467 -0.506806 -0.0196618 0.382892 -0.312012 0.860709 0.361911 0.348028
860 -0.918281 0.602359 0.645527 -0.445524 0.117559 -0.945551 0.283224 0.0492926 0.386697 0.674182 0.658698 0.236219
2062 -0.940637 0.635836 0.641136 -0.503228 -0.0192428 -1.17513 0.400432 -0.0986173 0.0607351 0.619723 0.371602 0.221924
2231 -1.01843 0.548521 0.661839 -0.663084 0.0621561 -1.21921 0.257613 -0.323188 0.683503 0.239488 -0.154141 0.52572
2281 -0.502135 1.36365 0.843505 -0.669888 1.32832 -0.361834 -1.65135 -0.179713 -0.171632 1.12493 -0.85424 0.00139563
1994 -0.741855 1.36573 0.405371 -0.8061 1.04438 -0.701764 -1.60172 -0.199104 0.000900777 0.854081 -1.32966 0.0844015
1787 -0.678022 1.20489 0.641435 -0.813311 1.40154 -0.360595 -1.51078 -0.223305 -0.119383 1.07441 -0.79836 0.0535753
1140 -0.360067 1.07583 0.436701 -1.19556 0.944697 -0.264564 -1.94635 -0.171846 -0.317502 0.978809 -0.708501 0.0629637
1556 -0.399252 1.67536 -0.0530321 -0.979233 1.25504 -0.469795 -1.56907 0.147657 0.0508356 1.19229 -0.877386 -0.133859
1653 -0.713187 1.12957 0.603719 -0.864992 1.06157 -0.479399 -1.69435 -0.0627896 0.155339 0.936003 -1.10198 0.078465
1062 -0.36464 1.21119 0.862052 -0.909375 1.17721 -0.335848 -1.86658 0.100564 0.186959 1.14489 -0.926804 0.00322082
295 -0.475712 0.950198 0.620087 -1.03507 1.39538 -0.543885 -1.61539 -0.248962 -0.171336 1.13153 -0.663395 0.0171889
2489 -0.736851 1.22315 0.375578 -1.10204 1.29919 -0.382243 -1.2129 -0.120231 -0.0473683 1.27389 -1.28781 -0.186351
1754 -0.825876 0.382205 -0.291415 -0.96138 0.765978 -1.14385 -0.567044 -0.0507631 0.877076 0.411291 0.462276 0.497576
352 -1.33619 1.60218 0.614873 -0.588759 0.282305 0.459168 0.0253449 -0.163719 0.785209 -0.161039 0.603681 0.350139
791 0.174706 1.75934 0.860867 -0.00798713 -0.973712 -0.686638 -1.4669 -0.95178 1.07603 0.602343 0.0919483 -1.44901
339 0.0641836 1.5206 0.936527 -0.436616 -0.876382 -0.649917 -1.35075 -0.96935 0.872052 0.390891 0.270096 -1.76111
1399 0.294051 1.72102 0.946281 -0.490154 -0.855249 -0.673156 -1.27799 -1.01003 0.875111 0.387474 0.0813111 -1.67115
1589 0.169001 1.51795 0.884912 -0.326342 -0.769663 -0.719643 -1.49143 -0.980798 0.872368 0.522021 0.338824 -1.70742
1464 0.171447 1.6357 0.905408 -0.377454 -0.817461 -0.741829 -1.56973 -1.0985 1.02691 0.301766 0.120823 -1.53874
2134 -0.0626053 1.67753 0.882949 -0.273056 -0.701884 -0.607557 -1.42741 -1.2083 0.978472 0.175816 0.475306 -1.67782
2087 -0.0994239 1.50531 0.656938 -0.285958 -0.70544 -0.662035 -1.65091 -1.2876 1.01187 0.204244 0.336091 -1.53116
47 0.118922 1.68056 0.827019 -0.35373 -0.812915 -0.610291 -1.4794 -1.17839 0.90379 0.244475 0.304789 -1.47445
275 -0.0791478 1.52058 0.85625 -0.324856 -0.898636 -0.736707 -1.53909 -1.02778 1.09056 0.178162 0.194397 -1.61637
1629 -0.158643 1.2333 0.770867 -0.156073 -0.921138 -0.492793 -1.55669 -1.16476 0.694804 0.622096 0.318057 -1.46524
539 0.108255 0.9607 0.325551 0.0323578 -1.12609 -0.419276 -1.77975 -0.974038 0.892714 1.60058 0.265199 -0.821166
1072 0.182493 0.849795 -0.0627328 -0.459041 -0.6562 0.0582831 -1.18716 -1.36086 1.06233 2.25164 0.46988 -0.490641
1169 -0.193634 0.788293 0.139482 -0.139887 -0.514181 0.147158 -0.884492 -1.66673 0.988212 2.13576 0.283896 -0.434911
1506 -0.526125 0.596296 0.0242534 -0.372708 -0.535639 0.0927127 -0.984476 -1.85167 0.782359 1.81369 0.171768 -0.622447
2104 -0.108272 0.540692 0.246649 -0.241308 -0.736865 0.121936 -1.10205 -1.39118 0.882781 1.96356 0.603856 -0.359292
1024 -0.352442 0.996896 0.860288 0.0595407 -1.17834 -0.349801 -1.59286 -1.40123 0.162045 0.886779 0.40979 -1.20068
879 -0.305127 1.13624 0.421921 -0.0971773 -1.07608 -0.471004 -1.36835 -1.2099 0.316679 1.12488 0.0116025 -1.35333
308 0.245874 1.74892 0.722083 -0.167322 -0.741335 -0.716438 -1.1889 -0.985057 0.746427 0.598994 0.314765 -1.7148
2427 -0.16783 1.22336 0.470733 -0.553816 -0.698193 0.0208351 -0.979872 -1.73938 0.0995651 0.882535 0.307155 -1.07785
1793 -0.214666 1.11029 1.05863 -0.27581 -1.1162 -0.662461 -1.6418 -1.40133 0.776276 0.345001 -0.199736 -1.40531
2452 -0.0244999 1.3468 0.876383 -0.073615 -0.822968 -0.481228 -1.57421 -1.0424 0.976884 0.71938 0.369511 -1.50296
2356 -0.156911 1.18285 0.771409 0.339122 -0.909247 -0.402148 -1.41163 -1.15791 0.746548 1.29128 0.0455798 -1.17657
546 -0.331259 1.18045 0.303664 -0.535105 -0.871484 0.0707658 -1.0577 -1.73204 -0.0748888 1.08086 0.0430653 -0.92902
711 -0.326888 1.09045 0.408206 -0.753956 -1.00854 0.351234 -0.854437 -1.56576 -0.282959 1.39011 -0.238086 -1.09558
858 -0.242818 1.12974 0.362347 -0.329933 -0.620723 0.104924 -0.353803 -1.55207 0.201558 1.98713 -0.291092 -1.24885
1936 -0.060864 1.3719 -0.386787 -0.45686 -1.07982 -0.239196 -0.848839 -1.56679 0.2116 1.74061 -0.311799 -0.541266
1107 0.152074 1.67483 0.807928 0.111798 -0.808687 -0.902794 -1.12635 -1.03173 0.58253 0.813466 0.285311 -1.73694
1677 0.00433114 1.54436 0.429088 -0.758054 -0.773259 -0.25709 -1.35569 -1.36314 0.158928 0.423523 0.318738 -1.50138
349 -0.591771 0.84849 0.406312 -0.615066 -0.675846 0.121347 -1.08797 -1.63871 -0.534522 1.12652 0.485807 -1.50745
1839 -0.36341 1.10394 -0.0646593 -0.515499 -0.819407 -0.150953 -0.550245 -1.62897 -0.0569338 1.66173 -0.149025 -1.26416
1943 -0.233549 1.0766 0.156546 -1.05179 -1.00021 0.115462 -1.01642 -1.77201 -0.321975 1.00547 -0.0241462 -0.965289
690 -0.535517 1.00522 0.0268619 -0.822397 -1.28496 -0.115216 -1.09164 -2.002 0.0485379 0.802841 -0.167691 -0.720449
838 0.134188 1.67893 0.911134 -0.467074 -0.516103 -0.601877 -1.43107 -1.3852 0.836334 0.149068 0.333605 -1.62946
1009 0.107745 1.88379 -0.481765 -0.320088 -1.01909 -0.390531 -0.772831 -1.78973 0.160428 1.34859 -0.0296698 -0.452879
668 -0.157819 1.16958 0.361965 -0.401659 -0.857293 -0.242581 -1.0222 -1.5316 0.0928227 1.08177 0.279257 -1.21486
240 0.0891956 1.48571 0.897138 -0.187151 -0.763019 -0.209349 -0.753722 -1.46541 -0.0432618 1.0734 0.350269 -1.50901
549 0.00507784 1.33776 0.614438 -0.126046 -0.668079 -0.0954587 -0.968691 -1.47868 0.0153782 1.239 0.831716 -1.28379
867 0.0941453 1.50803 0.735378 -0.294402 -0.962259 0.115604 -0.96939 -1.73678 -0.357126 1.18372 0.322033 -0.815153
2283 0.215345 1.56315 0.854478 0.0721995 -1.0532 -0.00835336 -0.98046 -1.69116 0.137592 1.19604 0.639681 -0.652305
636 -0.584147 1.14831 -0.0686366 0.287134 -0.654973 -0.0584718 -1.09854 -1.36433 0.694218 1.71105 0.242636 -0.984904
1157 -0.540162 0.827718 0.0115663 -0.170422 -0.760502 0.215052 -1.26143 -1.6191 0.579287 1.71825 0.296201 -0.569397
1405 -0.73222 0.844814 0.361181 -0.545554 -0.308598 -0.788039 0.51923 0.062934 -0.0109009 1.00621 0.254983 0.739361
496 -1.03583 0.733306 0.704745 -0.298478 -0.440519 -1.18013 0.12934 0.479886 -0.115303 0.540676 0.568971 -0.123635
692 -0.387753 1.16817 0.636653 -0.369295 -0.508013 -0.892629 0.252262 0.574608 -0.044715 0.829996 0.593153 0.392618
2223 -0.478283 1.07586 0.42367 -0.578589 -0.420845 -1.00627 0.184825 0.140065 0.360728 0.448839 0.229935 0.803064
484 -0.361445 1.06427 0.352549 -0.834075 -0.590217 -0.838537 0.0472515 0.494093 0.0701849 0.549385 0.300887 0.60735
1441 -1.14196 0.777135 0.495601 -0.2943 -0.838459 -0.916191 -0.137392 0.827636 -0.167256 0.904153 0.264259 0.325864
2000 -0.810149 0.575808 0.707877 -0.649699 0.11623 -1.09833 0.625883 0.0385243 -0.0153402 0.775337 0.623732 -0.14647
1089 -0.799621 0.634476 0.61964 -0.802616 0.0560111 -1.26142 0.239481 -0.0357598 0.145108 0.378505 0.523497 0.229818
384 -0.583482 0.719611 0.628094 -0.800329 0.092147 -1.1666 0.444683 -0.176681 -0.487401 0.57847 0.515563 0.344625
2455 -0.999289 0.847526 0.41374 -0.691823 0.107968 -0.867322 0.170321 -0.0412586 0.33599 0.282197 0.643658 0.708609
1729 -0.791161 0.629498 0.212658 -0.876162 -0.174017 -0.897296 0.102697 0.148677 -0.197814 0.722015 0.714828 0.503568
1816 -0.897108 0.67509 0.570067 -0.333349 0.157787 -1.09065 0.589043 -0.122746 0.2234 0.87381 0.393164 0.27168
443 -0.60657 0.598683 0.963716 -0.326347 0.0116624 -1.15319 0.426836 -0.325874 -0.194428 1.03791 0.187582 0.965248
1802 -0.86503 0.442091 1.02615 -0.433013 -0.0100441 -0.975499 0.407249 -0.394882 -0.435568 0.991297 0.125673 0.974027
2220 -0.894956 0.7242 1.14842 -0.287133 0.122351 -1.13242 0.502033 -0.165028 0.01942 0.653411 0.149362 0.451281
128 -1.01913 0.547821 0.929365 -0.3038 -0.122178 -0.792268 0.400184 -0.0614642 -0.294255 0.910542 0.49118 0.441395
1193 -0.950883 0.415159 0.888296 -0.578839 -0.121093 -0.992497 0.270661 0.0206786 0.210117 0.602799 0.479089 0.176226
2043 -0.820376 0.575686 1.04986 -0.322781 -0.430672 -0.973303 0.302288 0.261934 -0.0993442 0.818313 0.384364 0.250485
1821 -0.63584 1.22086 0.443201 -0.458176 -0.475344 -0.887948 0.241475 0.267301 -0.00430882 0.496745 0.592674 0.516581
1036 -0.625921 1.17941 0.393985 -0.467774 0.0407185 -1.33276 0.660758 -0.219189 0.192763 0.369075 0.355195 0.31531
503 -0.833646 0.840322 0.825292 -0.719215 -0.761224 -0.514227 0.163288 0.59883 -0.628371 0.876838 0.213034 0.424066
2186 -0.933085 0.819402 0.922076 -0.430011 -0.344413 -0.71101 0.0864383 0.390576 -0.0386852 0.61921 0.231698 0.399483
2292 -0.947556 0.803224 0.275105 -0.299451 -0.178706 -1.07877 0.190515 -0.0308102 -0.0954023 0.638109 0.833631 0.459492
2334 -1.11374 0.439993 0.644865 -0.706218 -0.453414 -0.843772 -0.201439 0.459554 -0.550217 0.697545 0.366687 0.196008
261 -1.09881 0.518048 0.62852 -0.61978 -0.678054 -0.809605 -0.353977 0.771338 -0.461049 0.725743 0.549215 0.191112
2034 -0.834338 0.772026 0.625623 -0.677268 -0.864585 -0.677116 -0.151311 0.610363 -0.142453 0.672596 0.425204 0.39293
2170 -0.594809 0.465853 0.508566 -0.650227 -0.296129 -0.894841 0.000355987 0.352519 0.087305 0.992766 0.719191 0.518487
2250 -0.710172 0.427617 0.794027 -0.747476 0.0569024 -0.884981 0.307622 0.10876 0.0266473 0.88935 0.688696 0.281732
989 -0.617458 0.638099 1.05753 -0.557466 -0.103499 -0.905498 0.144579 0.140565 0.191187 0.562091 0.43614 0.367881
1654 -0.49252 0.698302 1.40386 -0.302046 -0.114874 -1.04338 0.378044 -0.276869 0.431485 0.538406 0.129301 0.80635
2272 -0.846022 0.995345 0.613292 -0.622808 -0.681977 -0.770245 0.177507 0.208849 -0.121366 0.498881 0.205544 0.751239
626 -0.530566 0.622258 0.896015 -0.596528 -0.95791 -0.804634 -0.0411869 0.00881386 0.07021 0.629555 0.305134 1.15915
1086 -0.913598 0.773923 0.663096 -0.590285 -1.09187 -0.447964 -0.296919 0.455617 -0.367042 0.704961 0.294635 1.01923
1669 -0.660131 0.943319 0.715113 -0.617099 -0.434885 -0.669024 0.29469 0.6176 -0.00100066 0.880695 0.534523 0.12533
1769 -0.612788 0.744571 0.495627 -1.06332 -0.402555 -0.705147 -0.0881801 0.614002 0.0099888 0.551074 0.600566 0.176462
368 -1.14904 0.611455 0.474062 -0.897083 -0.567801 -0.485212 -0.178905 0.780911 -0.180383 0.625834 0.7106 -0.00258103
1063 -0.370322 0.909657 -0.169651 -0.57847 -0.616875 0.157406 -0.888124 -1.74907 0.510151 1.7769 -0.0424188 -0.678537
2157 -0.0127357 1.30403 0.234381 0.0491612 -0.562644 0.30238 -0.799727 -1.51913 0.692979 1.97286 0.275844 -0.405363
1541 -0.48006 0.908893 0.318713 -0.288909 -1.25177 -0.326168 -0.838016 -1.97058 -0.0263635 1.34216 -0.0978303 -0.809115
2445 0.162313 1.4903 0.68104 -0.457751 -0.585785 -0.32879 -1.30833 -1.33263 0.0776569 0.603669 0.611869 -1.48522
567 -0.0996625 1.224 0.332954 -0.69653 -0.655147 -0.0242076 -0.868465 -1.67863 -0.0801021 1.0987 0.0609856 -1.1356
1104 -0.256685 0.781858 0.746304 -0.488377 -1.12527 -0.107686 -0.987584 -1.4723 -0.331075 1.55612 0.00769173 -1.36811
1451 -0.120865 1.30039 0.90594 -0.212267 -1.03038 0.0488146 -1.07685 -1.47335 0.0158108 1.15262 -0.0354501 -1.08488
1431 -0.426035 1.45659 0.508303 0.304382 -1.0389 0.111048 -1.07838 -1.4634 0.499393 1.2257 0.0528868 -0.795174
2257 0.0189176 1.7219 0.526294 0.00147668 -1.17343 -0.10561 -1.31015 -0.927355 1.18941 1.04096 -0.16091 -1.1216
189 -0.41127 1.31394 0.2489 -0.462014 -1.24093 0.0776772 -1.25083 -1.58791 0.238162 0.74739 -0.100737 -0.841972
1860 -0.836678 1.16769 0.565404 0.0243361 -1.03283 0.252242 -0.902862 -1.80523 -0.0993853 1.17231 0.190411 -1.12266
483 0.122916 1.47388 0.611652 -0.178591 -0.67819 -0.506866 -1.20918 -1.27017 0.130714 0.888437 0.534117 -1.545
245 0.17951 1.61912 0.788159 -0.531715 -0.957433 -0.782732 -1.63618 -0.831578 1.0498 0.309169 0.178426 -1.65396
1270 -0.0599986 1.56632 0.657362 -0.164679 -0.974349 -0.518917 -1.4539 -1.13835 0.475046 0.531803 0.275547 -1.45021
1046 -0.074368 1.09617 0.531805 0.0228587 -0.817141 -0.146959 -1.4284 -0.951442 0.932624 1.48292 0.371944 -1.28938
972 0.0557935 1.28869 0.792892 -0.405988 -0.95538 -0.204453 -1.42171 -1.4315 0.190136 0.688253 0.371637 -1.09927
669 0.012226 1.14952 0.56457 -0.466327 -0.745103 -0.285854 -1.47455 -1.54552 -0.065803 0.933649 0.408855 -1.10149
1663 -0.335342 1.25774 -0.221531 -0.856701 -0.885645 -0.305509 -1.08133 -2.22766 -0.00863469 0.523856 0.264693 -0.741008
987 -0.761063 1.09354 -0.277737 -0.607116 -1.1423 0.0159723 -1.05704 -1.72616 -0.00604448 1.10679 0.0122013 -0.939469
954 -0.542196 0.692883 0.435938 -0.553638 -1.3024 -0.143774 -1.42048 -1.66791 -0.0886093 1.06696 -0.23488 -0.914385
1108 -0.387649 1.1354 0.67467 -0.0349655 -0.535028 -0.109875 -1.35361 -1.85298 -0.342888 0.862946 0.763848 -1.11166
2198 -0.566815 1.02492 -0.00234379 -0.26664 -0.857388 0.0226638 -1.10925 -1.82483 0.222985 1.29052 -0.00340646 -0.616665
1298 -0.180626 1.45363 0.379634 -0.287606 -0.845985 0.183168 -1.09216 -1.7219 -0.0205789 1.09003 0.123167 -0.65161
1724 -0.00975431 1.47439 0.371724 0.066988 -0.696482 -0.0319878 -1.66896 -1.60365 -0.226272 0.988626 0.952267 -0.536847
2241 -0.0412673 1.2376 -0.115736 -0.783966 -0.681697 -0.369737 -1.25966 -1.97105 -0.308079 0.848353 -0.224282 -0.513041
934 -0.214063 1.15115 0.620084 -0.674114 -0.980395 0.191321 -1.42147 -1.71175 -0.412658 0.857423 0.0790748 -0.830953
1725 -0.0224776 1.26589 0.316442 -0.310439 -0.717378 -0.0903299 -1.13934 -1.60597 0.339665 1.14742 0.331 -0.832651
2484 0.262641 1.52366 0.750064 -0.33334 -0.775568 -0.643437 -1.21107 -1.26562 0.334559 0.722534 0.408334 -1.56003
2302 0.274101 1.4878 0.819804 -0.538423 -0.842635 -0.560068 -1.38859 -1.33669 0.437941 0.482714 0.160652 -1.35709
2181 -0.0782895 1.18232 0.678513 -0.425526 -0.938221 0.0760257 -0.803327 -1.79754 -0.108096 1.32345 0.150362 -0.890897
1235 0.0535685 1.23224 0.587092 -0.887979 -1.06516 0.278383 -1.21475 -1.3455 -0.457558 1.11765 0.131393 -1.09537
92 -0.421966 1.12605 0.529929 -0.756516 -0.609353 0.521651 -1.23759 -1.59153 -0.444263 1.02368 0.430702 -1.31922
1146 -0.565279 1.18048 0.436472 -0.39033 -0.641306 0.217852 -0.850194 -1.61687 -0.211154 1.25284 0.17063 -1.43458
446 -0.411155 1.28006 0.142472 0.31165 -0.833139 0.369086 -1.30697 -1.2958 1.01213 1.58987 0.682526 -0.46719
2020 -0.46423 1.10952 0.278715 -0.514698 -1.13021 0.394345 -1.12167 -1.31867 -0.408156 1.58534 -0.273045 -1.031
1523 -0.523229 0.962963 -0.00249411 -0.774131 -1.20662 -0.0905066 -0.824921 -1.70159 -0.125692 1.3878 -0.588786 -0.969716
2354 -0.305024 1.03641 0.482764 -0.257643 -0.977234 -0.0520479 -0.870897 -2.1234 0.210025 1.29027 -0.312592 -0.515325
2411 -0.300967 1.09652 0.0975804 -0.312438 -0.8075 0.0956185 -0.886189 -1.88611 0.477259 1.51365 -0.0596685 -0.396185
2488 -0.290356 0.943786 0.264966 0.0740298 -0.534102 0.168385 -0.929552 -1.80664 1.1216 1.71032 0.646055 -0.345086
1714 -0.196425 0.97638 0.222069 -0.075211 -0.51985 0.122855 -0.785477 -1.70546 1.18918 1.83082 0.289106 -0.492034
281 -1.69054 1.71857 0.765706 -1.05723 0.0554518 1.05122 -0.0119033 -0.326784 0.426001 -0.150265 0.52215 0.146123
2029 -1.71445 1.691 0.750821 -0.797912 -0.0260312 0.943029 -0.224657 -0.0163002 0.543904 -0.157373 0.718898 0.0525358
2291 -1.86123 1.69689 0.63921 -0.885418 -0.0881178 0.950811 -0.0131748 -0.178872 0.703385 -0.160344 0.512669 -0.0524832
1944 -1.63993 1.29843 0.909805 -0.885754 -0.00574007 0.746601 -0.303813 -0.00205999 0.741634 -0.128967 0.724178 0.0449664
1812 -1.06857 0.44276 0.749731 -0.704154 -0.645834 -0.523332 -0.0569854 0.555755 -0.0994902 0.846986 0.422769 0.162057
1972 -0.214211 0.796892 -0.0134126 -1.1185 -0.0708981 -1.19449 -0.526822 0.639006 0.581163 0.210264 1.19742 0.211378
650 -0.709711 0.922823 0.552135 -0.495093 -0.21727 -0.92005 0.107132 0.23495 0.133799 0.508675 0.557789 0.390651
1568 -0.603422 0.531862 0.491055 -1.04857 -0.074749 -0.884086 0.238006 -0.0564117 -0.0967328 0.555075 0.760409 0.47664
1054 -1.1254 0.682458 -0.00782416 -0.844536 -0.224049 -0.489633 0.147552 -0.253564 -0.173803 0.5425 1.08197 0.828679
673 -0.650711 0.668775 0.757376 -0.45682 -0.241129 -1.12802 0.128846 0.496444 0.018797 0.737638 0.864003 0.0160609
2261 -0.663039 0.621313 0.853848 -0.879806 -0.1097 -0.946706 0.1426 -0.169646 0.564387 0.258044 0.259636 0.652224
1459 -0.865655 0.678369 0.757436 -0.449573 0.358237 -1.11656 0.738043 -0.802158 -0.173701 0.596822 0.431862 0.642717
1564 -1.07789 0.285086 1.04284 -0.491006 -0.0964533 -0.9305 0.240251 -0.0643534 0.0880935 0.747174 0.530239 0.299166
529 -0.835026 0.906039 0.603942 -0.224346 -0.331999 -0.973575 0.201285 0.377358 0.34102 0.744416 0.247824 0.458232
1690 -0.672098 0.942258 0.108269 -1.11583 0.0448726 -1.13111 -0.00491804 0.279955 0.359455 0.000499983 0.6221 0.224966
121 -1.07695 0.579976 0.409897 -0.581771 0.385454 -1.27599 0.325385 0.108897 0.588981 0.517631 0.519751 -0.0186498
661 -0.419169 1.15997 0.0467837 -0.875714 -0.193735 -1.01002 -0.0118827 0.179938 0.542821 0.146768 0.430295 0.63856
2299 -0.454951 0.446826 1.43009 -0.627375 0.0946027 -1.1549 0.203557 -0.635782 0.631128 0.181496 0.128722 0.900329
778 -0.905255 0.401657 0.306926 -0.94561 0.518005 -0.916506 -0.31872 -0.0806251 1.15719 0.363234 -0.153155 0.633224
2308 -0.809405 0.563789 0.226123 -1.05835 0.282617 -0.829627 -0.174015 -0.147305 1.23407 0.2404 -0.222852 0.889069
1909 -0.896798 0.436736 0.498799 -1.08032 -0.117638 -0.426025 -0.0473944 0.0980527 0.538663 0.441308 0.620617 0.426339
1363 -1.12921 0.102089 0.503175 -0.973717 0.224765 -0.920015 0.289771 -0.398452 1.18683 0.554268 -0.248088 0.465005
1354 -1.25885 0.742507 -0.0267271 -0.993259 0.446637 -0.469985 -0.206366 -0.153427 1.04553 0.128446 0.192242 0.659462
464 -1.15684 0.216966 0.0713193 -0.969956 -0.0897486 -0.694025 -0.181274 -0.257057 -0.00176972 0.58385 0.927188 0.902301
1122 -1.05808 0.340815 0.490558 -0.737963 0.196657 -1.13424 0.23199 -0.327793 0.426373 0.518841 0.409071 0.415284
1891 -1.07681 0.731097 0.733046 -1.0959 0.313659 -0.233711 0.196364 0.228036 0.071912 0.439502 0.829255 0.322768
1706 -0.987125 0.42781 0.578479 -1.1783 0.199127 -0.263769 0.311079 0.0464739 -0.359462 0.927293 0.434633 0.711582
412 -0.84081 1.13526 0.463954 -0.41278 -0.452034 -0.691418 0.496212 0.402852 -0.0516475 0.96507 0.178699 0.610433
2161 -0.796612 0.727548 0.0114947 -0.783183 0.507453 -0.753704 -0.389157 0.0209535 1.06899 0.403374 0.0913789 0.784924
1183 -0.379985 0.264155 -0.112561 -0.820546 -0.307855 0.0148269 -0.387332 -0.498568 1.78319 0.530814 0.867925 0.0772679
1782 -1.0599 0.697825 -0.140033 -0.751459 0.159638 -0.661305 -0.0933434 -0.232253 1.35035 0.340349 0.0987649 0.85242
1935 -0.90929 0.431171 0.895849 -0.880459 -0.0172214 -1.18432 0.406736 -0.550632 0.709783 0.147093 -0.396633 0.486804
1291 -1.10462 0.0335935 0.963564 -1.00227 -0.0923015 -1.27627 0.474578 -0.667112 0.459108 0.207076 0.122016 0.048514
1454 -1.0761 0.462758 0.432344 -0.604692 0.112201 -1.08148 0.210935 -0.349488 0.159329 0.3934 0.697942 0.280197
957 -0.701503 0.907346 0.597067 -0.823255 -0.469202 -0.70467 0.149035 0.433801 0.0372291 0.640985 0.418766 0.456384
1836 -0.317157 1.14871 0.333042 -0.859973 0.0930462 -1.36216 0.329039 -0.152205 0.129728 0.18982 0.666339 0.667311
896 -0.620061 1.22876 0.477005 -0.650277 0.3227 -1.40951 0.319051 -0.177658 0.30429 0.0315406 0.298251 0.639931
221 -0.733066 0.348122 1.287 -0.48279 0.0539711 -1.06639 0.291045 -0.337036 -0.115463 0.671205 0.245198 0.671006
531 -1.08711 0.553473 0.847766 -0.0829614 0.166173 -1.16106 0.39425 -0.114782 0.151136 0.651418 0.541451 0.164393
2037 -0.907245 0.458379 0.565424 -0.784182 -0.0976071 -0.966048 0.123394 -0.120185 0.209605 0.480596 0.341939 0.508872
937 -1.18058 0.577975 0.655553 -0.438236 0.40318 -1.16889 0.683425 -0.397142 0.0119286 0.604245 0.311822 0.158998
1413 -1.02814 0.491254 0.651827 -0.679102 0.0519297 -1.03907 0.227939 -0.103056 0.141102 0.430477 0.509318 0.209934
2288 -1.56715 0.54839 0.679077 -0.501411 -0.127948 -1.14952 0.173284 0.210358 -0.611106 0.428666 0.259094 0.0152093
1007 -1.06407 0.695007 0.12867 -0.733184 -0.248303 -0.752934 0.0904605 0.204023 -0.202914 0.643619 0.874383 0.251085
463 -1.15936 0.536649 0.512936 -0.765282 -0.331159 -0.683167 -0.00679322 0.4424 -0.203294 0.826973 0.604488 0.397947
1974 -1.04261 0.288806 0.604935 -1.11869 0.193419 -1.26731 0.297481 -0.307793 0.508131 0.110209 0.255727 0.00813029
1513 -1.39662 1.02406 0.948484 -0.958045 0.230913 0.587433 -0.327842 0.264126 0.684252 0.158457 1.01554 0.14786
2422 -1.66443 1.19976 0.386505 -0.832145 0.0951325 0.282781 -0.373339 0.239978 1.40556 -0.0179909 0.258366 0.712371
1033 -1.08433 0.638598 1.17048 -1.11878 -0.103947 0.552701 -0.329924 0.14616 0.769531 0.274874 0.934878 0.462689
111 -0.967942 1.05205 0.869767 -0.85237 -0.0636869 0.388565 -0.20141 0.334056 0.854466 0.287525 0.950749 0.363456
1479 -0.668615 0.445138 0.875069 -1.00044 -0.90229 -0.432987 -0.161958 0.798612 0.210172 0.755189 0.61672 0.0738335
2207 -0.939585 0.592101 0.961511 -0.377056 -0.0586229 -0.875788 0.266537 0.244584 0.243569 0.830458 0.45493 0.254867
878 -0.773197 0.76781 0.639656 -0.638791 -0.700136 -0.611383 0.0374618 0.921134 0.049138 1.02214 0.282253 0.240109
2402 -1.13485 0.754187 0.50905 -0.183169 0.0759787 -1.53055 0.23401 0.778665 0.523534 0.692053 0.573786 -0.366747
1417 -0.912693 0.712566 0.494879 -0.755551 -0.745293 -0.797564 -0.212277 0.684545 -0.40728 0.564052 0.486756 0.211357
2403 -0.736614 0.957604 0.557434 -0.706864 -0.250244 -0.480127 -0.0173184 0.488276 0.117049 0.534462 1.08476 0.356541
1419 -0.583576 0.923939 0.591286 -0.651179 0.17702 -0.97357 0.47696 -0.115403 0.0599341 0.72201 0.580182 0.699121
941 -0.577197 1.0135 0.562813 -0.67016 -0.0497984 -1.21925 0.486105 0.0735 0.282114 0.525368 0.225813 0.268277
2005 -0.78711 1.28494 0.373198 -0.427854 0.137879 -1.23738 0.481322 -0.358285 0.0921227 0.110955 0.0222386 0.733995
1338 -0.928747 0.734196 0.46835 -0.585634 0.0523415 -1.22336 0.451181 -0.261877 0.0483779 0.486776 0.26421 0.277558
512 -0.810189 0.590615 0.912692 -0.566205 0.00877668 -1.12477 0.326204 -0.266483 0.0338467 0.510918 0.35956 0.444401
1045 -0.992282 0.694865 0.473204 -0.585771 0.360417 -1.17645 0.564631 -0.408845 -0.187476 0.63389 0.445047 0.361067
2224 -0.839823 0.798305 0.487072 -0.475482 0.273515 -1.06931 0.293553 -0.166663 0.209922 0.571698 0.702563 0.530517
1655 -0.676206 0.818214 0.898293 -0.690725 0.0667693 -1.48212 0.278106 0.296109 0.304313 0.284283 0.454761 0.127755
1498 -0.909206 0.473654 0.585911 -0.789803 0.107383 -1.05152 0.543832 0.0302301 0.0102005 0.650622 0.431488 -0.174453
147 -0.840905 0.642179 0.608961 -0.397644 0.0933073 -1.43433 0.203699 -0.159174 0.231207 0.193111 0.462094 0.118739
2376 -1.35929 0.501918 0.159062 -0.355122 0.0749622 -1.42446 0.370856 -0.490444 0.279127 0.318845 0.320543 0.100525
1374 -0.861105 0.681414 0.686797 -0.483272 0.0703694 -1.25791 0.61048 -0.135223 0.255644 0.440669 0.45993 -0.115595
729 -0.466562 0.663129 1.05186 -1.08681 -0.184511 -0.783534 0.208275 0.473198 -0.1453 0.520443 0.301423 0.106908
382 0.0875373 1.24498 0.976537 0.230018 -0.975814 -0.940467 -1.31648 -1.55496 0.595815 0.872854 -0.101591 -1.15646
1533 -0.267063 1.20477 0.236158 -0.599017 -0.894431 0.144379 -0.6719 -1.60737 0.0934424 1.4019 -0.0691256 -1.06393
950 0.258274 1.40132 0.625266 -0.857541 -0.796183 0.0431177 -0.764118 -1.87084 -0.213767 1.01298 -0.0304737 -0.936092
256 0.296606 1.26259 0.995746 -0.574484 -0.59015 -0.527479 -1.29819 -1.45687 0.327994 0.557026 0.575364 -1.4919
1885 0.162294 1.65663 0.759394 -0.210634 -0.984111 -0.465842 -1.40781 -0.925495 0.83766 0.643204 0.22873 -1.43877
1569 0.301911 1.6067 0.754786 -0.519603 -0.884378 -0.481377 -1.50161 -1.00457 0.419354 0.445976 0.452608 -1.48533
1747 -0.133023 1.82351 0.621944 0.0904294 -0.682518 -0.792333 -1.41093 -1.1376 0.821053 0.352204 0.197577 -1.66536
1550 0.18346 1.77057 0.887163 -0.408317 -0.888413 -0.719672 -1.30399 -0.965933 0.942474 0.365625 0.263709 -1.73419
940 0.229601 1.50237 0.9552 -0.528763 -1.06948 -0.717645 -1.44863 -1.07859 0.731808 0.410616 0.185067 -1.59626
318 0.186669 1.51136 0.762181 -0.108004 -0.643594 -0.475828 -1.27628 -1.4812 -0.21274 0.806796 0.772035 -1.33663
2471 0.184214 1.34521 0.896193 -0.423773 -0.772913 -0.278364 -1.21724 -1.44073 0.142832 0.755851 0.337448 -1.29654
710 0.011662 1.55383 1.09803 -0.250669 -0.997674 -0.485077 -1.47338 -0.887322 0.820732 0.43234 0.205295 -1.63623
2214 -0.061817 1.76782 0.639813 -0.235474 -0.495604 -0.761903 -1.2994 -1.20912 0.897236 0.186643 0.412596 -1.86386
2212 -0.313634 1.31059 0.134109 -0.583203 -0.66238 -0.148629 -1.07392 -1.81471 -0.260491 0.804575 0.323788 -1.08301
1488 -0.15883 1.3143 0.503592 -0.696819 -0.518046 -0.00142389 -1.00798 -1.78545 -0.283102 0.688972 0.444169 -1.34535
12 -0.0909996 1.46246 0.573937 -0.666033 -0.998543 0.549256 -1.12423 -1.61346 -0.318558 1.11701 -0.0143935 -0.752576
628 -0.352354 1.02424 0.0548387 -0.458631 -1.00815 -0.109115 -1.03982 -1.93045 0.352794 1.34011 -0.335643 -0.473318
2248 -0.415465 0.832015 0.165687 -0.407698 -0.741697 0.163133 -0.888983 -1.59302 0.489555 1.61836 0.088681 -0.822867
1852 -0.365657 0.840517 0.129462 -0.311322 -0.819938 0.0380973 -0.959033 -1.94379 0.755466 1.61409 -0.0848027 -0.415681
736 -0.287872 0.407848 0.226356 -0.3851 -0.782828 -0.269388 -1.01811 -1.92163 0.408974 1.99903 0.0296605 -0.615873
222 -0.23494 0.618766 0.0151403 -0.36854 -0.60038 0.0634935 -1.25822 -1.59149 0.861179 2.01942 0.318106 -0.498254
1999 0.346461 1.21976 0.339137 -0.688 -0.802635 0.116107 -0.683022 -1.71732 0.00753264 1.76377 -0.0408895 -0.57278
1817 -0.318267 1.03851 -0.084042 -0.210265 -0.922288 0.258888 -1.23156 -1.55978 0.830779 1.77262 0.216657 -0.328663
1777 -0.338315 0.893369 0.184238 -0.216525 -0.876862 0.290456 -1.23274 -1.75662 0.896815 1.6414 0.238267 -0.332041
2178 -0.861176 0.697934 0.192342 -0.585131 -0.950472 0.243809 -0.983471 -1.67079 -0.06149 1.44293 -0.208037 -1.08891
898 -0.323664 1.04771 0.384202 -0.125101 -0.773672 0.168559 -1.15186 -1.26674 0.88712 1.49205 0.287376 -1.16488
