2496 12
1906 0.571512 -0.566494 -0.57032 -0.495183 0.603809 0.414864 -0.708433 1.3575 -1.25918 -1.4948 11.7553 -11.0068
2053 0.451611 -0.276845 -0.371227 -0.616833 0.706594 0.501664 -0.544469 1.21987 -1.51418 -1.51863 10.6409 -10.0952
309 0.308768 -0.379848 -0.39605 -0.666307 0.795432 0.590614 -0.459011 1.14587 -1.57089 -1.64735 10.4488 -9.85477
408 0.33458 -0.336351 -0.371459 -0.704608 0.830378 0.519639 -0.529553 1.08774 -1.6223 -1.61849 10.3503 -9.86274
1513 0.518404 -0.315552 -0.457719 -0.542378 0.75245 0.456493 -0.615842 1.1536 -1.51851 -1.6071 10.7618 -10.2382
883 0.466935 -0.239961 -0.501734 -0.564025 0.791838 0.522101 -0.609536 1.20438 -1.53977 -1.58192 10.8346 -10.245
1100 0.423594 -0.32943 -0.446222 -0.637796 0.768357 0.448776 -0.554094 1.21062 -1.46864 -1.49294 11.2023 -10.6263
1749 0.448724 -0.364849 -0.47429 -0.531416 0.702973 0.441421 -0.584276 1.14693 -1.43024 -1.5385 11.1256 -10.5464
2111 0.342032 -0.332587 -0.388605 -0.607951 0.712687 0.611952 -0.43402 1.0317 -1.647 -1.64978 10.0622 -9.3568
1944 0.438879 -0.489517 -0.474138 -0.573949 0.734375 0.576217 -0.647228 1.23648 -1.51289 -1.45876 11.2456 -10.6631
1255 0.443621 -0.446696 -0.518124 -0.539071 0.696994 0.525896 -0.598696 1.18944 -1.41106 -1.43484 11.2725 -10.8093
2036 0.403956 -0.233925 -0.284288 -0.687554 0.771863 0.610289 -0.486666 1.12415 -1.72047 -1.81259 10.0722 -9.45469
2163 0.34369 -0.274415 -0.515781 -0.497953 0.71831 0.577658 -0.51953 1.1502 -1.45196 -1.49535 10.0913 -9.56331
2388 0.441377 -0.313639 -0.547558 -0.472045 0.651277 0.512349 -0.593068 1.21941 -1.35601 -1.43303 10.8038 -10.2888
614 0.436075 -0.136097 -0.340003 -0.575329 0.662874 0.435526 -0.50815 1.07771 -1.53192 -1.81836 9.75773 -8.93076
1972 0.265692 -0.00884529 -0.425512 -0.768296 0.832533 0.454443 -0.435639 1.07833 -1.70939 -1.93534 9.44719 -8.65146
821 0.424563 -0.368634 -0.685213 -0.430069 0.538083 0.534583 -0.591394 1.15085 -1.25124 -1.59262 11.0174 -10.4528
467 0.223127 -0.381499 -0.554326 -0.439373 0.616293 0.610015 -0.509099 1.20772 -1.31458 -1.778 10.4149 -9.80842
1227 0.178611 0.0489419 -0.438018 -0.695095 0.782026 0.46976 -0.464427 1.06311 -1.50827 -1.89458 9.64228 -8.92707
834 0.238615 -0.0713105 -0.550867 -0.634057 0.712069 0.631068 -0.439782 1.05937 -1.58289 -1.93346 9.85299 -9.10801
2068 0.400625 -0.318856 -0.631641 -0.440221 0.655573 0.626785 -0.626726 1.18219 -1.23376 -1.68396 11.0542 -10.5676
1039 0.126987 0.0681116 -0.487131 -0.715264 0.840303 0.47064 -0.408037 1.04299 -1.64203 -1.98134 9.57663 -8.82619
552 0.494115 -0.437798 -0.516498 -0.48556 0.695821 0.34256 -0.655062 1.28587 -1.32346 -1.5131 11.5192 -10.9482
2098 0.186623 -0.0419861 -0.251944 -0.786122 0.930104 0.450452 -0.593047 1.05846 -1.71199 -2.16369 9.44865 -8.66298
1645 0.487122 -0.309191 -0.518135 -0.546737 0.641294 0.498192 -0.662252 1.19651 -1.33162 -1.62774 10.8126 -10.1375
2486 0.250984 -0.0290628 -0.283576 -0.764879 0.813937 0.39018 -0.416409 1.07851 -1.59446 -1.83875 9.117 -8.51425
948 0.484498 -0.515662 -0.528432 -0.534291 0.639754 0.56588 -0.614136 1.15601 -1.3932 -1.59807 11.3547 -10.6861
762 0.292085 0.0818781 -0.278121 -0.673806 0.875549 0.270743 -0.478904 1.03774 -1.78645 -2.03936 9.32703 -8.49011
1993 0.417317 -0.172002 -0.208729 -0.708534 0.656792 0.488907 -0.489067 1.09798 -1.51919 -1.74423 9.79696 -9.08217
2067 0.399444 -0.195959 -0.352249 -0.575647 0.531192 0.468568 -0.420846 1.1525 -1.31327 -1.60765 10.383 -9.82369
1963 0.318857 -0.134582 -0.189916 -0.757497 0.721646 0.443999 -0.426206 1.08635 -1.58927 -1.82192 9.32831 -8.68245
904 0.3445 -0.172877 -0.241505 -0.651506 0.641559 0.507201 -0.437929 1.00044 -1.53888 -1.78818 9.66599 -8.90156
774 0.536346 -0.504735 -0.413391 -0.522998 0.45439 0.504975 -0.543562 1.25109 -1.16434 -1.39795 11.2621 -10.6333
680 0.315006 -0.111558 -0.322063 -0.745592 0.582328 0.578142 -0.274043 1.11537 -1.5331 -1.86941 9.33579 -8.61734
957 0.581849 -0.455203 -0.458286 -0.567994 0.545441 0.427968 -0.588238 1.30086 -1.24836 -1.53857 11.3848 -10.7934
1617 0.326281 -0.192471 -0.226706 -0.766914 0.696626 0.545042 -0.476553 0.99337 -1.59458 -1.93547 9.50759 -8.80204
432 0.441476 -0.517463 -0.583882 -0.59583 0.658836 0.511784 -0.643785 1.31509 -1.27758 -1.52254 11.6649 -10.9778
802 0.40957 -0.312292 -0.297042 -0.646282 0.718845 0.567619 -0.589932 1.04886 -1.56725 -1.78777 9.96994 -9.30559
1741 0.215422 -0.133859 -0.239182 -0.760827 0.867468 0.456423 -0.563595 1.00208 -1.72242 -2.10958 9.20429 -8.43506
1608 0.555397 -0.44934 -0.386341 -0.6499 0.684823 0.548369 -0.688226 1.26332 -1.35189 -1.6172 10.9523 -10.3043
409 0.337152 -0.151808 -0.134478 -0.838147 0.856252 0.381637 -0.576186 1.04342 -1.75274 -2.01722 9.3208 -8.52193
110 0.549622 -0.427179 -0.550011 -0.472795 0.734095 0.526333 -0.738624 1.15498 -1.39816 -1.70357 10.9079 -10.2643
55 0.283162 -0.072732 -0.253319 -0.760655 0.859396 0.425597 -0.669448 1.03211 -1.72122 -2.07762 9.32669 -8.52727
2261 0.358662 -0.329204 -0.464451 -0.62593 0.648452 0.47659 -0.627117 1.14445 -1.3029 -1.66943 10.9962 -10.3596
424 0.276097 -0.16621 -0.295854 -0.778396 0.6734 0.431912 -0.44053 1.12192 -1.46559 -1.71853 9.86203 -9.23793
2213 0.256866 -0.0417083 -0.275994 -0.755966 0.747386 0.368357 -0.497325 1.06657 -1.4432 -1.74096 9.52158 -8.87962
2186 0.557857 -0.465266 -0.400766 -0.460967 0.564295 0.510325 -0.5752 1.26511 -1.28281 -1.43568 11.0421 -10.4377
2492 0.321345 -0.116339 -0.159653 -0.88874 0.764932 0.335419 -0.433868 1.08945 -1.56493 -1.87378 9.50015 -8.82755
1246 0.523755 -0.340258 -0.496419 -0.537611 0.514659 0.515128 -0.508838 1.18943 -1.2232 -1.40674 10.8361 -10.3144
1315 0.356366 -0.102174 -0.214161 -0.7662 0.777764 0.424266 -0.437612 1.06559 -1.59305 -1.85202 9.36672 -8.67355
777 0.442227 -0.149076 -0.366603 -0.656437 0.602434 0.593985 -0.467097 1.08292 -1.47228 -1.74352 9.88171 -9.18379
1273 0.581699 -0.438005 -0.467562 -0.57721 0.425334 0.482781 -0.537453 1.28944 -1.27956 -1.46963 11.2744 -10.7155
1189 0.350697 -0.0210363 -0.254537 -0.725892 0.832307 0.464678 -0.538035 1.03764 -1.64703 -2.01664 9.39422 -8.66467
2230 0.293279 -0.0688737 -0.423296 -0.738144 0.528643 0.638065 -0.308922 0.945814 -1.48248 -1.75656 9.31558 -8.6492
955 0.313585 -0.162707 -0.503392 -0.547791 0.568699 0.52579 -0.408906 1.10777 -1.34314 -1.61922 10.0989 -9.54265
2056 0.371341 0.0273384 -0.273806 -0.677643 0.659695 0.419727 -0.35978 1.09025 -1.58906 -1.81163 9.4116 -8.7104
792 0.44973 -0.249952 -0.279013 -0.641184 0.601401 0.454782 -0.528125 1.04478 -1.48407 -1.74216 10.0275 -9.46631
2260 0.495409 -0.454926 -0.535167 -0.598997 0.623194 0.562376 -0.704543 1.18106 -1.29308 -1.61183 11.3366 -10.6054
2305 0.384795 -0.375679 -0.487692 -0.556995 0.601333 0.575724 -0.633977 1.13188 -1.37233 -1.68337 10.3895 -9.75668
701 0.554717 -0.460665 -0.523434 -0.574029 0.569197 0.600389 -0.640903 1.18626 -1.26943 -1.48219 11.1527 -10.5808
1230 0.438542 -0.316428 -0.370541 -0.58242 0.653135 0.503177 -0.531715 1.04675 -1.44544 -1.63563 10.0784 -9.43163
856 0.570251 -0.287198 -0.436807 -0.514611 0.640238 0.463587 -0.576242 1.11786 -1.37309 -1.54155 10.7458 -10.2135
201 0.36753 0.0429823 -0.218311 -0.816074 0.947859 0.294516 -0.547694 1.08479 -1.82092 -1.86144 9.23053 -8.61615
533 0.428644 -0.217091 -0.491825 -0.55651 0.661118 0.419751 -0.547794 1.20066 -1.33911 -1.62401 10.6649 -10.0354
837 0.352178 -0.0849484 -0.303072 -0.677693 0.685004 0.417482 -0.46102 1.07384 -1.50172 -1.77738 9.43772 -8.74099
300 0.371623 0.0158614 -0.223983 -0.784861 0.720891 0.45109 -0.470914 1.10017 -1.59265 -1.84962 9.4869 -8.69309
1728 0.499134 -0.20535 -0.395191 -0.529298 0.601816 0.437177 -0.64093 1.09651 -1.32317 -1.61877 10.3137 -9.6633
1316 0.364775 0.00958346 -0.178104 -0.71487 0.789231 0.409046 -0.509845 1.07383 -1.77682 -2.07798 9.27233 -8.54171
2334 0.588277 -0.334983 -0.367769 -0.537109 0.544354 0.462633 -0.594581 1.20872 -1.27156 -1.49968 10.7345 -10.1264
1261 0.438443 -0.172026 -0.307739 -0.63675 0.65545 0.520323 -0.52351 1.15412 -1.59865 -1.85326 9.4725 -8.76204
438 0.619235 -0.520462 -0.543037 -0.553408 0.567163 0.420223 -0.610151 1.41895 -1.09683 -1.3766 11.681 -11.1087
524 0.314613 -0.14903 -0.194045 -0.719219 0.868188 0.52997 -0.620224 1.02546 -1.75105 -2.03851 9.67598 -8.86977
34 0.270802 -0.252314 -0.201667 -0.755317 0.871796 0.490133 -0.686497 1.03401 -1.68833 -1.99504 9.3412 -8.5041
2207 0.494273 -0.461614 -0.486388 -0.448977 0.53528 0.461967 -0.65808 1.18902 -1.22528 -1.59933 11.1787 -10.4465
22 0.240928 -0.112894 -0.145227 -0.826584 0.923399 0.456028 -0.564554 1.04892 -1.76036 -2.05663 9.32371 -8.62013
781 0.528908 -0.385126 -0.435284 -0.527043 0.74141 0.580622 -0.728772 1.15178 -1.42448 -1.65423 10.6023 -9.92275
1401 0.187488 -0.076134 -0.30513 -0.789148 0.913375 0.531156 -0.538774 0.993413 -1.70819 -2.08903 9.32965 -8.48196
703 0.519429 -0.481025 -0.408257 -0.58855 0.619524 0.528039 -0.645059 1.2066 -1.38537 -1.6346 11.0456 -10.423
1716 0.612505 -0.504597 -0.423442 -0.57237 0.603331 0.406161 -0.652932 1.3029 -1.29802 -1.53144 11.4718 -10.7819
1781 0.129345 -0.149824 -0.258294 -0.793711 0.854113 0.505013 -0.524839 1.0314 -1.57369 -1.93557 9.25443 -8.55467
1804 0.50926 -0.342981 -0.436991 -0.581123 0.623931 0.441408 -0.683118 1.21941 -1.27787 -1.64509 10.8887 -10.2832
1333 0.260357 -0.0888593 -0.253087 -0.809502 0.82347 0.512924 -0.452541 0.987041 -1.65523 -2.02887 9.33039 -8.6183
1439 0.462885 -0.430473 -0.377513 -0.55456 0.621934 0.549264 -0.644262 1.22175 -1.31909 -1.74446 10.6221 -9.91573
121 0.320369 -0.119096 -0.405226 -0.661756 0.856251 0.535745 -0.616377 1.1258 -1.70056 -1.93897 9.54633 -8.85721
1606 0.36381 -0.246778 -0.39495 -0.619495 0.747063 0.575064 -0.553494 1.05194 -1.63495 -1.87622 10.0281 -9.2449
1021 0.514022 -0.484724 -0.571969 -0.430008 0.559991 0.628682 -0.656669 1.18618 -1.27541 -1.52244 11.1184 -10.3644
67 0.245722 -0.111408 -0.209052 -0.774828 0.802698 0.460309 -0.480771 1.04983 -1.65109 -1.98693 9.36496 -8.60412
399 0.423606 -0.260533 -0.372564 -0.616042 0.619386 0.523799 -0.505758 1.11315 -1.56778 -1.74127 9.7898 -9.08822
1904 0.38627 -0.0468403 -0.434614 -0.660376 0.753109 0.510448 -0.480434 1.03827 -1.71628 -1.91691 9.33561 -8.64318
1844 0.553798 -0.367412 -0.448351 -0.624413 0.785512 0.489839 -0.695713 1.47739 -1.529 -1.54447 11.6813 -11.1344
863 0.399317 -0.0190336 -0.242692 -0.728165 0.760907 0.343132 -0.550903 1.06818 -1.59035 -1.95398 9.38016 -8.60259
1387 0.518706 -0.353914 -0.490176 -0.472824 0.582886 0.432249 -0.593846 1.26601 -1.25463 -1.49821 10.807 -10.2703
267 0.452798 -0.0458475 -0.265397 -0.711102 0.706819 0.629582 -0.396549 1.03054 -1.6296 -1.73723 9.39854 -8.63798
1753 0.489373 -0.407062 -0.426741 -0.47942 0.485217 0.535752 -0.515936 1.06241 -1.31577 -1.54102 10.6545 -9.98643
1421 0.300441 0.00570179 -0.253692 -0.767076 0.928399 0.497696 -0.481121 1.05123 -1.77342 -2.05868 9.4072 -8.66302
1616 0.391644 -0.309329 -0.359037 -0.503362 0.700658 0.588622 -0.61121 0.949132 -1.54036 -1.82337 9.78029 -9.07622
452 0.350472 -0.101433 -0.292417 -0.786149 0.659847 0.501923 -0.34408 1.04906 -1.63956 -1.86373 9.25473 -8.60831
707 0.445017 -0.353535 -0.438181 -0.528717 0.681529 0.547207 -0.496466 1.08631 -1.54424 -1.59804 10.2616 -9.62682
2347 0.600079 -0.420743 -0.446266 -0.460674 0.468661 0.387713 -0.585033 1.26682 -1.20619 -1.45588 11.1411 -10.547
828 0.380734 -0.0567327 -0.35241 -0.638093 0.696346 0.530073 -0.418732 1.13314 -1.56583 -1.84856 9.53177 -8.92438
2381 0.407222 -0.140147 -0.348835 -0.580329 0.813052 0.459105 -0.514804 1.16641 -1.67742 -1.62288 10.2746 -9.58414
866 0.387698 -0.144127 -0.402835 -0.67142 0.785848 0.529063 -0.508452 1.11874 -1.54824 -1.70193 10.1339 -9.48971
1081 0.450694 -0.381825 -0.406836 -0.552009 0.712897 0.467757 -0.584464 1.09954 -1.34052 -1.54768 10.7576 -10.1919
579 0.464533 -0.316414 -0.477057 -0.573175 0.631584 0.434192 -0.588366 1.20486 -1.3195 -1.5674 11.07 -10.4211
2314 0.212619 -0.110432 -0.549905 -0.581794 0.74592 0.618002 -0.471805 1.08294 -1.48196 -1.8058 10.0133 -9.40211
489 0.605674 -0.535319 -0.571897 -0.522692 0.632479 0.51447 -0.762491 1.29659 -1.16315 -1.5149 11.6584 -10.9879
2054 0.229722 -0.115865 -0.288377 -0.751857 0.822281 0.605435 -0.50733 1.05136 -1.71975 -2.01632 9.39435 -8.49288
2472 0.502649 -0.540665 -0.503429 -0.555289 0.599512 0.433669 -0.646455 1.26864 -1.28367 -1.51552 11.4747 -10.8219
650 0.516243 -0.542794 -0.523548 -0.562069 0.496443 0.520416 -0.614417 1.21618 -1.24044 -1.52074 11.3162 -10.6208
1203 0.383789 -0.0770024 -0.253665 -0.729682 0.84288 0.466962 -0.482597 1.06495 -1.78169 -1.93363 9.26025 -8.54244
1096 0.63575 -0.417647 -0.489135 -0.518913 0.534936 0.336188 -0.596091 1.22283 -1.17414 -1.35559 11.4373 -10.8339
2410 0.378929 -0.317407 -0.377374 -0.622504 0.593241 0.57785 -0.469649 1.01663 -1.48381 -1.73441 9.86972 -9.27496
107 0.190731 -0.206199 -0.301354 -0.797142 0.929563 0.566314 -0.578662 0.962394 -1.71974 -2.00948 9.5405 -8.81783
719 0.27112 -0.279455 -0.306633 -0.73009 0.776913 0.504599 -0.620769 1.01966 -1.51655 -1.92659 9.94308 -9.2093
1853 0.242027 -0.100567 -0.190441 -0.810512 0.916504 0.404442 -0.59897 1.07736 -1.69982 -2.0229 9.40611 -8.66743
2148 0.365951 -0.0408202 -0.311673 -0.670194 0.714561 0.551094 -0.475857 1.04352 -1.61571 -1.92187 9.31532 -8.48561
2158 0.731335 -0.4931 -0.514607 -0.490968 0.462076 0.456265 -0.564537 1.2459 -1.30449 -1.4419 11.3474 -10.8391
2242 0.420189 0.0213373 -0.226306 -0.807636 0.790008 0.520598 -0.480537 1.04029 -1.72688 -1.88208 9.22026 -8.45851
655 0.534993 -0.439262 -0.422237 -0.55628 0.65081 0.492753 -0.654296 1.13553 -1.43117 -1.71506 10.8339 -10.1915
2287 0.351316 -0.234748 -0.496196 -0.622097 0.737201 0.612036 -0.515612 1.10007 -1.54946 -1.75025 10.0591 -9.37768
1131 0.543625 -0.375036 -0.457241 -0.509184 0.493769 0.530908 -0.455575 1.10449 -1.33359 -1.55521 10.2507 -9.69363
1521 0.539572 -0.492493 -0.443465 -0.526488 0.557756 0.486475 -0.653801 1.1501 -1.31332 -1.56739 11.027 -10.3735
1664 0.247336 -0.0479108 -0.288886 -0.71432 0.732095 0.49202 -0.480512 1.04378 -1.60779 -1.88049 9.48903 -8.75904
2362 0.596351 -0.454068 -0.442102 -0.471139 0.521462 0.407144 -0.572359 1.37915 -1.24628 -1.5341 11.3718 -10.7625
286 0.400005 -0.0470437 -0.243652 -0.720225 0.783566 0.430652 -0.571063 1.11646 -1.6874 -1.95117 9.46557 -8.71507
323 0.392901 -0.327584 -0.427678 -0.528656 0.657335 0.643999 -0.583513 1.18015 -1.42758 -1.79342 10.3024 -9.68821
307 0.358371 -0.293814 -0.298542 -0.62692 0.706269 0.571285 -0.595707 1.02458 -1.55112 -1.91714 10.0836 -9.30145
4 0.213883 0.00130426 -0.287607 -0.724239 0.721999 0.364615 -0.473286 1.10276 -1.47476 -1.78085 9.35664 -8.7174
1353 0.261264 -0.0587971 -0.498436 -0.617899 0.756774 0.546712 -0.510198 1.08467 -1.57063 -1.91951 9.60381 -8.84133
1338 0.475029 -0.425807 -0.473545 -0.578228 0.657566 0.671381 -0.623773 1.17785 -1.38075 -1.72752 11.0836 -10.296
587 0.245517 -0.0492675 -0.210355 -0.76433 0.870938 0.481031 -0.59604 1.00028 -1.68808 -2.06713 9.34776 -8.57216
2014 0.283448 -0.16594 -0.257598 -0.740411 0.692575 0.563546 -0.47419 1.0728 -1.57049 -1.89044 9.27327 -8.53456
1633 0.418297 -0.324809 -0.3614 -0.514212 0.711946 0.507315 -0.617583 1.09835 -1.47209 -1.73684 10.3497 -9.63378
1732 0.327327 -0.0772988 -0.257683 -0.694441 0.740431 0.416341 -0.49682 1.17589 -1.52569 -1.81143 9.29075 -8.52928
1084 0.557914 -0.418223 -0.462 -0.419514 0.591608 0.484461 -0.671146 1.26118 -1.41208 -1.63521 10.8167 -10.2008
2337 0.411933 -0.0425517 -0.279576 -0.6913 0.821715 0.409129 -0.541058 0.997206 -1.74268 -1.91167 9.45886 -8.77861
1800 0.545465 -0.202304 -0.381279 -0.513809 0.612641 0.460458 -0.512326 1.16223 -1.49389 -1.67511 10.1948 -9.53043
338 0.384523 0.0909416 -0.316855 -0.716418 0.892059 0.3548 -0.576813 1.02329 -1.77046 -1.99458 9.38644 -8.55908
2160 0.51822 -0.266311 -0.5841 -0.422595 0.611723 0.480303 -0.598698 1.20711 -1.3556 -1.49295 10.7957 -10.2463
1208 0.192869 -0.0573653 -0.415018 -0.678893 0.768921 0.469954 -0.406885 1.08806 -1.55021 -1.84277 9.35244 -8.67202
2040 0.489292 -0.25829 -0.484745 -0.536687 0.642111 0.423469 -0.539627 1.22089 -1.39766 -1.50436 10.848 -10.3125
1292 0.456494 -0.404726 -0.39536 -0.683317 0.722913 0.662956 -0.495229 1.17044 -1.59534 -1.64042 10.8033 -10.2945
1216 0.344224 -0.377206 -0.31352 -0.795979 0.798994 0.619846 -0.495897 1.12617 -1.66236 -1.67963 10.3605 -9.8343
197 0.324977 -0.256081 -0.298453 -0.803224 0.906901 0.619478 -0.509125 1.06483 -1.72259 -1.77184 10.2359 -9.54421
316 0.321745 -0.26046 -0.340849 -0.679391 0.871976 0.489417 -0.501901 1.06384 -1.70652 -1.72022 10.0022 -9.37664
1576 0.390151 -0.370072 -0.404266 -0.622625 0.818197 0.525022 -0.598414 1.14951 -1.58807 -1.61217 10.6823 -10.151
771 0.403027 -0.255379 -0.399528 -0.613347 0.842107 0.481229 -0.627181 1.11526 -1.57638 -1.65878 10.4583 -9.91197
2021 0.365417 -0.156161 -0.335696 -0.622363 0.859521 0.509176 -0.575529 1.12709 -1.64431 -1.79157 9.73667 -9.01536
1129 0.464109 -0.214322 -0.310787 -0.620877 0.728036 0.371333 -0.63267 1.24963 -1.5053 -1.67666 10.6167 -9.99248
1326 0.269733 0.0898979 -0.320788 -0.797882 0.915293 0.318036 -0.511433 1.05988 -1.63116 -1.96762 9.28518 -8.56153
2344 0.28601 -0.325743 -0.455987 -0.494756 0.740273 0.498718 -0.614164 1.15896 -1.34081 -1.76601 10.3236 -9.57024
686 0.309085 -0.0422268 -0.257474 -0.693149 0.800647 0.297976 -0.587352 1.02079 -1.50209 -1.80673 9.73565 -9.05164
2461 0.57416 -0.234022 -0.350721 -0.537009 0.633788 0.517722 -0.578252 1.17668 -1.3966 -1.65989 10.2855 -9.65989
0 0.258774 -0.02571 -0.148429 -0.802673 0.83942 0.444939 -0.4971 1.01791 -1.71332 -2.02072 9.29462 -8.50895
999 0.283736 -0.160313 -0.297006 -0.662172 0.775167 0.644117 -0.491998 0.904907 -1.61475 -2.01388 9.45549 -8.51682
120 0.471069 -0.317247 -0.362835 -0.490036 0.630863 0.484509 -0.587192 1.16749 -1.39559 -1.69329 10.3279 -9.68655
540 0.57742 -0.399548 -0.568138 -0.445547 0.484958 0.546711 -0.615256 1.19524 -1.25407 -1.49672 10.9387 -10.3594
1988 0.397206 -0.118906 -0.286353 -0.640324 0.747111 0.521743 -0.512032 1.02276 -1.65016 -1.82519 9.47153 -8.77237
912 0.525158 -0.149476 -0.33025 -0.60727 0.548293 0.417005 -0.517241 0.94647 -1.44957 -1.75679 9.51097 -8.77462
1248 0.436697 -0.426545 -0.386523 -0.565772 0.533456 0.567065 -0.564182 1.17145 -1.22343 -1.52846 10.659 -10.0463
138 0.270618 -0.103592 -0.248005 -0.773064 0.710902 0.589152 -0.473264 1.09047 -1.55409 -1.81802 9.60613 -8.87526
1390 0.32611 0.0209028 -0.410295 -0.722418 0.789874 0.396477 -0.422212 1.0157 -1.60459 -1.88751 9.4315 -8.6859
1843 0.439339 -0.212971 -0.412624 -0.636006 0.7468 0.605182 -0.520191 1.02275 -1.53451 -1.83238 9.76137 -8.99665
1007 0.56521 -0.37822 -0.519478 -0.432689 0.641511 0.540021 -0.642124 1.17825 -1.44972 -1.59983 10.7377 -10.0672
505 0.371445 -0.0548481 -0.41777 -0.556056 0.700984 0.451542 -0.450662 1.0701 -1.49519 -1.81617 9.41702 -8.74113
2130 0.328882 0.0222967 -0.336044 -0.656997 0.789077 0.424463 -0.471533 0.97001 -1.6823 -1.9672 9.39885 -8.65397
1257 0.403409 -0.420437 -0.550829 -0.511613 0.636737 0.675874 -0.656691 1.22034 -1.31561 -1.71814 10.7123 -9.97225
1520 0.411336 -0.320711 -0.43035 -0.518007 0.559091 0.569442 -0.523955 1.06104 -1.33081 -1.70192 10.2798 -9.57903
850 0.337466 -0.132642 -0.375757 -0.659136 0.69889 0.530469 -0.525261 1.07396 -1.49952 -1.82245 9.57088 -8.93116
70 0.293698 0.0106872 -0.249856 -0.845017 0.824068 0.382784 -0.443085 1.0614 -1.59066 -1.90188 9.28109 -8.52686
714 0.437389 -0.238854 -0.539591 -0.566157 0.625971 0.458639 -0.571536 1.16479 -1.31381 -1.49871 10.5219 -9.89608
6 0.402839 0.0742126 -0.361793 -0.76266 0.884372 0.38769 -0.546986 1.11445 -1.70597 -1.98146 9.28504 -8.48217
2132 0.492246 -0.126732 -0.390679 -0.545065 0.733938 0.516187 -0.514953 1.04921 -1.65452 -1.8139 10.061 -9.33866
1751 0.414943 0.0573668 -0.19313 -0.705691 0.74616 0.3229 -0.513247 1.0628 -1.56464 -1.82345 9.35789 -8.61966
717 0.280013 0.0993564 -0.235472 -0.864562 0.732335 0.317948 -0.388071 1.01844 -1.64757 -1.97103 9.1776 -8.46178
1135 0.362902 -0.108951 -0.203485 -0.76105 0.806805 0.450186 -0.577921 1.00207 -1.6855 -1.99973 9.37459 -8.53093
348 0.427538 -0.361773 -0.406009 -0.600709 0.652427 0.589633 -0.638605 1.12848 -1.39493 -1.79619 10.7757 -10.0648
1901 0.420393 0.0470273 -0.222277 -0.780996 0.781408 0.391081 -0.492743 1.12825 -1.60673 -1.79913 9.29578 -8.62528
2269 0.588307 -0.48173 -0.538035 -0.42962 0.475848 0.397935 -0.600588 1.14603 -1.20827 -1.37685 10.9798 -10.5027
2263 0.377468 -0.0707032 -0.224634 -0.702617 0.719662 0.418779 -0.468566 1.05144 -1.57287 -1.8218 9.30838 -8.65763
61 0.557874 -0.549664 -0.517988 -0.507607 0.537709 0.475388 -0.670871 1.22106 -1.20692 -1.48866 11.257 -10.6877
520 0.334174 -0.142049 -0.264097 -0.718326 0.654677 0.455395 -0.404625 1.02855 -1.56987 -1.86298 9.37348 -8.66293
788 0.452422 -0.0942515 -0.147088 -0.712532 0.902982 0.399236 -0.620942 1.01138 -1.76547 -1.90157 9.28363 -8.6169
1981 0.550415 -0.36872 -0.481496 -0.508903 0.535091 0.595029 -0.615793 1.1383 -1.25839 -1.57251 10.6649 -9.97141
1862 0.438303 -0.0579985 -0.369249 -0.606289 0.854175 0.427505 -0.535857 0.981057 -1.73791 -1.77848 9.63605 -8.93483
1564 0.513807 -0.455796 -0.432825 -0.460309 0.631061 0.478496 -0.677934 1.18535 -1.33284 -1.65946 10.8688 -10.2111
124 0.485726 -0.299728 -0.473564 -0.578904 0.70877 0.615911 -0.65484 1.13884 -1.54233 -1.69587 10.7346 -10.0565
1209 0.462347 -0.529159 -0.500296 -0.595317 0.665245 0.571816 -0.590179 1.2537 -1.44683 -1.46348 10.9718 -10.4103
2015 0.373145 -0.396663 -0.469412 -0.610529 0.745732 0.532107 -0.535405 1.14619 -1.47553 -1.54949 10.7375 -10.1263
2180 0.349993 -0.208616 -0.365609 -0.716625 0.824822 0.549572 -0.509526 1.10266 -1.66572 -1.79974 9.82186 -9.18096
429 0.30878 -0.347919 -0.434186 -0.599848 0.775552 0.604755 -0.427042 1.09943 -1.58106 -1.5986 9.97594 -9.37909
2360 0.363554 -0.266121 -0.571417 -0.574874 0.7813 0.453211 -0.590611 1.19965 -1.48267 -1.62418 10.8212 -10.126
148 0.471038 -0.428752 -0.548773 -0.557487 0.716094 0.55977 -0.573792 1.17212 -1.4741 -1.42152 11.0845 -10.6723
1178 0.304042 -0.21075 -0.303604 -0.689794 0.751359 0.465292 -0.430759 1.0797 -1.55467 -1.68597 9.79561 -9.13543
807 0.453072 -0.18702 -0.458801 -0.520031 0.720797 0.45357 -0.568171 1.04612 -1.53654 -1.7166 10.1113 -9.4505
136 0.491605 -0.34526 -0.618328 -0.496894 0.721856 0.574436 -0.638148 1.19151 -1.45741 -1.60001 10.7759 -10.1304
1295 0.592203 -0.319578 -0.484448 -0.483116 0.607398 0.441204 -0.681402 1.1721 -1.30902 -1.52442 10.6968 -10.1099
986 0.54764 -0.387858 -0.430339 -0.494186 0.582262 0.493451 -0.560482 1.11714 -1.33102 -1.56306 10.7964 -10.1375
393 0.579533 -0.40474 -0.46484 -0.4405 0.537737 0.516911 -0.638917 1.15939 -1.29062 -1.60079 10.4921 -9.87108
145 0.296376 -0.109795 -0.329897 -0.901613 0.85601 0.411902 -0.559964 1.21699 -1.79197 -2.14133 10.2884 -9.82194
2152 0.377818 -0.29278 -0.474416 -0.623323 0.630591 0.518216 -0.657682 1.24683 -1.7479 -1.93026 11.2866 -10.9598
1620 0.487103 -0.592119 -0.603161 -0.514196 0.48448 0.521286 -0.70244 1.36797 -1.38009 -1.63842 12.1186 -11.815
1206 0.372264 -0.201622 -0.472256 -0.885268 0.726953 0.53177 -0.550059 1.14366 -1.68097 -1.96002 10.6603 -10.1647
1236 0.4885 -0.462427 -0.524182 -0.273722 0.48773 0.69249 -0.736341 1.20041 -1.49934 -1.75006 11.5385 -11.1
744 0.35006 -0.305231 -0.349477 -0.362623 0.554488 0.793483 -0.562074 1.15199 -1.53357 -1.76538 11.1429 -10.6178
1647 0.445998 -0.564483 -0.471652 -0.525631 0.697441 0.458376 -0.640806 1.46897 -1.62484 -1.88715 12.9494 -12.6231
1482 0.543939 -0.477476 -0.511047 -0.389945 0.574447 0.573051 -0.733983 1.32411 -1.53026 -1.70995 11.9015 -11.4768
2114 0.353131 -0.146249 -0.307675 -0.819033 0.804877 0.475402 -0.57113 1.1158 -1.87035 -2.15201 10.3912 -9.72379
1695 0.551376 -0.566939 -0.611633 -0.325923 0.520523 0.650795 -0.645045 1.2945 -1.44181 -1.67505 11.8824 -11.4101
568 0.304245 -0.240838 -0.356764 -0.43616 0.648837 0.637867 -0.519053 1.15793 -1.6703 -1.85872 10.7222 -10.1292
478 0.504546 -0.553473 -0.580171 -0.460761 0.568523 0.482543 -0.681355 1.3241 -1.39613 -1.63056 12.115 -11.7261
301 0.284494 -0.240218 -0.303536 -0.665013 0.65679 0.640195 -0.568857 1.23184 -1.71072 -2.02001 10.8624 -10.3922
668 0.483495 -0.413717 -0.52077 -0.587805 0.569443 0.512204 -0.671143 1.3591 -1.48965 -1.76538 11.5288 -11.0781
1509 0.444826 -0.329934 -0.492383 -0.611359 0.709049 0.543342 -0.643829 1.29251 -1.78118 -1.9974 11.279 -10.7889
356 0.624167 -0.616782 -0.675359 -0.530549 0.539127 0.440522 -0.775776 1.36562 -1.46384 -1.65936 12.307 -11.9803
1586 0.441312 -0.201299 -0.486392 -0.844563 0.795284 0.445055 -0.578277 1.1277 -1.8147 -2.14149 10.496 -9.94487
153 0.499881 -0.498299 -0.574479 -0.467246 0.555918 0.570311 -0.693886 1.15147 -1.6354 -1.8493 11.8127 -11.3768
1774 0.456413 -0.12619 -0.424504 -0.832267 0.905129 0.39723 -0.689093 1.12102 -1.97672 -2.31016 10.439 -9.77066
2212 0.484006 -0.418593 -0.574933 -0.611354 0.552921 0.609483 -0.585533 1.27566 -1.70585 -1.91354 11.6099 -11.203
1951 0.521796 -0.589944 -0.607049 -0.540232 0.632744 0.522847 -0.634909 1.34175 -1.50376 -1.72665 11.9939 -11.5328
284 0.339324 -0.144493 -0.319158 -0.800495 0.876058 0.478569 -0.663197 1.1442 -1.92158 -2.24198 10.4183 -9.78551
560 0.394924 -0.175802 -0.416524 -0.6535 0.759923 0.576969 -0.670452 1.17056 -1.92257 -2.17794 10.8469 -10.281
321 0.40572 -0.159473 -0.407534 -0.734965 0.86751 0.462232 -0.543392 1.1886 -2.01001 -2.27347 10.5148 -9.8115
1336 0.504997 -0.475377 -0.547867 -0.47073 0.67186 0.618832 -0.668804 1.26154 -1.69721 -1.95469 11.5705 -11.0689
1087 0.390841 -0.173562 -0.362362 -0.684677 0.720663 0.471334 -0.608358 1.19207 -1.85146 -2.11901 10.6069 -10.0611
19 0.439592 -0.234357 -0.489434 -0.516269 0.742097 0.585259 -0.661851 1.20705 -1.87126 -2.06813 11.1555 -10.6757
517 0.517316 -0.252684 -0.546777 -0.681797 0.749035 0.521554 -0.678123 1.23255 -1.72681 -2.04915 11.0489 -10.4974
1337 0.368613 -0.134124 -0.37574 -0.774917 0.866155 0.464059 -0.560029 1.1602 -2.02867 -2.2959 10.3633 -9.75971
2457 0.538891 -0.271897 -0.582828 -0.756007 0.720135 0.654214 -0.773047 1.21454 -1.75648 -2.07879 11.5874 -11.0229
2248 0.561738 -0.58167 -0.512869 -0.401822 0.594509 0.469889 -0.794208 1.36929 -1.43639 -1.71163 12.5641 -12.2241
636 0.379384 -0.246317 -0.358191 -0.40687 0.621317 0.700937 -0.602089 1.16266 -1.61695 -1.89182 10.967 -10.4161
539 0.289654 -0.0576427 -0.232586 -0.549934 0.686646 0.649092 -0.634696 1.12563 -1.62801 -1.91955 10.5522 -9.99483
1110 0.324992 -0.284049 -0.33919 -0.374492 0.574431 0.723299 -0.575451 1.20677 -1.58019 -1.81047 11.1366 -10.739
1097 0.408845 -0.345111 -0.44348 -0.356272 0.548208 0.727893 -0.600626 1.28582 -1.57173 -1.83411 11.1121 -10.6563
105 0.366465 -0.261172 -0.445171 -0.38009 0.588023 0.735043 -0.621539 1.15392 -1.48787 -1.76405 10.8073 -10.2397
748 0.39189 -0.361331 -0.34461 -0.285862 0.600409 0.746302 -0.642748 1.2045 -1.57665 -1.79787 11.1709 -10.6478
1948 0.204318 -0.0461509 -0.271883 -0.794223 0.767243 0.594604 -0.532869 1.10751 -1.80744 -2.0725 10.5754 -10.0147
769 0.517711 -0.531299 -0.496383 -0.572847 0.579246 0.463752 -0.685209 1.45104 -1.6098 -1.86118 12.6879 -12.3597
1072 0.305654 -0.191026 -0.367373 -0.30071 0.589224 0.807359 -0.608158 1.12834 -1.62506 -1.84562 10.3558 -9.84568
583 0.446852 -0.464902 -0.469338 -0.276129 0.449107 0.772297 -0.599546 1.19641 -1.55278 -1.7943 11.3145 -10.8119
2284 0.426985 -0.470616 -0.512685 -0.292077 0.502207 0.703542 -0.628837 1.15475 -1.38717 -1.71968 11.6704 -11.1558
1686 0.365204 -0.335309 -0.398605 -0.245071 0.611004 0.687682 -0.656257 1.20325 -1.65327 -1.85567 11.2441 -10.75
75 0.363982 -0.165918 -0.340535 -0.548975 0.712628 0.649257 -0.574 1.22331 -1.70173 -1.93794 10.7561 -10.1545
2353 0.363187 -0.327907 -0.366983 -0.328219 0.50582 0.766372 -0.595417 1.18422 -1.5387 -1.73033 10.9711 -10.6353
1819 0.334982 -0.35914 -0.340541 -0.267087 0.584108 0.735904 -0.583209 1.17327 -1.52465 -1.79397 10.9414 -10.4536
1038 0.529583 -0.462301 -0.529742 -0.253424 0.494586 0.736385 -0.701565 1.22765 -1.53448 -1.76079 11.5701 -11.1083
222 0.453951 -0.466057 -0.496702 -0.296145 0.413909 0.68451 -0.647433 1.1307 -1.37235 -1.63096 11.7507 -11.3249
2076 0.373761 -0.217501 -0.419631 -0.284403 0.646993 0.782941 -0.580031 1.11019 -1.77217 -1.93305 10.5167 -9.91238
1458 0.45692 -0.357592 -0.561245 -0.544435 0.668206 0.652626 -0.608686 1.20114 -1.74921 -2.04695 11.0641 -10.5247
1328 0.32459 -0.0961048 -0.27805 -0.734598 0.908718 0.546002 -0.67039 1.19708 -2.0289 -2.33358 10.4955 -9.83813
2491 0.315203 -0.182987 -0.396898 -0.869433 0.769395 0.455631 -0.603621 1.18872 -1.77618 -2.14278 10.4344 -9.84934
91 0.562395 -0.598333 -0.576324 -0.472808 0.522119 0.524529 -0.814557 1.33803 -1.40922 -1.67492 12.6335 -12.3243
667 0.284194 -0.0348888 -0.214711 -0.62089 0.808187 0.566279 -0.524799 1.11557 -1.87784 -2.15254 10.256 -9.68105
967 0.202182 -0.14515 -0.380604 -0.684198 0.713874 0.588991 -0.318675 1.08017 -1.55372 -1.89847 9.40988 -8.68519
1548 0.19315 -0.0279133 -0.152064 -0.8695 0.909231 0.395391 -0.506465 1.09194 -1.64471 -1.95026 9.3098 -8.5445
69 0.323005 -0.194007 -0.446008 -0.592666 0.723779 0.49363 -0.534618 1.07817 -1.45079 -1.77035 10.1806 -9.49375
2044 0.146397 -0.0146887 -0.498625 -0.606511 0.829924 0.555053 -0.453217 1.02574 -1.60054 -1.91341 9.72684 -8.95042
14 0.394413 -0.238762 -0.598381 -0.622137 0.710335 0.526258 -0.546521 1.20699 -1.3902 -1.74152 11.0496 -10.4947
2028 0.172393 -0.0642768 -0.4733 -0.559462 0.7736 0.531544 -0.435969 1.0162 -1.59968 -1.9361 9.51833 -8.7406
18 0.384819 -0.217232 -0.628219 -0.470616 0.692736 0.704538 -0.573578 1.11737 -1.42435 -1.66171 10.5043 -9.84343
1354 0.310159 -0.242065 -0.592533 -0.514435 0.660036 0.537065 -0.463054 1.1693 -1.39793 -1.62854 10.5874 -9.99067
799 0.147694 0.00847756 -0.455611 -0.666963 0.809149 0.487058 -0.409849 1.12113 -1.50808 -1.88961 9.6718 -8.93968
1909 0.494945 -0.331006 -0.550365 -0.523085 0.695968 0.425304 -0.640867 1.46135 -1.30765 -1.51456 11.3943 -10.7814
2444 0.358956 -0.21681 -0.339941 -0.752974 0.837597 0.509907 -0.450128 1.04774 -1.67746 -1.6219 9.93817 -9.27336
914 0.209679 -0.158579 -0.140708 -0.866554 0.745854 0.566254 -0.386951 1.01067 -1.6325 -2.00837 9.31554 -8.60094
1510 0.51363 -0.396413 -0.443445 -0.605444 0.609809 0.638736 -0.632992 1.25442 -1.36169 -1.67674 10.4267 -9.80293
626 0.238044 -0.0560443 -0.254187 -0.767277 0.703679 0.45901 -0.403402 1.14626 -1.48805 -1.84077 9.28777 -8.62167
1729 0.365661 -0.048875 -0.325698 -0.693964 0.686118 0.48324 -0.492224 1.02072 -1.52983 -1.86873 9.51272 -8.71025
2433 0.491105 -0.349889 -0.526101 -0.499914 0.662727 0.536717 -0.653483 1.13689 -1.36515 -1.56047 10.6365 -9.95979
1089 0.564695 -0.488662 -0.474466 -0.509688 0.697678 0.389623 -0.690002 1.27025 -1.44062 -1.66644 11.4327 -10.7492
2103 0.24051 -0.116975 -0.209664 -0.813171 0.753093 0.657427 -0.385382 1.04861 -1.58965 -1.93165 9.256 -8.49882
2428 0.45461 -0.461106 -0.61766 -0.50559 0.637236 0.594928 -0.543937 1.18892 -1.2606 -1.64231 10.8903 -10.2813
297 0.422841 -0.306018 -0.465848 -0.453069 0.601229 0.479081 -0.609489 1.17464 -1.34967 -1.59027 10.3848 -9.76065
156 0.419194 -0.191359 -0.347702 -0.585131 0.683945 0.524939 -0.541728 1.13341 -1.57356 -1.8302 9.88949 -9.10274
1111 0.306972 -0.0402215 -0.240401 -0.784064 0.761869 0.420986 -0.379973 1.12378 -1.5944 -1.814 9.31209 -8.65827
698 0.384719 -0.0835916 -0.284978 -0.794872 0.658504 0.471679 -0.400669 1.03276 -1.55625 -1.77581 9.47106 -8.6515
726 0.438539 -0.50784 -0.48259 -0.54113 0.590665 0.411585 -0.566357 1.34233 -1.23675 -1.51763 11.4743 -10.8362
2037 0.567443 -0.397142 -0.598092 -0.531844 0.624355 0.508157 -0.648611 1.32118 -1.25507 -1.56 11.5656 -10.8331
889 0.309209 -0.00744246 -0.269357 -0.733277 0.767604 0.42324 -0.485775 1.05846 -1.62544 -1.96524 9.24632 -8.5485
920 0.368927 -0.459405 -0.498937 -0.447512 0.534738 0.572673 -0.501365 1.14997 -1.23301 -1.49348 10.685 -10.1575
1727 0.368848 -0.12213 -0.368359 -0.732049 0.786902 0.517243 -0.524818 1.06994 -1.5802 -1.97529 9.47206 -8.73071
2128 0.404901 -0.351031 -0.47774 -0.612197 0.697097 0.553092 -0.634084 1.1976 -1.31711 -1.77014 11.1305 -10.4245
2032 0.438501 -0.267251 -0.427957 -0.635152 0.709158 0.686722 -0.599119 1.09205 -1.45168 -1.78141 10.1548 -9.31954
290 0.421627 -0.15029 -0.362913 -0.617905 0.803216 0.496911 -0.535576 1.0157 -1.71093 -1.81903 10.0208 -9.2439
383 0.43684 -0.108902 -0.419232 -0.633617 0.710525 0.53037 -0.504907 1.05346 -1.55765 -1.80516 9.93264 -9.34178
2070 0.445977 -0.191307 -0.354361 -0.612836 0.820718 0.415677 -0.570453 1.14535 -1.6364 -1.77276 9.97408 -9.31413
2004 0.40852 -0.272923 -0.449086 -0.583365 0.756647 0.490444 -0.573473 1.12059 -1.5072 -1.60575 10.6955 -10.1364
366 0.305296 -0.217037 -0.287213 -0.695634 0.833202 0.491926 -0.470037 1.12557 -1.61564 -1.70834 9.87174 -9.28406
1857 0.467268 -0.578715 -0.485449 -0.569526 0.64245 0.527194 -0.590367 1.33165 -1.2952 -1.3958 11.4753 -10.9728
1651 0.395887 -0.383795 -0.468703 -0.598775 0.662118 0.591315 -0.468221 1.13779 -1.43823 -1.56261 10.7587 -10.2434
281 0.312884 -0.259657 -0.253183 -0.76656 0.842174 0.49749 -0.472995 1.11004 -1.68337 -1.68379 10.129 -9.43176
1628 0.383322 -0.391631 -0.393295 -0.60159 0.734551 0.493614 -0.557542 1.03136 -1.52887 -1.62713 10.4505 -9.85098
943 0.364308 -0.267515 -0.330399 -0.750019 0.86801 0.569293 -0.539452 1.10218 -1.67761 -1.77497 10.3375 -9.76279
1233 0.398377 -0.0757369 -0.337021 -0.742877 0.907884 0.467854 -0.632673 1.03709 -1.77579 -1.85922 9.64117 -8.89376
804 0.408576 -0.224363 -0.393468 -0.60419 0.800358 0.399673 -0.590741 1.10557 -1.53555 -1.71701 10.0977 -9.50957
775 0.505362 -0.325951 -0.412367 -0.567897 0.66258 0.54645 -0.556447 1.1747 -1.47241 -1.50347 10.6831 -10.1026
1947 0.425714 -0.400463 -0.500608 -0.562897 0.706594 0.579419 -0.528419 1.08934 -1.49423 -1.52422 10.6974 -10.1584
1623 0.298078 -0.373325 -0.323624 -0.661558 0.836637 0.562976 -0.456975 1.10381 -1.62175 -1.57528 10.1109 -9.56221
1418 0.304184 -0.332718 -0.419385 -0.699897 0.805142 0.6264 -0.510098 1.15386 -1.58015 -1.60865 10.498 -9.85734
1001 0.49624 -0.480765 -0.454757 -0.178106 0.466943 0.742721 -0.678159 1.26842 -1.38683 -1.63151 11.8203 -11.3778
705 0.32565 -0.0584475 -0.240911 -0.474127 0.695004 0.677442 -0.65718 1.24477 -1.648 -1.83771 10.4825 -9.84448
2104 0.330515 -0.216676 -0.34256 -0.431601 0.702061 0.732599 -0.575161 1.15502 -1.71324 -1.9643 10.704 -10.1633
1388 0.288508 -0.189822 -0.23283 -0.321906 0.668606 0.759876 -0.567348 1.16155 -1.61206 -1.93058 10.5354 -9.98058
1945 0.431414 -0.361517 -0.473271 -0.445394 0.683838 0.672213 -0.668308 1.14762 -1.65247 -1.84143 11.3404 -10.7978
1174 0.396571 -0.0988586 -0.376338 -0.81516 0.870975 0.427546 -0.600042 1.15961 -1.86758 -2.17091 10.3318 -9.65682
567 0.594665 -0.566314 -0.605406 -0.651096 0.62851 0.478966 -0.762358 1.41575 -1.48428 -1.70796 12.5493 -12.2022
87 0.516652 -0.401208 -0.560529 -0.633616 0.578449 0.530032 -0.754341 1.30025 -1.57743 -1.78976 11.3898 -10.9268
1893 0.606468 -0.598616 -0.665309 -0.401399 0.546463 0.535697 -0.712561 1.36449 -1.57105 -1.83045 12.2041 -11.7887
2468 0.441638 -0.232312 -0.424863 -0.668479 0.803789 0.598311 -0.706182 1.15873 -1.89933 -2.15766 11.1078 -10.5285
1852 0.277447 -0.151382 -0.28346 -0.608276 0.842765 0.592607 -0.574056 1.21166 -1.90608 -2.14776 10.4547 -9.86921
1790 0.3748 -0.232995 -0.411042 -0.674889 0.748183 0.567586 -0.609061 1.21948 -1.87301 -2.17074 10.9143 -10.3067
204 0.374976 -0.21243 -0.37745 -0.784112 0.767701 0.437161 -0.60963 1.28624 -1.81037 -2.10599 10.7161 -10.1617
117 0.507193 -0.439811 -0.542755 -0.51508 0.620885 0.548 -0.56229 1.21372 -1.64128 -1.83864 11.447 -10.9555
2227 0.548788 -0.455855 -0.532711 -0.434522 0.544728 0.670507 -0.653502 1.26359 -1.68258 -1.82388 11.6604 -11.2381
250 0.278212 -0.190072 -0.338288 -0.498258 0.679218 0.746355 -0.582851 1.15066 -1.72213 -2.02438 10.7883 -10.2427
924 0.375827 -0.297548 -0.377582 -0.268725 0.574524 0.723424 -0.663001 1.20635 -1.5626 -1.79771 11.16 -10.6905
2434 0.316816 -0.189744 -0.291368 -0.520343 0.798198 0.646943 -0.555878 1.0828 -1.74226 -2.00016 10.6471 -10.0338
1210 0.542671 -0.501406 -0.501635 -0.405287 0.632725 0.542007 -0.632948 1.3189 -1.57336 -1.81742 11.9199 -11.4566
969 0.49298 -0.476712 -0.487001 -0.425335 0.60364 0.642918 -0.577897 1.23629 -1.74877 -1.90393 11.5077 -11.1035
559 0.344164 -0.223236 -0.295577 -0.465449 0.757651 0.712903 -0.661585 1.22894 -1.74819 -1.99844 10.8138 -10.193
979 0.400063 -0.306355 -0.341049 -0.390421 0.618883 0.7316 -0.634908 1.17348 -1.7006 -1.99582 11.0529 -10.475
1025 0.323489 -0.187924 -0.311468 -0.668644 0.751207 0.508886 -0.553064 1.25283 -1.93648 -2.1506 10.7616 -10.1856
898 0.374332 -0.283547 -0.445758 -0.384944 0.518644 0.751993 -0.635572 1.1979 -1.43833 -1.7078 11.5027 -10.9324
139 0.333972 -0.121511 -0.350716 -0.838195 0.727931 0.564791 -0.633784 1.16333 -1.76596 -2.0704 10.5709 -10.0539
365 0.547019 -0.569821 -0.596782 -0.484425 0.568896 0.613418 -0.692776 1.27034 -1.54585 -1.78018 12.1725 -11.7547
1046 0.376448 -0.249073 -0.33582 -0.423925 0.583175 0.76245 -0.657467 1.26016 -1.50233 -1.81694 11.0182 -10.5071
669 0.575521 -0.582034 -0.650018 -0.638789 0.510624 0.484218 -0.813585 1.41034 -1.38926 -1.65265 12.4444 -12.1534
997 0.519299 -0.53888 -0.505129 -0.41597 0.528318 0.581784 -0.727039 1.33626 -1.23767 -1.58036 12.0925 -11.7067
1747 0.421161 -0.215255 -0.382957 -0.639971 0.670763 0.579823 -0.799873 1.08438 -1.52818 -1.84935 10.6139 -10.0447
1231 0.574706 -0.49311 -0.548217 -0.350994 0.412925 0.596008 -0.809036 1.23627 -1.16874 -1.42244 11.5665 -11.2492
1464 0.480244 -0.337299 -0.469526 -0.560363 0.603406 0.605008 -0.879654 1.14654 -1.44166 -1.77387 10.9246 -10.3616
940 0.447677 -0.348386 -0.469168 -0.518307 0.574713 0.610324 -0.778457 1.21997 -1.32834 -1.64891 11.1585 -10.7266
1583 0.395236 -0.324659 -0.448211 -0.658319 0.611172 0.526819 -0.699414 1.14251 -1.569 -1.84233 11.1018 -10.6851
700 0.426138 -0.363088 -0.454861 -0.487238 0.512478 0.604289 -0.802553 1.14138 -1.36809 -1.66049 11.184 -10.7574
1910 0.35724 -0.158465 -0.311139 -0.631156 0.702126 0.543138 -0.789925 1.12624 -1.54861 -1.88259 10.4203 -9.90804
2400 0.482407 -0.278561 -0.434686 -0.555915 0.542954 0.683567 -0.755774 1.14893 -1.39768 -1.66825 11.0217 -10.5159
710 0.442623 -0.170812 -0.354628 -0.599255 0.645395 0.580522 -0.78705 1.16985 -1.42832 -1.74962 10.5167 -10.0134
1634 0.47748 -0.252437 -0.443037 -0.457906 0.566962 0.58109 -0.842895 1.18781 -1.36 -1.71312 10.9724 -10.5398
2075 0.325763 -0.136941 -0.285656 -0.549936 0.700971 0.54563 -0.833946 1.07943 -1.48173 -1.85374 10.5227 -10.0053
1393 0.442083 -0.206519 -0.401119 -0.545908 0.660593 0.559964 -0.846878 1.15819 -1.37849 -1.73725 10.8708 -10.3473
350 0.455302 -0.0923901 -0.306893 -0.621467 0.651418 0.580347 -0.914347 1.07508 -1.52217 -1.84166 10.5616 -10.0424
339 0.511937 -0.482352 -0.523719 -0.373652 0.418944 0.658485 -0.826827 1.184 -1.1329 -1.4749 11.7878 -11.3862
1538 0.378797 -0.150838 -0.308503 -0.715403 0.704117 0.595442 -0.795503 1.13884 -1.57617 -1.88365 10.5296 -10.1204
1399 0.381463 -0.151871 -0.358483 -0.641993 0.676467 0.617764 -0.826501 1.07514 -1.47968 -1.77707 10.7624 -10.2947
1550 0.498983 -0.409428 -0.477232 -0.41156 0.502691 0.619288 -0.868046 1.13525 -1.22956 -1.55664 11.4979 -11.0985
2168 0.396051 -0.186495 -0.365515 -0.519675 0.621909 0.624715 -0.781695 1.19727 -1.48767 -1.75712 10.8482 -10.4077
308 0.298935 -0.119586 -0.27653 -0.649188 0.688141 0.517855 -0.750164 1.09298 -1.54525 -1.93004 10.4991 -9.95462
734 0.505654 -0.507569 -0.544608 -0.512056 0.507396 0.535497 -0.723104 1.20891 -1.40088 -1.60827 11.5525 -11.1714
304 0.279728 -0.0939218 -0.321506 -0.8195 0.691866 0.565337 -0.628497 1.10227 -1.68038 -2.03212 10.4042 -9.89636
685 0.367646 -0.296101 -0.429376 -0.748788 0.666718 0.508519 -0.578066 1.14374 -1.71782 -1.99462 10.8484 -10.3726
693 0.283165 -0.0327028 -0.277138 -0.833299 0.793534 0.515228 -0.517828 1.14664 -1.85767 -2.17698 10.4892 -9.78312
261 0.434963 -0.0569734 -0.314558 -0.684741 0.650429 0.403002 -0.433272 1.14145 -1.57866 -1.82042 9.6824 -9.01585
1158 0.394248 -0.231227 -0.357511 -0.684608 0.64589 0.421054 -0.503674 1.21412 -1.43278 -1.59288 10.4483 -9.89119
654 0.29452 -0.194799 -0.320542 -0.680905 0.798575 0.528188 -0.371338 1.12642 -1.71838 -1.68704 9.83355 -9.15706
492 0.352793 -0.449501 -0.524254 -0.560704 0.716613 0.560606 -0.587796 1.1347 -1.38252 -1.54637 10.7661 -10.101
186 0.458475 -0.569196 -0.472122 -0.616317 0.726043 0.571075 -0.595126 1.24517 -1.36437 -1.38711 11.3391 -10.9422
639 0.231536 -0.285352 -0.294555 -0.848661 0.869573 0.558398 -0.490946 1.13862 -1.70586 -1.79663 10.354 -9.69628
1194 0.501002 -0.425146 -0.449186 -0.605706 0.620209 0.528665 -0.580809 1.12858 -1.40143 -1.49273 11.0835 -10.609
175 0.348864 -0.344317 -0.295231 -0.654895 0.64434 0.525369 -0.323771 1.09757 -1.49923 -1.47819 9.95779 -9.453
1708 0.528971 -0.256923 -0.403498 -0.596193 0.511853 0.544555 -0.515759 1.16016 -1.38152 -1.61127 10.2497 -9.70602
1565 0.388305 -0.066965 -0.251136 -0.745986 0.632235 0.518262 -0.407294 1.09734 -1.48019 -1.79623 9.26146 -8.62308
600 0.376831 -0.12848 -0.289088 -0.648332 0.555845 0.394835 -0.339077 1.00949 -1.41774 -1.70721 9.63965 -8.94602
1311 0.513661 -0.413065 -0.459602 -0.504049 0.526665 0.528642 -0.532724 1.16088 -1.29098 -1.58282 10.7914 -10.1816
1124 0.364571 -0.1238 -0.273514 -0.702323 0.724214 0.473071 -0.461669 1.04003 -1.62908 -1.90065 9.38198 -8.63519
1630 0.565462 -0.577293 -0.475565 -0.494502 0.562217 0.458987 -0.647676 1.23023 -1.2358 -1.51654 11.42 -10.7498
1914 0.490302 -0.364211 -0.41354 -0.469796 0.669097 0.531837 -0.707018 1.13009 -1.38962 -1.76484 10.4226 -9.77898
621 0.367188 -0.165466 -0.258038 -0.673033 0.760593 0.430228 -0.567986 1.08015 -1.63336 -1.99818 9.38108 -8.63511
846 0.228134 -0.0865352 -0.18149 -0.878244 0.845181 0.385982 -0.472443 0.989073 -1.70102 -2.07149 9.23921 -8.52408
2292 0.47383 -0.279112 -0.349679 -0.606015 0.756205 0.679229 -0.663962 1.09112 -1.53996 -1.86545 10.0563 -9.33081
1743 0.344813 -0.121394 -0.250689 -0.718876 0.801993 0.516618 -0.512912 1.11539 -1.72097 -1.96985 9.46363 -8.60278
292 0.220407 -0.00272523 -0.484673 -0.626374 0.770638 0.562376 -0.465942 1.09624 -1.55458 -1.9656 9.60676 -8.94593
906 0.285466 -0.147396 -0.357705 -0.637253 0.81316 0.538251 -0.498205 1.04848 -1.64552 -1.79591 9.83777 -9.24021
1325 0.521367 -0.316893 -0.475785 -0.547391 0.790847 0.406337 -0.6281 1.18164 -1.52137 -1.5436 11.2913 -10.7287
523 0.304385 -0.000336679 -0.45347 -0.627301 0.826434 0.458522 -0.605374 1.13504 -1.64217 -1.86866 9.65222 -9.0052
1622 0.474782 -0.267526 -0.455523 -0.600611 0.727325 0.399665 -0.588565 1.39295 -1.43403 -1.70699 11.4679 -10.8615
2085 0.328822 -0.012147 -0.354124 -0.638403 0.876348 0.4235 -0.514536 1.03804 -1.70813 -1.89946 9.34308 -8.70259
1469 0.346677 -0.15693 -0.518569 -0.617512 0.749092 0.502787 -0.606245 1.05572 -1.48547 -1.80596 10.0523 -9.32483
1610 0.33111 0.126955 -0.285206 -0.846642 0.965163 0.333009 -0.599819 1.06425 -1.84355 -2.12478 9.34927 -8.49931
1636 0.500202 -0.269218 -0.483326 -0.497146 0.694989 0.575431 -0.58571 1.0641 -1.53797 -1.71448 10.1383 -9.41052
1611 0.5634 -0.343823 -0.413231 -0.482692 0.545275 0.371418 -0.558322 1.06102 -1.32912 -1.57918 10.5373 -9.88766
378 0.409611 0.0157122 -0.242391 -0.68545 0.764543 0.396427 -0.459378 1.03297 -1.67966 -1.9149 9.30814 -8.6372
2316 0.444615 -0.244981 -0.401513 -0.507544 0.510165 0.565845 -0.409283 1.09543 -1.38031 -1.64384 9.82761 -9.24399
1188 0.433568 -0.0707717 -0.283978 -0.648446 0.641849 0.497053 -0.377509 1.03334 -1.55325 -1.80142 9.41623 -8.76676
728 0.358517 -0.205098 -0.294686 -0.701028 0.597841 0.56067 -0.413639 1.09134 -1.54997 -1.8095 9.5257 -8.8395
2403 0.521885 -0.278266 -0.542866 -0.458648 0.57778 0.516326 -0.556667 1.14953 -1.43317 -1.59454 10.3519 -9.77474
968 0.405318 -0.0298587 -0.393149 -0.678471 0.835235 0.482872 -0.512626 1.03632 -1.76376 -1.81055 9.70326 -9.02689
1573 0.311756 -0.22334 -0.685729 -0.446643 0.654505 0.552932 -0.529463 1.16059 -1.39926 -1.60522 10.707 -10.1879
2414 0.152368 -0.0547125 -0.488859 -0.646784 0.722615 0.585078 -0.51558 1.02461 -1.52949 -1.95179 9.53881 -8.85267
674 0.209059 -0.0216117 -0.447113 -0.701587 0.896865 0.482382 -0.521708 1.17654 -1.53172 -1.85633 9.80082 -9.06916
2297 0.295708 -0.186136 -0.388802 -0.699934 0.837781 0.597654 -0.47266 1.09185 -1.70766 -1.7754 9.88774 -9.18414
1806 0.402082 -0.290056 -0.51938 -0.527348 0.713894 0.575608 -0.584362 1.07928 -1.50574 -1.54536 10.8244 -10.2215
776 0.33107 -0.157657 -0.392683 -0.668857 0.892713 0.459763 -0.629235 1.17548 -1.6706 -1.83107 9.95255 -9.24773
1569 0.511085 -0.365917 -0.461209 -0.574636 0.554462 0.570053 -0.783966 1.23204 -1.37925 -1.63444 11.2337 -10.9182
2100 0.364583 -0.134158 -0.35699 -0.906828 0.713429 0.482545 -0.658063 1.17036 -1.64332 -1.94329 10.371 -9.87245
1785 0.446499 -0.345365 -0.568236 -0.703308 0.638701 0.559113 -0.618305 1.24473 -1.68973 -2.02187 11.0967 -10.6209
1663 0.349885 -0.111639 -0.403096 -0.754904 0.831546 0.486759 -0.561386 1.17753 -1.92414 -2.19633 10.4046 -9.75201
2241 0.444809 -0.223797 -0.450071 -0.768309 0.797237 0.467994 -0.545523 1.17503 -1.9987 -2.28037 10.6622 -10.0866
1523 0.315518 -0.0834102 -0.267451 -0.801998 0.892917 0.41781 -0.594267 1.18308 -2.03061 -2.31818 10.3249 -9.70681
1943 0.365948 -0.07961 -0.264978 -0.89443 0.951444 0.415588 -0.454586 1.1764 -1.9864 -2.29212 10.4493 -9.74959
690 0.497845 -0.217231 -0.514131 -0.769082 0.854924 0.547098 -0.702812 1.23112 -2.03591 -2.36002 10.9733 -10.3283
2061 0.451478 -0.167 -0.420593 -0.716043 0.799929 0.550634 -0.64137 1.16446 -1.87084 -2.15761 10.5654 -9.97843
77 0.571874 -0.583942 -0.641701 -0.42756 0.601989 0.463731 -0.765808 1.3585 -1.60557 -1.80353 11.7522 -11.4118
1824 0.566063 -0.551901 -0.613588 -0.520196 0.635373 0.43948 -0.732656 1.36806 -1.63014 -1.85369 11.9542 -11.5849
1403 0.576554 -0.450854 -0.587304 -0.489988 0.487637 0.596343 -0.773985 1.31902 -1.45559 -1.69161 11.8141 -11.4782
1197 0.400082 -0.227813 -0.432645 -0.773193 0.632397 0.53661 -0.684562 1.12742 -1.59696 -1.86659 10.784 -10.2654
572 0.583332 -0.504656 -0.677134 -0.539421 0.496291 0.563965 -0.813102 1.30223 -1.25531 -1.60069 12.2507 -11.8253
1629 0.523653 -0.372582 -0.541177 -0.563793 0.502427 0.65412 -0.90964 1.25026 -1.33624 -1.6451 11.3397 -11.0836
2432 0.361145 -0.14606 -0.290357 -0.635559 0.677394 0.567623 -0.704779 1.15728 -1.54468 -1.88567 10.4697 -9.91159
2083 0.430788 -0.283265 -0.420373 -0.658829 0.641943 0.53931 -0.799045 1.08931 -1.42232 -1.70405 11.1546 -10.6614
2215 0.557854 -0.562518 -0.538926 -0.480241 0.435414 0.475862 -0.798733 1.32785 -1.19114 -1.43758 12.376 -12.0246
480 0.223061 -0.0407777 -0.231907 -0.760568 0.720442 0.442322 -0.557752 1.18361 -1.84294 -2.10022 10.2926 -9.82987
2 0.385388 -0.0976386 -0.331867 -0.870432 0.851328 0.532363 -0.659765 1.28013 -1.69723 -2.01077 10.7067 -9.99531
2050 0.382493 0.0938331 -0.0831053 -1.12209 1.02377 0.219869 -0.559313 1.18113 -1.93606 -2.30038 10.0107 -9.36717
1140 0.435244 -0.0956289 -0.363216 -0.739651 0.925953 0.485008 -0.550033 1.11233 -1.77688 -2.15632 10.5337 -9.88418
607 0.593713 -0.54815 -0.503657 -0.56318 0.686555 0.450093 -0.583581 1.37235 -1.2169 -1.61898 12.4396 -12.1177
2156 0.376291 -0.272073 -0.314949 -0.697149 0.894088 0.511109 -0.438046 1.16175 -1.73017 -2.16577 10.6822 -10.1474
2473 0.651907 -0.619327 -0.506439 -0.636577 0.763935 0.419573 -0.666317 1.51189 -1.22577 -1.61626 13.0934 -12.8279
2474 0.661164 -0.464903 -0.454394 -0.528896 0.698641 0.588037 -0.582374 1.30721 -1.33603 -1.77124 11.9356 -11.5131
1472 0.672392 -0.535299 -0.551876 -0.534916 0.714083 0.525012 -0.672026 1.33572 -1.23236 -1.67087 12.5394 -12.2005
1837 0.335906 -0.182736 -0.372003 -0.762268 0.85172 0.555456 -0.381097 1.09249 -1.61003 -2.07876 10.4551 -9.82619
664 0.50101 -0.357144 -0.43788 -0.634756 0.796886 0.518023 -0.582736 1.28691 -1.52187 -1.84706 11.1619 -10.7318
888 0.379389 -0.0922874 -0.19508 -0.887861 1.09355 0.360371 -0.58049 1.22194 -1.75536 -2.16563 10.4906 -9.96932
1340 0.554014 -0.386593 -0.504597 -0.61497 0.739772 0.642922 -0.551673 1.24649 -1.51628 -1.83203 11.4542 -11.0021
651 0.526179 -0.405429 -0.41192 -0.58646 0.787454 0.557161 -0.588486 1.2545 -1.492 -1.85612 11.6129 -11.1519
1423 0.329674 -0.050163 -0.188463 -0.939479 1.05054 0.332181 -0.508995 1.12683 -1.76465 -2.22777 10.2802 -9.69344
1461 0.400251 -0.239102 -0.36225 -0.766874 0.831751 0.51636 -0.51533 1.15815 -1.57394 -1.96972 10.9363 -10.4159
815 0.472595 -0.444062 -0.435916 -0.566548 0.714681 0.526809 -0.572651 1.3032 -1.43114 -1.79975 11.5318 -11.1136
2275 0.514415 -0.279577 -0.394256 -0.670899 0.759549 0.640278 -0.566945 1.27677 -1.53094 -1.88385 11.1272 -10.6313
170 0.592528 -0.552192 -0.466046 -0.608325 0.739783 0.462115 -0.626793 1.40152 -1.2499 -1.72855 12.8741 -12.5293
1896 0.537791 -0.55424 -0.537332 -0.522785 0.68305 0.574929 -0.598666 1.35616 -1.23737 -1.70025 12.348 -11.9616
1385 0.694278 -0.532582 -0.493653 -0.497748 0.673221 0.587588 -0.704861 1.33007 -1.35094 -1.71346 12.0079 -11.5968
812 0.441669 -0.172002 -0.265504 -0.698538 0.903307 0.551667 -0.506825 1.15993 -1.5755 -2.05815 10.7528 -10.1851
1071 0.385841 -0.0718797 -0.340914 -0.822678 0.974059 0.596436 -0.449619 1.18285 -1.71826 -2.07926 10.5857 -9.88001
558 0.550962 -0.557183 -0.48444 -0.616469 0.714656 0.448166 -0.603598 1.48764 -1.21876 -1.70006 12.8911 -12.5997
1997 0.421555 -0.176855 -0.37943 -0.684883 0.827936 0.634598 -0.412178 1.1647 -1.68425 -2.05254 10.5922 -9.93986
1105 0.544208 -0.497763 -0.547015 -0.396039 0.617372 0.634776 -0.582365 1.25168 -1.32461 -1.7344 11.9881 -11.6296
2318 0.324252 -0.0769189 -0.392979 -0.803114 0.93067 0.565981 -0.408307 1.09105 -1.66664 -2.13434 10.2051 -9.63186
236 0.638393 -0.50335 -0.540527 -0.495266 0.711554 0.498223 -0.594271 1.30051 -1.23535 -1.67535 12.1552 -11.8818
2389 0.672387 -0.584229 -0.463173 -0.637005 0.739499 0.42588 -0.603451 1.4428 -1.22764 -1.65569 12.9872 -12.7573
134 0.415603 -0.0429711 -0.160621 -0.89019 1.00513 0.3586 -0.545211 1.17742 -1.80744 -2.22991 10.4288 -9.8452
1787 0.64449 -0.544772 -0.532095 -0.590719 0.662237 0.501756 -0.619443 1.39252 -1.21832 -1.63994 12.5981 -12.2006
2313 0.420322 -0.092787 -0.226035 -0.883345 0.918496 0.505866 -0.447082 1.1418 -1.77252 -2.24065 10.5395 -9.8786
1803 0.547731 -0.447134 -0.503132 -0.475746 0.688589 0.629366 -0.623453 1.19153 -1.40808 -1.77372 11.6198 -11.1283
93 0.50835 -0.471143 -0.483052 -0.619248 0.675263 0.47407 -0.630846 1.29781 -1.45018 -1.46557 11.7424 -11.2868
1756 0.336774 -0.395874 -0.418313 -0.664281 0.78436 0.615414 -0.488875 1.08885 -1.60321 -1.6031 10.4943 -9.96711
111 0.473142 -0.274328 -0.533889 -0.563114 0.743954 0.499189 -0.627489 1.27286 -1.42225 -1.55655 10.7512 -10.1174
454 0.305865 -0.000639052 -0.318719 -0.692882 0.88503 0.329938 -0.510612 1.09314 -1.71509 -1.8956 9.42519 -8.68081
1335 0.408674 -0.106763 -0.48335 -0.536585 0.78957 0.459627 -0.601509 1.10067 -1.65593 -1.79548 10.0705 -9.4207
344 0.450073 -0.0447775 -0.302445 -0.729838 0.808535 0.453325 -0.472793 1.06299 -1.77973 -1.96197 9.3369 -8.47913
1225 0.58842 -0.511692 -0.528129 -0.663621 0.818204 0.394713 -0.713995 1.46321 -1.28222 -1.74663 13.0014 -12.6305
1788 0.612005 -0.531735 -0.530609 -0.483911 0.729037 0.547228 -0.632565 1.36901 -1.26251 -1.74019 11.9554 -11.618
2415 0.398089 -0.158087 -0.292739 -0.788157 0.947236 0.488116 -0.427317 1.13414 -1.65465 -2.18006 10.2927 -9.77317
295 0.610419 -0.508075 -0.515709 -0.505467 0.669258 0.547542 -0.606096 1.31941 -1.29424 -1.65243 12.0286 -11.6813
1493 0.41998 -0.233668 -0.357942 -0.69242 0.833484 0.632019 -0.539119 1.20747 -1.64589 -1.98982 10.9659 -10.3349
1162 0.563531 -0.522416 -0.565267 -0.575166 0.71022 0.504848 -0.631563 1.41556 -1.29406 -1.6251 12.5138 -12.1845
1890 0.545691 -0.417793 -0.595601 -0.472322 0.734517 0.639018 -0.568531 1.30833 -1.28812 -1.73255 12.0468 -11.5307
1930 0.407286 -0.0705033 -0.282487 -0.758193 0.905151 0.567866 -0.42823 1.10962 -1.74749 -2.1875 10.4667 -9.83236
1139 0.497827 -0.276564 -0.34562 -0.696912 0.891958 0.539757 -0.588462 1.14066 -1.68352 -2.05647 10.9967 -10.4494
428 0.423164 -0.142732 -0.319503 -0.737025 0.956415 0.601182 -0.480239 1.20202 -1.63348 -2.10076 10.5255 -9.92805
16 0.517768 -0.426894 -0.487311 -0.628536 0.737338 0.503827 -0.66475 1.43927 -1.25017 -1.67501 12.7545 -12.4723
2281 0.648202 -0.445987 -0.483199 -0.598293 0.72027 0.633256 -0.618531 1.24893 -1.33128 -1.7978 11.941 -11.5469
2182 0.408884 -0.0929287 -0.263332 -0.744493 1.00123 0.418612 -0.605901 1.1588 -1.80202 -2.17348 10.4939 -9.85776
285 0.529517 -0.31036 -0.450688 -0.604154 0.789774 0.637747 -0.5048 1.17536 -1.52816 -2.00801 11.1037 -10.502
1497 0.566194 -0.414011 -0.543318 -0.436579 0.705741 0.586047 -0.604805 1.26424 -1.24887 -1.67762 11.9373 -11.4917
451 0.523887 -0.391244 -0.407509 -0.62152 0.827847 0.429111 -0.667178 1.27298 -1.40925 -1.77634 11.7476 -11.343
2049 0.571646 -0.527702 -0.579351 -0.561013 0.690245 0.505498 -0.583698 1.44932 -1.2617 -1.66294 12.7446 -12.4411
1590 0.377736 -0.213633 -0.37666 -0.666132 0.814238 0.607641 -0.394751 1.17336 -1.59029 -2.03972 10.6381 -10.0887
1496 0.412495 -0.136847 -0.212791 -0.866573 0.995564 0.497067 -0.473283 1.19068 -1.67995 -2.18114 10.4593 -9.94995
1797 0.581367 -0.422518 -0.439693 -0.597529 0.836167 0.48499 -0.677941 1.36151 -1.42246 -1.80634 11.9606 -11.5481
1245 0.432795 -0.0586054 -0.214019 -0.848519 1.05623 0.383311 -0.611358 1.18141 -1.80329 -2.1817 10.4965 -9.89216
2386 0.463424 -0.11607 -0.28797 -0.756513 0.996444 0.427922 -0.494224 1.24409 -1.7272 -2.12698 10.6717 -10.1218
1657 0.652014 -0.52086 -0.52443 -0.580037 0.766107 0.544172 -0.628805 1.41541 -1.3418 -1.7606 12.66 -12.3035
725 0.376995 -0.209718 -0.341216 -0.821018 0.830893 0.563173 -0.276796 1.0606 -1.66252 -2.12855 10.3675 -9.80673
2259 0.543054 -0.433941 -0.552529 -0.477678 0.6355 0.628934 -0.548508 1.25308 -1.39692 -1.8183 11.4687 -11.0756
1707 0.441674 -0.132799 -0.235212 -0.818173 0.919906 0.488892 -0.468681 1.13827 -1.699 -2.10129 10.5644 -9.89855
2012 0.4381 -0.0943294 -0.269712 -0.867625 1.04996 0.574175 -0.448643 1.19724 -1.79208 -2.26486 10.4619 -9.88061
179 0.501776 -0.32664 -0.462926 -0.637662 0.780462 0.601016 -0.515487 1.22412 -1.55237 -1.94294 11.1735 -10.5972
317 0.555726 -0.43416 -0.572438 -0.462896 0.617086 0.601846 -0.610488 1.1956 -1.3048 -1.70582 11.739 -11.3028
2145 0.371324 -0.17065 -0.329327 -0.749551 0.919289 0.523398 -0.456986 1.15313 -1.63383 -2.11243 10.5905 -9.93891
493 0.544368 -0.5467 -0.523698 -0.564435 0.765805 0.503067 -0.600075 1.42826 -1.29558 -1.73536 12.8257 -12.4516
108 0.680159 -0.584722 -0.554669 -0.486781 0.63314 0.476855 -0.69459 1.42709 -1.29756 -1.59076 12.6364 -12.2713
1746 0.467494 -0.131407 -0.360714 -0.779893 0.947985 0.560296 -0.448733 1.10931 -1.7152 -2.23154 10.4587 -9.96937
605 0.498634 -0.12792 -0.187539 -0.832915 1.07448 0.358487 -0.60663 1.16206 -1.7701 -2.24081 10.6262 -10.0055
675 0.556388 -0.443872 -0.424584 -0.561088 0.772189 0.495663 -0.622192 1.22995 -1.3383 -1.71894 11.6724 -11.1726
1849 0.38895 -0.183003 -0.295915 -0.815862 0.984332 0.494143 -0.511734 1.12834 -1.69787 -2.14381 10.7205 -10.1292
294 0.619866 -0.512605 -0.50951 -0.602859 0.775947 0.44165 -0.61319 1.36109 -1.34208 -1.7936 12.5004 -12.1433
2394 0.471121 -0.0711264 -0.26836 -0.782853 1.07142 0.42252 -0.632184 1.17285 -1.75756 -2.24526 10.6006 -9.99092
662 0.423744 -0.0492752 -0.154438 -0.858626 1.09537 0.366997 -0.60156 1.17931 -1.79024 -2.23054 10.5174 -9.94916
277 0.4788 -0.0583263 -0.219356 -0.815931 1.04289 0.518729 -0.540083 1.1486 -1.74975 -2.23582 10.6595 -10.0263
2489 0.384746 -0.127403 -0.351043 -0.769287 0.882521 0.537946 -0.491591 1.10476 -1.67667 -2.08394 10.4089 -9.78444
354 0.548485 -0.3541 -0.422342 -0.584316 0.823956 0.622654 -0.5954 1.18186 -1.5267 -1.97985 11.092 -10.6325
2266 0.477373 -0.304192 -0.416703 -0.463736 0.693369 0.642989 -0.644029 1.25173 -1.71338 -1.95724 11.2559 -10.7082
2482 0.604616 -0.571873 -0.650497 -0.460937 0.555651 0.561027 -0.732187 1.33678 -1.45095 -1.64868 12.3114 -11.8867
2413 0.382317 -0.149156 -0.429349 -0.823328 0.730429 0.514616 -0.533515 1.21673 -1.77129 -2.06952 10.4655 -9.8686
381 0.567093 -0.545258 -0.621621 -0.466443 0.580467 0.57129 -0.680184 1.29046 -1.5979 -1.80967 11.9216 -11.4305
2443 0.292559 -0.0726924 -0.331224 -0.81137 0.832519 0.433836 -0.534247 1.20509 -1.9565 -2.18598 10.3398 -9.75961
12 0.38767 -0.203985 -0.416674 -0.87999 0.837943 0.451285 -0.60338 1.20106 -1.92357 -2.26614 10.7377 -10.0657
934 0.445668 -0.122218 -0.439527 -0.904414 0.790552 0.44097 -0.604295 1.20415 -1.88351 -2.18342 10.6323 -10.022
1457 0.546961 -0.577384 -0.602698 -0.614227 0.554328 0.523974 -0.699044 1.3042 -1.58093 -1.84904 12.6991 -12.3232
1691 0.468572 -0.238163 -0.534897 -0.730962 0.788742 0.492234 -0.62431 1.21573 -1.87106 -2.14256 10.6889 -10.0756
1739 0.425111 -0.209767 -0.463005 -0.817887 0.661021 0.498922 -0.652957 1.17171 -1.60912 -1.92918 10.435 -9.88009
2327 0.408083 -0.234029 -0.447499 -0.753369 0.744661 0.489645 -0.626324 1.24049 -1.76146 -2.02909 10.9716 -10.3708
1064 0.48457 -0.357651 -0.53277 -0.715424 0.661532 0.511261 -0.619512 1.24893 -1.71984 -1.95221 11.4889 -10.9136
1533 0.505591 -0.53146 -0.549927 -0.584922 0.608968 0.500596 -0.660675 1.30628 -1.59571 -1.83278 12.0062 -11.6318
418 0.309011 -0.163824 -0.395176 -0.838667 0.840582 0.447094 -0.569238 1.17096 -1.91737 -2.2273 10.3416 -9.66385
2465 0.374416 -0.216709 -0.438652 -0.823411 0.689212 0.48328 -0.663905 1.19379 -1.7793 -2.09281 10.952 -10.4553
1693 0.534701 -0.593987 -0.583087 -0.614546 0.535658 0.549434 -0.735258 1.31692 -1.50215 -1.75329 12.0299 -11.6768
30 0.307237 -0.108152 -0.378877 -0.860267 0.745263 0.510035 -0.510407 1.25048 -1.73655 -2.00486 10.371 -9.86706
2139 0.532285 -0.500678 -0.587256 -0.49124 0.469722 0.586519 -0.777753 1.24371 -1.22439 -1.55419 11.8322 -11.4615
2439 0.382674 -0.141513 -0.416794 -0.848911 0.702874 0.50297 -0.618414 1.21439 -1.77531 -2.08037 10.4014 -9.79058
240 0.337385 -0.0898657 -0.339399 -0.897682 0.696621 0.493252 -0.669879 1.15945 -1.62477 -2.02571 10.6317 -10.0573
28 0.563159 -0.517627 -0.62383 -0.561722 0.583866 0.477527 -0.696676 1.31605 -1.51059 -1.78808 12.1261 -11.6917
1437 0.523571 -0.43586 -0.602005 -0.580022 0.574305 0.566453 -0.715913 1.1791 -1.57038 -1.82487 11.3953 -10.9143
2302 0.556854 -0.470113 -0.609431 -0.484492 0.479344 0.550107 -0.797955 1.27706 -1.39871 -1.63705 11.8419 -11.6055
2471 0.450807 -0.281662 -0.484948 -0.746525 0.621266 0.444589 -0.67338 1.28976 -1.59577 -1.86256 11.1763 -10.7803
755 0.330365 -0.11121 -0.36394 -0.826317 0.761958 0.396458 -0.655165 1.14071 -1.7502 -2.05677 10.2612 -9.73214
2197 0.456456 -0.183776 -0.400305 -0.615067 0.677596 0.618386 -0.739775 1.12545 -1.52528 -1.84703 10.4681 -9.90322
1332 0.348884 -0.125095 -0.398191 -0.838866 0.719329 0.445485 -0.616176 1.21616 -1.72505 -1.98412 10.4204 -9.88308
879 0.455043 -0.332679 -0.469586 -0.525327 0.615097 0.611827 -0.721791 1.25091 -1.65047 -1.8759 11.2339 -10.7744
1885 0.352228 -0.312728 -0.354273 -0.447541 0.576235 0.661011 -0.801451 1.20954 -1.45371 -1.70522 11.1657 -10.7699
907 0.346315 -0.0500577 -0.350285 -0.774109 0.687879 0.499561 -0.690154 1.09704 -1.62976 -1.97022 10.4472 -9.92733
972 0.56071 -0.550455 -0.63531 -0.515793 0.473281 0.519764 -0.764904 1.24557 -1.28256 -1.58335 12.225 -11.8268
1451 0.475223 -0.36704 -0.496124 -0.657957 0.666389 0.581194 -0.64048 1.35806 -1.5967 -1.86879 11.4592 -10.9425
546 0.546496 -0.545855 -0.624564 -0.576813 0.560284 0.415208 -0.751144 1.41015 -1.59746 -1.82852 12.5056 -12.176
985 0.314857 -0.0980469 -0.285406 -0.836934 0.856698 0.463323 -0.610556 1.26673 -1.9192 -2.22782 10.4027 -9.65636
1090 0.387167 -0.166718 -0.332761 -0.71765 0.818048 0.485972 -0.576378 1.21463 -1.91388 -2.14053 10.4036 -9.86299
1876 0.305638 -0.0596195 -0.242106 -0.602391 0.720829 0.695281 -0.666645 1.12218 -1.65903 -1.96363 10.4603 -9.76301
1346 0.44452 -0.550059 -0.541938 -0.37388 0.581401 0.502554 -0.753848 1.40079 -1.60622 -1.8623 12.7132 -12.357
601 0.500538 -0.494681 -0.496738 -0.289481 0.448901 0.658492 -0.731275 1.31239 -1.36124 -1.62342 11.7327 -11.4536
1112 0.551308 -0.556389 -0.616969 -0.338686 0.470206 0.663629 -0.690141 1.23153 -1.52957 -1.68412 12.3602 -12.0202
2136 0.356554 -0.12237 -0.325146 -0.765536 0.802835 0.401065 -0.572402 1.31092 -1.9164 -2.14653 10.4239 -9.96201
2198 0.541037 -0.565927 -0.571224 -0.489535 0.517754 0.490841 -0.76962 1.36854 -1.57828 -1.8127 11.9845 -11.6996
2065 0.566826 -0.462921 -0.624763 -0.41285 0.584981 0.664138 -0.70357 1.24503 -1.63307 -1.82633 11.8458 -11.4435
269 0.373 -0.188578 -0.482983 -0.611229 0.773641 0.514858 -0.556726 1.13408 -1.55136 -1.64108 10.447 -9.87524
1211 0.379788 -0.216061 -0.4042 -0.63678 0.852654 0.585849 -0.473838 1.06837 -1.68374 -1.6823 10.0803 -9.44966
66 0.407645 -0.492865 -0.418409 -0.608045 0.736095 0.631671 -0.519404 1.1791 -1.49318 -1.42711 10.925 -10.4459
64 0.417932 -0.468419 -0.484292 -0.578484 0.724549 0.573251 -0.585202 1.15077 -1.48012 -1.48547 10.8334 -10.3848
2164 0.407538 -0.239681 -0.394767 -0.718077 0.864596 0.510293 -0.554148 1.12192 -1.68446 -1.69741 10.1053 -9.60248
760 0.367258 -0.124406 -0.222188 -0.720616 0.847534 0.406652 -0.528285 1.09709 -1.67613 -1.71982 10.0687 -9.4409
391 0.421216 -0.321692 -0.469967 -0.582833 0.595461 0.409436 -0.605585 1.22806 -1.26907 -1.62581 11.0508 -10.3685
847 0.345746 -0.327069 -0.406196 -0.700322 0.756225 0.519302 -0.487809 1.0741 -1.56051 -1.65585 10.132 -9.58783
1528 0.356467 -0.242145 -0.293 -0.673194 0.731804 0.527684 -0.489274 1.16844 -1.6347 -1.78241 10.1104 -9.47769
603 0.226416 -0.236503 -0.301348 -0.721151 0.828872 0.644877 -0.430522 1.04158 -1.74481 -1.84486 9.94509 -9.36723
343 0.460388 -0.473942 -0.509072 -0.558313 0.751411 0.603388 -0.549111 1.17689 -1.51091 -1.4684 11.0354 -10.5849
2267 0.402186 -0.26471 -0.397559 -0.697125 0.786185 0.574957 -0.574582 1.15104 -1.55848 -1.73167 10.1645 -9.54134
1894 0.321222 -0.289609 -0.34083 -0.693024 0.777342 0.534795 -0.458183 1.05762 -1.62224 -1.71279 10.0729 -9.31637
681 0.540215 -0.390696 -0.525591 -0.556829 0.54703 0.40092 -0.605777 1.34756 -1.17769 -1.30296 11.0916 -10.5555
1557 0.250977 -0.0887294 -0.296224 -0.766972 0.67389 0.374658 -0.233663 1.13863 -1.48371 -1.71719 9.37714 -8.82461
2217 0.359947 -0.267813 -0.276839 -0.607939 0.681147 0.587426 -0.479319 1.01121 -1.55153 -1.82584 9.75554 -8.97231
1825 0.221392 -0.114351 -0.161873 -0.825915 0.840469 0.429968 -0.468468 0.980691 -1.74096 -1.98381 9.35689 -8.46849
894 0.517583 -0.484725 -0.506228 -0.599677 0.618242 0.56572 -0.627214 1.25526 -1.29421 -1.63693 11.3279 -10.6881
529 0.402005 -0.4066 -0.436271 -0.577906 0.58105 0.596807 -0.496118 1.18269 -1.36361 -1.56774 10.2409 -9.65369
2301 0.351315 -0.0393177 -0.229218 -0.787646 0.791535 0.412254 -0.481773 1.04645 -1.73562 -1.97766 9.40563 -8.66115
1891 0.485686 -0.203801 -0.404074 -0.525036 0.725006 0.474761 -0.584483 1.07763 -1.49082 -1.69448 10.0914 -9.40215
1919 0.583928 -0.324713 -0.385467 -0.4837 0.588952 0.425727 -0.580204 1.20207 -1.30481 -1.50294 10.5687 -10.0736
1382 0.413155 -0.0889967 -0.22438 -0.676562 0.608655 0.496737 -0.394158 1.01442 -1.58702 -1.83995 9.43694 -8.65539
2476 0.329289 -0.181911 -0.352687 -0.594585 0.535561 0.562766 -0.356632 1.12602 -1.42178 -1.62038 9.45345 -8.82742
718 0.356534 -0.285038 -0.394438 -0.637424 0.571872 0.545017 -0.427815 0.97778 -1.43673 -1.67462 9.82559 -9.13768
235 0.321574 -0.175336 -0.22541 -0.808923 0.773845 0.472652 -0.473055 1.07647 -1.61226 -1.8548 9.30299 -8.66325
2245 0.523669 -0.30156 -0.410805 -0.547176 0.552054 0.516855 -0.572315 1.09812 -1.33501 -1.58383 10.2365 -9.69343
2211 0.358285 -0.145889 -0.356226 -0.565929 0.903109 0.295611 -0.637016 1.09828 -1.64628 -1.84492 9.81223 -9.17302
1921 0.427367 -0.00417864 -0.248142 -0.686257 0.910323 0.344024 -0.577948 1.06455 -1.74845 -1.89009 9.67908 -8.96766
341 0.40713 0.0121313 -0.360929 -0.665938 0.880803 0.451825 -0.491421 1.05653 -1.75858 -1.82107 9.4049 -8.6503
649 0.393993 -0.294327 -0.365996 -0.579425 0.514392 0.515153 -0.367897 1.02655 -1.36869 -1.5926 9.82397 -9.23759
687 0.390999 -0.115199 -0.296197 -0.709591 0.579874 0.617459 -0.28801 1.06744 -1.60864 -1.84034 9.34897 -8.65199
1375 0.336027 -0.0145677 -0.211871 -0.714295 0.663443 0.436119 -0.351991 1.10136 -1.54352 -1.76719 9.33677 -8.60942
2272 0.367418 -0.320808 -0.333346 -0.629694 0.603952 0.493442 -0.488701 1.11686 -1.34251 -1.6152 10.1211 -9.49346
1115 0.295452 -0.0070156 -0.233602 -0.716588 0.670718 0.287605 -0.437273 1.17193 -1.42231 -1.72176 9.22331 -8.57318
1368 0.39302 -0.374133 -0.36536 -0.617211 0.75991 0.581784 -0.573584 1.09432 -1.57569 -1.62495 10.6887 -10.0942
1778 0.449598 -0.356638 -0.450326 -0.59495 0.765968 0.44274 -0.572453 1.25907 -1.5221 -1.50485 11.2913 -10.771
433 0.37451 -0.377902 -0.484337 -0.566687 0.736587 0.552374 -0.539498 1.1431 -1.5385 -1.52677 10.7921 -10.26
1765 0.408036 -0.00204787 -0.360287 -0.714365 0.870585 0.392983 -0.503599 0.985816 -1.61406 -2.05739 9.3122 -8.62589
570 0.290489 -0.238824 -0.435672 -0.490707 0.670121 0.666013 -0.543362 0.991516 -1.51683 -1.9457 9.87906 -9.04158
1539 0.306429 -0.0372227 -0.193982 -0.814373 0.792801 0.325057 -0.518846 1.08935 -1.58695 -1.9069 9.25478 -8.54379
1102 0.323652 0.0229784 -0.35332 -0.726463 0.729388 0.48289 -0.432866 1.14641 -1.59471 -1.96533 9.40899 -8.62212
2174 0.487799 -0.0922552 -0.324185 -0.699584 0.651524 0.449856 -0.493162 1.06136 -1.60724 -1.87698 9.42657 -8.59521
1500 0.292916 -0.293175 -0.310584 -0.747938 0.80523 0.485209 -0.654113 1.04924 -1.52341 -1.86614 10.0155 -9.35826
971 0.548068 -0.293245 -0.481217 -0.436565 0.568744 0.495299 -0.592861 1.23033 -1.38024 -1.59149 10.4035 -9.79823
853 0.42762 -0.275628 -0.610135 -0.516139 0.609531 0.716619 -0.572253 1.15339 -1.27424 -1.65962 10.4714 -9.7514
2112 0.496487 -0.421995 -0.659731 -0.4723 0.527149 0.651235 -0.602891 1.27945 -1.14557 -1.4915 11.1862 -10.5566
2137 0.310935 -0.0543904 -0.261253 -0.753019 0.706224 0.456484 -0.446379 1.03718 -1.57476 -1.87527 9.39944 -8.54417
1574 0.3587 -0.0950261 -0.305558 -0.763306 0.604352 0.418462 -0.405987 1.04812 -1.53616 -1.80632 9.45945 -8.63697
811 0.52393 -0.447475 -0.407296 -0.419243 0.596958 0.584043 -0.631492 1.12834 -1.3855 -1.63161 10.3234 -9.65493
743 0.34402 -0.0283982 -0.39593 -0.673844 0.725635 0.506368 -0.42593 1.09676 -1.56461 -1.85942 9.49563 -8.78033
535 0.408697 -0.0565433 -0.227336 -0.701864 0.681898 0.402574 -0.458919 1.13109 -1.57608 -1.82699 9.30384 -8.60395
1789 0.361046 0.0081441 -0.247898 -0.80491 0.752596 0.412745 -0.48752 1.16219 -1.65862 -1.9337 9.34655 -8.70037
1700 0.482539 -0.327818 -0.504472 -0.576849 0.652275 0.483085 -0.538958 1.09447 -1.388 -1.53402 10.7773 -10.1504
2172 0.411468 -0.0900657 -0.242848 -0.790923 0.751145 0.509454 -0.488543 1.057 -1.61244 -1.81576 9.33715 -8.62989
1652 0.461341 -0.349465 -0.424485 -0.598845 0.696623 0.466609 -0.599338 1.16689 -1.46372 -1.67166 10.6988 -10.0489
531 0.295905 -0.0805415 -0.231874 -0.821733 0.792978 0.565625 -0.5549 1.02673 -1.71439 -2.07342 9.37869 -8.56449
749 0.462168 -0.445819 -0.594487 -0.508503 0.764244 0.544072 -0.720573 1.24092 -1.39649 -1.67675 11.0318 -10.4341
2226 0.143206 -0.0984597 -0.257628 -0.739373 0.977671 0.453175 -0.616605 1.05439 -1.70694 -2.04674 9.63117 -8.90102
1626 0.265014 -0.149138 -0.298077 -0.605949 0.847066 0.459234 -0.60396 1.07349 -1.50349 -1.86794 9.76533 -9.02127
1364 0.555452 -0.391234 -0.502564 -0.587303 0.603829 0.466531 -0.650678 1.27834 -1.30135 -1.61351 11.3428 -10.766
1842 0.429689 -0.316996 -0.380576 -0.615611 0.79154 0.501847 -0.618981 1.24702 -1.59222 -1.70969 10.6371 -10.0359
561 0.325277 -0.260676 -0.323872 -0.752987 0.827296 0.546344 -0.541394 1.13233 -1.64002 -1.73847 9.92902 -9.29717
328 0.479353 -0.0999235 -0.497192 -0.492525 0.779761 0.455831 -0.559114 1.07347 -1.60602 -1.69942 9.85009 -9.2141
2361 0.236987 0.0223671 -0.33025 -0.663997 0.966413 0.387828 -0.530237 1.0569 -1.85507 -2.05798 9.31393 -8.54091
1782 0.273437 -0.182628 -0.536317 -0.546289 0.690551 0.627662 -0.423251 0.994781 -1.37904 -1.77241 9.93513 -9.3198
2022 0.407854 -0.381662 -0.486874 -0.486525 0.596438 0.55712 -0.559425 1.20824 -1.25117 -1.62587 10.8045 -10.2332
2470 0.204427 -0.0417404 -0.281593 -0.811031 0.841916 0.539415 -0.468819 1.02995 -1.65781 -1.92614 9.24544 -8.47626
512 0.457621 -0.496445 -0.422005 -0.555593 0.676364 0.46657 -0.644223 1.19694 -1.35298 -1.69245 10.8933 -10.2553
1811 0.380111 -0.279646 -0.400479 -0.598116 0.66685 0.661746 -0.514045 1.07221 -1.43996 -1.75315 9.84521 -9.0981
42 0.223172 -0.145347 -0.269442 -0.75893 0.718281 0.539462 -0.372024 1.03785 -1.48019 -1.82166 9.34961 -8.67957
989 0.457654 -0.368379 -0.412658 -0.609109 0.65184 0.392012 -0.617142 1.21641 -1.34535 -1.66892 10.8522 -10.3449
1646 0.296224 -0.368073 -0.283487 -0.649657 0.714562 0.472865 -0.636755 1.14159 -1.45275 -1.74698 10.3628 -9.7238
2059 0.317655 -0.11603 -0.203454 -0.866866 0.76692 0.349621 -0.431593 1.05821 -1.5281 -1.77858 9.33279 -8.57689
2138 0.607728 -0.441954 -0.570585 -0.579079 0.703315 0.604858 -0.764197 1.286 -1.28042 -1.72192 11.3593 -10.5722
1546 0.322435 -0.0731943 -0.443302 -0.568511 0.847524 0.41815 -0.578011 1.08669 -1.54802 -1.83726 9.80688 -9.13998
274 0.226248 0.0486399 -0.389168 -0.697905 0.822043 0.532258 -0.514256 1.08742 -1.65775 -1.99242 9.41137 -8.66674
2341 0.288095 -0.102713 -0.34864 -0.604624 0.725208 0.379156 -0.5033 1.13133 -1.47658 -1.73223 9.94015 -9.26408
182 0.329318 -0.0454237 -0.197921 -0.741427 0.85068 0.322153 -0.593479 1.13658 -1.65325 -1.9279 9.22392 -8.51771
1241 0.286657 -0.0913906 -0.206266 -0.82587 0.788779 0.499037 -0.47806 1.14237 -1.66681 -2.02443 9.41888 -8.65853
212 0.296085 -0.085698 -0.0882547 -0.773938 0.790248 0.48438 -0.510841 1.00766 -1.67384 -2.01309 9.21444 -8.41196
97 0.382906 -0.197579 -0.369161 -0.605827 0.783065 0.560041 -0.484159 1.07128 -1.66605 -1.7599 9.87141 -9.29368
2321 0.521577 -0.48439 -0.479315 -0.562661 0.644705 0.534401 -0.559429 1.19585 -1.40617 -1.43539 11.3478 -10.8713
462 0.33635 -0.380998 -0.485157 -0.569781 0.714581 0.64121 -0.511127 1.14527 -1.59208 -1.51327 10.7508 -10.25
820 0.456397 -0.460059 -0.447473 -0.684277 0.649519 0.505474 -0.542395 1.27472 -1.36081 -1.49553 11.3325 -10.8568
460 0.427252 -0.270332 -0.38697 -0.647825 0.817749 0.5292 -0.597284 1.07656 -1.60479 -1.65027 10.5503 -9.94805
2331 0.317715 -0.246914 -0.30674 -0.760901 0.824371 0.554307 -0.442699 1.12284 -1.68441 -1.67806 10.0432 -9.43069
611 0.42698 -0.23887 -0.504728 -0.44013 0.691882 0.510253 -0.633334 1.08842 -1.46068 -1.64486 10.4286 -9.80363
1861 0.340861 -0.0138829 -0.229311 -0.739364 0.967428 0.355931 -0.548775 1.0711 -1.7709 -1.92111 9.82894 -9.17155
1733 0.530592 -0.274462 -0.451604 -0.523193 0.702402 0.444061 -0.614591 1.24948 -1.45619 -1.42466 10.8405 -10.3277
1917 0.360071 -0.183483 -0.292531 -0.714986 0.913485 0.47656 -0.603863 1.04072 -1.7226 -1.78036 10.0736 -9.41768
1514 0.27162 -0.135851 -0.246975 -0.699068 0.678371 0.471189 -0.425627 1.02742 -1.55996 -1.88574 9.28635 -8.67209
162 0.452518 -0.185588 -0.254327 -0.624155 0.62072 0.492789 -0.443123 1.07596 -1.50114 -1.75486 9.46663 -8.80132
2117 0.494016 -0.370372 -0.496454 -0.436551 0.50265 0.509676 -0.524515 1.13783 -1.2784 -1.51879 10.8592 -10.2465
1670 0.250513 -0.0428333 -0.504925 -0.56363 0.750245 0.51479 -0.407732 1.00254 -1.40847 -1.85948 9.65731 -9.05397
1018 0.242351 -0.0872978 -0.524641 -0.619001 0.767186 0.608311 -0.512829 0.997849 -1.52203 -1.83042 9.90905 -9.19502
1290 0.438574 -0.324138 -0.619967 -0.385774 0.4689 0.637214 -0.481429 1.08647 -1.23645 -1.57328 10.4988 -9.83831
10 0.302398 -0.192121 -0.348531 -0.70425 0.681548 0.602145 -0.418308 1.11122 -1.51857 -1.82161 9.65353 -8.98925
836 0.222909 -0.167046 -0.272337 -0.716753 0.772388 0.594197 -0.56203 1.03961 -1.57428 -1.95942 9.44896 -8.437
1284 0.462305 -0.347746 -0.487266 -0.664379 0.551778 0.512049 -0.553567 1.18164 -1.31623 -1.66206 10.9893 -10.3371
1672 0.339354 -0.0941151 -0.258672 -0.692769 0.903893 0.366098 -0.560573 0.980902 -1.70645 -1.8423 9.3754 -8.76446
2124 0.151731 0.00820494 -0.426472 -0.673407 0.796448 0.397495 -0.431781 1.01492 -1.56085 -1.84428 9.44179 -8.84583
1767 0.432448 0.00159632 -0.40275 -0.678153 0.912209 0.431627 -0.505938 0.947058 -1.83458 -1.90511 9.4629 -8.79861
419 0.538274 -0.284829 -0.470057 -0.52868 0.779627 0.405117 -0.646452 1.2334 -1.49684 -1.5412 10.9077 -10.3485
2332 0.263387 -0.150804 -0.479403 -0.579097 0.706774 0.499155 -0.366524 1.09437 -1.46902 -1.64226 9.68319 -8.9985
1356 0.351881 -0.0648057 -0.420811 -0.643378 0.83218 0.468202 -0.48994 1.01097 -1.7818 -1.8382 9.7372 -9.08754
2167 0.334634 -0.0294331 -0.412345 -0.675872 0.828734 0.436564 -0.567698 1.11348 -1.60236 -1.83525 9.97951 -9.32121
843 0.444419 -0.331752 -0.581329 -0.505912 0.667483 0.532906 -0.581702 1.13525 -1.39125 -1.52821 11.0283 -10.3548
464 0.330339 0.043377 -0.235294 -0.761895 0.816609 0.341451 -0.450109 1.04674 -1.77756 -2.06748 9.35693 -8.60492
1884 0.448567 -0.386152 -0.639648 -0.512051 0.666703 0.439912 -0.660452 1.27726 -1.2964 -1.61205 11.5402 -10.819
897 0.284285 -0.193445 -0.302699 -0.753063 0.777153 0.674682 -0.490899 1.04973 -1.61231 -1.94003 9.54698 -8.71528
1122 0.360752 -0.366934 -0.593123 -0.538122 0.725052 0.425479 -0.685374 1.19928 -1.34963 -1.66979 11.277 -10.5574
116 0.23594 -0.102254 -0.490217 -0.71689 0.836703 0.64538 -0.530142 1.04662 -1.56631 -1.91731 9.77938 -9.0667
1055 0.232593 -0.0801337 -0.168568 -0.807329 0.806332 0.417427 -0.508226 1.03754 -1.64746 -2.02602 9.32401 -8.54564
369 0.312438 -0.305947 -0.546047 -0.507508 0.690219 0.533962 -0.680656 1.11715 -1.37116 -1.7583 10.6003 -9.98241
1362 0.285537 -0.23985 -0.592685 -0.492587 0.822583 0.545337 -0.628394 1.06691 -1.48234 -1.77788 10.3073 -9.62536
1287 0.272849 -0.167021 -0.300554 -0.478311 0.689724 0.680899 -0.598409 1.08367 -1.66326 -1.94305 10.568 -9.88052
1147 0.544412 -0.57166 -0.673962 -0.449405 0.556902 0.552318 -0.672598 1.36798 -1.44126 -1.72028 12.4329 -12.0333
1968 0.444778 -0.345821 -0.53337 -0.605597 0.661408 0.579538 -0.612557 1.16721 -1.64351 -1.9539 11.2804 -10.6997
1932 0.350552 -0.243418 -0.525178 -0.860533 0.777315 0.448369 -0.529841 1.16618 -1.73977 -2.01156 10.8384 -10.2784
2210 0.39713 -0.255715 -0.497424 -0.788963 0.680243 0.55087 -0.625413 1.21007 -1.62152 -1.95462 10.9772 -10.4786
838 0.494225 -0.268755 -0.459866 -0.541198 0.627759 0.603603 -0.815915 1.17123 -1.39275 -1.70432 10.7939 -10.251
1677 0.504025 -0.274329 -0.588671 -0.736335 0.657641 0.569566 -0.736114 1.18316 -1.58071 -1.92346 11.2122 -10.6464
1017 0.42767 -0.129018 -0.438438 -0.972098 0.770603 0.452813 -0.603066 1.13624 -1.7804 -2.07028 10.3586 -9.77245
532 0.352825 -0.135225 -0.384203 -0.752383 0.818475 0.490645 -0.569175 1.1674 -1.95721 -2.18796 10.2633 -9.7035
1298 0.548455 -0.385311 -0.538724 -0.606165 0.633705 0.569454 -0.701987 1.26302 -1.55478 -1.88477 11.6835 -11.244
272 0.568907 -0.497065 -0.579184 -0.564128 0.523855 0.594623 -0.715035 1.3184 -1.54765 -1.79198 11.9462 -11.5596
1725 0.492699 -0.568267 -0.568723 -0.59607 0.542073 0.453638 -0.797978 1.4887 -1.44491 -1.68873 12.8525 -12.5493
1549 0.339372 -0.170884 -0.38169 -0.799034 0.757507 0.548497 -0.607567 1.2072 -1.87876 -2.1622 10.7711 -10.2549
2178 0.415634 -0.282669 -0.371892 -0.634753 0.855515 0.526935 -0.555208 1.29466 -1.94253 -2.19692 11.0207 -10.4497
1848 0.417555 -0.299613 -0.426916 -0.594225 0.752387 0.483366 -0.64894 1.25064 -1.71738 -1.98016 11.1098 -10.5678
2406 0.336135 -0.200766 -0.424785 -0.856 0.699642 0.423205 -0.535636 1.21433 -1.63942 -1.94729 10.3211 -9.68584
293 0.299944 -0.0969062 -0.295885 -0.744162 0.860003 0.409664 -0.496372 1.17884 -2.03484 -2.25023 10.2838 -9.72532
1153 0.511134 -0.413706 -0.583102 -0.634382 0.590657 0.543315 -0.702073 1.32312 -1.41995 -1.75108 11.8666 -11.4107
1517 0.489532 -0.380093 -0.590727 -0.682183 0.592535 0.533832 -0.688632 1.22589 -1.49393 -1.75471 11.4104 -10.9407
359 0.421889 -0.229895 -0.404274 -0.732347 0.756648 0.5584 -0.612673 1.22789 -1.81531 -2.11075 11.0417 -10.5181
2108 0.433483 -0.424688 -0.445538 -0.27154 0.540129 0.67021 -0.593357 1.22186 -1.57571 -1.71667 11.3878 -10.9338
1024 0.415185 -0.255927 -0.4802 -0.728607 0.650721 0.569038 -0.684052 1.17416 -1.57515 -1.83757 10.9712 -10.3905
2390 0.422092 -0.193933 -0.346115 -0.757613 0.700986 0.613345 -0.711599 1.21121 -1.53543 -1.82012 10.8747 -10.271
1004 0.475716 -0.30683 -0.551373 -0.845209 0.627513 0.536904 -0.668927 1.23438 -1.55275 -1.86065 11.234 -10.7652
1551 0.29783 -0.0933254 -0.378608 -1.05954 0.762365 0.476094 -0.535804 1.13239 -1.81125 -2.14016 10.4472 -9.91582
2144 0.420548 -0.248014 -0.466295 -0.674781 0.665978 0.522918 -0.669865 1.14635 -1.7327 -1.95178 10.6054 -10.1667
2285 0.383393 -0.221115 -0.315766 -0.683993 0.837337 0.457552 -0.644624 1.31825 -1.87226 -2.17992 10.5819 -10.0117
1240 0.205772 -0.0927387 -0.222666 -0.341567 0.707248 0.766197 -0.555652 1.10346 -1.64441 -1.90661 10.4172 -9.81863
1198 0.358934 -0.303247 -0.364641 -0.322556 0.567771 0.73727 -0.604762 1.18755 -1.5335 -1.81437 10.9953 -10.4946
1489 0.288097 -0.216452 -0.309429 -0.312674 0.621445 0.779684 -0.508028 1.12678 -1.58424 -1.84451 10.7176 -10.1298
1911 0.544729 -0.350556 -0.430304 -0.566558 0.850749 0.626304 -0.521337 1.27077 -1.55332 -1.95441 11.3598 -10.8661
1474 0.332786 -0.0977126 -0.465549 -0.668912 0.750948 0.646625 -0.334909 1.10342 -1.59334 -2.05521 10.1793 -9.59371
306 0.454972 -0.225874 -0.40803 -0.646758 0.829348 0.606172 -0.59325 1.17709 -1.62959 -2.04407 10.8103 -10.2418
1588 0.4774 -0.150014 -0.317133 -0.671993 0.917241 0.605301 -0.467239 1.17605 -1.7027 -2.16847 10.6567 -9.98737
1653 0.531497 -0.312493 -0.361357 -0.619242 0.7167 0.55361 -0.553709 1.14558 -1.50963 -1.90884 11.2818 -10.7201
229 0.569866 -0.516498 -0.602567 -0.427569 0.661405 0.668711 -0.581424 1.22572 -1.28327 -1.73864 11.9262 -11.4872
78 0.377826 -0.0186086 -0.190445 -0.824247 1.03008 0.388369 -0.495259 1.08291 -1.69217 -2.14598 10.0509 -9.44479
1412 0.430024 -0.162471 -0.219689 -0.780976 1.00364 0.452663 -0.53368 1.1378 -1.70236 -2.17334 10.3856 -9.84954
557 0.51663 -0.405886 -0.416702 -0.51771 0.711014 0.655949 -0.585045 1.12813 -1.44606 -1.89179 11.2303 -10.7267
1734 0.520139 -0.26832 -0.333398 -0.70186 0.893734 0.496729 -0.571783 1.24571 -1.54218 -1.94414 11.4241 -11.0087
805 0.633069 -0.508808 -0.446454 -0.432754 0.710345 0.658102 -0.62472 1.30093 -1.25754 -1.74352 11.8421 -11.5143
998 0.453385 -0.0483288 -0.237681 -0.82788 1.08964 0.338622 -0.63538 1.09533 -1.80601 -2.26204 10.4409 -9.8138
219 0.667794 -0.385362 -0.455871 -0.539381 0.724023 0.594196 -0.56958 1.32107 -1.44248 -1.80436 11.8396 -11.4488
82 0.378714 -0.0737865 -0.252777 -0.790953 0.923057 0.594306 -0.454362 1.13125 -1.70047 -2.13425 10.4276 -9.87159
1389 0.537918 -0.469732 -0.47858 -0.535436 0.713061 0.497592 -0.639074 1.33338 -1.26883 -1.72323 11.9714 -11.5778
1044 0.571284 -0.304524 -0.43351 -0.56832 0.819543 0.543709 -0.47783 1.17762 -1.35558 -1.85484 11.4099 -11.0257
2125 0.367548 -0.253305 -0.462349 -0.679022 0.791425 0.587995 -0.413669 1.17001 -1.47383 -1.88155 10.7243 -10.2435
2002 0.250799 -0.103279 -0.439834 -0.710209 0.829917 0.63309 -0.390847 1.07695 -1.6713 -2.03896 10.2595 -9.58113
644 0.570927 -0.505068 -0.614838 -0.441716 0.649405 0.646334 -0.613818 1.32537 -1.19401 -1.61574 12.4089 -12.0568
1384 0.254003 0.0516881 -0.485819 -0.589874 0.755182 0.643679 -0.476408 1.09978 -1.50722 -1.88087 9.75393 -9.07428
336 0.398562 -0.391431 -0.630013 -0.47878 0.670104 0.653646 -0.657169 1.14656 -1.39206 -1.71463 10.8256 -10.1758
2348 0.330166 -0.283197 -0.498741 -0.531088 0.760398 0.65019 -0.647288 1.10512 -1.58984 -1.81099 10.0955 -9.3732
1099 0.323518 -0.194522 -0.605697 -0.450296 0.670987 0.618483 -0.498472 1.09373 -1.34457 -1.80859 10.5963 -10.0362
1912 0.330015 -0.049632 -0.52769 -0.543927 0.710775 0.541246 -0.507221 1.099 -1.49112 -1.74085 9.98931 -9.19301
1599 0.132734 -0.137013 -0.385318 -0.696574 0.776628 0.63974 -0.431238 1.009 -1.67792 -2.02656 9.41674 -8.67753
2146 0.415159 -0.358671 -0.339975 -0.554123 0.678364 0.52828 -0.62543 1.10129 -1.52207 -1.82226 10.2198 -9.53214
1632 0.493828 -0.446252 -0.467298 -0.502539 0.537446 0.46669 -0.550372 1.20568 -1.2514 -1.57198 10.7991 -10.1103
1680 0.299899 -0.236769 -0.334487 -0.716174 0.712265 0.494364 -0.509063 1.12159 -1.37738 -1.67895 9.87178 -9.25485
2372 0.4639 -0.218602 -0.263904 -0.593293 0.677577 0.540168 -0.598439 1.10856 -1.53365 -1.82518 9.82683 -9.25649
1794 0.365357 -0.104429 -0.229895 -0.690761 0.707182 0.474086 -0.465092 1.10333 -1.63245 -1.86726 9.29769 -8.69865
386 0.371254 -0.138076 -0.426594 -0.677465 0.875603 0.568112 -0.450901 1.12898 -1.64714 -2.07644 10.3755 -9.8374
415 0.569687 -0.400334 -0.364189 -0.591562 0.787777 0.500147 -0.617216 1.23291 -1.41582 -1.84292 11.7209 -11.2206
564 0.40436 -0.0357141 -0.210769 -0.932076 1.00446 0.399768 -0.536822 1.18747 -1.81711 -2.2373 10.3995 -9.64336
1553 0.604591 -0.523118 -0.486259 -0.523255 0.64392 0.578725 -0.523909 1.33144 -1.30032 -1.67507 12.1645 -11.8003
68 0.304528 -0.00850916 -0.184592 -0.87313 1.00254 0.403854 -0.497236 1.12344 -1.83904 -2.2725 10.464 -9.82499
1148 0.429787 -0.204557 -0.372672 -0.753167 0.821648 0.422769 -0.628713 1.24431 -1.63599 -2.00068 11.0584 -10.4775
2105 0.443525 -0.24607 -0.404256 -0.654459 0.743624 0.683705 -0.542095 1.22074 -1.53693 -1.90717 10.9773 -10.3885
2480 0.518456 -0.213748 -0.302311 -0.747215 0.951756 0.455965 -0.614908 1.24343 -1.64729 -2.06659 10.8891 -10.3023
486 0.320945 -0.0971614 -0.148865 -0.842467 1.08064 0.420116 -0.461817 1.19815 -1.78775 -2.18188 10.4467 -9.86191
1808 0.633598 -0.360928 -0.445371 -0.575414 0.733897 0.62989 -0.641305 1.25941 -1.41369 -1.8309 11.586 -11.238
1006 0.450784 -0.145027 -0.218997 -0.79454 0.971654 0.568058 -0.439305 1.11718 -1.81475 -2.21219 10.4644 -9.82237
1098 0.599121 -0.273403 -0.395177 -0.612348 0.800091 0.580325 -0.527715 1.1415 -1.56869 -1.96485 11.0796 -10.6085
86 0.421301 -0.18379 -0.347016 -0.65805 0.842979 0.665563 -0.372364 1.09928 -1.64919 -2.12236 10.4195 -9.80691
723 0.515737 -0.276283 -0.299855 -0.72094 0.883891 0.426513 -0.661437 1.28592 -1.59588 -2.03315 11.4148 -10.8931
27 0.403819 -0.271188 -0.475212 -0.632489 0.814156 0.684605 -0.442343 1.16649 -1.51311 -1.91527 10.7015 -10.189
125 0.635451 -0.560118 -0.501199 -0.629568 0.702153 0.583736 -0.634846 1.39691 -1.22639 -1.65903 12.5867 -12.3306
2352 0.579575 -0.410125 -0.509515 -0.595235 0.743204 0.698845 -0.563311 1.26124 -1.36788 -1.76144 11.5758 -11.1654
1360 0.373811 -0.177068 -0.270648 -0.799172 0.924873 0.501603 -0.517652 1.14697 -1.72254 -2.11846 10.411 -9.83167
2080 0.420864 -0.158456 -0.280556 -0.785913 0.969562 0.502832 -0.481179 1.18976 -1.73974 -2.18184 10.5542 -10.071
1694 0.595194 -0.527361 -0.484496 -0.496511 0.629305 0.578644 -0.581132 1.28477 -1.26625 -1.75198 12.0922 -11.7155
2055 0.511201 -0.333484 -0.485618 -0.546939 0.672321 0.733724 -0.38409 1.14048 -1.43423 -1.88123 11.0339 -10.5211
1641 0.356883 -0.0549477 -0.424233 -0.678381 0.829527 0.636537 -0.39856 1.16897 -1.60627 -1.99836 10.1795 -9.57776
2185 0.351993 -0.138871 -0.193873 -0.846901 0.96442 0.485235 -0.54282 1.09835 -1.70446 -2.08408 10.4106 -9.86902
1499 0.485794 -0.207128 -0.399878 -0.675417 0.889396 0.606616 -0.49237 1.23062 -1.54588 -1.98974 11.0384 -10.6255
1117 0.371491 -0.231392 -0.503458 -0.549057 0.749887 0.638677 -0.461324 1.00994 -1.52959 -2.01196 10.5926 -10.0064
1902 0.405243 -0.109061 -0.353141 -0.843166 0.874421 0.649128 -0.386824 1.11511 -1.67123 -2.16848 10.4261 -9.85248
2392 0.595813 -0.435987 -0.486522 -0.48666 0.714806 0.68567 -0.571372 1.23542 -1.46386 -1.78577 11.5213 -11.0661
660 0.377155 -0.120332 -0.278423 -0.809242 0.929222 0.520477 -0.497872 1.05727 -1.76967 -2.15456 10.4858 -9.80553
825 0.462276 -0.0638273 -0.26262 -0.79715 1.03169 0.424254 -0.602523 1.11024 -1.81937 -2.17357 10.3116 -9.75526
85 0.542503 -0.424633 -0.589142 -0.470837 0.692448 0.676435 -0.485108 1.26255 -1.39019 -1.77717 11.7501 -11.2391
910 0.459359 -0.175089 -0.395344 -0.716758 0.866152 0.604402 -0.496494 1.14954 -1.73413 -2.10895 10.4683 -9.80325
949 0.545867 -0.202031 -0.279685 -0.746725 0.960537 0.430391 -0.668358 1.26439 -1.72739 -2.12657 11.2364 -10.7464
2123 0.490143 -0.342199 -0.4307 -0.639322 0.814735 0.509802 -0.506153 1.21969 -1.40825 -1.88993 11.4235 -10.9156
1834 0.386184 -0.119264 -0.283515 -0.759124 0.979169 0.459098 -0.555431 1.19882 -1.86084 -2.24642 10.5155 -9.74141
2336 0.248756 -0.0963993 -0.194034 -0.800387 0.785319 0.443169 -0.452697 1.04653 -1.60282 -1.84787 9.25821 -8.61074
1138 0.493449 -0.318953 -0.46887 -0.53658 0.551954 0.577134 -0.531355 1.23253 -1.31128 -1.60525 10.5016 -9.98923
562 0.33582 -0.0124219 -0.303023 -0.753918 0.83314 0.459645 -0.499696 1.12385 -1.64615 -1.9702 9.35467 -8.65153
439 0.507496 -0.33348 -0.353661 -0.549208 0.585696 0.427681 -0.576797 1.29716 -1.35943 -1.51547 11.0246 -10.4302
2154 0.307612 0.0591719 -0.277256 -0.682703 0.759878 0.427206 -0.475598 1.0899 -1.62441 -1.91427 9.30482 -8.55359
1613 0.381675 -0.366445 -0.485761 -0.551218 0.49534 0.535042 -0.454607 1.14027 -1.24618 -1.59486 10.6954 -9.96244
38 0.261685 -0.160896 -0.331784 -0.740791 0.713165 0.583815 -0.42851 1.00426 -1.6434 -2.03503 9.34125 -8.49665
1491 0.367158 -0.148701 -0.353163 -0.717684 0.784063 0.49304 -0.592215 1.05304 -1.53132 -1.8384 9.87835 -9.27135
279 0.223099 -0.165356 -0.204863 -0.841502 0.821562 0.534041 -0.559318 1.0062 -1.59716 -1.95708 9.26823 -8.64948
1640 0.347602 -0.0794798 -0.310174 -0.676578 0.775799 0.483409 -0.486762 1.00829 -1.59582 -1.92762 9.39664 -8.60416
1571 0.546608 -0.24411 -0.340831 -0.570589 0.621065 0.503878 -0.556676 1.1289 -1.37065 -1.64643 10.0426 -9.47355
208 0.241761 -0.191769 -0.194526 -0.822174 0.640095 0.534073 -0.376352 1.0856 -1.50077 -1.81213 9.26087 -8.58446
1407 0.340799 -0.151986 -0.290474 -0.714495 0.59891 0.452768 -0.380947 1.04228 -1.49007 -1.62479 9.36058 -8.77036
1516 0.55411 -0.207177 -0.34696 -0.572557 0.555477 0.465073 -0.533992 1.28381 -1.39855 -1.56843 10.66 -10.0684
326 0.403509 -0.0249493 -0.277444 -0.673482 0.656858 0.435915 -0.418783 1.10279 -1.62957 -1.8875 9.35685 -8.54162
1697 0.668198 -0.555039 -0.534727 -0.461468 0.531499 0.418237 -0.718631 1.45624 -1.19946 -1.47232 11.7106 -11.021
1769 0.536586 -0.329169 -0.507238 -0.564329 0.514027 0.576508 -0.595432 1.28073 -1.18905 -1.50987 10.8249 -10.078
586 0.14039 -0.0118225 -0.433654 -0.697692 0.710458 0.544873 -0.382623 1.07738 -1.53064 -1.87663 9.51454 -8.81856
2074 0.23796 -0.0213894 -0.40334 -0.668947 0.875302 0.462257 -0.435525 1.04278 -1.54358 -1.97363 9.65088 -9.0483
1092 0.272424 0.0315056 -0.469041 -0.626954 0.812722 0.442752 -0.507207 1.0362 -1.58265 -1.86278 9.69598 -9.02237
211 0.271438 -0.129689 -0.488417 -0.50444 0.647518 0.546768 -0.540763 1.10923 -1.37969 -1.78275 9.81459 -9.22557
873 0.242411 -0.0250401 -0.424819 -0.646436 0.774525 0.481579 -0.43178 1.06794 -1.5532 -1.86641 9.55084 -8.76144
2224 0.477857 -0.475305 -0.516834 -0.519627 0.660074 0.564518 -0.607389 1.11358 -1.41506 -1.69479 10.7621 -10.0499
370 0.357655 -0.0990419 -0.254515 -0.65336 0.636487 0.508416 -0.422261 1.03767 -1.55602 -1.79735 9.32629 -8.57455
1413 0.48506 -0.470672 -0.518536 -0.553098 0.617472 0.586515 -0.657861 1.12818 -1.37759 -1.6359 10.8833 -10.2016
507 0.300854 -0.179745 -0.491334 -0.553329 0.758874 0.534853 -0.568333 1.14196 -1.40357 -1.77738 10.2675 -9.65196
1678 0.17914 0.042628 -0.338993 -0.843749 0.907737 0.53796 -0.588888 1.09868 -1.5966 -1.98634 9.4255 -8.76604
373 0.364844 -0.182557 -0.502193 -0.542466 0.823808 0.478061 -0.598805 1.04138 -1.40186 -1.76046 10.1166 -9.48832
778 0.407242 -0.247769 -0.613468 -0.478004 0.690902 0.486256 -0.601368 1.16474 -1.28205 -1.71793 10.8081 -10.2935
1754 0.130854 -0.0308886 -0.520397 -0.641466 0.897689 0.572827 -0.46866 0.949598 -1.66215 -1.94491 9.7169 -8.96122
2408 0.208213 -0.106138 -0.448193 -0.734859 0.782052 0.525188 -0.408516 1.03175 -1.54355 -1.88315 9.54378 -8.84405
1106 0.261619 -0.154024 -0.54795 -0.533501 0.692568 0.634354 -0.479116 1.09955 -1.48306 -1.82892 10.091 -9.44752
1083 0.295696 -0.261684 -0.617998 -0.438715 0.648585 0.546652 -0.531848 1.22808 -1.29144 -1.5101 10.9092 -10.2239
2308 0.141783 -0.0786766 -0.410118 -0.75357 0.73342 0.509834 -0.38956 1.03061 -1.51618 -1.88061 9.55559 -8.88434
827 0.372968 -0.272836 -0.412079 -0.296823 0.622651 0.741069 -0.633314 1.22561 -1.52095 -1.77228 11.1064 -10.6435
173 0.260159 -0.151726 -0.235226 -0.507048 0.687867 0.735855 -0.642885 1.2028 -1.6627 -1.92457 10.7756 -10.0815
2300 0.276828 -0.175285 -0.302719 -0.414861 0.635176 0.767037 -0.505278 1.13107 -1.59463 -1.88013 10.5535 -9.93703
1689 0.222067 -0.0549706 -0.292652 -0.552569 0.659289 0.655324 -0.575943 1.11558 -1.69123 -1.99521 10.4376 -9.84589
232 0.318322 -0.100559 -0.31068 -0.437573 0.758752 0.67651 -0.662216 1.1902 -1.59111 -1.85474 10.3699 -9.79687
2343 0.470314 -0.237426 -0.386417 -0.478893 0.550169 0.687042 -0.840666 1.16406 -1.26373 -1.6333 11.108 -10.6428
978 0.500034 -0.370294 -0.516786 -0.598043 0.555355 0.645876 -0.741392 1.15775 -1.4164 -1.78121 11.2536 -10.8056
47 0.508172 -0.388496 -0.494853 -0.573277 0.533118 0.563636 -0.83844 1.17162 -1.28927 -1.55166 11.4538 -11.0512
241 0.305752 -0.114582 -0.29856 -0.507542 0.720387 0.732472 -0.650614 1.13002 -1.6381 -1.89972 10.4775 -9.95602
1431 0.419241 -0.32269 -0.449352 -0.597245 0.629859 0.518055 -0.638464 1.20829 -1.67169 -1.95235 11.259 -10.7711
1978 0.447587 -0.493373 -0.498216 -0.327125 0.483388 0.63869 -0.603116 1.33779 -1.44163 -1.67537 12.02 -11.6016
1637 0.318539 -0.0996844 -0.31777 -0.732845 0.858813 0.628214 -0.575119 1.23966 -1.92716 -2.26969 10.6662 -9.98064
1269 0.375564 -0.312606 -0.376652 -0.462338 0.475881 0.753654 -0.672993 1.21451 -1.53463 -1.79624 11.3838 -10.992
953 0.659787 -0.589193 -0.63355 -0.314485 0.589165 0.543732 -0.739903 1.35685 -1.4351 -1.70224 12.0883 -11.6809
849 0.537668 -0.619916 -0.632193 -0.63138 0.584772 0.498803 -0.666584 1.35608 -1.54114 -1.79776 12.6727 -12.36
1922 0.38127 -0.178705 -0.437156 -0.74732 0.768963 0.483342 -0.660194 1.08241 -1.8387 -2.12939 10.5703 -9.92322
335 0.419101 -0.389667 -0.551129 -0.461431 0.547763 0.631711 -0.651202 1.30489 -1.46961 -1.72215 11.6981 -11.3114
1577 0.308492 -0.125594 -0.36666 -0.830628 0.859509 0.431745 -0.550575 1.17173 -2.01097 -2.30243 10.3624 -9.69571
2102 0.618649 -0.590917 -0.591166 -0.366861 0.564905 0.577908 -0.749037 1.35141 -1.46237 -1.71871 12.0089 -11.567
1515 0.349289 -0.0982137 -0.361763 -0.947439 0.943401 0.439564 -0.661772 1.1795 -2.05566 -2.31962 10.5399 -9.96914
2289 0.33835 -0.0111924 -0.315591 -0.879415 0.88923 0.497456 -0.531726 1.13107 -1.99289 -2.3046 10.3399 -9.64986
2371 0.519709 -0.338391 -0.533169 -0.710316 0.655313 0.567835 -0.65031 1.28703 -1.68119 -2.0128 11.0706 -10.5352
475 0.371042 -0.0733458 -0.36603 -0.688603 0.798798 0.594941 -0.607788 1.1491 -1.90399 -2.14888 10.4381 -9.79859
628 0.561318 -0.466249 -0.630821 -0.350679 0.599741 0.636834 -0.658346 1.21736 -1.59012 -1.83419 11.7235 -11.1868
893 0.32436 -0.00968721 -0.322264 -0.749396 0.894441 0.500755 -0.545094 1.0749 -2.08452 -2.29806 10.4378 -9.77221
1815 0.463582 -0.472521 -0.550742 -0.373596 0.500601 0.610717 -0.729481 1.28018 -1.4434 -1.72767 11.7505 -11.396
305 0.263066 -0.0505074 -0.263883 -0.738587 0.873003 0.546458 -0.562699 1.17094 -1.96122 -2.28932 10.394 -9.63123
917 0.272562 -0.0973879 -0.331101 -0.844415 0.718828 0.510604 -0.579084 1.20109 -1.66586 -1.96551 10.4392 -9.797
721 0.222982 -0.0775588 -0.22953 -0.763582 0.839009 0.498135 -0.514053 1.10257 -1.86747 -2.12821 10.3686 -9.80282
1792 0.415136 -0.368448 -0.409462 -0.48787 0.673646 0.601171 -0.661685 1.15085 -1.64548 -1.88854 11.1648 -10.5912
163 0.400421 -0.19215 -0.397502 -0.671186 0.755342 0.566903 -0.551133 1.1193 -1.88202 -2.18054 10.5018 -9.85074
1624 0.321636 -0.175393 -0.329002 -0.741682 0.784656 0.557629 -0.460354 1.13969 -1.66215 -1.69721 9.91874 -9.30828
1717 0.379614 -0.286098 -0.412105 -0.617602 0.777271 0.555543 -0.503816 1.08421 -1.6498 -1.58164 10.1615 -9.59083
2029 0.373187 -0.311552 -0.319292 -0.693226 0.801349 0.579518 -0.564069 1.06597 -1.6462 -1.72895 10.1259 -9.45232
1522 0.358173 -0.0245266 -0.380182 -0.680976 0.905094 0.503558 -0.531268 1.03315 -1.79701 -1.88036 9.57818 -8.93667
1398 0.199196 -0.098637 -0.242004 -0.77973 0.833794 0.457268 -0.504173 1.04448 -1.5739 -1.95962 9.40369 -8.58061
2340 0.142002 -0.032517 -0.304438 -0.801591 0.922617 0.431819 -0.525255 1.10129 -1.55834 -1.93525 9.36044 -8.65261
1054 0.41318 -0.0976536 -0.372931 -0.625394 0.824781 0.474927 -0.541737 1.07162 -1.71046 -1.93534 9.51845 -8.7965
2149 0.217414 -0.1917 -0.226239 -0.787745 0.83319 0.615415 -0.532278 1.04774 -1.68701 -2.02836 9.31568 -8.56864
1954 0.528787 -0.44736 -0.477766 -0.548697 0.619832 0.617422 -0.654273 1.1767 -1.2793 -1.66562 10.855 -10.1329
975 0.550686 -0.368569 -0.485097 -0.547346 0.611203 0.541308 -0.60654 1.15942 -1.41796 -1.65114 10.8874 -10.3167
566 0.354391 -0.144034 -0.368854 -0.619156 0.598964 0.47672 -0.352699 1.1011 -1.5148 -1.73059 9.65245 -8.89074
1408 0.190547 -0.170471 -0.250659 -0.763958 0.765407 0.529824 -0.500998 1.03409 -1.64809 -2.01528 9.33901 -8.58084
195 0.37146 -0.410782 -0.402772 -0.540513 0.62689 0.611511 -0.567594 1.25536 -1.3934 -1.71255 10.2409 -9.51254
1867 0.296621 -0.216447 -0.226578 -0.78536 0.714167 0.542238 -0.430762 0.995631 -1.59243 -1.83924 9.42756 -8.67631
1621 0.408495 -0.0116208 -0.165044 -0.712349 0.777239 0.382392 -0.497218 1.05162 -1.74936 -1.98997 9.27165 -8.57514
442 0.496495 -0.489587 -0.504012 -0.566439 0.683732 0.589783 -0.692517 1.16705 -1.27584 -1.65074 11.0451 -10.3322
2078 0.354755 -0.280904 -0.431295 -0.567428 0.665461 0.5438 -0.554011 1.14071 -1.4304 -1.68377 10.3776 -9.74397
496 0.403007 -0.195457 -0.330755 -0.721826 0.684399 0.531455 -0.533463 0.985625 -1.58529 -1.84909 9.84121 -9.08368
1331 0.205909 -0.0244283 -0.476902 -0.678318 0.775707 0.594793 -0.442044 0.983459 -1.59713 -1.94966 9.5829 -8.81265
2086 0.219217 0.106386 -0.336571 -0.772953 0.891142 0.46671 -0.569327 1.07492 -1.60287 -1.96655 9.4732 -8.76915
213 0.272144 -0.201027 -0.456271 -0.631297 0.693274 0.616021 -0.503308 1.02308 -1.4051 -1.75677 9.75402 -9.10609
1757 0.354801 -0.117775 -0.270556 -0.739942 0.771055 0.392797 -0.556166 1.0643 -1.60121 -1.90587 9.44613 -8.77086
1939 0.356656 -0.171138 -0.163149 -0.779091 0.765895 0.40217 -0.455072 1.04849 -1.58788 -1.8983 9.37769 -8.67952
1524 0.297372 -0.0999322 -0.164739 -0.864256 0.789104 0.385269 -0.52364 1.06568 -1.48506 -1.77393 9.19958 -8.53457
899 0.375473 -0.0959114 -0.22887 -0.751314 0.730706 0.493861 -0.410005 1.01183 -1.74212 -1.90829 9.32082 -8.56037
76 0.387012 -0.11965 -0.402025 -0.632763 0.601551 0.530471 -0.446588 1.19344 -1.41928 -1.71407 9.63486 -8.99653
1168 0.385269 -0.1236 -0.221581 -0.755749 0.771367 0.377479 -0.493374 1.1337 -1.64348 -1.91603 9.26455 -8.58259
2420 0.237356 -0.0833331 -0.243961 -0.54375 0.739349 0.5629 -0.559924 1.14677 -1.76159 -2.01183 10.2807 -9.73058
1813 0.446155 -0.215461 -0.409832 -0.673983 0.814784 0.471846 -0.556418 1.21764 -1.88933 -2.17226 10.6664 -10.0429
150 0.370783 -0.120311 -0.406669 -0.984524 0.801575 0.392887 -0.576694 1.19043 -1.86951 -2.12989 10.3498 -9.72577
767 0.346171 -0.100132 -0.369622 -0.71687 0.8225 0.476015 -0.609918 1.14414 -1.92268 -2.17117 10.4238 -9.7262
252 0.312924 -0.0962227 -0.292479 -0.977211 0.882096 0.461934 -0.572109 1.10943 -1.87554 -2.17785 10.3611 -9.7333
1009 0.326536 -0.0887277 -0.339568 -0.809359 0.873807 0.522053 -0.549994 1.10753 -1.91444 -2.221 10.3889 -9.64233
2463 0.345986 -0.0259675 -0.292345 -0.659147 0.824433 0.562701 -0.754574 1.06407 -1.75453 -2.03689 10.3841 -9.70445
2354 0.392 -0.0606586 -0.32811 -0.689911 0.885369 0.568964 -0.571817 1.11347 -1.94232 -2.22776 10.4449 -9.64724
1277 0.284933 -0.140261 -0.229928 -0.571941 0.762907 0.673225 -0.598899 1.13128 -1.75888 -1.98804 10.5708 -10.0504
753 0.270762 -0.0793591 -0.295514 -0.758175 0.743421 0.583859 -0.622642 1.13201 -1.80952 -2.09991 10.3678 -9.83174
2229 0.405045 -0.297471 -0.446201 -0.40535 0.559654 0.842206 -0.656366 1.20562 -1.58052 -1.8306 11.1545 -10.5971
1681 0.45843 -0.42369 -0.548849 -0.345931 0.551475 0.735773 -0.651885 1.2264 -1.47556 -1.72477 11.409 -10.8826
487 0.427238 -0.314594 -0.429798 -0.389473 0.602412 0.743322 -0.623298 1.16171 -1.62163 -1.83088 11.1963 -10.6684
1858 0.420217 -0.266794 -0.469252 -0.50359 0.668991 0.599602 -0.646643 1.17841 -1.63179 -1.89221 11.1402 -10.5378
1065 0.321088 -0.174601 -0.330709 -0.735645 0.639166 0.614861 -0.613779 1.22327 -1.70649 -1.91917 10.827 -10.3386
2452 0.429169 -0.306181 -0.487133 -0.460276 0.504736 0.642222 -0.809752 1.16522 -1.34908 -1.6693 11.1841 -10.8238
2355 0.602772 -0.593704 -0.608377 -0.461167 0.386632 0.614114 -0.827183 1.34129 -1.08602 -1.36748 12.3158 -11.9983
1660 0.285469 -0.0579138 -0.361625 -0.942734 0.797621 0.492027 -0.6386 1.18211 -1.8784 -2.19445 10.2982 -9.80472
1263 0.530469 -0.445355 -0.528324 -0.626965 0.608081 0.570001 -0.671015 1.28814 -1.60328 -1.90028 11.8771 -11.4202
1512 0.422615 -0.261075 -0.392399 -0.59972 0.798336 0.603538 -0.624478 1.21857 -1.87921 -2.09471 10.9131 -10.2986
574 0.35582 -0.131372 -0.388469 -0.81741 0.799403 0.52167 -0.57743 1.12385 -1.83302 -2.23768 10.461 -9.87212
2319 0.363871 -0.193096 -0.348148 -0.564588 0.704006 0.586611 -0.701666 1.25898 -1.7407 -2.01162 10.899 -10.4326
1742 0.409665 -0.223778 -0.431671 -0.793256 0.763304 0.4678 -0.522339 1.29736 -1.87158 -2.14119 10.6719 -10.0683
72 0.34562 -0.19673 -0.435419 -0.781889 0.868036 0.460158 -0.574571 1.22894 -1.94719 -2.26151 10.361 -9.72541
2330 0.269618 -0.0588277 -0.286521 -0.898524 0.776414 0.458488 -0.542262 1.24034 -1.87588 -2.17355 10.369 -9.9041
1109 0.454937 -0.167876 -0.289304 -0.773621 1.00528 0.530294 -0.511359 1.12359 -1.62977 -2.11815 10.7414 -10.2542
1056 0.460392 -0.192411 -0.326807 -0.732746 0.952001 0.53132 -0.45918 1.18844 -1.68193 -2.13764 10.5258 -9.92029
757 0.634482 -0.573912 -0.52024 -0.591607 0.732111 0.472463 -0.658817 1.39661 -1.23337 -1.73331 12.5504 -12.2669
2382 0.525202 -0.274008 -0.318632 -0.624726 0.844131 0.491933 -0.689373 1.22236 -1.63448 -2.02219 11.1688 -10.5613
2280 0.487748 -0.100352 -0.168152 -0.827295 1.04509 0.310946 -0.602749 1.18128 -1.75563 -2.19621 10.5483 -9.89768
2101 0.395209 -0.0753157 -0.281551 -0.835771 0.985773 0.480557 -0.542536 1.12792 -1.7811 -2.20475 10.3604 -9.79118
1903 0.525149 -0.202034 -0.414982 -0.613248 0.877673 0.558173 -0.620743 1.16745 -1.63749 -2.0515 10.8099 -10.241
1462 0.482646 -0.245781 -0.368594 -0.683839 0.879663 0.532 -0.562214 1.13586 -1.58998 -2.08539 10.87 -10.3308
946 0.467215 -0.192701 -0.310491 -0.780219 1.00728 0.391057 -0.594481 1.24299 -1.68562 -2.10382 11.1061 -10.5541
9 0.405154 -0.0063255 -0.188097 -0.915076 1.07883 0.30032 -0.624559 1.23884 -1.74978 -2.18733 10.4525 -9.79351
973 0.31579 -0.114101 -0.286622 -0.808611 0.977226 0.565198 -0.465347 1.12036 -1.69392 -2.03997 10.4414 -9.78426
2205 0.417142 -0.0960754 -0.298016 -0.773454 0.91437 0.537841 -0.505568 1.15586 -1.67586 -2.14108 10.2321 -9.66186
1927 0.314567 -0.084181 -0.256844 -0.87523 0.984185 0.479721 -0.497582 1.16934 -1.76729 -2.19959 10.2606 -9.72078
612 0.588883 -0.426451 -0.459353 -0.661664 0.828041 0.4686 -0.600108 1.30986 -1.39058 -1.87887 11.8589 -11.49
2030 0.158505 0.0645111 -0.463574 -0.593828 0.81844 0.465815 -0.471395 1.07081 -1.53901 -1.97711 9.47495 -8.71594
2455 0.31612 -0.12898 -0.474131 -0.643054 0.782591 0.539239 -0.482586 1.08328 -1.62194 -1.86543 9.8904 -9.15904
2278 0.370243 -0.316856 -0.456885 -0.563418 0.707802 0.556809 -0.548049 1.0817 -1.53976 -1.6813 9.99226 -9.29651
122 0.329952 -0.128612 -0.384612 -0.733301 0.767607 0.656565 -0.537119 0.999385 -1.68329 -1.96752 9.36433 -8.51705
1093 0.396553 -0.118901 -0.30915 -0.669745 0.68476 0.423058 -0.51495 1.10621 -1.54606 -1.84758 9.89429 -9.13252
860 0.45091 -0.372959 -0.489944 -0.511691 0.60266 0.563938 -0.589478 1.09142 -1.40031 -1.63993 10.7131 -10.053
1459 0.295704 -0.169097 -0.204848 -0.808129 0.826287 0.509192 -0.578107 1.00616 -1.73719 -2.04973 9.43604 -8.64753
